-6.591223180294036865e-03 4.957056604325771332e-03 1.468708971515297890e-03 3.108655102550983429e-02 -8.129413239657878876e-03 -9.416810236871242523e-03 -4.405362065881490707e-03 2.446713391691446304e-03 9.955868124961853027e-03 -9.763131849467754364e-03 -7.225447334349155426e-03 1.575361005961894989e-03 -2.375471638515591621e-03 -7.174765691161155701e-03 -2.198325470089912415e-02 1.404724898748099804e-03 4.869173746556043625e-03 6.759178359061479568e-03 -5.272140726447105408e-03 6.129664834588766098e-04 -3.552007023245096207e-03 5.199508275836706161e-03 1.118598133325576782e-02 8.239714661613106728e-04 -1.225808169692754745e-03 3.650573125923983753e-05 7.236301898956298828e-03 9.773353813216090202e-04 4.762672819197177887e-03 1.148230116814374924e-02 -1.916213519871234894e-02 -1.102203410118818283e-02 8.693150244653224945e-03 7.226906018331646919e-04 1.557775493711233139e-02 1.299355830997228622e-02 -1.443009730428457260e-02 9.304498322308063507e-03 -9.585304185748100281e-03 -1.231648307293653488e-02 7.910061627626419067e-03 2.157001290470361710e-03 -2.882255706936120987e-03 -9.192474186420440674e-03 -1.004452351480722427e-02 -7.040599361062049866e-03 1.321018300950527191e-02 -2.874166006222367287e-03 -1.800940744578838348e-02 -4.013874102383852005e-03 -6.713201291859149933e-03 -8.504433557391166687e-03 -1.251096930354833603e-02 -4.097588360309600830e-03 -8.880464360117912292e-03 6.298874039202928543e-03 -1.138703711330890656e-02 2.396428259089589119e-03 -1.314679346978664398e-02 5.531488917768001556e-03 1.233655028045177460e-02 1.656738691963255405e-03 -9.027785621583461761e-03 -4.656055476516485214e-03 1.553781237453222275e-02 7.642379496246576309e-04 3.818606724962592125e-03 -3.519664052873849869e-03 1.292260643094778061e-02 -2.968485001474618912e-03 -1.138024311512708664e-02 6.064380795578472316e-05 4.912465810775756836e-03 -1.005103066563606262e-02 5.437894258648157120e-03 5.037334281951189041e-03 1.482567749917507172e-02 1.068361941725015640e-02 -2.055038465186953545e-03 9.401584975421428680e-03 9.062604513019323349e-04 -2.683909377083182335e-03 -6.921746768057346344e-03 4.572036210447549820e-03 8.357688784599304199e-03 -5.421905778348445892e-03 1.847835443913936615e-02 -5.263336002826690674e-03 9.215561673045158386e-03 -3.584778634831309319e-03 -1.684828777797520161e-03 3.449870040640234947e-03 -2.736489288508892059e-03 4.420198965817689896e-03 -9.946325793862342834e-03 -1.777045079506933689e-03 5.236436612904071808e-03 -1.465976890176534653e-02 7.713420316576957703e-03 6.322034634649753571e-03 -4.587853327393531799e-03 3.572827437892556190e-03 -4.839562810957431793e-03 -9.748377837240695953e-03 -4.906012676656246185e-03 -4.684797022491693497e-03 1.205237302929162979e-02 1.560682523995637894e-02 1.172976940870285034e-02 2.174922730773687363e-03 -2.955099102109670639e-03 -2.032575663179159164e-03 1.635020971298217773e-02 -6.559585221111774445e-03 -1.789862581063061953e-04 -3.317410824820399284e-03 -6.458426825702190399e-03 6.204567616805434227e-04 1.308295316994190216e-02 -8.817099034786224365e-03 2.056960947811603546e-02 5.189831135794520378e-04 -1.947149168699979782e-03 -9.367365390062332153e-03 1.936085708439350128e-02 2.609959105029702187e-03 -2.969606779515743256e-03 1.137554645538330078e-02 8.847604505717754364e-03 8.589340373873710632e-03 7.301935460418462753e-03 -8.208340965211391449e-03 -7.787438575178384781e-03 9.482189081609249115e-03 -4.801520146429538727e-03 -5.861458368599414825e-03 -1.662397384643554688e-02 -1.392102893441915512e-02 -1.312046591192483902e-02 -8.188280276954174042e-03 -3.199466445948928595e-04 -8.510774001479148865e-03 -5.786459427326917648e-03 3.102577058598399162e-03 4.140962846577167511e-03 -1.279273303225636482e-03 6.778721697628498077e-03 -1.187790371477603912e-02 3.837515832856297493e-04 4.247452889103442430e-04 7.546583190560340881e-03 -9.624110534787178040e-03 -8.130541071295738220e-03 6.199575960636138916e-03 -5.422723013907670975e-03 8.427193388342857361e-03 -4.427316132932901382e-03 9.662349708378314972e-03 -1.492086099460721016e-03 -7.250339724123477936e-03 -7.243143394589424133e-03 2.616373589262366295e-03 -6.903882876940770075e-06 7.337468676269054413e-03 -1.394271850585937500e-02 -9.152539074420928955e-03 -7.318510324694216251e-04 -7.735846564173698425e-03 -2.416786737740039825e-02 -4.285757895559072495e-03 1.396945212036371231e-03 -1.646020828047767282e-04 -2.734439214691519737e-03 9.916715789586305618e-04 3.498459933325648308e-03 1.457564625889062881e-02 -2.124814316630363464e-02 2.064278814941644669e-03 5.359769333153963089e-03 1.421356690116226673e-03 7.361029740422964096e-03 7.274065632373094559e-03 -5.595067981630563736e-03 5.408927681855857372e-04 8.924364112317562103e-03 6.699236575514078140e-03 -4.212413914501667023e-03 9.563268162310123444e-03 -8.873740211129188538e-03 7.506068213842809200e-04 -3.199951956048607826e-03 2.292252844199538231e-03 -1.435920014046132565e-03 -1.886428147554397583e-02 -1.666693203151226044e-02 1.905859913676977158e-03 4.809157922863960266e-03 6.901179905980825424e-03 5.881039425730705261e-03 -9.871371090412139893e-03 -1.482811290770769119e-02 6.669704336673021317e-03 -5.473838537000119686e-04 2.244785893708467484e-03 9.184941882267594337e-04 -3.410761011764407158e-03 -2.426531165838241577e-02 -7.836172357201576233e-03 3.252951893955469131e-03 -6.300361827015876770e-03 7.639728952199220657e-03 -1.814067550003528595e-02 1.978036714717745781e-03 -4.851632751524448395e-03 -6.324181333184242249e-03 3.649084828794002533e-05 -4.703760612756013870e-03 -2.223024843260645866e-03 1.229399535804986954e-02 1.218594261445105076e-03 -1.217944431118667126e-03 -7.743497262708842754e-04 -2.990014385432004929e-03 -1.004584599286317825e-02 6.164198741316795349e-03 1.438554842025041580e-02 9.648744948208332062e-03 -6.216739304363727570e-03 3.402284579351544380e-03 -3.112212987616658211e-03 9.375553578138351440e-03 -8.457526564598083496e-03 1.463288906961679459e-03 5.840213270857930183e-04 1.962581882253289223e-03 -1.046797819435596466e-02 1.498209545388817787e-03 -4.807638935744762421e-03 -1.440696604549884796e-02 -7.841491140425205231e-03 -1.502025965601205826e-02 -1.042953925207257271e-03 -4.966400447301566601e-04 -1.354526466457173228e-04 4.073057323694229126e-03 -1.184815354645252228e-02 2.622989751398563385e-02 3.500869497656822205e-03 -1.747846044600009918e-02 -1.123039401136338711e-03 1.402933616191148758e-02 -3.646919736638665199e-03 5.006986204534769058e-03 1.780769904144108295e-03 6.346142385154962540e-03 -1.301220268942415714e-03
-1.437088474631309509e-02 -6.820019800215959549e-03 2.685494255274534225e-03 2.320440486073493958e-02 -1.553042326122522354e-03 5.614646710455417633e-03 1.210101321339607239e-02 1.023867353796958923e-02 1.023347396403551102e-02 -7.440745830535888672e-03 -1.058636605739593506e-02 1.152885705232620239e-02 4.828676581382751465e-03 -4.257987719029188156e-03 -1.700799539685249329e-02 -1.422894746065139771e-02 3.666708944365382195e-03 -6.505329161882400513e-03 1.447791699320077896e-02 -4.789107479155063629e-04 -8.240323513746261597e-03 9.251044830307364464e-04 5.598598625510931015e-03 1.364494208246469498e-02 8.220762945711612701e-03 1.862739212810993195e-02 5.527210887521505356e-03 9.730732999742031097e-03 1.196818239986896515e-02 1.428684592247009277e-02 -7.930337451398372650e-03 -4.972023423761129379e-03 3.331208834424614906e-03 4.728737287223339081e-03 -8.509039878845214844e-03 -6.757180672138929367e-03 -1.252934709191322327e-02 5.684405099600553513e-03 -1.279227714985609055e-02 -1.010102313011884689e-02 9.430801728740334511e-04 3.854291280731558800e-04 2.358149649808183312e-04 1.080703269690275192e-02 -4.747871425934135914e-04 3.380827838554978371e-03 5.476056132465600967e-03 -1.501504797488451004e-03 -6.174657959491014481e-03 -3.265393897891044617e-03 -3.089347388595342636e-03 5.589865148067474365e-03 -1.399019267410039902e-02 -9.756810031831264496e-03 8.636547252535820007e-03 2.322995103895664215e-03 -9.965646080672740936e-03 1.601726748049259186e-02 -2.210051566362380981e-02 -2.288774820044636726e-03 1.283573568798601627e-03 -9.353146888315677643e-03 -1.295732683502137661e-03 8.352506905794143677e-03 1.435369253158569336e-02 -8.658562786877155304e-03 -1.265899091958999634e-02 1.114960294216871262e-02 -4.434194881469011307e-03 -7.222526241093873978e-03 -7.234937511384487152e-03 6.937383674085140228e-03 8.939973078668117523e-03 3.927709069103002548e-03 1.512814313173294067e-02 -1.115092076361179352e-02 1.291136536747217178e-02 3.063480835407972336e-03 4.289491102099418640e-03 -2.841452951543033123e-04 -2.687606611289083958e-04 1.018497347831726074e-02 -7.835684344172477722e-03 1.728153973817825317e-02 6.112705916166305542e-03 8.444977924227714539e-03 9.012516587972640991e-03 -1.598656550049781799e-02 6.257640197873115540e-03 -3.320622490718960762e-03 3.997752908617258072e-03 -4.287196788936853409e-03 5.539559293538331985e-03 1.862079091370105743e-02 -7.854037918150424957e-03 6.892948877066373825e-03 3.773134434595704079e-03 2.512572798877954483e-03 -7.003829814493656158e-03 -1.466630212962627411e-02 9.151838719844818115e-03 3.802258288487792015e-03 4.483907949179410934e-03 6.211306899785995483e-03 2.380366902798414230e-03 -3.547023748978972435e-03 1.879793708212673664e-03 -6.058106664568185806e-03 4.982928279787302017e-03 -1.026406325399875641e-02 1.408477313816547394e-02 7.686533033847808838e-03 1.557465828955173492e-02 1.800669543445110321e-02 -4.308642819523811340e-03 1.787286251783370972e-02 1.733819209039211273e-02 2.757434733211994171e-03 4.844372160732746124e-03 -5.331484600901603699e-03 1.172823831439018250e-02 -6.862857379019260406e-03 2.083775820210576057e-03 -1.690610661171376705e-04 8.638187311589717865e-03 -5.799403414130210876e-03 -7.945432327687740326e-03 -1.708004996180534363e-02 9.614946320652961731e-03 1.969756931066513062e-02 6.637738086283206940e-03 8.993786177597939968e-04 -2.115553361363708973e-04 8.760775672271847725e-04 1.499835494905710220e-02 7.452879566699266434e-03 -1.706884801387786865e-02 6.560563109815120697e-03 4.666111781261861324e-04 4.201884381473064423e-03 1.232880633324384689e-02 -1.196035998873412609e-03 5.353730637580156326e-03 -1.615821570158004761e-02 7.550663780421018600e-03 7.165824994444847107e-03 -1.110379304736852646e-02 1.274313312023878098e-02 1.388683216646313667e-03 4.700657911598682404e-03 5.799762904644012451e-03 -1.202769484370946884e-02 -7.658978458493947983e-03 4.660602193325757980e-03 -1.100127492100000381e-02 1.667510159313678741e-02 -1.344307884573936462e-02 5.845947656780481339e-03 -1.562244142405688763e-03 1.533750537782907486e-02 5.823029205203056335e-03 1.461957930587232113e-03 -1.758535951375961304e-02 -2.013967896346002817e-04 -6.556208711117506027e-03 9.843368083238601685e-03 2.508442150428891182e-03 -1.053430605679750443e-03 -3.872576355934143066e-02 -1.163011533208191395e-03 -1.027468033134937286e-02 4.701801575720310211e-03 2.920636441558599472e-03 -1.121099106967449188e-02 -5.645798984915018082e-03 -2.156675560399889946e-03 1.061580958776175976e-03 1.087834313511848450e-02 -6.536072585731744766e-03 2.511191181838512421e-03 9.228969924151897430e-03 -1.874708011746406555e-02 4.082142841070890427e-03 -2.939958125352859497e-03 8.103453554213047028e-03 9.852286428213119507e-03 -3.797313896939158440e-03 1.378869637846946716e-02 -1.397975604049861431e-03 -1.176573685370385647e-03 -5.991953890770673752e-03 -1.710940385237336159e-03 -2.083156956359744072e-03 -9.268271736800670624e-03 8.172981441020965576e-03 9.337308816611766815e-03 -2.745575038716197014e-03 -1.748848590068519115e-03 -1.770463888533413410e-03 1.435298565775156021e-02 5.074085667729377747e-03 1.885216566734015942e-03 -3.529223380610346794e-03 -1.718157716095447540e-02 -3.965380601584911346e-04 2.398120611906051636e-02 -2.685901522636413574e-02 9.132931008934974670e-03 1.303662173449993134e-02 -5.652889609336853027e-03 -1.227673143148422241e-03 9.453636594116687775e-03 1.716797426342964172e-02 3.437498817220330238e-03 1.598182134330272675e-02 -1.737041585147380829e-02 -1.610388164408504963e-03 -7.678122725337743759e-03 3.194557735696434975e-03 -8.484982885420322418e-03 6.646098103374242783e-03 1.889172010123729706e-03 9.865824133157730103e-03 1.706719049252569675e-03 1.267466880381107330e-02 -1.423701271414756775e-02 -1.811352209188044071e-03 -2.431038068607449532e-03 -6.825340911746025085e-03 3.270570887252688408e-03 -4.531391896307468414e-04 -1.309144683182239532e-02 -3.149166004732251167e-03 6.643458269536495209e-03 8.632778190076351166e-03 -1.672219368629157543e-03 1.213930081576108932e-02 1.005428656935691833e-02 -9.803378954529762268e-03 2.691846806555986404e-03 3.905034391209483147e-04 -1.154119055718183517e-02 -4.221003036946058273e-03 -7.085046730935573578e-03 5.831199232488870621e-03 -1.274545863270759583e-02 1.686836779117584229e-02 -6.447144318372011185e-03 -1.326922513544559479e-02 9.240234270691871643e-03 4.728092812001705170e-03 4.270981997251510620e-03 -1.014724187552928925e-02 1.990732038393616676e-03 1.104799099266529083e-02 -7.781837601214647293e-03
1.852661371231079102e-02 7.145307492464780807e-03 -5.956220440566539764e-03 7.568683940917253494e-03 -1.721923239529132843e-02 5.830412730574607849e-03 -7.305736653506755829e-03 -7.535493467003107071e-03 -3.668321369332261384e-05 -8.074511773884296417e-03 -1.832314766943454742e-03 -1.375452498905360699e-03 -1.208737306296825409e-02 1.119015272706747055e-03 1.747859083116054535e-02 2.004023455083370209e-02 1.972422562539577484e-02 -1.459486316889524460e-02 2.479873597621917725e-02 7.255100179463624954e-03 2.353864908218383789e-02 -1.939618028700351715e-03 2.805854193866252899e-02 -9.623570367693901062e-03 2.188505977392196655e-02 2.383407577872276306e-02 1.094647869467735291e-02 -1.060101669281721115e-02 -1.218034140765666962e-02 -2.691056579351425171e-03 4.339621402323246002e-03 -6.724746897816658020e-03 -1.632721163332462311e-02 -1.212310418486595154e-02 -2.290332131087779999e-02 8.029786869883537292e-03 -3.178216284140944481e-03 -5.831537768244743347e-03 1.941439136862754822e-02 -1.143649336881935596e-03 -5.913262721151113510e-03 1.263415813446044922e-02 1.524241454899311066e-02 2.278412505984306335e-02 -7.979512214660644531e-03 1.000850182026624680e-02 6.005572620779275894e-03 1.491350121796131134e-03 -1.536936964839696884e-03 -2.615605853497982025e-02 -6.925927009433507919e-03 1.313117705285549164e-02 8.967935107648372650e-03 3.965362440794706345e-03 -1.668661460280418396e-02 -2.610651217401027679e-02 -3.724019275978207588e-03 3.050955245271325111e-03 -2.306101378053426743e-03 8.152139373123645782e-03 -8.515723980963230133e-03 -1.006308756768703461e-02 -4.012591205537319183e-03 5.047113168984651566e-03 1.031256746500730515e-03 5.922381300479173660e-03 1.134562958031892776e-02 -8.216626942157745361e-03 7.872620597481727600e-03 1.662889122962951660e-02 1.098175439983606339e-02 -2.980435732752084732e-03 -1.050533633679151535e-02 -3.096754662692546844e-03 -2.541195601224899292e-02 3.995698876678943634e-03 1.631037518382072449e-02 4.798131529241800308e-03 -7.860005716793239117e-04 1.097555831074714661e-02 -5.271644797176122665e-03 6.585930474102497101e-03 -5.020170938223600388e-03 6.864426657557487488e-03 -7.301555946469306946e-03 -6.607944145798683167e-03 9.419407695531845093e-03 -1.814884133636951447e-02 -9.501337073743343353e-03 -6.281273439526557922e-03 1.170041970908641815e-02 1.030286401510238647e-02 1.613011816516518593e-03 -8.471852168440818787e-03 2.534177899360656738e-02 1.604396849870681763e-02 2.387017570436000824e-02 1.284700445830821991e-02 2.138635376468300819e-03 5.046287551522254944e-03 -1.708891242742538452e-02 -1.531789917498826981e-02 -2.823185175657272339e-03 -5.320641212165355682e-04 -7.259374484419822693e-03 -2.113973256200551987e-03 -5.683063645847141743e-04 6.456354632973670959e-03 -1.230014394968748093e-02 1.886525005102157593e-02 8.525208570063114166e-03 1.131097879260778427e-02 -9.301352314651012421e-03 2.419702708721160889e-03 -1.021854300051927567e-02 -1.410886086523532867e-02 -6.896798964589834213e-03 3.461490618064999580e-03 -1.016239356249570847e-02 -1.579214259982109070e-02 -4.560059169307351112e-04 4.969544243067502975e-03 9.837732650339603424e-03 -5.868684034794569016e-03 -1.334856171160936356e-02 1.167946495115756989e-02 1.856186054646968842e-02 5.098688881844282150e-03 7.085816469043493271e-03 7.069314364343881607e-03 1.808132790029048920e-02 1.063379459083080292e-02 1.602197252213954926e-02 -6.690094247460365295e-03 -3.319967305287718773e-03 1.432578545063734055e-02 -1.807111874222755432e-02 -1.082781329751014709e-02 -1.228749100118875504e-02 1.308607961982488632e-02 -1.136682927608489990e-02 -1.389438100159168243e-02 3.351235995069146156e-03 1.238748617470264435e-02 -5.003568250685930252e-03 1.887846738100051880e-02 -6.318924017250537872e-03 -1.197464112192392349e-02 8.288974873721599579e-03 6.426976062357425690e-03 1.645382493734359741e-02 -1.300453115254640579e-02 -7.190966513007879257e-03 1.750486786477267742e-03 -1.042170729488134384e-02 1.101830601692199707e-02 6.492555607110261917e-03 1.822909712791442871e-02 7.818617857992649078e-03 5.068849772214889526e-03 2.060925960540771484e-02 8.227043785154819489e-03 1.741796848364174366e-03 1.405551657080650330e-02 3.407517215237021446e-03 4.284615162760019302e-03 1.222085952758789062e-02 -1.541716791689395905e-02 1.359283644706010818e-02 -1.352969091385602951e-02 -1.804787665605545044e-02 2.307916246354579926e-02 -6.615188438445329666e-03 9.010818786919116974e-03 6.484037730842828751e-03 -3.236919175833463669e-03 2.152631059288978577e-02 1.502830907702445984e-02 -1.165989972651004791e-02 1.338189654052257538e-02 -3.168083960190415382e-03 1.379508175887167454e-03 1.536690257489681244e-02 1.125555019825696945e-02 1.413233205676078796e-02 -1.397761423140764236e-02 1.112324930727481842e-02 -1.030461955815553665e-02 -2.234456362202763557e-03 6.089678034186363220e-03 3.864622907713055611e-03 -6.628587841987609863e-03 8.543404750525951385e-03 -3.626171033829450607e-03 5.791096482425928116e-04 -1.510582864284515381e-02 -5.428976379334926605e-03 -1.112996484152972698e-03 4.392899572849273682e-03 -1.899972185492515564e-02 4.146896768361330032e-03 -2.033936418592929840e-02 -1.445856178179383278e-03 -1.614367775619029999e-02 1.693358644843101501e-02 8.176094852387905121e-03 3.929722122848033905e-03 -9.849529713392257690e-03 1.051481068134307861e-02 -1.875796471722424030e-03 2.388970227912068367e-03 -1.824858598411083221e-03 3.686515381559729576e-03 1.504380162805318832e-02 -6.188905099406838417e-04 -1.193486247211694717e-02 5.140657958691008389e-05 2.498936653137207031e-02 -1.416798960417509079e-02 9.182170964777469635e-03 -1.485810708254575729e-02 -2.357295155525207520e-02 1.688678190112113953e-02 8.980977581813931465e-04 4.041526932269334793e-03 8.727480657398700714e-03 6.320164538919925690e-03 1.656022295355796814e-02 -1.545285712927579880e-02 9.850802831351757050e-03 1.014171447604894638e-02 -3.755677491426467896e-03 7.796038873493671417e-03 5.788700189441442490e-03 6.811438594013452530e-03 2.142185345292091370e-02 -1.331498939543962479e-02 6.711517926305532455e-03 -1.948651508428156376e-03 1.144460961222648621e-02 1.742450892925262451e-02 -7.981884293258190155e-03 1.069802138954401016e-02 -8.199084550142288208e-03 -6.443394348025321960e-03 4.363532643765211105e-03 -4.226799588650465012e-03 -2.683018706738948822e-02 -7.722645998001098633e-03 1.934993825852870941e-02 -1.071419753134250641e-02 -1.547757536172866821e-02 2.455908246338367462e-02 -3.785634180530905724e-03 -2.400325052440166473e-02 5.175140686333179474e-03
-5.303854122757911682e-03 -1.104656420648097992e-02 -5.636570975184440613e-03 -2.198881469666957855e-03 -2.968685002997517586e-03 2.395396586507558823e-03 -7.107211276888847351e-03 -1.964703388512134552e-02 -1.027835812419652939e-02 9.197610430419445038e-03 -7.645053789019584656e-03 -1.988396514207124710e-03 1.115912571549415588e-03 -1.692097075283527374e-02 -1.107448805123567581e-02 -5.324321333318948746e-03 7.457798346877098083e-03 2.861491870135068893e-03 -6.793593987822532654e-03 -1.179994922131299973e-02 -3.142552915960550308e-03 -1.011080481112003326e-02 1.177414887933991849e-04 7.306404411792755127e-03 -6.339056417346000671e-03 1.677015796303749084e-02 -4.555164836347103119e-03 -2.165369514841586351e-04 3.106176620349287987e-03 1.414738595485687256e-02 -5.725538823753595352e-03 -1.935932599008083344e-02 -1.346452720463275909e-02 4.598514176905155182e-03 -1.372315082699060440e-02 -5.199757870286703110e-03 -6.782763171941041946e-03 9.350423701107501984e-03 1.055000070482492447e-02 1.725677587091922760e-02 2.822219021618366241e-02 2.139613032341003418e-02 -5.121856462210416794e-03 1.834323047660291195e-03 -1.639467850327491760e-02 -8.543566800653934479e-03 4.750909283757209778e-04 7.167069707065820694e-03 -3.341947682201862335e-03 -9.559704340063035488e-04 2.031036280095577240e-02 9.422917850315570831e-03 -8.596218191087245941e-03 -3.561728401109576225e-03 -2.453510463237762451e-02 -1.941331103444099426e-02 -1.502615027129650116e-02 1.650613499805331230e-03 -1.635588146746158600e-02 1.135447435081005096e-02 -1.052047219127416611e-02 -8.063192362897098064e-04 -2.342563355341553688e-03 -3.857456613332033157e-03 2.695766510441899300e-03 -1.361357513815164566e-03 1.091895904392004013e-02 2.468466293066740036e-03 -6.259708199650049210e-03 -4.914468619972467422e-03 -5.452508106827735901e-03 1.479469984769821167e-02 7.628918159753084183e-03 -2.305528894066810608e-02 -2.211478538811206818e-02 -1.220733206719160080e-02 -6.720336969010531902e-04 -8.321716450154781342e-03 -4.452660214155912399e-03 6.723765749484300613e-03 9.770931676030158997e-03 1.344301272183656693e-03 -1.475604367442429066e-03 -3.229961497709155083e-03 -3.351061372086405754e-03 -1.419746316969394684e-03 -1.153356768190860748e-02 -1.199215278029441833e-02 -1.618306897580623627e-02 5.868772976100444794e-03 -2.392484893789514899e-04 5.811545997858047485e-04 -2.313986979424953461e-02 -4.749845247715711594e-03 -1.080666575580835342e-02 3.965583164244890213e-03 4.974227864295244217e-03 8.534226566553115845e-03 3.811254398897290230e-03 -7.088022306561470032e-03 1.435391139239072800e-02 -1.199496071785688400e-02 -5.720139481127262115e-03 -1.370266266167163849e-02 -2.358840219676494598e-02 2.599254623055458069e-02 2.469427650794386864e-03 5.130060599185526371e-04 -2.573535591363906860e-02 2.539825625717639923e-03 -3.876065835356712341e-03 1.382607873529195786e-02 -9.482321329414844513e-03 4.984157625585794449e-03 -1.123949233442544937e-02 -2.177642891183495522e-03 -1.028596702963113785e-02 1.126179937273263931e-02 -2.190978825092315674e-02 -1.306963991373777390e-02 -3.896222915500402451e-03 1.215105690062046051e-02 -1.246573589742183685e-02 2.214540727436542511e-02 -2.231083624064922333e-02 8.624725043773651123e-03 -8.581116795539855957e-03 -7.146914140321314335e-04 -1.776609569787979126e-02 -6.787771359086036682e-03 8.287189528346061707e-03 -1.028538960963487625e-02 7.851605303585529327e-03 -1.324065029621124268e-02 1.185473054647445679e-02 -8.239008486270904541e-03 7.301239762455224991e-03 1.018992159515619278e-02 -1.403898280113935471e-02 -1.230795588344335556e-02 -3.783051855862140656e-03 3.126110183075070381e-03 -1.940008252859115601e-02 -1.058167032897472382e-02 -4.660400561988353729e-03 1.681595342233777046e-03 -3.780740313231945038e-03 2.450154908001422882e-02 -3.897966817021369934e-03 -2.609411021694540977e-04 -1.276408322155475616e-03 -1.504019740968942642e-02 -1.307497266680002213e-03 6.933116819709539413e-03 -6.326057948172092438e-03 -3.437994513660669327e-03 5.226699169725179672e-03 3.981895279139280319e-03 -1.411697454750537872e-02 -3.486383138806559145e-05 7.207005284726619720e-03 -1.303383987396955490e-02 1.287877094000577927e-04 1.792400330305099487e-02 -4.915900062769651413e-03 1.865163445472717285e-03 1.403099973686039448e-03 -2.202916191890835762e-03 1.119376253336668015e-02 -3.545825136825442314e-03 -1.227068714797496796e-02 1.849670894443988800e-02 3.097117180004715919e-03 -9.850575588643550873e-03 -3.531820839270949364e-03 -8.290520869195461273e-03 2.989779459312558174e-03 -1.196363475173711777e-02 -1.366946659982204437e-02 1.061633694916963577e-02 -1.699546934105455875e-03 -1.714644767343997955e-02 -3.644719021394848824e-03 -1.321200095117092133e-02 -1.566008850932121277e-02 1.152047701179981232e-02 -4.708853084594011307e-04 -1.293509732931852341e-03 6.582306232303380966e-03 -3.743480192497372627e-03 1.923955045640468597e-02 1.152544189244508743e-02 -4.875500686466693878e-03 -1.488027535378932953e-02 -1.337914168834686279e-02 8.875026367604732513e-03 1.639247406274080276e-03 -1.492696069180965424e-02 -7.986345328390598297e-03 1.838075369596481323e-02 -5.050821695476770401e-03 1.175474002957344055e-02 3.983807284384965897e-03 -1.622553914785385132e-02 -6.840695627033710480e-03 9.550731629133224487e-03 -1.163574121892452240e-02 1.918468065559864044e-02 -2.973894821479916573e-03 -5.227651447057723999e-03 3.408959135413169861e-03 -2.082093991339206696e-02 3.416255349293351173e-04 2.883200766518712044e-03 5.616707261651754379e-03 -1.971688866615295410e-02 -2.676240541040897369e-02 5.911647342145442963e-03 -1.509375055320560932e-03 -1.658192649483680725e-02 5.050396546721458435e-03 1.008555479347705841e-02 1.074864878319203854e-03 -1.700882241129875183e-02 -1.278086565434932709e-02 1.264446694403886795e-02 1.511735841631889343e-02 9.340849705040454865e-03 1.898474059998989105e-02 -2.591935917735099792e-02 -4.283719230443239212e-03 -1.059256959706544876e-03 -9.175013750791549683e-03 -1.467876043170690536e-02 -7.987567805685102940e-04 5.249524489045143127e-03 -1.720244623720645905e-02 7.348349783569574356e-03 -4.193598404526710510e-03 -3.840426215901970863e-03 -1.474473683629184961e-04 -4.698558710515499115e-03 9.666611440479755402e-03 1.617004536092281342e-02 7.496186066418886185e-03 3.283413534518331289e-04 8.278993889689445496e-03 5.760568659752607346e-03 -4.705804865807294846e-03 -1.108984433813020587e-04 -2.515276707708835602e-02 -9.895128197968006134e-03 1.027438556775450706e-03 1.045415736734867096e-02 -4.264188464730978012e-03 -1.698264293372631073e-02
6.492524407804012299e-03 -8.827861398458480835e-03 -1.324972370639443398e-03 -1.283611170947551727e-02 -9.802755666896700859e-04 1.125345006585121155e-02 1.444607041776180267e-02 -6.570342928171157837e-03 6.684986408799886703e-03 5.454299971461296082e-03 9.987753815948963165e-03 2.020047279074788094e-03 2.001166576519608498e-03 -1.514215022325515747e-02 7.970497943460941315e-03 2.021033084020018578e-03 1.069732010364532471e-02 -1.786991138942539692e-03 -1.256541628390550613e-02 1.642457023262977600e-02 1.538151968270540237e-02 -4.519383888691663742e-03 5.102901253849267960e-03 2.689465880393981934e-03 8.026342839002609253e-03 1.279767323285341263e-02 -3.959443885833024979e-03 -5.512052681297063828e-03 -9.198259562253952026e-03 8.695047348737716675e-03 -1.112513337284326553e-02 7.955163600854575634e-04 -7.876840420067310333e-03 -2.920635975897312164e-03 8.461263030767440796e-03 3.661206690594553947e-03 7.182304398156702518e-04 2.339357975870370865e-03 7.409162819385528564e-03 -1.305795740336179733e-03 4.318494815379381180e-03 1.803906075656414032e-02 1.201455853879451752e-02 4.000605549663305283e-03 9.849281050264835358e-03 -3.508070483803749084e-03 9.689448401331901550e-03 4.318879917263984680e-03 9.601080790162086487e-03 4.051136318594217300e-03 -1.431458443403244019e-02 -1.753324083983898163e-02 1.354153174906969070e-02 1.844080165028572083e-03 -3.078228794038295746e-03 1.048763375729322433e-02 1.898268237709999084e-03 7.291965186595916748e-03 -4.858965112362056971e-04 1.301788352429866791e-02 -3.649485995993018150e-03 3.126538358628749847e-03 -2.327728085219860077e-03 -5.070641636848449707e-04 -2.453032648190855980e-03 2.006366103887557983e-02 -1.500395010225474834e-03 -4.066925030201673508e-03 4.695267416536808014e-03 8.999492973089218140e-03 -7.456181105226278305e-03 2.333857584744691849e-03 -7.324461825191974640e-03 -1.813439279794692993e-02 9.822887368500232697e-04 -1.336140278726816177e-02 8.305704221129417419e-03 -1.366748474538326263e-04 -1.139733009040355682e-02 -2.956473908852785826e-04 -3.633159445598721504e-03 1.683431863784790039e-02 3.630063496530056000e-03 -9.868529625236988068e-03 -1.643108762800693512e-02 -1.484758127480745316e-02 6.756992079317569733e-03 2.150628017261624336e-03 5.590824875980615616e-03 -9.178574196994304657e-03 1.491724164225161076e-03 -1.037396863102912903e-02 -1.104219630360603333e-02 -9.872719645500183105e-03 1.236535515636205673e-02 7.226522546261548996e-03 4.766698926687240601e-03 1.379836630076169968e-02 8.556762710213661194e-03 -6.905257701873779297e-03 -1.864518504589796066e-03 -7.652579224668443203e-04 1.529990322887897491e-02 -7.012386340647935867e-03 -2.779710479080677032e-02 -4.874500446021556854e-03 1.586565561592578888e-02 2.783332252874970436e-03 -3.713262034580111504e-03 -9.932206943631172180e-03 -2.581768203526735306e-03 9.464090107940137386e-04 1.131545845419168472e-02 5.152887664735317230e-03 -1.330240047536790371e-03 8.712827228009700775e-03 -2.621716586872935295e-03 -8.738454431295394897e-03 1.155630592256784439e-02 1.943648792803287506e-02 -1.235871110111474991e-02 1.467786449939012527e-02 -7.695694454014301300e-03 2.968254033476114273e-03 -2.161547355353832245e-02 1.011426839977502823e-02 1.454884838312864304e-02 1.192416995763778687e-02 -1.120901294052600861e-02 2.519435947760939598e-04 8.481744676828384399e-03 5.195812322199344635e-03 -1.252144016325473785e-02 1.602442376315593719e-02 1.017794199287891388e-02 1.405842881649732590e-02 2.633119700476527214e-03 4.165443591773509979e-03 5.351932719349861145e-03 1.176839810796082020e-03 -1.126526854932308197e-02 1.320282556116580963e-02 -4.825563635677099228e-03 -8.393745520152151585e-04 -4.449326545000076294e-03 1.518660876899957657e-02 5.773662589490413666e-03 5.030288593843579292e-04 8.582833223044872284e-03 1.233500987291336060e-02 7.425627205520868301e-03 -1.973991841077804565e-02 8.351418189704418182e-03 1.542007643729448318e-02 6.127053406089544296e-03 1.433393452316522598e-02 6.600908003747463226e-03 -8.160532452166080475e-03 2.046095672994852066e-03 3.203224390745162964e-03 1.582624949514865875e-02 1.267731841653585434e-02 1.344236638396978378e-02 4.711846355348825455e-03 -2.183735137805342674e-03 1.317621208727359772e-02 9.965969249606132507e-03 -1.003926619887351990e-03 2.104562893509864807e-02 -5.380975548177957535e-03 -6.744935642927885056e-03 2.307351678609848022e-02 -3.073023864999413490e-03 -9.833837859332561493e-03 -5.067868158221244812e-03 -8.576688123866915703e-04 1.638329704292118549e-04 7.093889173120260239e-03 6.093925330787897110e-03 1.124756224453449249e-02 1.412297412753105164e-02 2.150141261518001556e-02 4.403071943670511246e-03 -1.656161854043602943e-03 8.474886417388916016e-03 -4.538523498922586441e-03 -3.229764755815267563e-03 7.931363768875598907e-03 -2.865661168470978737e-03 8.275920408777892590e-04 -2.059638965874910355e-03 4.776607675012201071e-04 2.286769822239875793e-02 -9.511127136647701263e-03 -3.163929795846343040e-03 -1.022468600422143936e-02 -3.568950342014431953e-03 -2.175943367183208466e-02 1.018686406314373016e-02 -2.905819332227110863e-03 -1.944177667610347271e-03 5.607363767921924591e-03 3.386914264410734177e-03 -1.144260168075561523e-02 -9.291266091167926788e-03 1.014131307601928711e-02 -1.982045173645019531e-02 -1.847012666985392570e-03 6.465946324169635773e-03 -1.034918613731861115e-02 9.623884106986224651e-04 -9.747200645506381989e-03 -4.585191782098263502e-04 1.398178283125162125e-02 -1.646728138439357281e-03 -2.142118848860263824e-02 1.651302725076675415e-02 1.562627404928207397e-02 5.508762318640947342e-03 -7.898549549281597137e-03 4.586142313200980425e-04 -5.145426373928785324e-03 3.469527466222643852e-03 1.139775617048144341e-03 1.768653467297554016e-02 -3.002054058015346527e-03 1.589636318385601044e-02 2.494167536497116089e-03 6.619268562644720078e-03 -2.706493716686964035e-03 -3.923212643712759018e-03 7.872575893998146057e-03 2.046073041856288910e-02 -1.494217664003372192e-02 1.257298327982425690e-02 6.049637682735919952e-03 4.025105852633714676e-03 5.912540014833211899e-03 7.346998434513807297e-03 8.294475264847278595e-03 1.895696483552455902e-02 1.180489081889390945e-03 1.289282180368900299e-02 8.087708614766597748e-03 -1.096142549067735672e-02 -7.414213381707668304e-03 1.637664809823036194e-02 2.135603455826640129e-03 -4.333895165473222733e-03 4.260508809238672256e-03 1.030187681317329407e-02 -1.183462701737880707e-02 -3.380435518920421600e-03 1.967465877532958984e-02 8.033023215830326080e-03 -1.462951884604990482e-03
-3.559467149898409843e-03 -3.857316682115197182e-03 3.348761470988392830e-03 1.874982006847858429e-02 9.232512675225734711e-03 -8.399319485761225224e-04 -6.913608405739068985e-03 -6.594260688871145248e-03 1.986669562757015228e-02 2.032441319897770882e-03 -1.159816281870007515e-03 3.110904945060610771e-03 -9.412735700607299805e-03 1.482322160154581070e-02 4.824561532586812973e-03 5.508153233677148819e-03 -1.441724365577101707e-03 3.191779367625713348e-03 -1.613826677203178406e-02 -5.106278229504823685e-03 1.405643206089735031e-02 4.408719018101692200e-03 -1.432888675481081009e-02 6.840781774371862411e-03 5.107085220515727997e-03 7.691809441894292831e-03 3.719290543813258410e-04 6.075044162571430206e-03 -7.272031623870134354e-03 -1.002058107405900955e-02 6.181368953548371792e-04 -3.827100619673728943e-03 1.136796642094850540e-02 -2.034285105764865875e-03 1.359660760499536991e-03 -7.725988980382680893e-03 4.673795774579048157e-03 -1.021331269294023514e-02 -2.575894817709922791e-02 -5.550875328481197357e-03 -8.479411713778972626e-03 2.693994319997727871e-04 -3.321702824905514717e-03 3.275893162935972214e-03 5.833258037455379963e-04 -4.728318657726049423e-03 -4.692364600487053394e-04 -1.328608766198158264e-02 -1.002468727529048920e-02 1.535808295011520386e-02 -5.722448113374412060e-04 -6.051608826965093613e-03 1.459761289879679680e-03 2.872015815228223801e-03 8.625153452157974243e-03 3.540633711963891983e-03 -6.327913142740726471e-03 -3.942641429603099823e-03 -1.867540762759745121e-03 2.459853887557983398e-03 -1.556253409944474697e-03 -1.112157944589853287e-02 -1.253384072333574295e-02 1.305527985095977783e-02 6.622798973694443703e-04 1.916530169546604156e-02 -2.862706221640110016e-02 -9.821084327995777130e-03 -1.094837114214897156e-02 8.532882668077945709e-03 -1.268377248197793961e-02 -1.891203969717025757e-02 1.259332988411188126e-02 5.580596625804901123e-03 1.329143811017274857e-02 1.771013019606471062e-03 7.031538989394903183e-03 1.235527079552412033e-02 -1.526649855077266693e-02 -1.037994585931301117e-02 4.008193966001272202e-03 -1.505101751536130905e-02 -3.280318807810544968e-03 9.712020866572856903e-03 9.592696733307093382e-05 1.166178658604621887e-02 7.616417482495307922e-03 1.628426276147365570e-02 -7.257572840899229050e-03 -6.442869547754526138e-03 -5.493230652064085007e-03 6.186184938997030258e-03 4.223186988383531570e-03 9.266270324587821960e-03 -5.375491455197334290e-03 2.293782308697700500e-03 -9.487511590123176575e-03 -3.304523648694157600e-03 -1.317956577986478806e-02 3.108979668468236923e-03 3.148011164739727974e-03 2.849517855793237686e-03 -5.731586366891860962e-03 1.505991443991661072e-02 1.534271333366632462e-02 5.924725439399480820e-03 5.240180529654026031e-03 -1.421652850694954395e-03 2.451855875551700592e-02 2.561495872214436531e-03 1.859569223597645760e-03 -6.031125783920288086e-03 -6.278269924223423004e-03 8.295866660773754120e-03 1.077059376984834671e-02 1.481236331164836884e-02 7.213344797492027283e-03 -1.728089153766632080e-02 7.847497239708900452e-03 1.968789147213101387e-03 1.215711981058120728e-02 -1.892337203025817871e-02 1.483191270381212234e-03 -1.399178989231586456e-02 -2.171321772038936615e-02 -4.399443976581096649e-03 6.511645857244729996e-03 6.636570207774639130e-03 1.040568202733993530e-02 2.321873977780342102e-02 -8.119979873299598694e-03 -1.054895389825105667e-02 1.953974366188049316e-03 -1.329997554421424866e-03 -1.584020256996154785e-02 -5.483562592417001724e-03 -2.057645469903945923e-03 1.462244981667026877e-04 -1.210455968976020813e-02 5.246102344244718552e-03 2.241282910108566284e-02 -3.705997078213840723e-04 1.934874616563320160e-02 -5.609734449535608292e-03 -6.298083811998367310e-03 2.044277032837271690e-03 -1.590270176529884338e-02 3.006503218784928322e-03 9.724603965878486633e-03 -4.763959906995296478e-03 1.849423162639141083e-03 1.902542449533939362e-02 -2.124920254573225975e-03 -7.762747351080179214e-03 1.060635037720203400e-02 -1.633781241253018379e-03 -1.557437889277935028e-02 -2.350669819861650467e-03 -5.452893674373626709e-03 -1.113127730786800385e-02 -3.865951439365744591e-03 -9.159991517663002014e-03 7.988214492797851562e-03 -1.557729486376047134e-02 -1.647673547267913818e-02 2.625477733090519905e-03 1.722629414871335030e-03 8.529675193130970001e-03 -2.784887794405221939e-03 -1.285589486360549927e-02 -6.424785591661930084e-03 -7.219271268695592880e-03 -4.232881590723991394e-03 -6.780907511711120605e-03 -4.816608503460884094e-03 1.808582618832588196e-02 -1.115741487592458725e-02 -4.132389090955257416e-03 1.271188072860240936e-02 -1.475878711789846420e-02 3.922939766198396683e-03 -1.261922158300876617e-02 -6.532234139740467072e-03 -5.460577085614204407e-04 2.009277930483222008e-03 -1.722239144146442413e-02 -2.048118039965629578e-03 -2.079929225146770477e-03 -2.583869034424424171e-03 -3.975568804889917374e-03 -1.794301718473434448e-02 1.279763644561171532e-03 -1.101809786632657051e-03 1.425541378557682037e-02 2.873005578294396400e-03 2.469496987760066986e-02 -7.448599208146333694e-03 8.781432174146175385e-03 -1.512423856183886528e-03 -2.281194087117910385e-03 -1.533874310553073883e-02 1.649095560424029827e-03 2.885301597416400909e-03 -8.305750787258148193e-03 2.849149517714977264e-03 -1.751729403622448444e-03 -2.767001278698444366e-03 -1.041295705363154411e-03 1.204469893127679825e-02 -8.677608333528041840e-03 8.634141413494944572e-04 1.477424334734678268e-02 1.268020644783973694e-02 3.685050411149859428e-03 -3.649475285783410072e-03 9.283370338380336761e-03 -5.503371823579072952e-03 -4.883133806288242340e-03 7.287887390702962875e-03 -2.800509799271821976e-03 -3.907048609107732773e-03 1.533032767474651337e-02 -7.718535140156745911e-03 -1.609488204121589661e-02 7.989707402884960175e-03 -7.141422014683485031e-03 6.057693623006343842e-03 -6.823835894465446472e-03 -1.766552217304706573e-03 5.663644056767225266e-03 1.461922307498753071e-03 -2.157062105834484100e-02 1.079936162568628788e-03 8.461137185804545879e-04 -1.053391769528388977e-02 -1.447349134832620621e-02 1.847196556627750397e-02 2.712390414671972394e-05 3.928515128791332245e-03 5.752248223870992661e-03 4.806953947991132736e-03 -6.129973335191607475e-04 -1.793787069618701935e-02 -1.128569990396499634e-02 8.545701391994953156e-03 -1.196287758648395538e-02 4.496450535953044891e-03 -2.518677385523915291e-03 -9.431973099708557129e-03 2.308099763467907906e-03 -2.273792633786797523e-03 1.534347329288721085e-02 -5.509464070200920105e-03 -1.759153418242931366e-02 4.551512189209461212e-03 1.348930597305297852e-02
-2.492489526048302650e-03 1.434991601854562759e-02 -2.375861629843711853e-02 -2.180624753236770630e-02 5.210225936025381088e-03 -2.543902257457375526e-03 8.224962279200553894e-03 -3.996953601017594337e-04 -1.512732543051242828e-02 1.137086842209100723e-02 -1.514772884547710419e-03 -9.019654244184494019e-03 -3.923611715435981750e-03 -3.472069278359413147e-03 -1.029844209551811218e-02 -8.415433578193187714e-03 2.236529253423213959e-03 -3.770200768485665321e-03 3.758561331778764725e-03 1.169242896139621735e-02 -2.034483477473258972e-02 2.479886170476675034e-03 8.844966068863868713e-03 -9.527129121124744415e-03 -2.447272185236215591e-03 -3.180898027494549751e-03 4.102349746972322464e-03 -6.818103720434010029e-04 -4.290854558348655701e-03 2.646278822794556618e-03 -6.350878626108169556e-03 -8.088699541985988617e-03 -1.453484687954187393e-02 3.106780815869569778e-03 3.239764773752540350e-04 -2.208263613283634186e-03 2.250930527225136757e-03 2.952853217720985413e-03 5.730947945266962051e-03 3.440609201788902283e-03 5.015056114643812180e-03 -3.149386262521147728e-03 7.341429009102284908e-04 -8.463145233690738678e-03 2.326447516679763794e-03 5.409399513155221939e-03 -3.995975945144891739e-03 2.805174095556139946e-03 8.370014838874340057e-03 2.742620999924838543e-04 -7.234842050820589066e-03 1.191893592476844788e-02 -1.728668063879013062e-02 6.441749632358551025e-03 -8.630214259028434753e-03 -5.353335291147232056e-03 1.470488961786031723e-03 -1.723771542310714722e-02 9.149781428277492523e-03 8.384078741073608398e-03 -3.299929434433579445e-03 1.453097444027662277e-03 1.688143797218799591e-02 2.150200540199875832e-03 -2.319326065480709076e-02 -2.017840370535850525e-02 1.846033148467540741e-03 6.769418716430664062e-03 -1.438098121434450150e-02 -3.727847710251808167e-03 2.405069069936871529e-03 1.683664880692958832e-02 4.977480974048376083e-03 -2.941505517810583115e-04 6.269557867199182510e-03 -8.431878522969782352e-04 -5.651443265378475189e-03 1.027873717248439789e-02 2.669100835919380188e-02 -1.234868657775223255e-03 -9.573297575116157532e-03 1.270703319460153580e-02 3.640729701146483421e-03 -3.150024684146046638e-03 -1.046602614223957062e-02 1.183697301894426346e-02 3.375476691871881485e-03 -8.473765105009078979e-03 -7.134647108614444733e-03 -1.325956778600811958e-03 6.677594035863876343e-03 -7.452474092133343220e-04 5.558843258768320084e-03 -4.803154442925006151e-04 -9.104273631237447262e-04 2.070033922791481018e-03 2.252984791994094849e-03 -8.963760919868946075e-03 -3.046093042939901352e-03 -8.445973508059978485e-03 -7.509020622819662094e-03 3.488525049760937691e-03 5.026501137763261795e-03 -1.418168935924768448e-02 -1.162833627313375473e-02 1.890158280730247498e-02 3.818318014964461327e-03 -1.195749174803495407e-02 -1.227511931210756302e-02 -2.600200008600950241e-03 9.211282245814800262e-03 3.899968287441879511e-04 1.929645659402012825e-03 -5.914035718888044357e-03 -2.443597419187426567e-03 2.148083178326487541e-03 3.216447541490197182e-03 4.675683099776506424e-03 -1.224082312546670437e-03 -6.091734860092401505e-03 -2.049052529036998749e-02 1.241611130535602570e-02 -1.256296690553426743e-02 1.460754219442605972e-02 1.098863314837217331e-02 -9.740810841321945190e-03 -1.335236523300409317e-02 -2.284415764734148979e-03 -7.100959308445453644e-03 -5.196943413466215134e-03 -1.125807757489383221e-03 2.998692682012915611e-03 -2.551744226366281509e-03 4.848209675401449203e-03 3.137053921818733215e-03 -1.281269360333681107e-02 1.064525637775659561e-02 -2.854429418221116066e-03 3.714631544426083565e-03 -1.056145690381526947e-02 -2.501604706048965454e-02 3.303754143416881561e-03 -6.080158520489931107e-03 1.022149994969367981e-02 6.822427269071340561e-03 -4.465823003556579351e-04 1.316186785697937012e-02 4.516759887337684631e-03 -4.254562780261039734e-03 1.310230605304241180e-02 -9.771649725735187531e-03 8.835073560476303101e-03 1.980234123766422272e-02 -4.922727588564157486e-03 2.465293975546956062e-03 -8.066311478614807129e-03 4.477171169128268957e-04 -5.642774049192667007e-03 -5.095410626381635666e-03 5.436284467577934265e-03 2.702187281101942062e-03 2.831438789144158363e-03 -1.359553821384906769e-02 -1.032218243926763535e-02 1.165910810232162476e-02 -3.867101622745394707e-03 -2.874724799767136574e-03 -1.526298699900507927e-03 2.347069792449474335e-02 6.653583142906427383e-03 8.828989230096340179e-03 -1.908500911667943001e-03 -4.869296681135892868e-03 -1.598857226781547070e-03 1.665451214648783207e-03 5.774936638772487640e-03 -5.530279595404863358e-03 -1.934327156050130725e-04 -6.828474346548318863e-03 1.054228283464908600e-02 -8.084459230303764343e-03 -7.275057025253772736e-03 -1.325146877206861973e-03 -2.524936338886618614e-03 3.779040416702628136e-04 -1.034299749881029129e-02 6.653940305113792419e-03 -3.343428717926144600e-03 -7.540977094322443008e-03 -1.866710255853831768e-03 -6.903770845383405685e-03 1.052795536816120148e-02 -2.895715413615107536e-03 -9.722096845507621765e-03 1.202475000172853470e-02 -1.090633217245340347e-02 -1.682496047578752041e-03 8.618521504104137421e-03 -1.259838324040174484e-02 1.247712178155779839e-03 -1.210261601954698563e-03 -4.592097830027341843e-03 -5.225699860602617264e-03 3.049418795853853226e-03 -1.511999755166471004e-03 1.351454667747020721e-02 5.586686544120311737e-03 1.309114159084856510e-03 -3.114966966677457094e-04 2.112171845510601997e-03 1.397402491420507431e-02 6.682186853140592575e-03 -8.987149340100586414e-05 1.295432355254888535e-02 3.465737449005246162e-03 -2.679411845747381449e-04 6.053015124052762985e-03 -5.448172334581613541e-03 9.464062750339508057e-03 2.794079715386033058e-03 -9.115464054048061371e-03 4.482867952901870012e-04 5.499486578628420830e-04 1.412692293524742126e-02 -6.352073512971401215e-03 -3.223160048946738243e-03 -2.962191123515367508e-03 2.236781083047389984e-02 -5.976321175694465637e-03 -8.378359489142894745e-03 8.427956141531467438e-03 -1.402651146054267883e-02 1.391962519846856594e-03 -1.626958698034286499e-02 1.002635620534420013e-02 -2.488176804035902023e-03 1.945591648109257221e-03 -2.680773031897842884e-04 5.413325969129800797e-03 5.495558027178049088e-03 -2.726914361119270325e-03 -3.752933116629719734e-04 1.401831489056348801e-02 8.767489343881607056e-03 -1.814596168696880341e-02 6.091712508350610733e-03 -1.983752241358160973e-03 -1.270065666176378727e-03 -2.126169623807072639e-03 4.473333247005939484e-03 -3.955215681344270706e-03 2.281809691339731216e-03 1.685916911810636520e-03 -1.543692592531442642e-02 -2.927190857008099556e-03 -1.492387801408767700e-02
5.324698286131024361e-04 -9.453731472603976727e-04 -4.716764204204082489e-03 -1.760851778090000153e-02 5.571635905653238297e-03 1.425116602331399918e-02 5.852555856108665466e-03 2.542033325880765915e-03 -7.032048888504505157e-03 6.907388102263212204e-03 3.960975445806980133e-03 -1.792265335097908974e-03 -9.491353295743465424e-03 2.184317912906408310e-03 1.071946881711483002e-02 5.738109350204467773e-03 1.131181884557008743e-02 2.058519283309578896e-03 -9.828990325331687927e-03 1.368933473713696003e-03 9.915210306644439697e-03 6.482779979705810547e-03 1.971125602722167969e-02 -1.379127963446080685e-03 -1.104179676622152328e-02 -3.217598656192421913e-03 -8.746946230530738831e-03 -7.128078490495681763e-03 -1.568239182233810425e-02 -7.167821284383535385e-03 -1.776940422132611275e-03 3.178052371367812157e-03 -3.196848323568701744e-03 -8.410600945353507996e-03 8.487627841532230377e-03 1.035155635327100754e-02 7.008975953795015812e-04 1.589013263583183289e-02 2.124015614390373230e-02 1.074430439621210098e-02 2.240727655589580536e-03 -1.456162054091691971e-02 2.448718762025237083e-03 -3.695394843816757202e-03 8.417333476245403290e-03 -4.205899313092231750e-03 9.401893243193626404e-03 1.222111470997333527e-02 8.326010778546333313e-03 -3.044769866392016411e-03 -1.557647902518510818e-02 -1.729094237089157104e-02 1.200392749160528183e-02 1.629451289772987366e-02 -4.328789655119180679e-03 -5.575564689934253693e-03 2.123814309015870094e-03 -1.875711232423782349e-02 2.239039167761802673e-02 3.208461916074156761e-03 -6.993871065787971020e-04 -1.222819276154041290e-02 1.215613819658756256e-02 1.715232618153095245e-03 7.796982768923044205e-03 1.364957075566053391e-02 3.395178355276584625e-03 -9.068702638614922762e-05 -8.440866949968039989e-04 1.516365562565624714e-03 6.383180618286132812e-03 2.515582833439111710e-03 1.920198672451078892e-03 -8.034432306885719299e-03 1.756964484229683876e-03 7.267439272254705429e-03 -9.776310995221138000e-03 -3.795985365286469460e-03 8.149371482431888580e-03 1.467518042773008347e-03 -8.113485760986804962e-03 6.494524423032999039e-03 7.552343886345624924e-03 -2.038585208356380463e-02 -1.685301959514617920e-02 3.585019439924508333e-04 -9.882928803563117981e-03 6.242948118597269058e-03 -8.803576231002807617e-03 2.094923518598079681e-03 -5.622308701276779175e-03 1.886273617856204510e-03 1.724352710880339146e-03 -2.031858824193477631e-02 -1.774342148564755917e-03 -6.483384408056735992e-03 3.300264244899153709e-03 5.282522761262953281e-04 1.086925808340311050e-02 -1.856609946116805077e-03 -1.457955688238143921e-02 9.991357801482081413e-04 -8.420770056545734406e-03 -4.479038529098033905e-03 -5.651668179780244827e-03 -4.888656549155712128e-03 -9.394693188369274139e-03 4.083399660885334015e-03 4.483189899474382401e-03 -2.924769883975386620e-03 -1.123010180890560150e-02 -1.293377834372222424e-03 -1.038364879786968231e-02 -3.984282724559307098e-03 8.927991613745689392e-03 1.547087728977203369e-02 -9.866110049188137054e-03 -6.384799722582101822e-03 5.324624944478273392e-04 5.134160164743661880e-03 -5.449227057397365570e-03 -3.422208465053699911e-05 2.663061954081058502e-03 -1.259591616690158844e-02 -2.624767832458019257e-02 1.680119312368333340e-03 6.044805515557527542e-03 8.883262053132057190e-03 -2.315404824912548065e-03 -1.442398317158222198e-02 -4.224712611176073551e-04 -5.759175983257591724e-04 8.910621982067823410e-04 -9.468615055084228516e-03 7.458532694727182388e-03 4.351565614342689514e-03 1.685728318989276886e-02 -1.772341318428516388e-02 -1.474263612180948257e-02 -1.195335201919078827e-02 -1.250687614083290100e-02 -5.875765811651945114e-03 -9.506066329777240753e-03 1.189710106700658798e-02 -2.781859599053859711e-03 -3.384125186130404472e-03 6.470242980867624283e-03 -3.543082159012556076e-03 -5.708232522010803223e-03 3.703265450894832611e-03 -4.522955045104026794e-03 3.566831583157181740e-03 5.487986840307712555e-03 -1.114586554467678070e-02 6.336877122521400452e-03 -1.350621040910482407e-02 1.407958194613456726e-02 -8.799034985713660717e-04 4.452689085155725479e-03 -9.107569232583045959e-03 1.033077202737331390e-02 1.238197553902864456e-02 1.030161697417497635e-02 3.930076025426387787e-03 6.077382131479680538e-04 2.062005223706364632e-03 -6.154205184429883957e-03 -4.926091525703668594e-03 2.516017481684684753e-02 1.339967129752039909e-03 8.012947626411914825e-03 7.875450886785984039e-03 -5.542723461985588074e-03 -6.680637132376432419e-03 1.344541274011135101e-02 1.285131927579641342e-02 -2.054691547527909279e-03 -2.723057754337787628e-03 1.769285765476524830e-03 6.295107305049896240e-03 -1.522020436823368073e-02 5.674550775438547134e-04 9.728933684527873993e-03 -1.198948826640844345e-02 -8.219575509428977966e-03 -3.212865814566612244e-02 9.240496903657913208e-03 -1.451617851853370667e-02 1.015744265168905258e-02 -3.737197839654982090e-04 -7.894282229244709015e-03 -7.653327658772468567e-03 -8.040640503168106079e-03 4.726773127913475037e-03 -5.908038932830095291e-03 -3.356003435328602791e-03 5.680232774466276169e-03 8.496830239892005920e-03 4.588394425809383392e-03 -1.385012455284595490e-02 -5.896077025681734085e-03 -9.372815489768981934e-03 6.382743827998638153e-03 7.205760572105646133e-03 -4.646980669349431992e-03 -5.072349216789007187e-03 1.159478351473808289e-02 -3.840601071715354919e-03 -1.035607419908046722e-02 -1.069063227623701096e-02 1.560963597148656845e-02 2.232597908005118370e-04 -1.506211329251527786e-02 1.222455874085426331e-03 -5.244583357125520706e-03 -4.708687774837017059e-03 1.052314043045043945e-02 5.435490165837109089e-04 8.633328601717948914e-03 4.475797992199659348e-03 -1.343150343745946884e-02 -9.970832616090774536e-03 -1.610374893061816692e-03 -3.163227665936574340e-05 1.517402124591171741e-03 8.216571994125843048e-03 -1.294540939852595329e-03 1.348009705543518066e-02 -5.890234373509883881e-03 1.784180174581706524e-03 3.012418164871633053e-04 -3.439635736867785454e-03 7.027552346698939800e-04 -2.498840726912021637e-02 6.807925179600715637e-03 -1.267983927391469479e-03 -2.313240664079785347e-03 -9.940161369740962982e-03 1.180627569556236267e-02 -7.677880348637700081e-04 -3.614375134930014610e-03 5.476178135722875595e-03 -3.111508442088961601e-03 2.057439414784312248e-03 -4.736323375254869461e-03 1.058437302708625793e-02 -2.469898946583271027e-02 2.663923194631934166e-03 2.658783632796257734e-04 -6.134621798992156982e-03 6.512263789772987366e-04 -5.932305939495563507e-03 -3.083420684561133385e-03 -7.976963184773921967e-03 1.208341307938098907e-02 -5.669584497809410095e-04
-3.011495107784867287e-03 -6.695576477795839310e-03 1.418952085077762604e-02 -3.117262618616223335e-03 6.603170768357813358e-04 1.006477233022451401e-02 -8.125732652842998505e-03 1.031138096004724503e-02 -4.595543723553419113e-04 2.108146063983440399e-02 1.667048223316669464e-02 3.000120632350444794e-03 3.561835270375013351e-03 -1.462155673652887344e-02 1.465906109660863876e-02 -1.299724169075489044e-02 1.224551629275083542e-02 7.696009706705808640e-03 -1.054182834923267365e-02 9.359273128211498260e-03 1.893435418605804443e-02 -7.765177637338638306e-03 -1.686953008174896240e-02 1.770487055182456970e-03 -1.638535410165786743e-02 8.103907108306884766e-03 -3.700021281838417053e-02 -8.632715791463851929e-03 2.648618631064891815e-02 1.088103372603654861e-02 -1.702486909925937653e-02 -6.720364093780517578e-03 -1.131134200841188431e-02 1.442630402743816376e-02 1.428434345871210098e-02 -4.148760810494422913e-03 -1.284153200685977936e-03 1.720487512648105621e-02 1.611039973795413971e-02 2.029229141771793365e-02 8.570219390094280243e-03 2.252301760017871857e-02 -1.875005289912223816e-02 -8.120357058942317963e-03 4.593686666339635849e-03 -1.702345348894596100e-02 -1.714169047772884369e-02 2.366193570196628571e-03 -3.662048606202006340e-03 7.758978754281997681e-03 2.491734549403190613e-02 1.011880114674568176e-02 9.545579552650451660e-03 1.400534622371196747e-02 -4.400773905217647552e-03 6.316230632364749908e-03 -1.244599372148513794e-02 1.176437013782560825e-03 2.122010802850127220e-03 -2.703030593693256378e-03 8.727213134989142418e-04 9.839572012424468994e-03 7.167314179241657257e-03 -5.363107193261384964e-03 3.514940617606043816e-03 6.244469434022903442e-03 2.299165353178977966e-03 8.522825315594673157e-03 -3.369356272742152214e-03 -2.634212840348482132e-03 6.292670499533414841e-03 8.650615811347961426e-03 1.921948418021202087e-02 -1.379627455025911331e-02 1.153120677918195724e-02 -1.665405929088592529e-02 5.860480945557355881e-03 -1.941479928791522980e-02 5.393441533669829369e-04 -1.369652710855007172e-02 5.502124316990375519e-03 3.269133390858769417e-03 5.605645012110471725e-03 -2.903814986348152161e-02 1.941184513270854950e-02 7.613936439156532288e-03 -4.919064696878194809e-03 8.907884359359741211e-03 7.143218535929918289e-03 1.185216475278139114e-02 -2.007429674267768860e-02 1.615952327847480774e-02 -8.438251912593841553e-03 2.901150844991207123e-03 -1.288719847798347473e-02 -2.406595274806022644e-02 -4.279596265405416489e-03 -1.235914789140224457e-02 1.337890606373548508e-02 -1.558958366513252258e-02 8.298781700432300568e-03 9.889657609164714813e-03 -6.454541347920894623e-03 7.978325709700584412e-03 -6.885781418532133102e-03 1.220635231584310532e-02 -2.935178764164447784e-02 5.365905351936817169e-03 -3.532496979460120201e-03 -2.075049653649330139e-02 -6.346540758386254311e-04 1.389253232628107071e-02 4.434085916727781296e-03 3.211201168596744537e-03 8.987831883132457733e-03 -2.730687148869037628e-03 -3.888510866090655327e-03 1.214743591845035553e-02 1.539716869592666626e-02 1.253103837370872498e-03 -6.309218006208539009e-04 1.902744290418922901e-03 -6.757120136171579361e-03 -2.403805498033761978e-03 -1.086150482296943665e-02 1.252089068293571472e-02 5.611247848719358444e-03 6.738348398357629776e-03 -7.237453013658523560e-03 -1.215742342174053192e-02 -9.601248428225517273e-03 1.085463352501392365e-02 -5.681022536009550095e-03 -1.708918437361717224e-02 -3.814134106505662203e-04 -5.351216066628694534e-03 4.553539212793111801e-03 1.195669639855623245e-02 -1.932406798005104065e-02 -5.839838180691003799e-03 1.639606989920139313e-02 -6.469557993113994598e-03 -2.063751220703125000e-02 -2.990125119686126709e-02 8.573422092013061047e-04 9.388218633830547333e-03 -1.741968840360641479e-02 1.922056451439857483e-02 -1.123529672622680664e-02 -1.043380144983530045e-02 -5.582461133599281311e-03 -1.363662653602659702e-03 5.428687669336795807e-03 -1.259724260307848454e-03 -2.514351392164826393e-03 5.481146741658449173e-03 -6.685195956379175186e-03 -1.001587510108947754e-02 -8.329721167683601379e-03 -5.918381270021200180e-03 6.143366452306509018e-03 -5.730831064283847809e-03 -7.336300797760486603e-03 2.906665392220020294e-02 -1.717003993690013885e-02 2.321103960275650024e-02 -1.343018095940351486e-02 -1.208222191780805588e-02 2.360829152166843414e-03 -8.164216764271259308e-03 1.069149468094110489e-03 -1.386362360790371895e-03 1.511198002845048904e-02 -1.965406537055969238e-02 -8.951347321271896362e-03 -3.467172617092728615e-03 8.555312640964984894e-03 -1.411167532205581665e-02 -4.001819062978029251e-03 1.280253101140260696e-02 5.383263924159109592e-04 1.572058349847793579e-02 -2.105893753468990326e-02 1.462248433381319046e-02 -8.495526388287544250e-03 4.105230327695608139e-03 1.626818254590034485e-02 3.199739614501595497e-03 1.069143135100603104e-02 3.381691640242934227e-03 -7.026217062957584858e-04 9.985271841287612915e-03 1.995193306356668472e-03 -5.341148935258388519e-04 -1.210228074342012405e-03 1.949048414826393127e-02 1.091044954955577850e-02 1.831154525279998779e-02 2.640716731548309326e-03 8.036096580326557159e-03 -1.560894958674907684e-02 1.174080558121204376e-02 -1.575138792395591736e-02 -7.120928057702258229e-05 -2.309175767004489899e-02 4.662786610424518585e-03 -2.040289342403411865e-02 6.221223156899213791e-03 -1.858349889516830444e-02 -2.119087986648082733e-02 7.528737653046846390e-03 -2.113525010645389557e-02 -1.069482415914535522e-02 -9.326767176389694214e-03 -2.219870919361710548e-03 -1.669700071215629578e-02 -2.100479230284690857e-02 9.350084699690341949e-03 8.852038532495498657e-03 -1.514199748635292053e-02 8.273595012724399567e-03 1.372207980602979660e-02 -1.935881376266479492e-02 -8.331974036991596222e-03 7.062883116304874420e-03 1.571734994649887085e-02 2.490478008985519409e-02 -3.176787169650197029e-03 6.688211113214492798e-03 -1.311246678233146667e-02 -9.619138203561306000e-03 1.471584476530551910e-02 -4.421975463628768921e-03 -3.120513400062918663e-03 7.238857448101043701e-03 -1.650263369083404541e-02 1.069069467484951019e-02 8.740812540054321289e-03 -8.441352401860058308e-04 -1.943352445960044861e-02 -2.309065079316496849e-03 -1.351292245090007782e-03 -2.841749694198369980e-03 1.233396772295236588e-02 2.548230998218059540e-02 1.563659496605396271e-02 -8.836288936436176300e-03 7.980927824974060059e-03 -3.435130696743726730e-03 -2.499677613377571106e-02 -9.953608736395835876e-03 -1.703403308056294918e-03 -2.914677746593952179e-02 -1.063840556889772415e-02 1.407317630946636200e-02 4.652946256101131439e-03
-5.407360848039388657e-03 7.877976633608341217e-03 4.719655495136976242e-03 2.526040188968181610e-04 -6.703031249344348907e-03 -1.482734107412397861e-03 2.674920484423637390e-02 -1.003163214772939682e-02 1.375779882073402405e-02 1.307759433984756470e-02 -1.814507064409554005e-03 7.243379950523376465e-03 -7.918137125670909882e-03 -2.453633816912770271e-03 1.477506663650274277e-02 -1.259485841728746891e-03 1.417501177638769150e-02 -2.686433028429746628e-03 5.435067228972911835e-03 -9.629987180233001709e-03 1.037487015128135681e-02 -4.648298490792512894e-03 -2.307515405118465424e-02 -5.393658066168427467e-04 8.968824520707130432e-03 -9.785123402252793312e-04 -1.136980485171079636e-02 2.661445876583456993e-03 1.744988188147544861e-02 1.919801533222198486e-02 5.546050961129367352e-04 4.988498985767364502e-03 -5.129485856741666794e-03 -1.043975725769996643e-02 -1.045892015099525452e-02 -2.007684484124183655e-02 -9.167902171611785889e-03 -3.194145159795880318e-03 3.425340983085334301e-04 4.860344808548688889e-03 -1.090300385840237141e-03 2.207307890057563782e-02 2.609553514048457146e-03 4.707162268459796906e-03 -1.816906617023050785e-03 3.886333201080560684e-03 -2.748355036601424217e-03 -1.477242913097143173e-02 -1.431553717702627182e-02 -6.921841122675687075e-05 1.114704273641109467e-02 3.836116986349225044e-03 2.249263413250446320e-02 -1.096099615097045898e-02 -3.077846486121416092e-03 -1.130767818540334702e-02 2.744817873463034630e-03 -1.768383383750915527e-02 -5.261795129626989365e-03 1.828508451581001282e-02 -8.360483683645725250e-03 6.880811415612697601e-03 3.248079912737011909e-03 1.310909749008715153e-03 -5.370395723730325699e-03 6.474537774920463562e-03 -7.470780052244663239e-03 -2.715550363063812256e-03 -1.852009259164333344e-02 6.698926910758018494e-03 4.754810128360986710e-03 6.989357061684131622e-03 1.036358904093503952e-02 -1.623301208019256592e-02 7.070518564432859421e-03 8.858773857355117798e-03 8.490320295095443726e-03 8.394319564104080200e-03 1.743442565202713013e-02 1.203827559947967529e-03 -2.146918792277574539e-03 1.419361308217048645e-02 -1.903740689158439636e-02 -4.782506264746189117e-03 -4.559576977044343948e-03 -1.016705948859453201e-02 3.405523952096700668e-03 -5.037054885178804398e-03 -2.820807043462991714e-03 -8.418950252234935760e-03 3.490680828690528870e-03 -2.860961947590112686e-03 -5.533008370548486710e-04 -4.634670913219451904e-04 -1.001344062387943268e-02 1.126827020198106766e-02 -6.644637323915958405e-03 9.177184663712978363e-03 -5.394150968641042709e-03 -2.440290758386254311e-03 -9.083509445190429688e-03 -2.337682526558637619e-03 -1.983530120924115181e-03 1.037631742656230927e-02 -6.260740570724010468e-03 8.530013263225555420e-03 -9.142711758613586426e-03 1.816543168388307095e-03 -1.048624049872159958e-02 -6.671451497822999954e-03 2.274503000080585480e-02 -5.043363780714571476e-04 -1.176541484892368317e-02 8.323335088789463043e-03 -1.024118624627590179e-02 -1.278090756386518478e-02 5.626071710139513016e-03 -3.309381718281656504e-04 -9.598013013601303101e-03 -8.832495077513158321e-04 -2.293433994054794312e-03 6.606596522033214569e-03 -1.012380700558423996e-02 4.811012477148324251e-04 -2.787527628242969513e-02 4.414651077240705490e-03 -3.215953707695007324e-03 1.904596388339996338e-02 5.815424956381320953e-03 1.611693017184734344e-02 -2.420370699837803841e-03 -5.590668413788080215e-03 4.823910421691834927e-05 -2.568481117486953735e-02 4.932807059958577156e-04 -1.685906201601028442e-02 -4.694591276347637177e-03 -2.365995896980166435e-04 -2.287660492584109306e-03 -8.840423077344894409e-03 -1.025159843266010284e-02 5.696173757314682007e-04 -2.054935507476329803e-02 -7.088237907737493515e-03 -1.416624756529927254e-03 6.293284241110086441e-03 -1.622278057038784027e-02 7.328441832214593887e-03 -6.094030570238828659e-03 3.436987055465579033e-03 3.069176338613033295e-03 -2.222441835328936577e-03 -1.838866854086518288e-03 -2.803988754749298096e-03 2.608823997434228659e-04 1.666951691731810570e-03 -1.589681766927242279e-02 1.016829744912683964e-03 1.390119735151529312e-02 -2.741789631545543671e-02 1.184211950749158859e-02 -7.983093149960041046e-03 1.585461013019084930e-02 -5.351182771846652031e-04 -2.613372867926955223e-03 6.523729301989078522e-03 3.829583991318941116e-03 -2.004908770322799683e-02 -3.736227983608841896e-03 -8.877112530171871185e-03 -5.689359270036220551e-03 7.716945372521877289e-03 2.874000638257712126e-04 -1.613071747124195099e-02 -1.310915593057870865e-02 -1.404378563165664673e-02 1.466380245983600616e-02 -1.168384216725826263e-02 -1.689944416284561157e-02 5.923862103372812271e-03 -1.585963182151317596e-02 8.294260129332542419e-03 -2.991227433085441589e-03 7.563182152807712555e-03 1.460594357922673225e-03 -1.119883917272090912e-02 1.520990021526813507e-02 -3.919873852282762527e-03 4.824729170650243759e-03 1.716206222772598267e-02 -1.145635358989238739e-02 -1.195640210062265396e-02 -1.033500116318464279e-02 -6.404722575098276138e-03 8.244667202234268188e-03 9.555525146424770355e-03 -1.230448397109284997e-04 5.805384367704391479e-03 -1.340846251696348190e-02 -5.577885080128908157e-03 -1.890428550541400909e-02 -3.071849932894110680e-03 -2.547657862305641174e-02 -1.822177693247795105e-02 -2.877925289794802666e-03 1.322842482477426529e-02 4.351544776000082493e-04 4.371590446680784225e-03 1.605574041604995728e-02 -1.629180274903774261e-02 -7.955403067171573639e-03 -8.701905608177185059e-03 2.303943736478686333e-03 1.637715101242065430e-02 -1.686448347754776478e-03 -1.494846679270267487e-02 -1.995215378701686859e-02 2.405200153589248657e-03 -3.576228395104408264e-03 2.438823226839303970e-03 -2.193280123174190521e-02 -1.686674309894442558e-03 7.808383088558912277e-03 1.469955686479806900e-02 1.714670099318027496e-02 -4.080256447196006775e-03 1.131122000515460968e-02 3.738530445843935013e-03 -5.949974060058593750e-03 6.708714179694652557e-03 -3.683230839669704437e-03 8.845435455441474915e-03 -6.136311218142509460e-03 -1.419654674828052521e-02 -2.819040557369589806e-03 2.437699353322386742e-03 -1.147052645683288574e-02 -1.771641522645950317e-02 2.771721687167882919e-03 1.202941965311765671e-02 2.106946520507335663e-02 3.592189750634133816e-04 -2.084588864818215370e-03 -7.693136576563119888e-04 9.389254264533519745e-03 1.099911241908557713e-04 -2.765434561297297478e-03 -5.984433926641941071e-03 -7.535079028457403183e-03 1.619637012481689453e-02 -5.336363334208726883e-03 -1.621281914412975311e-02 -7.395285647362470627e-03 -6.833137013018131256e-03 2.148398663848638535e-03 1.690199226140975952e-02
-5.658786278218030930e-03 1.435974054038524628e-02 1.093387603759765625e-02 1.938654691912233829e-03 -1.737996377050876617e-02 -5.342119839042425156e-03 -1.468201261013746262e-02 1.632312312722206116e-02 -3.816139185801148415e-03 6.611018441617488861e-03 1.916499622166156769e-02 2.423130441457033157e-03 8.003480732440948486e-03 4.915519617497920990e-03 1.799995079636573792e-02 -2.572079189121723175e-03 1.001373492181301117e-02 1.005529332906007767e-02 -2.889405377209186554e-02 -1.668499782681465149e-02 -8.753629401326179504e-03 1.279048994183540344e-02 -1.686903089284896851e-02 1.291417633183300495e-03 -1.008686516433954239e-02 -1.669699512422084808e-02 -6.648599170148372650e-03 -8.687501773238182068e-03 -3.214501310139894485e-03 1.373147964477539062e-02 -5.933018401265144348e-03 1.860324107110500336e-02 -1.279365271329879761e-03 -1.044124714098870754e-03 7.230419665575027466e-03 1.260335650295019150e-02 7.032306399196386337e-03 1.612744666635990143e-02 -1.908984268084168434e-03 1.392532605677843094e-02 1.103148516267538071e-02 1.203141920268535614e-02 2.460725139826536179e-03 -2.723142039030790329e-03 8.473994210362434387e-03 3.126916475594043732e-03 1.863252022303640842e-03 4.540225025266408920e-03 8.905786089599132538e-03 6.671763025224208832e-03 1.219000387936830521e-02 -8.167351596057415009e-03 -7.250016555190086365e-03 6.104321684688329697e-03 -1.090224273502826691e-02 2.608800772577524185e-03 -2.836932661011815071e-03 -1.819140464067459106e-02 2.907715924084186554e-02 1.376294065266847610e-02 3.355708904564380646e-03 -5.847500171512365341e-03 2.313134958967566490e-03 4.155406728386878967e-03 1.808341778814792633e-02 -2.637014491483569145e-03 9.087097132578492165e-04 1.876372657716274261e-02 5.779400002211332321e-03 -9.875667281448841095e-03 1.379025750793516636e-03 -3.355077467858791351e-03 1.611195504665374756e-02 1.347942091524600983e-02 7.838663645088672638e-03 1.579682156443595886e-02 2.342711668461561203e-04 -1.618567272089421749e-03 4.113022238016128540e-03 4.815592896193265915e-03 3.196486039087176323e-03 6.469287909567356110e-04 1.037150621414184570e-03 -2.416831254959106445e-02 6.540566217154264450e-03 -1.392839010804891586e-03 -6.434881594032049179e-03 7.521565537899732590e-03 4.576942417770624161e-03 1.513087749481201172e-02 -8.598974905908107758e-03 1.297271228395402431e-03 7.266659289598464966e-03 7.679758593440055847e-03 -1.279539242386817932e-02 -8.862819522619247437e-03 6.966669112443923950e-03 1.826803013682365417e-02 8.261847309768199921e-03 1.125818956643342972e-02 3.217544639483094215e-03 1.427628751844167709e-02 -6.208354141563177109e-03 1.201180368661880493e-02 6.607128772884607315e-03 8.812353946268558502e-03 5.377495195716619492e-03 -1.050924509763717651e-02 8.442146703600883484e-03 -9.754238650202751160e-03 5.340983159840106964e-03 1.893200725317001343e-02 -1.432584784924983978e-02 1.017699111253023148e-02 3.881036769598722458e-03 5.638413596898317337e-03 -6.783691700547933578e-03 1.143478788435459137e-02 1.041089836508035660e-02 -1.024121325463056564e-02 8.376159705221652985e-03 -8.516997913829982281e-04 7.409871555864810944e-03 -1.178951002657413483e-02 -1.891732588410377502e-02 1.591281220316886902e-02 7.495387457311153412e-03 1.660243235528469086e-02 1.683500036597251892e-02 -4.797705332748591900e-05 6.060325074940919876e-03 -2.484793076291680336e-03 -5.439904052764177322e-03 4.016776569187641144e-03 -2.538271714001893997e-03 9.337541647255420685e-03 1.234775641933083534e-03 -3.584592603147029877e-03 -4.680028650909662247e-03 1.035164808854460716e-03 6.424508057534694672e-03 -9.095907444134354591e-04 -3.157011698931455612e-03 -8.953772485256195068e-03 2.745659090578556061e-03 -6.992822978645563126e-03 -1.010908512398600578e-03 2.326367190107703209e-03 -1.813056878745555878e-02 -6.554500665515661240e-03 -7.930829888209700584e-04 1.222460065037012100e-03 7.750418502837419510e-03 -7.616900373250246048e-03 -1.007993891835212708e-02 -2.130797598510980606e-03 1.633776351809501648e-02 5.321656819432973862e-03 -1.434821751900017262e-03 -1.472357660531997681e-02 -1.565578579902648926e-02 -1.167800370603799820e-02 4.675101954489946365e-03 1.446000672876834869e-02 -1.649195142090320587e-02 9.082683362066745758e-03 -1.202068012207746506e-02 -1.613584719598293304e-02 3.444057423621416092e-03 -1.425596419721841812e-02 1.002287375740706921e-03 -1.622763578779995441e-03 1.318850927054882050e-02 -5.982321687042713165e-03 1.795821636915206909e-02 1.748321764171123505e-02 -7.295599207282066345e-03 6.707755848765373230e-03 -1.441631866327952594e-05 6.003671791404485703e-03 6.187327206134796143e-03 -7.431746926158666611e-03 5.785265471786260605e-03 -3.407981246709823608e-02 2.662094484549015760e-04 -5.861032754182815552e-03 3.579871030524373055e-03 -1.019544899463653564e-02 9.766033850610256195e-03 -3.145054727792739868e-02 6.023646797984838486e-03 7.883643731474876404e-03 -5.673002451658248901e-03 -1.176607143133878708e-02 -1.941126422025263309e-03 1.013808883726596832e-02 2.495901193469762802e-03 2.693030284717679024e-03 -8.217973634600639343e-03 6.325926166027784348e-03 2.035301411524415016e-03 1.667699962854385376e-02 -2.602819120511412621e-03 2.930598100647330284e-03 2.884821267798542976e-03 2.325237961485981941e-03 -1.481983927078545094e-03 -1.523314975202083588e-03 3.056711750105023384e-03 -1.370350923389196396e-02 5.626563448458909988e-03 -9.626152314012870193e-05 5.302178673446178436e-03 -1.170163881033658981e-02 -2.149054035544395447e-02 -1.824001409113407135e-02 -1.096544205211102962e-03 1.145432610064744949e-02 -8.947408059611916542e-04 3.629181999713182449e-03 -1.292988192290067673e-03 6.723274011164903641e-03 -1.600052346475422382e-03 7.985583506524562836e-03 4.008484538644552231e-03 1.032446883618831635e-02 8.527742698788642883e-03 -1.448038686066865921e-02 -4.198204260319471359e-03 3.829591907560825348e-03 2.439020463498309255e-04 -3.442578716203570366e-03 -1.387912966310977936e-02 1.716888509690761566e-02 9.286060929298400879e-03 7.194246281869709492e-04 1.313892565667629242e-02 -6.601340137422084808e-04 1.489652041345834732e-02 -4.118031822144985199e-03 -3.727765521034598351e-03 -4.244292154908180237e-03 1.199353579431772232e-02 9.153246879577636719e-03 2.026634290814399719e-02 9.202670771628618240e-04 -6.598149891942739487e-03 9.778432548046112061e-03 5.227631889283657074e-03 -3.762744832783937454e-03 -6.074861623346805573e-03 -1.747318077832460403e-03 1.932047656737267971e-03 -7.326401770114898682e-03 1.172713562846183777e-02 1.165787130594253540e-02
-1.106248330324888229e-02 1.112303696572780609e-02 1.318946294486522675e-02 -4.277742002159357071e-03 5.625493824481964111e-03 -7.184365764260292053e-03 -2.402949146926403046e-03 -7.860670797526836395e-03 1.621775329113006592e-02 1.125277765095233917e-02 1.097645238041877747e-02 5.259717348963022232e-03 -1.030731294304132462e-02 7.455307524651288986e-03 1.795624196529388428e-02 -3.382904687896370888e-03 1.102009136229753494e-02 -5.118168424814939499e-03 2.352796029299497604e-03 1.125290524214506149e-02 6.763039156794548035e-03 1.774639938957989216e-03 -1.025455072522163391e-02 9.335092268884181976e-03 5.719224922358989716e-03 -7.444935385137796402e-03 -5.684131290763616562e-03 -3.443392779445275664e-05 -7.459473563358187675e-04 1.122398115694522858e-02 -3.149833355564624071e-04 -7.612069603055715561e-03 -1.122786197811365128e-02 -2.576514845713973045e-03 4.123664926737546921e-03 -3.759348066523671150e-03 4.141335841268301010e-03 -6.628606468439102173e-03 3.783554129768162966e-04 1.270045712590217590e-02 -1.606506109237670898e-02 -5.460341926664113998e-03 4.140910692512989044e-03 1.101002283394336700e-02 1.139680854976177216e-02 -4.101962782442569733e-03 -4.408526874613016844e-04 1.080075860954821110e-03 -1.055961125530302525e-03 8.781769312918186188e-03 1.758729852735996246e-02 1.496280543506145477e-03 1.029202598147094250e-03 6.979064084589481354e-03 -5.854821298271417618e-03 -2.559440210461616516e-03 -2.045908011496067047e-03 -1.422700285911560059e-02 1.129895541816949844e-02 2.219351008534431458e-03 -1.325571793131530285e-03 -7.982357405126094818e-03 1.094527076929807663e-02 -5.236353259533643723e-03 1.822675461880862713e-03 7.035886868834495544e-03 -1.841431297361850739e-02 4.858983680605888367e-03 -1.701143570244312286e-02 1.611553877592086792e-02 8.949610404670238495e-03 1.530436682514846325e-03 1.165152713656425476e-02 3.067895537242293358e-03 9.847823530435562134e-03 -1.511529739946126938e-02 4.008097574114799500e-03 5.121216599945910275e-05 1.563681475818157196e-02 -4.556965141091495752e-04 1.748228445649147034e-02 1.049262378364801407e-02 -3.723853442352265120e-04 -1.652074232697486877e-02 -8.450354449450969696e-03 4.123616963624954224e-03 -1.098288106732070446e-03 9.802476502954959869e-03 6.855120882391929626e-03 -1.073838211596012115e-03 -2.076058735838159919e-04 8.848998695611953735e-03 3.783097257837653160e-03 -6.806557998061180115e-03 -1.839678152464330196e-03 -2.112475456669926643e-03 -1.022360008209943771e-02 3.496665041893720627e-03 -2.592466305941343307e-03 -4.844392649829387665e-03 -9.483091533184051514e-03 2.733252709731459618e-03 4.865063354372978210e-03 9.345242753624916077e-03 -2.759651746600866318e-03 6.674078758805990219e-03 -5.990668199956417084e-03 -4.245013464242219925e-03 4.690465983003377914e-03 -2.810947597026824951e-03 2.297705970704555511e-02 -3.855350660160183907e-03 -9.083174169063568115e-03 4.433046560734510422e-03 9.608282707631587982e-03 7.671282161027193069e-03 -5.018490366637706757e-03 -3.523578168824315071e-03 3.818567842245101929e-03 6.139818113297224045e-03 -1.837317086756229401e-02 7.157816551625728607e-03 -1.561273168772459030e-02 -1.632976531982421875e-02 -2.311822585761547089e-02 -7.630251930095255375e-04 -6.085818167775869370e-03 1.267869956791400909e-02 -2.208404912380501628e-04 5.614787805825471878e-03 -2.718872390687465668e-03 -8.759423159062862396e-03 -3.949496429413557053e-03 -4.232264589518308640e-03 -1.355824619531631470e-02 -1.448172679374692962e-05 2.326659392565488815e-03 -9.060518816113471985e-03 -1.291313488036394119e-02 -3.030187217518687248e-03 9.416168904863297939e-04 6.384447682648897171e-03 5.176761187613010406e-04 -9.418668225407600403e-03 -1.317874155938625336e-02 -8.843136020004749298e-03 8.330005221068859100e-03 1.402411609888076782e-02 -6.369200535118579865e-03 1.099064573645591736e-02 -5.388005636632442474e-03 8.147339336574077606e-03 -1.311036385595798492e-02 -1.113542541861534119e-02 1.195870456285774708e-03 -5.762695800513029099e-03 -3.868981963023543358e-03 -5.475683137774467468e-03 5.880230572074651718e-03 -1.502486318349838257e-02 -1.472821226343512535e-03 -9.281983948312699795e-04 1.070031151175498962e-02 1.930097641889005899e-05 -6.447161547839641571e-03 -5.327967461198568344e-03 -3.686076728627085686e-03 -4.922098480165004730e-03 7.635843474417924881e-03 -1.083258446305990219e-02 -2.585906302556395531e-03 2.902063773944973946e-03 -8.194533176720142365e-03 -1.349626109004020691e-02 -7.167533040046691895e-03 8.902386762201786041e-03 1.219927333295345306e-02 1.817791606299579144e-03 2.041572937741875648e-03 -7.111390586942434311e-03 -4.924261476844549179e-03 -3.637531539425253868e-03 -7.455432787537574768e-03 -1.058322750031948090e-02 -4.828919918509200215e-05 -1.493816543370485306e-02 -1.242378260940313339e-03 -1.225370075553655624e-02 1.886455691419541836e-03 8.917371742427349091e-03 -1.635460369288921356e-02 -1.570999156683683395e-03 8.949540788307785988e-04 2.910832874476909637e-03 2.136565186083316803e-02 5.380164831876754761e-03 -1.092575956135988235e-02 9.265862405300140381e-03 -9.877004660665988922e-03 -6.901448126882314682e-03 5.334733286872506142e-04 -7.952356711030006409e-03 -7.156858337111771107e-04 -2.103714272379875183e-03 -6.104515865445137024e-03 6.942195817828178406e-03 -1.007789466530084610e-02 -7.362452801316976547e-03 -3.271422348916530609e-03 -1.852028258144855499e-02 1.371130114421248436e-03 2.884226152673363686e-03 -2.769355662167072296e-03 1.026276778429746628e-02 -3.972714301198720932e-03 7.357379421591758728e-03 9.402910247445106506e-03 5.317704286426305771e-03 4.892090335488319397e-03 -2.050778362900018692e-03 -1.460341643542051315e-02 2.419163938611745834e-03 1.883975579403340816e-03 1.712664961814880371e-02 1.096250768750905991e-02 -8.596729487180709839e-03 -5.035125184804201126e-03 5.532640963792800903e-03 7.489874260500073433e-04 6.105385720729827881e-03 8.232755586504936218e-03 -1.704695820808410645e-02 -4.362509062048047781e-04 6.913144025020301342e-04 -2.970041939988732338e-03 -3.981270361691713333e-03 6.858590058982372284e-03 -1.206000614911317825e-02 1.592703722417354584e-02 7.269608788192272186e-03 1.048112288117408752e-02 -2.517380053177475929e-04 -1.677005924284458160e-02 -6.022489164024591446e-03 1.177786663174629211e-02 -7.194842211902141571e-03 -2.081167884171009064e-02 -1.650333870202302933e-03 -9.734811261296272278e-03 5.272621754556894302e-03 -1.159803476184606552e-03 -7.497045677155256271e-03 -2.853267127647995949e-03 -1.332138385623693466e-02 1.298622693866491318e-02 1.130221877247095108e-02
4.393484909087419510e-03 3.439205000177025795e-03 9.224478853866457939e-04 1.040202844887971878e-02 -3.351333318278193474e-03 -9.380783885717391968e-03 2.531562233343720436e-03 2.078743884339928627e-03 -3.053154097869992256e-03 -9.240656159818172455e-03 4.924819339066743851e-03 -3.399666398763656616e-03 -8.447483996860682964e-04 -6.625921378144994378e-05 9.975324384868144989e-03 -3.605413076002150774e-04 -9.471668861806392670e-03 2.346518595004454255e-04 -1.643435331061482430e-03 -8.847418241202831268e-03 2.936532953754067421e-03 -1.100760232657194138e-02 -1.173245441168546677e-02 -1.720661646686494350e-03 -5.666792392730712891e-03 1.004816382192075253e-03 4.622845910489559174e-03 -1.111714635044336319e-03 4.915464087389409542e-04 5.644017364829778671e-04 5.163630121387541294e-04 -5.061083007603883743e-03 1.143301464617252350e-02 -7.480244385078549385e-04 -1.138232834637165070e-02 -4.461144562810659409e-03 6.015665829181671143e-03 -1.226643798872828484e-03 -7.290602661669254303e-04 3.651145845651626587e-03 1.010298542678356171e-02 1.057037850841879845e-03 7.137143984436988831e-03 3.225869499146938324e-03 1.090680621564388275e-02 2.566695213317871094e-03 -1.371940691024065018e-02 -1.505910768173635006e-03 9.789732284843921661e-04 4.396088887006044388e-03 2.184024313464760780e-03 -1.004894543439149857e-02 9.784905239939689636e-03 8.702142164111137390e-03 -1.037303474731743336e-03 -4.384595900774002075e-03 -4.003303125500679016e-03 3.044742159545421600e-03 7.766305934637784958e-03 -7.696185726672410965e-03 4.588095471262931824e-03 4.277594853192567825e-03 -2.642754465341567993e-03 7.425311487168073654e-03 -1.928972313180565834e-03 -5.093635991215705872e-03 9.364670258946716785e-04 -8.967641741037368774e-03 1.033859141170978546e-02 3.675097599625587463e-03 7.322331890463829041e-03 5.938570946455001831e-03 -4.506632220000028610e-03 -8.487547747790813446e-03 -6.208856357261538506e-04 6.672692019492387772e-03 -3.196121193468570709e-03 -1.331604458391666412e-02 -9.990453720092773438e-03 2.828055759891867638e-03 -5.312513676472008228e-04 -4.177178256213665009e-03 2.487345191184431314e-04 -4.377589211799204350e-04 8.904703427106142044e-04 -9.686894482001662254e-04 -4.480701463762670755e-04 -5.520491860806941986e-03 -2.706344006583094597e-03 2.062043407931923866e-03 1.002306584268808365e-02 -5.271213594824075699e-04 -1.246267202077433467e-04 -7.227350026369094849e-03 3.739901818335056305e-03 2.042828360572457314e-03 -5.855371709913015366e-04 2.703402750194072723e-02 -4.154196474701166153e-03 6.125001236796379089e-03 -2.185726305469870567e-03 -7.387443445622920990e-03 2.816124353557825089e-03 -1.402014680206775665e-02 7.669358165003359318e-04 -2.642325358465313911e-03 -3.053410444408655167e-03 1.710814051330089569e-02 7.989936508238315582e-03 -1.623648335225880146e-03 2.056573517620563507e-03 -3.432769561186432838e-03 -8.443180471658706665e-03 3.498790320008993149e-03 -8.354561403393745422e-03 -5.329577252268791199e-03 -1.215737499296665192e-02 -5.391101352870464325e-03 -1.348305586725473404e-02 1.749187591485679150e-03 1.277757342904806137e-02 -5.927461199462413788e-03 1.294314162805676460e-03 2.067887037992477417e-02 -6.077094934880733490e-03 -1.534740207716822624e-03 3.271306632086634636e-03 5.763197783380746841e-03 -6.078664213418960571e-03 -3.262716811150312424e-03 1.265511848032474518e-03 1.105386577546596527e-02 9.959920309484004974e-03 -6.748321466147899628e-04 5.550280213356018066e-03 3.576860763132572174e-03 7.848376408219337463e-03 8.430020883679389954e-03 -1.879032235592603683e-03 8.465880528092384338e-03 7.050119340419769287e-03 -8.313734084367752075e-03 6.618733052164316177e-03 -6.027318158885464072e-05 5.912568420171737671e-03 8.328351192176342010e-03 -1.281117647886276245e-02 1.594271743670105934e-03 -3.642923547886312008e-05 -2.793951425701379776e-03 -1.386647112667560577e-03 5.037019960582256317e-03 -3.702109912410378456e-03 4.588711599353700876e-04 1.230763178318738937e-02 1.217370037920773029e-03 -1.455454970709979534e-03 -3.225534455850720406e-03 2.017491031438112259e-03 6.650326307862997055e-03 -1.846154453232884407e-03 5.933471024036407471e-03 -8.760948665440082550e-03 4.746509250253438950e-03 8.483847603201866150e-03 6.852441933006048203e-03 -5.146393086761236191e-03 4.264513961970806122e-03 -8.135301992297172546e-03 3.639680333435535431e-03 5.081149749457836151e-03 -8.738984353840351105e-03 3.064865013584494591e-03 6.386263296008110046e-03 -1.107546593993902206e-02 -3.680421737954020500e-03 7.716869935393333435e-03 1.146722584962844849e-02 -7.052794564515352249e-03 -2.172793960198760033e-03 -3.408281365409493446e-03 -7.269958034157752991e-03 -3.900371491909027100e-03 -5.989296361804008484e-03 4.921812098473310471e-03 -2.178872702643275261e-03 1.308441627770662308e-02 -3.713870886713266373e-03 -1.313538639806210995e-03 -7.004786748439073563e-03 6.500175368273630738e-05 8.416632190346717834e-03 -2.616746351122856140e-03 2.701212884858250618e-03 -1.153534045442938805e-03 3.097107168287038803e-03 -4.895626101642847061e-03 -1.166819129139184952e-02 -4.272191436029970646e-04 -1.755996607244014740e-03 -1.322236028499901295e-03 -4.951600451022386551e-03 5.469802767038345337e-03 2.109010238200426102e-03 8.148928754962980747e-04 -2.452046843245625496e-03 -4.160192329436540604e-03 8.291032165288925171e-03 -7.390035782009363174e-03 4.787940997630357742e-03 6.343833170831203461e-03 -4.364543201518245041e-05 1.328802853822708130e-02 1.344457967206835747e-03 4.418938420712947845e-03 9.369345381855964661e-03 -8.636073325760662556e-04 5.138430278748273849e-03 -1.705357059836387634e-02 -6.094831507652997971e-03 -1.268961350433528423e-03 5.664988886564970016e-03 1.721453736536204815e-03 4.435272421687841415e-03 2.768663223832845688e-03 -3.258596989326179028e-04 1.889008795842528343e-03 -1.851218054071068764e-03 1.492645218968391418e-02 5.695183761417865753e-03 2.168580656871199608e-03 7.322763558477163315e-03 4.782717209309339523e-03 -1.131798024289309978e-03 4.238815046846866608e-03 1.460195868276059628e-03 -1.682887086644768715e-03 9.652346372604370117e-03 1.870288630016148090e-03 6.638197693973779678e-03 3.391955979168415070e-04 3.989123273640871048e-03 -7.839535363018512726e-03 3.608681028708815575e-03 -3.483915468677878380e-03 8.524468168616294861e-03 -9.905567392706871033e-03 -1.844056183472275734e-03 1.060314010828733444e-02 -6.686547305434942245e-03 1.559255877509713173e-03 2.117721829563379288e-03 -3.514901036396622658e-03 -6.343044806271791458e-03 -1.168264308944344521e-03 2.261904068291187286e-03
1.640960946679115295e-02 2.763051353394985199e-02 5.924911238253116608e-03 -2.384431660175323486e-03 -6.397279445081949234e-03 -1.198374317027628422e-03 1.112223882228136063e-02 3.553207730874419212e-03 -3.213369054719805717e-04 1.667008921504020691e-02 6.721410900354385376e-03 6.475279573351144791e-03 5.778226070106029510e-03 -5.639113020151853561e-03 4.804555792361497879e-03 8.663631044328212738e-03 3.009103704243898392e-03 7.930884137749671936e-03 -3.775560762733221054e-03 -9.115080349147319794e-03 -3.089049831032752991e-03 -8.420412882514938246e-07 5.579932127147912979e-03 -2.575838705524802208e-03 -2.987098647281527519e-03 -2.261435985565185547e-02 -1.573619665578007698e-03 1.615340472199022770e-03 -1.898800022900104523e-03 -3.927738871425390244e-03 -9.726753458380699158e-03 7.988576777279376984e-03 -3.438071871642023325e-04 -7.327466271817684174e-03 8.794195950031280518e-03 3.557545831426978111e-03 4.588367883116006851e-03 1.457930728793144226e-02 -6.739384494721889496e-03 -5.659327376633882523e-03 1.188243925571441650e-02 -4.443009849637746811e-03 2.047847025096416473e-03 5.245405249297618866e-03 8.060869760811328888e-03 -1.185655593872070312e-03 -1.619218382984399796e-03 -1.095923222601413727e-02 6.761324591934680939e-03 -3.135520266368985176e-03 -1.308212708681821823e-02 -8.680053055286407471e-03 -1.609678380191326141e-03 -5.079686641693115234e-03 -8.226634003221988678e-03 8.866391144692897797e-03 -2.152770757675170898e-03 -9.735111147165298462e-03 7.121196947991847992e-03 3.532871371135115623e-03 -1.077718846499919891e-02 2.119936048984527588e-03 1.048499252647161484e-02 -2.464530756697058678e-03 -4.195299465209245682e-03 7.112090010195970535e-03 2.496493514627218246e-03 -6.907921284437179565e-03 7.474668789654970169e-03 3.198791062459349632e-03 9.178441949188709259e-03 1.315689831972122192e-02 5.790723022073507309e-03 -7.300510536879301071e-03 2.729233121499419212e-03 -1.122452039271593094e-02 -1.934888423420488834e-03 -4.213158506900072098e-03 -6.002486683428287506e-03 1.016192720271646976e-03 -8.749270811676979065e-03 5.392835475504398346e-03 -3.885888028889894485e-03 -1.397716160863637924e-02 8.283847710117697716e-04 -2.371401153504848480e-02 3.209522925317287445e-03 -7.073740009218454361e-03 5.879471427761018276e-04 -6.811838131397962570e-03 1.370799611322581768e-03 -3.572821151465177536e-03 -1.899288181448355317e-04 6.298217340372502804e-04 -6.882697343826293945e-03 -1.864461926743388176e-03 2.905854489654302597e-03 1.222463231533765793e-02 8.069423027336597443e-03 -1.243560400325804949e-04 4.415725124999880791e-04 4.137796349823474884e-03 -2.620822284370660782e-03 1.628585532307624817e-02 -7.564381696283817291e-03 9.773004567250609398e-04 3.914716653525829315e-03 -1.638391870073974133e-03 2.672616683412343264e-04 -3.435209393501281738e-03 1.340788789093494415e-03 9.434120729565620422e-03 -1.538451877422630787e-03 -1.540322991786524653e-04 5.701348418369889259e-04 -1.014371123164892197e-02 -6.426079664379358292e-03 8.499768562614917755e-03 -1.039985218085348606e-03 6.962363258935511112e-04 8.644387125968933105e-04 5.535544361919164658e-03 -2.703592414036393166e-03 6.630972493439912796e-03 2.845752285793423653e-03 9.677245398052036762e-04 1.022708602249622345e-02 7.881927303969860077e-03 3.641223767772316933e-03 -7.452199235558509827e-03 1.649718545377254486e-02 -3.574606671463698149e-04 -4.167190752923488617e-03 1.557583641260862350e-02 -2.713175257667899132e-03 -1.583110424689948559e-03 1.289257314056158066e-03 -2.420940436422824860e-03 -4.961018450558185577e-03 -5.150380544364452362e-03 5.990843288600444794e-03 1.459634955972433090e-02 -5.341901909559965134e-03 -2.627008594572544098e-03 4.061269282829016447e-04 6.328450515866279602e-03 4.582988098263740540e-03 -7.897487841546535492e-03 -5.334788002073764801e-03 6.204025354236364365e-03 -3.529921872541308403e-03 -1.331516541540622711e-02 -3.522024780977517366e-04 5.328264553099870682e-03 -5.481059197336435318e-03 1.931983279064297676e-03 6.615305785089731216e-03 -7.416662410832941532e-04 -1.885172096081078053e-03 -5.007633008062839508e-04 -6.195184774696826935e-03 -1.752972719259560108e-03 8.416885510087013245e-03 -1.117680687457323074e-03 -7.854745723307132721e-03 -6.980075500905513763e-03 2.576567057985812426e-04 -6.299470085650682449e-03 -1.217171736061573029e-02 2.991353161633014679e-03 -1.056514587253332138e-02 2.263166941702365875e-03 9.273112518712878227e-04 2.006317488849163055e-03 -1.091337180696427822e-03 1.153112389147281647e-02 2.947541885077953339e-03 4.417630378156900406e-03 -5.182278342545032501e-03 7.616462535224854946e-04 -2.500565024092793465e-03 -6.690032780170440674e-03 1.086565572768449783e-02 -1.188364066183567047e-02 4.130262415856122971e-03 3.278052434325218201e-03 5.457862280309200287e-03 -5.101026035845279694e-03 3.630865365266799927e-03 -7.018616423010826111e-03 -8.150835521519184113e-03 1.092901546508073807e-02 -4.220895469188690186e-03 -4.990670830011367798e-03 1.181056813948089257e-05 3.213206771761178970e-03 -1.529168221168220043e-03 -4.998852498829364777e-03 -1.307696197181940079e-02 -3.550226567313075066e-03 -2.049028640612959862e-03 -8.514108485542237759e-04 -1.061473879963159561e-02 -1.717640203423798084e-03 8.471688255667686462e-03 1.638808473944664001e-02 -1.442500948905944824e-02 -1.485318224877119064e-02 4.245834890753030777e-03 -4.787456709891557693e-03 -1.066703815013170242e-02 -1.733446842990815639e-03 -4.210606683045625687e-03 -4.696371499449014664e-03 -1.889987103641033173e-02 -3.563372883945703506e-03 -5.700969602912664413e-03 3.565068822354078293e-03 5.905053578317165375e-03 2.356511540710926056e-03 -3.777030215132981539e-04 -1.468025147914886475e-03 6.670001894235610962e-03 4.352147690951824188e-03 6.234105210751295090e-03 9.020357392728328705e-03 -3.925656434148550034e-03 9.067428298294544220e-03 1.187053602188825607e-02 5.314148147590458393e-04 -6.287914700806140900e-03 -2.443107310682535172e-03 9.861600119620561600e-04 2.660103142261505127e-03 6.767432205379009247e-03 5.058065522462129593e-03 6.563443224877119064e-03 2.485994482412934303e-03 1.952320686541497707e-03 1.992276171222329140e-03 -4.643167369067668915e-03 -4.273971426300704479e-04 -4.285478033125400543e-03 1.640229020267724991e-03 -2.639884594827890396e-03 -5.879927892237901688e-03 9.131924249231815338e-03 -2.825869247317314148e-03 -9.004930965602397919e-03 8.209749124944210052e-03 -3.216561395674943924e-03 8.157902397215366364e-03 6.939044687896966934e-03 -5.023429635912179947e-03 -9.462220594286918640e-03 5.945700686424970627e-03
-3.141680732369422913e-03 7.184491492807865143e-03 2.456690184772014618e-03 -2.322336891666054726e-03 -1.287941704504191875e-03 2.179132308810949326e-03 -8.856501430273056030e-03 2.980117220431566238e-03 2.420710865408182144e-03 3.471725387498736382e-03 1.293864566832780838e-02 8.780038915574550629e-03 -5.828205030411481857e-03 5.531946080736815929e-04 2.819712972268462181e-03 9.023059392347931862e-04 9.104071184992790222e-03 -2.289769938215613365e-03 3.129279473796486855e-03 1.508033717982470989e-03 1.876980997622013092e-03 3.868653438985347748e-03 1.265370752662420273e-02 8.324477821588516235e-03 1.062679802998900414e-03 -4.568444099277257919e-03 7.982017472386360168e-03 2.154702553525567055e-03 -1.841293531470000744e-03 4.074254073202610016e-03 1.393441343680024147e-03 5.649843253195285797e-03 -1.079983916133642197e-02 6.779900868423283100e-04 6.288067903369665146e-03 1.706790411844849586e-03 2.097326098009943962e-03 8.404399268329143524e-03 7.589255459606647491e-03 4.025049565825611353e-04 1.547135412693023682e-03 -3.571123117581009865e-03 -8.833426982164382935e-03 -6.539395544677972794e-03 4.335517005529254675e-04 2.253107493743300438e-03 1.259666774421930313e-02 -2.660912694409489632e-03 -4.911013878881931305e-03 3.559676930308341980e-03 -4.669487476348876953e-03 4.558328073471784592e-03 1.178040285594761372e-03 1.757571008056402206e-03 -3.672356717288494110e-03 -3.321381751447916031e-03 3.978048451244831085e-03 4.805258940905332565e-03 1.247760001569986343e-02 5.611215252429246902e-03 -1.104341819882392883e-02 -4.298813641071319580e-03 -4.544227384030818939e-03 3.200489562004804611e-03 5.233722738921642303e-03 1.448097359389066696e-02 -4.386669490486383438e-03 3.463499248027801514e-03 -1.694997958838939667e-02 8.658730424940586090e-03 -1.522524841129779816e-02 2.873837249353528023e-03 9.817026555538177490e-03 6.238702684640884399e-03 5.094183608889579773e-03 -1.503902836702764034e-03 1.917246263474225998e-03 4.080317914485931396e-03 5.891276523470878601e-04 -8.157100528478622437e-03 -5.777708720415830612e-03 9.322760626673698425e-03 -2.147906459867954254e-03 -5.748958326876163483e-03 -8.933024480938911438e-03 -1.221470534801483154e-02 1.036201138049364090e-02 5.004047416150569916e-03 1.135702477768063545e-03 5.655151326209306717e-03 -9.325448772870004177e-04 1.994461053982377052e-03 1.042083371430635452e-02 4.880850203335285187e-03 4.838663153350353241e-03 -3.820806508883833885e-03 5.348011385649442673e-03 -6.063965149223804474e-03 -3.674522042274475098e-03 3.997180145233869553e-03 -1.947459182702004910e-03 8.343198336660861969e-03 2.005095826461911201e-03 2.041114121675491333e-02 -8.488521911203861237e-03 -3.304190933704376221e-03 -1.074834913015365601e-02 -1.182983163744211197e-03 8.379075676202774048e-03 -3.843522164970636368e-03 4.720201715826988220e-03 6.169170606881380081e-03 -2.173489192500710487e-03 1.202443148940801620e-02 -2.115652430802583694e-03 8.579277433454990387e-03 1.645036390982568264e-04 2.574706682935357094e-03 4.097748547792434692e-03 -5.874466616660356522e-03 5.249042063951492310e-03 -6.422772072255611420e-03 3.194945631548762321e-03 2.211143728345632553e-03 -7.149041630327701569e-03 4.804758820682764053e-03 9.500196203589439392e-03 1.875999965704977512e-03 5.641454830765724182e-03 5.525724496692419052e-03 -3.814257681369781494e-03 4.201326053589582443e-03 1.640512142330408096e-03 -4.160916432738304138e-03 2.138794399797916412e-02 6.729163695126771927e-03 -7.698124740272760391e-03 4.611962474882602692e-03 -7.305796723812818527e-03 9.569546673446893692e-04 -6.162717007100582123e-03 3.874040208756923676e-03 3.642334137111902237e-03 -4.912123084068298340e-03 -1.731705735437572002e-03 5.810008384287357330e-03 -3.258929587900638580e-03 -1.108321011997759342e-03 -7.385108037851750851e-04 3.690232289955019951e-03 -1.956120133399963379e-03 1.711871125735342503e-03 -6.307667586952447891e-03 -9.660913492552936077e-04 -3.997703024651855230e-04 2.868357114493846893e-03 -1.287109684199094772e-03 3.443726163823157549e-04 8.417657576501369476e-03 -1.524639036506414413e-02 1.097350032068789005e-03 1.711052143946290016e-03 1.613133470527827740e-03 9.774316102266311646e-03 5.722453352063894272e-03 2.514862455427646637e-03 1.023712684400379658e-03 -2.949284389615058899e-03 5.325194448232650757e-03 -8.570061996579170227e-03 -4.174482077360153198e-03 4.396124277263879776e-03 -5.763594526797533035e-03 -2.790113503579050303e-04 2.535309409722685814e-03 3.210106398910284042e-03 -5.564928520470857620e-03 -7.777010323479771614e-04 -1.294960267841815948e-03 -5.691696424037218094e-03 -2.087171189486980438e-03 2.146654995158314705e-03 6.586017552763223648e-03 -4.434152971953153610e-03 -2.158708171918988228e-03 -5.720183253288269043e-03 -1.596221886575222015e-02 -3.035053960047662258e-04 -1.034145709127187729e-02 -1.577589847147464752e-02 -1.181546412408351898e-02 1.229447545483708382e-03 -8.938992395997047424e-03 5.782822612673044205e-03 1.283128978684544563e-03 2.770868362858891487e-03 -1.651721890084445477e-03 -9.966957382857799530e-03 4.364536609500646591e-03 -5.260623525828123093e-03 2.099306322634220123e-03 2.107932523358613253e-04 5.460313055664300919e-03 -1.099764602258801460e-03 1.921359216794371605e-03 9.574306197464466095e-03 -3.150519914925098419e-03 -1.160603133030235767e-03 1.808750792406499386e-03 -3.782350802794098854e-03 4.286834504455327988e-03 8.114947006106376648e-03 4.443130455911159515e-03 3.873830428346991539e-03 -4.578143358230590820e-03 -1.115114521235227585e-02 4.078154917806386948e-03 -3.882368095219135284e-03 1.021997537463903427e-02 9.171193465590476990e-03 -2.129518659785389900e-03 5.380942020565271378e-04 -9.423906914889812469e-03 -1.167007503681816161e-04 1.185704488307237625e-02 8.781929500401020050e-03 -3.131198231130838394e-03 -4.747536033391952515e-03 -6.703700404614210129e-03 1.229259185492992401e-02 2.735855756327509880e-03 -6.824296899139881134e-03 6.207282654941082001e-03 -6.320767570286989212e-03 4.436051473021507263e-03 -3.629745042417198420e-04 -8.076800731942057610e-04 5.469482857733964920e-03 1.113965641707181931e-02 -1.327190257143229246e-04 -7.881081663072109222e-03 -6.862330250442028046e-03 -2.721516648307442665e-03 -8.493842557072639465e-03 4.934727214276790619e-03 -7.685468532145023346e-03 -6.482249591499567032e-03 -1.448957156389951706e-02 -9.635959751904010773e-03 3.248700872063636780e-03 1.692422851920127869e-02 -4.851351492106914520e-03 -1.011918019503355026e-02 -7.841624319553375244e-03 3.416621359065175056e-03 3.521495731547474861e-03
