-2.390027046203613281e-02 -2.029297873377799988e-02 -1.747016608715057373e-02 4.354706779122352600e-02 1.581553369760513306e-01 1.365363504737615585e-02 5.512164905667304993e-03 -3.619806468486785889e-02 -1.481827348470687866e-01 -1.705048233270645142e-01 -3.632520139217376709e-02 4.270190745592117310e-02 6.295653432607650757e-02 -2.149014919996261597e-02 2.256172336637973785e-02 -3.192033618688583374e-02 1.519619226455688477e-01 4.008260369300842285e-02 5.779697373509407043e-02 -5.074230208992958069e-02 1.760570108890533447e-01 2.006584964692592621e-02 1.651448756456375122e-01 -1.970949769020080566e-02 1.185225043445825577e-02 8.538304269313812256e-02 6.554381549358367920e-02 8.509147167205810547e-02 -3.038212843239307404e-02 -7.947700470685958862e-02 -3.964386135339736938e-02 -5.828663334250450134e-02 2.527587302029132843e-02 3.846874088048934937e-02 -1.169753298163414001e-01 -5.527312308549880981e-02 -1.437199395149946213e-02 -8.617487549781799316e-02 -2.543324232101440430e-02 -2.474016845226287842e-01 9.633942507207393646e-03 5.856486037373542786e-02 2.125119417905807495e-02 -6.087455525994300842e-02 -1.197554022073745728e-01 3.573182597756385803e-02 1.906813234090805054e-01 1.487432271242141724e-01 3.443367779254913330e-02 3.298423066735267639e-02 -3.921885415911674500e-02 2.838203497231006622e-02 -1.084135398268699646e-01 9.388441219925880432e-03 2.197200059890747070e-01 6.352815032005310059e-02 -1.761126667261123657e-01 1.014669984579086304e-01 -1.031927615404129028e-01 3.621363267302513123e-02 -6.058786809444427490e-02 5.041905865073204041e-02 -9.101066738367080688e-02 -2.434153668582439423e-02 7.124075293540954590e-02 -5.480972677469253540e-02 8.217594027519226074e-02 -1.084292307496070862e-01 -1.133904978632926941e-02 3.010958991944789886e-02 4.986124858260154724e-02 -9.674666076898574829e-02 -1.721715740859508514e-02 -4.925159364938735962e-02 -4.708079993724822998e-02 1.187321022152900696e-01 1.834846287965774536e-01 4.171466082334518433e-02 -1.021722406148910522e-01 -9.446818381547927856e-02 -1.097124889492988586e-01 -9.128473699092864990e-02 -1.617690175771713257e-02 -1.118753850460052490e-01 2.009623683989048004e-02 1.620242297649383545e-01 4.494333639740943909e-02 -7.958121597766876221e-02 -7.118248194456100464e-02 1.335462033748626709e-01 -4.046714678406715393e-02 -3.360741585493087769e-02 -5.533107370138168335e-02 1.799023300409317017e-01 4.517469927668571472e-02 -4.168211668729782104e-02 1.359920799732208252e-01 -1.681373566389083862e-01 -1.763821691274642944e-01 2.632170915603637695e-01 -8.973639458417892456e-02 -1.948443986475467682e-02 -5.724046006798744202e-02 2.223907783627510071e-02 -3.914447501301765442e-02 -2.278618514537811279e-02 -5.405483022332191467e-02 8.410065621137619019e-02 -1.812305487692356110e-02 1.672236062586307526e-02 -8.463403582572937012e-02 8.855755627155303955e-02 -1.037258189171552658e-02 -6.128653138875961304e-02 3.942711651325225830e-02 8.258114755153656006e-02 1.819937825202941895e-01 -8.011762797832489014e-02 4.006756097078323364e-02 1.505890190601348877e-01 -2.622133120894432068e-02 -9.080019593238830566e-02 1.872568204998970032e-02 1.584677840583026409e-03 2.559726126492023468e-02 4.938232526183128357e-02 -1.120835244655609131e-01 -4.653175175189971924e-02 -1.112975995056331158e-03 2.427260205149650574e-02 3.391799703240394592e-02 1.389580667018890381e-01 -1.161750927567481995e-01 6.057807710021734238e-03 -1.086255535483360291e-02 5.985935777425765991e-02 -5.292212218046188354e-02 1.289218664169311523e-03 1.271827965974807739e-01 -1.809540688991546631e-01 8.811825513839721680e-02 -4.423752427101135254e-02 3.473155945539474487e-02 7.979936897754669189e-02 -6.534018367528915405e-02 -8.844888955354690552e-02 -7.735190540552139282e-02 -1.052206754684448242e-02 -1.442063152790069580e-01 2.662609145045280457e-02 2.821210213005542755e-02 -1.168270409107208252e-01 2.495407611131668091e-01 -2.343910373747348785e-02 1.328032761812210083e-01 -4.579430073499679565e-02 3.045919723808765411e-02 1.291205137968063354e-01 -1.082723364233970642e-01 -2.068439312279224396e-02 1.031084582209587097e-01 -9.275785833597183228e-02 3.176531568169593811e-02 -6.821002066135406494e-02 1.408564001321792603e-01 9.466687915846705437e-04 2.507144585251808167e-02 -3.993670269846916199e-02 6.663873046636581421e-02 -4.433983936905860901e-02 1.369726844131946564e-02 5.795001611113548279e-02 -2.547793462872505188e-02 -6.280100345611572266e-02 3.527649119496345520e-02 -9.929344058036804199e-02 -2.594591118395328522e-02 -4.259940236806869507e-02 8.540447056293487549e-02 -6.670019030570983887e-02 1.495320498943328857e-01 -1.181970760226249695e-01 2.364765852689743042e-02 8.989807218313217163e-02 -1.795939542353153229e-02 1.691823303699493408e-01 7.546167820692062378e-02 4.797741398215293884e-02 -1.537021696567535400e-01 1.440749168395996094e-01 -6.477924436330795288e-02 -3.110392391681671143e-02 -3.253459930419921875e-02 -2.909612655639648438e-02 1.936296373605728149e-01 -1.349672079086303711e-01 7.038865983486175537e-02 -5.198060721158981323e-02 3.037427738308906555e-02 2.262757532298564911e-02 8.464883267879486084e-02 1.259669661521911621e-01 -6.756202131509780884e-02 -5.658582225441932678e-02 -9.932683780789375305e-03 -3.204854205250740051e-02 8.448734879493713379e-02 2.140944302082061768e-01 9.279674291610717773e-02 -1.947710067033767700e-01 2.125073783099651337e-02 1.348251849412918091e-02 2.156992815434932709e-02 -1.788582652807235718e-02 9.342704713344573975e-02 8.026461303234100342e-02 1.100974008440971375e-01 -3.983565047383308411e-02 1.411524834111332893e-03 -1.301039308309555054e-01 -1.631675474345684052e-02 -1.377968490123748779e-01 -9.358745813369750977e-02 -1.283974200487136841e-01 1.152642145752906799e-01 4.636710137128829956e-02 4.954969510436058044e-02 -2.558854036033153534e-02 1.198838651180267334e-01 -2.675856947898864746e-01 1.013903170824050903e-01 8.971417695283889771e-02 9.728883951902389526e-02 -1.108986809849739075e-01 2.955390140414237976e-02 3.747044503688812256e-02 -2.639578189700841904e-03 2.749005332589149475e-02 2.309316955506801605e-02 -7.056379318237304688e-02 5.201025307178497314e-02 1.097378507256507874e-01 -6.256665289402008057e-02 -6.306074559688568115e-02 2.615879103541374207e-02 1.108969189226627350e-02 7.163780927658081055e-02 -6.029757857322692871e-02 -2.832034369930624962e-04 -4.010609909892082214e-02 1.970865130424499512e-01 -4.145742952823638916e-02 -3.448774665594100952e-02 -4.199115559458732605e-02 -1.074574887752532959e-02 1.819326728582382202e-02
-6.517204456031322479e-03 -1.519930213689804077e-01 1.028927490115165710e-01 6.360708922147750854e-02 -4.384307563304901123e-02 2.195076271891593933e-02 8.983931690454483032e-02 -2.551449239253997803e-01 1.166180707514286041e-02 1.057244017720222473e-01 3.277228213846683502e-03 2.748972363770008087e-02 1.558072566986083984e-01 1.682669483125209808e-02 1.630577147006988525e-01 8.222289383411407471e-02 -5.084064230322837830e-02 3.119635954499244690e-02 -5.051832646131515503e-02 5.715971067547798157e-02 2.628039382398128510e-02 1.021342873573303223e-01 1.622754931449890137e-01 1.307994406670331955e-02 1.379158198833465576e-01 1.249658316373825073e-01 -7.884502410888671875e-03 1.015722975134849548e-01 5.253700911998748779e-02 2.191918194293975830e-01 9.001519531011581421e-02 3.602978587150573730e-02 5.564718693494796753e-02 4.341641813516616821e-02 7.357577234506607056e-02 -5.386291444301605225e-02 -3.306111693382263184e-02 -5.728714168071746826e-02 -8.637544512748718262e-02 9.225885570049285889e-02 -3.610775247216224670e-02 2.157523781061172485e-01 -6.713201850652694702e-02 -4.511085804551839828e-03 8.768612891435623169e-02 -1.727534085512161255e-01 -1.376308128237724304e-02 1.385840624570846558e-01 8.634337037801742554e-02 6.436716020107269287e-02 -1.350455880165100098e-01 -5.862473323941230774e-02 -3.905620053410530090e-02 -9.994392842054367065e-02 5.763483047485351562e-02 9.497231245040893555e-02 1.261485461145639420e-02 -6.165459752082824707e-02 9.596539288759231567e-02 3.816622120211832225e-05 -1.572382897138595581e-01 -1.560720503330230713e-01 6.687604635953903198e-02 -1.562273204326629639e-01 -1.353371739387512207e-01 1.144498884677886963e-01 -2.791427308693528175e-03 -5.346017330884933472e-02 -4.527157545089721680e-02 5.219697207212448120e-02 1.911488920450210571e-01 -2.089713700115680695e-02 -4.448679462075233459e-02 1.069887503981590271e-01 1.956810951232910156e-01 8.716703206300735474e-02 -6.075450405478477478e-02 -1.772124879062175751e-02 1.158181019127368927e-02 -5.163834430277347565e-03 -7.304783910512924194e-02 4.460742697119712830e-03 -2.514697015285491943e-01 6.293237954378128052e-02 -2.768675237894058228e-02 6.262677907943725586e-02 -9.100303053855895996e-02 5.356781929731369019e-02 -2.601855434477329254e-03 -3.490425646305084229e-02 -2.515980449970811605e-04 1.776804774999618530e-01 1.141740474849939346e-02 2.853091619908809662e-02 -6.216284260153770447e-02 -1.210715621709823608e-01 -2.011625654995441437e-02 -6.309125572443008423e-02 -1.487719565629959106e-01 -5.598232150077819824e-02 -1.666238903999328613e-01 -1.368462294340133667e-02 -1.583038121461868286e-01 1.442930698394775391e-01 1.075939461588859558e-01 4.220150876790285110e-03 -3.963570296764373779e-02 -5.250737071037292480e-02 7.761291414499282837e-02 -1.395611464977264404e-01 -3.970645740628242493e-02 -2.199631035327911377e-01 -6.105044484138488770e-02 -1.039251312613487244e-01 3.261474892497062683e-02 8.373677730560302734e-02 -1.066559031605720520e-01 -1.750137656927108765e-01 2.404272556304931641e-02 -6.856623291969299316e-02 -5.263450741767883301e-02 7.241863757371902466e-02 6.670225411653518677e-02 9.211038053035736084e-02 7.026225328445434570e-02 -1.970493234694004059e-02 8.813179284334182739e-02 7.540176808834075928e-02 -1.461633294820785522e-01 -6.619632244110107422e-02 -4.615451768040657043e-02 4.634704068303108215e-02 1.398511677980422974e-01 3.134205564856529236e-02 2.262492664158344269e-03 -1.170732080936431885e-01 4.451986029744148254e-02 -8.016633801162242889e-03 5.886713508516550064e-03 -5.779378116130828857e-04 4.247145354747772217e-02 -1.793514750897884369e-02 4.732365906238555908e-02 9.157970547676086426e-03 -6.897065788507461548e-02 -1.223369985818862915e-01 -1.036938466131687164e-02 1.073549389839172363e-01 -6.009937077760696411e-02 2.466574124991893768e-02 4.442321136593818665e-02 -1.080798953771591187e-01 1.207806766033172607e-01 -6.557503342628479004e-02 -6.296521425247192383e-02 -1.412988752126693726e-01 8.237694948911666870e-02 -7.021114975214004517e-02 6.477252393960952759e-02 -6.055765599012374878e-02 -2.050783485174179077e-02 4.572122544050216675e-02 -1.142634823918342590e-01 -6.367246806621551514e-02 2.052646316587924957e-02 -7.971815764904022217e-02 9.162775427103042603e-02 2.055127173662185669e-01 1.137675195932388306e-01 -1.566737890243530273e-02 -6.350029259920120239e-02 -9.095566719770431519e-02 -8.658360689878463745e-03 1.486696954816579819e-02 9.062168747186660767e-02 1.853376030921936035e-01 4.076055064797401428e-02 -1.383223105221986771e-02 4.055377468466758728e-02 -7.649536430835723877e-02 -8.057435601949691772e-02 5.787257477641105652e-02 6.298197060823440552e-02 7.872640341520309448e-02 4.620907828211784363e-03 4.952100664377212524e-02 8.527371287345886230e-02 -1.520584076642990112e-01 2.019005594775080681e-03 6.894841790199279785e-02 -3.518829867243766785e-02 8.811937272548675537e-02 -1.146610174328088760e-02 -3.226586803793907166e-02 -3.376944689080119133e-03 1.664742529392242432e-01 1.062970384955406189e-01 5.228687822818756104e-02 1.368922889232635498e-01 3.060760907828807831e-02 -1.039639189839363098e-01 -2.329364605247974396e-02 1.483369022607803345e-01 4.408539086580276489e-02 -5.695753544569015503e-02 -1.066483706235885620e-01 -1.047689095139503479e-01 6.712864339351654053e-02 3.479927405714988708e-02 2.337024733424186707e-02 -1.130236685276031494e-01 -1.176833957433700562e-01 5.673914030194282532e-02 7.408025860786437988e-02 -8.528365753591060638e-03 -5.608469620347023010e-02 4.498759657144546509e-02 1.377853006124496460e-01 6.094689667224884033e-02 3.316889749839901924e-03 -9.719551354646682739e-02 -1.138445213437080383e-01 3.349175676703453064e-02 1.020212844014167786e-01 1.004622653126716614e-01 8.460468053817749023e-02 -1.315035074949264526e-01 9.929930791258811951e-03 7.206315547227859497e-02 -1.854930818080902100e-02 -2.479768395423889160e-01 -1.210636869072914124e-01 7.682402431964874268e-02 -7.106918841600418091e-03 -3.119648434221744537e-03 -1.263596490025520325e-02 3.193297237157821655e-02 -9.633865952491760254e-02 -1.108225528150796890e-02 -5.495937913656234741e-02 6.102297082543373108e-02 -8.225446194410324097e-02 -3.370762243866920471e-02 -4.208562523126602173e-02 1.712429523468017578e-02 1.401237584650516510e-02 5.429016426205635071e-02 -3.088306821882724762e-02 -3.960813209414482117e-02 6.060886383056640625e-02 3.667322173714637756e-02 1.862239241600036621e-01 -7.581850141286849976e-02 2.283410541713237762e-02 -2.795510366559028625e-02 -6.152904778718948364e-02
-7.540298998355865479e-02 -7.920295000076293945e-03 1.504648709669709206e-03 2.898216620087623596e-02 -7.434246595948934555e-03 -4.189123958349227905e-02 -3.676371276378631592e-02 4.778736829757690430e-02 -2.548628859221935272e-02 6.824970245361328125e-02 3.090446814894676208e-02 1.035340595990419388e-02 -4.309748485684394836e-02 -8.147725462913513184e-02 4.007124155759811401e-02 4.284618794918060303e-02 9.641947224736213684e-03 -1.216249689459800720e-01 -1.673995703458786011e-02 8.212665468454360962e-02 -1.157787293195724487e-01 -2.148187719285488129e-02 -1.054010167717933655e-01 -6.948320567607879639e-02 -8.515191078186035156e-02 1.679968088865280151e-01 -2.509261853992938995e-02 1.143915355205535889e-01 -2.972645312547683716e-02 1.062321737408638000e-01 -6.715248525142669678e-02 -1.106546148657798767e-01 5.163990706205368042e-02 -1.438187714666128159e-02 -1.761342436075210571e-01 -1.340332329273223877e-01 1.023302823305130005e-01 9.971065074205398560e-02 -2.229363471269607544e-01 -6.920313090085983276e-02 -5.051185563206672668e-02 8.106756210327148438e-02 7.210288941860198975e-02 -1.753904819488525391e-01 -1.632732748985290527e-01 -9.908495098352432251e-02 -1.041568964719772339e-01 6.719957292079925537e-02 6.899753212928771973e-02 1.132216230034828186e-01 -1.483194879256188869e-03 8.256410807371139526e-02 3.643243387341499329e-02 -6.748196203261613846e-03 3.281953930854797363e-02 -4.653938487172126770e-02 1.095339432358741760e-01 1.134735867381095886e-01 3.517838194966316223e-02 -9.462507814168930054e-02 1.238996386528015137e-01 4.644411802291870117e-02 -4.010792821645736694e-02 3.628008067607879639e-03 -1.629996597766876221e-01 -7.469229865819215775e-03 7.730357348918914795e-02 -4.975372180342674255e-02 1.758324950933456421e-01 8.604357391595840454e-02 1.045556440949440002e-01 -1.758683240041136742e-03 2.084119468927383423e-01 -2.519059553742408752e-02 -1.131864488124847412e-01 2.302263863384723663e-02 7.769542280584573746e-03 4.359027743339538574e-02 1.846031844615936279e-01 -6.539249420166015625e-02 2.571277879178524017e-02 1.123889088630676270e-01 1.297780424356460571e-01 9.647835046052932739e-02 7.687622308731079102e-02 -1.606877893209457397e-02 3.345577046275138855e-02 -2.366902492940425873e-02 1.604319214820861816e-01 2.181292511522769928e-02 5.190457776188850403e-02 -4.158668965101242065e-02 4.527632519602775574e-02 -4.973734542727470398e-02 -1.401059925556182861e-01 -4.623576253652572632e-02 -3.685652464628219604e-02 1.347449421882629395e-01 5.837604030966758728e-02 -3.795262798666954041e-02 9.383261948823928833e-02 7.208193093538284302e-02 4.053822904825210571e-02 1.840633600950241089e-01 -3.199903992936015129e-03 4.294309020042419434e-02 -4.912724345922470093e-02 -1.141298096626996994e-02 3.948246315121650696e-02 1.501588057726621628e-02 1.134186908602714539e-01 1.618022322654724121e-01 -5.337384343147277832e-02 4.639939218759536743e-02 5.568756535649299622e-02 -1.076329778879880905e-02 -3.436057595536112785e-03 -8.806259185075759888e-02 -1.364836692810058594e-01 5.273589491844177246e-02 -2.816415950655937195e-02 -1.037449464201927185e-01 2.186218053102493286e-01 -4.439181461930274963e-02 2.998503670096397400e-02 -8.021850138902664185e-03 4.142946377396583557e-02 5.154269561171531677e-02 5.778858065605163574e-02 6.290982663631439209e-02 -1.501743048429489136e-01 2.973122987896203995e-03 -3.780519962310791016e-02 5.012967064976692200e-02 -1.029221937060356140e-01 9.643092751502990723e-02 -1.634375937283039093e-02 -6.733848154544830322e-02 5.308882519602775574e-02 3.180508036166429520e-03 8.774419128894805908e-02 4.031698033213615417e-02 1.140638589859008789e-01 1.219636946916580200e-01 -9.967123158276081085e-03 -1.198698207736015320e-01 2.190805412828922272e-02 1.106172278523445129e-01 -8.262477070093154907e-02 4.905869439244270325e-02 4.606018215417861938e-02 6.493569910526275635e-02 1.819130182266235352e-01 -1.864072084426879883e-01 -1.085644215345382690e-01 5.279419943690299988e-02 2.358657307922840118e-02 -2.125879377126693726e-02 -1.822171732783317566e-02 1.940000616014003754e-02 -2.900267019867897034e-02 5.627581849694252014e-02 -4.752040281891822815e-02 6.943073123693466187e-02 -8.112593740224838257e-02 -5.325879901647567749e-02 1.442377269268035889e-02 -1.764190383255481720e-02 1.304282844066619873e-01 -4.249036312103271484e-03 1.136146262288093567e-01 -2.083998918533325195e-01 3.496441245079040527e-02 4.092924296855926514e-02 1.124371290206909180e-01 7.038635201752185822e-03 -4.224238544702529907e-02 3.178994357585906982e-02 -1.665103286504745483e-01 9.739758446812629700e-03 6.022293493151664734e-02 1.641203016042709351e-01 1.251729726791381836e-01 1.950506269931793213e-01 -7.113472372293472290e-02 -1.391742825508117676e-01 8.398410677909851074e-02 -8.906469494104385376e-02 -1.495178043842315674e-01 9.460366331040859222e-03 1.087908372282981873e-01 -9.815409779548645020e-03 -9.802678227424621582e-02 6.898385286331176758e-02 -1.426473259925842285e-01 -1.105788443237543106e-02 6.775071471929550171e-02 1.923965066671371460e-01 -1.273047029972076416e-01 1.150641888380050659e-01 -7.699994742870330811e-02 5.327838659286499023e-02 -1.103379130363464355e-01 -8.095175772905349731e-02 -6.707745045423507690e-02 9.520109742879867554e-03 -1.355595421046018600e-02 4.983343929052352905e-02 -4.535619169473648071e-02 1.955839246511459351e-02 -1.180182769894599915e-01 2.541561126708984375e-01 -1.100581511855125427e-01 -1.865645870566368103e-02 1.044617742300033569e-01 3.585666045546531677e-02 2.101868689060211182e-01 -2.226618230342864990e-01 -2.070841379463672638e-02 -1.281230337917804718e-02 1.352535337209701538e-01 1.119208335876464844e-01 -2.524439990520477295e-02 1.405475139617919922e-01 4.746408760547637939e-02 3.425114974379539490e-02 4.932488128542900085e-02 4.203098267316818237e-02 -5.693396925926208496e-02 -3.438463807106018066e-02 -3.914946690201759338e-02 -1.218352559953927994e-02 -7.497812807559967041e-02 4.173738509416580200e-02 9.680242836475372314e-02 -6.586820632219314575e-02 6.775427609682083130e-02 -1.658864691853523254e-02 -4.261423647403717041e-02 -2.043613232672214508e-02 -1.579403430223464966e-01 -3.073448687791824341e-02 6.183768436312675476e-02 -1.087235808372497559e-01 8.683831244707107544e-02 -1.622734665870666504e-01 1.534704864025115967e-01 -6.036772206425666809e-02 -2.217985875904560089e-02 -5.871815234422683716e-02 1.262627262622117996e-02 1.122409757226705551e-02 -6.791763007640838623e-02 -9.898685663938522339e-02 4.668492078781127930e-02 1.872594282031059265e-02
-1.502169668674468994e-01 7.044110447168350220e-02 -1.267956495285034180e-01 1.849712990224361420e-02 7.609808444976806641e-02 6.160679087042808533e-02 1.250793933868408203e-01 -4.262856394052505493e-02 -6.130556389689445496e-02 -1.415993422269821167e-01 9.919790923595428467e-02 1.166577264666557312e-02 -6.619599461555480957e-02 2.402289509773254395e-01 8.459451794624328613e-02 -8.982267975807189941e-02 -1.019034162163734436e-01 4.139248654246330261e-02 1.953201144933700562e-01 1.270138621330261230e-01 -1.174579784274101257e-01 -1.086316350847482681e-02 -3.853670880198478699e-02 5.898863077163696289e-02 -2.444011718034744263e-02 -1.504547242075204849e-02 -2.094512619078159332e-02 -1.046410202980041504e-02 -2.356659533688798547e-04 -1.101430356502532959e-01 5.449317861348390579e-03 -5.084076523780822754e-02 -4.004440456628799438e-02 -1.291686482727527618e-02 -6.518797576427459717e-02 7.019384205341339111e-02 -1.418880820274353027e-01 9.595920145511627197e-02 -1.151597034186124802e-02 -7.180841267108917236e-02 -1.936236582696437836e-02 -3.221916779875755310e-02 8.311967551708221436e-02 -5.555542930960655212e-02 -3.027833590749651194e-04 -6.508346414193511009e-04 -3.995376173406839371e-03 2.449758909642696381e-02 -1.772430688142776489e-01 -4.020380601286888123e-02 -2.029718756675720215e-01 -2.842176333069801331e-02 -1.246537119150161743e-01 5.309704318642616272e-02 -3.002183698117733002e-02 3.077268833294510841e-03 9.259036742150783539e-03 1.039983928203582764e-01 7.985717058181762695e-02 -3.179819509387016296e-02 -8.108576387166976929e-02 -1.318405270576477051e-01 4.776543006300926208e-02 4.930324386805295944e-03 -5.545358359813690186e-02 4.057238623499870300e-02 3.977473080158233643e-02 -1.385303139686584473e-01 1.849747896194458008e-01 -4.034933820366859436e-02 1.496954411268234253e-01 -1.376405507326126099e-01 -5.849009007215499878e-02 -9.750949591398239136e-02 -1.515048891305923462e-01 1.312924176454544067e-01 -5.677566304802894592e-02 -8.249960839748382568e-02 -5.109820514917373657e-02 1.890042237937450409e-02 -1.543953362852334976e-02 2.602656930685043335e-02 1.016242578625679016e-01 -1.592532247304916382e-01 1.724835019558668137e-03 -8.817288279533386230e-02 -6.855162978172302246e-02 1.224731095135211945e-02 -3.953524678945541382e-02 -3.429132513701915741e-03 -4.311881586909294128e-02 -5.414422601461410522e-02 -1.276465058326721191e-01 -7.258159457705914974e-04 -3.975068405270576477e-02 8.922217786312103271e-02 -1.552457660436630249e-01 -2.198948990553617477e-03 3.114427439868450165e-02 -4.270457662642002106e-03 -7.354471832513809204e-03 1.511230878531932831e-02 1.091928333044052124e-01 1.596827805042266846e-01 1.138233463279902935e-03 7.597033865749835968e-03 -2.953389659523963928e-02 -2.225953042507171631e-01 1.001482009887695312e-01 -3.357012756168842316e-03 -1.425396930426359177e-02 -2.289494499564170837e-02 8.920367062091827393e-02 -8.979435265064239502e-02 9.963306598365306854e-03 -3.982615470886230469e-02 -1.435509920120239258e-01 1.329713612794876099e-01 4.112040996551513672e-02 -9.912557154893875122e-02 8.781042881309986115e-03 8.661338686943054199e-02 3.672984987497329712e-02 -3.539581596851348877e-02 5.338742583990097046e-02 -2.393592894077301025e-02 -3.576675429940223694e-02 1.051424220204353333e-01 4.407949373126029968e-02 2.105562016367912292e-02 5.008792132139205933e-02 1.241161301732063293e-01 -4.863100871443748474e-02 6.711643189191818237e-02 -7.716442644596099854e-02 -1.467678975313901901e-02 2.705631218850612640e-02 8.679994940757751465e-02 -1.380089670419692993e-01 1.142929270863533020e-01 -2.096314169466495514e-02 1.684891879558563232e-01 5.346817895770072937e-02 -3.460618108510971069e-02 8.019182831048965454e-02 1.602033227682113647e-01 -1.002440527081489563e-01 1.006256565451622009e-01 2.590772695839405060e-02 4.881615564227104187e-02 -3.280283883213996887e-02 -1.086066067218780518e-01 5.519068334251642227e-03 1.735234819352626801e-02 -6.687844544649124146e-02 5.266557633876800537e-02 6.403473671525716782e-03 7.583944499492645264e-02 1.053222268819808960e-01 -5.838110670447349548e-02 2.525683259591460228e-03 -4.367299377918243408e-02 -1.533941626548767090e-01 3.753726184368133545e-02 4.405347257852554321e-02 1.936890631914138794e-01 2.035010457038879395e-01 1.595360189676284790e-01 -1.709347665309906006e-01 3.771599382162094116e-02 -3.116696327924728394e-02 2.863703761249780655e-03 -1.655595451593399048e-01 -2.936126291751861572e-01 5.411419272422790527e-02 -8.333401381969451904e-02 4.062205925583839417e-02 7.777873426675796509e-02 -1.653651148080825806e-01 -7.569447159767150879e-02 4.493248835206031799e-02 -2.905181841924786568e-03 1.372946947813034058e-01 1.101966351270675659e-01 -6.811132282018661499e-02 -4.407760500907897949e-02 2.372121438384056091e-02 -1.643816940486431122e-02 1.953012496232986450e-01 -1.507570892572402954e-01 -9.920939058065414429e-02 7.124166935682296753e-02 -4.561526328325271606e-02 9.681544452905654907e-02 2.498930506408214569e-02 -9.502924978733062744e-02 3.692127019166946411e-02 -5.647689104080200195e-02 -1.247653886675834656e-01 -7.025443017482757568e-03 -7.682685554027557373e-02 -1.997963897883892059e-02 -1.194899901747703552e-02 -9.599637240171432495e-02 -3.823911026120185852e-02 -9.651201218366622925e-02 -6.036198511719703674e-02 3.184613585472106934e-02 -1.505033671855926514e-01 1.042224466800689697e-02 1.463054865598678589e-01 -9.051974117755889893e-02 3.763390239328145981e-03 1.150967404246330261e-01 -4.145247861742973328e-02 -8.238898962736129761e-02 -1.198368072509765625e-01 3.792259469628334045e-02 1.875728555023670197e-02 -1.636863648891448975e-01 -8.194029331207275391e-02 1.693606227636337280e-01 -6.848905980587005615e-02 -8.551998436450958252e-02 1.006526127457618713e-01 1.701961755752563477e-01 1.425482630729675293e-01 1.088495329022407532e-01 1.453874353319406509e-02 -8.612121641635894775e-02 1.003147102892398834e-02 -4.928311333060264587e-02 3.401120007038116455e-02 -5.563236027956008911e-02 5.382173135876655579e-02 1.854156851768493652e-01 1.606397032737731934e-01 -1.100079268217086792e-01 -7.345354650169610977e-03 1.237507835030555725e-01 -5.710536148399114609e-03 8.834697306156158447e-03 1.337240636348724365e-01 9.375072270631790161e-02 1.211552694439888000e-01 -8.659639209508895874e-02 -2.660904638469219208e-02 -1.701719500124454498e-02 1.799894869327545166e-01 -4.954427853226661682e-02 -3.416787460446357727e-02 7.308487594127655029e-02 -2.667037211358547211e-02 1.521474681794643402e-02 -2.964040823280811310e-02 5.879887565970420837e-02
2.201742678880691528e-02 -2.710312604904174805e-02 -5.889818072319030762e-02 -1.204985659569501877e-02 -1.122458577156066895e-01 -8.295714110136032104e-02 6.003620848059654236e-02 -1.160355806350708008e-01 -1.181468218564987183e-01 -4.313468560576438904e-02 3.792443498969078064e-02 -1.032141521573066711e-01 7.368360459804534912e-02 9.712242335081100464e-02 9.508581459522247314e-02 -3.415817767381668091e-02 -1.276329308748245239e-01 1.716363131999969482e-01 6.878571957349777222e-02 -1.187571957707405090e-01 -3.172330930829048157e-02 6.510817259550094604e-02 5.706759914755821228e-02 -4.410915076732635498e-02 -1.412991285324096680e-01 -1.915162429213523865e-02 1.355270296335220337e-01 1.842974722385406494e-01 -5.165161192417144775e-02 8.343002200126647949e-02 -2.055909298360347748e-02 3.994861245155334473e-02 -1.012013945728540421e-02 -1.024363115429878235e-01 1.233955323696136475e-01 -2.518683858215808868e-02 1.112390980124473572e-01 -7.886332273483276367e-02 1.518630981445312500e-01 -5.451647564768791199e-03 1.556993648409843445e-02 6.236191838979721069e-02 1.273318082094192505e-01 -4.232713580131530762e-02 5.364308133721351624e-02 -1.694051921367645264e-01 -1.013070419430732727e-01 -4.578062519431114197e-02 4.653863981366157532e-02 9.553647786378860474e-02 8.431597054004669189e-02 1.178050972521305084e-02 2.130715101957321167e-01 -9.199139662086963654e-03 1.001948937773704529e-01 -1.090325489640235901e-01 -5.287463963031768799e-02 4.515641834586858749e-03 -1.044837087392807007e-01 -4.026708379387855530e-02 -1.237606555223464966e-01 9.766427427530288696e-02 -7.544967345893383026e-03 1.295304298400878906e-01 1.388930827379226685e-01 9.536799043416976929e-02 1.141307801008224487e-01 -5.307718738913536072e-02 5.110457167029380798e-02 -8.584354072809219360e-02 1.977867446839809418e-02 7.695028185844421387e-02 6.282411515712738037e-02 1.400457415729761124e-02 -1.596102863550186157e-02 3.813841566443443298e-02 -7.090324908494949341e-02 4.083657637238502502e-02 2.666200511157512665e-02 7.933777570724487305e-02 -5.693691596388816833e-02 1.124723181128501892e-01 -4.229214787483215332e-02 7.121123373508453369e-02 -1.627846248447895050e-02 -1.493738126009702682e-02 2.775540016591548920e-02 -7.442010194063186646e-02 -4.938865080475807190e-02 1.070200353860855103e-01 1.321819275617599487e-01 1.004888117313385010e-01 2.092459797859191895e-02 -4.467498511075973511e-02 1.401610970497131348e-01 -1.231049150228500366e-01 1.223845314234495163e-02 -1.764127053320407867e-02 9.706487506628036499e-02 -8.566406369209289551e-02 4.952557757496833801e-02 -1.386711299419403076e-01 -2.674895152449607849e-02 1.586875878274440765e-02 -2.630656398832798004e-02 5.288161337375640869e-03 -8.574867248535156250e-02 2.400144003331661224e-02 -6.302113831043243408e-02 -2.138501498848199844e-03 1.236644610762596130e-01 1.360665708780288696e-01 -6.538671441376209259e-03 -7.204991579055786133e-02 -5.776140606030821800e-04 3.262034058570861816e-02 1.148876771330833435e-01 9.376560896635055542e-02 1.483052782714366913e-02 -1.823487691581249237e-02 -9.627100080251693726e-02 6.618521362543106079e-02 4.743434488773345947e-02 -9.495417028665542603e-02 -1.177633479237556458e-01 7.314627990126609802e-03 -1.839047074317932129e-01 4.051055386662483215e-02 -1.196224465966224670e-01 2.301542162895202637e-01 -9.459820389747619629e-02 3.252420201897621155e-02 6.509618461132049561e-02 -2.461732365190982819e-02 -3.718631342053413391e-03 1.050822883844375610e-01 1.215111464262008667e-01 6.209047511219978333e-02 -8.337042480707168579e-02 -1.281504184007644653e-01 1.186087951064109802e-01 -3.458647429943084717e-02 -4.812734201550483704e-02 3.176271170377731323e-02 -3.739589080214500427e-02 3.377069905400276184e-02 1.048048287630081177e-01 3.707467764616012573e-02 -6.523317098617553711e-02 1.608206145465373993e-02 6.159197166562080383e-02 -2.616539597511291504e-02 -1.119091436266899109e-01 3.800210356712341309e-02 4.002174362540245056e-02 1.405121572315692902e-02 -4.748502373695373535e-02 1.280750613659620285e-03 -8.355741202831268311e-02 -1.340596377849578857e-01 1.440241783857345581e-01 -3.458960726857185364e-02 7.370119541883468628e-02 -1.037906929850578308e-01 -4.395331814885139465e-02 -9.181825816631317139e-02 -1.955315172672271729e-01 -4.493554681539535522e-02 2.807318419218063354e-02 4.006024822592735291e-02 -1.509201675653457642e-01 -1.755820363759994507e-01 5.831557139754295349e-02 8.759909868240356445e-02 -8.084106259047985077e-03 -8.534291386604309082e-02 1.311661899089813232e-01 -5.207766965031623840e-02 2.139107733964920044e-01 -5.735232308506965637e-02 6.925522536039352417e-02 -4.686513170599937439e-02 3.499813377857208252e-02 7.683960348367691040e-02 7.751461118459701538e-02 -3.034545294940471649e-02 1.244653016328811646e-01 7.317960262298583984e-02 -4.076157230883836746e-03 -6.242107599973678589e-03 -3.748108446598052979e-02 8.189773559570312500e-02 8.108224719762802124e-02 6.910713016986846924e-02 -9.723389893770217896e-02 -1.906843930482864380e-01 -7.057799398899078369e-02 1.380071043968200684e-01 -6.384149938821792603e-02 -1.561130676418542862e-02 -4.009227082133293152e-02 1.523955911397933960e-01 1.418081969022750854e-01 1.240412965416908264e-01 1.583762019872665405e-01 -9.428575634956359863e-02 -1.284284144639968872e-02 -7.871111482381820679e-02 -1.406700462102890015e-01 1.266637295484542847e-01 -5.290206149220466614e-02 -1.221534386277198792e-01 1.236743293702602386e-02 1.523689180612564087e-01 3.768885135650634766e-02 8.551396429538726807e-02 -6.441275775432586670e-02 1.682934612035751343e-01 -6.511746346950531006e-02 1.676223874092102051e-01 3.468191996216773987e-02 4.460223391652107239e-02 -8.317431807518005371e-02 -1.144381836056709290e-01 1.604887889698147774e-03 1.303340196609497070e-01 1.215729042887687683e-01 6.636925041675567627e-02 2.849259041249752045e-02 -6.173839792609214783e-02 1.688481122255325317e-01 -1.293518394231796265e-01 -1.069742739200592041e-01 -1.628112792968750000e-02 8.034220337867736816e-02 1.499412506818771362e-01 9.661485254764556885e-02 -4.083913564682006836e-02 1.500551402568817139e-01 7.303875684738159180e-02 -9.801030391827225685e-04 -2.694638073444366455e-01 -7.811991125345230103e-02 -1.814633980393409729e-02 5.333259701728820801e-02 -6.962479650974273682e-02 -5.959079414606094360e-02 4.714828357100486755e-02 -2.120238170027732849e-02 4.862143250647932291e-04 -3.606120496988296509e-02 6.818041950464248657e-02 9.323263168334960938e-02 -4.845145717263221741e-02 -2.820202708244323730e-02 8.899790793657302856e-02
3.417095914483070374e-02 2.123878570273518562e-03 4.631928727030754089e-02 7.101879268884658813e-02 1.710424944758415222e-02 -1.051439121365547180e-01 -1.155177131295204163e-01 8.607456833124160767e-02 -3.989223390817642212e-02 -1.540456265211105347e-01 1.494385600090026855e-01 -5.431980360299348831e-03 9.120661765336990356e-02 -1.019570529460906982e-01 8.883873373270034790e-02 -1.114519983530044556e-01 1.727258712053298950e-01 -4.447766020894050598e-02 9.306459128856658936e-02 8.095071464776992798e-02 1.054813489317893982e-01 -2.638415433466434479e-02 -8.903783559799194336e-02 -1.302070766687393188e-01 -3.327182307839393616e-02 -5.727759748697280884e-02 9.821718931198120117e-02 1.364662945270538330e-01 -3.274646773934364319e-02 -4.843846336007118225e-02 -4.042644426226615906e-02 9.861751459538936615e-03 -1.160575971007347107e-01 1.259273886680603027e-01 1.004205569624900818e-01 -9.286013990640640259e-02 3.445373475551605225e-02 1.631016135215759277e-01 -8.076141029596328735e-02 9.640637040138244629e-02 -2.295859530568122864e-02 -1.274076998233795166e-01 -7.111096382141113281e-02 -7.491802424192428589e-02 -3.319455683231353760e-02 1.391136795282363892e-01 -2.144990414381027222e-01 -1.277952651435043663e-05 -7.077114284038543701e-02 7.109442353248596191e-02 -7.504806667566299438e-02 5.521604418754577637e-02 1.241005733609199524e-01 2.354521304368972778e-02 -2.801633812487125397e-02 -1.720664203166961670e-01 -1.598549634218215942e-02 -1.083893030881881714e-01 1.293636113405227661e-01 5.278535559773445129e-02 1.390991359949111938e-02 2.220582589507102966e-02 2.580939559265971184e-03 6.588499248027801514e-02 1.148077249526977539e-01 -5.362145602703094482e-02 2.285013347864151001e-01 -6.366985850036144257e-03 -5.712224170565605164e-02 1.251745969057083130e-01 -3.518611937761306763e-02 1.498895436525344849e-01 6.827982515096664429e-02 1.030040532350540161e-01 -6.892792135477066040e-02 1.161281839013099670e-01 1.468183845281600952e-02 6.289672851562500000e-02 7.333765178918838501e-02 2.879847586154937744e-02 9.021803736686706543e-02 -8.946488052606582642e-02 -1.127183511853218079e-01 8.821830898523330688e-02 -8.101756870746612549e-02 -1.300200521945953369e-01 -8.227808028459548950e-02 -3.826631605625152588e-02 -5.924239289015531540e-03 -1.122006997466087341e-01 -4.543574899435043335e-02 1.668785512447357178e-01 1.422192901372909546e-01 -4.571325704455375671e-02 -1.151266768574714661e-01 4.286424443125724792e-02 4.064612835645675659e-02 -3.326941654086112976e-02 -6.876923888921737671e-02 2.316194213926792145e-02 -1.823053658008575439e-01 5.142647400498390198e-02 1.267902553081512451e-01 -8.376768231391906738e-02 9.427818655967712402e-02 -1.965218633413314819e-01 2.776123769581317902e-02 -1.304031163454055786e-01 -1.820060983300209045e-02 -4.576896503567695618e-02 -1.036150828003883362e-01 8.965675532817840576e-02 -1.014073789119720459e-01 6.276874244213104248e-02 5.272982176393270493e-03 -1.345212459564208984e-01 -1.276586800813674927e-01 4.416683223098516464e-03 4.337613657116889954e-02 3.151768352836370468e-03 -3.487493097782135010e-02 -1.196670681238174438e-01 -7.249367982149124146e-02 5.122147500514984131e-02 6.716841459274291992e-02 1.434389501810073853e-01 -1.593020372092723846e-02 3.014013916254043579e-02 -1.590101569890975952e-01 -1.043201982975006104e-01 -6.655158102512359619e-02 1.856676489114761353e-01 2.250399254262447357e-02 7.873042672872543335e-02 -5.577364936470985413e-02 1.483320742845535278e-01 4.128473997116088867e-02 2.469824813306331635e-02 -7.371876388788223267e-02 -8.241938776336610317e-04 -8.612783998250961304e-02 1.767661571502685547e-01 -1.067602336406707764e-01 -1.707572117447853088e-02 -1.055613905191421509e-01 -1.443148404359817505e-02 4.513357207179069519e-02 7.582245022058486938e-02 -5.994560569524765015e-02 -4.722383990883827209e-02 5.141559615731239319e-02 4.408165067434310913e-02 4.184256494045257568e-02 6.663236767053604126e-02 1.017751544713973999e-01 -8.351894468069076538e-02 7.121548801660537720e-02 1.320845820009708405e-02 7.595260441303253174e-02 1.777890510857105255e-02 -5.293663218617439270e-02 9.116660803556442261e-02 -7.094839215278625488e-02 -2.882676571607589722e-02 1.875433255918323994e-03 -2.102315239608287811e-02 9.035196155309677124e-03 -1.519182920455932617e-01 1.009419634938240051e-01 -2.746568992733955383e-02 5.946729332208633423e-03 6.961131840944290161e-02 6.743367016315460205e-02 -9.997410699725151062e-03 -5.639090016484260559e-02 -4.408078733831644058e-03 1.553496867418289185e-01 -1.587368175387382507e-02 -1.028152275830507278e-02 9.194188565015792847e-02 1.411437708884477615e-02 4.721014574170112610e-02 1.659865863621234894e-02 -1.390325874090194702e-01 9.021176397800445557e-02 2.283152341842651367e-01 -1.026765331625938416e-01 3.108235299587249756e-01 1.165836211293935776e-02 -7.150899618864059448e-02 7.620825618505477905e-02 3.078651614487171173e-02 -1.312436629086732864e-02 1.996506005525588989e-01 -8.280243724584579468e-02 -1.747713238000869751e-02 8.999375998973846436e-02 2.983382910315413028e-05 -1.384387612342834473e-01 7.309649884700775146e-02 -3.785310685634613037e-02 4.508989304304122925e-02 -3.438287973403930664e-02 3.756913915276527405e-02 -4.488531872630119324e-02 -5.168656259775161743e-02 -3.746562823653221130e-02 4.134664312005043030e-02 1.879523843526840210e-01 -1.288594901561737061e-01 1.401061471551656723e-02 -8.810411393642425537e-02 1.802559942007064819e-02 8.410795032978057861e-02 1.164293438196182251e-01 5.458607524633407593e-02 1.641337759792804718e-02 4.200395569205284119e-02 3.795564547181129456e-02 -4.855916276574134827e-02 -3.676252067089080811e-02 -7.247319072484970093e-02 9.912935644388198853e-02 -3.811404109001159668e-02 -8.776446431875228882e-02 1.232278943061828613e-01 -2.203912660479545593e-02 1.158932968974113464e-01 -5.694891139864921570e-02 -2.798432670533657074e-02 -1.055868063122034073e-02 1.360726058483123779e-01 -2.316516265273094177e-02 -4.225088655948638916e-02 6.858351174741983414e-03 6.552665494382381439e-03 -5.722393468022346497e-02 -1.307602375745773315e-01 9.077932685613632202e-02 9.653237462043762207e-02 -1.920764916576445103e-03 4.282011091709136963e-02 3.546918928623199463e-02 -1.921734958887100220e-02 -8.964445441961288452e-02 -3.660344332456588745e-02 -1.523540355265140533e-02 -8.766366541385650635e-02 -7.381223142147064209e-02 1.812118738889694214e-01 3.802271932363510132e-02 9.935931116342544556e-02 -2.115981876850128174e-01 -2.038305997848510742e-02 -1.281258761882781982e-01 -6.017673388123512268e-02
5.988878756761550903e-02 -5.765268579125404358e-02 -7.442919164896011353e-02 5.939256399869918823e-02 -8.334312587976455688e-02 -2.301300875842571259e-02 6.017567962408065796e-02 -3.018135763704776764e-02 -5.041698366403579712e-02 -7.466716319322586060e-02 7.922939956188201904e-02 6.324131507426500320e-03 -8.794601261615753174e-02 -9.782916307449340820e-02 -2.004200369119644165e-01 1.144668310880661011e-01 -8.733256161212921143e-02 -5.586873739957809448e-02 -9.218402206897735596e-02 1.930642314255237579e-02 -1.045751720666885376e-01 5.200513824820518494e-02 -1.039099246263504028e-01 5.445527657866477966e-02 6.529566831886768341e-03 5.287821218371391296e-02 4.712040722370147705e-02 -7.512202113866806030e-02 7.209688425064086914e-02 -2.296374179422855377e-02 6.231497228145599365e-02 3.395569324493408203e-02 -1.142854690551757812e-01 -1.023725569248199463e-01 7.231180369853973389e-02 -8.163417875766754150e-02 -9.853825718164443970e-02 -1.415189355611801147e-02 6.988262757658958435e-03 -1.138060539960861206e-01 9.493638575077056885e-02 1.341996435075998306e-02 -5.758754536509513855e-02 -7.947470247745513916e-02 8.118379116058349609e-02 -3.337271139025688171e-02 1.864834502339363098e-02 -5.487949773669242859e-02 8.087959885597229004e-02 2.465650439262390137e-02 1.290182173252105713e-01 -7.156430184841156006e-02 -4.321169853210449219e-02 7.028553634881973267e-02 2.922944352030754089e-02 -1.263351291418075562e-01 -1.521790325641632080e-01 -2.628282085061073303e-02 -1.547318845987319946e-01 5.221723113209009171e-03 1.626235619187355042e-02 -7.521079853177070618e-03 -3.417625650763511658e-02 1.669223457574844360e-01 -1.781093776226043701e-01 4.347236827015876770e-02 -4.166396684013307095e-05 -8.813774585723876953e-02 -1.409055888652801514e-01 -6.679096817970275879e-02 4.559817537665367126e-02 -2.731555514037609100e-02 -1.397369503974914551e-01 1.773899197578430176e-01 -8.930141478776931763e-02 -6.439544260501861572e-03 3.429263830184936523e-02 1.044405102729797363e-01 -3.542968258261680603e-02 1.190211973153054714e-03 -4.969148710370063782e-02 7.095284014940261841e-02 -3.217002376914024353e-02 2.058674208819866180e-02 -7.185314595699310303e-02 -4.137504845857620239e-03 -2.263853093609213829e-03 -1.095154974609613419e-02 1.593273878097534180e-01 -5.485953018069267273e-02 1.242449879646301270e-02 5.192716419696807861e-02 9.022012352943420410e-02 1.456955522298812866e-01 -1.696456819772720337e-01 1.066043321043252945e-02 -4.901673644781112671e-02 1.564761102199554443e-01 5.024739354848861694e-02 6.933958083391189575e-02 -2.844528295099735260e-03 -1.800967752933502197e-02 2.264958471059799194e-01 5.289353430271148682e-02 7.801018189638853073e-03 4.281817376613616943e-02 -1.151249706745147705e-01 -1.887935549020767212e-01 -2.627606317400932312e-02 -8.496963977813720703e-02 3.205634653568267822e-02 -1.507713645696640015e-02 -1.125915497541427612e-01 -3.667647391557693481e-02 2.015488035976886749e-02 -5.896687880158424377e-02 -2.824870496988296509e-02 5.222147330641746521e-02 -5.687817186117172241e-02 4.402847588062286377e-02 -3.346119076013565063e-03 7.542341947555541992e-02 1.013294681906700134e-01 -4.748942703008651733e-02 4.311206284910440445e-03 3.975882753729820251e-02 -5.221931636333465576e-02 3.536996990442276001e-02 -3.419623523950576782e-02 1.702864095568656921e-02 -2.007143013179302216e-02 -2.734060771763324738e-02 -2.225410751998424530e-02 -8.679545670747756958e-02 -9.759409725666046143e-02 2.156599052250385284e-02 -5.513233318924903870e-02 -7.231447100639343262e-02 -1.086003798991441727e-02 1.674130260944366455e-01 -5.635034292936325073e-02 -1.607807576656341553e-01 -2.282104454934597015e-02 1.015110090374946594e-01 2.261905185878276825e-02 6.642829626798629761e-02 -1.046219095587730408e-01 -2.841140329837799072e-02 3.956940956413745880e-03 9.526058286428451538e-02 -5.199498683214187622e-02 -7.379027456045150757e-02 8.073523640632629395e-03 1.053648889064788818e-01 -4.392110928893089294e-02 1.254805028438568115e-01 1.208069175481796265e-01 -1.144323498010635376e-01 5.069809779524803162e-02 -6.130871176719665527e-02 1.352664679288864136e-01 -6.759656220674514771e-02 7.789437472820281982e-02 9.480352699756622314e-02 1.399998553097248077e-02 1.922166347503662109e-01 -6.820186227560043335e-02 2.415241859853267670e-02 -3.185072168707847595e-02 -6.581834051758050919e-03 -1.032128930091857910e-02 -5.374368652701377869e-02 -4.673151299357414246e-02 -7.884293794631958008e-02 1.668428033590316772e-01 -7.288891822099685669e-03 2.914425544440746307e-02 -1.052004173398017883e-01 -5.229825526475906372e-02 1.454514265060424805e-01 5.698624998331069946e-02 -1.756393909454345703e-02 2.668459899723529816e-02 -1.727412045001983643e-01 -2.811626472976058722e-04 7.950706034898757935e-02 4.243508353829383850e-02 -2.442988939583301544e-02 -1.126171872019767761e-01 3.083552606403827667e-02 7.378777023404836655e-03 -7.393512874841690063e-02 3.954679891467094421e-02 3.264435380697250366e-02 -9.991046786308288574e-02 1.459449082612991333e-01 -1.328433118760585785e-02 3.838707506656646729e-02 2.023144438862800598e-02 1.123621463775634766e-01 2.340282350778579712e-01 -1.395990997552871704e-01 1.716791465878486633e-02 9.303212165832519531e-02 -1.116117276251316071e-02 2.856458351016044617e-02 1.898131072521209717e-01 2.203062176704406738e-01 9.383235871791839600e-02 -1.230013668537139893e-01 -2.590037137269973755e-02 -1.898323446512222290e-01 -4.868792369961738586e-02 5.762471631169319153e-02 -7.055902481079101562e-02 2.700494527816772461e-01 -3.446502238512039185e-02 -7.355957478284835815e-02 -2.874262281693518162e-04 4.372110962867736816e-02 -8.683728426694869995e-02 -1.415246874094009399e-01 -9.013801068067550659e-02 -1.416754908859729767e-02 -9.550879150629043579e-02 5.290349945425987244e-02 5.102236196398735046e-02 1.084904465824365616e-02 -9.295872598886489868e-02 4.443668201565742493e-02 3.526306524872779846e-02 -6.210891529917716980e-02 -2.427114173769950867e-02 -3.219483420252799988e-02 8.215798437595367432e-02 -7.461804151535034180e-02 -8.148976415395736694e-02 -3.462523594498634338e-02 -1.190942339599132538e-02 -1.458080112934112549e-02 1.932114362716674805e-01 -1.009750366210937500e-01 1.896646767854690552e-01 -1.578429043292999268e-01 -3.497005254030227661e-02 2.570770382881164551e-01 1.200269013643264771e-01 -7.365114241838455200e-02 1.157980188727378845e-01 5.745175480842590332e-02 6.879806518554687500e-02 1.931452453136444092e-01 2.559276223182678223e-01 -2.830236963927745819e-02 4.175715148448944092e-02 2.176483161747455597e-02
-6.250365078449249268e-02 1.950308308005332947e-02 1.346180588006973267e-02 -1.677613556385040283e-01 -2.988955192267894745e-02 -6.117692962288856506e-02 -1.100617870688438416e-01 -1.522948294878005981e-01 8.480516076087951660e-02 -8.544693887233734131e-02 9.383780998177826405e-04 1.162355467677116394e-01 7.431589066982269287e-02 -2.321279235184192657e-02 -2.425849251449108124e-02 -5.732657760381698608e-02 -1.028885021805763245e-01 3.226859867572784424e-02 -8.611872047185897827e-02 -7.204917073249816895e-02 8.009102940559387207e-02 -5.980495363473892212e-02 4.632852226495742798e-02 5.533070862293243408e-02 1.117618680000305176e-01 1.689589023590087891e-01 5.421026051044464111e-02 -8.052300661802291870e-02 -1.346912831068038940e-01 1.355971992015838623e-01 1.538912802934646606e-01 -4.205401986837387085e-02 1.261259615421295166e-01 -7.697369158267974854e-02 3.626894578337669373e-02 2.813199721276760101e-02 6.683158129453659058e-02 4.078165441751480103e-02 -1.034429520368576050e-01 -4.690133780241012573e-02 -7.929219305515289307e-02 -1.364649087190628052e-01 -1.356439590454101562e-01 8.983861654996871948e-02 -7.492014672607183456e-03 8.554819971323013306e-02 -1.550858318805694580e-01 5.248356610536575317e-02 1.562123894691467285e-01 1.283755600452423096e-01 -6.202844157814979553e-02 2.044004388153553009e-02 9.635872393846511841e-02 1.793233491480350494e-02 2.660033665597438812e-02 -3.016328252851963043e-02 -7.783359289169311523e-02 -6.951658427715301514e-02 3.812018036842346191e-02 4.032743349671363831e-02 -4.618252813816070557e-02 -7.627388834953308105e-02 -2.658740989863872528e-02 1.036303956061601639e-02 8.921254426240921021e-02 9.409665316343307495e-02 -1.387968957424163818e-01 -4.026172216981649399e-03 1.842905730009078979e-01 1.813397854566574097e-01 -1.205373406410217285e-01 3.881401941180229187e-02 2.007548809051513672e-01 -1.841503567993640900e-02 -1.192683205008506775e-01 -8.168752305209636688e-03 6.410862505435943604e-02 -1.798118948936462402e-01 -1.437327126041054726e-03 -1.059650480747222900e-01 1.026855036616325378e-01 2.122440142557024956e-03 -1.118067800998687744e-01 3.218173608183860779e-02 3.275032341480255127e-02 -1.140470057725906372e-01 7.036179304122924805e-02 -7.631543278694152832e-02 -1.707253903150558472e-01 -6.293998658657073975e-02 1.035501211881637573e-01 2.048036083579063416e-03 3.950375318527221680e-02 -9.795207530260086060e-03 -2.537774667143821716e-02 5.824958905577659607e-03 2.040456831455230713e-01 5.800285562872886658e-02 1.891092360019683838e-01 -5.204486101865768433e-02 9.987152367830276489e-02 -4.959941282868385315e-02 1.513421982526779175e-01 -1.779423211701214314e-03 -7.389840483665466309e-02 -2.854478778317570686e-03 -4.792394861578941345e-02 -7.516444311477243900e-04 3.363194316625595093e-02 -5.309910979121923447e-03 7.349827140569686890e-02 -1.155439764261245728e-01 5.834337789565324783e-03 -3.681049123406410217e-02 -5.430549755692481995e-02 -4.898180812597274780e-02 5.711816623806953430e-02 -9.472385048866271973e-02 1.251424700021743774e-01 7.811172306537628174e-02 -7.970434427261352539e-02 -1.007472574710845947e-01 1.558505594730377197e-01 -8.507546782493591309e-02 4.594537429511547089e-03 1.114681363105773926e-01 -2.051730267703533173e-02 -1.049031987786293030e-01 -2.896206080913543701e-02 -4.481347277760505676e-02 -4.127596691250801086e-02 -3.071802668273448944e-02 -9.027569741010665894e-02 -1.240273099392652512e-02 1.027701701968908310e-02 -9.533768519759178162e-03 -5.136067420244216919e-02 2.049431800842285156e-01 1.993726342916488647e-01 -1.128387302160263062e-01 -6.077773496508598328e-02 -4.097916185855865479e-02 -2.063977159559726715e-02 3.461138531565666199e-02 -1.416644752025604248e-01 9.400102496147155762e-02 -5.858268216252326965e-02 -3.161695599555969238e-02 -4.049778729677200317e-02 4.129064083099365234e-02 -3.877888247370719910e-02 -2.977688051760196686e-02 2.811382338404655457e-02 1.859736442565917969e-02 -1.580469459295272827e-01 -4.687958955764770508e-02 -2.261790931224822998e-01 -1.465717889368534088e-02 -1.001597493886947632e-01 6.526406109333038330e-02 1.359787434339523315e-01 1.394881401211023331e-02 4.653158597648143768e-03 6.279651820659637451e-02 1.478154957294464111e-01 1.264209151268005371e-01 4.513645172119140625e-02 7.682132720947265625e-02 -5.408428609371185303e-02 -6.764197349548339844e-02 -1.840800642967224121e-01 1.853251457214355469e-01 -2.196751162409782410e-02 -1.869333721697330475e-02 2.343712560832500458e-02 -3.293570829555392265e-03 -1.873918622732162476e-01 5.962282419204711914e-02 -3.025989606976509094e-02 6.763365119695663452e-02 -7.028936594724655151e-02 -2.631901204586029053e-02 8.861000090837478638e-02 3.414156660437583923e-02 5.822472274303436279e-02 6.389319896697998047e-02 -1.437485776841640472e-02 -1.794847548007965088e-01 1.068983152508735657e-01 2.399730682373046875e-02 9.307118505239486694e-02 -1.136823222041130066e-01 -9.094056487083435059e-02 6.009542942047119141e-02 8.860421180725097656e-02 7.420695573091506958e-02 1.722157187759876251e-02 -5.534153059124946594e-02 -1.326277703046798706e-01 -4.187453538179397583e-02 -3.971862420439720154e-02 -2.291150540113449097e-01 -3.320450335741043091e-02 2.066230960190296173e-02 -2.933866530656814575e-02 -1.231314092874526978e-01 -3.241885825991630554e-02 -1.870252788066864014e-01 4.637041687965393066e-02 -1.128615140914916992e-01 -1.971050538122653961e-02 1.630001515150070190e-02 1.336725354194641113e-01 -5.986021086573600769e-02 3.982440009713172913e-02 -1.030118986964225769e-01 -9.491005330346524715e-04 -3.082646243274211884e-02 1.556909680366516113e-01 5.209046974778175354e-02 -3.103383630514144897e-02 2.156447991728782654e-02 -1.018862128257751465e-01 -4.313233494758605957e-02 -4.853534325957298279e-02 5.892220512032508850e-02 1.387039013206958771e-02 1.406944096088409424e-01 -5.009166523814201355e-02 -1.569314673542976379e-02 1.252335011959075928e-01 -8.476328104734420776e-02 -6.296503543853759766e-02 4.232984781265258789e-02 7.133073359727859497e-02 9.943598508834838867e-02 1.700644940137863159e-01 8.654402568936347961e-03 -7.784560788422822952e-03 8.021330833435058594e-02 1.734944134950637817e-01 3.648025915026664734e-02 4.385898262262344360e-02 5.770277231931686401e-02 4.859317466616630554e-02 3.876526281237602234e-02 8.185407519340515137e-02 2.861390262842178345e-02 -4.066070169210433960e-02 6.966780126094818115e-02 -1.025664247572422028e-02 9.970061480998992920e-02 6.486646365374326706e-03 -1.087915524840354919e-01 1.443589180707931519e-01 -1.426265239715576172e-01
1.114116236567497253e-01 -7.535234093666076660e-02 -7.729205489158630371e-02 1.491807252168655396e-01 -4.722283035516738892e-02 1.421250104904174805e-01 9.239514917135238647e-02 -5.331914871931076050e-02 -2.529070340096950531e-02 9.290338307619094849e-02 -2.669088542461395264e-01 -3.350668027997016907e-02 -5.690898001194000244e-02 -9.502943605184555054e-02 -9.630712866783142090e-02 -8.736152201890945435e-02 -5.749094113707542419e-02 -4.272351786494255066e-02 1.341388821601867676e-01 3.852232545614242554e-02 1.096128523349761963e-01 1.046656668186187744e-01 -4.616929683834314346e-03 -1.379376798868179321e-01 7.441473007202148438e-02 -1.254618167877197266e-02 -4.467836394906044006e-02 -5.600866302847862244e-02 -5.400306731462478638e-02 5.475394800305366516e-02 1.000845283269882202e-01 2.233840338885784149e-02 8.453848212957382202e-02 8.463715016841888428e-02 -2.715342491865158081e-02 8.827643096446990967e-02 -8.927742391824722290e-02 -3.301665931940078735e-02 -1.796130239963531494e-01 -3.372628940269351006e-03 -1.325494796037673950e-01 -2.317107655107975006e-02 3.571139648556709290e-02 1.317648887634277344e-01 -1.788871013559401035e-03 -6.106453947722911835e-03 -1.039966009557247162e-02 -1.619414985179901123e-01 -2.441485784947872162e-02 7.044213265180587769e-02 -1.212369799613952637e-01 3.999669104814529419e-02 -2.687048912048339844e-02 -1.142851337790489197e-01 -2.345727942883968353e-02 -7.442791247740387917e-04 1.657873839139938354e-01 1.675353012979030609e-02 -5.923593044281005859e-02 -2.932150475680828094e-02 -3.001965768635272980e-02 3.787321597337722778e-02 -2.484720349311828613e-01 1.378552317619323730e-01 9.146563708782196045e-02 -1.676722764968872070e-01 -1.039736941456794739e-01 7.131610810756683350e-02 -5.179432779550552368e-02 -8.920256048440933228e-02 1.476757526397705078e-01 -9.808582812547683716e-02 1.609886623919010162e-02 1.136741135269403458e-02 5.148183088749647141e-03 1.142927035689353943e-01 7.898323982954025269e-02 5.675675347447395325e-02 -1.796325743198394775e-01 2.030849307775497437e-01 3.107832930982112885e-02 6.754925101995468140e-02 3.342079697176814079e-03 1.514884829521179199e-01 -4.544913023710250854e-02 8.302050828933715820e-02 -1.140017509460449219e-01 9.281338751316070557e-02 1.546159386634826660e-01 4.383486229926347733e-03 9.865181148052215576e-02 -2.406394854187965393e-02 -1.182658970355987549e-01 -8.180955052375793457e-02 5.487988889217376709e-02 1.641320586204528809e-01 3.351207356899976730e-03 2.396728657186031342e-02 6.363824754953384399e-02 -4.243667051196098328e-02 -7.784835994243621826e-02 3.315883502364158630e-02 5.749860033392906189e-02 -7.189513742923736572e-02 -1.413204371929168701e-01 4.397467151284217834e-02 -1.309311836957931519e-01 -1.472627222537994385e-01 -2.702469937503337860e-03 -8.190038055181503296e-02 1.000913828611373901e-01 1.059177666902542114e-01 5.904372781515121460e-02 4.945912584662437439e-02 2.594245225191116333e-02 1.924889907240867615e-02 6.630728393793106079e-02 1.698787882924079895e-02 2.212238311767578125e-02 6.414418667554855347e-02 -3.606825694441795349e-02 -3.837704658508300781e-02 5.430610477924346924e-02 1.520684063434600830e-01 5.852527916431427002e-02 4.863820225000381470e-02 -1.054141446948051453e-01 -1.374003384262323380e-02 -1.834370009601116180e-02 -6.821150332689285278e-02 -1.708862632513046265e-01 3.417112305760383606e-02 -4.608931764960289001e-02 -9.752197563648223877e-02 -2.436223067343235016e-02 -1.919185966253280640e-01 4.787751287221908569e-02 -4.925748705863952637e-02 -1.130288932472467422e-02 -3.392602130770683289e-02 3.514725714921951294e-02 -7.750628143548965454e-02 3.553733229637145996e-02 1.851239651441574097e-01 -3.922396898269653320e-02 -4.045679047703742981e-02 6.101886555552482605e-02 -2.729621529579162598e-01 -1.221900060772895813e-01 4.222957789897918701e-02 2.769088186323642731e-02 9.621568769216537476e-02 -1.257336437702178955e-01 1.160222962498664856e-01 8.307800441980361938e-02 3.058896958827972412e-02 -2.738181501626968384e-02 3.095044381916522980e-02 9.932659566402435303e-02 1.682011336088180542e-01 1.655031181871891022e-02 1.320603042840957642e-01 6.316035240888595581e-02 1.289106905460357666e-01 -1.536450814455747604e-02 -1.914331689476966858e-02 7.308927178382873535e-02 -1.448644101619720459e-01 -6.866106390953063965e-02 1.016777381300926208e-02 -4.396145045757293701e-02 -6.468758732080459595e-02 -8.984666317701339722e-02 -8.504837006330490112e-02 -3.803122416138648987e-02 1.047154963016510010e-01 3.555375710129737854e-02 -5.100159347057342529e-02 1.973508596420288086e-01 7.504821568727493286e-02 7.953726890264078975e-05 -7.262393087148666382e-02 1.990600079298019409e-01 1.133356019854545593e-01 5.191230215132236481e-03 8.136786520481109619e-02 2.404187247157096863e-02 4.064813256263732910e-02 6.733663380146026611e-02 1.440786719322204590e-01 -3.614677861332893372e-02 4.748157039284706116e-02 1.862512901425361633e-02 -9.254931658506393433e-02 2.028037235140800476e-02 3.391220793128013611e-02 9.213493019342422485e-02 -9.589128941297531128e-02 1.042722687125205994e-01 -4.037602990865707397e-02 -1.307934820652008057e-01 -2.664764644578099251e-03 -2.734372764825820923e-02 -1.488156020641326904e-01 -7.078398764133453369e-02 1.527530699968338013e-01 -1.021534055471420288e-01 -4.311985522508621216e-02 -1.367793530225753784e-01 1.205426380038261414e-01 -5.916259251534938812e-03 -1.038668379187583923e-01 -1.578163728117942810e-02 2.507612481713294983e-02 -2.267851680517196655e-02 5.197025090456008911e-02 -1.342533156275749207e-02 -5.124466493725776672e-03 2.085129767656326294e-01 -1.498887538909912109e-01 9.518445283174514771e-02 5.452591925859451294e-02 4.109951853752136230e-02 1.194763407111167908e-01 -2.843382582068443298e-02 1.587394624948501587e-01 5.528365820646286011e-02 1.034283265471458435e-01 -1.317752711474895477e-02 2.999869361519813538e-02 1.166155003011226654e-02 1.492808014154434204e-01 -1.212864294648170471e-01 3.507785731926560402e-03 9.892722591757774353e-03 1.282486319541931152e-01 4.177598655223846436e-02 -1.643694820813834667e-03 -4.799193143844604492e-02 -1.163366995751857758e-02 -5.168859288096427917e-02 -3.237714618444442749e-02 9.739797562360763550e-03 3.065082617104053497e-02 -3.504065051674842834e-02 -4.096656292676925659e-02 1.903046667575836182e-01 -9.817791869863867760e-04 1.445969194173812866e-02 6.235725805163383484e-02 7.241930067539215088e-02 5.811032280325889587e-02 -1.761515811085700989e-02 -7.349617034196853638e-02 6.404437869787216187e-02 4.450267925858497620e-02
-5.418150126934051514e-02 -9.718986600637435913e-02 2.838723361492156982e-02 8.278226852416992188e-02 3.430218668654561043e-03 4.066405072808265686e-02 -6.737515330314636230e-03 -2.608584612607955933e-02 1.166909001767635345e-02 8.961852639913558960e-02 -3.873543813824653625e-02 1.720592379570007324e-01 7.932555675506591797e-02 6.603326648473739624e-02 4.129642248153686523e-02 1.150843203067779541e-01 1.257640570402145386e-01 -5.154984816908836365e-02 -1.111453399062156677e-01 -5.264711007475852966e-02 3.448298200964927673e-02 3.991287667304277420e-04 6.237340345978736877e-02 -3.930012136697769165e-02 1.230475120246410370e-02 -9.116712026298046112e-04 -9.765541553497314453e-02 1.468756794929504395e-02 -1.566187292337417603e-02 -1.392180025577545166e-01 -3.883368894457817078e-02 -1.926098391413688660e-02 -1.165997013449668884e-01 1.673619635403156281e-02 -1.228057146072387695e-01 -1.863026618957519531e-01 4.096983000636100769e-02 -2.177984640002250671e-02 -9.283493272960186005e-03 -1.125330924987792969e-01 -2.450032718479633331e-02 -5.465118214488029480e-02 -9.304877370595932007e-02 5.941079929471015930e-02 1.107196137309074402e-01 3.333197906613349915e-02 1.780462078750133514e-02 1.144288107752799988e-01 -3.934668377041816711e-03 7.216919213533401489e-02 4.767203330993652344e-02 1.847099959850311279e-01 4.023581370711326599e-02 9.116480499505996704e-02 4.676713794469833374e-02 -6.250023841857910156e-02 -3.307572379708290100e-02 -9.148998558521270752e-02 1.153020933270454407e-01 -5.275921896100044250e-02 7.265787571668624878e-02 2.998202294111251831e-02 -6.971509754657745361e-02 -1.968099921941757202e-02 6.634694058448076248e-03 -6.080400571227073669e-02 -6.251059472560882568e-02 4.736521840095520020e-02 1.515044718980789185e-01 2.576102502644062042e-02 2.283081114292144775e-01 5.996091663837432861e-02 2.463487982749938965e-01 2.836222294718027115e-03 -1.675215549767017365e-02 1.186626963317394257e-02 7.123722881078720093e-02 1.118098944425582886e-01 -8.880681544542312622e-02 -3.306611627340316772e-02 8.167465031147003174e-02 8.325984328985214233e-02 -4.902487248182296753e-02 -1.186291128396987915e-01 1.279664933681488037e-01 6.939633935689926147e-02 1.391101777553558350e-01 -2.054744213819503784e-01 -4.801616072654724121e-02 -3.418318182229995728e-02 7.589098811149597168e-02 -4.014440998435020447e-02 -1.130729243159294128e-01 1.092804316431283951e-02 -3.676140448078513145e-03 -1.017784327268600464e-01 -5.835352838039398193e-02 1.039008647203445435e-01 7.950819283723831177e-02 -1.400531642138957977e-02 -4.050952568650245667e-02 -1.012668758630752563e-01 3.105714358389377594e-02 5.026471987366676331e-02 -1.678553819656372070e-01 9.298981167376041412e-03 -1.791073530912399292e-01 3.007643856108188629e-02 2.820743806660175323e-02 2.665932988747954369e-03 1.157503351569175720e-01 -2.460070699453353882e-01 -3.487981855869293213e-02 -7.018119841814041138e-02 -7.721965759992599487e-02 4.761022701859474182e-02 -6.129659712314605713e-02 -7.796906679868698120e-02 -2.303400263190269470e-02 1.203661188483238220e-01 1.418417878448963165e-02 1.481070816516876221e-01 -1.793528646230697632e-01 2.421051450073719025e-02 7.087006233632564545e-03 -4.212192818522453308e-02 -3.511798381805419922e-02 -9.842803701758384705e-04 -4.145625233650207520e-02 5.471535027027130127e-02 1.438821945339441299e-02 9.389810264110565186e-02 2.302859127521514893e-01 -8.790160529315471649e-03 3.507608920335769653e-02 1.200972720980644226e-01 -5.031297355890274048e-02 -3.565978258848190308e-02 3.503388911485671997e-02 -1.264387648552656174e-02 -4.304439947009086609e-02 1.352192163467407227e-01 1.364769041538238525e-01 -1.527845207601785660e-02 -9.261609613895416260e-02 6.661727558821439743e-03 3.856141492724418640e-02 -1.038394570350646973e-01 1.347911953926086426e-01 -8.045063912868499756e-02 -2.201993390917778015e-02 2.034167349338531494e-01 2.658036770299077034e-03 4.114962182939052582e-03 1.469104140996932983e-01 7.285404205322265625e-02 5.284502357244491577e-02 -1.778163611888885498e-01 -9.528525918722152710e-02 5.178773030638694763e-02 3.838745132088661194e-02 1.877730898559093475e-02 -9.447610378265380859e-02 4.344781488180160522e-02 -9.900012612342834473e-02 -1.438815146684646606e-01 1.294711977243423462e-01 -7.868696004152297974e-02 -9.057936072349548340e-02 -5.320034921169281006e-03 -5.004349350929260254e-02 -4.224627744406461716e-03 -3.953503444790840149e-02 -5.742346867918968201e-02 1.731950044631958008e-01 -1.040692925453186035e-01 9.608286619186401367e-02 -9.842070192098617554e-02 1.767857186496257782e-02 1.215732935816049576e-02 -8.350444585084915161e-02 -4.227188229560852051e-02 -1.160719841718673706e-01 -1.768272817134857178e-01 -9.881079941987991333e-02 -4.602801799774169922e-02 -3.069425234571099281e-03 1.118857413530349731e-01 -3.843776509165763855e-02 -1.033756211400032043e-01 2.096541039645671844e-02 9.423888474702835083e-02 1.382772326469421387e-01 -9.596416354179382324e-02 4.091981798410415649e-02 8.662811666727066040e-02 1.508416682481765747e-01 8.192206919193267822e-02 4.116882756352424622e-02 2.809762395918369293e-02 -1.665422134101390839e-02 9.497612714767456055e-03 6.903962790966033936e-02 8.368928730487823486e-02 3.551158308982849121e-02 -1.150921732187271118e-01 2.374115958809852600e-02 -6.011930480599403381e-02 1.057543456554412842e-01 8.273008465766906738e-02 1.259743236005306244e-02 -1.371078044176101685e-01 -2.191134914755821228e-02 -1.221093162894248962e-01 -6.300843507051467896e-02 5.687209963798522949e-02 -1.615298688411712646e-01 -3.513833507895469666e-02 -3.003276139497756958e-02 -6.042772904038429260e-02 9.788551367819309235e-03 1.064901873469352722e-01 2.068636752665042877e-02 4.976253956556320190e-02 1.441724449396133423e-01 1.659809052944183350e-02 3.092228472232818604e-01 3.085290454328060150e-02 8.430577814579010010e-03 -1.256903912872076035e-02 4.185097664594650269e-02 8.197007328271865845e-02 4.465484991669654846e-02 1.419575661420822144e-01 -2.880552411079406738e-01 -9.621283039450645447e-03 6.772585958242416382e-02 4.014554992318153381e-02 -1.172163709998130798e-01 -8.926523476839065552e-02 -5.218530446290969849e-02 -1.301764100790023804e-01 6.070268154144287109e-02 -1.070236787199974060e-02 6.104291975498199463e-02 6.855019927024841309e-02 2.949121408164501190e-02 -5.262887850403785706e-02 5.455985292792320251e-02 3.000358864665031433e-02 -8.521322906017303467e-02 -9.327863901853561401e-02 -6.832643598318099976e-02 9.936982765793800354e-03 -7.501450926065444946e-02 -5.405007675290107727e-02
4.049413651227951050e-02 -8.193050324916839600e-02 1.348932832479476929e-01 2.251972444355487823e-02 -8.883962780237197876e-02 -2.283542044460773468e-02 1.011941656470298767e-01 -7.437295466661453247e-02 -1.014978289604187012e-01 -4.031986743211746216e-02 -3.847485035657882690e-02 -2.535489946603775024e-02 4.413279891014099121e-02 -2.823294373229146004e-03 -6.614007055759429932e-02 -8.024053275585174561e-02 -2.489888295531272888e-02 6.218332797288894653e-03 7.058733701705932617e-02 1.497092694044113159e-01 1.864365041255950928e-01 -6.924805231392383575e-03 -6.790078431367874146e-02 -5.051660537719726562e-02 -4.298280552029609680e-02 -4.138622060418128967e-02 -3.444289416074752808e-02 1.087107807397842407e-01 8.668601512908935547e-02 8.394423127174377441e-02 -8.790937066078186035e-02 1.320144981145858765e-01 -2.024270221590995789e-02 -1.020611897110939026e-01 -7.680628448724746704e-02 3.016667626798152924e-02 -7.280067354440689087e-02 2.075671553611755371e-01 2.903625927865505219e-02 1.174798458814620972e-01 -1.231003925204277039e-02 2.156739979982376099e-01 -2.391479350626468658e-02 6.677782535552978516e-02 -6.777966767549514771e-02 -1.534087359905242920e-01 9.423881024122238159e-02 -3.791406005620956421e-02 1.201880723237991333e-01 -1.045083329081535339e-01 -5.476428195834159851e-02 -1.641817539930343628e-01 2.555081807076931000e-02 -2.042863517999649048e-02 -2.786036208271980286e-02 -6.313817948102951050e-02 2.819564752280712128e-02 7.956030219793319702e-02 -1.213303804397583008e-01 -9.474664181470870972e-02 3.505094349384307861e-02 -1.251315139234066010e-02 1.710374355316162109e-01 1.320177018642425537e-01 8.155874907970428467e-02 -8.232484757900238037e-02 -7.969300448894500732e-02 -1.403963193297386169e-02 -1.819010525941848755e-01 1.685286909341812134e-01 -7.257646322250366211e-02 8.698852360248565674e-02 2.568691372871398926e-01 -8.145186305046081543e-02 5.670815333724021912e-02 -1.525706201791763306e-01 1.963258981704711914e-01 3.704379079863429070e-03 -5.827403068542480469e-02 4.413885623216629028e-02 1.473347842693328857e-01 2.437803149223327637e-01 -3.108419477939605713e-02 6.087701395153999329e-02 -6.194110959768295288e-02 -3.360546659678220749e-03 1.328887045383453369e-01 -5.488408729434013367e-02 -1.894245855510234833e-02 -4.549623653292655945e-02 1.079482883214950562e-01 1.334769651293754578e-02 6.294041872024536133e-02 1.099090203642845154e-01 -5.255651101469993591e-02 1.480949670076370239e-02 3.487611934542655945e-02 1.166778057813644409e-01 -6.589823961257934570e-02 -9.404093958437442780e-03 7.735944539308547974e-02 3.146521747112274170e-02 -2.106528729200363159e-02 -2.321916073560714722e-02 -8.104162663221359253e-02 -6.802957504987716675e-02 -1.334622949361801147e-01 4.311826080083847046e-02 -1.709196120500564575e-01 -5.676301196217536926e-02 -4.611322656273841858e-02 -7.184452563524246216e-02 -1.120019108057022095e-01 -2.289631590247154236e-02 -2.586024254560470581e-02 -4.040102474391460419e-03 8.507348597049713135e-02 1.042366251349449158e-01 5.874639004468917847e-02 -6.489751487970352173e-02 4.744866490364074707e-02 9.418197907507419586e-03 -1.685212403535842896e-01 -1.196791902184486389e-01 3.222704678773880005e-02 4.666179593186825514e-04 4.718928411602973938e-02 -8.091657608747482300e-02 3.918330743908882141e-02 -9.850240498781204224e-02 1.009470075368881226e-01 -9.576303511857986450e-02 -3.419935703277587891e-02 7.456019520759582520e-02 2.854505926370620728e-02 4.863495752215385437e-02 1.171224340796470642e-01 6.463290750980377197e-02 -7.932583987712860107e-02 -1.532227993011474609e-01 -1.424215584993362427e-01 -4.895177483558654785e-02 -3.368621319532394409e-02 -1.409206539392471313e-01 1.352088898420333862e-02 1.029650717973709106e-01 7.597754895687103271e-02 -4.668299853801727295e-02 -3.338731080293655396e-02 2.565257251262664795e-02 -2.370955422520637512e-02 7.464371621608734131e-02 1.238364130258560181e-01 -7.077457755804061890e-02 -7.249931339174509048e-03 1.698852144181728363e-02 1.589717715978622437e-02 -2.966191060841083527e-02 1.213171780109405518e-01 1.333167999982833862e-01 9.417676180601119995e-02 1.716363616287708282e-02 -1.914397031068801880e-01 -6.191930919885635376e-02 8.748453855514526367e-02 1.662088930606842041e-01 -2.136385068297386169e-02 -3.135173395276069641e-02 3.359931055456399918e-03 1.345003023743629456e-02 1.095960512757301331e-01 -9.277916699647903442e-02 -2.070783823728561401e-02 -3.253428265452384949e-02 2.782727964222431183e-02 -7.862509787082672119e-02 2.332782000303268433e-02 -2.036820538341999054e-02 -1.394337415695190430e-01 -1.542741656303405762e-01 4.364145174622535706e-02 3.993007540702819824e-02 -2.112194746732711792e-01 1.497287005186080933e-01 -4.672711715102195740e-02 -1.551461871713399887e-02 6.314979493618011475e-02 1.431895345449447632e-01 9.142355993390083313e-03 3.599837422370910645e-02 1.399666965007781982e-01 7.709475606679916382e-02 -1.358396410942077637e-01 -8.497576415538787842e-02 7.857821881771087646e-02 6.015505641698837280e-02 5.440907180309295654e-02 1.058374121785163879e-01 5.434339120984077454e-02 -3.758274018764495850e-02 -5.292938277125358582e-02 2.808092162013053894e-02 -2.835044264793395996e-02 -1.248251646757125854e-01 -5.926519632339477539e-02 3.497494012117385864e-02 -3.819497674703598022e-02 1.222720742225646973e-01 -1.122891530394554138e-01 6.913711782544851303e-03 3.836574777960777283e-02 1.601006276905536652e-02 1.582675278186798096e-01 2.026736550033092499e-02 3.655571490526199341e-02 7.880838960409164429e-02 3.508188237901777029e-04 -2.065979875624179840e-02 1.050482541322708130e-01 -4.490625113248825073e-02 1.198563501238822937e-01 -2.795512229204177856e-02 -1.338471323251724243e-01 -7.825163006782531738e-02 1.040796339511871338e-01 5.196359008550643921e-02 -1.153695136308670044e-01 9.842824190855026245e-02 -6.323090195655822754e-02 -6.851106137037277222e-02 -1.014922037720680237e-01 -5.391617305576801300e-03 2.151734754443168640e-02 4.533471539616584778e-02 -4.375497996807098389e-02 9.268983453512191772e-02 1.461862307041883469e-02 1.372835505753755569e-02 -1.841360181570053101e-01 -5.177742615342140198e-02 6.685604341328144073e-03 -6.934135407209396362e-02 8.941423147916793823e-02 -2.072792313992977142e-02 -8.401592820882797241e-02 3.813169151544570923e-02 -2.302310466766357422e-01 -1.084784567356109619e-01 3.572170436382293701e-02 -5.766922608017921448e-02 -1.687706261873245239e-01 6.598049402236938477e-02 -1.793854683637619019e-02 1.105693504214286804e-01 8.789461851119995117e-02 7.091992348432540894e-02
-5.028618872165679932e-02 -7.483074069023132324e-02 7.156905252486467361e-03 1.675784289836883545e-01 -3.356646001338958740e-02 1.187836471945047379e-02 3.225776180624961853e-02 1.177816763520240784e-01 1.065212488174438477e-01 -3.088948875665664673e-02 -5.446564033627510071e-02 -2.648436464369297028e-02 3.227284923195838928e-02 3.680912405252456665e-02 -2.792311273515224457e-02 -9.764708578586578369e-02 1.144451797008514404e-01 1.010898873209953308e-01 -1.101490408182144165e-01 1.191057488322257996e-01 -2.493438124656677246e-01 2.059433422982692719e-02 -2.841075323522090912e-02 4.523485898971557617e-02 -1.122850924730300903e-02 -3.910019993782043457e-02 1.537357717752456665e-01 1.638715341687202454e-02 4.622386023402214050e-02 8.143951743841171265e-02 -1.578410267829895020e-01 -1.473721712827682495e-01 5.402892455458641052e-02 -4.193961247801780701e-02 1.580363661050796509e-01 -5.706958100199699402e-02 -6.490150094032287598e-02 -8.493444882333278656e-03 1.964241452515125275e-02 7.931755483150482178e-02 -2.954248897731304169e-02 5.773448199033737183e-02 -9.124113619327545166e-02 5.579741299152374268e-02 -1.229841560125350952e-01 1.389156579971313477e-01 1.014491319656372070e-01 -1.003542076796293259e-02 2.057822346687316895e-01 -9.154897928237915039e-02 -9.844716638326644897e-02 6.934036314487457275e-02 6.913352757692337036e-02 -3.620521724224090576e-02 2.214249223470687866e-02 -1.719243675470352173e-01 5.956420302391052246e-02 -2.518982626497745514e-03 3.492533788084983826e-02 6.599538028240203857e-02 -1.898200809955596924e-01 -6.694129109382629395e-02 -9.999424964189529419e-02 3.196538239717483521e-02 2.588410675525665283e-01 5.468959361314773560e-02 9.133651107549667358e-02 1.605414897203445435e-01 3.192074596881866455e-02 1.377671062946319580e-01 9.473148733377456665e-02 -2.668775990605354309e-02 -5.388423427939414978e-02 -4.099871963262557983e-03 9.848514944314956665e-02 3.622515127062797546e-02 1.215278580784797668e-01 -8.515473455190658569e-02 1.018030047416687012e-01 1.088957116007804871e-02 -9.772374480962753296e-02 -4.133827611804008484e-02 1.064074486494064331e-01 -5.116395186632871628e-03 -4.493088275194168091e-02 5.888645723462104797e-02 -3.262490034103393555e-02 -9.722832590341567993e-02 -2.267863787710666656e-02 9.309718757867813110e-02 7.730240374803543091e-02 -6.086559151299297810e-04 -6.941177695989608765e-02 -6.740113347768783569e-02 4.193311929702758789e-02 -2.284772880375385284e-02 2.802759781479835510e-02 5.803907290101051331e-02 1.539296098053455353e-02 -4.740932211279869080e-02 -9.660506993532180786e-02 3.859296068549156189e-02 1.695282310247421265e-01 7.185599207878112793e-02 -1.977900415658950806e-01 5.753814056515693665e-02 -9.379908442497253418e-03 8.026163280010223389e-02 1.193242743611335754e-01 1.327393651008605957e-01 2.653914988040924072e-01 1.072081029415130615e-01 1.456695050001144409e-01 7.194739580154418945e-02 6.666159629821777344e-02 1.427066624164581299e-01 -1.190151646733283997e-02 -2.090523242950439453e-01 8.539675921201705933e-02 -1.991890519857406616e-01 1.652767881751060486e-03 -9.588459134101867676e-02 -3.991759940981864929e-02 -8.384019136428833008e-03 8.372662961483001709e-02 -9.472664445638656616e-02 -1.198018118739128113e-01 2.346833003684878349e-03 -7.667636871337890625e-02 -8.408328890800476074e-02 -4.955071024596691132e-03 1.510412693023681641e-01 1.144732832908630371e-01 -2.480882219970226288e-02 -3.243416547775268555e-02 6.507805734872817993e-02 -2.185927517712116241e-02 -3.677704371511936188e-03 -8.779990673065185547e-02 7.091926783323287964e-02 -1.332194060087203979e-01 -1.570334471762180328e-02 -1.024920269846916199e-01 1.911056041717529297e-02 3.214467316865921021e-02 -1.026528142392635345e-02 -7.017070055007934570e-02 9.196502715349197388e-02 -8.623228967189788818e-02 -1.067029032856225967e-02 -7.871666550636291504e-02 1.043700706213712692e-02 1.239112243056297302e-01 -1.264330446720123291e-01 8.281453512609004974e-03 -3.040130622684955597e-02 -7.099400460720062256e-02 9.679535031318664551e-02 5.321674048900604248e-02 -1.068299356848001480e-02 1.448687613010406494e-01 1.174949947744607925e-02 1.285661607980728149e-01 1.877212971448898315e-01 -1.072866320610046387e-01 1.740267574787139893e-01 8.263793587684631348e-02 -1.781338267028331757e-02 -1.972471326589584351e-01 5.910812690854072571e-02 4.401563107967376709e-02 -4.486167058348655701e-02 -1.164721697568893433e-01 2.874515717849135399e-03 8.221773803234100342e-02 -1.019368320703506470e-01 6.717520952224731445e-02 -5.679649300873279572e-03 -5.090980976819992065e-02 -3.338947147130966187e-02 1.160379648208618164e-01 1.977083832025527954e-02 -3.352370485663414001e-02 3.947387263178825378e-02 -1.048088893294334412e-01 7.596309483051300049e-02 -1.120190788060426712e-02 -1.192479766905307770e-02 -4.334564879536628723e-02 7.100033573806285858e-03 -2.827483229339122772e-02 -4.197373241186141968e-02 5.215791985392570496e-02 9.679981321096420288e-02 9.346302598714828491e-02 7.659080624580383301e-02 2.482978440821170807e-02 1.934352889657020569e-02 -1.070475764572620392e-02 -8.300732821226119995e-02 -7.254423201084136963e-02 -1.502425968647003174e-01 -5.890131369233131409e-02 1.993086002767086029e-02 -3.723610565066337585e-02 5.218113958835601807e-02 -9.552983939647674561e-02 1.329406368313357234e-04 -2.828909782692790031e-04 3.424390405416488647e-02 -4.058348014950752258e-03 -8.065876364707946777e-02 -1.721044071018695831e-02 8.129255473613739014e-02 -1.408514827489852905e-01 -4.509239643812179565e-02 5.354259535670280457e-02 -5.539925023913383484e-02 -1.655216962099075317e-01 1.676824539899826050e-01 8.137816935777664185e-02 -1.216863542795181274e-01 -5.089701339602470398e-02 -3.652404993772506714e-02 -5.210780724883079529e-02 5.331416428089141846e-02 -9.893488138914108276e-02 -1.327925324440002441e-01 -4.332286864519119263e-02 -2.992609143257141113e-02 -8.932038396596908569e-02 -7.881520688533782959e-02 1.232002228498458862e-01 -7.388921454548835754e-03 -4.650604724884033203e-02 -3.252224624156951904e-02 -1.585116237401962280e-01 5.142186582088470459e-02 3.880521981045603752e-03 -1.748835295438766479e-01 -7.295409590005874634e-02 -3.686120733618736267e-02 3.579994663596153259e-02 6.301438808441162109e-02 7.243482396006584167e-03 4.454181343317031860e-02 6.312552373856306076e-03 1.714759916067123413e-01 -1.172668561339378357e-01 5.882516037672758102e-03 -7.872059941291809082e-02 3.440313413739204407e-02 3.193924576044082642e-02 1.161732897162437439e-01 -8.569759083911776543e-04 -2.974066138267517090e-02
-1.850107312202453613e-01 -6.555841770023107529e-03 -4.615683853626251221e-02 -6.433773785829544067e-02 8.077644556760787964e-02 4.708326235413551331e-02 -7.417716085910797119e-02 -1.965774921700358391e-03 1.636418998241424561e-01 4.713451862335205078e-02 -7.881171256303787231e-02 6.810142099857330322e-02 4.823700338602066040e-02 -8.947309106588363647e-02 -8.749657869338989258e-02 9.126011282205581665e-02 8.477958291769027710e-02 -4.412360116839408875e-02 -1.035939231514930725e-01 -2.714095450937747955e-02 3.561812266707420349e-02 8.427657932043075562e-02 1.002334132790565491e-01 1.880234293639659882e-02 1.036386657506227493e-02 1.654818058013916016e-01 9.485062956809997559e-02 1.612208336591720581e-01 1.032959073781967163e-01 7.565662264823913574e-02 1.786595955491065979e-02 -1.429628878831863403e-01 -8.880764245986938477e-02 -8.017721772193908691e-02 -3.609267994761466980e-02 4.826051741838455200e-02 -6.400964409112930298e-02 1.085151508450508118e-01 -3.181160986423492432e-02 -4.834186285734176636e-02 -5.683302506804466248e-02 -4.086620733141899109e-02 -1.014023870229721069e-01 4.355951771140098572e-02 3.597972914576530457e-02 8.176676183938980103e-02 1.988694518804550171e-01 8.206970989704132080e-02 1.390223056077957153e-01 1.107212994247674942e-02 -6.038028374314308167e-02 2.883696369826793671e-02 -1.234217137098312378e-01 6.252910196781158447e-02 -1.422224491834640503e-01 -4.748534783720970154e-02 -1.323232948780059814e-01 2.469991743564605713e-01 -5.595489963889122009e-02 1.325199902057647705e-01 3.929834565497003496e-05 -9.378886967897415161e-02 7.473651319742202759e-02 5.096828192472457886e-02 -1.409667581319808960e-01 -8.434395492076873779e-02 1.317643076181411743e-01 1.266942638903856277e-02 1.154187018983066082e-03 8.250134438276290894e-02 -1.342652589082717896e-01 -2.643128857016563416e-02 8.076398819684982300e-02 1.247753500938415527e-01 1.366250962018966675e-01 2.810758724808692932e-02 8.478968590497970581e-02 -2.368651563301682472e-03 1.271363198757171631e-01 2.389526367187500000e-02 7.760161161422729492e-02 5.659130588173866272e-02 -5.721511319279670715e-02 -5.782637372612953186e-02 -3.969149664044380188e-02 -1.899138242006301880e-01 -5.605035461485385895e-03 1.808744519948959351e-01 -4.139085114002227783e-02 1.443497538566589355e-01 2.975579723715782166e-02 3.830076381564140320e-02 -1.578469388186931610e-02 -5.771401897072792053e-02 -1.800940185785293579e-02 2.443263493478298187e-02 -1.947066783905029297e-01 4.618437588214874268e-02 -1.141083706170320511e-02 4.754383489489555359e-02 -5.518835969269275665e-03 6.192780658602714539e-02 -7.797100581228733063e-03 -6.129279732704162598e-02 -1.481143534183502197e-01 -9.623797237873077393e-02 1.158120259642601013e-01 -8.605283498764038086e-02 6.518119573593139648e-02 4.884576424956321716e-02 -1.693790704011917114e-01 6.558927148580551147e-02 4.600603133440017700e-02 -1.645622104406356812e-01 6.865873187780380249e-02 1.004135757684707642e-01 -1.004508882761001587e-01 1.114844232797622681e-01 3.033226132392883301e-01 1.321370005607604980e-01 2.936946973204612732e-02 5.580833926796913147e-02 8.877746760845184326e-02 -1.095690065994858742e-03 -1.398002803325653076e-01 1.521963030099868774e-01 1.860026735812425613e-03 -4.550765082240104675e-02 -6.489670276641845703e-02 -5.121865868568420410e-02 -2.050305157899856567e-02 -1.669774651527404785e-01 3.390349075198173523e-02 -1.291701644659042358e-01 1.977660953998565674e-01 -4.259078577160835266e-02 1.562491059303283691e-01 -1.968182437121868134e-02 -8.136726170778274536e-02 -5.728824436664581299e-02 -3.737260401248931885e-02 -7.674618810415267944e-02 2.124126069247722626e-02 -5.810832139104604721e-03 -1.245858054608106613e-02 -5.131615325808525085e-02 -1.206346601247787476e-02 4.549963399767875671e-02 1.235811039805412292e-01 -9.100418537855148315e-03 3.786741942167282104e-02 -7.293833047151565552e-02 -6.518483161926269531e-02 -1.665648370981216431e-01 6.835864391177892685e-03 -2.958268113434314728e-02 -5.240057129412889481e-03 2.235391736030578613e-02 -1.025829464197158813e-01 -6.342031527310609818e-03 3.444458544254302979e-02 -6.031423062086105347e-02 5.043875426054000854e-02 3.000857308506965637e-03 -1.238222718238830566e-01 2.441259101033210754e-02 -1.864592358469963074e-02 -1.659768223762512207e-01 -7.223089784383773804e-02 4.273210093379020691e-02 1.773684518411755562e-03 -4.454766213893890381e-02 -2.048206627368927002e-01 -3.004067577421665192e-02 5.214677192270755768e-03 -9.542461484670639038e-02 7.987039536237716675e-02 -2.422211878001689911e-02 4.057553038001060486e-02 -2.732853591442108154e-02 -6.682620197534561157e-02 1.527628302574157715e-01 -1.249788254499435425e-01 1.355167850852012634e-02 -7.865574210882186890e-02 5.691941082477569580e-02 -5.040833353996276855e-02 -4.143743589520454407e-02 -1.359876096248626709e-01 -7.505735754966735840e-02 9.140662848949432373e-02 1.122075021266937256e-01 7.052493095397949219e-02 1.476672142744064331e-01 2.184824272990226746e-02 -7.905258797109127045e-03 -1.279218471609055996e-03 6.913759279996156693e-03 4.899921268224716187e-02 -1.396423764526844025e-02 -3.317188099026679993e-02 4.545542225241661072e-02 5.707366019487380981e-02 7.813205942511558533e-03 2.067343294620513916e-01 6.180298514664173126e-03 1.266078799962997437e-01 2.314866334199905396e-02 7.065149024128913879e-03 9.597381204366683960e-02 1.469953916966915131e-02 6.858545355498790741e-03 7.274798303842544556e-02 -4.450894519686698914e-02 1.783963292837142944e-02 8.999715745449066162e-02 -5.413181334733963013e-02 -4.319804161787033081e-02 9.681942872703075409e-03 1.266681998968124390e-01 7.543374784290790558e-03 2.463408559560775757e-02 2.135629020631313324e-02 3.979644924402236938e-02 6.169819831848144531e-02 -2.915939688682556152e-02 7.138729840517044067e-02 1.734494976699352264e-02 1.432286351919174194e-01 2.530998289585113525e-01 -7.657286524772644043e-02 1.108008772134780884e-01 -1.098999679088592529e-01 -3.154643997550010681e-02 8.656525611877441406e-02 1.693980544805526733e-01 6.680909544229507446e-02 -2.375734969973564148e-02 4.706338793039321899e-02 1.541779041290283203e-01 2.080016955733299255e-02 6.371955573558807373e-02 -2.803473919630050659e-02 5.329513549804687500e-02 -9.811142459511756897e-03 -9.479048103094100952e-02 7.371821999549865723e-02 -1.171296313405036926e-01 -4.698982462286949158e-03 -9.717394411563873291e-02 1.986767500638961792e-01 6.138291582465171814e-02 -9.284651279449462891e-02 -8.135492354631423950e-02 1.239200495183467865e-02 2.900372259318828583e-02
1.102012246847152710e-01 -6.119001656770706177e-03 -1.587560921907424927e-01 1.266553401947021484e-01 -6.339933723211288452e-03 -2.687079831957817078e-02 1.944197900593280792e-02 -1.807548478245735168e-02 -3.687591105699539185e-02 -9.018099081004038453e-05 -1.278326660394668579e-01 -2.498539723455905914e-02 6.069088727235794067e-02 8.714640885591506958e-02 -8.690892904996871948e-02 3.573217242956161499e-02 2.712074480950832367e-02 -4.806737229228019714e-02 1.506984680891036987e-01 -1.475602537393569946e-01 4.101897031068801880e-02 2.712448872625827789e-02 -9.493263438344001770e-03 1.020908430218696594e-01 8.269812911748886108e-02 7.706791162490844727e-02 -1.091594845056533813e-01 -8.225407451391220093e-02 3.383035212755203247e-02 -4.055145382881164551e-02 1.066454201936721802e-01 8.403287269175052643e-03 7.590600848197937012e-02 -2.367055416107177734e-02 3.621260076761245728e-02 1.076294630765914917e-01 -7.109079509973526001e-02 7.634570449590682983e-02 -5.418804660439491272e-02 4.246764630079269409e-02 6.856825947761535645e-02 1.592623889446258545e-01 -8.385187387466430664e-02 -3.493535146117210388e-02 1.684755682945251465e-01 6.019952148199081421e-02 1.384045113809406757e-03 1.234937366098165512e-02 -1.054585874080657959e-01 2.426648512482643127e-02 -5.298343673348426819e-02 5.877569317817687988e-02 -9.274350851774215698e-02 -1.887030452489852905e-01 -9.403514117002487183e-02 3.528724610805511475e-02 1.280335336923599243e-01 1.997157186269760132e-02 2.736927382647991180e-02 1.279213875532150269e-01 -9.129845350980758667e-02 1.522687226533889771e-01 -5.545173957943916321e-02 2.105563506484031677e-02 8.359647542238235474e-02 -3.486089780926704407e-02 1.670271009206771851e-01 -1.653503328561782837e-01 1.556488871574401855e-02 -1.324080973863601685e-01 -2.590935118496417999e-02 -1.885794335976243019e-03 1.610132306814193726e-01 1.356182247400283813e-02 -3.549182089045643806e-03 2.793073840439319611e-02 3.504741564393043518e-02 -4.692573472857475281e-02 9.872542694211006165e-03 -1.987440139055252075e-02 1.552473939955234528e-02 8.475351333618164062e-02 -9.042318910360336304e-02 1.007620841264724731e-01 1.122007369995117188e-01 3.171977028250694275e-02 3.046377189457416534e-02 -4.222533479332923889e-02 -1.221864968538284302e-01 4.593870788812637329e-02 3.569151088595390320e-02 1.907873451709747314e-01 -4.719030112028121948e-02 6.109322234988212585e-02 7.126314938068389893e-02 -8.125525712966918945e-02 5.299185588955879211e-02 1.348834931850433350e-01 6.068610399961471558e-02 7.774111628532409668e-02 -1.447691349312663078e-03 1.039175130426883698e-02 1.999295782297849655e-03 1.059735715389251709e-01 2.120966091752052307e-02 -4.754533618688583374e-02 9.681545943021774292e-02 -8.652792870998382568e-02 -2.086745500564575195e-01 3.704897314310073853e-02 2.284322679042816162e-01 -6.204537674784660339e-02 2.936773747205734253e-02 -7.609067019075155258e-03 -3.203080594539642334e-02 -3.541167825460433960e-02 -8.601015806198120117e-02 1.187628880143165588e-01 1.174575909972190857e-01 1.770498156547546387e-01 -5.282817874103784561e-03 -1.328151226043701172e-01 -1.069442331790924072e-01 -1.150000691413879395e-01 -5.714970454573631287e-02 8.443346619606018066e-02 -4.499129578471183777e-02 1.274939775466918945e-01 2.279385738074779510e-02 6.356022320687770844e-03 -1.005713641643524170e-01 8.626545965671539307e-02 8.026057481765747070e-02 6.477252114564180374e-03 -1.142420060932636261e-02 2.434979006648063660e-02 -1.676585711538791656e-02 -5.198699235916137695e-02 -9.451350197196006775e-03 -5.061263218522071838e-02 -5.656408146023750305e-02 4.407078400254249573e-02 -7.830063998699188232e-02 -1.643344759941101074e-02 2.110856175422668457e-01 -5.613967031240463257e-02 1.156144291162490845e-01 5.081712454557418823e-02 5.268717184662818909e-02 3.025254011154174805e-01 7.089975755661725998e-03 2.051838934421539307e-01 2.233602553606033325e-01 -7.767034322023391724e-02 6.980795413255691528e-02 6.088545918464660645e-02 -1.159531623125076294e-01 6.038822606205940247e-02 3.191286697983741760e-02 4.519087821245193481e-02 -9.788658469915390015e-02 -8.216127008199691772e-02 2.655230090022087097e-02 2.779692877084016800e-03 -5.652358382940292358e-02 1.471019163727760315e-02 1.118926610797643661e-02 1.241331547498703003e-01 4.387258365750312805e-02 -1.775732934474945068e-01 3.417823463678359985e-02 1.698072999715805054e-01 2.183597162365913391e-02 -1.488687098026275635e-01 -1.309109032154083252e-01 8.007483184337615967e-02 -1.459233164787292480e-01 -3.922899812459945679e-02 5.221889168024063110e-02 3.442430496215820312e-02 1.883400827646255493e-01 1.304818391799926758e-01 -1.168367639183998108e-01 6.660875864326953888e-03 2.570467256009578705e-02 -8.274701982736587524e-02 1.713877730071544647e-02 -7.178039103746414185e-02 1.643960014916956425e-03 1.191450208425521851e-01 -6.092342361807823181e-02 8.536915481090545654e-02 3.408673405647277832e-02 -4.772878810763359070e-02 -1.338319033384323120e-01 -5.508342385292053223e-02 -2.161548472940921783e-02 -1.145235225558280945e-01 1.162526197731494904e-02 5.258878320455551147e-02 8.115231990814208984e-02 -1.471464335918426514e-01 -1.518859807401895523e-02 -7.395842112600803375e-03 -1.430712454020977020e-02 -5.718518421053886414e-02 2.696391642093658447e-01 -6.711173802614212036e-02 7.662753015756607056e-02 1.176770683377981186e-02 -2.109248638153076172e-01 -4.650564491748809814e-02 -8.923336118459701538e-02 3.117737174034118652e-02 6.131028383970260620e-02 -5.162331089377403259e-02 -6.988395005464553833e-02 -8.110483735799789429e-02 -1.720000207424163818e-01 -4.675036761909723282e-03 4.738665744662284851e-02 1.624235361814498901e-01 4.410174861550331116e-02 3.330653067678213120e-03 1.824274286627769470e-02 3.928122669458389282e-02 -5.707760900259017944e-02 -1.392065584659576416e-01 1.026834547519683838e-01 -1.863591000437736511e-02 -1.839596331119537354e-01 -7.886908948421478271e-02 3.246961906552314758e-02 -1.455353051424026489e-01 -1.344648771919310093e-03 4.186895489692687988e-02 -1.633224426768720150e-03 -1.900061266496777534e-03 1.474738121032714844e-01 9.022578597068786621e-02 -8.047103881835937500e-02 1.850463449954986572e-02 -7.996074855327606201e-04 3.703653439879417419e-02 4.721205309033393860e-02 1.381952017545700073e-01 -1.280475854873657227e-01 3.597342967987060547e-02 -2.010545134544372559e-02 1.281700879335403442e-01 -5.162025988101959229e-02 -9.163827635347843170e-03 -2.314073033630847931e-02 -6.840138882398605347e-02 8.759105950593948364e-02 1.496067456901073456e-02
-1.165133267641067505e-01 -6.622008234262466431e-02 -5.340033397078514099e-02 4.185583442449569702e-02 3.147911652922630310e-02 -2.573611736297607422e-01 -5.998196452856063843e-02 -3.520830720663070679e-02 -1.438379939645528793e-02 7.414773851633071899e-02 3.931559622287750244e-02 1.529769897460937500e-01 2.536488771438598633e-01 -4.917109012603759766e-02 -1.403172463178634644e-01 -1.955680735409259796e-02 -7.798411697149276733e-02 -2.597614564001560211e-02 7.371563464403152466e-02 6.125370040535926819e-02 -8.599822409451007843e-03 4.503717273473739624e-02 6.030706316232681274e-02 1.324000209569931030e-01 -2.836711006239056587e-03 -6.688153743743896484e-02 -5.798719823360443115e-02 8.783845603466033936e-02 8.665847592055797577e-03 -1.192690222524106503e-03 -9.646455943584442139e-02 2.851398661732673645e-02 -7.122528739273548126e-03 3.205475956201553345e-02 1.262383013963699341e-01 7.165376096963882446e-02 -6.346823275089263916e-02 1.485196948051452637e-01 5.714672058820724487e-02 -7.308292388916015625e-02 -2.461744099855422974e-02 -3.565178066492080688e-02 -1.686909496784210205e-01 5.848520249128341675e-02 -2.211141400039196014e-02 -2.159017771482467651e-01 -1.031335666775703430e-01 -2.021180465817451477e-02 -6.979253143072128296e-02 6.416191160678863525e-02 1.668730229139328003e-01 -8.201295882463455200e-02 -1.021480262279510498e-01 -1.996468752622604370e-01 8.613707870244979858e-02 -1.217965856194496155e-01 8.983589708805084229e-02 -2.269154787063598633e-01 8.744911104440689087e-02 -1.157979592680931091e-01 1.548049747943878174e-01 -1.541333794593811035e-01 -7.923231460154056549e-03 -3.804423660039901733e-02 -4.748350754380226135e-02 1.138954982161521912e-02 -5.102552846074104309e-02 1.107846945524215698e-01 1.033821403980255127e-01 7.525219023227691650e-02 -6.628599762916564941e-02 1.658228486776351929e-01 -1.022161729633808136e-02 -1.040675938129425049e-01 5.752683058381080627e-02 -1.461095660924911499e-01 -6.730283051729202271e-02 -9.242885559797286987e-02 1.519583910703659058e-01 -9.609377384185791016e-02 1.322017703205347061e-02 1.635972857475280762e-01 1.295074373483657837e-01 -1.309692263603210449e-01 -1.374281849712133408e-02 1.253707334399223328e-02 -1.190800741314888000e-01 -2.151746489107608795e-02 -2.134772203862667084e-02 1.173515990376472473e-01 1.270952373743057251e-01 8.399138599634170532e-02 -3.421913832426071167e-02 2.106338739395141602e-03 -4.418789222836494446e-02 -6.330186873674392700e-02 5.516792181879281998e-03 2.743860892951488495e-02 1.172833815217018127e-01 2.039669454097747803e-01 -9.272468090057373047e-02 1.038182154297828674e-01 -1.273857206106185913e-01 -1.369607001543045044e-01 3.434526920318603516e-02 1.058456152677536011e-01 5.586991552263498306e-03 -5.612395331263542175e-02 -1.895182579755783081e-02 -3.218523040413856506e-02 -7.901959121227264404e-02 -4.627759382128715515e-02 1.542577287182211876e-03 -1.461882027797400951e-03 1.206694990396499634e-01 2.189037390053272247e-02 -1.873202621936798096e-02 6.852138787508010864e-02 -5.889889597892761230e-02 -8.568318188190460205e-02 -7.706593722105026245e-02 -6.859753280878067017e-02 1.481870263814926147e-01 -5.961718037724494934e-02 2.635336294770240784e-02 -4.181013908237218857e-03 1.471513044089078903e-02 -1.662569679319858551e-02 3.639392927289009094e-02 8.219860494136810303e-02 4.292009770870208740e-02 -2.973249368369579315e-02 -2.544880658388137817e-02 -4.386718571186065674e-02 1.311957687139511108e-01 1.667419075965881348e-02 -8.952073007822036743e-02 -7.645159494131803513e-03 1.040292456746101379e-01 -1.111009865999221802e-01 -9.486593306064605713e-02 -4.993631318211555481e-02 -1.015543267130851746e-01 2.303693816065788269e-02 1.006854325532913208e-02 -6.839488446712493896e-02 -2.969654835760593414e-02 -7.043061405420303345e-02 1.196458265185356140e-01 1.278419345617294312e-01 1.932125538587570190e-01 -5.057019740343093872e-02 1.198346838355064392e-01 1.270384527742862701e-02 3.774708509445190430e-02 -1.773697882890701294e-01 1.448939442634582520e-01 1.343685686588287354e-01 -8.634682744741439819e-02 1.116702556610107422e-01 -1.220309957861900330e-01 -8.645543828606605530e-03 2.585902996361255646e-02 9.079946577548980713e-02 -5.945843458175659180e-02 -7.315852213650941849e-03 -9.497205913066864014e-02 -6.562130898237228394e-02 -1.559764891862869263e-02 1.370891183614730835e-02 9.413009136915206909e-02 2.273377403616905212e-02 5.444952473044395447e-02 -1.205993443727493286e-01 1.128196120262145996e-01 8.025300502777099609e-02 1.121959760785102844e-01 4.705468937754631042e-02 3.579580457881093025e-03 7.511129230260848999e-02 1.026332825422286987e-01 -1.908846646547317505e-01 1.044030860066413879e-01 1.354954019188880920e-02 -1.951510608196258545e-01 -1.360841691493988037e-01 6.188962236046791077e-02 1.298442482948303223e-01 9.469730406999588013e-02 -4.208889976143836975e-02 -1.149958521127700806e-01 -1.761191524565219879e-02 6.558822840452194214e-02 1.031724140048027039e-01 7.857020199298858643e-02 -8.426701277494430542e-02 1.718319803476333618e-01 -6.898204982280731201e-02 1.388671696186065674e-01 -1.246855221688747406e-02 1.020973455160856247e-02 -5.940203368663787842e-02 -2.450277563184499741e-03 7.331370562314987183e-02 -2.569540811236947775e-04 1.866114288568496704e-01 -6.647072732448577881e-02 8.557845652103424072e-02 -1.215836219489574432e-02 1.342856585979461670e-01 2.036729827523231506e-02 -1.218668818473815918e-01 -2.245924063026905060e-02 -9.444624930620193481e-02 -2.420854382216930389e-02 -2.990940585732460022e-03 7.960891723632812500e-02 3.904004395008087158e-02 -2.733207494020462036e-02 -7.178466767072677612e-02 1.081263795495033264e-01 1.229973360896110535e-01 -8.330936543643474579e-03 5.780398845672607422e-02 -2.984644472599029541e-02 9.092929214239120483e-02 -6.274692714214324951e-02 -2.035487890243530273e-01 6.531513482332229614e-02 -1.199249252676963806e-01 9.918146580457687378e-02 2.973174862563610077e-02 9.940467029809951782e-02 8.045771718025207520e-02 5.496513471007347107e-02 1.095520257949829102e-01 4.568828269839286804e-02 5.192355066537857056e-02 3.487376123666763306e-02 1.228669565171003342e-02 -1.325485482811927795e-02 -3.813472809270024300e-03 4.252022504806518555e-02 -2.270925976336002350e-02 -1.148624420166015625e-01 -2.067194506525993347e-02 2.367120049893856049e-02 -8.398033678531646729e-03 4.183992277830839157e-03 2.182753570377826691e-02 2.322053769603371620e-03 3.200624138116836548e-02 8.090202510356903076e-02 -1.055762395262718201e-01 -8.932304382324218750e-02 -3.738112002611160278e-02
