-4.380171000957489014e-02 3.772510215640068054e-02 -8.148597180843353271e-02 -2.049967497587203979e-01 9.404969215393066406e-02 -2.394015341997146606e-02 -7.329086214303970337e-02 -1.143959909677505493e-01 -1.143106445670127869e-01 6.738904118537902832e-02 -3.420694172382354736e-02 -8.255908638238906860e-02 -4.301653429865837097e-02 9.248039126396179199e-02 1.317170448601245880e-02 -6.324398517608642578e-02 -1.088802702724933624e-02 -2.883160859346389771e-02 2.849885635077953339e-02 -8.790336549282073975e-02 -1.240837108343839645e-02 -4.363638162612915039e-02 -1.704210788011550903e-02 8.190421760082244873e-02 6.404339522123336792e-02 1.748405545949935913e-01 1.553598195314407349e-01 1.930294036865234375e-01 -1.983681470155715942e-01 3.501250222325325012e-02 5.707221105694770813e-02 -1.236115582287311554e-03 -1.113193184137344360e-01 -8.584055304527282715e-02 -3.111700760200619698e-03 2.481372281908988953e-02 -6.644815951585769653e-02 3.536123782396316528e-02 1.527253240346908569e-01 1.301305145025253296e-01 -4.442335292696952820e-02 -9.423137456178665161e-02 -3.582916036248207092e-02 1.219507530331611633e-01 -5.530896037817001343e-02 -1.400539875030517578e-01 8.439649641513824463e-02 -5.406321957707405090e-02 7.705648988485336304e-02 9.207365661859512329e-02 1.005220785737037659e-01 -5.459420755505561829e-02 2.491622567176818848e-01 1.870182156562805176e-01 -6.484035868197679520e-03 1.019235476851463318e-01 4.800360649824142456e-02 -2.297953329980373383e-02
7.988835126161575317e-02 -1.409640908241271973e-01 1.959744468331336975e-02 5.771234259009361267e-02 -1.261626929044723511e-01 1.002299040555953979e-02 9.024478495121002197e-02 -4.263342916965484619e-02 -6.789939105510711670e-02 -5.241639912128448486e-02 -4.611334577202796936e-02 1.274196356534957886e-01 6.451617181301116943e-02 -4.883421584963798523e-02 1.348268538713455200e-01 8.497076481580734253e-02 1.361713558435440063e-01 -2.469091303646564484e-02 1.351229380816221237e-02 -8.432291448116302490e-03 1.245263731107115746e-03 1.138823255896568298e-01 -1.255138814449310303e-01 3.369588032364845276e-02 8.923979103565216064e-02 -7.645168155431747437e-02 9.055403620004653931e-02 -1.784544787369668484e-03 -7.441744953393936157e-02 -1.101202331483364105e-02 7.213395833969116211e-02 -3.110701031982898712e-02 6.123359873890876770e-02 -7.407936733216047287e-03 7.503646425902843475e-03 -7.343996316194534302e-02 -9.361553192138671875e-02 -1.326193450950086117e-04 -7.829383015632629395e-02 -3.428923711180686951e-02 5.809753760695457458e-02 9.624263271689414978e-03 -1.234034076333045959e-01 -1.859785169363021851e-01 1.394713819026947021e-01 4.720700159668922424e-02 -2.579589746892452240e-02 -8.336661010980606079e-02 8.548748493194580078e-02 -1.430259793996810913e-01 -2.711503766477108002e-02 6.758108735084533691e-02 6.305062770843505859e-02 -6.907793879508972168e-02 -2.170953899621963501e-02 -9.020238369703292847e-02 -8.094492554664611816e-02 -1.222525313496589661e-01
3.978156298398971558e-02 -6.227080710232257843e-03 -3.309725970029830933e-02 3.883368149399757385e-02 -1.800823360681533813e-01 -5.400885641574859619e-02 -8.185347169637680054e-02 7.605316489934921265e-02 -2.408324033021926880e-01 -1.176263242959976196e-01 4.475511237978935242e-02 1.113723739981651306e-01 5.136655271053314209e-02 -9.660944342613220215e-02 5.310491845011711121e-02 3.109020926058292389e-02 -7.773676514625549316e-02 -3.221909329295158386e-02 1.269820034503936768e-01 1.797854155302047729e-01 8.572130650281906128e-02 -1.311005279421806335e-02 8.898365497589111328e-02 -6.190778687596321106e-02 -5.930711328983306885e-02 1.036758348345756531e-01 1.094534434378147125e-02 -1.604024171829223633e-01 4.577003791928291321e-02 2.037384510040283203e-01 5.293726548552513123e-02 -2.338631004095077515e-01 1.685117185115814209e-01 5.149880796670913696e-02 3.755493462085723877e-02 -1.074757799506187439e-01 2.287099324166774750e-02 -1.767900735139846802e-01 1.149863451719284058e-01 5.259180441498756409e-02 1.301118582487106323e-01 -1.732669421471655369e-03 6.409068405628204346e-02 -1.656168699264526367e-01 -1.426158845424652100e-02 -1.781427413225173950e-01 4.167291801422834396e-03 -2.827780507504940033e-02 -9.888146072626113892e-02 8.081486821174621582e-02 4.209237173199653625e-02 4.492854699492454529e-02 4.379430785775184631e-02 6.442384421825408936e-02 9.611965715885162354e-02 -1.788441538810729980e-01 -4.334677383303642273e-02 -8.881937712430953979e-02
6.613337434828281403e-03 5.548471957445144653e-02 2.641112916171550751e-02 -3.739038854837417603e-02 6.664340198040008545e-02 6.884915381669998169e-02 -9.651565924286842346e-03 -8.591087162494659424e-02 -9.044779837131500244e-02 1.216168422251939774e-02 5.161454156041145325e-02 3.764690086245536804e-02 -9.895094484090805054e-02 1.505412012338638306e-01 1.232170406728982925e-02 -2.150047123432159424e-01 2.025742782279849052e-03 2.515937946736812592e-02 -4.138033092021942139e-02 -2.087631262838840485e-02 2.317225188016891479e-02 -4.079126939177513123e-02 1.099502667784690857e-01 1.534005254507064819e-01 5.389078054577112198e-03 1.709622740745544434e-01 -1.599862799048423767e-02 -5.024142563343048096e-02 -1.395507454872131348e-01 3.428601846098899841e-02 3.452791273593902588e-02 9.651079028844833374e-02 3.682684153318405151e-02 5.569783598184585571e-02 -9.906970709562301636e-02 2.900929003953933716e-02 -4.574783891439437866e-02 -5.518597364425659180e-02 9.727654606103897095e-02 1.173348501324653625e-01 -8.910689502954483032e-02 -1.467719078063964844e-01 8.775480836629867554e-02 8.878755569458007812e-02 -1.053687483072280884e-01 -3.609988093376159668e-02 1.132872104644775391e-01 -6.965140253305435181e-02 -4.309498891234397888e-02 -1.628038883209228516e-01 1.078109368681907654e-01 5.139824375510215759e-02 -7.076808065176010132e-02 -6.558616459369659424e-02 1.037644967436790466e-01 -8.987220376729965210e-02 -7.215628772974014282e-02 1.363620907068252563e-01
1.293532922863960266e-02 3.537662327289581299e-02 -3.460875451564788818e-01 9.553506225347518921e-02 1.123267039656639099e-02 6.428550928831100464e-03 -9.768795967102050781e-02 -1.586333960294723511e-01 -8.439094573259353638e-02 -1.505071180872619152e-03 8.757021278142929077e-02 -9.040392003953456879e-03 5.678311921656131744e-03 1.231642886996269226e-01 -1.172144338488578796e-01 1.775391846895217896e-01 7.255119085311889648e-02 7.897188514471054077e-02 -1.196120455861091614e-01 -8.287061005830764771e-03 1.045324653387069702e-02 -6.793124228715896606e-02 -4.472389072179794312e-02 -3.036797791719436646e-02 1.075202226638793945e-01 -1.168243121355772018e-02 -1.394328922033309937e-01 1.837343163788318634e-02 -2.194930911064147949e-01 -4.950417205691337585e-02 -4.955066367983818054e-02 4.972396790981292725e-02 -6.506912410259246826e-02 -1.444679796695709229e-01 -2.667378075420856476e-02 -2.101732045412063599e-01 -3.009898401796817780e-02 -1.539919227361679077e-01 -1.240268256515264511e-02 5.963747948408126831e-02 1.085675358772277832e-01 -1.400646567344665527e-01 1.063511967658996582e-01 -2.009375579655170441e-02 -1.133513525128364563e-01 -7.889983057975769043e-02 -5.993606150150299072e-02 -2.256564944982528687e-01 2.815802581608295441e-02 8.444060385227203369e-02 1.235492378473281860e-01 1.655754074454307556e-02 1.690749228000640869e-01 -1.553304195404052734e-01 -1.068326681852340698e-01 9.758679196238517761e-03 1.458209007978439331e-02 1.210685633122920990e-02
-2.483850345015525818e-03 -3.689482435584068298e-02 -1.419457346200942993e-01 1.370060741901397705e-01 3.862963989377021790e-02 9.715232253074645996e-02 2.611733227968215942e-02 -9.233443439006805420e-02 1.428779028356075287e-02 5.697850883007049561e-02 -4.032596945762634277e-02 -8.587151020765304565e-02 2.153140008449554443e-01 1.437647361308336258e-02 8.001846075057983398e-02 5.119689181447029114e-02 -7.517905905842781067e-03 -1.638196781277656555e-02 -4.306373372673988342e-02 -5.989529937505722046e-02 3.750360757112503052e-02 -1.468962728977203369e-01 -2.359695918858051300e-02 -4.261258617043495178e-02 -1.978814750909805298e-01 -4.294689279049634933e-03 3.795064613223075867e-02 -4.139075800776481628e-02 4.413110204041004181e-03 -7.944112271070480347e-02 -8.872656151652336121e-03 -4.565996304154396057e-02 3.048376820515841246e-04 -8.653275668621063232e-02 -2.671155333518981934e-02 2.976592630147933960e-02 -3.610277175903320312e-02 -2.962264418601989746e-02 8.243784541264176369e-04 -1.067828107625246048e-02 -1.213046088814735413e-01 7.086133211851119995e-02 -1.419318914413452148e-01 -1.443845219910144806e-02 6.222213804721832275e-02 -2.300826758146286011e-01 -2.994678914546966553e-02 -2.246410585939884186e-02 9.059982746839523315e-02 -1.033036559820175171e-01 -2.371235564351081848e-02 -3.930428996682167053e-02 -2.193392999470233917e-02 1.016023904085159302e-01 1.427270472049713135e-02 -3.599469736218452454e-02 1.857147961854934692e-01 6.385803222656250000e-02
-2.431154102087020874e-01 3.582484088838100433e-03 5.897480621933937073e-02 -5.224780738353729248e-02 -8.732353150844573975e-02 -3.750238567590713501e-02 -6.272660940885543823e-02 1.993141919374465942e-01 -5.642753094434738159e-02 6.618803739547729492e-02 -4.614822566509246826e-02 -1.797416247427463531e-02 9.879902750253677368e-02 7.055745460093021393e-03 -7.121891528367996216e-02 2.620910480618476868e-02 1.534465420991182327e-02 -9.839316830039024353e-03 -8.602982759475708008e-02 -2.286452054977416992e-02 -1.523249149322509766e-01 -4.033099487423896790e-02 -3.141222894191741943e-01 1.109270565211772919e-02 -5.763801280409097672e-03 -1.414799224585294724e-02 -7.483924180269241333e-02 -4.240391030907630920e-02 -1.252445131540298462e-01 -3.476750478148460388e-02 1.278978586196899414e-02 -5.519586149603128433e-03 -3.155421093106269836e-02 -1.314166095107793808e-02 -8.051811158657073975e-02 -9.001635760068893433e-02 -1.797289550304412842e-01 -3.550784289836883545e-02 4.135230928659439087e-02 -3.108871169388294220e-02 2.591899968683719635e-02 1.708616167306900024e-01 -6.889941543340682983e-02 3.083565272390842438e-02 2.652078866958618164e-02 -8.341336995363235474e-02 8.539272099733352661e-02 1.688667386770248413e-01 3.973438590764999390e-02 -4.333047568798065186e-02 9.501339495182037354e-02 8.265221863985061646e-02 3.022936172783374786e-02 8.732832223176956177e-02 1.416759192943572998e-01 1.060279309749603271e-01 -2.655902318656444550e-02 -7.101867347955703735e-02
6.484059244394302368e-02 2.069610059261322021e-01 -1.847695410251617432e-01 7.552846521139144897e-02 -1.660764068365097046e-01 -2.957327663898468018e-02 -4.991040751338005066e-02 -9.599309414625167847e-02 -2.387850917875766754e-02 -3.066392429172992706e-02 -2.157060056924819946e-02 1.096432097256183624e-02 1.953780092298984528e-02 -7.286936044692993164e-02 -1.313406857661902905e-03 1.931907683610916138e-01 1.890174858272075653e-02 -6.793130934238433838e-02 1.035073846578598022e-01 1.486543100327253342e-02 -8.608944714069366455e-02 -2.711350657045841217e-02 2.397322468459606171e-02 1.583796590566635132e-01 8.820534497499465942e-02 5.770834162831306458e-02 9.048569947481155396e-02 -1.061451211571693420e-01 -5.038358736783266068e-03 8.546625822782516479e-02 -1.484002219513058662e-03 -3.499261336401104927e-03 -9.368512034416198730e-02 3.942165151238441467e-02 1.014494672417640686e-01 -6.928041577339172363e-02 -1.480232030153274536e-01 6.908220052719116211e-02 -8.619905263185501099e-02 5.533475801348686218e-02 -6.404052674770355225e-02 1.587516963481903076e-01 -1.451389789581298828e-01 1.743081212043762207e-01 1.866870559751987457e-02 -8.845168352127075195e-02 -5.167794972658157349e-02 1.142252162098884583e-01 2.073145098984241486e-02 1.122673228383064270e-01 1.300368309020996094e-01 -2.243280224502086639e-02 -2.086717486381530762e-01 -5.270776525139808655e-02 -1.056461930274963379e-01 7.057948410511016846e-02 8.093018084764480591e-02 5.182875320315361023e-02
4.673595726490020752e-02 -1.052727401256561279e-01 9.488894045352935791e-02 -7.410842180252075195e-02 -9.615764766931533813e-02 -1.259653270244598389e-01 -7.463625818490982056e-02 1.213252767920494080e-01 4.584625363349914551e-02 6.720177829265594482e-02 3.991480544209480286e-02 5.765966698527336121e-02 2.042784914374351501e-02 9.822462685406208038e-03 -8.981218189001083374e-02 1.559351105242967606e-02 1.320437192916870117e-01 2.023774385452270508e-02 2.679454535245895386e-02 -5.548904463648796082e-02 -3.433712117839604616e-04 -1.521369218826293945e-01 -1.265636682510375977e-01 -6.212244927883148193e-02 -1.898762285709381104e-01 -6.300416588783264160e-02 1.320389471948146820e-02 -2.839960157871246338e-02 -8.460546843707561493e-03 -6.328481435775756836e-02 -6.269324570894241333e-02 8.657772839069366455e-02 -1.969952136278152466e-01 -1.490364521741867065e-01 4.580087959766387939e-02 -1.809808658435940742e-03 -7.777013629674911499e-02 4.141318798065185547e-02 1.674349159002304077e-01 1.317566037178039551e-01 1.046351194381713867e-01 7.322447001934051514e-02 4.135217517614364624e-02 -1.996174640953540802e-02 7.994856685400009155e-02 1.471928209066390991e-01 1.442424058914184570e-01 -1.030434221029281616e-01 -4.632048681378364563e-02 8.871425688266754150e-02 -7.358111441135406494e-02 -4.687601327896118164e-02 -1.008297428488731384e-01 1.672029867768287659e-02 -9.119106084108352661e-02 1.354243233799934387e-02 -4.140555858612060547e-02 -1.691493578255176544e-02
2.772084176540374756e-01 1.012995745986700058e-02 8.948891609907150269e-02 -5.415528640151023865e-02 8.916988968849182129e-02 -9.629439562559127808e-02 -5.697746574878692627e-02 -1.597895622253417969e-01 -1.836951375007629395e-01 -3.223793953657150269e-02 -1.298887375742197037e-02 3.278305381536483765e-02 4.838227108120918274e-02 -9.992159903049468994e-02 -9.544065594673156738e-02 -1.266018599271774292e-01 6.798341870307922363e-02 3.982555866241455078e-02 5.469137802720069885e-02 -1.632980704307556152e-01 4.543961212038993835e-02 1.406011637300252914e-02 8.167137205600738525e-02 -4.767242819070816040e-02 1.036437004804611206e-01 -9.451416134834289551e-02 3.260787203907966614e-02 -1.333613134920597076e-02 1.123894825577735901e-01 -3.652397915720939636e-02 -1.092434767633676529e-02 1.450993716716766357e-01 -4.430785030126571655e-02 1.327138990163803101e-01 -9.531596302986145020e-02 1.602181047201156616e-01 -4.971073195338249207e-02 1.269806623458862305e-01 -9.764331579208374023e-02 1.534603070467710495e-02 -7.342787086963653564e-02 1.094604507088661194e-01 -1.737037673592567444e-02 -2.301269173622131348e-01 5.465053021907806396e-02 2.332531614229083061e-03 -1.188008114695549011e-01 3.415967151522636414e-02 -9.218146651983261108e-02 -1.336497068405151367e-01 8.440088480710983276e-03 -2.705421857535839081e-02 -4.197520762681961060e-02 3.482843935489654541e-02 9.037667512893676758e-02 9.027780033648014069e-03 -2.367402911186218262e-01 -6.971947848796844482e-02
1.120119765400886536e-01 2.605341933667659760e-02 7.551963441073894501e-03 -6.696020066738128662e-02 -1.091807857155799866e-01 -6.712374091148376465e-02 -3.511897101998329163e-02 -3.895830735564231873e-02 -6.406217347830533981e-03 8.279527723789215088e-02 -7.074645254760980606e-03 -7.116434723138809204e-02 1.674898900091648102e-02 1.110823545604944229e-02 -1.518285367637872696e-02 -6.639679521322250366e-02 1.295447647571563721e-01 -8.075176179409027100e-02 3.151273727416992188e-02 -9.805323183536529541e-02 -1.092512346804141998e-02 -2.207853645086288452e-02 5.581102450378239155e-04 -1.348245292901992798e-01 -8.268523216247558594e-02 2.124231494963169098e-02 -3.309755411464720964e-04 -6.413931399583816528e-02 4.776986688375473022e-02 1.824003159999847412e-01 -8.528436720371246338e-02 -1.389780491590499878e-01 -1.841987818479537964e-01 -5.243726447224617004e-02 1.834142059087753296e-01 1.505832672119140625e-01 6.288485229015350342e-02 -3.524530678987503052e-02 3.467961400747299194e-02 1.642953418195247650e-02 -3.094810247421264648e-01 7.916868478059768677e-02 -3.685173019766807556e-02 7.061386108398437500e-02 3.195711970329284668e-02 -6.249089539051055908e-02 -1.174506768584251404e-01 3.277499601244926453e-02 7.893633097410202026e-02 9.068958461284637451e-02 -1.952253580093383789e-01 -7.261398434638977051e-02 -8.239130489528179169e-03 -7.892024517059326172e-02 4.410401359200477600e-02 -1.307239234447479248e-01 2.418513409793376923e-02 7.181179523468017578e-02
-7.263141870498657227e-02 1.446236819028854370e-01 1.169604808092117310e-01 6.910700350999832153e-02 -7.433276623487472534e-02 -2.837864160537719727e-01 -9.268872439861297607e-02 1.552420407533645630e-01 4.724358022212982178e-02 9.082655608654022217e-02 -5.772474221885204315e-03 1.735837757587432861e-01 -1.006387919187545776e-01 9.632105380296707153e-02 -1.212030369788408279e-02 2.829215116798877716e-02 7.284305989742279053e-02 -1.225891262292861938e-01 8.632579445838928223e-02 1.126411259174346924e-01 -6.338438391685485840e-02 -2.554038763046264648e-01 3.048738278448581696e-02 -2.319013886153697968e-02 -2.018591761589050293e-02 6.207298859953880310e-02 -3.186870738863945007e-02 -1.210265234112739563e-01 5.108226463198661804e-02 -9.935190528631210327e-02 4.270044714212417603e-02 1.158014964312314987e-02 6.086895987391471863e-02 -1.078635007143020630e-01 4.920986667275428772e-02 -9.606318175792694092e-02 4.201744124293327332e-02 -2.560515329241752625e-02 4.926019464619457722e-04 -1.636971533298492432e-01 2.335738204419612885e-02 3.311318531632423401e-02 -3.688254579901695251e-02 1.336981775239109993e-03 -5.058009549975395203e-02 -2.246394054964184761e-03 3.048604354262351990e-02 -3.693099692463874817e-02 1.396897733211517334e-01 -2.902236208319664001e-02 -4.619484767317771912e-02 3.797828778624534607e-02 9.455515444278717041e-02 -1.028207223862409592e-02 4.780276492238044739e-02 -2.252277545630931854e-02 5.746406316757202148e-02 3.151653334498405457e-03
-8.238513767719268799e-02 6.837752461433410645e-02 -1.625679731369018555e-01 1.338285505771636963e-01 -2.090029120445251465e-01 1.008222624659538269e-01 6.197311356663703918e-02 -1.133269742131233215e-01 7.642354350537061691e-03 -4.102122038602828979e-02 -9.695050120353698730e-02 6.680153310298919678e-03 -1.656872779130935669e-01 7.840196788311004639e-02 -7.513330131769180298e-02 -1.018628850579261780e-01 1.608371287584304810e-01 3.067165426909923553e-02 4.360612109303474426e-02 -3.128867223858833313e-02 1.316463053226470947e-01 3.014583699405193329e-02 1.115720160305500031e-02 4.375718906521797180e-02 -5.903976410627365112e-02 -1.227120608091354370e-01 -4.123871400952339172e-02 -7.531815767288208008e-02 2.858009934425354004e-02 5.956595763564109802e-03 1.727433353662490845e-01 -4.687969759106636047e-02 8.524300158023834229e-02 3.610014915466308594e-02 9.370045363903045654e-02 2.508994638919830322e-01 9.457305818796157837e-02 4.567818716168403625e-02 -2.481133863329887390e-02 1.315338909626007080e-01 7.111188024282455444e-02 4.521844908595085144e-02 -2.976105175912380219e-02 1.170937269926071167e-01 1.731109619140625000e-01 -4.498749598860740662e-02 1.102234050631523132e-01 1.048060953617095947e-01 6.494502723217010498e-02 -8.422164618968963623e-02 7.751593738794326782e-02 -5.166717246174812317e-02 7.693053036928176880e-02 -3.990860655903816223e-02 -2.917538955807685852e-02 -9.274854511022567749e-02 -7.914602756500244141e-04 -8.530595153570175171e-02
-1.091368347406387329e-01 4.005569964647293091e-03 3.489844873547554016e-02 4.429560620337724686e-03 -1.026501581072807312e-01 -4.862288385629653931e-02 -4.800626263022422791e-02 1.866078749299049377e-02 -9.876964241266250610e-02 9.465377032756805420e-02 1.091651618480682373e-01 -1.517920847982168198e-02 -5.187910795211791992e-02 2.466679736971855164e-02 2.967717126011848450e-02 -8.256999403238296509e-02 1.131743937730789185e-01 3.580699488520622253e-02 -8.848899044096469879e-03 5.950638279318809509e-02 1.776006259024143219e-02 7.618501037359237671e-02 -7.813863456249237061e-02 -5.371652077883481979e-03 6.948005408048629761e-02 1.567531190812587738e-02 -4.478638991713523865e-02 6.928116828203201294e-02 -1.204320117831230164e-01 8.918701112270355225e-02 -1.303464174270629883e-02 -1.450850069522857666e-01 -2.131841480731964111e-01 3.086326457560062408e-02 7.640877738595008850e-03 -6.511257495731115341e-03 7.000083476305007935e-02 5.897540599107742310e-02 -3.291642991825938225e-03 3.115852130576968193e-03 7.652863860130310059e-02 -1.412353366613388062e-01 -8.050650358200073242e-02 1.204887479543685913e-01 -9.560331702232360840e-02 1.193934977054595947e-01 3.876409679651260376e-02 -1.485527753829956055e-01 8.673182874917984009e-02 -1.221651863306760788e-02 -1.689721345901489258e-01 2.028232216835021973e-01 -1.753638386726379395e-01 -3.353869542479515076e-02 -1.617707610130310059e-01 -2.505278773605823517e-02 3.710118308663368225e-02 3.697005659341812134e-02
1.512222550809383392e-02 -8.832421898841857910e-02 1.271369867026805878e-02 3.117635473608970642e-02 8.174496144056320190e-02 4.568039905279874802e-03 -4.486463963985443115e-02 9.935574978590011597e-02 -1.819157004356384277e-01 -9.067114442586898804e-02 -1.577934175729751587e-01 -1.134219095110893250e-01 2.528193220496177673e-02 1.015926599502563477e-01 1.022160947322845459e-01 1.302016228437423706e-01 4.668086767196655273e-02 8.244241774082183838e-02 -8.699382096529006958e-02 2.777568297460675240e-03 7.676380127668380737e-02 -1.296671181917190552e-01 -1.167199853807687759e-02 3.640752285718917847e-02 -7.756722718477249146e-02 -1.702169626951217651e-01 5.447722226381301880e-02 -4.148794338107109070e-02 -7.690442260354757309e-03 1.053056344389915466e-01 6.777459383010864258e-02 -1.093534976243972778e-01 1.268664002418518066e-01 1.483285706490278244e-02 -2.315289154648780823e-02 1.166858637589029968e-04 -7.895292341709136963e-02 -1.651734709739685059e-01 -7.630379498004913330e-02 5.932774767279624939e-02 4.041661694645881653e-02 -1.269457116723060608e-02 4.519553855061531067e-02 1.568250209093093872e-01 -8.226334303617477417e-02 -1.030823122709989548e-02 -1.125512551516294479e-02 9.345246106386184692e-02 -1.513829454779624939e-02 2.966599306091666222e-03 -2.175169810652732849e-02 -3.458140790462493896e-02 1.064734011888504028e-01 1.299890726804733276e-01 -1.569472700357437134e-01 8.080054819583892822e-02 -1.120740268379449844e-02 -1.184192001819610596e-01
-4.907895997166633606e-02 -5.572593305259943008e-03 1.101209074258804321e-01 1.010492723435163498e-02 9.147176146507263184e-02 -1.388884782791137695e-01 5.222050845623016357e-02 -1.026802808046340942e-01 7.204636931419372559e-02 4.674120247364044189e-02 2.200555950403213501e-01 1.248387619853019714e-01 -3.374921903014183044e-02 1.314952969551086426e-01 -2.838636748492717743e-02 -6.337301433086395264e-02 1.275234222412109375e-01 -3.512226976454257965e-03 -2.317018806934356689e-02 3.915568441152572632e-02 -1.115447562187910080e-02 3.387241438031196594e-02 4.611003398895263672e-02 3.885076195001602173e-02 -6.773619353771209717e-02 5.041342228651046753e-02 1.712132096290588379e-01 -1.530769318342208862e-01 6.316197663545608521e-02 -4.779585823416709900e-02 5.818146280944347382e-03 4.528594017028808594e-02 -4.962725564837455750e-02 4.697344452142715454e-02 1.723922602832317352e-02 8.892703056335449219e-02 -6.237096339464187622e-02 -1.715885102748870850e-01 -1.100182533264160156e-01 -8.770116418600082397e-02 3.438834846019744873e-02 -3.861463395878672600e-03 3.182440996170043945e-02 -3.364045114722102880e-04 -7.171436399221420288e-02 -9.914637543261051178e-03 -3.714820742607116699e-02 5.296162143349647522e-02 -2.984888106584548950e-02 1.064127534627914429e-01 -9.533927775919437408e-03 -1.629783958196640015e-01 4.239759966731071472e-02 2.542115561664104462e-02 8.255543559789657593e-02 3.469321504235267639e-02 -1.003268510103225708e-01 -7.287813723087310791e-02
1.490944027900695801e-01 -1.028594896197319031e-01 -7.138408720493316650e-02 -2.596276346594095230e-03 -7.439525425434112549e-02 -5.057170242071151733e-02 -1.287734359502792358e-01 -9.187107533216476440e-02 -6.059049442410469055e-02 -6.378768477588891983e-03 9.495543688535690308e-02 -2.804365381598472595e-02 -1.027116365730762482e-02 9.378986805677413940e-02 1.590579450130462646e-01 -1.160141751170158386e-01 -1.634084060788154602e-02 -3.611429408192634583e-02 -1.153495162725448608e-02 -5.991462245583534241e-02 -1.730780117213726044e-02 -5.705101788043975830e-02 -8.493956923484802246e-02 1.553186494857072830e-02 7.542838342487812042e-03 -2.319347560405731201e-01 6.395925581455230713e-02 -9.121438860893249512e-02 6.198106333613395691e-02 9.948863834142684937e-02 2.798360213637351990e-02 -3.828589571639895439e-03 -7.476059347391128540e-02 -1.085133329033851624e-01 5.028031021356582642e-02 -9.595931507647037506e-03 6.009411439299583435e-02 -9.667568653821945190e-02 1.050660386681556702e-02 7.782655209302902222e-02 6.443621218204498291e-02 1.370314974337816238e-02 -9.442016482353210449e-02 2.100217714905738831e-02 1.157412827014923096e-01 -3.390571475028991699e-02 -1.508033722639083862e-01 -7.167073339223861694e-02 5.032620579004287720e-02 -2.055832184851169586e-03 -5.874795094132423401e-02 -6.374505907297134399e-02 -3.927602246403694153e-02 1.876101791858673096e-01 3.294685482978820801e-02 2.850667573511600494e-02 -2.864785306155681610e-02 -1.240436546504497528e-02
7.059682160615921021e-02 -4.805953800678253174e-02 -1.804000437259674072e-01 -1.064646095037460327e-01 1.931685768067836761e-02 -2.563754841685295105e-02 8.452061563730239868e-02 -4.821252450346946716e-02 1.184959858655929565e-01 1.087954863905906677e-01 -1.340032070875167847e-01 2.919033356010913849e-02 -1.228365078568458557e-01 1.720122434198856354e-02 -2.727958559989929199e-02 1.669442653656005859e-02 -6.552197784185409546e-02 5.497381836175918579e-02 1.409269031137228012e-02 -1.403794139623641968e-01 7.520059496164321899e-02 -1.933710090816020966e-02 -1.129982024431228638e-01 2.045830637216567993e-01 4.181026294827461243e-02 -1.640345603227615356e-01 1.618858128786087036e-01 2.607580088078975677e-02 -8.519420027732849121e-02 2.486338466405868530e-01 4.011384770274162292e-02 -1.236648950725793839e-02 -9.099288284778594971e-02 8.899667114019393921e-02 -9.959346801042556763e-02 1.651682145893573761e-02 4.637899994850158691e-02 2.520209923386573792e-02 8.352579176425933838e-02 3.490535914897918701e-02 3.093299083411693573e-02 4.914680123329162598e-02 6.819749623537063599e-02 3.595339506864547729e-02 8.892663754522800446e-03 -1.450763270258903503e-02 -4.162221774458885193e-02 6.748644262552261353e-02 1.811532303690910339e-02 1.848937198519706726e-02 -4.865111038088798523e-02 1.925671249628067017e-01 5.990140140056610107e-02 5.626120045781135559e-02 1.326477527618408203e-01 -3.218980878591537476e-02 -5.381920188665390015e-02 7.814172655344009399e-02
-6.910888850688934326e-02 -8.849471062421798706e-02 1.648432388901710510e-02 -5.274439603090286255e-02 -6.279340386390686035e-02 9.134002029895782471e-02 -1.918505504727363586e-02 -3.916176408529281616e-02 -3.708863630890846252e-02 -2.302180230617523193e-02 -8.917041867971420288e-02 4.634134471416473389e-03 1.569618657231330872e-02 2.418230473995208740e-02 -7.186272740364074707e-02 1.189670860767364502e-01 -4.397957399487495422e-02 7.669821847230195999e-03 -3.903002291917800903e-02 -1.334781497716903687e-01 8.073221892118453979e-02 1.122944429516792297e-01 2.926095761358737946e-02 1.095507740974426270e-01 -5.078746750950813293e-02 7.873763889074325562e-02 4.749731719493865967e-02 1.267251223325729370e-01 -1.008140072226524353e-01 -8.745411038398742676e-02 -8.654822595417499542e-03 2.158994041383266449e-02 -1.429388076066970825e-01 2.625882253050804138e-02 -2.378060668706893921e-02 -8.908399939537048340e-02 -1.513009667396545410e-01 1.660110661759972572e-03 1.551212221384048462e-01 -7.814241200685501099e-02 7.737421244382858276e-02 -5.492708459496498108e-02 1.503084450960159302e-01 5.888999998569488525e-02 -1.898257061839103699e-02 -8.814070373773574829e-02 -1.352819353342056274e-01 -4.845087230205535889e-02 -4.373182356357574463e-02 -5.730834230780601501e-02 -6.128642335534095764e-02 1.210825741291046143e-01 2.117172069847583771e-02 1.538431942462921143e-01 5.859708786010742188e-02 6.233657896518707275e-02 3.366414085030555725e-02 -7.481965422630310059e-02
4.767951741814613342e-02 5.156950280070304871e-02 -1.383188180625438690e-02 -2.698411047458648682e-02 1.058186516165733337e-01 2.982128225266933441e-02 -1.405773800797760487e-03 -1.380447391420602798e-02 5.065197590738534927e-03 -9.925138950347900391e-02 1.400648802518844604e-01 1.243393402546644211e-02 1.022415384650230408e-01 9.510882198810577393e-02 -7.187626510858535767e-02 1.097803935408592224e-01 6.683730334043502808e-02 8.236816525459289551e-02 4.260763060301542282e-03 -2.345599979162216187e-01 9.314267337322235107e-02 5.576001014560461044e-03 -3.017377108335494995e-02 9.503428637981414795e-02 -4.391647502779960632e-02 -1.096394471824169159e-02 -7.390417158603668213e-03 9.992010891437530518e-02 3.452489376068115234e-01 4.118493944406509399e-02 1.162342280149459839e-01 -8.399627357721328735e-02 1.247601807117462158e-01 8.828891813755035400e-02 -2.161578647792339325e-02 -1.682138144969940186e-01 -1.878786087036132812e-02 7.482074946165084839e-02 -1.061024218797683716e-01 -8.521854132413864136e-02 6.916373968124389648e-02 -3.677627816796302795e-02 -4.694500472396612167e-03 -1.842212118208408356e-02 -7.765389978885650635e-02 1.364415287971496582e-01 -7.123237941414117813e-03 1.132437139749526978e-01 -2.049828507006168365e-02 8.414818346500396729e-02 -5.328803323209285736e-03 3.251759707927703857e-02 2.760086208581924438e-02 8.837593346834182739e-02 -3.856157138943672180e-02 -3.038204833865165710e-02 9.774409234523773193e-03 4.329190775752067566e-02
-9.751216322183609009e-02 1.880486088339239359e-04 -1.576676405966281891e-02 4.676299169659614563e-02 2.337783128023147583e-01 1.891301386058330536e-02 9.512156993150711060e-02 -5.474727600812911987e-02 1.193195804953575134e-01 3.435471653938293457e-02 -4.667860642075538635e-02 -1.391636282205581665e-01 -5.833654664456844330e-03 -8.987656235694885254e-02 -8.628120273351669312e-02 -5.220272019505500793e-02 -1.602229848504066467e-02 2.968666143715381622e-03 5.866308510303497314e-02 9.242118149995803833e-02 8.254007995128631592e-02 -1.091086491942405701e-01 -4.534446448087692261e-02 2.290130406618118286e-01 8.461293578147888184e-02 -1.636030822992324829e-01 -1.005351766943931580e-01 -3.567059710621833801e-02 -6.526978313922882080e-02 -9.170297533273696899e-02 8.461819030344486237e-03 -9.500227123498916626e-02 -1.204604730010032654e-01 -1.646326668560504913e-02 1.974520385265350342e-01 -6.105113774538040161e-02 -6.779789179563522339e-02 -4.419530183076858521e-02 -7.386383414268493652e-02 -5.224285274744033813e-02 -6.306056678295135498e-02 1.191564183682203293e-02 1.149756014347076416e-01 -1.805428229272365570e-02 3.829225152730941772e-02 2.336899004876613617e-02 5.990710854530334473e-02 -4.299823194742202759e-02 4.590797796845436096e-02 -1.101928874850273132e-01 3.605962172150611877e-02 -2.753097563982009888e-02 6.068234890699386597e-02 1.194121614098548889e-01 -5.976605415344238281e-02 3.537878161296248436e-03 -8.381397277116775513e-02 1.139121800661087036e-01
2.206249348819255829e-02 1.707122921943664551e-01 -1.635422930121421814e-02 -5.962665751576423645e-02 -2.874417603015899658e-02 7.223308086395263672e-02 -4.917176067829132080e-02 -1.641233265399932861e-02 4.984278231859207153e-02 -3.196980804204940796e-02 -9.802234172821044922e-02 -6.201977655291557312e-02 -1.026384308934211731e-01 -1.067968830466270447e-01 3.979078680276870728e-02 -5.329935997724533081e-02 5.475593265146017075e-03 3.739390522241592407e-02 -2.761396206915378571e-02 4.505511745810508728e-02 -9.386789798736572266e-02 -1.878375746309757233e-02 1.171773597598075867e-01 6.739613413810729980e-02 1.198227629065513611e-01 -2.381279831752181053e-03 -9.098073095083236694e-02 1.966963522136211395e-02 -7.687810808420181274e-02 3.327175602316856384e-02 -3.387684375047683716e-02 1.353218406438827515e-01 -9.672927111387252808e-02 5.877500865608453751e-03 1.577001065015792847e-02 -1.163476184010505676e-01 -7.955322414636611938e-02 -1.684794574975967407e-02 -1.270582824945449829e-01 7.578000426292419434e-02 6.849851459264755249e-02 5.273713916540145874e-02 2.996564097702503204e-02 -8.667727559804916382e-02 1.926994025707244873e-01 3.606371954083442688e-02 1.589060947299003601e-02 -6.298205256462097168e-02 -7.659028749912977219e-03 1.214987598359584808e-02 -4.096015170216560364e-02 -9.045353531837463379e-02 -6.167635694146156311e-02 2.119649015367031097e-02 1.803997457027435303e-01 -5.063246469944715500e-03 -1.085654348134994507e-01 -1.002254262566566467e-01
1.086991280317306519e-01 3.500702604651451111e-02 -1.718475669622421265e-01 -7.896828651428222656e-02 -1.363569796085357666e-01 2.330848481506109238e-03 -9.116581082344055176e-02 1.116361171007156372e-01 -1.267966181039810181e-01 -1.949139386415481567e-01 -1.065148562192916870e-01 4.665832594037055969e-02 5.663881078362464905e-02 -1.517809927463531494e-02 1.332859694957733154e-01 -5.972613394260406494e-02 1.419259905815124512e-01 4.232819378376007080e-02 2.585116773843765259e-03 -6.327246129512786865e-02 5.239973217248916626e-02 3.059061057865619659e-02 5.971615388989448547e-02 1.060530617833137512e-01 1.291475594043731689e-01 1.143603026866912842e-01 7.210864871740341187e-02 -8.697324991226196289e-02 -5.500107072293758392e-04 -8.573131635785102844e-03 -1.431405544281005859e-01 -2.062385901808738708e-02 8.972671930678188801e-04 -7.101322710514068604e-02 6.289631873369216919e-02 1.151443794369697571e-01 -9.415706247091293335e-02 -5.108363181352615356e-02 -1.580656506121158600e-02 -5.839025601744651794e-02 -1.554463654756546021e-01 -5.277565121650695801e-02 3.909059241414070129e-02 -9.445343166589736938e-02 -2.416741661727428436e-02 6.986627727746963501e-02 -6.574888527393341064e-02 1.418904960155487061e-01 8.423776924610137939e-02 2.863001450896263123e-02 -1.906923390924930573e-02 -4.707530513405799866e-02 -8.220896124839782715e-02 -1.090248525142669678e-01 -2.921255677938461304e-02 4.758730903267860413e-02 1.531981527805328369e-01 8.448427170515060425e-02
1.401250958442687988e-01 2.435262687504291534e-02 2.664108574390411377e-02 6.077484693378210068e-03 -1.479529142379760742e-01 4.869370721280574799e-03 1.933229388669133186e-03 -6.446027010679244995e-02 -5.803320929408073425e-02 -9.546219371259212494e-03 9.348368644714355469e-02 -1.237550228834152222e-01 -2.697302997112274170e-01 7.244458794593811035e-02 1.566146761178970337e-01 1.150998100638389587e-01 -4.748947918415069580e-02 7.188615202903747559e-02 6.608426570892333984e-02 1.133998781442642212e-01 7.206190377473831177e-02 1.139242574572563171e-01 -4.241036251187324524e-02 -1.171740293502807617e-01 7.555027306079864502e-02 -6.352259218692779541e-02 -1.057064067572355270e-02 -2.098009549081325531e-02 -1.014410480856895447e-01 6.560464948415756226e-02 -8.026114664971828461e-03 -9.118095971643924713e-03 -7.448820024728775024e-02 1.540246903896331787e-01 -1.411496549844741821e-01 3.986461460590362549e-02 5.610292777419090271e-02 1.178367882966995239e-01 -3.461185842752456665e-02 -7.698886841535568237e-02 -8.710876107215881348e-03 2.840371988713741302e-02 -1.210928112268447876e-01 2.464851289987564087e-01 7.157846540212631226e-02 -8.143882732838392258e-04 -7.925295829772949219e-02 3.880589827895164490e-02 3.699206188321113586e-02 3.673327714204788208e-02 2.230847924947738647e-01 -6.691491603851318359e-02 8.920976519584655762e-02 -6.709983106702566147e-03 7.488134503364562988e-02 4.562941938638687134e-02 3.719950839877128601e-02 4.790409281849861145e-02
-4.259120672941207886e-02 -5.694662034511566162e-02 1.022434011101722717e-01 4.956351220607757568e-02 7.458760589361190796e-02 2.023373544216156006e-01 -4.291755706071853638e-02 -2.619392275810241699e-01 7.044243067502975464e-02 1.343576461076736450e-01 5.052132532000541687e-02 2.071174979209899902e-02 -2.832927927374839783e-02 -5.309366807341575623e-02 -5.263273045420646667e-02 -4.953976254910230637e-03 2.091546077281236649e-03 2.075126618146896362e-01 3.200915083289146423e-02 1.120977029204368591e-01 -1.126703992486000061e-02 1.056229919195175171e-01 -2.749686315655708313e-02 6.319522508420050144e-04 7.706887274980545044e-02 1.305325627326965332e-01 -2.873539179563522339e-02 6.346632540225982666e-02 -5.298566818237304688e-02 2.129456698894500732e-01 -4.914617910981178284e-02 -4.322301596403121948e-02 5.707810819149017334e-02 -2.317857444286346436e-01 -7.510080933570861816e-02 -9.732092171907424927e-02 -2.563566900789737701e-02 -1.134767085313796997e-01 -4.022238776087760925e-03 -9.029877185821533203e-02 -1.924558132886886597e-01 8.968915790319442749e-02 1.374460384249687195e-02 9.744075685739517212e-02 -9.036114066839218140e-02 7.218889147043228149e-02 3.294995054602622986e-02 1.878300458192825317e-01 9.516726434230804443e-02 3.241900727152824402e-02 -1.047265082597732544e-01 -4.581454209983348846e-03 9.876728802919387817e-02 -5.594945326447486877e-02 1.800643093883991241e-02 -1.257665753364562988e-01 9.154511243104934692e-02 -1.393853425979614258e-01
-1.014372892677783966e-02 -2.964913100004196167e-02 -1.191025152802467346e-01 1.187854856252670288e-01 5.735659971833229065e-02 1.515453606843948364e-01 -4.276206344366073608e-02 1.828005351126194000e-02 -4.251253325492143631e-03 1.542135048657655716e-02 -2.881978079676628113e-02 3.248228132724761963e-02 -3.027108125388622284e-02 -4.117501899600028992e-02 -2.665892243385314941e-02 1.071278378367424011e-01 1.769769489765167236e-01 1.570703983306884766e-01 -9.515745937824249268e-02 -6.387983262538909912e-02 -2.245353311300277710e-01 7.607520371675491333e-02 6.571030616760253906e-02 6.911549717187881470e-03 -2.876169979572296143e-03 -2.917931042611598969e-02 3.924482315778732300e-02 -1.298264563083648682e-01 2.123980820178985596e-01 5.548531189560890198e-02 3.712841868400573730e-02 9.380497783422470093e-02 1.335663348436355591e-01 -6.971851736307144165e-02 9.901356883347034454e-03 -2.738889306783676147e-03 4.027124668937176466e-04 2.090285159647464752e-02 -2.319995909929275513e-01 -1.926792711019515991e-01 1.933664456009864807e-02 3.582470864057540894e-02 7.660119328647851944e-03 8.242565393447875977e-02 2.806424163281917572e-02 -1.919152773916721344e-02 5.195138603448867798e-02 -1.128534674644470215e-01 1.094146445393562317e-01 1.215431466698646545e-02 7.588371634483337402e-02 8.659632503986358643e-02 9.985860437154769897e-02 -1.098690629005432129e-01 -7.363041490316390991e-02 1.504619568586349487e-01 -1.617604196071624756e-01 -5.236566439270973206e-02
7.923224009573459625e-03 -1.138350144028663635e-01 -6.862202286720275879e-02 1.438425481319427490e-01 5.946331098675727844e-02 -7.901488989591598511e-02 1.240175124257802963e-02 -2.805356867611408234e-02 -1.050659567117691040e-01 -1.256826668977737427e-01 -7.045586407184600830e-02 2.652690000832080841e-02 -1.449912786483764648e-01 -3.490081056952476501e-02 -2.929158275946974754e-03 4.609192162752151489e-02 -3.976845368742942810e-02 -6.794962286949157715e-02 9.318656474351882935e-02 -9.515822678804397583e-02 -5.308234691619873047e-02 -1.055303215980529785e-01 -4.618714749813079834e-02 8.783944882452487946e-03 -1.082614362239837646e-01 -1.756656542420387268e-02 -6.662920117378234863e-02 5.743233114480972290e-02 7.579168677330017090e-02 7.546526193618774414e-02 9.117256850004196167e-03 1.541479229927062988e-01 2.471791952848434448e-01 6.171376630663871765e-02 -3.366524353623390198e-02 -7.903239689767360687e-03 -4.323348775506019592e-02 -7.094770669937133789e-02 1.044240780174732208e-03 5.536510422825813293e-02 7.550289481878280640e-02 -1.410932540893554688e-01 -2.589764446020126343e-02 3.756299987435340881e-02 1.985656917095184326e-01 -1.054297201335430145e-03 -1.419728547334671021e-01 -9.078747779130935669e-02 3.855197131633758545e-02 -1.967430114746093750e-02 -1.025173580273985863e-03 -7.213051617145538330e-02 1.314634531736373901e-01 -1.229506954550743103e-01 -4.031322523951530457e-02 -3.140715509653091431e-02 7.512601464986801147e-02 -7.247496396303176880e-02
-4.981677606701850891e-02 1.517883241176605225e-01 8.733985573053359985e-02 9.707579761743545532e-02 -1.572901755571365356e-01 -9.095739573240280151e-02 -2.088893651962280273e-01 -1.058618202805519104e-01 1.089600995182991028e-01 -1.611436344683170319e-02 -8.559424430131912231e-03 5.633495748043060303e-02 9.418850392103195190e-02 1.767296940088272095e-01 -3.127194195985794067e-02 1.152507886290550232e-01 -8.461378514766693115e-02 9.126722067594528198e-02 -8.546529710292816162e-02 1.241022571921348572e-01 -2.933712303638458252e-02 -1.767703145742416382e-02 6.906324625015258789e-02 2.414938211441040039e-01 -9.653887152671813965e-02 -8.192640542984008789e-02 -1.229977980256080627e-01 -1.511070430278778076e-01 7.068970054388046265e-02 5.310847610235214233e-02 -4.667661339044570923e-02 -8.414188772439956665e-02 -4.391822963953018188e-02 -3.558735176920890808e-02 -1.615155115723609924e-02 -4.305816441774368286e-02 9.760996699333190918e-02 -1.798030734062194824e-02 4.179835692048072815e-02 -7.909048348665237427e-03 -7.545018196105957031e-02 -6.700087338685989380e-02 -1.342674642801284790e-01 6.935369223356246948e-02 7.627135515213012695e-02 -5.900923162698745728e-02 -1.172959581017494202e-01 7.331287954002618790e-03 3.843981772661209106e-02 8.031850680708885193e-03 -1.438171267509460449e-01 8.978639543056488037e-02 2.558019757270812988e-01 -5.823883414268493652e-02 9.254848957061767578e-02 3.982426226139068604e-02 8.726008981466293335e-02 4.125040769577026367e-02
3.463995829224586487e-02 -1.459312289953231812e-01 1.411634832620620728e-01 -6.504946202039718628e-02 -2.451432228554040194e-04 -5.585497245192527771e-02 -8.894463628530502319e-02 -9.140390157699584961e-02 -1.336710453033447266e-01 1.691194437444210052e-02 -3.779232129454612732e-02 -1.839361786842346191e-01 1.110190302133560181e-01 -7.848823815584182739e-02 -9.338899701833724976e-02 -1.196963340044021606e-01 9.811688214540481567e-02 4.313408955931663513e-02 7.824488729238510132e-02 -3.026771731674671173e-02 -3.879701253026723862e-03 5.384637415409088135e-02 3.706530109047889709e-02 -6.821248680353164673e-04 5.090300366282463074e-02 8.192221820354461670e-02 2.015951275825500488e-01 -1.455070730298757553e-02 -6.265222281217575073e-02 1.127078384160995483e-01 -6.669488549232482910e-02 1.987962797284126282e-02 7.264883816242218018e-02 6.717486772686243057e-03 -4.678397253155708313e-02 -3.846050053834915161e-02 -3.160288906656205654e-04 -2.698409929871559143e-02 -1.015491411089897156e-01 1.769387908279895782e-02 -1.372548285871744156e-02 2.663911506533622742e-02 -9.069966524839401245e-02 1.367578208446502686e-01 -1.072755679488182068e-01 1.278277486562728882e-01 -8.801728487014770508e-02 -7.764814794063568115e-02 -5.061244219541549683e-02 -9.935874491930007935e-02 -9.404369629919528961e-03 1.065403744578361511e-01 -3.742792084813117981e-02 -9.385719150304794312e-02 -5.298183113336563110e-02 -4.626038018614053726e-03 5.815598368644714355e-02 -5.042677279561758041e-03
7.301115989685058594e-02 -8.812896162271499634e-02 1.329874098300933838e-01 2.940535731613636017e-02 -4.416692256927490234e-02 6.336236745119094849e-02 5.930818989872932434e-02 1.509275659918785095e-02 6.104912981390953064e-02 6.876153498888015747e-02 8.708752691745758057e-02 -1.068658195436000824e-02 3.501797094941139221e-02 -4.246445372700691223e-02 -1.744719594717025757e-01 3.359191119670867920e-03 -4.270107671618461609e-02 -1.674761623144149780e-01 4.493892937898635864e-02 1.309899687767028809e-01 -1.576669663190841675e-01 -3.795830532908439636e-02 -1.048569940030574799e-02 1.314678043127059937e-02 1.026198454201221466e-02 -6.979297101497650146e-02 2.111113667488098145e-01 -3.667633980512619019e-02 6.721764802932739258e-02 2.209309488534927368e-02 3.358213230967521667e-02 3.077796893194317818e-03 -5.056387186050415039e-02 -1.772101372480392456e-01 -9.179536253213882446e-03 -6.521567702293395996e-02 1.574242711067199707e-01 1.041466072201728821e-01 -1.846932992339134216e-02 8.425042778253555298e-02 9.280506521463394165e-02 -5.235487222671508789e-02 5.076697096228599548e-02 3.609461709856987000e-02 -1.214260794222354889e-02 4.907651618123054504e-02 4.829576238989830017e-03 7.131616026163101196e-02 1.363421510905027390e-02 -8.654866367578506470e-03 1.997187361121177673e-02 7.977359741926193237e-02 -8.500160276889801025e-02 1.924292594194412231e-01 -2.764944732189178467e-01 -4.341186955571174622e-02 -4.697959811892360449e-04 -1.928518265485763550e-01
1.202417612075805664e-01 -5.220481753349304199e-02 1.320857852697372437e-01 6.203037127852439880e-02 -1.688672602176666260e-02 -1.434751898050308228e-01 -2.951268851757049561e-02 -1.772374473512172699e-02 1.515392959117889404e-01 -1.709521412849426270e-01 -3.777920734137296677e-03 1.360498964786529541e-01 1.323301792144775391e-01 -1.110916212201118469e-02 4.030612483620643616e-02 9.119642525911331177e-02 1.589792664162814617e-03 -7.342786341905593872e-02 2.658174000680446625e-02 1.570645570755004883e-01 -1.425378918647766113e-01 -3.411759808659553528e-02 -6.542380899190902710e-02 -6.974185258150100708e-02 7.019890099763870239e-02 7.722694426774978638e-02 -2.045143395662307739e-01 7.747864723205566406e-02 -8.487783372402191162e-02 3.098906762897968292e-02 4.103543981909751892e-02 4.340707883238792419e-02 1.814380288124084473e-01 -3.396960347890853882e-02 -1.502697914838790894e-01 4.395635053515434265e-02 5.101898312568664551e-02 -1.147245019674301147e-01 -5.738912150263786316e-02 -1.266617476940155029e-01 -6.635759770870208740e-02 4.774494096636772156e-02 -7.339072227478027344e-02 -2.500106021761894226e-02 3.297491371631622314e-02 5.704548582434654236e-02 9.339720010757446289e-02 -7.003406994044780731e-03 1.657841056585311890e-01 2.072564512491226196e-02 8.001495897769927979e-02 4.335198551416397095e-02 -4.287702590227127075e-02 2.056121081113815308e-01 2.526156045496463776e-02 1.310739386826753616e-02 -2.853475883603096008e-02 1.690420657396316528e-01
6.265969574451446533e-02 9.527623653411865234e-02 5.406451970338821411e-02 -6.139544025063514709e-02 1.096757128834724426e-01 1.320823375135660172e-02 -4.407733678817749023e-02 -2.396075427532196045e-02 5.677698925137519836e-02 -1.688600331544876099e-01 2.848050557076931000e-02 -2.067087031900882721e-02 -1.921607553958892822e-01 -9.487404674291610718e-02 7.221551984548568726e-02 3.742224723100662231e-02 -7.996829599142074585e-02 1.255709584802389145e-02 -9.878241270780563354e-02 -4.117710515856742859e-02 2.209155075252056122e-02 -7.068742811679840088e-02 -2.843761630356311798e-02 7.754819002002477646e-03 -2.531777918338775635e-01 -8.134403079748153687e-02 -3.659149259328842163e-02 -6.009862571954727173e-02 -5.975944921374320984e-02 -6.989121437072753906e-02 1.216236799955368042e-01 -7.732158154249191284e-02 -1.898493617773056030e-01 2.204581797122955322e-01 -3.695680201053619385e-02 -7.684342563152313232e-02 -3.102138638496398926e-02 5.355928838253021240e-02 -1.053766459226608276e-01 3.384993225336074829e-02 -4.793405160307884216e-02 -5.897006392478942871e-02 2.909997419919818640e-04 -1.260249167680740356e-01 8.922138810157775879e-02 -4.604220017790794373e-02 1.025235429406166077e-01 -1.938377171754837036e-01 1.476782709360122681e-01 1.295531541109085083e-01 6.063948571681976318e-02 -6.185059994459152222e-02 -8.111279457807540894e-02 8.368240296840667725e-02 1.670401245355606079e-01 -3.268015384674072266e-02 -1.597032416611909866e-03 -5.798760801553726196e-03
9.431451559066772461e-03 2.108076661825180054e-01 -2.946079149842262268e-02 -3.308934718370437622e-02 -2.318853698670864105e-02 -4.121082276105880737e-02 -3.225629031658172607e-02 -6.269488483667373657e-02 8.892362006008625031e-03 2.213776856660842896e-02 7.921981811523437500e-02 -1.271288469433784485e-02 -6.089200451970100403e-02 -3.322748234495520592e-04 -4.062794148921966553e-03 1.225820407271385193e-01 1.036972999572753906e-01 -8.927775919437408447e-02 -9.381391853094100952e-02 4.841841757297515869e-03 4.201298579573631287e-02 1.872701011598110199e-02 1.327384859323501587e-01 -1.602999567985534668e-01 -2.337433025240898132e-02 1.262692548334598541e-02 1.795497834682464600e-01 7.660158723592758179e-02 -1.913841962814331055e-01 -1.116966530680656433e-01 -3.569580987095832825e-02 1.355072259902954102e-01 -1.457492168992757797e-02 9.973262995481491089e-02 3.268779069185256958e-02 -1.766519397497177124e-01 1.063948571681976318e-01 -6.014220789074897766e-02 9.085272252559661865e-02 5.830654874444007874e-03 -4.731582850217819214e-02 2.284812554717063904e-02 -1.356057822704315186e-01 -1.290420591831207275e-01 6.040788814425468445e-02 1.475522071123123169e-01 -4.459907114505767822e-02 -7.615067064762115479e-02 -1.070487797260284424e-01 1.160203889012336731e-01 1.560932844877243042e-01 2.040285170078277588e-01 1.888591051101684570e-01 -9.621533751487731934e-02 -2.937215194106101990e-02 5.578071624040603638e-02 1.065301802009344101e-02 7.739116996526718140e-02
-5.061484500765800476e-02 -1.470390856266021729e-01 7.251816987991333008e-02 4.002368077635765076e-02 -1.057546064257621765e-01 1.155884042382240295e-01 -1.659016758203506470e-01 -2.153389528393745422e-02 3.977388143539428711e-02 -9.569344669580459595e-02 4.857596009969711304e-02 2.025664448738098145e-01 -1.638882458209991455e-01 -1.262306272983551025e-01 -1.385591365396976471e-02 7.901871204376220703e-02 -3.027716875076293945e-01 -3.403825685381889343e-02 1.173374149948358536e-02 -9.663990139961242676e-02 7.555118296295404434e-03 -4.546447657048702240e-03 -6.556116789579391479e-02 -2.419634908437728882e-02 -9.617437422275543213e-02 8.690176159143447876e-02 1.070556789636611938e-01 2.752228081226348877e-02 2.147294878959655762e-01 -1.736602932214736938e-01 1.881299912929534912e-02 -2.435336820781230927e-02 -3.009865060448646545e-02 -1.544830738566815853e-03 -1.002841964364051819e-01 -5.493833869695663452e-02 1.265713572502136230e-01 1.557013252750039101e-03 1.089449524879455566e-01 -5.043928697705268860e-02 1.381238996982574463e-01 7.642709463834762573e-02 -9.007517993450164795e-02 7.575499266386032104e-02 2.814403967931866646e-03 1.700095981359481812e-01 2.330512180924415588e-02 -7.625128328800201416e-02 -1.615322679281234741e-01 -7.310962770134210587e-03 2.191914245486259460e-02 -1.233765408396720886e-01 -2.603125385940074921e-02 -2.121115475893020630e-02 -7.271572947502136230e-02 1.317248642444610596e-01 6.807610392570495605e-02 -1.001719981431961060e-01
-6.458279490470886230e-02 -2.109658867120742798e-01 -2.000605873763561249e-02 -4.391947761178016663e-02 4.209455568343400955e-03 1.213959977030754089e-02 -2.670972980558872223e-02 8.466380089521408081e-02 -7.964166253805160522e-02 -2.625206485390663147e-03 -1.483705192804336548e-01 2.076912671327590942e-02 3.608553111553192139e-02 1.611200720071792603e-01 4.673818498849868774e-02 4.336176812648773193e-02 -1.106073632836341858e-01 -1.002372428774833679e-01 -1.259517669677734375e-01 3.769070655107498169e-02 5.235270783305168152e-02 -1.078165695071220398e-01 -3.364655002951622009e-02 3.920789062976837158e-02 1.792865246534347534e-02 -1.451448947191238403e-01 -1.936599239706993103e-02 3.343676775693893433e-02 -1.893592812120914459e-02 -1.886264681816101074e-01 6.047106534242630005e-02 -8.258883841335773468e-03 6.033273879438638687e-03 6.956954300403594971e-02 1.916081011295318604e-01 -3.958051279187202454e-02 7.830885052680969238e-02 6.322371214628219604e-02 3.094397857785224915e-02 -2.201690711081027985e-02 -2.988556325435638428e-01 -5.617325007915496826e-02 4.597265738993883133e-03 -9.132201224565505981e-02 8.185561746358871460e-02 -4.688563570380210876e-02 1.276331245899200439e-01 -8.561769127845764160e-02 -1.475713551044464111e-01 1.105171963572502136e-01 5.950446799397468567e-02 2.941835857927799225e-02 1.145711764693260193e-01 1.507151499390602112e-02 1.854431815445423126e-02 -7.407900691032409668e-02 5.980761721730232239e-02 -1.457315031439065933e-02
3.578073903918266296e-02 8.195412158966064453e-02 1.836865842342376709e-01 -8.580002188682556152e-02 -2.727817371487617493e-02 1.657980084419250488e-01 -7.360696047544479370e-02 3.078177757561206818e-02 -2.173000276088714600e-01 1.148369237780570984e-01 1.461239531636238098e-02 -2.147033996880054474e-02 8.694299310445785522e-02 3.215244039893150330e-02 1.253949943929910660e-02 1.883325278759002686e-01 -6.396150216460227966e-03 -3.404301032423973083e-02 -6.936637312173843384e-02 -6.828111130744218826e-03 1.098686680197715759e-01 -7.944852858781814575e-02 9.935682266950607300e-02 1.091399118304252625e-01 -1.005787178874015808e-01 -7.734888792037963867e-02 -3.846048843115568161e-03 4.533453658223152161e-02 -1.511216610670089722e-01 -1.721934787929058075e-02 1.208911463618278503e-02 2.705806791782379150e-01 -9.077550470829010010e-02 -4.725580662488937378e-02 1.851941272616386414e-02 -7.351420074701309204e-02 1.378252208232879639e-01 -1.595754772424697876e-01 7.112429291009902954e-02 9.595737606287002563e-02 1.144136637449264526e-01 1.634235531091690063e-01 2.968245185911655426e-02 -7.094460725784301758e-02 -3.902176022529602051e-02 6.445641070604324341e-02 -2.282085418701171875e-01 -4.343945533037185669e-02 1.533853113651275635e-01 -1.468256562948226929e-01 -5.217294674366712570e-04 -9.051102399826049805e-02 -2.213836461305618286e-01 3.133267862722277641e-03 -1.363342255353927612e-01 -9.836900979280471802e-03 1.535477340221405029e-01 1.510489638894796371e-02
1.248711124062538147e-01 1.518344283103942871e-01 -4.091499373316764832e-02 -4.192497581243515015e-02 2.100578695535659790e-02 8.409574627876281738e-02 3.824214637279510498e-02 1.778617873787879944e-02 -6.395822763442993164e-02 3.425930067896842957e-02 -5.883190780878067017e-02 8.873283863067626953e-02 6.727828830480575562e-02 1.516875904053449631e-02 7.350242137908935547e-02 1.086627319455146790e-01 -3.361936658620834351e-02 -5.536134541034698486e-02 9.711889177560806274e-02 4.515381529927253723e-02 2.994248084723949432e-02 -6.868681311607360840e-02 -1.196043118834495544e-01 -1.124771311879158020e-01 1.221917048096656799e-01 3.504592925310134888e-02 -1.866323798894882202e-01 -1.588199436664581299e-01 2.421985566616058350e-02 -6.385665386915206909e-02 -2.466182596981525421e-02 -7.521029561758041382e-02 -7.466495782136917114e-02 -1.212305482476949692e-02 -4.405434429645538330e-02 -3.110646270215511322e-02 1.905423589050769806e-02 -6.225290894508361816e-02 5.835124105215072632e-02 1.628796160221099854e-01 -2.501888386905193329e-02 -6.369884312152862549e-02 -7.085372228175401688e-03 -1.375581137835979462e-03 -1.412795856595039368e-02 -8.113465271890163422e-03 6.154885981231927872e-03 2.643348090350627899e-02 2.137289196252822876e-02 1.510006934404373169e-01 -6.488542258739471436e-02 2.786117233335971832e-02 -6.156591325998306274e-02 -8.463536389172077179e-03 -1.904735565185546875e-01 -1.065952628850936890e-01 3.632635250687599182e-02 -7.475158572196960449e-02
-3.852052241563796997e-02 9.145610034465789795e-02 -5.067769438028335571e-02 -1.667778044939041138e-01 -3.507677838206291199e-02 -1.374029517173767090e-01 -2.945475280284881592e-02 8.745072782039642334e-02 2.430742420256137848e-02 1.340295970439910889e-01 -5.841015651822090149e-02 4.947566613554954529e-02 6.471102684736251831e-02 4.295843094587326050e-02 7.345074415206909180e-02 5.176700279116630554e-02 -2.983275428414344788e-02 3.230426460504531860e-02 1.581816934049129486e-02 -3.708239644765853882e-02 -1.544118225574493408e-01 1.417177468538284302e-01 -1.004191394895315170e-02 -1.891283318400382996e-02 -3.907820954918861389e-02 -6.079720333218574524e-02 9.187726676464080811e-02 -4.071441292762756348e-02 4.121700674295425415e-02 1.241518631577491760e-01 -7.987473905086517334e-02 -6.213492900133132935e-02 4.183207452297210693e-02 -8.871842175722122192e-02 3.848402947187423706e-02 -2.364828623831272125e-02 7.448945194482803345e-02 2.776489034295082092e-02 -9.261111170053482056e-02 7.158028334379196167e-02 -5.628834664821624756e-02 6.287803407758474350e-03 1.060169264674186707e-01 -4.228216782212257385e-02 1.112670004367828369e-01 -1.245283484458923340e-01 9.821885079145431519e-02 -1.366947442293167114e-01 -4.653550311923027039e-02 -1.480504274368286133e-01 -9.410601854324340820e-02 7.603926211595535278e-02 7.722777128219604492e-02 -1.776828616857528687e-02 3.201495483517646790e-02 1.139264274388551712e-02 -1.894059218466281891e-02 -1.081192642450332642e-01
2.922828122973442078e-02 -5.347297713160514832e-02 -1.509926021099090576e-01 -1.465933024883270264e-01 1.201185509562492371e-01 2.316357009112834930e-02 -7.370480149984359741e-02 -1.802570819854736328e-01 -1.096584945917129517e-01 -1.067027729004621506e-02 -1.611159890890121460e-01 -3.183350712060928345e-02 -1.678508706390857697e-02 5.880071595311164856e-02 5.306027457118034363e-02 -4.552436247467994690e-02 8.454108983278274536e-02 -1.892045140266418457e-01 -3.830525279045104980e-02 7.163155078887939453e-02 -5.025855451822280884e-02 1.719484329223632812e-01 1.147868460975587368e-03 2.350461669266223907e-02 5.196249112486839294e-02 2.069663703441619873e-01 -6.941661983728408813e-02 6.212851777672767639e-02 -2.614786662161350250e-02 -5.371419340372085571e-02 -8.243729174137115479e-02 -1.968895345926284790e-01 -4.038013517856597900e-02 9.800101071596145630e-02 8.555017411708831787e-02 -3.766683489084243774e-02 9.331351518630981445e-02 1.798647269606590271e-02 -9.481938928365707397e-02 8.610320091247558594e-02 6.900849938392639160e-02 6.773878633975982666e-02 -2.014516107738018036e-02 -8.294958621263504028e-02 6.122273951768875122e-02 1.025839149951934814e-01 -7.583442330360412598e-02 -3.599533345550298691e-03 6.781608611345291138e-02 -5.332984402775764465e-02 1.004761829972267151e-01 2.729111611843109131e-01 -1.023238617926836014e-02 -1.772129721939563751e-02 -2.425877936184406281e-02 -3.559412062168121338e-02 -6.582344882190227509e-03 -5.715619400143623352e-02
-4.051659256219863892e-02 -2.826601453125476837e-02 -1.249569281935691833e-01 4.053238779306411743e-02 -9.255489706993103027e-02 7.261910289525985718e-02 7.519088685512542725e-02 -1.791112124919891357e-02 -7.742586731910705566e-02 8.645914494991302490e-02 -1.235929876565933228e-01 1.231291443109512329e-01 6.101670488715171814e-02 -5.058490484952926636e-02 -1.599986292421817780e-02 -1.191023830324411392e-02 4.127974808216094971e-02 -6.690785288810729980e-02 -1.290654093027114868e-01 5.866518989205360413e-02 4.600352048873901367e-02 -9.201869368553161621e-02 3.754296526312828064e-02 7.234413176774978638e-02 -7.219576090574264526e-02 7.084847986698150635e-02 5.632741376757621765e-02 9.215392917394638062e-02 -7.154890149831771851e-02 2.301125675439834595e-01 1.114640384912490845e-01 1.573430895805358887e-01 -2.305668741464614868e-01 6.856612116098403931e-02 -2.387855201959609985e-01 3.419118747115135193e-02 8.952983468770980835e-02 -9.738887846469879150e-02 -1.568325757980346680e-01 4.167068749666213989e-03 1.220331341028213501e-01 5.514213815331459045e-02 1.392280459403991699e-01 -5.027345940470695496e-02 1.778546869754791260e-01 1.046218350529670715e-02 -2.850485220551490784e-02 8.511867374181747437e-02 -1.070035174489021301e-01 9.850117564201354980e-02 6.311537325382232666e-02 4.994120448827743530e-02 4.337619245052337646e-02 -9.042702615261077881e-02 2.308677323162555695e-02 -1.917474530637264252e-02 -4.470364749431610107e-02 9.156861156225204468e-02
-3.073862567543983459e-02 -6.202497705817222595e-02 3.315240144729614258e-02 2.115579880774021149e-02 3.279647976160049438e-02 -2.762612327933311462e-02 1.204336644150316715e-03 -9.314760565757751465e-02 1.530448067933320999e-02 1.542653888463973999e-01 1.411151438951492310e-01 -4.874736070632934570e-02 -1.322762817144393921e-01 8.516354858875274658e-02 7.264197617769241333e-02 1.172571256756782532e-02 -1.530312746763229370e-01 7.572052627801895142e-02 3.995951265096664429e-03 9.162487834692001343e-02 8.223504573106765747e-02 -8.125089854001998901e-02 -6.460013985633850098e-02 5.510051548480987549e-02 -2.261054329574108124e-02 1.332010980695486069e-02 -1.252607554197311401e-01 -1.322226226329803467e-01 -1.748565435409545898e-01 -7.695163949392735958e-04 3.416771814227104187e-02 -3.879661113023757935e-02 7.942128181457519531e-02 -8.681569993495941162e-02 -1.248320490121841431e-01 6.974943727254867554e-02 -8.371557295322418213e-02 4.093816503882408142e-02 -4.292289167642593384e-02 -1.604614555835723877e-01 9.412436187267303467e-02 9.218619205057621002e-03 -2.783988602459430695e-02 -5.983620509505271912e-02 -6.000219378620386124e-03 -8.322952687740325928e-02 -4.544444382190704346e-02 4.058701917529106140e-02 -1.556083709001541138e-01 4.713756218552589417e-02 -2.200081571936607361e-02 -3.689976036548614502e-02 -3.442228958010673523e-02 3.529173135757446289e-02 1.274884864687919617e-02 -3.745212918147444725e-03 6.238404288887977600e-02 2.544319629669189453e-01
-1.953683607280254364e-02 7.223530113697052002e-02 -8.903999812901020050e-03 -1.066763103008270264e-01 6.700979918241500854e-02 4.088094457983970642e-02 7.975096255540847778e-02 -1.339385509490966797e-01 -4.128532111644744873e-02 -2.673871256411075592e-02 -5.209045484662055969e-02 6.007232144474983215e-02 -1.069184765219688416e-01 -5.923496186733245850e-02 -2.688078023493289948e-02 1.156126335263252258e-01 1.055376380681991577e-01 1.247001439332962036e-02 -5.926530063152313232e-02 3.519799187779426575e-02 6.849387660622596741e-03 1.101007312536239624e-01 -1.173590794205665588e-01 -5.236375704407691956e-02 1.244240626692771912e-01 5.678229406476020813e-02 -7.016970962285995483e-02 -1.098777949810028076e-01 4.163981974124908447e-02 -1.861698552966117859e-02 -1.638027094304561615e-02 4.036216810345649719e-02 -1.494372189044952393e-01 7.426905632019042969e-02 4.223476722836494446e-02 -1.178826242685317993e-01 6.430947780609130859e-02 4.283710941672325134e-02 -1.057691946625709534e-01 -7.555869966745376587e-02 -1.201339289546012878e-01 -1.978893764317035675e-02 1.869621276855468750e-01 4.645601660013198853e-02 1.308648586273193359e-01 7.273042947053909302e-02 8.603855967521667480e-02 7.795289158821105957e-02 -1.529929041862487793e-01 6.077338755130767822e-02 -2.054048031568527222e-01 -8.014405518770217896e-02 5.745278298854827881e-02 -1.558631192892789841e-02 -1.544891018420457840e-02 6.856333930045366287e-04 5.384680349379777908e-03 -7.585241645574569702e-02
1.375513989478349686e-02 6.394413858652114868e-02 -1.158302351832389832e-01 -1.384738385677337646e-01 -1.564266830682754517e-01 2.564003132283687592e-02 4.576382786035537720e-02 -4.471463710069656372e-02 1.965937018394470215e-01 -4.232299514114856720e-03 -6.226953491568565369e-02 -8.528853952884674072e-02 1.501369178295135498e-01 2.314111217856407166e-02 -2.788148634135723114e-02 2.655510976910591125e-02 1.966148382052779198e-03 7.088583707809448242e-02 7.826309651136398315e-02 1.932597532868385315e-02 5.095764249563217163e-02 3.056934103369712830e-02 -1.173051372170448303e-01 2.004004828631877899e-02 3.514932468533515930e-02 -1.436212062835693359e-01 -8.985553681850433350e-02 2.982195466756820679e-02 -1.363061927258968353e-02 -1.711774244904518127e-02 -6.958696246147155762e-02 3.041902743279933929e-02 -1.430152505636215210e-01 -2.254637479782104492e-01 -1.382772028446197510e-01 -6.633052974939346313e-02 -2.330788783729076385e-02 -1.394661962985992432e-01 -5.825113877654075623e-02 -8.561453223228454590e-02 2.327775396406650543e-02 4.472068394534289837e-04 1.840940862894058228e-01 9.230599971488118172e-04 -3.085419908165931702e-02 -4.495798051357269287e-02 6.237344443798065186e-02 2.189578860998153687e-02 -1.333239823579788208e-01 -1.939011737704277039e-02 9.568940103054046631e-02 8.163168281316757202e-02 -1.340249180793762207e-02 5.611380562186241150e-03 1.223190128803253174e-01 -5.109652876853942871e-02 5.081053078174591064e-02 9.669660776853561401e-02
-2.537169307470321655e-02 1.616995334625244141e-01 7.370333373546600342e-02 -7.089567929506301880e-02 -1.717366464436054230e-02 1.043419316411018372e-01 6.850360333919525146e-02 -4.861224442720413208e-02 -9.967366233468055725e-03 -3.405934199690818787e-02 2.872746624052524567e-02 2.886495180428028107e-02 -7.286398112773895264e-02 3.757303953170776367e-02 3.416560124605894089e-03 9.264770895242691040e-02 9.924243390560150146e-02 5.421891435980796814e-02 -1.811725832521915436e-02 -1.409392356872558594e-01 -2.711159363389015198e-02 1.798511147499084473e-01 1.075510233640670776e-01 -4.621189460158348083e-02 3.339217230677604675e-02 -1.524121314287185669e-01 1.215549111366271973e-01 -1.227074041962623596e-01 1.163189187645912170e-01 -2.548332512378692627e-01 2.685523824766278267e-03 1.058598756790161133e-01 1.858285814523696899e-01 -1.548268795013427734e-01 -3.480136021971702576e-02 4.943579807877540588e-02 -6.505543738603591919e-02 -9.348838776350021362e-02 -2.043276326730847359e-03 7.271511852741241455e-02 1.235376596450805664e-01 6.138243898749351501e-02 6.711803376674652100e-02 1.140450984239578247e-01 -2.856360375881195068e-02 2.782791852951049805e-02 8.080371469259262085e-02 1.508737653493881226e-01 4.496262967586517334e-02 1.392304003238677979e-01 -4.354665800929069519e-02 -2.356480108574032784e-03 -1.519135385751724243e-02 -1.820735819637775421e-02 8.719769120216369629e-02 -1.247454807162284851e-01 -1.896087452769279480e-02 1.972150951623916626e-01
3.176306933164596558e-02 -3.785893693566322327e-02 -2.235177718102931976e-02 2.692574262619018555e-02 -9.090746194124221802e-02 1.787761896848678589e-01 -4.773635044693946838e-02 -1.959516480565071106e-02 2.541840635240077972e-02 1.990954726934432983e-01 -2.292598597705364227e-02 1.596791483461856842e-02 5.031420290470123291e-02 1.192625761032104492e-01 6.461343914270401001e-02 1.710868813097476959e-02 -6.624314188957214355e-02 3.245228528976440430e-02 4.778431728482246399e-02 1.224148087203502655e-02 -9.070765227079391479e-02 2.328181639313697815e-03 -1.656259149312973022e-01 -2.578560449182987213e-02 1.758980192244052887e-02 1.084966659545898438e-01 -1.231259293854236603e-02 1.289847679436206818e-02 -1.673700213432312012e-01 2.803008072078227997e-02 1.136033833026885986e-01 1.328130438923835754e-02 -2.117547392845153809e-01 1.052023470401763916e-01 4.337835311889648438e-02 1.514229178428649902e-01 -1.030203104019165039e-01 -9.052833914756774902e-02 -1.514903008937835693e-01 1.512892730534076691e-02 1.378767564892768860e-02 -7.031603902578353882e-02 1.067954525351524353e-01 6.802033167332410812e-03 -1.242865901440382004e-02 1.614094376564025879e-01 -9.999547153711318970e-03 1.106891036033630371e-01 1.244144067168235779e-01 1.073541119694709778e-01 4.319647699594497681e-02 2.105932496488094330e-02 3.012300934642553329e-03 1.068708673119544983e-01 6.757831573486328125e-02 -7.657643407583236694e-02 -1.136546805500984192e-01 -2.078784629702568054e-02
5.846615135669708252e-02 5.622491240501403809e-02 -1.770956814289093018e-01 -2.180117070674896240e-01 -4.154634103178977966e-02 7.249723654240369797e-03 -2.043531537055969238e-01 1.160769090056419373e-01 3.596078604459762573e-02 -2.182214893400669098e-02 7.029891014099121094e-02 6.489185988903045654e-02 5.436962097883224487e-02 -2.380286455154418945e-01 -2.763764373958110809e-02 -2.120277285575866699e-02 3.196324408054351807e-02 6.258957087993621826e-02 8.149258792400360107e-02 1.153772547841072083e-01 -7.840671390295028687e-02 -1.485017836093902588e-01 -1.102988645434379578e-01 9.566354006528854370e-02 -3.457710891962051392e-02 4.721014201641082764e-02 -5.760087445378303528e-02 -1.153563484549522400e-01 -3.857185319066047668e-02 4.960862547159194946e-02 -1.442266106605529785e-01 6.417693197727203369e-02 -1.939101815223693848e-01 -5.952401552349328995e-03 -3.358185663819313049e-02 -1.413136441260576248e-02 -7.630740292370319366e-03 -2.110620588064193726e-02 -5.897840484976768494e-02 -9.067238308489322662e-03 -5.668877810239791870e-02 6.706425547599792480e-02 -1.528709195554256439e-02 -1.053605694323778152e-02 -4.576802719384431839e-03 -1.031230464577674866e-01 -5.685252323746681213e-02 -5.722721293568611145e-02 -2.605829387903213501e-02 -4.613774642348289490e-02 -1.213271692395210266e-01 -4.501375183463096619e-02 2.832449078559875488e-01 -1.924758851528167725e-01 -6.732112262398004532e-03 -8.208008855581283569e-02 -3.231203556060791016e-02 -8.693823218345642090e-02
-1.746969372034072876e-01 1.563775837421417236e-01 -2.407505363225936890e-01 1.554082185029983521e-01 5.126267671585083008e-02 6.845905445516109467e-03 -1.845433004200458527e-02 1.025456413626670837e-01 6.179587543010711670e-02 8.900059759616851807e-02 -5.106808617711067200e-02 4.144871979951858521e-02 -1.557069569826126099e-01 -1.336001884192228317e-02 -2.902567759156227112e-02 5.286692455410957336e-02 9.766097366809844971e-02 -3.791793948039412498e-03 -1.204068958759307861e-02 1.743239313364028931e-01 -1.858092285692691803e-02 -6.269014626741409302e-02 -1.113532781600952148e-01 -6.096576154232025146e-02 -9.823302924633026123e-02 1.308157145977020264e-01 9.892445802688598633e-02 -1.098530516028404236e-01 7.143581658601760864e-02 2.150041013956069946e-01 1.196205988526344299e-01 -5.668267607688903809e-02 1.451809704303741455e-01 2.453160099685192108e-02 -1.271999720484018326e-02 7.913167029619216919e-02 -4.166663810610771179e-02 3.372493758797645569e-02 -2.461579069495201111e-02 5.414034426212310791e-02 -1.646199822425842285e-02 2.053198590874671936e-02 -5.392892286181449890e-02 -1.312827318906784058e-01 3.073027357459068298e-03 -9.006103128194808960e-02 1.217276696115732193e-02 -3.948509693145751953e-02 1.456585992127656937e-02 -1.039076596498489380e-01 -2.563719823956489563e-02 1.339671462774276733e-01 3.307765349745750427e-02 4.204319417476654053e-02 -8.462815545499324799e-03 5.971317179501056671e-03 1.507249921560287476e-01 5.680876225233078003e-02
1.607429236173629761e-01 7.048965245485305786e-02 6.114804372191429138e-02 1.723126024007797241e-01 4.312747716903686523e-02 1.369954496622085571e-01 -1.087434031069278717e-02 -1.630423031747341156e-02 -6.131622567772865295e-02 1.225086078047752380e-01 -1.038775593042373657e-01 -2.350592985749244690e-02 3.713439777493476868e-02 -6.067748367786407471e-02 -7.571733742952346802e-02 -6.674128770828247070e-02 5.677728727459907532e-02 -7.527044415473937988e-02 -1.226812228560447693e-01 1.196142882108688354e-01 8.405305445194244385e-03 2.854623273015022278e-02 -1.370263397693634033e-01 3.548192605376243591e-02 1.582659333944320679e-01 -1.380165815353393555e-01 -3.857178613543510437e-02 -6.673476845026016235e-02 6.422592699527740479e-02 -7.807040214538574219e-02 2.300390601158142090e-02 7.582609355449676514e-02 4.650390893220901489e-02 -5.381158739328384399e-02 1.074639484286308289e-01 3.779562935233116150e-02 1.226321905851364136e-01 -2.639562636613845825e-02 7.328622043132781982e-02 6.075265631079673767e-02 -5.014950782060623169e-02 4.099621437489986420e-03 3.802586812525987625e-03 1.327313366346061230e-04 -4.362694546580314636e-02 -6.073406338691711426e-02 -2.024196535348892212e-01 5.121423862874507904e-03 8.272206783294677734e-02 2.181146293878555298e-01 3.551539406180381775e-02 1.096113398671150208e-01 -1.374848037958145142e-01 -1.561847627162933350e-01 1.217578575015068054e-01 1.590173691511154175e-01 1.058261170983314514e-01 -9.154310822486877441e-02
3.371608629822731018e-02 3.382864221930503845e-02 1.222291886806488037e-01 5.004998669028282166e-02 5.359741672873497009e-02 -3.209400922060012817e-02 -4.466471821069717407e-02 2.403882332146167755e-02 -3.955991193652153015e-02 9.859085083007812500e-02 8.178886771202087402e-02 4.297375679016113281e-02 9.113111346960067749e-02 -3.484758734703063965e-02 -8.173385262489318848e-02 -2.120447345077991486e-02 -9.356454759836196899e-02 7.002151012420654297e-02 3.026428818702697754e-02 -1.126168966293334961e-01 1.989626735448837280e-01 -2.215749211609363556e-02 -1.559099461883306503e-02 -1.880944222211837769e-01 -4.029204696416854858e-02 -2.712527476251125336e-02 -2.756078168749809265e-02 -2.758209221065044403e-02 4.253929853439331055e-02 -2.281986176967620850e-01 7.188290357589721680e-02 1.031768321990966797e-01 -7.853456586599349976e-02 -8.835373073816299438e-02 2.159582227468490601e-01 -3.610544651746749878e-02 5.556331202387809753e-02 6.399068236351013184e-02 -1.662597954273223877e-01 2.295832037925720215e-01 -3.211366757750511169e-02 3.727084025740623474e-02 -1.265010535717010498e-01 2.675323933362960815e-02 1.136240065097808838e-01 2.408961392939090729e-02 -3.526559844613075256e-02 -3.619679808616638184e-02 -1.313361972570419312e-01 9.699468500912189484e-03 -3.642602637410163879e-02 9.838012605905532837e-02 1.892653256654739380e-01 1.101021245121955872e-01 7.554831355810165405e-02 -8.703109622001647949e-02 1.201258599758148193e-01 -6.929209083318710327e-02
7.177101075649261475e-02 -4.587094113230705261e-02 -7.492893934249877930e-02 -1.170709282159805298e-01 2.761443555355072021e-01 -5.512149259448051453e-02 5.297563225030899048e-02 7.292248308658599854e-03 -6.871714442968368530e-02 1.212072558701038361e-02 1.606403291225433350e-01 -1.379493623971939087e-01 2.006347477436065674e-02 2.340448554605245590e-03 8.108042180538177490e-02 -1.303067151457071304e-02 5.778588354587554932e-02 7.242178171873092651e-02 2.173538058996200562e-01 1.422960758209228516e-01 -3.231510519981384277e-02 -1.359117031097412109e-01 6.362207978963851929e-02 1.164799928665161133e-01 -1.106429249048233032e-01 4.959971830248832703e-02 -7.517445832490921021e-02 -7.519112527370452881e-02 4.186969250440597534e-02 -2.343273535370826721e-02 2.113843560218811035e-01 -1.374833844602108002e-02 1.257302910089492798e-01 1.991498842835426331e-02 -4.370968788862228394e-02 2.640211954712867737e-02 -8.926646411418914795e-02 9.411600418388843536e-03 1.470204144716262817e-01 1.439381539821624756e-01 -1.629073917865753174e-01 -1.317118406295776367e-01 2.105388194322586060e-01 -1.232036128640174866e-01 -4.037945345044136047e-02 5.693742632865905762e-02 1.011671945452690125e-01 -8.530905097723007202e-02 -6.164136901497840881e-02 -1.854713261127471924e-02 -2.245033904910087585e-02 -3.182337153702974319e-03 -6.590811163187026978e-02 4.512208327651023865e-02 -1.137682572007179260e-01 -6.021415814757347107e-02 5.460109561681747437e-02 -9.607664495706558228e-02
2.573179900646209717e-01 6.510180234909057617e-02 -2.393081039190292358e-01 -4.202533513307571411e-02 -8.683310449123382568e-02 4.842811822891235352e-02 -8.566994965076446533e-02 1.624474674463272095e-01 5.599022842943668365e-04 3.855055198073387146e-02 -5.242235213518142700e-02 -1.197189167141914368e-01 6.169812008738517761e-02 1.677092462778091431e-01 1.925340294837951660e-02 1.276638060808181763e-01 -1.121775526553392410e-02 1.592744141817092896e-01 -2.883238717913627625e-03 4.269527271389961243e-02 -1.506111323833465576e-01 6.039326265454292297e-02 9.718696027994155884e-02 -5.891713872551918030e-02 -1.092116832733154297e-01 2.099174819886684418e-02 2.767506837844848633e-01 3.994724527001380920e-02 7.675541192293167114e-02 1.192701092804782093e-04 5.843074526637792587e-03 2.549906261265277863e-02 4.771693050861358643e-02 6.595718860626220703e-02 -9.743588417768478394e-02 9.997785091400146484e-04 1.980882138013839722e-02 3.606050461530685425e-02 3.043995797634124756e-02 8.754057437181472778e-02 5.946584045886993408e-02 2.444870211184024811e-02 8.815028518438339233e-02 -2.170168235898017883e-02 1.404383927583694458e-01 1.323712430894374847e-02 7.836741954088211060e-02 4.810009524226188660e-02 1.973090693354606628e-04 -1.576158255338668823e-01 -1.013409346342086792e-01 1.094672083854675293e-01 -1.600226908922195435e-01 7.624325156211853027e-02 -2.878299169242382050e-02 9.771858900785446167e-02 1.067715212702751160e-01 1.432057321071624756e-01
-1.081163734197616577e-01 -1.147834304720163345e-02 -5.160586908459663391e-02 -1.846144795417785645e-01 6.404068320989608765e-02 3.962605819106101990e-02 9.705466032028198242e-02 -9.628447890281677246e-02 -1.632383912801742554e-01 -3.928203135728836060e-02 1.173495054244995117e-01 2.038093982264399529e-03 -1.164977923035621643e-01 1.498319059610366821e-01 -5.438737198710441589e-02 1.185128614306449890e-01 9.516972303390502930e-02 -5.629369989037513733e-02 1.053458452224731445e-01 -7.618740200996398926e-02 2.108536213636398315e-01 1.861371248960494995e-01 -9.163163602352142334e-02 -3.913268074393272400e-02 9.230853989720344543e-03 -1.864047162234783173e-02 7.821702957153320312e-02 -1.339206844568252563e-02 -6.028760224580764771e-02 8.579029887914657593e-02 8.167030289769172668e-03 -1.222789958119392395e-01 -5.680388957262039185e-02 -3.584021702408790588e-02 8.154572546482086182e-02 -1.083299741148948669e-01 -9.248413145542144775e-02 -1.470381170511245728e-01 -4.159125499427318573e-03 -1.859288848936557770e-02 5.038059130311012268e-02 -5.395540595054626465e-02 -8.247835934162139893e-02 7.465053349733352661e-02 -1.126340925693511963e-01 -1.064849868416786194e-01 1.478751897811889648e-01 9.824886173009872437e-02 1.086613088846206665e-01 -5.086078122258186340e-02 1.017129719257354736e-01 1.786135695874691010e-02 -2.614081799983978271e-01 1.263673007488250732e-01 1.048117727041244507e-01 1.052601169794797897e-02 -2.899055927991867065e-02 -6.840996444225311279e-02
4.880167916417121887e-02 1.030163466930389404e-01 9.425344318151473999e-02 -6.025736033916473389e-02 7.070818543434143066e-02 -8.925068378448486328e-02 5.185561999678611755e-02 -1.048078685998916626e-01 2.881977558135986328e-01 1.589991897344589233e-01 7.726025581359863281e-02 -9.962844103574752808e-02 1.656913384795188904e-02 9.313940070569515228e-03 2.558015659451484680e-02 2.444995567202568054e-02 -2.997291088104248047e-02 -2.844879217445850372e-02 -2.280357107520103455e-02 -2.249017655849456787e-01 7.512743026018142700e-02 1.159990951418876648e-01 -5.314621608704328537e-03 3.567928681150078773e-03 9.152718633413314819e-02 1.212607324123382568e-01 2.981930598616600037e-02 -2.530514895915985107e-01 1.275841146707534790e-02 6.322058290243148804e-02 7.797023653984069824e-02 1.367405205965042114e-01 -2.141971886157989502e-01 8.223132044076919556e-02 -4.784329980611801147e-02 -2.840327098965644836e-02 -2.688738331198692322e-02 -7.790672034025192261e-02 1.951730065047740936e-02 6.126122921705245972e-02 2.898059412837028503e-02 -1.456210464239120483e-01 3.763770684599876404e-02 5.498243123292922974e-02 7.460022717714309692e-02 1.043464839458465576e-01 6.350009888410568237e-02 -2.229090034961700439e-01 -5.748150125145912170e-02 9.378697723150253296e-02 2.209896408021450043e-02 -2.656370634213089943e-03 -8.216778188943862915e-02 -3.334736078977584839e-02 2.857948094606399536e-02 -3.596528246998786926e-02 1.083601564168930054e-01 -8.101236075162887573e-02
8.838800340890884399e-02 8.201111853122711182e-02 -5.130340531468391418e-02 -1.125378608703613281e-01 -1.438134610652923584e-01 -1.164092496037483215e-01 -2.791590755805373192e-03 -1.142546832561492920e-01 9.065218269824981689e-02 -7.597029954195022583e-02 -2.899399725720286369e-03 6.809086352586746216e-02 -7.871580123901367188e-02 2.097697407007217407e-01 -1.064663007855415344e-02 -4.549446702003479004e-02 -2.564947493374347687e-02 -1.197251956909894943e-02 -5.130284652113914490e-02 4.692637175321578979e-02 4.041691869497299194e-02 -7.100291084498167038e-03 2.256381325423717499e-02 7.222892343997955322e-02 1.753634363412857056e-01 -1.160777509212493896e-01 1.400847285985946655e-01 -8.273275941610336304e-02 3.178982064127922058e-02 1.252952814102172852e-01 -2.141446061432361603e-02 9.469164162874221802e-02 3.220877144485712051e-03 7.931189984083175659e-02 9.691485017538070679e-02 5.303013604134321213e-03 1.469659851863980293e-03 -9.534010291099548340e-02 3.561080992221832275e-02 -7.930190861225128174e-02 1.551518887281417847e-01 -3.450811281800270081e-02 -6.751330103725194931e-03 -2.418816089630126953e-02 -1.203214749693870544e-01 -6.003705039620399475e-02 3.456650674343109131e-02 -8.239991217851638794e-02 -2.649252489209175110e-02 2.320369891822338104e-02 -1.312483847141265869e-02 -1.555829495191574097e-02 6.724269688129425049e-02 4.154680669307708740e-02 -8.231622725725173950e-02 2.726056240499019623e-02 1.286270171403884888e-01 -4.840910807251930237e-02
3.055221959948539734e-02 -6.731549650430679321e-02 1.324189305305480957e-01 1.697389185428619385e-01 -3.754188492894172668e-02 1.148739978671073914e-01 -1.708105355501174927e-01 1.135562080889940262e-02 2.987388893961906433e-02 8.303224295377731323e-02 -2.742284238338470459e-01 1.774271391332149506e-02 3.736671805381774902e-02 1.032896414399147034e-01 4.623230546712875366e-03 -6.931751966476440430e-02 -3.429843857884407043e-02 -2.882239641621708870e-03 1.298497915267944336e-01 -1.470439601689577103e-02 8.221606910228729248e-02 1.224087998270988464e-01 6.649339199066162109e-02 1.195059251040220261e-02 -2.973726950585842133e-02 4.689145088195800781e-02 -1.098820823244750500e-03 -1.904390193521976471e-02 -8.200654387474060059e-02 4.839043319225311279e-02 1.933677941560745239e-01 5.812100600451231003e-03 1.596153825521469116e-01 -4.660426080226898193e-02 -1.546580493450164795e-01 -5.926562845706939697e-02 -3.900032863020896912e-02 -1.338920444250106812e-01 -2.131167054176330566e-02 -1.439456939697265625e-01 -4.385530948638916016e-02 9.836244396865367889e-03 5.714632570743560791e-02 1.253240257501602173e-01 2.606431581079959869e-02 3.166653588414192200e-02 7.742200046777725220e-02 -1.144428625702857971e-01 7.487706840038299561e-02 -9.464059956371784210e-03 3.311517089605331421e-02 -1.858577132225036621e-01 -1.433751545846462250e-02 -4.333106428384780884e-02 -2.041919976472854614e-01 5.820788070559501648e-02 -1.216503530740737915e-01 -1.139859706163406372e-01
7.526577264070510864e-02 2.485560625791549683e-01 1.643116325139999390e-01 1.208434551954269409e-01 6.363469362258911133e-02 2.742913551628589630e-02 2.260994352400302887e-02 6.635505706071853638e-02 -2.015255950391292572e-02 -7.998650521039962769e-02 1.722919195890426636e-01 -1.225389614701271057e-01 -5.901046097278594971e-02 -2.531663142144680023e-02 -2.821521461009979248e-02 -9.068645536899566650e-02 -1.420163270086050034e-02 4.060181230306625366e-02 8.630367368459701538e-02 -7.462078332901000977e-02 1.267175823450088501e-01 -2.829206548631191254e-02 -1.853694170713424683e-01 -2.651648037135601044e-02 1.307539194822311401e-01 -1.047555059194564819e-01 4.632015526294708252e-02 1.102952435612678528e-01 -3.385635837912559509e-02 -6.219295784831047058e-02 1.065416634082794189e-01 1.598100811243057251e-01 -6.349559128284454346e-02 9.421063214540481567e-02 5.010574683547019958e-02 1.344776991754770279e-02 -7.444552145898342133e-03 -1.473087072372436523e-01 9.844594448804855347e-02 -1.180829945951700211e-02 7.156799733638763428e-02 1.376161128282546997e-01 1.328198332339525223e-02 2.395163290202617645e-02 -6.173677742481231689e-03 -1.335845440626144409e-01 -4.583752155303955078e-02 -1.970196217298507690e-01 -6.051777303218841553e-02 -5.984514951705932617e-02 -2.416820032522082329e-03 6.349815428256988525e-02 2.434405125677585602e-02 -1.226712688803672791e-01 -3.453760966658592224e-02 8.570458739995956421e-02 -8.632931858301162720e-03 -1.077397540211677551e-01
-4.237059131264686584e-02 1.686636940576136112e-03 1.052789092063903809e-01 -5.838957801461219788e-02 7.893717288970947266e-02 3.954825177788734436e-02 4.032056778669357300e-02 -1.455557942390441895e-01 -7.146869599819183350e-02 -1.148332431912422180e-01 -3.659166768193244934e-02 7.407709211111068726e-02 -2.356032654643058777e-02 1.891930848360061646e-01 -5.307027138769626617e-03 3.193453699350357056e-02 -3.641967475414276123e-02 9.240123443305492401e-03 1.454582512378692627e-01 9.721017628908157349e-02 3.348846733570098877e-02 -2.021316289901733398e-01 -5.817957222461700439e-02 -1.514542102813720703e-01 -1.403393149375915527e-01 -8.059072494506835938e-02 9.194755554199218750e-02 -1.084274202585220337e-01 4.219579044729471207e-03 -2.110674232244491577e-01 -1.577747464179992676e-01 1.857828944921493530e-01 9.943411499261856079e-02 1.558218449354171753e-01 7.025985978543758392e-03 -1.016568988561630249e-01 -8.778076618909835815e-02 -3.692293539643287659e-02 -6.687425076961517334e-03 1.763383671641349792e-02 2.221422456204891205e-02 1.047127321362495422e-01 1.148797348141670227e-01 6.504964083433151245e-02 -9.864347428083419800e-02 1.312620122916996479e-03 1.125923767685890198e-01 -8.033409714698791504e-02 8.523001521825790405e-02 -1.363228261470794678e-01 -9.169198572635650635e-03 4.649034235626459122e-03 1.152258217334747314e-01 -2.608301118016242981e-02 -1.077979281544685364e-01 3.507566824555397034e-02 8.122231066226959229e-02 1.068931072950363159e-01
2.456985041499137878e-02 1.135527044534683228e-01 4.351517185568809509e-02 -1.573201864957809448e-01 -1.153576076030731201e-01 7.011842727661132812e-02 6.205390393733978271e-02 -1.037799343466758728e-01 -1.471575349569320679e-01 -4.765801876783370972e-02 -1.181128714233636856e-02 1.561463475227355957e-01 -4.442197456955909729e-02 9.710428304970264435e-03 1.843092264607548714e-03 4.257904738187789917e-02 1.356097310781478882e-01 -1.704803481698036194e-02 -2.793304249644279480e-02 -2.258922532200813293e-02 8.261273056268692017e-02 -8.033972233533859253e-02 -9.159772098064422607e-02 5.802860110998153687e-02 -3.743759123608469963e-03 -4.232177883386611938e-02 -1.996614038944244385e-02 -5.839944630861282349e-02 5.079192575067281723e-03 5.550127942115068436e-03 -3.336680307984352112e-02 -1.161184683442115784e-01 -8.532172441482543945e-02 -7.826264947652816772e-02 -2.156641483306884766e-01 9.776414185762405396e-02 1.503187716007232666e-01 -6.492619961500167847e-02 8.606863021850585938e-02 4.674055054783821106e-02 -1.434755325317382812e-01 -5.671287700533866882e-02 8.046048134565353394e-02 -1.837866753339767456e-01 -7.471062988042831421e-02 4.867654666304588318e-02 -1.758993417024612427e-02 1.079318765550851822e-02 8.407854288816452026e-02 -1.222217082977294922e-02 -1.737672649323940277e-02 1.343114953488111496e-02 6.314555555582046509e-02 -8.220644295215606689e-02 -7.901657372713088989e-02 5.718778818845748901e-02 -1.865027099847793579e-01 1.529828459024429321e-01
7.696046680212020874e-02 -1.923149973154067993e-01 -2.684538625180721283e-02 -1.642400324344635010e-01 8.325020223855972290e-02 5.162072554230690002e-02 4.693369846791028976e-03 7.805899530649185181e-02 -1.854728721082210541e-02 -1.276118606328964233e-01 -5.363979563117027283e-02 1.461781859397888184e-01 -1.271576329600065947e-04 1.418170984834432602e-02 -2.173150926828384399e-01 6.359042227268218994e-02 9.977167099714279175e-02 1.847004890441894531e-01 -3.577139973640441895e-02 1.311693340539932251e-01 -4.594906419515609741e-02 6.643296778202056885e-02 -1.711072325706481934e-01 4.365066811442375183e-02 2.112400978803634644e-01 8.270680159330368042e-02 3.638154640793800354e-02 -2.799230627715587616e-02 1.941573470830917358e-01 1.025063097476959229e-01 9.102167189121246338e-02 2.481342479586601257e-02 -9.658852219581604004e-02 9.978370368480682373e-02 4.889979958534240723e-02 1.119807735085487366e-01 4.009737446904182434e-02 -1.157519295811653137e-01 6.151832640171051025e-02 -1.167192608118057251e-01 9.473839402198791504e-02 8.328265696763992310e-02 4.794144257903099060e-02 6.193164736032485962e-02 -7.717203348875045776e-02 -1.807898730039596558e-01 5.235576257109642029e-02 4.231181461364030838e-03 7.834587246179580688e-02 2.109958045184612274e-02 2.341471612453460693e-03 5.799831822514533997e-02 3.556536883115768433e-02 1.298796236515045166e-01 -6.957557052373886108e-02 1.770239323377609253e-02 3.902290761470794678e-02 4.989405348896980286e-02
-9.647100418806076050e-02 1.576421596109867096e-02 4.919656366109848022e-02 -2.578788995742797852e-02 -1.011992432177066803e-02 -1.110576540231704712e-01 1.933116465806961060e-02 7.029920816421508789e-02 -8.574011921882629395e-02 -5.455852299928665161e-02 -1.213022880256175995e-02 3.624561429023742676e-02 5.658533424139022827e-03 2.881314139813184738e-03 -1.086775287985801697e-01 4.808415099978446960e-02 -4.942688625305891037e-03 2.361364290118217468e-02 5.199350416660308838e-02 -1.556745767593383789e-01 -3.162663802504539490e-02 4.570518434047698975e-02 1.287586092948913574e-01 -9.943813085556030273e-02 5.373677704483270645e-04 2.492322959005832672e-02 1.260949485003948212e-02 -6.901090592145919800e-02 2.338812872767448425e-02 2.123024165630340576e-01 -1.240314915776252747e-01 1.299705058336257935e-01 -1.022599935531616211e-01 7.598266005516052246e-02 -1.526763662695884705e-02 -1.032106298953294754e-02 -1.173790637403726578e-02 -9.201211482286453247e-02 -3.256989270448684692e-02 7.712300121784210205e-02 -4.341394826769828796e-02 -2.589848125353455544e-03 -5.825355276465415955e-02 -3.884718194603919983e-02 -6.215809658169746399e-02 -1.416408717632293701e-01 -7.115028053522109985e-02 -1.090974509716033936e-01 2.173330783843994141e-01 -7.845088094472885132e-02 7.955680787563323975e-02 4.942444339394569397e-02 -4.719426482915878296e-02 -1.165483961813151836e-03 -5.232112109661102295e-02 6.023247260600328445e-03 -1.201240643858909607e-01 -3.233879432082176208e-02
1.068100854754447937e-01 -8.626599796116352081e-03 -1.190462335944175720e-02 2.315639257431030273e-01 5.239242687821388245e-02 2.516889572143554688e-02 8.894323371350765228e-03 9.412115067243576050e-02 -1.763214617967605591e-01 -1.783722895197570324e-03 3.010562062263488770e-02 3.675938025116920471e-02 -1.098010540008544922e-01 -5.401994287967681885e-02 6.531872600317001343e-02 -1.529041081666946411e-01 1.284271329641342163e-01 -4.956248030066490173e-02 3.525059297680854797e-02 5.960330739617347717e-02 1.922206729650497437e-01 -6.739603821188211441e-03 1.118857115507125854e-01 3.184444084763526917e-02 1.365297138690948486e-01 -6.022528931498527527e-02 -6.462194025516510010e-02 -1.658086106181144714e-02 2.811047621071338654e-02 -1.733497343957424164e-02 -1.172695830464363098e-01 -1.193908303976058960e-01 8.800334483385086060e-02 -1.107183322310447693e-01 -1.256008446216583252e-01 -4.805522784590721130e-02 5.134955793619155884e-02 -4.638588801026344299e-02 -1.240890473127365112e-01 7.731059938669204712e-02 2.726283110678195953e-02 -9.607201442122459412e-03 -1.294029504060745239e-01 -7.197448611259460449e-02 6.175324693322181702e-02 -5.661310628056526184e-02 -7.975271902978420258e-03 -2.737374603748321533e-02 -1.331924367696046829e-02 -1.306463927030563354e-01 1.259098351001739502e-01 9.324466437101364136e-02 3.511244058609008789e-02 1.685218811035156250e-01 3.986561298370361328e-02 -8.428985020145773888e-04 1.946421898901462555e-02 -2.712199091911315918e-02
-3.051057085394859314e-02 -7.019214332103729248e-02 -1.446725726127624512e-01 8.507543057203292847e-02 -1.863205619156360626e-02 3.924975544214248657e-02 -3.909949958324432373e-02 -6.235099211335182190e-02 1.750033348798751831e-01 4.877134412527084351e-02 -4.075142368674278259e-02 -6.174767762422561646e-02 4.549366235733032227e-02 -3.432320058345794678e-02 -2.800994925200939178e-02 -7.779041677713394165e-02 -2.587375789880752563e-02 -1.932249814271926880e-01 -1.019420176744461060e-01 1.005678623914718628e-02 7.788815349340438843e-02 6.301408633589744568e-03 -9.746783226728439331e-02 -1.743688732385635376e-01 -4.378135129809379578e-02 3.297904878854751587e-02 -5.239633028395473957e-04 -4.306966438889503479e-02 -1.099606677889823914e-01 1.632094979286193848e-01 -2.223617024719715118e-02 -1.087839603424072266e-01 -1.755389943718910217e-02 3.046529181301593781e-02 1.702983379364013672e-01 2.613748311996459961e-01 1.203214842826128006e-02 5.054641515016555786e-03 -2.957734651863574982e-02 -3.825112804770469666e-02 3.628706035669893026e-04 -3.876762231811881065e-03 -1.768312454223632812e-01 -6.290060281753540039e-02 -9.387608617544174194e-03 7.287631928920745850e-02 1.680305600166320801e-02 -6.907854974269866943e-02 -5.488342046737670898e-02 -5.116227641701698303e-02 -4.167218878865242004e-02 -1.022054031491279602e-01 2.103745006024837494e-02 1.674608886241912842e-01 9.986530989408493042e-02 -1.046721637248992920e-02 -3.120095655322074890e-02 4.284467175602912903e-02
6.533593684434890747e-02 -4.499703273177146912e-02 -3.209457919001579285e-02 8.108285814523696899e-02 9.065499901771545410e-02 -3.185075148940086365e-02 8.575521409511566162e-02 -2.021619528532028198e-01 1.067382693290710449e-01 1.095013916492462158e-01 -3.060737997293472290e-02 3.676452860236167908e-02 7.635628804564476013e-03 -1.832860149443149567e-02 8.377702534198760986e-02 -9.280771017074584961e-02 1.874543130397796631e-01 -4.772846028208732605e-02 -8.975017815828323364e-02 9.943401068449020386e-02 2.568010427057743073e-02 1.331394910812377930e-02 -2.011834457516670227e-02 1.469314005225896835e-02 -4.807411506772041321e-02 -2.221525087952613831e-02 -1.611541658639907837e-01 1.513074245303869247e-02 -7.742022722959518433e-02 5.479967221617698669e-02 2.275580167770385742e-02 -7.572153955698013306e-02 1.338171958923339844e-01 -5.995973572134971619e-02 -4.806733131408691406e-02 -1.251070946455001831e-02 -3.322761505842208862e-02 -2.871141135692596436e-01 -2.327400259673595428e-02 4.961291328072547913e-02 5.373271182179450989e-02 -5.919898673892021179e-02 -4.930943623185157776e-02 -3.099158219993114471e-02 -1.311336010694503784e-01 3.798630088567733765e-02 1.931671500205993652e-01 7.980602234601974487e-02 -9.831761009991168976e-03 -6.435799598693847656e-02 4.661665856838226318e-02 6.914586573839187622e-02 1.038639917969703674e-01 1.643985211849212646e-01 8.043336868286132812e-02 1.921991119161248207e-03 -2.811968140304088593e-02 -1.581629738211631775e-02
-5.882318317890167236e-02 1.573691368103027344e-01 2.129785157740116119e-02 2.241777628660202026e-01 -3.816603915765881538e-03 -4.469203948974609375e-02 6.114570051431655884e-02 -1.599552035331726074e-01 -5.849761888384819031e-02 -2.424357080599293113e-04 -5.672427639365196228e-02 -1.581293181516230106e-03 -1.985002495348453522e-02 -6.727933883666992188e-02 -4.709370434284210205e-03 7.808353006839752197e-02 4.979201033711433411e-02 9.050475805997848511e-02 -1.518396311439573765e-04 -1.020598709583282471e-01 -2.469041943550109863e-01 -9.547714143991470337e-02 -1.463421285152435303e-01 -4.518993571400642395e-02 1.633915603160858154e-01 1.582090184092521667e-02 -8.241491019725799561e-02 -5.087499972432851791e-03 1.936671137809753418e-01 2.272017672657966614e-02 1.273793876171112061e-01 -1.579028367996215820e-02 5.367128923535346985e-02 -1.659498512744903564e-01 1.795811392366886139e-02 8.989688754081726074e-02 9.415284544229507446e-02 -8.045563474297523499e-03 2.675986289978027344e-02 1.752615533769130707e-02 -1.654625535011291504e-01 -1.689665168523788452e-01 -3.255080804228782654e-02 4.218058660626411438e-02 1.463360190391540527e-01 -4.665110632777214050e-02 -5.595872923731803894e-02 1.409804075956344604e-01 6.687222421169281006e-02 -1.052731946110725403e-01 1.045661643147468567e-01 -5.615469440817832947e-02 -5.061143264174461365e-02 1.923372447490692139e-01 -6.543640047311782837e-02 2.733107842504978180e-02 5.876602977514266968e-02 2.384216524660587311e-02
-1.059947237372398376e-01 8.895607292652130127e-02 -8.267251402139663696e-02 -1.833382844924926758e-01 -1.609611660242080688e-01 7.422536611557006836e-02 -1.654883474111557007e-02 -7.665048819035291672e-03 -6.135634332895278931e-02 4.937716200947761536e-02 -2.461456879973411560e-02 -8.022432774305343628e-02 -1.619407325051724911e-03 -5.017878115177154541e-02 -1.123744472861289978e-01 -3.966134414076805115e-02 3.700931370258331299e-02 1.073648482561111450e-01 -1.540741622447967529e-01 4.181334748864173889e-03 -1.159836575388908386e-01 -6.079013645648956299e-02 -1.309783607721328735e-01 -1.792964041233062744e-01 1.809833454899489880e-03 -4.035682883113622665e-03 8.326512575149536133e-02 7.681021839380264282e-02 -6.441812217235565186e-02 -3.125450760126113892e-02 2.780048735439777374e-02 -5.996161699295043945e-02 1.519168466329574585e-01 1.152237430214881897e-01 6.713132560253143311e-02 -9.657403826713562012e-02 -4.945170879364013672e-02 -5.590282380580902100e-03 -4.698716476559638977e-02 3.958165645599365234e-02 -1.452126652002334595e-01 -1.211608350276947021e-01 8.690981566905975342e-02 -2.062930725514888763e-02 8.340867608785629272e-02 5.749909952282905579e-02 6.606101244688034058e-02 -1.511807888746261597e-01 1.439464986324310303e-01 3.859101608395576477e-02 -1.204462274909019470e-01 3.407854214310646057e-02 -1.256434917449951172e-01 1.103911176323890686e-01 3.616005927324295044e-02 1.042005494236946106e-01 6.895880401134490967e-02 -8.468038588762283325e-02
1.137563511729240417e-01 -1.084341555833816528e-01 -2.351099997758865356e-02 1.805138140916824341e-01 -5.965412780642509460e-02 7.447032630443572998e-02 -6.801632046699523926e-02 7.512342417612671852e-04 -3.273210674524307251e-02 2.151257172226905823e-02 -1.500838100910186768e-01 -4.681557789444923401e-02 -1.539803892374038696e-01 -1.486046910285949707e-01 6.482642889022827148e-02 1.271549910306930542e-01 1.834941655397415161e-02 3.280835971236228943e-02 9.238204360008239746e-02 -5.254160612821578979e-02 -1.664522141218185425e-01 2.211033552885055542e-02 3.081759996712207794e-02 -5.891379714012145996e-02 8.588413149118423462e-02 9.736704826354980469e-02 2.621569111943244934e-02 -2.932831458747386932e-02 4.052294418215751648e-03 2.091839015483856201e-01 -8.482986688613891602e-02 -9.433168917894363403e-02 -1.285781860351562500e-01 4.514074698090553284e-02 7.905433885753154755e-03 -2.004850097000598907e-02 -1.684473082423210144e-02 7.623758912086486816e-02 -1.205398142337799072e-02 1.627157181501388550e-01 7.996226847171783447e-02 6.755399703979492188e-02 -8.409275859594345093e-02 -1.080285757780075073e-01 -7.712843269109725952e-02 8.859847672283649445e-03 -1.371971368789672852e-01 2.214280702173709869e-02 -1.201320998370647430e-02 -1.448974907398223877e-01 -2.100833803415298462e-01 8.130221813917160034e-02 7.393869757652282715e-02 1.575001748278737068e-03 -5.196271836757659912e-02 1.077127177268266678e-02 2.505037747323513031e-02 1.563281868584454060e-03
-4.121844470500946045e-02 1.876111142337322235e-02 6.012820079922676086e-02 6.881502270698547363e-02 -4.229411855340003967e-02 6.004854291677474976e-02 -2.130459845066070557e-01 -2.682773396372795105e-02 -1.004119887948036194e-01 9.785185754299163818e-02 -5.304085463285446167e-02 1.937883943319320679e-01 -1.534203905612230301e-02 3.902135044336318970e-02 7.078126817941665649e-02 -6.521846354007720947e-02 1.197704952210187912e-02 9.160759858787059784e-03 6.346820294857025146e-02 3.575196862220764160e-02 8.457764238119125366e-02 6.825654208660125732e-02 -8.089574985206127167e-03 5.048177018761634827e-02 2.050865907222032547e-03 -6.631863769143819809e-03 1.514596864581108093e-02 -1.287386715412139893e-01 1.163189392536878586e-02 2.306042937561869621e-03 5.128236487507820129e-02 -2.873999439179897308e-02 5.394103750586509705e-02 -9.874141216278076172e-02 2.291650325059890747e-01 6.273655593395233154e-02 6.163535290397703648e-04 -1.688755676150321960e-02 -8.790781348943710327e-02 -8.040267042815685272e-03 1.203525587916374207e-01 1.382485777139663696e-01 -1.121625155210494995e-01 -3.603979945182800293e-02 8.250261843204498291e-02 7.217962294816970825e-02 -4.503557458519935608e-02 -3.904099389910697937e-02 5.374090746045112610e-02 1.290394365787506104e-02 3.977085649967193604e-02 -2.002001404762268066e-01 8.289255201816558838e-02 1.042699813842773438e-02 -9.711330384016036987e-02 9.203069657087326050e-02 -2.490075305104255676e-02 4.512180574238300323e-03
