-1.804215833544731140e-02 6.006683688610792160e-03 -1.131430547684431076e-02 8.154027163982391357e-03 7.317784707993268967e-03 -4.494319669902324677e-03 -7.235052064061164856e-03 2.889257669448852539e-02 1.387470122426748276e-02 4.559106193482875824e-03 1.762819709256291389e-03 -1.648765243589878082e-02 -9.215272730216383934e-04 1.538224518299102783e-02 1.306852512061595917e-02 1.303430646657943726e-02 6.442161276936531067e-03 -6.733695510774850845e-03 -7.589722052216529846e-03 -1.624158583581447601e-02 1.569456420838832855e-02 -6.978497840464115143e-03 -2.990056574344635010e-02 -2.536821411922574043e-03 -6.080260965973138809e-03 1.634271233342587948e-03 4.558044299483299255e-02 -3.982975147664546967e-03 5.311853718012571335e-03 -1.131434924900531769e-02 -3.564286511391401291e-03 -1.421300880610942841e-02 -1.292312331497669220e-02 5.004604812711477280e-03 3.756928956136107445e-03 -4.898070474155247211e-04 6.414469797164201736e-03 2.453936263918876648e-02 1.274135988205671310e-02 4.436652641743421555e-03 -1.717411651043221354e-04 1.242816913872957230e-03 -1.360934041440486908e-02 3.896515583619475365e-03 -8.689700625836849213e-03 -3.605894278734922409e-03 2.125428803265094757e-02 4.608777351677417755e-03 2.823421359062194824e-02 1.715238206088542938e-02 -1.712636463344097137e-02 -1.129651558585464954e-03 1.171453204005956650e-02 1.854536472819745541e-03 -1.627940684556961060e-03 -3.722428809851408005e-03 4.000771325081586838e-03 1.848898455500602722e-02 -9.051771834492683411e-03 -2.104116976261138916e-02 -9.093712083995342255e-03 3.112370148301124573e-03 1.725847832858562469e-02 2.022874169051647186e-02 -1.929650316014885902e-03 1.547972299158573151e-02 -1.892604306340217590e-02 -8.594449609518051147e-03 -4.782974720001220703e-03 -1.619779691100120544e-02 1.794898882508277893e-02 1.482345070689916611e-02 3.548239590600132942e-03 3.148725256323814392e-02 1.470980141311883926e-02 7.593624293804168701e-03 -1.245333626866340637e-02 -6.659759674221277237e-03 -1.967642828822135925e-02 2.870274009183049202e-03 1.833952264860272408e-03 -4.614470235537737608e-04 -1.742655970156192780e-02 -1.353918481618165970e-02 2.866543130949139595e-03 3.471474628895521164e-03 1.018491201102733612e-02 1.935460953973233700e-03 -1.025582663714885712e-02 2.603645808994770050e-02 1.703835465013980865e-02 2.387291938066482544e-02 1.214771065860986710e-02 1.413422077894210815e-02 -4.831946920603513718e-03 -3.632174432277679443e-02 -1.792977191507816315e-02 -5.641571246087551117e-03 1.561261597089469433e-03 1.040724758058786392e-02 -1.716114580631256104e-02 -1.828542537987232208e-02 1.544930506497621536e-02 -8.434478193521499634e-03 -1.209313748404383659e-03 -1.275998633354902267e-02 -2.089652698487043381e-03 -3.026636317372322083e-03 3.250444715376943350e-04 -1.130131538957357407e-02 6.293864455074071884e-03 -7.091345265507698059e-03 -1.164312567561864853e-02 1.439274009317159653e-02 1.714674942195415497e-02 6.310699391178786755e-04 -4.089830908924341202e-03 -1.202362310141324997e-02 -1.467280089855194092e-03 -1.295685116201639175e-02 7.120193447917699814e-03 3.316625021398067474e-03 1.258036587387323380e-02 7.355568930506706238e-03 1.282606739550828934e-02 1.278076600283384323e-02 1.439389656297862530e-03 6.213719490915536880e-03 -7.719535846263170242e-03 5.405463278293609619e-03 -6.643658503890037537e-03 -2.738663461059331894e-04 1.052841637283563614e-02 1.520014367997646332e-02 2.081282250583171844e-02 2.125295344740152359e-03 1.285800151526927948e-02 -2.304141037166118622e-02 -9.907486848533153534e-03 -2.499932656064629555e-03 8.002726361155509949e-03 -4.051116760820150375e-03 -3.468557726591825485e-03 -1.286655478179454803e-02 2.495211549103260040e-03 2.982399892061948776e-04 5.924249999225139618e-03 -1.218309393152594566e-03 1.637945510447025299e-02 1.347710471600294113e-02 2.723840763792395592e-03 -6.331169977784156799e-03 3.071561688557267189e-03 -9.345521219074726105e-03 2.008352428674697876e-03 1.704365573823451996e-02 -1.567997504025697708e-03 -2.673800662159919739e-02 9.636382572352886200e-03 -2.176933176815509796e-02 2.220893278717994690e-03 1.023012027144432068e-02 -3.820422803983092308e-03 -3.468124428763985634e-03 -2.421061071800068021e-04 5.774280056357383728e-03 -8.221207186579704285e-03 1.487830467522144318e-02 1.440942287445068359e-03 -1.206133328378200531e-02 1.211294997483491898e-02 -6.791857536882162094e-03 8.732059970498085022e-03 -4.291906021535396576e-03 -6.295179482549428940e-03 -1.067308802157640457e-02 -4.605486989021301270e-03 2.785797230899333954e-03 1.133002806454896927e-02 6.060372572392225266e-03 3.868132596835494041e-03 3.287416417151689529e-03 -8.929937146604061127e-03 -8.777913637459278107e-03 -2.397463098168373108e-02 9.450804791413247585e-04 7.655123248696327209e-03 -3.989374381490051746e-04 -7.974623702466487885e-03 -3.923952579498291016e-03 5.000208504498004913e-03 7.065069861710071564e-03 1.577246561646461487e-02 -4.639018792659044266e-03 2.138520590960979462e-02 1.000043656677007675e-02 3.834825707599520683e-03 1.221474260091781616e-02 -2.144487388432025909e-02 -2.749644219875335693e-03 -1.724680885672569275e-02 -5.032840184867382050e-03 -7.552939932793378830e-03 1.054556947201490402e-02 -9.735385887324810028e-03 -3.570665139704942703e-03 -6.549269426614046097e-03 -2.415925636887550354e-02 6.123155821114778519e-03 -1.274127326905727386e-02 5.371009930968284607e-03 4.837987944483757019e-03 -1.050398685038089752e-03 -9.959105402231216431e-03 1.574295200407505035e-02 1.105880737304687500e-02 -2.328747697174549103e-02 1.023574173450469971e-02 -2.272223681211471558e-02 5.547038745135068893e-03 -3.671822836622595787e-03 1.425747666507959366e-02 -2.417173609137535095e-02 -1.114777661859989166e-02 -1.563658006489276886e-02 -1.372405607253313065e-02 -6.828631274402141571e-03 5.183083470910787582e-03 -1.136228255927562714e-02 -2.644768357276916504e-02 -1.605234295129776001e-02 1.647863537073135376e-02 -7.449436932802200317e-03 -3.671687468886375427e-02 -1.952718943357467651e-02 -8.769026026129722595e-03 9.024387225508689880e-03 2.849497366696596146e-03 2.081863582134246826e-03 -6.776676047593355179e-03 -7.868597283959388733e-03 7.792006246745586395e-03 1.190752163529396057e-02 -1.562057156115770340e-02 -1.526562497019767761e-02 1.229209825396537781e-02 3.396936226636171341e-03 7.676789537072181702e-03 4.143382830079644918e-04 5.512911826372146606e-03 1.903986372053623199e-02 7.953643798828125000e-03 9.340957738459110260e-03 -5.360403563827276230e-03 5.748045165091753006e-03 -6.116996053606271744e-03
2.339194715023040771e-02 1.054629310965538025e-02 1.255401968955993652e-02 9.144346229732036591e-03 5.415725754573941231e-04 2.601613476872444153e-02 -2.015568083152174950e-03 -1.667462661862373352e-02 4.450429405551403761e-04 3.471891628578305244e-03 7.889118045568466187e-03 -1.246637199074029922e-02 8.154843933880329132e-03 -1.375012472271919250e-02 2.303920313715934753e-02 1.474482007324695587e-03 -2.342681586742401123e-02 -1.864713989198207855e-02 1.161226909607648849e-02 -2.359071001410484314e-02 -3.552196314558386803e-03 -5.350234452635049820e-03 -9.907242842018604279e-03 -2.415228635072708130e-02 -8.208888582885265350e-03 3.806243836879730225e-02 3.319768235087394714e-03 -5.264123319648206234e-04 4.353155381977558136e-03 1.024951413273811340e-02 -2.791528217494487762e-02 -1.344954874366521835e-02 -1.375440694391727448e-02 1.251098699867725372e-02 -5.506962537765502930e-03 7.854638621211051941e-03 -7.165822200477123260e-03 -1.448389515280723572e-02 -1.672936789691448212e-02 7.616723421961069107e-03 9.170104749500751495e-03 -1.372513081878423691e-02 9.653688175603747368e-04 -9.081122465431690216e-03 1.511369179934263229e-02 8.493544883094727993e-04 5.492147989571094513e-03 1.493031810969114304e-02 6.188242696225643158e-03 2.423334866762161255e-02 -5.433870479464530945e-03 -1.713401637971401215e-02 7.736138068139553070e-03 -3.031537402421236038e-03 -5.725814960896968842e-03 1.338285487145185471e-02 4.696860909461975098e-03 8.031664416193962097e-03 -2.631510375067591667e-03 -6.614484824240207672e-03 5.595878697931766510e-03 3.845959203317761421e-03 8.153267204761505127e-03 3.884452860802412033e-03 6.716338451951742172e-03 2.112584188580513000e-02 -2.606408111751079559e-02 1.887219375930726528e-03 -6.454850081354379654e-04 9.567457251250743866e-03 -1.414165366441011429e-03 -1.102614309638738632e-02 1.386963855475187302e-02 -2.518140524625778198e-02 -3.530781716108322144e-03 1.064111944288015366e-02 8.764867670834064484e-03 1.160974055528640747e-02 1.459089107811450958e-04 1.492583565413951874e-02 6.354568991810083389e-03 2.550743753090500832e-03 -5.583985708653926849e-03 -1.873301714658737183e-02 -3.107400378212332726e-03 -2.456123940646648407e-02 3.079460235312581062e-03 4.589717835187911987e-03 -2.964748069643974304e-02 -1.252996642142534256e-02 9.277014061808586121e-03 -5.750234238803386688e-03 6.929225055500864983e-04 1.617856509983539581e-02 6.361646577715873718e-03 -1.079908292740583420e-02 -2.559230197221040726e-03 -4.634043725673109293e-04 -1.233281567692756653e-02 -4.903072025626897812e-03 1.128552947193384171e-02 5.016651470214128494e-03 1.066803652793169022e-02 -6.529280915856361389e-03 -1.028809137642383575e-02 9.351837448775768280e-03 2.345656044781208038e-02 3.135161707177758217e-03 -2.131598256528377533e-02 1.673377677798271179e-02 4.154723137617111206e-03 3.305735811591148376e-02 -3.343125572428107262e-03 2.516431733965873718e-02 3.997685853391885757e-03 -1.515823230147361755e-02 2.917836606502532959e-02 -9.667971171438694000e-03 -2.666257880628108978e-02 6.350290961563587189e-03 2.481120266020298004e-02 1.668237522244453430e-02 6.209808867424726486e-03 -2.760365139693021774e-03 2.099850215017795563e-02 -1.608340069651603699e-02 -4.280174151062965393e-03 -4.004233051091432571e-03 -2.565642260015010834e-02 -5.304895807057619095e-03 -1.173823978751897812e-02 1.247655693441629410e-02 5.362231750041246414e-03 -1.837216503918170929e-02 1.435609720647335052e-02 3.588292375206947327e-02 -5.513637792319059372e-03 1.642168872058391571e-02 -3.729808330535888672e-02 -5.203380715101957321e-03 1.315924152731895447e-02 -8.134201169013977051e-03 -1.873210258781909943e-02 -3.150142729282379150e-02 1.072232890874147415e-02 1.691016368567943573e-02 -4.351050127297639847e-03 -1.658816076815128326e-02 -9.176855906844139099e-03 4.503870755434036255e-02 1.411563530564308167e-02 2.805143594741821289e-02 -1.041830703616142273e-02 -2.187051996588706970e-02 7.006560452282428741e-03 -1.159113459289073944e-02 2.802043594419956207e-02 -2.367524243891239166e-02 -2.019657567143440247e-02 -3.692351048812270164e-03 1.327726151794195175e-02 5.439029540866613388e-03 -2.169929677620530128e-03 4.626196809113025665e-03 1.396020781248807907e-02 -4.019961226731538773e-03 1.728425547480583191e-02 -1.453652698546648026e-02 5.897775292396545410e-03 -1.115216966718435287e-02 9.824394248425960541e-03 2.174170315265655518e-02 1.495342236012220383e-02 2.742297947406768799e-03 -3.596559981815516949e-04 9.606058709323406219e-03 4.562428221106529236e-03 -8.433808572590351105e-03 1.000270713120698929e-03 -1.242064405232667923e-02 -4.757041111588478088e-03 -1.284287124872207642e-02 -7.986935786902904510e-03 2.204235829412937164e-02 7.770017255097627640e-03 9.822710417211055756e-03 -1.651220768690109253e-02 9.304038248956203461e-03 -1.205990090966224670e-02 -9.596660733222961426e-03 -8.790207095444202423e-03 -2.384281717240810394e-02 1.972115039825439453e-02 3.027458861470222473e-02 9.151206351816654205e-03 4.877786617726087570e-03 8.948453702032566071e-03 7.836752571165561676e-03 1.266531366854906082e-02 -5.437253974378108978e-03 5.598589312285184860e-03 1.394743099808692932e-02 -2.072579227387905121e-03 1.131121255457401276e-02 1.174174947664141655e-03 1.496802549809217453e-02 -3.932667523622512817e-02 4.877896513789892197e-03 -3.668066812679171562e-03 -4.696468356996774673e-03 -3.239580616354942322e-02 2.916441299021244049e-02 1.057114824652671814e-02 1.291003543883562088e-02 -9.362371638417243958e-03 9.393320942763239145e-05 -4.883162677288055420e-02 -1.167987659573554993e-02 -2.819666638970375061e-02 4.262947011739015579e-03 2.368325181305408478e-02 2.036223746836185455e-02 1.188029441982507706e-02 -9.806967340409755707e-03 5.148261319845914841e-03 -1.179450470954179764e-02 -1.714196056127548218e-02 -2.374443691223859787e-03 1.212244573980569839e-02 -2.986742369830608368e-02 2.309686876833438873e-02 2.878783037886023521e-03 -3.324745921418070793e-03 -2.602349407970905304e-02 -1.686043478548526764e-02 3.767845779657363892e-02 -6.568627897650003433e-03 -7.663529249839484692e-04 1.424047164618968964e-02 -3.097643144428730011e-02 3.753733262419700623e-02 -1.884870580397546291e-03 2.026320435106754303e-02 -7.865670137107372284e-03 -1.649834960699081421e-02 -2.033993788063526154e-02 -3.653668332844972610e-03 2.933630347251892090e-02 -1.819489523768424988e-02 -5.762704182416200638e-03 -1.566681824624538422e-02 -5.523354746401309967e-03 1.897078007459640503e-02 1.066870242357254028e-02 5.181828979402780533e-03 -8.811041712760925293e-03
9.704654105007648468e-03 -1.207855902612209320e-02 -2.551160519942641258e-03 -1.614375505596399307e-03 1.841809600591659546e-02 3.640500130131840706e-03 -1.331063453108072281e-02 -1.927723176777362823e-02 3.619590401649475098e-02 -4.087409470230340958e-03 2.000811696052551270e-02 -5.710754194296896458e-04 -1.072015799582004547e-02 1.523871626704931259e-02 -6.591133307665586472e-03 -1.449121069163084030e-02 -3.771381685510277748e-03 8.517249487340450287e-03 -4.182511940598487854e-03 1.807140558958053589e-02 -3.645614534616470337e-02 1.444948255084455013e-03 -1.821719855070114136e-02 -6.216172128915786743e-03 9.436662308871746063e-03 -5.361262243241071701e-03 -1.137316599488258362e-02 1.008800789713859558e-02 8.316838182508945465e-03 5.944516044110059738e-03 5.710247904062271118e-03 1.102802809327840805e-02 2.305565774440765381e-02 -1.495976652950048447e-02 -7.592975744046270847e-04 -7.894929498434066772e-03 -5.313008558005094528e-03 1.773647032678127289e-02 5.762722808867692947e-03 -1.500046439468860626e-02 -2.105315774679183960e-02 4.781834781169891357e-02 -1.493462175130844116e-02 2.642286010086536407e-03 -1.425843220204114914e-04 -1.988281123340129852e-02 1.146205049008131027e-02 -1.240566605702042580e-03 1.102026645094156265e-02 3.382865712046623230e-02 3.350677900016307831e-03 1.253696624189615250e-02 -2.413500845432281494e-02 1.495651435106992722e-02 -7.478908635675907135e-03 -2.503852918744087219e-02 -7.584520615637302399e-03 2.641888521611690521e-02 -2.031864365562796593e-03 -4.139091074466705322e-02 1.924904063344001770e-03 -2.022560685873031616e-02 -1.621606759727001190e-02 8.865546435117721558e-03 -1.854849420487880707e-02 -3.724164515733718872e-02 4.336175043135881424e-03 -6.439367309212684631e-03 2.906141162384301424e-04 -1.085332036018371582e-02 -4.915143363177776337e-03 -1.120242010802030563e-02 2.183562144637107849e-03 -4.413470625877380371e-03 2.268222905695438385e-02 1.789901754818856716e-03 3.355559019837528467e-04 -2.169464342296123505e-02 -8.927189628593623638e-04 1.483140140771865845e-02 -2.867034822702407837e-02 3.510136529803276062e-02 1.540703885257244110e-02 -1.073661725968122482e-02 1.386857964098453522e-02 -2.259850502014160156e-02 1.482128631323575974e-03 -1.136821601539850235e-02 -2.792176790535449982e-02 1.003271900117397308e-02 4.354024305939674377e-03 -1.146061252802610397e-02 1.182038709521293640e-02 2.848982065916061401e-02 -2.243767678737640381e-02 -1.587846875190734863e-02 -3.613840043544769287e-02 1.941820047795772552e-02 2.331539581064134836e-04 1.160844787955284119e-02 -1.831436902284622192e-02 2.406560257077217102e-02 1.151471771299839020e-02 1.099117752164602280e-02 -3.160407021641731262e-02 -6.877903826534748077e-03 2.828992158174514771e-02 8.848617784678936005e-03 -2.802846580743789673e-02 3.530618268996477127e-03 7.949204184114933014e-03 1.084860134869813919e-02 5.009743385016918182e-03 3.375564469024538994e-03 -2.495590969920158386e-02 2.664865460246801376e-03 -2.673424780368804932e-02 1.201488543301820755e-02 1.965356618165969849e-02 -9.870454668998718262e-03 4.136190284043550491e-03 2.368211047723889351e-03 2.637904603034257889e-03 -1.929530128836631775e-02 -1.294546667486429214e-02 -1.139999250881373882e-03 3.007380291819572449e-02 -8.924062363803386688e-03 -1.471898704767227173e-02 8.888255804777145386e-03 -1.072784978896379471e-02 7.276796270161867142e-03 2.962709777057170868e-02 9.038693271577358246e-03 -5.935623194091022015e-04 2.251468785107135773e-02 1.946275494992733002e-02 6.201699376106262207e-03 -1.100002042949199677e-02 1.704273372888565063e-02 1.070467289537191391e-02 7.676896173506975174e-03 9.120216709561645985e-04 2.340028248727321625e-02 -1.025431603193283081e-02 2.429782971739768982e-02 2.939662663266062737e-03 -2.349758520722389221e-03 -3.536064550280570984e-02 -1.626650453545153141e-03 -2.447222545742988586e-02 1.025193464010953903e-02 -2.273466903716325760e-03 1.649325899779796600e-02 1.590027241036295891e-03 7.203586399555206299e-03 3.111449070274829865e-02 -7.489410694688558578e-03 -7.393743842840194702e-03 -1.748942770063877106e-02 3.061728784814476967e-04 7.728606462478637695e-03 2.042203908786177635e-03 2.047020196914672852e-02 -4.449498082976788282e-04 7.212036754935979843e-03 -2.315575443208217621e-02 2.745494944974780083e-03 -1.445169933140277863e-02 3.565957024693489075e-02 -8.877797983586788177e-03 3.111700154840946198e-02 3.153474628925323486e-02 1.456781756132841110e-02 2.379367128014564514e-02 -1.204951107501983643e-02 8.049249649047851562e-03 1.419272366911172867e-02 -1.161819044500589371e-02 -1.873254403471946716e-02 1.192618510685861111e-03 1.268111448734998703e-02 6.398363504558801651e-03 1.774423196911811829e-02 2.086517214775085449e-02 -9.825119748711585999e-03 1.288941875100135803e-02 3.043386898934841156e-02 -1.564138010144233704e-02 -6.174674723297357559e-03 4.738365299999713898e-03 -1.712368684820830822e-03 -8.493980392813682556e-03 -2.169035561382770538e-02 -1.376154180616140366e-02 3.295107558369636536e-02 -2.555278502404689789e-02 1.581274159252643585e-02 8.546295575797557831e-03 3.983848914504051208e-02 -1.805748231709003448e-02 2.252946794033050537e-02 1.342944800853729248e-02 -5.901499185711145401e-03 2.371687628328800201e-02 2.908103540539741516e-02 -1.757221180014312267e-03 -1.795025728642940521e-02 3.407526062801480293e-03 1.935954019427299500e-02 -6.818265188485383987e-03 5.830904934555292130e-03 -2.997510135173797607e-02 2.069031260907649994e-02 -9.448872879147529602e-03 -2.442778553813695908e-03 -4.881324246525764465e-03 1.845130883157253265e-02 -8.320313878357410431e-03 4.518427420407533646e-03 5.889863707125186920e-03 -9.631355293095111847e-03 -1.427523884922266006e-02 -3.177226707339286804e-02 -8.772376924753189087e-03 -2.569595724344253540e-02 -2.352546527981758118e-02 -1.462576165795326233e-02 -6.387204863131046295e-03 -3.522651270031929016e-02 1.033919863402843475e-03 7.234838325530290604e-03 -2.011546306312084198e-02 -5.755128804594278336e-04 -1.731214486062526703e-02 7.977610453963279724e-03 2.079572528600692749e-02 4.653375130146741867e-03 -2.935454063117504120e-02 1.669306680560112000e-02 -2.864415198564529419e-02 8.956676349043846130e-03 -2.566346153616905212e-02 3.350656013935804367e-03 -3.697356733027845621e-04 1.059690769761800766e-02 -1.389310695230960846e-02 3.421844169497489929e-02 -6.300996989011764526e-03 -2.544239908456802368e-02 7.257142569869756699e-03 -2.440325729548931122e-02 -1.613114960491657257e-02 -4.671500064432621002e-03 -6.926960311830043793e-03 5.678533110767602921e-03
-2.648347057402133942e-02 -1.912467181682586670e-02 -2.974161691963672638e-02 -1.953301019966602325e-02 5.671182181686162949e-03 1.651337556540966034e-02 -4.424348473548889160e-03 -1.084043877199292183e-03 -2.570047741755843163e-03 -2.108017727732658386e-02 6.533505860716104507e-03 -1.253892574459314346e-02 -1.724480092525482178e-02 3.151097521185874939e-02 -4.853843245655298233e-03 6.602793000638484955e-03 1.009749714285135269e-02 5.977183114737272263e-03 -5.173269193619489670e-03 7.469388190656900406e-03 -2.765113115310668945e-02 1.418545749038457870e-02 -2.573750354349613190e-02 7.283031940460205078e-03 -1.172825042158365250e-02 -2.920929575338959694e-03 1.047432050108909607e-02 3.127063810825347900e-02 -5.749639589339494705e-03 -3.054210171103477478e-02 -1.385292224586009979e-02 1.734277792274951935e-02 1.697910390794277191e-02 3.195285098627209663e-03 -1.093167345970869064e-02 -2.260806411504745483e-02 -2.153889741748571396e-03 1.394383143633604050e-02 5.755805876106023788e-03 1.629898673854768276e-03 1.548920851200819016e-02 2.752275206148624420e-02 -9.635102003812789917e-03 4.803091753274202347e-03 -7.258273399202153087e-05 7.098974310792982578e-04 -2.028033137321472168e-02 -1.451832521706819534e-02 -6.862218026071786880e-03 9.606319479644298553e-03 1.774831302464008331e-02 2.197766862809658051e-02 -1.644061878323554993e-02 -1.030170475132763386e-03 4.255771054886281490e-04 -1.876379363238811493e-02 -3.325725905597209930e-03 1.255212468095123768e-03 1.243771612644195557e-02 1.164542417973279953e-02 2.117030881345272064e-02 -3.840932995080947876e-02 -2.038687840104103088e-02 2.133233100175857544e-02 -4.718994896393269300e-04 -5.608664359897375107e-03 1.032837480306625366e-02 7.122681010514497757e-03 -1.244245935231447220e-02 1.187497936189174652e-02 -1.172638125717639923e-02 -1.121476385742425919e-02 5.689339246600866318e-03 4.246784839779138565e-03 1.227378100156784058e-02 -7.886788225732743740e-04 1.061669271439313889e-02 -9.957549162209033966e-03 -1.831467263400554657e-02 -1.902303472161293030e-02 1.305523794144392014e-02 1.787738176062703133e-03 -2.078652940690517426e-02 -3.473264165222644806e-03 1.481580361723899841e-02 5.425932817161083221e-03 -2.719163196161389351e-03 3.313177265226840973e-03 1.979555562138557434e-02 5.411910824477672577e-03 -1.817469834350049496e-03 -1.516389660537242889e-02 3.017223626375198364e-02 9.882962331175804138e-03 -5.109543446451425552e-03 2.039923798292875290e-03 6.476119160652160645e-03 2.069439040496945381e-03 -1.428650133311748505e-02 7.328092120587825775e-03 -9.755025617778301239e-03 4.940890241414308548e-03 1.807868108153343201e-02 -2.119289943948388100e-03 -1.920317113399505615e-02 -1.336057949811220169e-02 2.033028984442353249e-03 -1.476702932268381119e-02 -7.580664008855819702e-03 -1.283618621528148651e-02 -3.007942251861095428e-02 -3.790173446759581566e-03 6.467313505709171295e-03 1.430370099842548370e-02 -1.490943599492311478e-02 -1.659657061100006104e-02 -1.514322031289339066e-02 1.295468676835298538e-02 1.974406419321894646e-03 -7.658108137547969818e-03 -9.355494752526283264e-03 -5.356428213417530060e-03 -2.218550071120262146e-02 1.211721450090408325e-02 -1.657418347895145416e-02 1.536295982077717781e-03 2.448195032775402069e-02 -7.674121879972517490e-04 -5.831256043165922165e-03 -8.775759488344192505e-03 -6.996052339673042297e-03 -1.018642913550138474e-02 -1.210083998739719391e-02 2.583615854382514954e-02 -1.900917105376720428e-02 -6.924162618815898895e-03 2.886749571189284325e-03 1.206531096249818802e-02 1.863511651754379272e-02 3.377376869320869446e-02 1.460429094731807709e-02 4.247380048036575317e-02 4.882958717644214630e-03 2.693731803447008133e-03 1.176575664430856705e-02 -1.081966329365968704e-02 -2.539650537073612213e-03 -9.385023149661719799e-04 7.049528416246175766e-03 -3.762248530983924866e-02 4.691244568675756454e-03 -5.959710571914911270e-03 1.788861490786075592e-02 -1.331918034702539444e-02 8.215740323066711426e-03 -2.526633208617568016e-03 6.792793865315616131e-04 1.134871877729892731e-02 -1.249406579881906509e-02 -3.133714199066162109e-02 2.734866924583911896e-03 2.203031815588474274e-02 -2.152215503156185150e-02 5.789647810161113739e-03 -3.630986204370856285e-03 2.606851235032081604e-02 6.837975233793258667e-03 -1.137304061558097601e-04 -2.757114171981811523e-02 7.318472024053335190e-03 -1.321447454392910004e-02 -1.827230444177985191e-03 2.117851562798023224e-02 3.827936574816703796e-02 1.145076472312211990e-02 2.469936618581414223e-03 -1.198792364448308945e-02 -3.364119678735733032e-03 -6.206406746059656143e-03 -9.811841882765293121e-03 -1.536353770643472672e-02 -1.656496338546276093e-02 2.919063344597816467e-02 5.134795792400836945e-03 1.443344075232744217e-02 -2.315258374437689781e-03 4.313639365136623383e-03 1.318771019577980042e-02 -4.654131364077329636e-03 7.467974908649921417e-03 9.873124770820140839e-03 2.175101451575756073e-02 -1.750343246385455132e-03 -2.703679725527763367e-02 -5.194369587115943432e-04 1.252325810492038727e-02 -2.666288800537586212e-02 6.583660840988159180e-03 3.978590480983257294e-03 1.651125401258468628e-02 -6.664306391030550003e-03 2.675698883831501007e-02 2.708725864067673683e-03 5.276740994304418564e-03 3.751129284501075745e-02 -2.183140954002737999e-03 4.554643295705318451e-03 -2.344351820647716522e-02 -2.300500497221946716e-02 2.118100598454475403e-02 -5.321022588759660721e-03 8.192500681616365910e-04 2.471747342497110367e-03 4.852743819355964661e-03 -1.118308212608098984e-02 1.061732415109872818e-02 2.071779966354370117e-02 -2.853235928341746330e-03 -2.320270752534270287e-03 2.158152684569358826e-02 6.499388255178928375e-03 -1.917824335396289825e-02 5.026453174650669098e-03 5.976586136966943741e-03 4.490612074732780457e-03 4.138327203691005707e-03 1.840720651671290398e-03 -2.027451992034912109e-02 -1.978898793458938599e-02 2.741480059921741486e-02 1.899732649326324463e-02 2.576860599219799042e-02 7.350841071456670761e-03 2.712022885680198669e-02 3.543142462149262428e-03 -2.250236272811889648e-02 -3.639460355043411255e-02 6.250747479498386383e-03 -3.714642301201820374e-02 1.002318132668733597e-02 -4.968306981027126312e-03 1.850139931775629520e-03 -1.345746871083974838e-02 1.422365428879857063e-03 9.636351838707923889e-03 4.348269198089838028e-03 -1.113682053983211517e-02 -1.931343809701502323e-03 1.022231951355934143e-02 -5.544128827750682831e-03 1.083854958415031433e-02 -8.102878928184509277e-03 -2.972597070038318634e-02 2.577071636915206909e-02 5.656562861986458302e-04 6.414876785129308701e-03
3.435256332159042358e-02 -3.198390593752264977e-03 2.775057591497898102e-02 6.909649819135665894e-04 -1.797218061983585358e-02 3.103598207235336304e-02 6.482011638581752777e-03 -9.625298902392387390e-03 1.197070721536874771e-02 -1.918915286660194397e-02 2.767050638794898987e-02 1.186089869588613510e-02 -2.913992293179035187e-02 2.307547815144062042e-02 -1.731947809457778931e-02 -2.962326398119330406e-03 -4.213372245430946350e-02 -9.350277483463287354e-03 -7.948979735374450684e-03 4.113555327057838440e-02 -1.968637108802795410e-02 -1.837460510432720184e-02 -3.766046091914176941e-02 1.538305450230836868e-02 8.609649958088994026e-04 -1.135728135704994202e-02 6.523073185235261917e-03 2.996676042675971985e-02 -3.606038226280361414e-04 -6.327108480036258698e-03 -2.257462590932846069e-02 5.269348621368408203e-02 4.614805802702903748e-02 7.652450818568468094e-03 1.238878071308135986e-02 -2.705847145989537239e-03 -1.285640057176351547e-02 1.167218480259180069e-02 -1.162582915276288986e-02 -6.375725846737623215e-03 -4.567509144544601440e-02 3.947801515460014343e-02 -1.086400542408227921e-02 6.193530745804309845e-03 2.061917632818222046e-02 -4.069697577506303787e-03 -4.873961582779884338e-02 2.638943726196885109e-03 5.607998464256525040e-04 1.053821202367544174e-02 1.154542993754148483e-02 3.116276673972606659e-02 -2.653590776026248932e-02 -3.362784534692764282e-02 -1.502590347081422806e-02 2.049565128982067108e-02 -3.794638812541961670e-02 2.186841517686843872e-02 -1.078015379607677460e-02 -7.860868936404585838e-04 -2.136685186997056007e-03 7.933495566248893738e-03 -3.752841055393218994e-02 -3.995507210493087769e-02 4.259398207068443298e-03 -3.009305521845817566e-02 -2.453311532735824585e-02 5.570581182837486267e-03 1.664171554148197174e-02 5.547554232180118561e-03 1.983074098825454712e-02 -2.374113537371158600e-02 2.486962592229247093e-03 -1.221849024295806885e-02 7.418772205710411072e-03 3.697588294744491577e-02 4.807631950825452805e-03 -3.957945480942726135e-02 3.077721782028675079e-02 1.421453058719635010e-02 -3.733771294355392456e-02 9.149760007858276367e-03 -5.129932891577482224e-03 -5.689695477485656738e-03 2.977555058896541595e-02 -1.594214886426925659e-02 -1.425722055137157440e-02 1.554420311003923416e-02 -2.618391811847686768e-02 -7.064974866807460785e-03 1.049454137682914734e-02 -4.456828162074089050e-02 -1.250994764268398285e-02 2.717352658510208130e-02 -1.723418012261390686e-02 2.051497437059879303e-02 -2.183402702212333679e-02 1.352822314947843552e-02 9.508214890956878662e-03 1.938193477690219879e-02 -3.876889869570732117e-02 2.391330897808074951e-02 1.616367511451244354e-02 3.395970165729522705e-02 -1.696626283228397369e-02 -5.216953810304403305e-03 1.389155164361000061e-02 -1.334546413272619247e-02 1.141820661723613739e-02 3.510206565260887146e-02 3.967326600104570389e-03 -1.506153680384159088e-02 2.102958969771862030e-02 -1.461389567703008652e-02 -1.972096227109432220e-02 -6.862453650683164597e-03 -1.064857188612222672e-02 1.131637953221797943e-02 -5.155816208571195602e-03 1.270920690149068832e-02 2.840327098965644836e-02 2.140323817729949951e-02 -8.653074502944946289e-03 1.482197362929582596e-02 -4.284341353923082352e-03 3.888909937813878059e-03 1.765087246894836426e-02 1.817784458398818970e-02 -2.244098298251628876e-02 -4.715756978839635849e-03 -7.373990956693887711e-03 7.751643657684326172e-03 -6.320889107882976532e-03 4.652729257941246033e-03 -2.931093052029609680e-02 3.122661076486110687e-02 6.758540868759155273e-03 3.331632353365421295e-03 -2.510217577219009399e-02 4.915961530059576035e-03 -2.019167691469192505e-02 -1.696835830807685852e-02 2.918374538421630859e-02 1.966377720236778259e-02 -2.258451469242572784e-02 1.715989038348197937e-02 -2.302142977714538574e-02 3.158364817500114441e-02 -1.749185472726821899e-02 3.538991557434201241e-03 -2.675329707562923431e-02 -4.093189258128404617e-03 3.564556688070297241e-02 -2.545330487191677094e-02 -3.306996077299118042e-02 1.308189053088426590e-02 2.109560929238796234e-02 -9.590828791260719299e-03 2.295030979439616203e-03 7.608935120515525341e-04 -2.662905119359493256e-02 1.609947159886360168e-02 1.728476583957672119e-02 1.904254592955112457e-02 -7.260600687004625797e-04 -1.518120337277650833e-02 5.933081731200218201e-03 8.792814798653125763e-03 -1.119742821902036667e-02 3.159556165337562561e-02 6.897501181811094284e-03 7.428968325257301331e-03 4.669402167201042175e-02 2.151198532374110073e-05 -1.500289607793092728e-02 3.867548331618309021e-02 -1.518817618489265442e-02 3.202793421223759651e-03 1.251966040581464767e-02 2.846454735845327377e-03 8.869444951415061951e-03 7.993315346539020538e-03 -1.403647568076848984e-02 3.406873717904090881e-02 7.413271814584732056e-03 5.818137433379888535e-04 -3.428645804524421692e-02 1.072243601083755493e-02 -4.398410022258758545e-02 -3.521028533577919006e-02 1.587242819368839264e-02 -4.456577356904745102e-03 -1.655193604528903961e-02 -3.297002986073493958e-02 -1.632221415638923645e-02 -1.221237936988472939e-03 -8.797518908977508545e-03 -2.129947766661643982e-02 -1.889611594378948212e-02 1.780459098517894745e-02 -2.734428457915782928e-02 3.635656833648681641e-02 2.183706313371658325e-02 -8.286189287900924683e-03 2.319612912833690643e-02 3.051979094743728638e-02 5.057265050709247589e-03 7.197660161182284355e-04 -1.858271285891532898e-02 9.322995319962501526e-03 1.305097620934247971e-02 5.736262537539005280e-03 -1.677793450653553009e-02 4.036141559481620789e-02 -1.667279005050659180e-02 -2.320528030395507812e-02 2.617989201098680496e-03 9.271928109228610992e-03 -2.934489399194717407e-02 -3.761847689747810364e-02 7.019532844424247742e-03 -2.090141922235488892e-02 1.539308670908212662e-02 -1.166035421192646027e-03 -6.222103722393512726e-03 -9.376585367135703564e-04 -3.073560819029808044e-02 3.464228659868240356e-02 -2.749058790504932404e-02 2.493412001058459282e-03 3.955441992729902267e-03 -1.182312518358230591e-02 -4.972273949533700943e-03 1.859355345368385315e-02 -1.140851527452468872e-02 -6.327551789581775665e-03 -5.258540064096450806e-02 -2.281895838677883148e-03 -3.942614421248435974e-02 3.764469176530838013e-02 -1.322262641042470932e-02 1.379364077001810074e-02 -1.900175213813781738e-02 -5.593796260654926300e-03 6.376538425683975220e-03 2.636277861893177032e-02 2.094854833558201790e-03 -8.524228818714618683e-03 -4.500810056924819946e-03 -2.068718336522579193e-02 1.208623684942722321e-02 -2.942590042948722839e-02 3.864673897624015808e-03 1.229731738567352295e-02 -5.066390614956617355e-03 2.863654308021068573e-02
-1.793114840984344482e-02 -1.413062331266701221e-03 -6.244986783713102341e-03 -1.525864843279123306e-02 2.209174446761608124e-02 -1.959843747317790985e-02 1.009987853467464447e-02 3.656645538285374641e-03 1.535847899504005909e-03 1.902734115719795227e-02 -1.715809479355812073e-02 1.810796186327934265e-02 1.720601506531238556e-02 -1.623245305381715298e-03 -5.819146521389484406e-03 2.580463699996471405e-02 1.182840438559651375e-03 -3.513794764876365662e-02 2.281570434570312500e-02 -1.486582122743129730e-02 2.576507255434989929e-02 1.016581710427999496e-02 -1.766140945255756378e-02 2.117594704031944275e-02 -4.453154746443033218e-03 9.895334951579570770e-03 2.728797309100627899e-02 4.484976641833782196e-03 -4.396040365099906921e-02 4.243701230734586716e-03 -1.052553183399140835e-03 -5.316467024385929108e-03 -2.515038475394248962e-02 -4.905294044874608517e-04 4.968753084540367126e-03 -2.257046662271022797e-02 3.080115839838981628e-02 -2.372742444276809692e-02 -1.739254593849182129e-02 -1.229119021445512772e-02 5.838083103299140930e-03 -3.915782086551189423e-03 -1.954996027052402496e-02 -2.217008359730243683e-02 -2.236126922070980072e-02 -1.249863649718463421e-03 -1.038329768925905228e-02 2.648960798978805542e-02 2.475108206272125244e-02 -1.509735011495649815e-04 -5.753243807703256607e-03 -2.511284314095973969e-03 1.845376566052436829e-02 3.596187382936477661e-02 3.030323423445224762e-02 3.223652893211692572e-04 9.221126325428485870e-03 8.047088049352169037e-03 -6.066879723221063614e-03 -1.914898492395877838e-02 3.018884360790252686e-02 5.296392831951379776e-03 2.114350534975528717e-02 4.461613949388265610e-03 -1.484581083059310913e-02 1.401979662477970123e-02 -1.093640923500061035e-02 -8.956503123044967651e-03 -4.573615267872810364e-03 3.099607536569237709e-03 1.721915905363857746e-03 5.153487436473369598e-03 2.760844863951206207e-02 9.917027316987514496e-03 1.391986198723316193e-02 -6.557761225849390030e-03 2.334842085838317871e-02 2.068259939551353455e-02 -1.292437314987182617e-02 6.808260921388864517e-03 6.197442766278982162e-03 -7.275082170963287354e-03 -2.820948883891105652e-02 2.216579765081405640e-02 -1.268125488422811031e-03 1.959190145134925842e-02 3.192114178091287613e-03 -2.264224737882614136e-02 -5.381954833865165710e-03 -1.246158406138420105e-02 -2.492578141391277313e-02 -1.003621798008680344e-02 1.701437402516603470e-03 -1.640412956476211548e-02 1.506285928189754486e-02 1.047832518815994263e-02 -2.114402595907449722e-03 1.213721465319395065e-03 1.373874489217996597e-03 1.419292646460235119e-03 1.025569532066583633e-02 -1.119909156113862991e-02 2.461440162733197212e-03 -2.593814954161643982e-02 8.592297323048114777e-03 -1.556396391242742538e-02 -7.617376744747161865e-03 -5.528963636606931686e-03 -5.942735006101429462e-04 5.303462967276573181e-03 -1.182948891073465347e-02 1.083856541663408279e-02 4.427450709044933319e-03 3.354096040129661560e-02 -6.555862259119749069e-03 -3.329074475914239883e-03 -2.363573573529720306e-02 5.463803187012672424e-03 -1.662505045533180237e-02 -1.366467960178852081e-02 8.214931003749370575e-03 -6.168799009174108505e-03 -8.774803020060062408e-03 -5.683279596269130707e-03 1.129364781081676483e-02 -3.716574516147375107e-03 -1.313362270593643188e-02 -2.271774411201477051e-02 -6.307683419436216354e-03 -1.378601137548685074e-02 -1.586531288921833038e-03 8.139402605593204498e-03 -1.493487134575843811e-02 1.863733492791652679e-02 -1.845835521817207336e-02 -2.802302502095699310e-02 1.252083852887153625e-02 5.026533734053373337e-03 1.531585212796926498e-02 7.347330916672945023e-03 7.049784995615482330e-03 1.210881303995847702e-02 -2.282473258674144745e-02 1.208003377541899681e-03 2.157951891422271729e-02 -3.567908657714724541e-03 -7.223243825137615204e-03 -1.247303746640682220e-02 -1.378337666392326355e-02 3.082138113677501678e-02 1.900568604469299316e-03 -1.204831758514046669e-03 2.089160308241844177e-02 1.537627167999744415e-02 1.726328395307064056e-02 -1.463724207133054733e-02 1.334049832075834274e-02 1.993223652243614197e-02 -2.345736697316169739e-02 -1.590239629149436951e-02 1.967249251902103424e-02 -7.134076673537492752e-03 -2.995930844917893410e-03 3.317686915397644043e-02 1.377184060402214527e-03 -8.207425475120544434e-03 2.721701050177216530e-03 -7.972269318997859955e-03 -1.254334673285484314e-02 -1.275579165667295456e-02 4.100752266822382808e-05 -3.635755274444818497e-03 -1.597732305526733398e-02 1.180285122245550156e-02 1.984325237572193146e-03 -2.413541451096534729e-02 1.012588012963533401e-02 -1.043455395847558975e-02 -1.793576404452323914e-03 -1.649499870836734772e-02 8.324095979332923889e-03 4.636409357772208750e-05 5.382928997278213501e-03 -5.010468512773513794e-02 -4.901312757283449173e-03 -1.653483137488365173e-02 -3.119755722582340240e-02 1.735457032918930054e-02 8.065393194556236267e-03 -8.260273374617099762e-03 1.656152121722698212e-02 -3.940887283533811569e-03 3.320311382412910461e-02 2.075862698256969452e-02 6.849317811429500580e-03 -1.038035098463296890e-02 -1.700706034898757935e-02 3.096712986007332802e-03 -3.332069143652915955e-02 -1.166506321169435978e-03 5.446331109851598740e-03 -1.579875312745571136e-02 -2.787836827337741852e-03 5.642249016091227531e-04 3.638754785060882568e-02 9.731600992381572723e-03 7.854661904275417328e-03 1.138450810685753822e-03 -1.726641692221164703e-02 1.022106688469648361e-02 1.276486460119485855e-02 3.625777782872319221e-03 4.564006812870502472e-03 -1.223167590796947479e-02 -2.089379541575908661e-02 -8.648463524878025055e-03 -3.502008318901062012e-02 4.497607704252004623e-03 1.829358190298080444e-02 -1.227820571511983871e-02 1.412845030426979065e-02 8.790019899606704712e-03 9.567986242473125458e-03 -8.618550375103950500e-03 3.794554620981216431e-03 -3.953066654503345490e-03 -4.135371185839176178e-03 2.186287660151720047e-03 -2.070676535367965698e-03 4.946049768477678299e-03 3.044363297522068024e-02 1.500026416033506393e-02 -1.302937790751457214e-02 -9.338318370282649994e-03 1.153496000915765762e-02 -2.828496508300304413e-03 6.742658093571662903e-03 -7.215115707367658615e-03 3.075881861150264740e-02 -3.330554114654660225e-03 1.040328573435544968e-02 -3.911323379725217819e-03 2.619941718876361847e-03 -1.573653519153594971e-02 2.141081914305686951e-02 -4.073012247681617737e-02 1.519929058849811554e-02 2.993541210889816284e-02 2.072348870569840074e-04 -1.442114822566509247e-03 1.743733324110507965e-02 -1.577181275933980942e-03 2.025318332016468048e-03 2.301779575645923615e-02 -2.045588195323944092e-02 1.296956930309534073e-02
-1.067042350769042969e-02 -2.426087670028209686e-02 1.110393833369016647e-02 -6.472897250205278397e-03 1.887778751552104950e-03 2.715013397391885519e-04 -5.435030907392501831e-03 6.931625306606292725e-03 -5.461071617901325226e-03 -2.914930926635861397e-03 1.321123680099844933e-03 2.514587715268135071e-02 5.561689846217632294e-03 -8.594517596065998077e-03 -2.517271600663661957e-02 -5.109673365950584412e-03 -4.688146524131298065e-03 -1.785420317901298404e-04 -2.653430029749870300e-02 1.725811697542667389e-02 7.116384338587522507e-03 -1.288011018186807632e-02 3.446199232712388039e-03 -6.005070637911558151e-03 -1.231807470321655273e-02 -3.508468391373753548e-03 -9.224028326570987701e-03 -1.266886480152606964e-02 1.197745744138956070e-02 -5.203418433666229248e-03 -1.561071258038282394e-02 6.213524844497442245e-03 1.438712421804666519e-02 5.812427494674921036e-03 7.043833029456436634e-04 3.962016664445400238e-03 -7.666266988962888718e-03 -9.815840981900691986e-03 -1.828216388821601868e-02 1.465650089085102081e-02 8.049959316849708557e-03 -3.799022641032934189e-03 -1.104635070078074932e-03 5.492988042533397675e-03 5.216786637902259827e-03 -1.174659584648907185e-03 -5.635158158838748932e-03 8.726484142243862152e-03 -3.361250832676887512e-02 -1.584746316075325012e-02 9.273742325603961945e-03 1.502850092947483063e-02 -1.397780515253543854e-02 -7.005667779594659805e-03 2.569640986621379852e-03 2.259521558880805969e-02 8.021819405257701874e-03 -2.001128159463405609e-02 2.335448190569877625e-02 9.031509049236774445e-03 -1.916721276938915253e-02 -1.402102224528789520e-02 -1.083616074174642563e-02 -6.958062294870615005e-04 7.920359261333942413e-03 -1.462695561349391937e-02 2.044843323528766632e-02 -1.307098940014839172e-02 1.684817671775817871e-02 1.366396900266408920e-02 -1.972953416407108307e-02 -9.742921218276023865e-03 5.882124416530132294e-03 7.833199575543403625e-03 1.292416173964738846e-02 2.299649827182292938e-02 4.604821559041738510e-03 3.215743694454431534e-03 8.064639754593372345e-03 1.343544386327266693e-02 1.622790656983852386e-02 1.047881413251161575e-02 8.219160139560699463e-03 2.520663896575570107e-03 -8.995180018246173859e-03 -1.322464365512132645e-02 -1.588918385095894337e-03 1.663706498220562935e-03 4.125850275158882141e-03 -1.613620296120643616e-02 2.912333467975258827e-03 -5.633661057800054550e-03 -2.600287552922964096e-03 2.301738830283284187e-03 -2.492235973477363586e-02 2.772573195397853851e-02 -1.027207355946302414e-03 -3.572636051103472710e-03 -2.051651291549205780e-02 1.067255903035402298e-02 -8.603076450526714325e-03 1.196073833853006363e-02 4.193999047856777906e-04 6.239963229745626450e-03 -1.034318190068006516e-02 2.214343845844268799e-02 -1.149278972297906876e-02 -1.330249384045600891e-02 5.007303785532712936e-03 -1.405776757746934891e-02 -1.015399303287267685e-02 7.073092740029096603e-03 -2.364276349544525146e-02 -1.165382377803325653e-02 -2.302317507565021515e-02 1.452530082315206528e-02 -2.328066714107990265e-02 1.201462146127596498e-04 4.913800861686468124e-03 -4.048700444400310516e-03 2.135520614683628082e-02 7.039518095552921295e-03 -1.438901200890541077e-02 -4.952448420226573944e-03 -1.513235829770565033e-02 -6.412658840417861938e-03 -1.904376666061580181e-03 -1.211547991260886192e-03 5.524082109332084656e-03 1.271223369985818863e-02 -9.588066488504409790e-03 7.481012027710676193e-03 -1.175737753510475159e-02 5.934933666139841080e-03 -4.020077176392078400e-03 5.807186476886272430e-03 -1.682015694677829742e-02 -9.607587940990924835e-03 9.601887315511703491e-03 2.133542299270629883e-02 3.278404707089066505e-03 -1.327084284275770187e-02 1.742966473102569580e-02 6.308141630142927170e-03 -2.572702243924140930e-03 6.870278157293796539e-03 -8.001278154551982880e-03 -7.350603584200143814e-03 -8.417165838181972504e-03 -1.289841346442699432e-02 1.919134665513411164e-04 2.031870372593402863e-02 -2.940213307738304138e-03 -9.655907750129699707e-03 -1.327248942106962204e-02 -3.587665967643260956e-03 -1.453891955316066742e-02 7.779007777571678162e-03 -1.539171207696199417e-02 -4.059238824993371964e-03 -1.156397722661495209e-02 2.899307524785399437e-03 1.530746556818485260e-02 -1.675628684461116791e-02 -1.119526568800210953e-02 -9.689023718237876892e-04 3.058691509068012238e-02 7.451500277966260910e-03 -8.465840481221675873e-03 2.508640987798571587e-03 1.324187126010656357e-02 -2.870553405955433846e-03 1.593283191323280334e-02 7.953160442411899567e-03 3.446342190727591515e-03 7.837765850126743317e-03 1.266335695981979370e-02 -5.703701172024011612e-03 2.086738869547843933e-02 -1.887616701424121857e-03 -1.102512353099882603e-03 -9.243189357221126556e-03 1.977468607947230339e-03 -3.474533790722489357e-03 2.394242584705352783e-02 -1.497851125895977020e-02 -1.247524004429578781e-02 6.396485958248376846e-03 -5.632645916193723679e-04 -1.469844835810363293e-03 -7.412580307573080063e-03 1.763556897640228271e-02 -4.955936223268508911e-03 3.513138275593519211e-03 2.772836014628410339e-03 -1.605823449790477753e-02 1.521907543065026402e-04 1.513880677521228790e-03 -1.315143425017595291e-02 -2.276266552507877350e-02 1.498928759247064590e-02 1.039019133895635605e-02 1.542916428297758102e-02 -2.066398598253726959e-02 3.412493970245122910e-03 8.668245747685432434e-03 -5.707276519387960434e-03 -4.284943453967571259e-03 5.684256087988615036e-03 1.926323212683200836e-02 -2.120504854246973991e-03 9.787351824343204498e-03 9.060723707079887390e-03 2.065220288932323456e-02 -1.102560386061668396e-02 2.092223614454269409e-02 1.482215058058500290e-02 1.414278522133827209e-02 6.081507541239261627e-03 1.663706381805241108e-03 -5.486260168254375458e-03 -6.079386454075574875e-03 2.859523519873619080e-02 8.136836811900138855e-03 2.467945776879787445e-02 -2.110186964273452759e-02 8.855169638991355896e-03 3.749658167362213135e-02 -1.123620080761611462e-03 -3.883404715452343225e-04 1.246626488864421844e-02 7.949481718242168427e-03 -1.613175682723522186e-02 8.992834948003292084e-03 2.019741106778383255e-03 1.502218749374151230e-02 1.404146570712327957e-02 -8.927791379392147064e-03 -4.936780314892530441e-03 -1.301606371998786926e-02 -8.886297233402729034e-03 6.136726588010787964e-03 -4.422743804752826691e-03 2.212915383279323578e-02 1.520796772092580795e-02 -1.123655820265412331e-03 1.169074792414903641e-02 -3.220125101506710052e-03 1.989785814657807350e-03 -6.228279788047075272e-03 -5.863485392183065414e-03 -1.470305304974317551e-02 3.293413436040282249e-03 2.418743213638663292e-03 -1.881302148103713989e-02 -7.981903851032257080e-03
4.703882150352001190e-03 -2.610145136713981628e-03 2.132331021130084991e-02 -1.365231117233633995e-03 -9.402834810316562653e-03 1.473711524158716202e-02 -1.819342374801635742e-02 -2.455251291394233704e-02 -3.521394729614257812e-02 -1.241463050246238708e-02 2.310736663639545441e-02 -2.126074396073818207e-02 -1.465179212391376495e-02 -2.320493338629603386e-03 -1.270208135247230530e-02 7.954549044370651245e-03 -5.912719760090112686e-03 -2.422455325722694397e-02 -2.518965490162372589e-02 4.666084051132202148e-02 8.813682943582534790e-04 -2.365143038332462311e-02 -3.471682313829660416e-03 -6.185024511069059372e-03 7.276716132764704525e-06 -1.837110519409179688e-02 2.010757103562355042e-03 -3.442129353061318398e-03 3.708716481924057007e-03 -1.562986336648464203e-02 1.214209664613008499e-02 9.972362779080867767e-03 7.558898534625768661e-03 8.705562911927700043e-03 -7.190734613686800003e-03 -1.497352402657270432e-02 -1.097461907193064690e-03 3.516020253300666809e-02 2.267421036958694458e-02 7.130026351660490036e-03 1.005044858902692795e-02 1.755315996706485748e-02 1.646084274398162961e-04 6.218538037501275539e-04 3.489782568067312241e-03 -6.224216427654027939e-03 -7.873029448091983795e-03 -1.391409523785114288e-02 4.515130538493394852e-03 -3.101775050163269043e-02 -1.385962124913930893e-03 -6.381822749972343445e-03 -1.896404102444648743e-02 3.104243054986000061e-02 -1.312558259814977646e-02 1.954978324647527188e-05 -8.229653351008892059e-03 -3.246311331167817116e-03 1.456064824014902115e-02 -1.903170906007289886e-02 -1.319950446486473083e-02 3.595290705561637878e-02 -1.601566746830940247e-02 -2.069049142301082611e-02 -2.261644229292869568e-02 -3.136939555406570435e-02 3.634598851203918457e-02 2.267633751034736633e-02 9.880935540422797203e-04 7.240875624120235443e-03 2.567554078996181488e-02 4.674117546528577805e-03 2.580993168521672487e-04 3.839394776150584221e-03 -6.522639887407422066e-04 -1.926332595758140087e-03 -1.614267937839031219e-02 7.520653773099184036e-03 -1.372851314954459667e-03 -1.597826927900314331e-02 1.355834584683179855e-02 1.169308833777904510e-02 3.098344895988702774e-03 2.159279026091098785e-02 -1.025314093567430973e-03 1.511997310444712639e-03 9.485892369411885738e-04 7.964081130921840668e-03 1.201647915877401829e-03 6.725762505084276199e-03 7.836564444005489349e-03 7.097943685948848724e-03 -4.700240865349769592e-02 -2.128332294523715973e-02 -9.111817926168441772e-03 1.357047352939844131e-02 -2.309989742934703827e-02 1.989220967516303062e-03 -1.440605428069829941e-02 -1.054290868341922760e-02 1.717129349708557129e-02 1.233629975467920303e-02 1.563069596886634827e-02 1.567833125591278076e-02 -1.895135967060923576e-03 5.324461963027715683e-03 2.704555634409189224e-03 6.731346249580383301e-03 2.353469841182231903e-03 1.007968839257955551e-02 -2.135100308805704117e-03 -1.398775074630975723e-02 -7.996587082743644714e-03 -3.453184664249420166e-02 1.962428539991378784e-02 1.457288768142461777e-02 -3.293650969862937927e-02 2.345034666359424591e-02 1.234481669962406158e-02 -1.127171609550714493e-02 1.299021486192941666e-02 3.189369291067123413e-02 1.808509044349193573e-02 2.349842526018619537e-02 -1.910524815320968628e-02 1.638350449502468109e-02 7.948017679154872894e-03 -5.214026197791099548e-03 1.403641328215599060e-02 -6.086794659495353699e-03 2.406715601682662964e-02 5.308435764163732529e-03 -8.336588740348815918e-03 -2.232048660516738892e-03 2.987476764246821404e-03 -1.674899458885192871e-02 -2.830144204199314117e-02 -3.010318055748939514e-02 -1.313957292586565018e-02 1.740040071308612823e-02 4.240691661834716797e-03 -1.471741031855344772e-02 2.814474888145923615e-02 2.734220772981643677e-02 -1.416213810443878174e-02 -7.261646445840597153e-03 -7.670133840292692184e-03 2.115225233137607574e-02 -1.548866508528590202e-03 -1.774650625884532928e-02 -2.579074352979660034e-02 -1.685213670134544373e-02 1.142960973083972931e-03 1.115786843001842499e-02 -3.616223111748695374e-02 2.506226301193237305e-02 2.059937454760074615e-02 -2.687819674611091614e-02 -2.068438380956649780e-02 1.248286757618188858e-02 -3.041105344891548157e-03 -1.137826126068830490e-02 1.467184815555810928e-02 1.128912903368473053e-02 -1.471209898591041565e-02 -3.144704550504684448e-02 -3.056637942790985107e-03 1.105772517621517181e-02 8.619528263807296753e-03 6.531915627419948578e-03 -8.805597200989723206e-03 -8.496353402733802795e-03 -1.420937571674585342e-02 8.241698145866394043e-03 1.826014742255210876e-02 1.642565988004207611e-02 3.229555487632751465e-02 -8.225045166909694672e-03 6.365374196320772171e-03 -9.771167300641536713e-03 1.977007091045379639e-02 6.851988378912210464e-03 3.319527721032500267e-03 1.553871697979047894e-04 9.513030759990215302e-03 -8.911122567951679230e-03 1.340402942150831223e-02 6.877610459923744202e-03 -2.296344377100467682e-02 -3.711718134582042694e-03 -7.861526682972908020e-03 -1.276251208037137985e-02 1.722576795145869255e-03 -1.033424679189920425e-02 -1.559830270707607269e-02 -2.276667021214962006e-02 4.103075712919235229e-02 -2.232225611805915833e-03 6.930577568709850311e-03 6.909044459462165833e-03 7.969406433403491974e-03 1.728135161101818085e-02 1.058416441082954407e-02 -3.678480628877878189e-03 -1.241050101816654205e-02 -3.132306039333343506e-03 2.342127822339534760e-02 4.899503197520971298e-03 2.195983938872814178e-02 -2.854076959192752838e-02 9.674008004367351532e-03 -5.074201151728630066e-03 -1.392914634197950363e-02 1.118427421897649765e-02 1.949418336153030396e-02 2.539712004363536835e-03 1.084283180534839630e-02 2.524993382394313812e-02 1.091658417135477066e-02 -1.736012659966945648e-02 -1.239626668393611908e-02 -1.805120706558227539e-02 -1.250415854156017303e-02 1.491987053304910660e-02 -3.853636095300316811e-03 1.358190272003412247e-02 -9.255095385015010834e-03 1.977520808577537537e-02 -1.579363830387592316e-02 3.600063920021057129e-02 -1.590760983526706696e-02 3.767402842640876770e-02 -6.532653700560331345e-03 -1.657437416724860668e-03 2.873997982533182949e-05 -1.521272398531436920e-02 -4.492723848670721054e-03 -4.094319418072700500e-03 -2.035434357821941376e-02 1.229341141879558563e-02 -1.008189283311367035e-02 3.779723541811108589e-03 -3.352073207497596741e-02 7.134182378649711609e-03 3.502091858536005020e-03 1.839862763881683350e-02 -8.619629777967929840e-03 1.733265933580696583e-03 -5.276806652545928955e-03 -8.748407708480954170e-04 4.820925183594226837e-03 -1.542611885815858841e-02 -1.741718128323554993e-02 7.984078838489949703e-04 -8.626406081020832062e-03 1.363540068268775940e-02
-8.192760869860649109e-03 1.631898246705532074e-02 1.415282208472490311e-02 -3.331889212131500244e-02 -6.338348612189292908e-03 -3.909579943865537643e-03 -2.262217225506901741e-03 2.685743570327758789e-02 -1.595711894333362579e-02 1.045621559023857117e-02 -1.036186702549457550e-02 1.288943085819482803e-02 -7.663741707801818848e-03 7.775028236210346222e-03 -1.763787679374217987e-02 2.092749625444412231e-02 2.192519232630729675e-02 -3.876370145007967949e-03 -5.714987404644489288e-03 -4.216550383716821671e-03 1.759575121104717255e-02 9.878989309072494507e-03 -1.228276360780000687e-02 2.929068170487880707e-03 -1.669428660534322262e-03 -2.123258635401725769e-02 -1.185286417603492737e-02 9.349576197564601898e-03 -2.013773098587989807e-02 -2.595691941678524017e-02 1.269299816340208054e-02 1.908123376779258251e-03 -1.803715899586677551e-02 1.335880439728498459e-02 -2.002435177564620972e-02 -8.651030249893665314e-03 1.480927783995866776e-02 -1.402308698743581772e-02 -3.886965336278080940e-03 3.195624053478240967e-02 5.481934174895286560e-03 -1.201590895652770996e-02 -1.351693179458379745e-02 1.245732535608112812e-03 1.868815720081329346e-02 1.791011728346347809e-02 -3.820832073688507080e-02 5.994215141981840134e-03 -2.310976386070251465e-02 -4.313471168279647827e-02 -1.658415421843528748e-02 -1.075242616934701800e-04 -1.084466651082038879e-02 -1.921471208333969116e-02 9.114474058151245117e-03 -3.683872520923614502e-03 -5.995197221636772156e-03 -9.176612831652164459e-03 2.941638976335525513e-02 4.138569161295890808e-02 2.614727430045604706e-02 1.736467704176902771e-02 5.101857706904411316e-03 -1.040739566087722778e-02 1.569425687193870544e-02 2.743190713226795197e-02 1.005303766578435898e-02 1.662264019250869751e-02 7.099215406924486160e-03 -6.839256733655929565e-03 6.520645227283239365e-03 8.111656643450260162e-03 2.906090347096323967e-03 1.623444259166717529e-02 -1.029372774064540863e-02 7.540467660874128342e-03 -1.280064601451158524e-02 -6.174056907184422016e-04 -1.619619899429380894e-03 -1.324328873306512833e-02 4.566932097077369690e-03 5.265536718070507050e-03 -7.308753672987222672e-03 -2.855280786752700806e-02 -1.628137007355690002e-02 1.889517903327941895e-02 5.655391607433557510e-03 2.416034694761037827e-03 6.247638724744319916e-03 3.049548715353012085e-02 -9.479828295297920704e-04 -2.050318568944931030e-02 7.590243127197027206e-03 -1.150911021977663040e-02 1.168850343674421310e-02 -3.787667024880647659e-03 2.732253260910511017e-02 -4.434501379728317261e-02 -7.935901172459125519e-03 -4.828992299735546112e-03 2.556076273322105408e-02 -2.341799065470695496e-02 1.625451259315013885e-02 1.748648844659328461e-02 1.218555960804224014e-02 -9.783555753529071808e-03 1.042846124619245529e-02 2.792599238455295563e-02 1.499920990318059921e-02 -1.090437453240156174e-02 -3.207064466550946236e-03 -2.642222121357917786e-02 -3.284064307808876038e-02 1.001517474651336670e-02 -9.392421692609786987e-03 1.132831070572137833e-02 2.676639705896377563e-03 -2.507735416293144226e-02 -3.404829651117324829e-02 1.521679293364286423e-02 -2.109568566083908081e-02 2.016697824001312256e-02 -1.359869167208671570e-02 -9.627087041735649109e-03 1.893807202577590942e-02 -2.003079978749155998e-03 -1.782369986176490784e-02 2.972437068819999695e-03 3.565938770771026611e-02 -6.953704636543989182e-03 2.642952837049961090e-02 -2.083026990294456482e-02 -2.404648065567016602e-02 -1.878524757921695709e-02 -1.171420421451330185e-02 -1.910808123648166656e-02 -1.502293348312377930e-02 -1.022616028785705566e-02 1.207920163869857788e-02 -3.587411716580390930e-02 -1.598459854722023010e-02 6.655192468315362930e-03 -1.994146034121513367e-02 -6.733497721143066883e-04 1.460952684283256531e-02 -2.458483725786209106e-02 -1.991472207009792328e-02 1.291122194379568100e-02 3.790448978543281555e-02 -1.998066529631614685e-02 3.357382491230964661e-03 -1.910921931266784668e-02 -1.115607004612684250e-02 -1.719966903328895569e-02 1.514727156609296799e-02 -8.283621631562709808e-03 -1.141388900578022003e-02 -3.241817175876349211e-04 -3.010220360010862350e-03 3.459996776655316353e-03 -4.044377245008945465e-03 -2.247205562889575958e-02 1.188388932496309280e-02 -1.268718577921390533e-02 -1.851457986049354076e-03 3.617313131690025330e-02 2.732945978641510010e-02 1.188537571579217911e-03 1.666820840910077095e-03 -2.180356346070766449e-02 -1.685951487161219120e-03 -1.117884274572134018e-02 -3.215755149722099304e-02 -8.315967395901679993e-03 -2.376952767372131348e-02 -4.882758948951959610e-03 -1.870659738779067993e-02 -8.176115341484546661e-03 1.420598663389682770e-02 5.212322343140840530e-03 -2.182387001812458038e-02 -5.655778106302022934e-03 3.330376930534839630e-04 -3.051511570811271667e-02 -1.152358297258615494e-02 8.277611806988716125e-03 1.310309022665023804e-02 -3.854820679407566786e-04 1.644870848394930363e-03 3.534991992637515068e-03 2.246981859207153320e-02 -1.149973925203084946e-02 -6.595706101506948471e-03 3.437603591009974480e-03 -6.213931832462549210e-03 -2.286611311137676239e-02 -1.112012565135955811e-02 -2.163310069590806961e-03 -1.140226796269416809e-02 -1.267237588763237000e-02 2.055848017334938049e-02 -2.062094630673527718e-03 -6.873634643852710724e-03 -9.241126477718353271e-03 1.524682505987584591e-03 -2.061561495065689087e-02 1.221367716789245605e-02 -6.209888029843568802e-03 9.635186754167079926e-03 -2.106985449790954590e-02 3.187569230794906616e-02 -8.172703906893730164e-03 2.478695474565029144e-02 2.445224963594228029e-04 8.991560898721218109e-03 3.921179100871086121e-03 -9.913183748722076416e-03 -1.179685350507497787e-02 -2.179331704974174500e-02 1.391165610402822495e-02 -2.549111610278487206e-03 2.746598236262798309e-02 -3.957674838602542877e-03 1.524279545992612839e-02 -8.904724381864070892e-03 3.676604107022285461e-02 2.208998054265975952e-02 2.344429865479469299e-02 1.829371787607669830e-02 -3.616857575252652168e-03 -5.511949770152568817e-03 1.233085896819829941e-02 2.026263246079906821e-04 2.001075632870197296e-02 2.045613015070557594e-03 -2.914688549935817719e-02 -1.789201237261295319e-02 9.006646461784839630e-03 1.051605306565761566e-02 5.681685172021389008e-03 2.739998884499073029e-02 -8.071628399193286896e-03 2.264978736639022827e-02 -6.501500494778156281e-03 -5.100305192172527313e-03 2.254834957420825958e-02 5.549232009798288345e-03 5.566474981606006622e-03 4.005338624119758606e-02 1.738586463034152985e-02 -1.104453392326831818e-02 -7.129646837711334229e-03 2.434209734201431274e-02 1.260019466280937195e-02 2.109866775572299957e-02 -1.628948189318180084e-02
2.198045700788497925e-02 2.284681424498558044e-02 1.826435886323451996e-02 -1.268322020769119263e-02 -1.590325497090816498e-02 1.425953675061464310e-02 -3.156757354736328125e-02 -9.498004801571369171e-03 -1.661032065749168396e-02 2.513980865478515625e-02 1.148987002670764923e-02 -1.523298863321542740e-02 -2.075080294162034988e-03 8.043056353926658630e-03 -1.074029318988323212e-02 -2.386422455310821533e-02 8.866464719176292419e-03 1.226776000112295151e-02 -5.015727598220109940e-03 1.084382180124521255e-02 8.254624903202056885e-03 -1.579705812036991119e-02 3.065764904022216797e-03 -6.192822474986314774e-03 -6.757366005331277847e-03 -7.596871349960565567e-03 -2.592338249087333679e-02 1.817279495298862457e-02 1.652912935242056847e-03 1.052937284111976624e-02 -5.095507483929395676e-03 1.911783218383789062e-02 -5.115490872412919998e-03 -7.352952379733324051e-03 -1.516230683773756027e-02 3.980705980211496353e-03 -1.229079440236091614e-02 -7.729698903858661652e-03 2.369521185755729675e-03 2.361174300312995911e-02 -1.840061321854591370e-02 -5.702894181013107300e-03 2.038170956075191498e-02 -5.665557924658060074e-03 1.287048310041427612e-02 3.584925085306167603e-03 -1.215911004692316055e-02 -1.072798948734998703e-02 -2.541497536003589630e-02 -1.077679544687271118e-02 2.556871331762522459e-04 -1.997286081314086914e-02 -2.925065718591213226e-02 -1.823074929416179657e-02 -3.061242401599884033e-02 -3.286404535174369812e-03 -1.085247099399566650e-02 -5.748652853071689606e-03 2.841383777558803558e-02 1.711341179907321930e-02 -6.169275846332311630e-03 1.350160688161849976e-02 -1.389561034739017487e-02 -1.836289837956428528e-02 4.165482241660356522e-03 -2.989020664244890213e-03 -3.780506784096360207e-03 9.178659878671169281e-03 1.796688325703144073e-02 -2.123146504163742065e-02 2.642199769616127014e-02 3.215741133317351341e-03 1.701084111118689179e-04 5.467653274536132812e-03 7.302200887352228165e-03 1.258859969675540924e-02 -3.129631280899047852e-02 -1.328853145241737366e-02 1.141364313662052155e-02 2.865548012778162956e-03 -1.481050532311201096e-02 -3.673636121675372124e-03 1.964630791917443275e-03 -2.534289471805095673e-02 -3.919498994946479797e-03 6.556968204677104950e-03 -1.568497531116008759e-02 5.708030425012111664e-03 -3.526450321078300476e-02 2.790944837033748627e-02 -4.366163630038499832e-03 -2.006858959794044495e-02 -1.133654359728097916e-02 -6.910797674208879471e-03 -1.623178832232952118e-02 2.977599855512380600e-03 1.527266204357147217e-02 -1.038565672934055328e-02 -7.516684709116816521e-04 -1.279110275208950043e-02 -2.307629911229014397e-03 -6.155867129564285278e-03 6.412994582206010818e-03 1.239300053566694260e-02 3.559516509994864464e-03 6.244733929634094238e-03 3.276059404015541077e-02 3.433076292276382446e-02 -2.929578768089413643e-03 6.287015508860349655e-03 7.807870861142873764e-03 -7.658420130610466003e-03 -2.742167375981807709e-02 -1.615358702838420868e-02 1.113498583436012268e-02 6.858283188194036484e-03 -3.939257469028234482e-03 -1.756250299513339996e-02 -7.608808111399412155e-03 1.315400842577219009e-02 -1.986228488385677338e-02 2.060102531686425209e-03 -1.768312230706214905e-02 -1.222667843103408813e-02 4.217273741960525513e-02 3.254502313211560249e-03 -6.408819928765296936e-03 1.232992298901081085e-02 1.586539298295974731e-02 -1.423022523522377014e-02 5.415559746325016022e-03 2.864117850549519062e-04 9.088781662285327911e-03 -2.836317569017410278e-02 -7.537025958299636841e-04 7.142021320760250092e-03 -2.881793491542339325e-02 -1.260126009583473206e-02 2.098100818693637848e-02 -7.641837000846862793e-03 2.032376942224800587e-04 -2.066833898425102234e-02 -6.977601442486047745e-03 -1.364919729530811310e-02 -1.769247930496931076e-03 1.938701234757900238e-02 -1.223089825361967087e-02 2.974417060613632202e-03 3.738070372492074966e-03 8.800702169537544250e-03 -3.020250704139471054e-03 -1.319019310176372528e-02 4.754744004458189011e-03 -8.706659078598022461e-03 -2.358984388411045074e-02 6.846106611192226410e-03 1.556873437948524952e-03 2.139326371252536774e-02 2.308276854455471039e-02 3.747179638594388962e-03 -1.035114843398332596e-02 -2.123834751546382904e-02 3.297044895589351654e-03 -1.430682651698589325e-02 -6.525014992803335190e-03 -2.175465226173400879e-02 1.301482785493135452e-02 -2.284629084169864655e-02 7.713734637945890427e-03 1.726892217993736267e-02 -7.581884041428565979e-03 2.119383960962295532e-02 6.625493522733449936e-03 7.351149106398224831e-04 -1.821579970419406891e-02 1.886982284486293793e-02 3.224151674658060074e-03 1.067398115992546082e-02 1.384732685983181000e-02 4.718185868114233017e-03 -1.064197625964879990e-02 -1.039905939251184464e-02 1.341927517205476761e-02 3.068476170301437378e-02 8.417780511081218719e-03 4.300705331843346357e-04 1.792209967970848083e-02 -3.539151977747678757e-03 1.076188217848539352e-02 9.856600314378738403e-03 -1.277312822639942169e-02 -2.021195739507675171e-02 -1.984847895801067352e-02 3.021359909325838089e-03 -9.367569349706172943e-03 4.943630192428827286e-03 -2.108321990817785263e-03 -7.160711567848920822e-03 1.210599485784769058e-02 -3.740056650713086128e-03 -4.321225918829441071e-03 -1.974383741617202759e-02 2.750839572399854660e-03 -1.483600493520498276e-02 4.110852256417274475e-03 -1.067210920155048370e-02 1.043052785098552704e-02 -8.415347896516323090e-03 2.798683010041713715e-02 -2.340660244226455688e-02 4.301718249917030334e-02 1.032699085772037506e-02 -8.437634445726871490e-03 2.362785302102565765e-02 3.392137214541435242e-02 -9.716422297060489655e-03 -1.687698066234588623e-03 1.485809870064258575e-02 -1.545894704759120941e-02 -9.949908591806888580e-03 1.334246620535850525e-02 2.223236858844757080e-02 -8.666306734085083008e-03 1.846551545895636082e-03 -1.166703645139932632e-02 5.566842388361692429e-03 1.875874237157404423e-03 3.587917238473892212e-02 -4.229219630360603333e-04 -3.059990331530570984e-02 4.175843205302953720e-03 -1.371778827160596848e-02 -2.928148605860769749e-04 2.502824412658810616e-03 -1.116427686065435410e-02 -1.281891763210296631e-02 -9.133777581155300140e-03 3.241211641579866409e-03 -2.034887904301285744e-03 1.017036009579896927e-02 -1.388616673648357391e-02 -3.423727350309491158e-03 -7.839509285986423492e-03 2.194696664810180664e-02 1.552932616323232651e-02 1.908677630126476288e-02 -3.848759923130273819e-03 2.287286520004272461e-02 6.224755779840052128e-04 -1.650923863053321838e-03 -1.195104885846376419e-02 -3.948811069130897522e-02 2.004884369671344757e-02 2.555466955527663231e-03 5.468943621963262558e-03 -8.833092637360095978e-03
-1.224294211715459824e-02 -9.926116093993186951e-03 -2.461442723870277405e-02 -8.539201691746711731e-03 2.208501473069190979e-02 -1.351262559182941914e-03 -5.108277499675750732e-02 3.190898895263671875e-02 -2.261494658887386322e-02 2.312394324690103531e-03 -2.019378170371055603e-02 -1.888882741332054138e-02 -3.274482116103172302e-02 3.437680006027221680e-02 -2.038290165364742279e-02 5.978527478873729706e-03 1.034633163362741470e-02 3.733630292117595673e-03 -5.363307427614927292e-04 -1.955901458859443665e-02 1.137342490255832672e-02 1.748515665531158447e-02 -8.959490805864334106e-03 1.233139727264642715e-02 -1.243664999492466450e-03 -9.079763665795326233e-03 -4.795253742486238480e-03 1.677393913269042969e-02 2.478262037038803101e-02 -1.789401285350322723e-02 1.850313507020473480e-02 4.124636575579643250e-02 3.917296230792999268e-02 1.861995644867420197e-02 -1.757591590285301208e-02 -3.560879826545715332e-02 2.540463209152221680e-02 -6.439366843551397324e-03 -1.858979091048240662e-02 5.047253891825675964e-02 9.712691418826580048e-03 1.207655388861894608e-02 1.336472015827894211e-02 -2.384812396485358477e-04 1.450500078499317169e-02 -2.022065455093979836e-03 -4.971437156200408936e-02 9.532497264444828033e-03 -2.027254179120063782e-02 3.991103265434503555e-03 -6.061077147023752332e-05 1.005539484322071075e-02 -1.193526946008205414e-02 -9.783354587852954865e-03 -5.159829743206501007e-03 2.145889773964881897e-02 -7.183216512203216553e-03 3.244680119678378105e-03 3.353011608123779297e-02 2.016709558665752411e-02 2.092868089675903320e-02 6.483061239123344421e-03 -2.140908315777778625e-02 1.787956058979034424e-02 3.011922910809516907e-02 1.952641643583774567e-02 -2.964226529002189636e-03 1.812752708792686462e-02 -3.848909400403499603e-03 -1.725477911531925201e-02 -1.801586942747235298e-03 4.366420675069093704e-03 3.210197389125823975e-02 -6.524650380015373230e-03 1.160226389765739441e-02 3.053907677531242371e-02 -1.323667634278535843e-02 -2.336717583239078522e-02 -4.609121009707450867e-02 1.995729282498359680e-02 5.514127202332019806e-03 -4.623581189662218094e-03 -3.567898645997047424e-03 -6.358471699059009552e-03 -2.632565610110759735e-02 4.078122973442077637e-02 -2.614948712289333344e-02 3.974923864006996155e-02 1.719214208424091339e-02 2.094953879714012146e-02 -3.032007068395614624e-02 -8.257326669991016388e-03 3.016312047839164734e-02 -1.414516707882285118e-03 -2.746240049600601196e-02 2.921907417476177216e-02 2.252296172082424164e-02 -2.442157268524169922e-02 1.126745599322021008e-03 -2.048264443874359131e-02 -7.950651459395885468e-03 -2.660824544727802277e-02 1.125951856374740601e-02 2.336711622774600983e-02 3.098524548113346100e-02 1.248643919825553894e-02 2.594777569174766541e-02 6.439619231969118118e-03 4.006282688351348042e-05 -1.776155829429626465e-02 -1.825966499745845795e-02 -9.289029054343700409e-03 -6.896386388689279556e-03 -2.305606752634048462e-02 7.394033484160900116e-03 -3.333793953061103821e-02 4.052275326102972031e-03 -3.995268139988183975e-03 -1.161396782845258713e-02 3.747992590069770813e-02 -3.191516175866127014e-02 -1.324384589679539204e-03 -1.902695372700691223e-02 -9.130251593887805939e-03 -1.421906333416700363e-02 4.799985908903181553e-04 -4.201471165288239717e-04 -1.563679054379463196e-02 3.555504977703094482e-02 -2.387991361320018768e-02 -1.817560987547039986e-03 5.771306809037923813e-03 -4.706579819321632385e-02 -1.330086030066013336e-02 -2.569316700100898743e-02 -3.550039976835250854e-02 -3.239605948328971863e-02 -2.259719371795654297e-02 1.725517772138118744e-02 3.082990087568759918e-02 2.254091762006282806e-02 5.429667886346578598e-03 -1.356773823499679565e-02 1.369880139827728271e-02 1.009057741612195969e-02 -1.517630182206630707e-03 -1.321351062506437302e-02 1.346817892044782639e-02 6.610739510506391525e-04 -1.331645622849464417e-02 -1.490599289536476135e-02 -2.050060080364346504e-03 3.905701451003551483e-04 -8.411688730120658875e-03 1.704534702003002167e-02 3.889018436893820763e-03 -1.755344867706298828e-02 4.286643583327531815e-03 2.250807359814643860e-02 -7.055096793919801712e-03 8.343119174242019653e-03 4.375924542546272278e-02 7.626985199749469757e-03 -5.058943759649991989e-03 3.033837536349892616e-03 3.072011657059192657e-02 1.147036161273717880e-02 -2.757084742188453674e-02 -3.890199586749076843e-03 6.624187808483839035e-03 -1.324740611016750336e-02 -6.715689785778522491e-03 -7.288414053618907928e-03 3.177433460950851440e-02 -1.831944100558757782e-02 -1.506630145013332367e-02 -7.920361123979091644e-03 -1.774245989508926868e-03 -9.956441819667816162e-03 1.665703766047954559e-02 -2.765711024403572083e-02 -2.095840498805046082e-02 -3.513482958078384399e-02 -1.526003424078226089e-02 1.470041275024414062e-02 1.607547700405120850e-02 -5.185382440686225891e-03 -3.267401596531271935e-03 -1.295382995158433914e-02 -2.558759599924087524e-02 -8.540504612028598785e-03 -6.963559426367282867e-03 -1.808886788785457611e-02 -1.770238764584064484e-02 1.421528402715921402e-02 -3.294243477284908295e-03 -4.169974476099014282e-03 -1.711791008710861206e-02 9.389613755047321320e-03 1.809930615127086639e-02 -2.402023412287235260e-02 1.318716444075107574e-03 1.345656625926494598e-02 2.651249989867210388e-03 6.371201947331428528e-03 -4.185154661536216736e-02 1.629242487251758575e-02 -7.454154547303915024e-03 4.218395333737134933e-03 3.725971095263957977e-03 2.533796988427639008e-02 -9.324211627244949341e-03 8.597395382821559906e-03 3.710117936134338379e-02 -2.404705155640840530e-03 1.759113860316574574e-03 4.544944688677787781e-02 -2.117519825696945190e-02 1.601453870534896851e-02 -7.911254651844501495e-03 3.279987722635269165e-03 2.613228000700473785e-02 1.667046733200550079e-02 2.063419856131076813e-02 -1.514980196952819824e-02 4.003853723406791687e-02 3.237544000148773193e-02 -6.835125386714935303e-03 1.728187128901481628e-02 3.464721515774726868e-02 4.068710841238498688e-03 -1.345712505280971527e-02 1.133649703115224838e-02 4.447969049215316772e-02 1.056474912911653519e-02 -2.473361976444721222e-02 -1.623976603150367737e-02 1.226398162543773651e-03 -1.376391667872667313e-02 8.352938108146190643e-03 -2.793779363855719566e-03 6.222758442163467407e-03 1.263752672821283340e-02 1.957657746970653534e-02 -4.385933652520179749e-02 1.324331760406494141e-02 -4.755504801869392395e-02 -9.577147662639617920e-03 4.007672518491744995e-02 -8.669277653098106384e-03 1.064500678330659866e-02 -8.639888255856931210e-04 -2.096987701952457428e-02 1.780373230576515198e-02 -1.751320553012192249e-03 -9.510557167232036591e-03
-9.946462698280811310e-03 -7.535471377195790410e-05 4.325226880609989166e-03 -1.396349444985389709e-02 3.199760569259524345e-03 6.736867595463991165e-03 -6.277540698647499084e-03 8.992696180939674377e-03 -8.055860176682472229e-03 -3.321048617362976074e-02 2.019494771957397461e-02 3.322553820908069611e-04 -3.992234996985644102e-04 6.505134515464305878e-03 -1.711458899080753326e-02 5.715606268495321274e-03 1.257333811372518539e-02 6.074113305658102036e-03 -5.161137785762548447e-03 -1.184982992708683014e-02 -2.236503409221768379e-03 2.911913208663463593e-02 -1.258026575669646263e-03 8.660803548991680145e-03 3.602538257837295532e-02 -1.265664119273424149e-02 1.457458268851041794e-02 -5.477021913975477219e-03 -1.270948164165019989e-02 -5.074723158031702042e-03 -4.085569642484188080e-03 -2.527027018368244171e-02 -1.140185724943876266e-02 -1.728874514810740948e-03 -3.737190365791320801e-02 -2.079240046441555023e-02 2.821282669901847839e-02 -1.543824002146720886e-02 6.987876258790493011e-03 5.970224738121032715e-03 1.363527588546276093e-02 -3.133430378511548042e-03 1.447114627808332443e-02 4.088283516466617584e-03 1.739660836756229401e-02 -7.950540632009506226e-03 -3.187144547700881958e-02 1.076411455869674683e-03 1.667543686926364899e-02 -2.690283115953207016e-03 1.018645614385604858e-02 2.117888815701007843e-02 -1.858215034008026123e-02 2.807141654193401337e-02 2.290857210755348206e-02 5.510766059160232544e-03 1.709603704512119293e-02 1.196422893553972244e-02 2.943561703432351351e-04 -2.049331320449709892e-03 6.230624392628669739e-03 -1.380964741110801697e-02 -1.932911388576030731e-02 1.459834864363074303e-03 -8.881104178726673126e-03 4.208916332572698593e-03 1.599819771945476532e-02 1.056320220232009888e-02 -1.501856558024883270e-02 1.688451878726482391e-02 2.407807391136884689e-03 -1.857968629337847233e-03 2.201965823769569397e-02 1.564141735434532166e-02 3.310882952064275742e-03 1.940745674073696136e-02 -3.183046355843544006e-03 7.759868167340755463e-03 -3.682798519730567932e-02 -9.768011048436164856e-03 3.103478066623210907e-02 1.501288358122110367e-02 -9.987688623368740082e-03 1.724686287343502045e-02 7.334912195801734924e-03 8.281367830932140350e-03 2.025409974157810211e-02 -5.285594146698713303e-03 5.503491032868623734e-03 -1.712151244282722473e-02 -9.920393349602818489e-04 -5.362949334084987640e-03 -2.526364102959632874e-02 -1.359177846461534500e-02 2.992814872413873672e-03 1.837882585823535919e-02 1.140134036540985107e-02 1.980446465313434601e-02 6.522081792354583740e-03 2.234850265085697174e-02 -4.700091201812028885e-03 1.503492705523967743e-02 -1.325547695159912109e-02 5.186123773455619812e-03 -7.923950761323794723e-05 -1.078557502478361130e-02 2.995678223669528961e-02 -1.430309563875198364e-02 -1.741834916174411774e-02 5.601229495368897915e-04 -3.919329866766929626e-02 -1.214067079126834869e-02 -1.123262383043766022e-02 2.809436805546283722e-02 4.979450255632400513e-03 1.624365523457527161e-02 -1.367532089352607727e-02 2.155224047601222992e-02 -1.825849898159503937e-02 1.511149201542139053e-02 -2.582222595810890198e-02 1.564314588904380798e-02 -1.327347010374069214e-02 -3.113032551482319832e-03 -6.703380960971117020e-03 1.282502338290214539e-02 6.800920236855745316e-03 2.630690298974514008e-02 -7.914104498922824860e-03 -1.754516735672950745e-02 2.976439427584409714e-03 1.960155926644802094e-02 -2.597866207361221313e-02 1.057391054928302765e-02 -2.660159021615982056e-03 -2.887771837413311005e-02 -1.307546067982912064e-02 -1.665372774004936218e-02 7.758078631013631821e-03 1.126903295516967773e-02 -5.174249876290559769e-03 -3.413618309423327446e-03 7.568438071757555008e-03 4.370086360722780228e-03 2.847549319267272949e-02 3.440011525526642799e-03 -5.629797466099262238e-03 6.986218504607677460e-03 1.986254751682281494e-02 -1.821569725871086121e-02 -9.335732087492942810e-03 1.961362361907958984e-02 1.434911973774433136e-02 -7.282447186298668385e-04 2.311992831528186798e-02 7.523030973970890045e-03 -3.827525652013719082e-04 1.728828251361846924e-02 -1.656445115804672241e-02 -7.627680432051420212e-03 2.460230141878128052e-02 1.823046244680881500e-02 -3.422882000450044870e-04 7.217823527753353119e-03 -1.620123535394668579e-02 -1.741984626278281212e-03 -1.539853774011135101e-02 -7.675043307244777679e-04 1.959006488323211670e-02 -4.324758891016244888e-03 -5.127059295773506165e-03 -1.065015234053134918e-02 -1.807706803083419800e-02 1.757313497364521027e-02 -6.455042603192850947e-05 -1.614777371287345886e-02 9.346911683678627014e-03 1.075549889355897903e-02 3.736291080713272095e-03 -1.324888505041599274e-02 -1.314604375511407852e-02 2.924372209236025810e-03 5.112459417432546616e-03 -4.283776506781578064e-03 -2.210975857451558113e-03 1.782165281474590302e-02 -7.613193709403276443e-03 2.010430581867694855e-02 -3.161477670073509216e-02 -2.867550216615200043e-02 1.027731038630008698e-02 -4.813394625671207905e-04 1.015481725335121155e-02 -1.451285835355520248e-02 1.234823372215032578e-02 -5.879524163901805878e-03 -5.294837523251771927e-03 2.817020937800407410e-02 1.831253804266452789e-02 1.127913873642683029e-02 -1.679672673344612122e-02 -7.247217930853366852e-03 -8.913365192711353302e-03 1.771678589284420013e-02 -1.541021163575351238e-03 -1.698367483913898468e-02 -7.383711170405149460e-03 7.550578564405441284e-03 -6.869107950478792191e-03 -1.565608382225036621e-02 -1.737028174102306366e-02 1.433450728654861450e-03 2.183453645557165146e-03 -5.241675302386283875e-03 -1.011675689369440079e-02 -2.285270253196358681e-03 2.433267980813980103e-02 2.375025069341063499e-03 -1.195722725242376328e-02 7.755804341286420822e-03 8.102334104478359222e-03 -1.073244377039372921e-03 3.065293189138174057e-03 1.873196288943290710e-02 1.968982256948947906e-02 9.896736592054367065e-03 2.320132777094841003e-02 -1.144033670425415039e-02 -2.348644286394119263e-02 2.638814598321914673e-02 1.021028589457273483e-02 1.057082600891590118e-02 8.202102966606616974e-03 2.615088410675525665e-02 2.528213150799274445e-02 -1.947583258152008057e-02 -1.772168464958667755e-02 2.243537083268165588e-02 -8.203029632568359375e-03 2.092505991458892822e-02 -1.768455095589160919e-02 6.871519144624471664e-03 -1.011945120990276337e-02 4.336826503276824951e-03 -8.808864280581474304e-03 -1.130377128720283508e-02 5.497207865118980408e-03 9.828415699303150177e-03 -8.097779937088489532e-03 -1.558046881109476089e-02 -1.303197909146547318e-02 1.242576912045478821e-02 -1.739043369889259338e-02 -1.725221634842455387e-03 -1.278590224683284760e-02 -5.535499658435583115e-03
3.214417770504951477e-02 7.830997346900403500e-04 8.695659227669239044e-03 2.390077523887157440e-02 -1.684917882084846497e-02 1.907728612422943115e-02 -8.871273137629032135e-03 -8.834589272737503052e-03 -2.957689203321933746e-02 -7.607616949826478958e-03 -2.885218244045972824e-03 5.574503447860479355e-03 5.856737494468688965e-03 2.043667808175086975e-02 2.263533184304833412e-03 -1.305031403899192810e-02 1.254713907837867737e-02 -5.547543987631797791e-03 1.692747697234153748e-02 -9.555203840136528015e-03 -7.552471943199634552e-03 -7.017818279564380646e-03 2.842605579644441605e-03 -1.073457486927509308e-02 -9.714628569781780243e-03 7.130879443138837814e-03 -2.887891791760921478e-02 3.369838930666446686e-03 -2.576934872195124626e-03 1.306506432592868805e-02 -2.281142864376306534e-03 -8.585177361965179443e-03 -4.143900703638792038e-03 1.200614776462316513e-02 -6.887946277856826782e-03 1.280552521347999573e-02 4.946115426719188690e-03 -6.532814819365739822e-03 -9.557107463479042053e-03 -1.501822099089622498e-02 -2.128057740628719330e-02 -6.773977540433406830e-03 9.704549796879291534e-03 -4.813905688934028149e-04 1.219095662236213684e-02 6.976866628974676132e-03 5.359397619031369686e-04 -1.458564307540655136e-02 -1.227256492711603642e-03 -7.132272236049175262e-03 7.556410506367683411e-03 -7.822420448064804077e-03 7.069323677569627762e-03 1.182305393740534782e-03 -4.314587917178869247e-03 6.286507938057184219e-03 -1.952687278389930725e-02 1.576455688336864114e-04 -1.029762346297502518e-02 1.444470509886741638e-02 7.351324893534183502e-03 4.289662465453147888e-03 1.044864580035209656e-02 -1.725382730364799500e-02 2.584181260317564011e-03 1.130728237330913544e-02 -9.077428840100765228e-04 1.380123756825923920e-02 -1.066034100949764252e-02 3.006585128605365753e-02 5.530139897018671036e-03 -4.185331519693136215e-03 -1.884014718234539032e-02 -3.121306188404560089e-02 -1.309870742261409760e-02 -1.282340474426746368e-02 -3.410394710954278708e-04 -6.504741031676530838e-03 2.402766235172748566e-02 2.193222055211663246e-03 -6.091133691370487213e-03 -8.267346769571304321e-03 1.115367704187519848e-04 3.076107008382678032e-03 1.410277746617794037e-02 -1.156442519277334213e-02 2.601049281656742096e-02 -2.618193859234452248e-03 1.885932520963251591e-03 1.342693110927939415e-03 -2.245794422924518585e-02 -1.417871471494436264e-02 -6.911232601851224899e-03 -1.595035009086132050e-02 -9.493701509200036526e-04 -2.342061512172222137e-02 9.337065741419792175e-03 -9.501205757260322571e-03 4.121762700378894806e-03 -9.154749102890491486e-03 3.264525532722473145e-02 7.206466048955917358e-03 -2.843640744686126709e-03 2.707774937152862549e-02 1.692248135805130005e-02 -2.931775990873575211e-03 6.237991154193878174e-03 1.754064857959747314e-02 2.167633036151528358e-03 1.047536823898553848e-02 -2.852398902177810669e-03 3.120293549727648497e-04 1.796736381947994232e-02 -2.184823155403137207e-02 -8.250569924712181091e-03 -1.835760660469532013e-03 5.299514625221490860e-03 2.160500571335433051e-06 -5.148938391357660294e-03 -1.960817538201808929e-02 -1.027461513876914978e-02 -2.642475441098213196e-02 3.090891055762767792e-03 -1.079114153981208801e-02 -1.900143921375274658e-02 1.728712581098079681e-03 -6.556905806064605713e-03 1.509714405983686447e-03 7.816381752490997314e-03 -2.602767897769808769e-03 9.552815463393926620e-04 -2.651726081967353821e-02 1.892849919386208057e-03 -2.191215939819812775e-02 -1.096465438604354858e-02 -1.687280088663101196e-02 -1.272531226277351379e-02 3.826231509447097778e-02 4.874063655734062195e-03 -1.697045937180519104e-02 -2.578315907157957554e-04 -4.698052653111517429e-04 -8.821979165077209473e-03 -1.144874747842550278e-02 8.630835451185703278e-03 3.257018979638814926e-03 9.583123959600925446e-03 1.196185499429702759e-02 -1.933500985614955425e-03 -9.357340633869171143e-03 9.190040291287004948e-04 -1.934788003563880920e-02 8.369313552975654602e-03 1.267456915229558945e-02 1.206127274781465530e-02 7.424172945320606232e-03 1.148474495857954025e-02 1.165165565907955170e-02 2.001537755131721497e-02 1.343580987304449081e-02 1.070156227797269821e-02 -6.465596612542867661e-03 -4.296409897506237030e-03 3.869561245664954185e-03 8.020385168492794037e-03 -8.800416253507137299e-03 -4.020763095468282700e-03 -2.868660539388656616e-02 2.845219895243644714e-02 1.945789670571684837e-03 -1.980056799948215485e-02 2.152598090469837189e-02 -8.316948078572750092e-03 -9.831166826188564301e-03 -1.309233531355857849e-02 -6.827943027019500732e-03 -4.212520550936460495e-03 1.779730990529060364e-02 8.318310603499412537e-03 -1.321611739695072174e-02 3.108300501480698586e-03 2.104569599032402039e-02 -2.426772844046354294e-04 4.811245948076248169e-03 -8.435022085905075073e-03 1.515054982155561447e-02 8.430425077676773071e-03 -2.466926584020256996e-03 2.154583670198917389e-02 1.415030658245086670e-02 -1.207473129034042358e-02 -1.460508909076452255e-02 -3.189309732988476753e-03 -1.025748625397682190e-02 -3.381933085620403290e-03 3.168484661728143692e-03 -7.859018631279468536e-03 -1.574299763888120651e-03 1.922665163874626160e-02 -4.904074128717184067e-03 4.138375632464885712e-03 -6.199912604643031955e-05 -3.942874725908041000e-03 9.204521775245666504e-03 8.276329375803470612e-03 1.586558483541011810e-02 -6.951560731977224350e-03 6.504799239337444305e-03 -5.021328572183847427e-03 6.786027923226356506e-03 7.660257397219538689e-04 -2.494272403419017792e-02 -9.564672945998609066e-04 -1.844826713204383850e-02 3.922427073121070862e-03 -2.634548395872116089e-02 -7.578901946544647217e-03 -1.374647486954927444e-02 -1.573408604599535465e-03 -4.975191317498683929e-03 5.634229630231857300e-03 3.979716449975967407e-03 -1.924509927630424500e-02 7.906693033874034882e-03 -5.187937058508396149e-03 1.617527939379215240e-02 3.168106544762849808e-03 1.619526185095310211e-02 -5.274137947708368301e-03 1.424709428101778030e-02 1.945807016454637051e-03 -9.140687994658946991e-03 -5.598777206614613533e-04 9.926354978233575821e-04 1.866098307073116302e-02 1.251894235610961914e-02 -1.999204047024250031e-02 -2.174724359065294266e-03 -5.261913407593965530e-03 5.023314151912927628e-03 6.720905192196369171e-03 -1.959305442869663239e-02 6.414098199456930161e-03 -2.194673568010330200e-02 8.260776288807392120e-03 -4.736484028398990631e-03 6.174630019813776016e-03 3.702409099787473679e-03 -6.144106388092041016e-03 -2.042068541049957275e-02 -1.648398302495479584e-02 2.746436744928359985e-02 -4.758057743310928345e-02 8.344481699168682098e-03 7.092397194355726242e-03 1.546385046094655991e-02
2.494064625352621078e-03 6.986256223171949387e-03 7.627013605087995529e-03 6.019342225044965744e-03 -1.516811084002256393e-03 7.504021283239126205e-03 1.904958859086036682e-02 1.185904350131750107e-02 -6.430156994611024857e-03 -1.049725525081157684e-02 1.708790892735123634e-03 -5.064172204583883286e-03 -4.875243641436100006e-03 -3.626434132456779480e-02 2.106907218694686890e-02 1.433863770216703415e-02 2.170013904105871916e-04 1.775225438177585602e-02 6.927311886101961136e-03 2.674456685781478882e-03 2.049506083130836487e-02 -7.935420610010623932e-03 1.676525734364986420e-02 2.417817525565624237e-02 9.340348653495311737e-03 4.604505840688943863e-03 8.699066936969757080e-03 -4.957077093422412872e-03 9.883726015686988831e-03 9.687282145023345947e-03 1.721188426017761230e-02 7.601763936690986156e-04 1.380081381648778915e-02 -1.251580473035573959e-02 -6.244465243071317673e-03 -8.351857773959636688e-03 -2.325861947610974312e-03 -8.619865402579307556e-03 5.994178820401430130e-03 -1.059413701295852661e-02 1.006529293954372406e-02 -1.501874905079603195e-02 -3.640674520283937454e-03 2.590888179838657379e-03 5.623484496027231216e-03 1.602926105260848999e-02 1.447355374693870544e-02 1.376593863824382424e-04 -2.278580330312252045e-03 2.234440669417381287e-02 1.816760515794157982e-03 7.661160547286272049e-03 5.737223662436008453e-03 1.063954550772905350e-02 1.061984244734048843e-02 1.523655280470848083e-02 -7.339930743910372257e-05 1.199177838861942291e-02 -2.155276201665401459e-02 4.238542169332504272e-03 -1.516380161046981812e-02 3.709325566887855530e-03 -6.048540119081735611e-03 -5.176300182938575745e-03 -3.310927422717213631e-03 4.235471133142709732e-03 1.554462779313325882e-02 -8.037052117288112640e-03 -1.084018126130104065e-02 2.428150502964854240e-03 5.574329290539026260e-03 9.332186542451381683e-03 -1.164448447525501251e-02 8.061566390097141266e-03 1.021447032690048218e-02 3.640701761469244957e-03 -1.901328214444220066e-03 7.381108589470386505e-03 -6.895813625305891037e-03 1.849495572969317436e-03 7.989390753209590912e-03 -6.846483796834945679e-03 -1.535098534077405930e-02 1.607111841440200806e-02 5.484641063958406448e-03 -1.230838242918252945e-02 2.443254925310611725e-02 -5.375673994421958923e-03 -1.627944968640804291e-02 -7.241541519761085510e-03 1.052623800933361053e-02 1.413623429834842682e-02 -8.168024942278862000e-03 -2.564191352576017380e-03 1.397941145114600658e-03 9.443009272217750549e-03 -3.978388558607548475e-04 6.211613072082400322e-04 2.035229839384555817e-02 -2.245781011879444122e-02 -4.104181192815303802e-03 4.936873912811279297e-03 -2.937820740044116974e-03 -9.407593868672847748e-03 1.529011316597461700e-02 -6.362230516970157623e-03 -1.467008888721466064e-02 -9.544885833747684956e-04 1.041689701378345490e-02 5.981112830340862274e-03 -1.710428390651941299e-03 2.895516110584139824e-03 8.662835694849491119e-03 -2.309810137376189232e-03 -5.413766019046306610e-03 -1.020190119743347168e-02 -4.303876776248216629e-03 -1.151948329061269760e-02 2.883824752643704414e-03 -2.239245921373367310e-02 1.414184365421533585e-02 -1.081533636897802353e-02 -6.630171090364456177e-03 8.487376384437084198e-03 5.654661450535058975e-03 -9.557466022670269012e-03 -1.236702688038349152e-02 -7.178596686571836472e-03 -2.223256509751081467e-03 -2.441182732582092285e-03 -5.695152562111616135e-03 1.743557164445519447e-03 -1.673930324614048004e-02 -8.558606496080756187e-04 6.968477740883827209e-03 -1.317563001066446304e-02 -9.952742606401443481e-03 1.354022417217493057e-02 3.062548115849494934e-03 1.212503295391798019e-02 1.645233668386936188e-02 -1.723362132906913757e-02 1.312442938797175884e-03 1.875759451650083065e-03 2.018701983615756035e-03 -9.583602659404277802e-03 1.514169014990329742e-02 -1.827983744442462921e-02 -1.422302890568971634e-02 4.082357045263051987e-03 -2.813694300130009651e-03 1.950322766788303852e-03 2.419462241232395172e-02 2.186727337539196014e-02 -1.591260917484760284e-02 -1.332341227680444717e-02 5.571162793785333633e-03 -4.039662424474954605e-03 8.273504674434661865e-03 7.465781643986701965e-03 -1.107491552829742432e-02 2.327134134247899055e-03 -2.305026864632964134e-03 -2.924152649939060211e-03 1.744757592678070068e-02 9.489158401265740395e-05 -1.425689365714788437e-02 -3.645277349278330803e-03 -1.718339510262012482e-02 -1.138196419924497604e-02 2.509218873456120491e-03 -2.279545646160840988e-03 6.486183032393455505e-03 -1.964863017201423645e-02 1.144958287477493286e-02 -6.532068829983472824e-03 6.866793148219585419e-03 -1.146367937326431274e-02 -1.386749930679798126e-02 -1.319100335240364075e-02 -2.515122992917895317e-03 -8.450753055512905121e-03 -7.279918529093265533e-03 -2.435215050354599953e-03 -7.233881857246160507e-03 8.606301620602607727e-03 1.220533065497875214e-02 4.928676877170801163e-03 1.858736760914325714e-02 -1.234694756567478180e-02 1.105396193452179432e-03 -2.611803589388728142e-03 3.653707448393106461e-03 2.271520672366023064e-03 2.054547145962715149e-02 -1.467032264918088913e-02 1.540502347052097321e-02 -1.047849282622337341e-02 -2.884875424206256866e-02 -1.001291163265705109e-02 -3.459390951320528984e-03 -1.282665040343999863e-02 -9.499672800302505493e-03 1.887609483674168587e-03 -1.074969489127397537e-02 -6.764740683138370514e-03 6.648073904216289520e-03 4.941307008266448975e-03 -1.862569898366928101e-02 -3.399022389203310013e-03 -1.506917364895343781e-02 3.493098192848265171e-04 -7.871611043810844421e-03 -1.067743450403213501e-02 1.288528461009263992e-02 -1.389207597821950912e-02 1.876480318605899811e-02 -2.766910009086132050e-03 6.431838031858205795e-03 -7.332137785851955414e-03 -2.979839919134974480e-03 1.484745554625988007e-02 -7.058737101033329964e-04 1.000012271106243134e-02 2.277285419404506683e-02 -1.604291610419750214e-02 1.147111644968390465e-03 -5.016549490392208099e-03 -3.039642237126827240e-03 9.241488762199878693e-03 1.582885393872857094e-03 6.824549753218889236e-03 1.441272441297769547e-02 -3.249290166422724724e-04 -2.224426157772541046e-02 6.439114920794963837e-03 -1.873818226158618927e-03 -1.706277835182845592e-03 -9.936618618667125702e-03 -1.897209696471691132e-02 4.275546409189701080e-03 -1.388982869684696198e-02 -1.730035990476608276e-02 5.598111543804407120e-03 5.455500446259975433e-03 -7.575287483632564545e-03 7.625681348145008087e-03 -1.147328503429889679e-02 -2.258545160293579102e-02 4.810691345483064651e-03 -5.008281674236059189e-03 2.493007294833660126e-02 -2.254834584891796112e-02 -5.604513455182313919e-03 1.475983299314975739e-03 -5.203845910727977753e-03
2.159458957612514496e-02 2.438816800713539124e-02 -1.146664004772901535e-02 7.042189128696918488e-03 1.962696667760610580e-03 1.540506817400455475e-02 -1.509817503392696381e-02 -1.165469642728567123e-02 -2.471250481903553009e-03 6.993541494011878967e-03 1.243299152702093124e-02 -1.409747265279293060e-02 -7.929451763629913330e-03 -2.300428412854671478e-02 1.492753531783819199e-02 1.911157555878162384e-02 1.669037528336048126e-02 2.620807150378823280e-03 1.474271062761545181e-02 -1.861117407679557800e-02 4.328854382038116455e-03 6.601483095437288284e-03 -1.198122091591358185e-02 -1.527898386120796204e-02 1.151839457452297211e-02 -2.716418122872710228e-03 1.136377453804016113e-02 -5.429677548818290234e-04 3.512871626298874617e-04 3.138861432671546936e-02 3.840913530439138412e-03 -2.958992123603820801e-02 -2.103707194328308105e-02 5.278110038489103317e-03 -4.401437472552061081e-03 -1.017491519451141357e-02 2.189108729362487793e-02 -1.319207018241286278e-03 -7.012174464762210846e-03 1.953328959643840790e-02 2.155830711126327515e-02 -1.986617222428321838e-02 -1.112387888133525848e-02 -7.293173577636480331e-03 -4.872783087193965912e-03 2.820597961544990540e-03 4.871593788266181946e-03 -1.214937889017164707e-03 1.502422150224447250e-02 -1.481835450977087021e-02 9.566863998770713806e-03 2.506853779777884483e-03 -1.598913781344890594e-02 2.293918281793594360e-02 1.916460879147052765e-02 1.650357805192470551e-02 2.013006620109081268e-02 4.018762148916721344e-03 3.517158795148134232e-03 1.165286265313625336e-02 1.801357418298721313e-02 -4.137538839131593704e-03 3.933449275791645050e-03 2.521160058677196503e-02 -3.819719131570309401e-04 1.011990569531917572e-02 7.548359222710132599e-03 1.911286450922489166e-02 -2.851018682122230530e-02 9.582473896443843842e-03 4.355074837803840637e-03 6.236529909074306488e-03 3.099723160266876221e-02 1.397273503243923187e-02 8.186289109289646149e-03 3.258446813561022282e-04 1.949993893504142761e-02 1.935751549899578094e-02 9.075923589989542961e-04 -1.047148369252681732e-02 5.524401087313890457e-03 -5.483852000907063484e-04 8.457357063889503479e-03 1.908477395772933960e-02 -1.490275654941797256e-02 7.866245578043162823e-04 -1.273432932794094086e-02 -1.299105864018201828e-02 2.298485860228538513e-02 9.079865179955959320e-03 -1.072276267223060131e-03 1.731268479488790035e-03 -2.287711761891841888e-02 6.575341802090406418e-03 -1.238701026886701584e-02 2.285146899521350861e-02 6.895930971950292587e-03 1.101157627999782562e-02 -1.909662410616874695e-02 -4.133943002671003342e-03 7.232443895190954208e-03 -4.818701927433721721e-05 2.458673156797885895e-02 -1.050636288709938526e-03 5.002032034099102020e-03 1.647578366100788116e-02 5.729041993618011475e-03 1.291704177856445312e-02 -1.709209568798542023e-02 1.744324341416358948e-02 -7.344064302742481232e-03 5.492568016052246094e-03 -3.622014448046684265e-02 1.023855712264776230e-02 6.147324107587337494e-03 4.818534944206476212e-03 -1.116623170673847198e-02 1.564577780663967133e-02 -7.493394427001476288e-03 -2.164468169212341309e-02 -9.206079994328320026e-04 2.064216136932373047e-02 -4.715225193649530411e-03 -3.283325117081403732e-03 -8.169740322045981884e-04 -3.012218512594699860e-03 -3.394749760627746582e-02 -7.380199385806918144e-04 1.059111673384904861e-03 -1.113878842443227768e-02 -7.140893489122390747e-03 -4.892838653177022934e-03 -2.334624715149402618e-02 -2.010419778525829315e-02 3.238959237933158875e-03 -3.101811278611421585e-03 1.555252005346119404e-03 7.198041304945945740e-03 -9.476606734097003937e-03 -1.548467786051332951e-03 -1.321204006671905518e-02 1.424213405698537827e-02 -3.583179088309407234e-03 -1.966729946434497833e-02 7.849409244954586029e-03 2.057889360003173351e-04 -2.476935461163520813e-02 4.488040693104267120e-03 9.912299923598766327e-03 8.707704022526741028e-03 3.827341599389910698e-03 -2.058085799217224121e-02 -1.736454106867313385e-02 2.445498108863830566e-02 1.533785741776227951e-02 4.395071882754564285e-03 1.641302742063999176e-02 -1.506650168448686600e-02 -1.717015355825424194e-02 -1.293641794472932816e-02 2.291501313447952271e-02 -1.567920111119747162e-02 6.370238494127988815e-03 2.004835754632949829e-03 5.250776652246713638e-03 1.125369500368833542e-02 -2.431182190775871277e-03 -2.415610477328300476e-03 -2.565530827268958092e-03 -4.690594039857387543e-03 3.972823265939950943e-03 -2.055517584085464478e-02 -5.345433601178228855e-04 -3.874547081068158150e-03 7.384716533124446869e-03 -9.085570491151884198e-05 1.718807406723499298e-02 -1.302761677652597427e-02 1.306160446256399155e-02 -4.484907537698745728e-02 2.667068131268024445e-02 -4.463911987841129303e-03 -1.093719527125358582e-02 -1.643524318933486938e-02 -6.012205034494400024e-03 1.100571546703577042e-02 1.345861423760652542e-02 1.036063185892999172e-03 -1.315944734960794449e-02 -1.666066795587539673e-02 -1.301603671163320541e-02 -2.990203443914651871e-03 1.241079438477754593e-02 -7.964062504470348358e-03 -1.830823312047868967e-04 5.786437075585126877e-03 2.265896546305157244e-05 9.497612714767456055e-03 4.268132615834474564e-04 -1.749233528971672058e-02 -4.069995600730180740e-03 1.114363875240087509e-02 5.635194014757871628e-03 2.652981318533420563e-02 -4.182887263596057892e-03 -7.730288896709680557e-03 1.932991482317447662e-02 1.562671177089214325e-02 -5.838324315845966339e-03 -2.097559906542301178e-02 -2.893201773986220360e-03 2.821524161845445633e-03 1.044644229114055634e-02 2.640021732077002525e-03 2.736244583502411842e-03 -3.923690412193536758e-03 7.333230227231979370e-03 -6.291258614510297775e-03 -9.861375438049435616e-04 7.695531938225030899e-03 1.400714460760354996e-02 1.850490644574165344e-02 6.776536814868450165e-03 4.141001030802726746e-03 1.937829656526446342e-03 -1.808349974453449249e-03 -9.517502039670944214e-03 -7.797914091497659683e-03 9.302819147706031799e-03 -3.510833485051989555e-03 1.170285418629646301e-02 1.265680696815252304e-02 -1.468662638217210770e-02 2.025077585130929947e-03 9.692164603620767593e-04 -1.193267013877630234e-02 -2.192651294171810150e-02 -2.224909700453281403e-02 2.622075565159320831e-02 -1.518382132053375244e-02 2.334598079323768616e-02 8.858238579705357552e-04 -1.193673722445964813e-02 -2.173821907490491867e-03 -7.670355029404163361e-03 -2.405602019280195236e-03 2.203423716127872467e-02 -9.275157004594802856e-03 -1.240339409559965134e-02 -1.990723423659801483e-02 2.310863323509693146e-02 1.476858835667371750e-02 -2.121010050177574158e-02 1.867506094276905060e-02 -1.667000725865364075e-02 1.787537592463195324e-03
