-3.936999710276722908e-04 1.686885138042271137e-03 3.936023917049169540e-03 3.084125462919473648e-03 -1.868709921836853027e-02 -5.029814783483743668e-04 2.879516687244176865e-03 -3.757883096113801003e-03 1.234643533825874329e-02 -2.183287590742111206e-02 -2.991720684804022312e-04 -1.080313697457313538e-02 7.512411568313837051e-03 -6.608405965380370617e-04 -1.287642982788383961e-03 7.891449145972728729e-03 -2.441564202308654785e-02 5.882846191525459290e-03 4.101607482880353928e-03 9.701542556285858154e-03 1.811542606446892023e-04 1.001326460391283035e-02 2.343202475458383560e-03 2.465654863044619560e-03 -2.425612881779670715e-03 -1.284560537897050381e-03 6.063217297196388245e-03 -2.479893388226628304e-03 6.830087513662874699e-04 -1.914005260914564133e-03 -4.361041821539402008e-03 4.860541317611932755e-03 -2.372832968831062317e-02 -2.058668294921517372e-03 -1.523846876807510853e-03 2.335639204829931259e-03 -7.638746406883001328e-03 5.181183223612606525e-04 4.909062292426824570e-03 -1.638486795127391815e-02 5.474293604493141174e-03 -4.481244832277297974e-03 1.480365078896284103e-02 -5.948965437710285187e-03 6.855056155472993851e-03 -9.718728251755237579e-03 -4.661720711737871170e-03 -8.887434378266334534e-03 -3.084736177697777748e-03 -4.063532222062349319e-03 -4.894864279776811600e-03 -8.306792005896568298e-03 -5.191445350646972656e-03 4.339566454291343689e-03 1.773355714976787567e-02 7.520086946897208691e-04 -1.092320773750543594e-02 -1.398903597146272659e-02 2.437581075355410576e-03 1.007734797894954681e-02 4.887548584520118311e-06 -1.476679928600788116e-02 -7.260366342961788177e-03 -9.794171899557113647e-03 -1.736724399961531162e-03 -2.104197256267070770e-02 -9.102511219680309296e-03 -2.011615317314863205e-03 2.162188105285167694e-02 -7.745469454675912857e-03 4.755782356369309127e-05 -4.412448033690452576e-03 -7.538301870226860046e-03 1.148044690489768982e-02 2.269107382744550705e-03 1.361153833568096161e-02 -5.705165676772594452e-03 -2.160918200388550758e-03 -2.372747054323554039e-03 -8.370226249098777771e-03 8.029160089790821075e-03 -5.788830108940601349e-03 1.002646237611770630e-02 1.459769904613494873e-02 -8.159763179719448090e-03 -5.312710534781217575e-03 3.590813139453530312e-04 2.493481710553169250e-02 -1.276743569178506732e-04 3.583539510145783424e-03 1.062586903572082520e-02 -1.809009234420955181e-03 9.872747585177421570e-03 -5.827266722917556763e-03 -9.162431582808494568e-03 5.463110748678445816e-03 -1.187969557940959930e-02 -4.127760417759418488e-03 1.151178963482379913e-02 1.535176951438188553e-02 -4.132213536649942398e-03 -3.333807922899723053e-03 -1.459513325244188309e-03 -1.458430197089910507e-03 1.680671609938144684e-02 -3.168122493661940098e-04 -4.479066701605916023e-04 -4.476665053516626358e-03 -1.513131149113178253e-02 -9.188732132315635681e-03 -7.460072636604309082e-03 -1.971415476873517036e-04 7.631605694768950343e-05 2.523104660212993622e-03 -5.699626170098781586e-03 3.869624924845993519e-04 4.699361976236104965e-03 8.821259252727031708e-03 -4.878156352788209915e-03 -4.300613887608051300e-03 -1.259075477719306946e-02 7.341138087213039398e-03 -4.161469638347625732e-03 4.303201101720333099e-03 1.064469106495380402e-02 1.193533767946064472e-03 1.077476982027292252e-02 1.144899241626262665e-02 -2.782766707241535187e-03 -4.670268855988979340e-03 6.065210327506065369e-03 -1.305980607867240906e-02 -1.055662170983850956e-03 -4.112598020583391190e-03 -2.662336453795433044e-03 1.007695682346820831e-02 1.795881427824497223e-03 -2.472880762070417404e-03 1.519773062318563461e-02 3.865218488499522209e-03 2.232788829132914543e-04 4.566969815641641617e-03 1.829583942890167236e-02 -1.334586064331233501e-03 8.395546115934848785e-03 -2.111146692186594009e-03 -4.207629244774580002e-03 -5.747793242335319519e-03 -5.429214797914028168e-03 1.537084020674228668e-02 1.571377972140908241e-03 -1.392426551319658756e-03 4.235845524817705154e-03 5.160885048098862171e-04 1.781066763214766979e-03 9.015776216983795166e-03 3.570701926946640015e-03 8.851883932948112488e-03 3.823915962129831314e-03 -1.198166329413652420e-02 -9.179693646728992462e-03 -9.586481377482414246e-03 -3.175585996359586716e-03 6.551222410053014755e-03 -2.146047074347734451e-03 -4.817717242985963821e-03 -1.261792844161391258e-03 -6.954741664230823517e-03 1.087198965251445770e-02 8.976673707365989685e-03 2.380905486643314362e-02 -5.734326783567667007e-03 -3.536304691806435585e-03 -7.871629670262336731e-03 6.767543964087963104e-03 1.925212214700877666e-03 4.461772274225950241e-03 -1.121797319501638412e-02 -5.125827156007289886e-03 7.838567718863487244e-03 4.824711068067699671e-04 -2.302855253219604492e-03 -1.513645634986460209e-03 5.231208051554858685e-04 -1.863852888345718384e-02 -7.679440896026790142e-04 1.294436398893594742e-03 -1.306663081049919128e-02 -9.182302281260490417e-03 6.407129578292369843e-03 7.389788515865802765e-04 -1.223849505186080933e-02 1.842388138175010681e-02 1.445253845304250717e-03 5.412767641246318817e-03 -4.878692328929901123e-03 -6.264346302486956120e-04 -1.173672545701265335e-02 3.995258361101150513e-03 2.926137996837496758e-03 -1.981276785954833031e-03 -1.276336144655942917e-03 3.073988715186715126e-03 1.812494173645973206e-02 9.920429438352584839e-03 5.156897939741611481e-03 -9.604204446077346802e-03 3.674498759210109711e-03 -2.291934564709663391e-02 1.319842319935560226e-02 5.728575866669416428e-03 -3.551937406882643700e-03 -7.277718395926058292e-04 1.678888569585978985e-03 4.609028343111276627e-03 9.438014589250087738e-03 3.105175495147705078e-02 -8.575537241995334625e-03 -1.587577350437641144e-02 2.473512198776006699e-03 -1.624348340556025505e-03 7.495811209082603455e-03 4.930824972689151764e-03 -7.992568425834178925e-03 6.856197956949472427e-03 1.191678224131464958e-03 -2.468348667025566101e-02 -8.041236549615859985e-03 -4.058071877807378769e-03 4.727277439087629318e-03 -1.016762480139732361e-02 8.282196358777582645e-04 -1.385065494105219841e-03 -3.343999618664383888e-03 -9.796741418540477753e-03 -1.490107737481594086e-02 -4.192793741822242737e-03 5.896277260035276413e-03 -3.546400228515267372e-03 2.678451361134648323e-03 3.922950476408004761e-03 -5.802396219223737717e-03 -1.115674246102571487e-02 -9.088128805160522461e-03 3.442388842813670635e-04 -4.308653529733419418e-03 6.325582973659038544e-03 2.427581232041120529e-03 7.912234286777675152e-04 4.850222729146480560e-03 3.426329349167644978e-04 -5.017451476305723190e-03 3.690966870635747910e-03 9.368625469505786896e-03 -5.996539839543402195e-04 8.281891234219074249e-03
1.273969281464815140e-02 -1.724807545542716980e-02 5.738520529121160507e-03 -1.135829091072082520e-02 -1.650938764214515686e-02 3.041360992938280106e-03 9.611339308321475983e-03 3.772266441956162453e-03 1.730033382773399353e-02 -1.434416230767965317e-02 1.865992695093154907e-02 -5.946908611804246902e-03 1.332781370729207993e-02 3.852080786600708961e-03 9.548091329634189606e-03 7.720523979514837265e-03 -4.290326032787561417e-03 1.534668076783418655e-02 4.737563431262969971e-03 8.226909674704074860e-03 6.587114185094833374e-03 7.000374171184375882e-05 -1.576357148587703705e-02 -6.857237312942743301e-03 1.536205783486366272e-02 4.382895771414041519e-03 -1.131386030465364456e-02 6.681388244032859802e-03 -2.032478712499141693e-02 1.582131721079349518e-02 2.281447686254978180e-02 8.750738576054573059e-03 -1.107966154813766479e-02 -3.302388358861207962e-03 -2.119527943432331085e-02 1.001793774776160717e-03 -3.191490843892097473e-02 1.634402945637702942e-02 4.403670784085988998e-03 -2.115321718156337738e-02 -7.991190999746322632e-03 1.588032953441143036e-02 2.551281079649925232e-02 -5.330880638211965561e-03 -7.070205756463110447e-04 1.177137251943349838e-03 3.074113978073000908e-03 -4.971036687493324280e-03 1.633058418519794941e-03 -1.138915400952100754e-02 1.437207218259572983e-02 1.166551560163497925e-02 1.318863406777381897e-02 -1.784198731184005737e-02 1.237627398222684860e-02 -6.070238072425127029e-03 -7.907096296548843384e-03 -1.041213609278202057e-02 2.125120023265480995e-03 -9.393134154379367828e-03 -1.145134679973125458e-02 -1.514649018645286560e-02 1.088032266125082970e-03 9.067540057003498077e-03 2.782129310071468353e-02 -3.697868064045906067e-02 6.635673926211893559e-04 -4.600591957569122314e-03 1.834397949278354645e-02 -5.188362672924995422e-03 -1.928412728011608124e-02 3.485016990453004837e-03 -9.559364058077335358e-03 2.016889676451683044e-02 1.921753957867622375e-02 1.002922002226114273e-02 1.076259743422269821e-02 -2.448259619995951653e-03 -1.733775995671749115e-02 1.233795937150716782e-02 2.513056679163128138e-04 7.540605496615171432e-03 -6.564380135387182236e-03 3.999025560915470123e-03 -9.537033736705780029e-03 -1.176102831959724426e-02 -9.605726227164268494e-03 1.139138732105493546e-02 -1.447574514895677567e-02 2.438640221953392029e-03 -6.655343342572450638e-03 -1.653283834457397461e-02 2.591802924871444702e-02 3.559378674253821373e-03 1.306886505335569382e-02 -7.094181608408689499e-03 1.090401783585548401e-02 -1.333977188915014267e-02 3.438866510987281799e-02 7.546712644398212433e-03 -7.755622267723083496e-03 -6.213126238435506821e-03 2.416991442441940308e-02 -1.391079835593700409e-02 1.746631413698196411e-02 1.771957613527774811e-02 -6.303367204964160919e-03 -3.565582665032707155e-05 -3.848806722089648247e-03 1.954168640077114105e-02 4.561576060950756073e-04 -1.653157360851764679e-02 1.002987939864397049e-02 7.059876807034015656e-03 5.783335305750370026e-03 -1.440697163343429565e-02 1.244375854730606079e-02 -9.405970573425292969e-03 -1.449080742895603180e-02 -6.743796635419130325e-03 5.541876424103975296e-03 5.599969998002052307e-03 2.982115605846047401e-03 -1.676156534813344479e-03 2.861072868108749390e-02 1.764830760657787323e-02 -1.723689772188663483e-02 -9.923588484525680542e-03 3.432190744206309319e-03 5.084660835564136505e-03 1.867312355898320675e-03 -6.422048434615135193e-03 2.257794607430696487e-03 2.667384222149848938e-02 3.444978501647710800e-03 -1.717575266957283020e-02 -9.497772902250289917e-03 8.083490654826164246e-03 5.140451714396476746e-03 8.696939796209335327e-03 9.779206477105617523e-03 3.778018581215292215e-04 -5.819709971547126770e-03 -7.918328978121280670e-03 -1.028595608659088612e-03 -2.497398480772972107e-02 -6.164734251797199249e-03 3.185292589478194714e-04 1.810166239738464355e-02 2.544015273451805115e-02 7.843904197216033936e-03 -4.471682943403720856e-03 5.262728780508041382e-03 -6.886753719300031662e-03 -7.326840888708829880e-03 1.276660617440938950e-02 9.187882766127586365e-03 1.154950819909572601e-02 1.235871855169534683e-02 -1.540823187679052353e-02 -3.464913740754127502e-02 -1.307935081422328949e-02 -1.593263074755668640e-02 1.131419744342565536e-02 -1.923433691263198853e-02 1.291457004845142365e-02 1.117746904492378235e-02 2.258627675473690033e-02 -7.105632219463586807e-03 -2.182710450142621994e-03 1.274073263630270958e-03 -3.019135911017656326e-04 -5.874816328287124634e-03 -2.534306608140468597e-03 -1.046782173216342926e-02 -4.231668543070554733e-03 1.720051467418670654e-02 -8.241668343544006348e-03 -1.295884419232606888e-02 -4.880996420979499817e-03 -1.942618563771247864e-02 1.093122828751802444e-02 -1.035796885844320059e-04 1.107767317444086075e-02 -2.531859790906310081e-03 -5.022216122597455978e-03 -5.096129607409238815e-03 3.087244182825088501e-02 2.722151577472686768e-03 9.854799136519432068e-03 8.481886237859725952e-03 1.000143680721521378e-02 3.765183035284280777e-03 -2.136234939098358154e-02 1.119671575725078583e-02 -5.691994447261095047e-03 -7.292537949979305267e-03 1.039756275713443756e-02 -2.516641467809677124e-02 5.303331185132265091e-03 1.567166298627853394e-03 -1.163682900369167328e-02 -2.153392881155014038e-02 -1.507067936472594738e-04 -8.215648122131824493e-03 1.204640697687864304e-02 -6.185198668390512466e-03 3.435637336224317551e-03 -1.253462210297584534e-02 -4.221316426992416382e-03 9.486204013228416443e-03 -3.588032675907015800e-03 1.563321985304355621e-02 1.616069301962852478e-02 -1.509603671729564667e-02 6.017446517944335938e-03 9.199598804116249084e-03 5.021483171731233597e-03 -2.132164686918258667e-02 1.141684874892234802e-02 1.790721714496612549e-02 -1.120353583246469498e-02 8.343210443854331970e-03 8.628262439742684364e-04 -9.164878283627331257e-04 1.363635621964931488e-02 1.656277477741241455e-02 1.403006142936646938e-03 -5.428566597402095795e-03 -4.914277698844671249e-03 1.042795949615538120e-03 1.540916506201028824e-02 2.570987911894917488e-03 -4.320281557738780975e-03 -1.505869440734386444e-02 -5.622002296149730682e-03 -1.452357880771160126e-02 2.672401070594787598e-02 -9.599612094461917877e-03 5.602018442004919052e-03 -1.635192148387432098e-02 -7.772566750645637512e-03 3.786219982430338860e-03 8.034070022404193878e-03 -1.316438242793083191e-02 1.461041811853647232e-02 3.951035905629396439e-03 1.332726329565048218e-02 -3.121840767562389374e-03 -1.667452789843082428e-02 8.169381879270076752e-03 8.885057643055915833e-03 9.009907371364533901e-04 -1.369456294924020767e-02 -9.703571908175945282e-03 -9.129129350185394287e-03
7.357432041317224503e-04 1.084126159548759460e-02 1.761610852554440498e-03 9.976008906960487366e-03 -2.014843747019767761e-02 1.998592726886272430e-02 -1.436473429203033447e-02 9.399277158081531525e-03 -1.973921619355678558e-02 7.300508208572864532e-03 -1.072465814650058746e-02 -3.694142913445830345e-03 -2.454623393714427948e-02 -7.850237190723419189e-03 -4.374300595372915268e-03 1.589140971191227436e-03 -6.782326381653547287e-04 -2.492801984772086143e-03 -2.254724502563476562e-02 1.231505442410707474e-02 -1.610328676179051399e-03 4.279306158423423767e-03 7.085788995027542114e-03 -6.242901552468538284e-03 2.690405771136283875e-02 -3.883737372234463692e-03 -4.503071773797273636e-03 3.355223161634057760e-04 1.044778060168027878e-02 7.234156131744384766e-03 8.001514361239969730e-04 -2.557872096076607704e-03 4.669728688895702362e-03 6.799926050007343292e-03 4.362156323622912169e-04 5.291296110954135656e-05 -1.452996279112994671e-03 -8.136061951518058777e-04 -9.513422846794128418e-03 4.995972383767366409e-03 7.086564786732196808e-03 -1.329636480659246445e-02 2.028223127126693726e-02 -2.004527300596237183e-02 -2.779016084969043732e-02 -1.431263890117406845e-02 4.841984715312719345e-03 2.475517615675926208e-02 -1.713532581925392151e-02 -9.719555266201496124e-03 -1.959693385288119316e-03 -6.825699936598539352e-03 1.967435888946056366e-02 1.016362919472157955e-03 -7.514131255447864532e-03 -2.791214967146515846e-03 1.657795347273349762e-02 2.105942927300930023e-02 -1.357757672667503357e-02 1.262499578297138214e-02 -1.591726788319647312e-03 -1.220558770000934601e-02 2.669489767868071795e-04 1.521831285208463669e-02 -2.979272790253162384e-02 -1.106350403279066086e-02 -1.329770777374505997e-02 2.047575451433658600e-02 2.903746441006660461e-03 -6.675003562122583389e-03 -6.038446910679340363e-03 1.946394145488739014e-02 1.567139476537704468e-02 6.095748860388994217e-03 -1.885037124156951904e-02 4.230016376823186874e-03 -5.692112725228071213e-03 -5.366852506995201111e-03 1.925687864422798157e-02 -1.103756669908761978e-02 9.749717079102993011e-03 9.987314231693744659e-03 1.606829278171062469e-02 1.081664860248565674e-02 -1.548139192163944244e-02 1.711307838559150696e-02 -3.938483074307441711e-03 -1.340989768505096436e-02 -7.469397969543933868e-03 -5.736858118325471878e-03 -8.426303975284099579e-03 1.720355649013072252e-04 1.192778255790472031e-02 -4.066997673362493515e-03 3.238398348912596703e-03 -6.887259427458047867e-03 3.828574670478701591e-03 3.525119274854660034e-02 1.914406195282936096e-02 -6.771175656467676163e-03 1.455259881913661957e-02 1.313619222491979599e-02 -2.488690614700317383e-02 5.293458700180053711e-03 -1.075986307114362717e-02 -1.415713503956794739e-02 -4.069734830409288406e-03 -1.499076280742883682e-02 -1.696510612964630127e-02 8.450518362224102020e-03 7.712089456617832184e-03 1.361552160233259201e-03 -1.355098187923431396e-02 -2.853564172983169556e-02 -1.368720363825559616e-02 1.166998501867055893e-02 -6.402076687663793564e-04 -1.081100385636091232e-02 4.873032681643962860e-03 -1.066647004336118698e-02 1.996975392103195190e-02 -2.982425270602107048e-03 3.517915029078722000e-03 -1.115353032946586609e-02 -1.025600009597837925e-03 1.845653168857097626e-02 1.664779335260391235e-02 -2.226605638861656189e-02 6.994623225182294846e-03 -1.452641282230615616e-02 7.401466369628906250e-03 9.157688356935977936e-03 -1.394584029912948608e-02 2.188735269010066986e-02 2.084562554955482483e-02 -2.421037992462515831e-03 -1.216017920523881912e-02 1.586243137717247009e-02 7.549098227173089981e-03 2.250069566071033478e-02 8.781783282756805420e-03 -6.357025820761919022e-03 8.846720680594444275e-03 -3.365376591682434082e-02 -4.669923800975084305e-03 8.206575177609920502e-03 -3.233541501685976982e-04 4.434985574334859848e-03 -8.733294904232025146e-03 1.060585770756006241e-02 -7.004961371421813965e-03 -1.280048036278458312e-05 -1.589377224445343018e-02 -1.434966735541820526e-02 -7.959904149174690247e-03 -5.540603306144475937e-03 -2.127987705171108246e-02 1.421880209818482399e-03 1.727388426661491394e-02 2.391787059605121613e-02 -2.379505662247538567e-03 -2.424611011520028114e-03 5.999361630529165268e-03 1.289901230484247208e-02 -1.643483154475688934e-02 -2.690034173429012299e-02 -3.629782004281878471e-03 -1.449068076908588409e-02 -1.073143817484378815e-02 -2.180506289005279541e-02 8.430237881839275360e-03 -1.579726673662662506e-02 2.016539126634597778e-02 1.559766195714473724e-02 4.156071227043867111e-03 1.411923673003911972e-02 9.070764295756816864e-03 2.103243209421634674e-02 3.046501055359840393e-02 1.272722519934177399e-02 1.045772992074489594e-02 -8.375919423997402191e-03 -1.027783937752246857e-02 -7.184122805483639240e-04 -1.032941695302724838e-02 -1.732703484594821930e-02 -1.859973883256316185e-03 -5.813485477119684219e-03 7.251093629747629166e-03 -8.286871016025543213e-03 3.989912942051887512e-02 1.288693398237228394e-02 2.779457159340381622e-02 2.816701121628284454e-02 -3.800836857408285141e-03 -2.027625776827335358e-02 -1.565478555858135223e-02 -7.611915469169616699e-03 -1.897695846855640411e-02 1.441555283963680267e-02 2.616836456581950188e-03 -1.810059137642383575e-02 4.121952224522829056e-03 -1.426324620842933655e-02 2.211248315870761871e-02 -9.895378723740577698e-03 -9.547998197376728058e-03 -3.836221527308225632e-03 3.889654763042926788e-03 -9.745630668476223946e-04 1.344742719084024429e-03 -9.330218657851219177e-03 9.768100455403327942e-03 3.177305916324257851e-03 -1.557482406497001648e-02 -8.757887408137321472e-03 -1.625384204089641571e-02 -2.168602868914604187e-02 -2.071779407560825348e-02 -9.639472700655460358e-03 1.353410072624683380e-02 1.511515397578477859e-02 1.757848449051380157e-02 1.878120191395282745e-02 -2.106328262016177177e-03 8.795831236056983471e-04 -5.013936664909124374e-03 1.132508553564548492e-02 -2.150964550673961639e-02 1.028515305370092392e-02 -1.507481001317501068e-02 -1.075919624418020248e-02 3.664471209049224854e-02 -3.032998554408550262e-02 -2.417849143967032433e-03 -7.819813676178455353e-03 -1.608926616609096527e-02 7.751363329589366913e-03 5.148075986653566360e-03 -5.219426471740007401e-03 -1.580030843615531921e-02 -1.674439990893006325e-03 -9.300484322011470795e-03 1.548831816762685776e-03 -7.404552306979894638e-03 -1.147471461445093155e-02 7.355692796409130096e-03 1.220896188169717789e-02 -1.560300402343273163e-02 -5.124177783727645874e-03 1.286288024857640266e-03 -2.298620529472827911e-02 3.772534802556037903e-02 -3.021616255864500999e-03 2.962756156921386719e-02 -1.390795130282640457e-02
-1.097979489713907242e-02 -2.012080140411853790e-02 -7.449537515640258789e-03 4.358527436852455139e-02 -1.236283872276544571e-02 -2.386884763836860657e-03 4.044144414365291595e-03 -6.199274212121963501e-03 -1.886402070522308350e-02 1.989355124533176422e-02 -8.640638552606105804e-03 -1.105393655598163605e-02 -1.028107851743698120e-02 -6.981658749282360077e-03 -8.202134631574153900e-03 -1.068125013262033463e-02 9.352116845548152924e-03 4.937752149999141693e-03 -1.614573411643505096e-02 -9.420576505362987518e-03 -2.370382659137248993e-02 -1.555502694100141525e-02 1.946502551436424255e-02 -8.320676162838935852e-03 1.280628237873315811e-02 6.066132336854934692e-03 -2.372400090098381042e-02 -2.467569196596741676e-03 -1.336389780044555664e-02 2.065448835492134094e-02 4.574334714561700821e-03 -6.978143006563186646e-03 3.635291068349033594e-04 1.914139138534665108e-03 -7.291536312550306320e-03 -1.339650247246026993e-02 -1.934785209596157074e-02 -7.600044831633567810e-03 -2.578680776059627533e-02 2.812848659232258797e-03 2.372992690652608871e-03 6.123174913227558136e-03 4.128100350499153137e-03 -1.347709633409976959e-02 -5.045983009040355682e-03 2.222273126244544983e-02 -2.260901778936386108e-02 -6.142811034806072712e-04 -1.578249037265777588e-02 -1.901252195239067078e-02 4.204650875180959702e-03 2.483175834640860558e-03 1.494001131504774094e-02 5.277876276522874832e-03 9.708631783723831177e-03 1.150313299149274826e-02 -3.440250176936388016e-03 1.589733641594648361e-03 -2.141474187374114990e-02 2.416676469147205353e-02 8.614703081548213959e-03 3.261690260842442513e-03 -6.428145337849855423e-03 -1.443720655515789986e-03 -2.912547066807746887e-02 -1.250574551522731781e-02 -1.925602555274963379e-02 -1.587368606124073267e-04 -1.577793969772756100e-03 2.352031646296381950e-03 -1.305977255105972290e-02 5.816786549985408783e-03 3.268798580393195152e-03 -3.139851987361907959e-02 -2.076890505850315094e-02 6.749850232154130936e-03 -5.891425069421529770e-03 1.064655557274818420e-02 -1.197304483503103256e-02 2.267009764909744263e-02 9.755076840519905090e-03 9.066627360880374908e-03 -2.202648669481277466e-03 9.615289047360420227e-03 1.358900498598814011e-02 5.312320310622453690e-03 4.121647507417947054e-04 3.146029193885624409e-04 -1.546233519911766052e-02 5.894458852708339691e-03 1.042575202882289886e-02 -1.350680715404450893e-03 1.603868603706359863e-02 -2.372246794402599335e-02 -1.469610072672367096e-02 -1.500792242586612701e-02 3.621022449806332588e-03 -6.402252707630395889e-03 3.156027942895889282e-02 -6.937106605619192123e-03 1.352637191303074360e-03 -6.080254912376403809e-03 -4.397693090140819550e-03 -1.554144639521837234e-02 -2.470909245312213898e-02 7.613062392920255661e-03 -1.048213336616754532e-03 3.496414516121149063e-03 -2.440013736486434937e-02 4.779333714395761490e-03 5.555905867367982864e-03 2.449601143598556519e-02 -1.039451733231544495e-02 -1.083607599139213562e-02 -8.791468106210231781e-03 1.180726196616888046e-02 -1.362285669893026352e-02 -4.415087401866912842e-03 2.908136136829853058e-02 -2.851940691471099854e-03 1.949371211230754852e-02 1.463260129094123840e-02 2.904599905014038086e-02 1.405189651995897293e-02 3.125309012830257416e-03 -1.638684235513210297e-02 6.683233194053173065e-03 1.967208692803978920e-03 -2.233245782554149628e-02 2.037975471466779709e-03 8.636459708213806152e-03 7.372092455625534058e-03 2.003801055252552032e-02 -9.288560249842703342e-04 1.797662000171840191e-03 -1.256366260349750519e-03 1.183999329805374146e-02 -1.618145965039730072e-02 -3.883956698700785637e-03 3.620484843850135803e-03 2.093596849590539932e-03 1.353151164948940277e-02 1.986766606569290161e-02 -2.446401305496692657e-02 4.433610476553440094e-03 -1.597347110509872437e-02 -5.988515447825193405e-03 -1.116859726607799530e-02 7.704163435846567154e-03 1.091784983873367310e-02 -2.451248839497566223e-02 8.586131967604160309e-03 -1.810674183070659637e-02 1.531405723653733730e-03 9.377342066727578640e-04 -1.759839244186878204e-02 9.690972976386547089e-03 -2.186779165640473366e-03 -9.065217338502407074e-03 8.032171986997127533e-03 -4.443724639713764191e-03 8.102941326797008514e-03 -7.372702471911907196e-03 1.823714002966880798e-02 1.126840151846408844e-02 -2.993942471221089363e-03 2.758066111709922552e-04 1.246507838368415833e-02 8.388513815589249134e-04 1.563875004649162292e-02 1.568671502172946930e-02 -9.732273407280445099e-03 -1.214300468564033508e-02 9.172774851322174072e-03 1.553560700267553329e-02 6.071371026337146759e-03 1.765363733284175396e-03 9.859764948487281799e-03 1.318864617496728897e-02 1.499628741294145584e-02 -7.311273366212844849e-03 4.669979214668273926e-03 -1.409417670220136642e-02 3.376348642632365227e-03 -1.434297394007444382e-02 1.305124536156654358e-02 -3.889603831339627504e-04 8.911447599530220032e-03 -3.761565312743186951e-03 9.431257843971252441e-03 -1.750773750245571136e-03 4.732667002826929092e-03 1.657813973724842072e-02 -1.192808523774147034e-02 -3.026177175343036652e-02 -1.334790978580713272e-02 1.552224066108465195e-02 -4.539355635643005371e-03 -2.974577434360980988e-02 -2.751717716455459595e-02 3.171690506860613823e-03 1.962545886635780334e-02 -1.793743483722209930e-02 1.071059890091419220e-02 1.581976749002933502e-02 2.058221260085701942e-03 1.546999847050756216e-04 -2.745826356112957001e-02 -1.759726367890834808e-02 1.871771994046866894e-03 -9.591556154191493988e-03 -3.147123008966445923e-02 -4.819919820874929428e-03 2.015298668993636966e-04 1.187936216592788696e-02 -1.771139726042747498e-02 -4.117582459002733231e-03 1.101008430123329163e-02 -1.121157035231590271e-02 -1.292794849723577499e-02 5.598004441708326340e-03 2.214048989117145538e-03 2.849145606160163879e-02 6.320085376501083374e-03 -8.442661724984645844e-03 3.466464695520699024e-04 -1.294867508113384247e-02 -9.924593381583690643e-03 1.271853921934962273e-03 -9.634152986109256744e-03 -1.776856184005737305e-02 1.383531000465154648e-02 1.093908795155584812e-03 -7.252412848174571991e-03 -1.185257080942392349e-02 1.399444323033094406e-02 -1.187433116137981415e-02 4.636324942111968994e-03 -1.958286762237548828e-02 -2.318556234240531921e-02 -3.853449132293462753e-03 -1.085671875625848770e-02 6.965212989598512650e-03 -1.576697453856468201e-02 -1.178780756890773773e-02 6.476809270679950714e-03 -6.254997104406356812e-03 -4.834694322198629379e-03 -1.009173598140478134e-02 2.394675649702548981e-02 4.931214731186628342e-03 1.242401357740163803e-02 -2.355912327766418457e-02 8.431128226220607758e-03 2.607876434922218323e-02 3.206867258995771408e-03
-2.781865745782852173e-02 2.395663596689701080e-02 -8.359145140275359154e-04 9.383882395923137665e-03 -9.367118589580059052e-03 4.768306098412722349e-04 -1.161876413971185684e-02 8.629910735180601478e-05 -1.412802096456289291e-02 6.940548773854970932e-03 -1.392425131052732468e-02 -1.354472804814577103e-02 -1.781660318374633789e-02 -7.998649962246417999e-03 -7.902894169092178345e-03 -9.366130456328392029e-03 7.266536820679903030e-03 7.477753795683383942e-03 -9.734871797263622284e-03 4.261554218828678131e-03 1.693443395197391510e-02 -2.640789747238159180e-02 1.319340616464614868e-02 1.903474330902099609e-02 9.577997028827667236e-03 6.478929892182350159e-03 -1.744510419666767120e-02 -1.494142226874828339e-02 1.379021070897579193e-02 2.885310724377632141e-02 -1.130863092839717865e-02 7.266353815793991089e-03 -8.790310239419341087e-04 -8.042212575674057007e-03 4.514063708484172821e-03 1.500335801392793655e-02 7.676717825233936310e-03 3.613480366766452789e-03 -5.801026127301156521e-04 -7.586799096316099167e-03 -1.522353501059114933e-03 5.139772314578294754e-03 1.650994457304477692e-02 -5.320675205439329147e-03 1.527235726825892925e-04 -1.234466303139925003e-02 -1.099064201116561890e-02 3.242377564311027527e-02 -1.999840140342712402e-02 -6.106659770011901855e-03 1.043344940990209579e-02 -1.230028364807367325e-02 7.596739567816257477e-03 1.527434866875410080e-02 -3.537895390763878822e-03 2.891669049859046936e-03 1.057340204715728760e-02 4.849257413297891617e-03 8.042599074542522430e-03 1.758885197341442108e-02 1.335168536752462387e-02 -7.124116644263267517e-03 4.964536987245082855e-03 7.712569087743759155e-03 -5.724233109503984451e-03 -1.314456295222043991e-02 -8.416735567152500153e-03 8.179434575140476227e-03 -3.313250094652175903e-02 1.073844451457262039e-02 -1.373789738863706589e-02 2.433387096971273422e-03 3.155948827043175697e-03 3.872291184961795807e-03 6.158588454127311707e-03 6.145447492599487305e-03 -6.763387005776166916e-03 1.018135994672775269e-02 1.005993690341711044e-02 -4.060563631355762482e-03 -5.974207539111375809e-03 2.584828808903694153e-02 3.188219852745532990e-03 -4.087500739842653275e-03 -3.159247338771820068e-02 1.527817267924547195e-02 5.071152932941913605e-03 -6.921039428561925888e-03 7.562187965959310532e-03 1.994330435991287231e-03 -1.133632846176624298e-02 6.489137653261423111e-03 2.203398011624813080e-02 1.192906219512224197e-02 9.791419841349124908e-03 1.443415065295994282e-03 -2.532982826232910156e-02 1.618545502424240112e-02 1.354335527867078781e-02 -1.025883294641971588e-02 7.128500379621982574e-03 2.018932625651359558e-02 1.049291063100099564e-02 -2.501405030488967896e-02 6.397606339305639267e-03 7.950850762426853180e-03 -2.181685157120227814e-02 -1.186367683112621307e-02 -8.431017398834228516e-03 5.724512971937656403e-03 8.570492267608642578e-03 -7.210573530755937099e-04 6.621959619224071503e-03 1.002799253910779953e-02 2.224072581157088280e-03 7.137358654290437698e-03 1.690128585323691368e-03 -1.502088457345962524e-02 3.616772883106023073e-04 -2.094943821430206299e-02 1.142374891787767410e-02 2.869634423404932022e-03 6.586689036339521408e-03 -7.970389560796320438e-05 -1.459276210516691208e-02 1.069661229848861694e-02 5.554742645472288132e-03 -6.782460957765579224e-03 2.680780133232474327e-03 -3.540514037013053894e-03 1.057694014161825180e-02 1.811568997800350189e-02 3.413768252357840538e-03 2.439675386995077133e-03 4.668973386287689209e-03 -1.128200255334377289e-02 -4.167630337178707123e-03 -4.195948422420769930e-04 -4.252735059708356857e-03 1.677574589848518372e-03 5.587424151599407196e-03 8.029128657653927803e-04 -1.466765534132719040e-02 -1.372223906219005585e-02 -3.692279336974024773e-03 -1.158147491514682770e-02 -7.741723675280809402e-03 -1.705153100192546844e-02 -5.880298092961311340e-03 7.692269515246152878e-03 -1.047708094120025635e-02 1.468813885003328323e-02 2.645293134264647961e-04 -1.310426834970712662e-02 3.472645068541169167e-03 1.414717989973723888e-03 -2.099539618939161301e-03 1.490867789834737778e-02 8.807487902231514454e-04 2.022914588451385498e-02 3.489998634904623032e-03 4.323123954236507416e-03 -1.544284354895353317e-02 1.533001661300659180e-02 2.051058836514130235e-04 1.140843704342842102e-02 6.178095005452632904e-03 1.521741691976785660e-02 -1.625284319743514061e-03 4.582378081977367401e-03 -6.963177118450403214e-03 -7.889007065386977047e-06 4.152824170887470245e-03 6.976280827075242996e-03 1.925913244485855103e-02 1.016565691679716110e-02 -2.452042826917022467e-04 1.855539716780185699e-02 2.567439898848533630e-02 3.556712716817855835e-02 5.076351226307451725e-04 7.296685944311320782e-04 -1.715527847409248352e-02 -2.872862853109836578e-03 1.711477898061275482e-02 9.060529991984367371e-03 8.594190701842308044e-03 -6.530790589749813080e-03 9.056417271494865417e-03 6.861446890980005264e-03 -1.250553177669644356e-03 2.444175537675619125e-03 1.879041641950607300e-02 9.137309156358242035e-03 -4.132179543375968933e-02 1.513529848307371140e-02 -1.557210460305213928e-03 5.354582797735929489e-03 -5.799212027341127396e-03 1.557075977325439453e-02 4.069148271810263395e-04 -1.830680668354034424e-02 3.147070296108722687e-03 6.331928889267146587e-04 4.723525140434503555e-03 1.861890428699553013e-03 1.215838175266981125e-02 1.563508529216051102e-03 -9.769546799361705780e-03 2.742250217124819756e-03 -6.091140210628509521e-03 -2.237988822162151337e-02 4.338689148426055908e-03 -2.394351363182067871e-02 -1.627387478947639465e-03 1.140380091965198517e-02 -1.554800104349851608e-02 5.431540776044130325e-03 3.076833207160234451e-03 -2.334949094802141190e-03 1.126786577515304089e-03 -1.270953845232725143e-02 2.898884471505880356e-03 -8.682391606271266937e-03 -1.327804289758205414e-03 5.016446113586425781e-03 -1.830838271416723728e-03 4.983186721801757812e-03 -1.693520694971084595e-02 1.169957686215639114e-02 -6.127117667347192764e-03 1.027096901088953018e-02 1.132323406636714935e-02 -1.792586292140185833e-03 1.390549819916486740e-02 2.921719336882233620e-03 -4.661330021917819977e-03 -1.067653205245733261e-02 -9.142981842160224915e-03 7.209686096757650375e-03 -3.064470365643501282e-03 -7.687283679842948914e-03 2.831362187862396240e-03 9.558996185660362244e-03 -2.103764750063419342e-02 -3.094820422120392323e-04 2.848128788173198700e-03 6.123044528067111969e-03 1.698968186974525452e-02 1.122060976922512054e-02 -9.614749811589717865e-03 2.957425080239772797e-03 -9.889131411910057068e-03 -2.224858384579420090e-03 2.172659523785114288e-02 6.989785935729742050e-03
-1.431315205991268158e-03 1.458065304905176163e-02 1.038640853948891163e-03 -2.259132824838161469e-02 2.240814268589019775e-03 1.164271775633096695e-02 -3.617331152781844139e-03 -6.524372380226850510e-03 -2.739655552431941032e-03 -3.773199766874313354e-02 1.893970184028148651e-03 1.189366728067398071e-02 2.053789608180522919e-02 9.823716245591640472e-03 1.219069585204124451e-02 7.062379270792007446e-03 -1.780035905539989471e-02 1.831500604748725891e-02 1.554596051573753357e-02 1.716229505836963654e-02 -1.144937518984079361e-02 -1.392091903835535049e-02 -4.774018656462430954e-03 8.393524214625358582e-03 -2.270697988569736481e-02 -1.189096737653017044e-02 -1.019500195980072021e-03 1.187136396765708923e-02 -6.290872115641832352e-04 5.291273118928074837e-04 -6.669990252703428268e-03 -1.396817527711391449e-02 1.406241487711668015e-02 -1.747343130409717560e-02 3.482439322397112846e-03 -1.476504374295473099e-02 1.445750053972005844e-02 9.849619120359420776e-03 -4.540855588857084513e-04 -5.299891345202922821e-03 5.466689355671405792e-03 -1.924737240187823772e-03 4.614065401256084442e-03 1.569018932059407234e-04 -3.940518014132976532e-03 -1.108882203698158264e-02 -2.208153903484344482e-02 -1.318377908319234848e-02 2.509587071835994720e-02 1.331226155161857605e-02 -1.251421775668859482e-02 9.185770526528358459e-03 -5.059646355221047997e-05 -1.896088011562824249e-02 1.283574849367141724e-03 -3.634249325841665268e-03 -1.146369706839323044e-02 -1.587518677115440369e-02 5.167604889720678329e-03 -1.937649026513099670e-02 -2.717983443289995193e-03 1.191551145166158676e-02 -5.005326122045516968e-03 -7.343342062085866928e-03 5.167129449546337128e-03 6.182421930134296417e-03 1.680697314441204071e-02 -1.909253653138875961e-03 3.023141808807849884e-02 -3.192523727193474770e-03 -1.022480614483356476e-02 5.276273004710674286e-03 -1.956703513860702515e-02 8.910394273698329926e-03 -6.574492435902357101e-03 -5.579283926635980606e-03 1.246155006811022758e-04 -2.299105282872915268e-03 -6.543062161654233932e-03 5.632063839584589005e-03 1.388670317828655243e-02 -9.606054984033107758e-03 -9.423501789569854736e-03 -1.407220680266618729e-02 9.047927334904670715e-03 1.744188927114009857e-02 8.200392127037048340e-03 6.906246766448020935e-03 1.623879000544548035e-02 -1.655256003141403198e-02 -1.220952812582254410e-02 -8.074538782238960266e-03 2.593820914626121521e-02 -6.123397615738213062e-04 1.401399821043014526e-02 9.540569037199020386e-03 -1.125140301883220673e-02 -4.607101436704397202e-03 1.880559325218200684e-02 1.641644351184368134e-02 -9.056870825588703156e-03 -9.932834655046463013e-03 -9.729997254908084869e-03 -2.433996880427002907e-03 -4.538019653409719467e-03 -7.360169198364019394e-03 1.453667506575584412e-02 -1.235624868422746658e-02 1.111599151045084000e-02 2.059837244451045990e-02 -1.365159079432487488e-02 5.415047053247690201e-04 -1.261985860764980316e-03 1.410046964883804321e-02 1.088337041437625885e-02 -1.879415102303028107e-02 2.929550968110561371e-02 2.387967426329851151e-03 -7.943226955831050873e-03 -3.299188392702490091e-04 2.914067823439836502e-03 1.295439526438713074e-02 1.305543910712003708e-02 -3.608511993661522865e-03 2.616734011098742485e-03 1.276645064353942871e-02 -9.611622081138193607e-04 -4.207211546599864960e-03 3.874237299896776676e-04 3.249836619943380356e-03 3.264747792854905128e-03 8.508123457431793213e-03 -1.162727177143096924e-02 5.136728286743164062e-03 1.267824601382017136e-02 1.920635066926479340e-02 -1.334554748609662056e-03 -1.636658050119876862e-02 -1.272923685610294342e-02 -1.444997172802686691e-02 7.203992456197738647e-03 -3.738430968951433897e-04 7.205248344689607620e-03 3.384643234312534332e-03 -2.822953648865222931e-02 -4.732425324618816376e-03 -3.696225350722670555e-03 -3.164422465488314629e-03 -2.496544271707534790e-03 1.836720295250415802e-02 1.083919405937194824e-02 -6.416305899620056152e-03 -8.115931414067745209e-03 -5.129844881594181061e-03 -5.237532313913106918e-03 -2.939823456108570099e-02 2.121701836585998535e-03 -9.994421154260635376e-03 1.459468621760606766e-02 -3.286793595179915428e-03 -1.444188412278890610e-02 5.627088248729705811e-03 2.532682195305824280e-02 -7.363956421613693237e-03 -4.247474018484354019e-03 -9.428473189473152161e-03 -1.594893168658018112e-03 -1.255843602120876312e-02 -2.706866245716810226e-03 -1.190428715199232101e-02 1.164360903203487396e-02 1.145821157842874527e-02 8.837144821882247925e-03 -1.571355201303958893e-02 -7.487637456506490707e-03 -1.188170816749334335e-02 2.735219663009047508e-03 -3.272581670898944139e-04 -1.269286964088678360e-02 -1.924378424882888794e-02 5.716013256460428238e-03 -1.391817256808280945e-02 -2.130107209086418152e-02 -6.004190072417259216e-03 -6.245250813663005829e-03 -2.492865361273288727e-02 2.786683035083115101e-04 1.677143387496471405e-02 -2.491543535143136978e-03 5.000987090170383453e-03 -2.235678490251302719e-03 -2.380550839006900787e-02 1.066745631396770477e-02 -2.155039459466934204e-03 9.364062920212745667e-03 1.086745411157608032e-02 -4.748554900288581848e-03 -1.377825718373060226e-02 -4.205543547868728638e-03 -6.243183161132037640e-04 -1.562480442225933075e-02 1.064737141132354736e-02 7.916120812296867371e-03 1.618630252778530121e-02 -2.454883046448230743e-02 4.744014237076044083e-03 -3.000653814524412155e-03 -3.727175528183579445e-03 -1.503174658864736557e-02 -1.069679041393101215e-03 2.949245460331439972e-02 -6.138272117823362350e-03 4.483697470277547836e-03 -1.263624802231788635e-02 -7.172749610617756844e-04 6.447393447160720825e-03 -7.759792730212211609e-03 3.961646929383277893e-03 1.747928187251091003e-02 2.052434533834457397e-02 1.272862032055854797e-02 -3.066809661686420441e-02 -6.790078245103359222e-03 1.144789159297943115e-02 1.255962345749139786e-02 9.560489095747470856e-03 1.455979607999324799e-02 -8.635791018605232239e-03 3.487398382276296616e-03 -3.853192087262868881e-03 2.662140410393476486e-03 -1.871256716549396515e-02 -7.402415852993726730e-03 -3.503219690173864365e-03 1.233286131173372269e-02 -2.110474975779652596e-03 -2.372985519468784332e-02 5.629232153296470642e-03 -2.024097368121147156e-02 1.069520250894129276e-03 1.072390936315059662e-02 -2.355423755943775177e-02 1.405977923423051834e-02 1.863114535808563232e-02 1.249691564589738846e-02 2.768429927527904510e-03 1.704082824289798737e-02 2.122748084366321564e-02 8.386604487895965576e-03 1.304856705246493220e-04 -1.519397250376641750e-03 7.734049577265977859e-03 -2.460780367255210876e-02 7.654237095266580582e-03 -3.291471675038337708e-02 1.823776401579380035e-03
-1.703119464218616486e-02 -1.413041073828935623e-02 7.658544462174177170e-03 9.555657394230365753e-03 -3.271647728979587555e-03 5.718983709812164307e-03 1.173525210469961166e-02 -1.392058935016393661e-02 -1.023106183856725693e-02 1.205528061836957932e-02 2.376138232648372650e-03 -5.962357390671968460e-04 -4.705195780843496323e-03 1.063600927591323853e-02 -3.663297509774565697e-03 1.046802732162177563e-03 -8.567115291953086853e-03 -6.527715013362467289e-04 -8.648668415844440460e-03 -6.678287405520677567e-03 -1.363352593034505844e-02 -1.618850417435169220e-02 1.100352779030799866e-02 5.971148610115051270e-03 1.597142592072486877e-02 5.251428112387657166e-03 7.704441901296377182e-03 5.628532730042934418e-03 4.503204836510121822e-04 -8.653964847326278687e-03 1.030982472002506256e-02 5.527168512344360352e-03 1.060153171420097351e-02 5.881005781702697277e-04 -1.132723875343799591e-02 2.615635050460696220e-03 -8.071394637227058411e-03 -1.605432480573654175e-03 -4.147757499595172703e-05 9.863958694040775299e-04 5.557590047828853130e-04 -1.417668443173170090e-02 -1.954190665856003761e-03 -6.318236701190471649e-03 2.494122460484504700e-02 7.895397022366523743e-03 1.784076541662216187e-02 1.677913591265678406e-02 1.010216400027275085e-02 9.715359658002853394e-03 -6.879966240376234055e-03 -1.183533677249215543e-04 -6.533930543810129166e-03 -1.452553831040859222e-02 4.468070983421057463e-04 8.871058933436870575e-03 6.728874868713319302e-04 -8.034640923142433167e-03 -7.358935661613941193e-03 1.107690972276031971e-03 -1.073630712926387787e-02 1.882225275039672852e-02 6.065680179744958878e-03 -1.272614393383264542e-02 6.944132503122091293e-03 1.117236539721488953e-02 4.095167387276887894e-03 1.088002882897853851e-02 -2.002584049478173256e-03 7.292186637641862035e-05 4.443934652954339981e-03 6.748430430889129639e-03 -1.933448715135455132e-03 -1.267408207058906555e-02 -1.773572340607643127e-02 1.429619826376438141e-02 6.695026997476816177e-03 1.008912082761526108e-02 -3.813677700236439705e-03 5.537131801247596741e-03 6.628836039453744888e-03 9.361544623970985413e-03 6.271360442042350769e-03 1.802884275093674660e-03 -3.515449352562427521e-03 -6.765802390873432159e-03 -8.855341933667659760e-03 2.210068283602595329e-03 -2.602323191240429878e-03 8.382775820791721344e-03 -6.432391237467527390e-04 -3.075499553233385086e-03 -8.578968234360218048e-03 2.502853982150554657e-03 -1.427162252366542816e-02 -2.629273571074008942e-03 1.197724509984254837e-02 -8.678862825036048889e-03 -8.912427350878715515e-03 -2.327028429135680199e-03 3.057285444810986519e-03 -8.419307880103588104e-03 6.392230745404958725e-03 3.082408104091882706e-03 3.340763039886951447e-03 2.276228973641991615e-03 2.899563638493418694e-03 -3.691336838528513908e-03 -1.242757774889469147e-03 1.003966014832258224e-02 2.471047453582286835e-03 1.057723257690668106e-02 -2.132265130057930946e-03 -3.887997940182685852e-03 1.288037560880184174e-02 1.393236406147480011e-02 -1.071695471182465553e-03 -1.082710549235343933e-02 4.896474536508321762e-03 -1.454506535083055496e-02 5.697365384548902512e-03 1.089985854923725128e-02 -8.663760498166084290e-03 -1.258433517068624496e-02 1.111258193850517273e-02 -6.445807870477437973e-03 -1.804416999220848083e-03 1.886542886495590210e-02 -9.162900038063526154e-03 -1.054267399013042450e-03 -6.268669385462999344e-04 7.973512634634971619e-03 7.799986284226179123e-03 1.593044959008693695e-02 -8.352776058018207550e-03 8.973667398095130920e-03 -9.038849733769893646e-03 -1.163025293499231339e-02 -7.731050718575716019e-03 -1.561572658829391003e-03 2.442771103233098984e-03 -3.060792339965701103e-03 4.239210858941078186e-03 1.660710200667381287e-02 -2.365122782066464424e-03 -1.909664459526538849e-02 6.653241347521543503e-03 -1.116845477372407913e-02 1.494921930134296417e-02 -6.733578629791736603e-04 -8.659623563289642334e-03 8.478914387524127960e-03 -7.388257072307169437e-04 -1.823391392827033997e-02 1.758642122149467468e-02 -1.007891539484262466e-02 -2.966128988191485405e-03 1.021709386259317398e-02 1.038430817425251007e-02 1.138986926525831223e-02 -1.288507599383592606e-02 1.262195641174912453e-03 -1.583255641162395477e-02 -2.258054912090301514e-02 1.000887341797351837e-02 -1.494373288005590439e-02 4.116992000490427017e-03 -1.567587256431579590e-02 3.764496883377432823e-03 1.068548392504453659e-02 2.775426721200346947e-03 1.634121057577431202e-03 -7.673069369047880173e-03 -2.793460153043270111e-03 2.565921051427721977e-03 -7.937721908092498779e-03 -2.854269929230213165e-02 -1.670745783485472202e-03 8.165566250681877136e-03 7.133216597139835358e-03 -5.588420317508280277e-04 4.488448612391948700e-03 7.892969064414501190e-03 -1.190112717449665070e-02 5.828416324220597744e-04 -1.286196638830006123e-03 -4.694055765867233276e-03 -8.399377577006816864e-03 1.523942966014146805e-02 -1.836103852838277817e-03 -1.055688410997390747e-02 3.775568678975105286e-03 -2.531008236110210419e-02 -6.283557973802089691e-03 -2.636482194066047668e-02 -1.085510756820440292e-02 5.575047805905342102e-03 -1.251412904821336269e-03 1.024956814944744110e-02 -3.977094776928424835e-03 -1.378420856781303883e-03 -1.729578361846506596e-03 1.437021070159971714e-03 9.428685531020164490e-03 8.422736078500747681e-03 -1.244714221684262156e-04 3.925912082195281982e-03 8.190931403078138828e-04 1.705862581729888916e-03 -2.275900170207023621e-02 -2.937309443950653076e-03 1.176133286207914352e-02 -1.221041195094585419e-02 3.378557413816452026e-02 7.962438277900218964e-03 5.719475448131561279e-03 -8.806967176496982574e-03 -1.325221965089440346e-03 9.427288547158241272e-03 -1.172204595059156418e-02 -1.512912847101688385e-02 -4.444371908903121948e-03 1.490017119795084000e-02 1.730637042783200741e-03 4.283342976123094559e-03 -7.339473813772201538e-03 6.841955240815877914e-03 -9.208390489220619202e-03 1.836500503122806549e-02 8.056245744228363037e-03 -6.880733650177717209e-03 9.169957600533962250e-03 2.332635223865509033e-02 -2.561801811680197716e-03 -2.647314919158816338e-03 -7.603948470205068588e-03 1.549577992409467697e-02 -3.829664201475679874e-04 -6.721580575685948133e-05 -3.824935061857104301e-03 5.433014128357172012e-03 -1.235791388899087906e-02 -5.955119268037378788e-04 -4.384470637887716293e-03 -2.420789096504449844e-03 -1.626054011285305023e-02 -8.862423710525035858e-03 -9.947851300239562988e-03 -2.818248234689235687e-03 -2.928430680185556412e-03 -1.369315851479768753e-02 5.733392667025327682e-03 1.817536726593971252e-02 1.658876799046993256e-02 -5.526710083358921111e-05 4.171139560639858246e-03
-2.082677371799945831e-02 5.741234403103590012e-03 7.711098529398441315e-03 3.489479189738631248e-03 2.322208322584629059e-02 7.254324154928326607e-04 -1.602491177618503571e-02 -3.051916882395744324e-02 -7.504512090235948563e-03 1.236233673989772797e-02 -7.448062300682067871e-03 2.772166393697261810e-02 -2.129609137773513794e-02 6.598216015845537186e-03 -4.582223016768693924e-03 -5.912747699767351151e-03 4.772819578647613525e-03 -1.643533259630203247e-02 -1.930062845349311829e-02 -5.009023938328027725e-03 -9.997301734983921051e-03 -1.046884804964065552e-02 1.626069861231371760e-04 1.329169701784849167e-02 4.535248968750238419e-03 -1.025949232280254364e-02 -5.538529716432094574e-03 3.644507844001054764e-03 5.902134347707033157e-03 -8.202180266380310059e-03 4.600261338055133820e-03 -3.679186047520488501e-04 9.467428550124168396e-03 9.617406874895095825e-03 1.510780770331621170e-02 -3.146794158965349197e-03 1.555255707353353500e-02 -8.748340420424938202e-03 -2.500189933925867081e-03 -1.272295685339486226e-05 1.248801965266466141e-02 -2.412937395274639130e-02 -1.111352536827325821e-02 -5.246996443020179868e-05 -5.342325195670127869e-03 -1.878225989639759064e-02 -2.806696807965636253e-03 1.266704220324754715e-02 -6.208457052707672119e-03 2.218088693916797638e-02 -3.343017539009451866e-03 4.134245216846466064e-03 -6.086392095312476158e-04 -1.900266855955123901e-03 -1.597172953188419342e-02 7.160468958318233490e-03 -1.116745825856924057e-02 3.868388244882225990e-03 1.261320244520902634e-02 2.391796093434095383e-03 -4.031103104352951050e-03 2.985733933746814728e-02 3.644593292847275734e-03 -6.617206614464521408e-03 -6.734132766723632812e-03 1.048225350677967072e-02 3.762731328606605530e-03 5.074312444776296616e-03 -2.412137761712074280e-02 7.916507311165332794e-03 1.580867543816566467e-02 8.909441530704498291e-03 1.681995764374732971e-02 1.149742119014263153e-02 4.014510705019347370e-05 -9.497365099377930164e-04 -1.288628671318292618e-02 -1.281979610212147236e-03 -1.328515354543924332e-03 -2.195927128195762634e-02 3.013069974258542061e-03 1.267266110517084599e-03 1.815740717574954033e-03 5.633224733173847198e-03 2.217522636055946350e-02 1.255515497177839279e-03 9.397880174219608307e-03 3.287225263193249702e-05 1.150314137339591980e-02 1.426181662827730179e-02 -1.533699594438076019e-02 -3.241692902520298958e-03 -2.235114201903343201e-02 1.106677926145493984e-03 -1.406189706176519394e-02 1.126640755683183670e-02 -1.251299865543842316e-02 6.610296550206840038e-04 -1.987417973577976227e-02 4.045967943966388702e-03 3.444017609581351280e-03 7.764358073472976685e-03 -2.871956909075379372e-03 -7.930626161396503448e-03 -1.540839765220880508e-02 -1.967224292457103729e-02 5.954896565526723862e-03 3.111819922924041748e-02 1.928117824718356133e-03 7.832032861188054085e-04 1.505996845662593842e-02 6.789704319089651108e-03 -1.713874377310276031e-02 4.741909913718700409e-03 8.480900898575782776e-03 1.395830977708101273e-02 -7.826955989003181458e-03 1.427807495929300785e-03 1.108334679156541824e-02 1.201000157743692398e-02 -2.193052321672439575e-03 -2.560987137258052826e-03 -8.773496374487876892e-03 -1.244134036824107170e-03 -1.711802440695464611e-03 -6.117429584264755249e-03 -1.551762223243713379e-02 1.967394724488258362e-02 -1.277446746826171875e-02 -3.374963998794555664e-04 -2.120995335280895233e-02 2.211436256766319275e-02 -7.803788874298334122e-03 -2.918962761759757996e-02 -1.151618547737598419e-02 6.949490401893854141e-03 -1.463111839257180691e-03 -1.655600219964981079e-02 -1.055214204825460911e-03 8.213205263018608093e-03 -1.445980183780193329e-02 -5.180337000638246536e-03 -4.707769956439733505e-03 7.404406554996967316e-03 -6.510179024189710617e-03 9.911979548633098602e-03 -1.600487716495990753e-02 -1.751670148223638535e-03 -1.996510662138462067e-02 -1.763823255896568298e-02 1.104271225631237030e-02 1.264115329831838608e-02 2.796639455482363701e-04 -2.703400515019893646e-02 1.387240272015333176e-02 -1.236226037144660950e-02 -1.007781736552715302e-02 -1.109857764095067978e-02 1.768493652343750000e-02 1.868496835231781006e-02 1.439645607024431229e-02 8.912392891943454742e-03 4.094868432730436325e-03 -1.555965002626180649e-02 7.359429728239774704e-04 -8.457053452730178833e-03 -4.947520326822996140e-03 -3.375018015503883362e-02 9.920493699610233307e-03 2.813001722097396851e-02 3.580914111807942390e-03 4.817399196326732635e-03 4.821894690394401550e-03 8.827453479170799255e-03 6.363223772495985031e-03 9.863060899078845978e-03 -4.157991148531436920e-03 -1.456766203045845032e-02 3.205167595297098160e-03 1.688535325229167938e-02 2.049512416124343872e-02 1.512558665126562119e-03 -8.037226507440209389e-04 6.156788440421223640e-04 1.141769532114267349e-02 8.000688627362251282e-03 -8.858272805809974670e-03 -1.893856003880500793e-02 1.560744480229914188e-03 5.934945773333311081e-03 -6.485056132078170776e-03 1.009323354810476303e-02 5.970480851829051971e-03 1.554360054433345795e-02 -3.024527104571461678e-03 -3.774464596062898636e-03 1.247306913137435913e-02 -9.914735332131385803e-03 3.098610788583755493e-02 8.067473769187927246e-03 3.693414386361837387e-03 1.414491422474384308e-02 1.688177697360515594e-02 1.324950717389583588e-02 -2.109092194586992264e-03 9.048504754900932312e-03 -1.702840556390583515e-03 -1.297546364367008209e-02 2.078143414109945297e-03 5.359910428524017334e-03 -5.837994161993265152e-03 -8.061107248067855835e-03 -1.740535534918308258e-02 -2.083040308207273483e-03 -2.505524083971977234e-03 1.672466844320297241e-02 -1.646775193512439728e-02 1.592222834005951881e-04 1.358002517372369766e-02 -7.611065171658992767e-03 -1.585466228425502777e-02 7.008108310401439667e-03 2.000388689339160919e-03 2.553492784500122070e-03 -4.527007695287466049e-03 1.347724255174398422e-02 -1.615441404283046722e-02 -2.397707849740982056e-02 5.848663859069347382e-04 1.556898350827395916e-03 1.003932766616344452e-02 -1.561191584914922714e-02 3.775218967348337173e-03 4.718034528195858002e-03 -3.230653004720807076e-03 -5.382351111620664597e-03 1.509728841483592987e-02 -1.208265405148267746e-02 2.305740490555763245e-03 8.880620007403194904e-04 1.461947057396173477e-02 4.980919882655143738e-03 -7.613975089043378830e-03 -1.872477866709232330e-02 -2.429428976029157639e-03 -9.124037809669971466e-03 -5.205472931265830994e-03 -5.890880245715379715e-03 -4.144974518567323685e-03 2.461051754653453827e-02 -1.358254998922348022e-02 -1.348429173231124878e-02 -1.940248720347881317e-02 1.446113549172878265e-02 -7.724235299974679947e-03 2.396408468484878540e-02
-1.408240408636629581e-03 -5.479005165398120880e-03 -8.912082761526107788e-03 1.483403425663709641e-02 -6.287960801273584366e-03 -4.903978668153285980e-03 9.924951940774917603e-03 -1.762026920914649963e-02 -3.399880952201783657e-04 9.878956712782382965e-03 1.663473248481750488e-02 -3.870388958603143692e-03 -4.181157797574996948e-03 -9.279603138566017151e-03 7.042859680950641632e-03 -2.212532795965671539e-02 2.905580040533095598e-04 -1.517120003700256348e-02 -6.398296682164072990e-04 -1.951229386031627655e-02 -1.065302360802888870e-02 -1.589858345687389374e-02 1.296200603246688843e-02 1.603063195943832397e-02 1.789963222108781338e-03 -7.015625014901161194e-03 1.600222289562225342e-02 -4.136292729526758194e-03 4.658688791096210480e-03 6.808505859225988388e-03 1.638172753155231476e-02 1.079448498785495758e-02 -6.022972520440816879e-03 -1.429998781532049179e-02 8.444231003522872925e-03 -1.330725010484457016e-02 4.706183914095163345e-03 9.045995539054274559e-04 -1.082507427781820297e-02 9.548986330628395081e-03 6.467584520578384399e-03 -6.986717693507671356e-03 2.632485702633857727e-03 6.656726822257041931e-03 2.086287550628185272e-02 6.405811291188001633e-04 -2.272351458668708801e-02 -1.073998585343360901e-02 -3.947455901652574539e-03 -3.550606314092874527e-03 8.965170942246913910e-03 -2.365308813750743866e-03 2.282989211380481720e-03 -5.314613808877766132e-04 7.253874209709465504e-04 -4.469491075724363327e-03 -2.593618072569370270e-02 -1.224071602337062359e-03 1.364737376570701599e-02 2.175283152610063553e-03 -1.105008064769208431e-03 -5.866743158549070358e-03 6.918056169524788857e-04 -9.185089729726314545e-03 2.726882696151733398e-03 -3.318038303405046463e-03 -6.797402165830135345e-04 -1.063067186623811722e-02 1.241732668131589890e-02 -2.220919122919440269e-03 -1.175159029662609100e-02 -4.733840469270944595e-03 1.243221946060657501e-02 7.815871387720108032e-03 1.435234956443309784e-02 1.163131557404994965e-02 8.748504333198070526e-03 1.212926674634218216e-02 -2.746911777649074793e-04 1.561430376023054123e-02 -1.681683212518692017e-02 -3.045249963179230690e-03 -2.251290483400225639e-03 -1.868034154176712036e-02 1.522195432335138321e-02 1.519281766377389431e-03 7.137385196983814240e-03 2.896573953330516815e-02 -1.171756652183830738e-03 1.016900315880775452e-02 1.320472452789545059e-02 -2.027206588536500931e-03 1.605087891221046448e-02 1.098534930497407913e-02 -1.375136896967887878e-02 -5.435926374047994614e-03 1.494609564542770386e-02 2.200627932325005531e-03 3.824812883976846933e-04 1.681062858551740646e-03 -1.054234523326158524e-02 9.116340428590774536e-03 9.407979436218738556e-03 -1.740997098386287689e-02 -3.489696420729160309e-03 1.433079689741134644e-02 1.324651855975389481e-02 5.128409247845411301e-03 2.700531855225563049e-02 8.224206045269966125e-03 -2.595433266833424568e-03 3.838374745100736618e-03 8.011030033230781555e-03 -7.034371607005596161e-03 -5.067458841949701309e-03 -1.507960818707942963e-02 -1.461880002170801163e-02 2.279004454612731934e-02 8.958660997450351715e-03 -3.199532162398099899e-03 -1.676565222442150116e-02 -1.522730942815542221e-02 1.568318903446197510e-02 1.154230628162622452e-02 5.419668275862932205e-03 1.504575926810503006e-02 1.363606471568346024e-02 7.420408539474010468e-03 -1.546298153698444366e-03 -6.977828219532966614e-03 1.908708130940794945e-03 -3.214583965018391609e-03 5.971323233097791672e-03 -3.998380899429321289e-02 5.610319203697144985e-04 -2.347635338082909584e-03 7.700060494244098663e-03 -2.216805145144462585e-02 -6.443428806960582733e-03 -1.443215832114219666e-02 4.975315532647073269e-04 8.225200697779655457e-03 4.013728350400924683e-03 -3.608226252254098654e-04 1.004482153803110123e-03 -1.983035169541835785e-02 4.331447184085845947e-03 1.925172843039035797e-02 9.057095274329185486e-03 -3.552834503352642059e-03 1.108917314559221268e-02 6.190470419824123383e-03 -1.514721807325258851e-04 -1.509122375864535570e-04 2.936667762696743011e-03 -8.299163542687892914e-03 1.625051908195018768e-02 1.748584955930709839e-02 5.551367648877203465e-04 -2.108225040137767792e-02 -2.079171687364578247e-02 7.912009023129940033e-03 -2.140030823647975922e-02 2.696580253541469574e-02 1.029381155967712402e-02 1.147117000073194504e-02 -1.417885348200798035e-02 3.521937876939773560e-03 1.018160581588745117e-02 6.342197768390178680e-03 1.479428168386220932e-02 -1.771733537316322327e-02 1.424099504947662354e-02 2.982979407534003258e-03 -9.043749421834945679e-03 -1.448520831763744354e-02 2.822250314056873322e-02 4.037762060761451721e-03 -3.532125614583492279e-03 -8.046741597354412079e-03 -1.066191587597131729e-02 5.712561774998903275e-03 -8.146733976900577545e-03 -9.385262615978717804e-03 -8.587889373302459717e-03 -2.946997992694377899e-03 -1.329802814871072769e-02 5.360038019716739655e-03 9.758580476045608521e-03 -2.825847361236810684e-03 1.084565278142690659e-02 -1.408302411437034607e-02 2.242341078817844391e-02 -1.320566609501838684e-02 1.317963190376758575e-02 2.553557418286800385e-02 1.762373559176921844e-02 -2.000854909420013428e-02 5.585145670920610428e-03 -2.084570005536079407e-02 -1.157138869166374207e-02 -4.408239386975765228e-03 8.011321770027279854e-04 5.953343585133552551e-03 -1.553972344845533371e-02 3.688286757096648216e-03 1.407322846353054047e-02 5.986986216157674789e-04 -1.482885237783193588e-02 -1.085403375327587128e-02 -2.348950877785682678e-02 1.847855513915419579e-03 -1.340525224804878235e-02 -1.795297302305698395e-02 2.689344808459281921e-02 -6.521997507661581039e-03 -1.298204157501459122e-02 -4.197722591925412416e-04 1.598815061151981354e-02 3.309820778667926788e-03 -7.269413676112890244e-03 -1.262824982404708862e-02 -1.522448845207691193e-02 -1.179611030966043472e-02 1.425626035779714584e-02 1.856185682117938995e-02 -6.457681767642498016e-03 -6.129134912043809891e-03 -3.692845813930034637e-03 4.727735649794340134e-03 -2.188403625041246414e-03 1.627219468355178833e-02 8.073839358985424042e-03 1.086584851145744324e-02 1.922737248241901398e-02 1.057760696858167648e-02 9.902404621243476868e-03 1.278232783079147339e-02 6.457276176661252975e-03 1.008212380111217499e-02 6.744550773873925209e-04 4.508787300437688828e-03 1.003725570626556873e-03 -3.182188142091035843e-03 -7.057920447550714016e-05 1.825378742069005966e-03 -9.004126302897930145e-03 -1.239725947380065918e-02 5.659457761794328690e-03 -3.493389813229441643e-03 -1.807401888072490692e-02 2.715237438678741455e-02 -2.944351918995380402e-02 4.164327401667833328e-03 1.515367999672889709e-03 -1.256603002548217773e-02
-1.109429914504289627e-02 -3.281057253479957581e-02 -4.518021363765001297e-03 1.165276952087879181e-02 -1.115577761083841324e-02 1.493334025144577026e-02 1.091291010379791260e-02 -1.463257148861885071e-02 9.259435348212718964e-03 6.357713602483272552e-03 1.993505097925662994e-02 2.531896810978651047e-03 -6.540828850120306015e-03 2.410100307315587997e-03 -1.421707496047019958e-02 -6.310183089226484299e-03 -1.404547801939770579e-04 8.257935754954814911e-03 -1.550012920051813126e-02 3.720664186403155327e-03 -2.325121685862541199e-02 -1.245720894075930119e-03 2.237361297011375427e-02 2.127013285644352436e-04 5.499379243701696396e-03 4.297412000596523285e-03 7.111542858183383942e-03 1.478136144578456879e-02 -2.555353799834847450e-03 1.441761013120412827e-02 1.300543546676635742e-02 8.525537326931953430e-03 1.766498386859893799e-02 1.860481873154640198e-02 6.150173954665660858e-03 -1.829176396131515503e-02 8.010051213204860687e-03 -8.016998879611492157e-03 -1.166844367980957031e-02 3.526353510096669197e-03 1.063077803701162338e-02 -1.073780562728643417e-02 -2.750111510977149010e-03 -1.182284019887447357e-02 4.376451019197702408e-03 -6.062242668122053146e-03 -1.743994094431400299e-02 -8.603768073953688145e-04 4.674849100410938263e-03 -1.135459076613187790e-02 -6.711913738399744034e-03 2.247828524559736252e-04 5.783969536423683167e-03 1.379683520644903183e-02 -1.282816287130117416e-02 -7.055053487420082092e-03 -6.803785450756549835e-03 -6.465357262641191483e-03 -8.144673891365528107e-03 3.768030321225523949e-03 -1.727023720741271973e-02 -1.962834224104881287e-02 -2.203387953341007233e-02 1.337376702576875687e-02 -4.111955408006906509e-03 1.496917381882667542e-02 -1.380510441958904266e-02 -2.529630251228809357e-02 -6.220527458935976028e-03 5.346987862139940262e-03 -6.480293814092874527e-03 1.795849762856960297e-02 -3.319750539958477020e-03 -4.558814223855733871e-03 -9.283854626119136810e-03 7.813461124897003174e-03 1.060789637267589569e-02 6.481770891696214676e-03 3.056047018617391586e-03 -2.938509918749332428e-03 -1.600375026464462280e-02 -1.468038070015609264e-03 2.736574271693825722e-03 -5.590881337411701679e-04 1.034239958971738815e-02 4.767808597534894943e-03 -1.601148105692118406e-04 1.430214848369359970e-02 6.068726070225238800e-03 9.710608050227165222e-03 3.619692055508494377e-03 4.320634528994560242e-03 9.883842431008815765e-03 -1.919300481677055359e-02 8.270108141005039215e-03 9.846341796219348907e-03 8.252187632024288177e-03 -1.139597501605749130e-02 -2.428199863061308861e-03 2.879093168303370476e-03 1.714399841148406267e-04 3.874528047163039446e-04 8.398457430303096771e-03 -1.671253703534603119e-02 -2.377274073660373688e-02 -6.062159314751625061e-03 6.089693866670131683e-03 -1.526954118162393570e-03 1.434348337352275848e-02 1.156057603657245636e-02 7.276349235326051712e-03 1.772106252610683441e-02 -1.598471961915493011e-02 2.078435197472572327e-02 -1.560133602470159531e-02 1.745505258440971375e-02 5.687642842531204224e-03 1.397280208766460419e-02 5.499666556715965271e-03 -2.602729713544249535e-03 7.463453803211450577e-03 -4.676104988902807236e-03 2.412075921893119812e-02 1.772646047174930573e-02 2.000502124428749084e-02 3.869622014462947845e-04 -1.247735414654016495e-02 -6.368347443640232086e-03 -1.731557026505470276e-02 5.811359733343124390e-03 -1.702447794377803802e-02 3.886160207912325859e-03 9.658937051426619291e-05 -3.380225598812103271e-02 7.527028210461139679e-03 1.490894332528114319e-02 3.049705177545547485e-03 -1.707890629768371582e-02 5.967800039798021317e-03 2.511959290131926537e-03 -3.189647803083062172e-03 8.098979480564594269e-03 1.593882590532302856e-02 -1.436133217066526413e-02 -1.771306060254573822e-02 -6.846455857157707214e-03 5.465088877826929092e-03 -1.121797133237123489e-02 8.452598936855792999e-03 7.988572120666503906e-03 -1.600755192339420319e-02 7.958755828440189362e-03 -2.093895897269248962e-02 1.288613863289356232e-02 -1.432961877435445786e-02 -2.339246217161417007e-03 4.323516972362995148e-03 7.096646819263696671e-03 1.374277751892805099e-02 3.798569785431027412e-03 -4.971647169440984726e-03 1.217284146696329117e-02 -2.243911474943161011e-02 2.121530240401625633e-03 -2.742291893810033798e-03 9.631813503801822662e-03 1.906834356486797333e-02 1.359473261982202530e-02 5.093662533909082413e-03 5.456279963254928589e-03 -1.617651665583252907e-03 6.772099062800407410e-03 -8.982266299426555634e-03 1.125126238912343979e-02 -1.723659224808216095e-02 -1.076415181159973145e-02 2.519303932785987854e-02 1.253842934966087341e-02 1.781699433922767639e-02 1.572056859731674194e-02 -7.437164429575204849e-03 2.796759642660617828e-02 2.158428169786930084e-02 1.544215832836925983e-03 -8.671450428664684296e-03 1.141381170600652695e-02 -2.869048155844211578e-02 1.625723391771316528e-02 1.191916968673467636e-02 1.019499357789754868e-02 1.203996501863002777e-02 -1.509082503616809845e-02 1.674617454409599304e-02 -2.851826697587966919e-02 -2.923268591985106468e-03 5.292051937431097031e-03 1.020136941224336624e-02 -1.330550294369459152e-02 -5.151966586709022522e-03 -3.455242514610290527e-02 -4.628952592611312866e-03 8.566462434828281403e-03 2.967379987239837646e-04 1.909183152019977570e-02 2.275248058140277863e-03 1.207576505839824677e-02 4.229792393743991852e-03 -1.570424623787403107e-02 2.579609572421759367e-04 1.110646594315767288e-02 -6.153258495032787323e-03 -1.990532502532005310e-03 8.824873715639114380e-03 -2.398091368377208710e-03 2.164086513221263885e-02 -1.789672486484050751e-02 -2.086655050516128540e-02 -2.615225967019796371e-03 2.944793552160263062e-03 7.546537672169506550e-04 5.064258817583322525e-03 -5.072201136499643326e-03 1.448383182287216187e-02 1.232057809829711914e-02 2.589774783700704575e-03 2.215918339788913727e-02 5.450138822197914124e-03 -2.687567472457885742e-02 -6.743142730556428432e-04 -6.189706269651651382e-03 -8.427597582340240479e-03 6.220407783985137939e-03 -1.302695926278829575e-02 -1.796217868104577065e-03 -1.785607193596661091e-03 2.731786807999014854e-03 4.584776237607002258e-03 -3.835274372249841690e-03 -5.511848255991935730e-03 -6.330525502562522888e-03 -6.697037024423480034e-04 -5.399549845606088638e-04 -6.252479273825883865e-03 5.664712080033496022e-05 7.405305281281471252e-03 -8.177998242899775505e-04 1.142449025064706802e-02 -2.009999705478549004e-03 -7.961794734001159668e-03 1.454977039247751236e-02 1.093487441539764404e-02 6.864740047603845596e-03 -1.729775033891201019e-02 6.855380721390247345e-03 -1.734406454488635063e-03 2.550650388002395630e-02
-4.104630090296268463e-03 -6.610337004531174898e-05 -3.625802230089902878e-03 8.320304565131664276e-03 3.971979953348636627e-03 1.454309909604489803e-03 -8.990634232759475708e-03 -2.239464037120342255e-02 -3.030019579455256462e-03 9.883642196655273438e-04 1.421148050576448441e-02 3.582173027098178864e-03 -1.049531903117895126e-02 -3.810478607192635536e-03 3.496808698400855064e-03 1.679404871538281441e-03 1.915005734190344810e-03 2.740567317232489586e-03 1.000936259515583515e-03 2.245637588202953339e-03 -4.276780877262353897e-03 -2.767412457615137100e-03 1.003962196409702301e-02 1.028175652027130127e-02 -5.225595086812973022e-03 -4.106326494365930557e-03 9.559874422848224640e-03 -1.230540336109697819e-03 -1.940292422659695148e-04 1.613955944776535034e-03 1.240127347409725189e-02 -2.830634452402591705e-02 1.339820399880409241e-02 -2.953516086563467979e-03 5.826079286634922028e-03 -1.871843263506889343e-02 1.190153229981660843e-02 4.626007750630378723e-03 -1.592843793332576752e-02 5.345324985682964325e-03 7.940927520394325256e-03 -6.097928620874881744e-03 -1.189382653683423996e-02 -9.974675253033638000e-03 1.095954421907663345e-02 -6.440734490752220154e-03 3.115118946880102158e-03 7.513308431953191757e-03 -8.908968418836593628e-03 1.871716976165771484e-02 -1.098466012626886368e-02 -2.840701723471283913e-03 -1.495429128408432007e-02 -1.666451618075370789e-02 -1.766471192240715027e-02 2.014876902103424072e-02 -2.035285159945487976e-02 8.239531889557838440e-03 -3.859767923131585121e-03 2.465887740254402161e-02 -5.566553678363561630e-03 1.071456633508205414e-02 -1.115453615784645081e-02 5.718499887734651566e-04 -4.474052693694829941e-03 1.469533145427703857e-02 5.640042480081319809e-03 -9.340807795524597168e-03 2.003511041402816772e-02 -1.155948638916015625e-02 -2.971115289255976677e-03 -5.703192204236984253e-03 4.798732697963714600e-03 -2.438386715948581696e-02 -3.603012999519705772e-03 4.959759535267949104e-04 -2.652209717780351639e-03 1.261975988745689392e-02 9.532758966088294983e-03 1.046535326167941093e-03 4.543491639196872711e-03 -4.184188321232795715e-03 8.770572603680193424e-04 9.993338026106357574e-04 7.844739593565464020e-03 1.029633264988660812e-02 6.774579174816608429e-03 2.740628086030483246e-02 7.567431777715682983e-03 2.854061312973499298e-03 -4.851189907640218735e-03 1.402958016842603683e-02 -1.512529235333204269e-02 7.031186833046376705e-04 4.925360437482595444e-03 7.942288648337125778e-04 8.639554493129253387e-03 -6.164303980767726898e-03 1.360504049807786942e-02 2.889994531869888306e-03 1.133234146982431412e-02 1.749449223279953003e-02 1.177974883466959000e-02 6.455221213400363922e-03 -7.462720852345228195e-03 -1.132454816251993179e-02 2.202294953167438507e-02 -2.267014468088746071e-03 2.983777318149805069e-03 1.076391432434320450e-03 7.043545134365558624e-03 1.450530253350734711e-02 -8.053862489759922028e-03 4.210854880511760712e-03 2.027720678597688675e-03 -2.479743910953402519e-03 -6.965329870581626892e-03 5.265408661216497421e-03 -4.305496811866760254e-03 -1.492183306254446507e-03 -5.373236257582902908e-03 5.038875620812177658e-03 1.003120094537734985e-02 1.238535437732934952e-02 1.101651042699813843e-02 -5.470961797982454300e-03 8.443957194685935974e-03 1.559145515784621239e-03 -2.447557076811790466e-02 9.357845410704612732e-03 -1.226943731307983398e-02 1.605405099689960480e-02 8.594361133873462677e-03 -1.347451703622937202e-03 -8.506510406732559204e-03 -6.092729512602090836e-03 1.268196012824773788e-02 -3.367071971297264099e-02 6.681155413389205933e-03 1.243704580701887608e-03 -7.212558761239051819e-03 6.666297558695077896e-03 2.386448532342910767e-02 -1.422572694718837738e-02 -1.250463165342807770e-02 -1.045800652354955673e-02 2.111357636749744415e-03 -1.634083921089768410e-03 -7.470386568456888199e-03 1.481009763665497303e-03 4.862789530307054520e-03 6.057559046894311905e-03 -4.641417879611253738e-03 -7.028621155768632889e-03 -2.629366354085505009e-04 -1.017921883612871170e-02 -6.510009407065808773e-04 -5.921236006543040276e-04 6.684381049126386642e-03 -3.048035548999905586e-03 -1.374499592930078506e-02 1.178938895463943481e-02 -7.511212024837732315e-03 9.830238297581672668e-03 -2.253253624076023698e-04 7.611745037138462067e-03 3.619595197960734367e-03 4.115431569516658783e-03 1.455058529973030090e-02 5.075008608400821686e-03 4.373777192085981369e-03 -1.575451903045177460e-02 9.761484339833259583e-03 -1.447582338005304337e-02 -1.055200863629579544e-02 -5.060848779976367950e-03 -1.637707836925983429e-02 -1.135982805863022804e-03 -6.559080793522298336e-04 -3.372203558683395386e-03 1.591465203091502190e-03 1.159266661852598190e-02 -1.522154826670885086e-02 -3.856532974168658257e-03 -1.950840931385755539e-03 -1.218804344534873962e-02 -1.543591637164354324e-02 -1.028542872518301010e-03 -4.944302141666412354e-03 6.304187234491109848e-03 -1.748559065163135529e-02 1.916681765578687191e-03 -1.466098055243492126e-02 -1.173657085746526718e-02 -2.388936001807451248e-03 1.106740999966859818e-02 8.728758431971073151e-03 -9.732800535857677460e-03 7.014441653154790401e-04 -7.846110500395298004e-03 -1.778780831955373287e-03 -1.977406791411340237e-04 2.066439483314752579e-03 5.898965988308191299e-03 -3.098025219514966011e-03 1.293762307614088058e-02 1.003713533282279968e-02 -6.699883844703435898e-03 -8.623087778687477112e-03 7.689960766583681107e-03 -1.770709455013275146e-02 -2.521190326660871506e-03 -4.878159146755933762e-03 3.351666266098618507e-03 2.517136279493570328e-03 -1.368263084441423416e-02 -3.112392267212271690e-03 3.472643438726663589e-03 3.380126086995005608e-03 -2.326207002624869347e-03 -8.946188725531101227e-03 -1.150996191427111626e-03 -1.154106669127941132e-02 5.776186008006334305e-03 5.685364361852407455e-03 7.566175423562526703e-03 -1.489048241637647152e-03 -7.868524640798568726e-03 -1.084879972040653229e-02 3.937203437089920044e-03 -1.260161213576793671e-02 -1.122043281793594360e-02 9.069439693121239543e-05 1.216065254993736744e-03 1.741089858114719391e-02 9.797063656151294708e-03 7.760694716125726700e-03 -2.139470307156443596e-03 8.303832262754440308e-03 -1.169837266206741333e-02 4.325834102928638458e-03 -1.302018854767084122e-02 -1.124550774693489075e-02 3.296843031421303749e-03 7.899947813712060452e-04 -9.862556122243404388e-03 -9.138793684542179108e-03 3.214363823644816875e-04 9.067532606422901154e-03 -1.966491155326366425e-02 3.106556134298443794e-03 1.479377131909132004e-02 -7.891392335295677185e-03 -6.884426809847354889e-03 1.306411140831187367e-04 -9.634046815335750580e-03
8.007369004189968109e-03 -4.626389127224683762e-03 -1.020993478596210480e-02 1.760835759341716766e-02 4.318587481975555420e-03 5.360241630114614964e-04 -7.962797768414020538e-03 -1.884346082806587219e-02 -1.000750623643398285e-02 1.168067101389169693e-02 9.408071637153625488e-04 2.445926330983638763e-02 -1.007340196520090103e-02 -1.097326981835067272e-03 9.118192829191684723e-03 -1.042627915740013123e-02 2.292714314535260201e-03 -6.829361431300640106e-03 -1.279419870115816593e-03 -1.437255740165710449e-02 -9.381686337292194366e-03 -1.278786733746528625e-02 -7.653942797333002090e-03 1.180028263479471207e-02 -6.050376687198877335e-03 -2.132188901305198669e-02 -6.235457025468349457e-03 -2.521237358450889587e-03 1.196972467005252838e-02 -2.664095256477594376e-03 8.979367092251777649e-03 -4.663587547838687897e-03 2.597795566543936729e-03 -9.657802060246467590e-03 1.498633623123168945e-02 -1.605954393744468689e-02 9.063832461833953857e-03 -1.537100132554769516e-02 -6.094062700867652893e-03 7.313197478652000427e-03 3.211351577192544937e-03 -1.086413394659757614e-02 -1.424805726855993271e-02 1.148731098510324955e-03 -7.409021258354187012e-03 1.623667031526565552e-02 -1.256535574793815613e-02 1.641212031245231628e-02 5.735543556511402130e-03 2.207402326166629791e-02 7.733420934528112411e-03 -2.534410217776894569e-03 6.978820078074932098e-03 -1.513327099382877350e-02 -1.616892218589782715e-02 1.581042259931564331e-02 -1.691121608018875122e-02 -3.047182457521557808e-03 5.745859234593808651e-04 1.027374062687158585e-03 -1.118170097470283508e-03 3.962284419685602188e-03 -3.589886007830500603e-03 -1.168229337781667709e-02 -9.132726117968559265e-03 1.616982184350490570e-02 1.254351623356342316e-02 2.345188288018107414e-03 1.464788895100355148e-02 -1.614535041153430939e-02 -2.102350583299994469e-03 3.272039117291569710e-03 1.074284594506025314e-02 -1.783545315265655518e-02 5.063609685748815536e-03 -1.176540972664952278e-03 1.608930341899394989e-02 9.579148143529891968e-03 9.859350509941577911e-03 9.620781987905502319e-03 1.582925394177436829e-02 -8.336603641510009766e-03 7.141899317502975464e-03 -3.893785178661346436e-03 1.737962104380130768e-02 8.892686106264591217e-03 1.591672888025641441e-03 1.767686940729618073e-02 1.472736429423093796e-02 1.388148870319128036e-02 -1.718593644909560680e-03 5.704042036086320877e-03 3.254346083849668503e-03 -7.142793387174606323e-03 -1.542452350258827209e-02 -1.577476784586906433e-02 3.778442041948437691e-03 -7.247309666126966476e-03 -1.251292065717279911e-03 -5.784410983324050903e-03 2.317643724381923676e-03 5.843201186507940292e-03 1.482584886252880096e-02 4.355402197688817978e-03 -1.174358557909727097e-02 -2.424059435725212097e-02 5.400987342000007629e-03 6.167565006762742996e-03 9.266041219234466553e-03 1.654770574532449245e-03 -1.257361378520727158e-03 -9.840556420385837555e-03 -7.476090919226408005e-03 -8.839930407702922821e-03 2.111199870705604553e-02 -6.415485870093107224e-03 -3.932369872927665710e-03 2.194197149947285652e-03 -6.908824667334556580e-03 -4.068804904818534851e-03 -8.614475838840007782e-03 2.208948694169521332e-02 5.974554456770420074e-03 5.262340884655714035e-03 -1.538997143507003784e-02 -8.652287535369396210e-03 -9.237897582352161407e-03 2.666357904672622681e-02 -1.031359471380710602e-02 -8.806892670691013336e-03 -2.061319770291447639e-03 2.961597871035337448e-03 1.214618049561977386e-02 9.929232764989137650e-04 7.485332898795604706e-04 1.127937436103820801e-02 3.273206762969493866e-03 -1.356961857527494431e-02 -8.112367242574691772e-03 2.010297757806256413e-04 9.899183176457881927e-03 6.468121893703937531e-03 -8.140009827911853790e-03 1.159152947366237640e-03 -7.557570002973079681e-03 -1.350102014839649200e-02 -1.210885471664369106e-03 -1.138531416654586792e-02 -4.368497524410486221e-03 -6.948510650545358658e-03 3.782384563237428665e-03 -2.121363533660769463e-03 1.179465674795210361e-03 -2.139105461537837982e-02 4.956447519361972809e-03 -2.480522170662879944e-02 -5.920563824474811554e-03 -1.266055554151535034e-02 6.730362656526267529e-04 -4.974403418600559235e-03 -1.739068329334259033e-02 1.922461763024330139e-02 3.886280814185738564e-03 5.473099648952484131e-03 -1.945884665474295616e-03 -1.220147311687469482e-02 2.606329042464494705e-03 -1.402158476412296295e-02 5.866356077603995800e-04 1.692611537873744965e-02 4.292412195354700089e-03 -7.776851765811443329e-03 1.382448524236679077e-02 -9.623431833460927010e-04 7.971419952809810638e-03 -4.760347772389650345e-03 7.315197028219699860e-03 -1.958103617653250694e-03 3.428658936172723770e-03 1.702400622889399529e-04 1.362169068306684494e-02 -1.019214186817407608e-02 7.242341060191392899e-03 1.943585928529500961e-03 -2.140354178845882416e-02 -1.255190116353332996e-03 3.084407420828938484e-03 3.110309364274144173e-03 8.061761967837810516e-03 -8.881486952304840088e-03 -4.917352925986051559e-03 -4.270551726222038269e-03 -1.518485881388187408e-02 -1.331034698523581028e-03 -1.187916379421949387e-03 4.915058147162199020e-03 1.279152184724807739e-02 8.201537653803825378e-03 6.876881700009107590e-03 -4.888937342911958694e-03 -1.243145111948251724e-02 -2.697385614737868309e-03 3.864014986902475357e-03 1.277049165219068527e-02 -1.645418815314769745e-02 2.502260904293507338e-04 1.306277886033058167e-02 -5.014733411371707916e-03 -5.705376155674457550e-03 2.008738956646993756e-04 -2.033563144505023956e-02 -1.078722812235355377e-02 -5.938492249697446823e-03 1.263456791639328003e-02 7.369680097326636314e-04 -5.328889936208724976e-03 -1.072337664663791656e-02 7.569483481347560883e-03 2.005275338888168335e-02 6.183497607707977295e-03 4.735639318823814392e-03 -1.547341048717498779e-02 -1.008906681090593338e-02 6.178441457450389862e-03 -1.268366700969636440e-03 4.496950656175613403e-03 -1.566198305226862431e-03 -1.060287468135356903e-02 -3.991775680333375931e-03 3.296345937997102737e-03 1.133462227880954742e-02 -1.890109293162822723e-02 -1.509849826106801629e-04 -3.131193108856678009e-03 1.204168330878019333e-02 -5.741818808019161224e-03 6.260581430979073048e-04 7.244972512125968933e-03 1.089787948876619339e-02 -2.792946295812726021e-03 1.263887039385735989e-03 -3.124045615550130606e-04 1.715328544378280640e-03 -1.231053750962018967e-02 -6.024218164384365082e-03 -7.307029329240322113e-03 -1.238103676587343216e-02 -7.955283857882022858e-03 -1.565927080810070038e-02 -6.027741823345422745e-03 3.168697468936443329e-03 3.511334769427776337e-03 -6.864467286504805088e-04 3.732905955985188484e-03 -1.103929523378610611e-02 1.264565438032150269e-02
-8.879998931661248207e-04 1.568514155223965645e-03 3.283943980932235718e-03 -3.874016227200627327e-03 2.405265579000115395e-03 4.532232414931058884e-04 -1.735648326575756073e-02 1.410050410777330399e-02 1.571476832032203674e-02 -8.869203738868236542e-03 2.026394940912723541e-03 1.463169138878583908e-02 5.752871744334697723e-03 -1.180425006896257401e-02 2.016144245862960815e-02 1.773249823600053787e-04 -1.194029347971081734e-03 1.854414353147149086e-03 1.221077254740521312e-04 -3.112438600510358810e-03 1.170406932942569256e-03 2.784804254770278931e-02 7.650015410035848618e-03 -2.354370895773172379e-03 -4.195648245513439178e-03 4.355333279818296432e-03 2.759814960882067680e-03 -1.413811184465885162e-02 7.965604774653911591e-03 8.293194114230573177e-04 6.058060098439455032e-03 2.144403551938012242e-04 -4.802823998034000397e-03 2.143793972209095955e-03 2.288314281031489372e-03 -5.820254329591989517e-03 9.365770965814590454e-03 -5.969633348286151886e-03 -1.178923621773719788e-02 -1.966355601325631142e-03 3.560819604899734259e-04 -1.169540081173181534e-02 -2.227117680013179779e-02 -3.118073102086782455e-03 1.124168466776609421e-02 5.702046677470207214e-03 -1.961835846304893494e-02 -9.814643301069736481e-03 -9.426265954971313477e-03 1.549781183712184429e-03 1.890990068204700947e-03 -2.438188903033733368e-02 -1.257171202450990677e-02 7.240937557071447372e-03 -1.416554115712642670e-02 -2.226530807092785835e-03 -3.647436155006289482e-03 2.928972477093338966e-03 -9.930351516231894493e-04 1.911697722971439362e-02 -4.139251075685024261e-03 -6.958715151995420456e-03 5.281350458972156048e-04 6.012729369103908539e-03 -6.397088989615440369e-03 7.727026473730802536e-03 7.509947754442691803e-03 1.215424574911594391e-02 -2.373234834522008896e-03 9.480216540396213531e-03 -1.840339042246341705e-03 -1.161588262766599655e-02 -3.899529576301574707e-03 1.546386349946260452e-02 -2.687990199774503708e-03 1.026682276278734207e-02 -2.225795527920126915e-03 -3.941471222788095474e-03 1.452891901135444641e-02 5.394043400883674622e-03 -8.888920769095420837e-03 7.572591770440340042e-03 2.891556825488805771e-03 -4.439726006239652634e-03 -2.011816250160336494e-03 2.550803357735276222e-03 8.279504254460334778e-03 -1.213584560900926590e-03 -9.266351349651813507e-03 2.919953549280762672e-04 3.050736384466290474e-03 4.457288887351751328e-03 -9.431564249098300934e-03 7.713259663432836533e-03 4.118229728192090988e-03 -1.910461287479847670e-05 6.279666908085346222e-03 -2.286805771291255951e-03 7.641175296157598495e-03 -1.077252440154552460e-02 9.448567405343055725e-03 4.300431814044713974e-03 4.816392902284860611e-03 -1.026850659400224686e-02 -9.957012720406055450e-03 7.395035587251186371e-03 4.940982442349195480e-03 1.054194383323192596e-02 -4.940204787999391556e-03 -3.333637490868568420e-03 1.935122301802039146e-03 6.634292658418416977e-03 2.142714802175760269e-03 6.795250228606164455e-04 -4.680267535150051117e-03 9.806432062759995461e-04 1.076377462595701218e-03 8.949087932705879211e-03 -6.221777759492397308e-03 -6.156402378110215068e-05 -2.243433846160769463e-03 1.405915804207324982e-02 -5.004489794373512268e-04 -5.470170872285962105e-04 -9.233921766281127930e-03 6.729096174240112305e-03 5.795531440526247025e-03 -2.409022767096757889e-03 4.957599448971450329e-04 4.618661012500524521e-03 -1.032430227496661246e-04 2.226519398391246796e-03 4.471453838050365448e-03 -3.664876567199826241e-03 3.672728314995765686e-03 -1.040983758866786957e-02 5.334551911801099777e-03 -1.576585345901548862e-03 5.672118160873651505e-03 8.345998823642730713e-03 -3.953726030886173248e-03 -8.781997486948966980e-03 1.023962395265698433e-03 -5.220454186201095581e-03 -3.742616623640060425e-03 -4.397870798129588366e-04 6.778948474675416946e-03 1.590690016746520996e-02 -2.979278331622481346e-03 -2.539765322580933571e-03 2.096319571137428284e-03 1.928942161612212658e-03 4.558009095489978790e-03 5.137566011399030685e-03 3.826243570074439049e-03 1.451095886295661330e-04 -7.060671225190162659e-03 -2.201910596340894699e-03 -4.219345748424530029e-03 -7.712177466601133347e-03 8.180468343198299408e-03 1.107157580554485321e-02 -1.264953613281250000e-02 2.319089369848370552e-03 1.639152411371469498e-03 -5.022956524044275284e-03 -6.336729507893323898e-03 4.866763483732938766e-03 1.682277652435004711e-03 -7.079935632646083832e-03 -5.290111585054546595e-05 1.064983103424310684e-02 -4.905292298644781113e-03 -1.655351021327078342e-03 -4.543530289083719254e-03 -1.632547378540039062e-02 -7.802887121215462685e-04 6.564714480191469193e-03 -4.498663358390331268e-03 -1.585513725876808167e-02 -8.964376174844801426e-04 -1.229887362569570541e-02 1.436109188944101334e-02 -4.339379258453845978e-03 6.351915653795003891e-03 3.330975072458386421e-03 5.421972367912530899e-03 3.127859206870198250e-03 -1.086589600890874863e-02 -2.019486157223582268e-03 -4.919415805488824844e-03 8.642145432531833649e-03 -1.186237484216690063e-02 -6.504588760435581207e-03 1.921011321246623993e-02 9.621595381759107113e-04 -6.679321639239788055e-03 -4.704595077782869339e-03 -2.205546200275421143e-02 5.367741105146706104e-04 -1.625396194867789745e-03 5.870143068023025990e-04 -1.125057786703109741e-02 -5.691388621926307678e-03 -1.696294522844254971e-03 1.521778991445899010e-03 2.854460151866078377e-03 -6.418066564947366714e-03 2.096791751682758331e-03 6.426445674151182175e-03 2.534845843911170959e-03 -8.469199761748313904e-03 -3.136894374620169401e-04 3.525234642438590527e-04 -9.645178215578198433e-05 -8.884421549737453461e-03 4.698055330663919449e-03 6.270618643611669540e-03 -1.299096271395683289e-02 4.373798612505197525e-03 -8.764739148318767548e-03 9.990543127059936523e-03 -1.302262186072766781e-03 -4.896599799394607544e-03 -1.083263475447893143e-02 -5.349761806428432465e-03 -9.206804446876049042e-03 1.380792702548205853e-03 4.330388270318508148e-03 9.750002063810825348e-03 1.887134858407080173e-03 -4.236927721649408340e-03 -1.878430321812629700e-02 4.545934963971376419e-03 3.962981980293989182e-03 7.346553727984428406e-03 5.941122304648160934e-03 -8.837824687361717224e-03 1.796507625840604305e-03 -1.008567959070205688e-02 7.183220237493515015e-03 -7.190012373030185699e-03 -6.405568215996026993e-03 1.386459101922810078e-03 5.595784634351730347e-03 2.761015435680747032e-03 9.835912846028804779e-03 1.145208813250064850e-02 1.390746142715215683e-02 1.277449424378573895e-03 2.156622707843780518e-03 -2.314282814040780067e-03 1.227588113397359848e-02 -3.924110904335975647e-03 -6.189818494021892548e-03 -1.025358587503433228e-02
3.527340246364474297e-03 1.066943630576133728e-02 4.107368644326925278e-03 5.786734633147716522e-03 1.304890401661396027e-02 5.746364593505859375e-03 -3.823787206783890724e-03 7.559514138847589493e-03 9.374217479489743710e-04 1.250578323379158974e-03 -5.892202723771333694e-03 -8.513274602591991425e-03 -5.242015700787305832e-03 1.508966321125626564e-03 3.573764581233263016e-03 5.056909285485744476e-03 -1.342952600680291653e-03 -1.277136057615280151e-02 -2.091633388772606850e-03 3.501186147332191467e-03 -7.306607905775308609e-03 1.930601778440177441e-03 3.359639376867562532e-04 1.087502390146255493e-02 6.148674059659242630e-03 -7.244517095386981964e-03 -4.616016987711191177e-03 -8.176224306225776672e-03 -1.641431241296231747e-03 -7.430429570376873016e-03 9.754044935107231140e-03 -8.678679354488849640e-03 4.276777151972055435e-03 7.073605433106422424e-03 -4.683959763497114182e-03 3.446719609200954437e-03 -8.208730258047580719e-03 1.760392566211521626e-03 1.526891835965216160e-03 1.996623119339346886e-03 -1.267909887246787548e-03 2.588000847026705742e-03 -1.180874649435281754e-02 -3.338663838803768158e-03 -9.889442007988691330e-04 -3.223417443223297596e-04 1.734436117112636566e-02 9.904884733259677887e-03 -7.309622596949338913e-03 5.035581067204475403e-03 7.112201303243637085e-03 -3.516690339893102646e-04 2.280533779412508011e-03 -1.357787841698154807e-04 -1.023838296532630920e-03 1.761892694048583508e-03 6.398395169526338577e-03 1.409583142958581448e-03 1.511347014456987381e-03 1.890447689220309258e-03 -3.528332337737083435e-03 -7.256343960762023926e-03 -6.806359742768108845e-04 8.799287606962025166e-04 -2.681338926777243614e-03 -9.157369844615459442e-03 3.085454925894737244e-03 7.309873588383197784e-03 -7.909343577921390533e-03 2.851123921573162079e-03 2.770694904029369354e-03 -5.127927754074335098e-03 -1.084073446691036224e-03 -5.511390976607799530e-03 4.385294858366250992e-03 9.518601000308990479e-04 -2.187289064750075340e-03 -3.389509860426187515e-03 4.780975636094808578e-03 5.320534110069274902e-03 -4.023711662739515305e-03 4.263436887413263321e-03 1.977335661649703979e-03 -1.006829179823398590e-02 -1.619536802172660828e-02 1.933586201630532742e-03 5.230246111750602722e-03 1.223770715296268463e-02 -2.174227312207221985e-02 -6.924733053892850876e-03 -1.635181717574596405e-02 -1.013465877622365952e-02 -1.918584457598626614e-03 -7.004836807027459145e-04 -9.037125855684280396e-04 -3.530644346028566360e-03 4.924778826534748077e-03 -9.035735391080379486e-03 1.899628341197967529e-02 -2.752763917669653893e-03 1.158164581283926964e-03 3.567079256754368544e-04 1.083656866103410721e-02 7.857455871999263763e-03 4.381993319839239120e-03 -4.108047112822532654e-03 -3.483845619484782219e-03 -3.385538700968027115e-03 -1.231553126126527786e-02 -3.837249707430601120e-03 -3.134289290755987167e-04 -6.770809646695852280e-03 3.455518046393990517e-03 1.263405941426753998e-02 9.098329464904963970e-04 -1.109715458005666733e-02 -5.561363883316516876e-03 1.014723815023899078e-02 -1.132349856197834015e-02 1.139118056744337082e-02 3.095985390245914459e-03 -1.063231471925973892e-02 8.622498251497745514e-03 1.969168195500969887e-03 -8.175765164196491241e-03 -7.289232686161994934e-03 1.763055846095085144e-02 2.360250335186719894e-03 -5.436238367110490799e-03 5.939127877354621887e-03 2.465814352035522461e-03 1.277968380600214005e-02 1.388333039358258247e-04 2.742130309343338013e-03 -5.247467197477817535e-03 -1.111904997378587723e-02 -4.939233767800033092e-04 -6.311616161838173866e-04 5.901580676436424255e-03 -5.710018798708915710e-03 -1.072500366717576981e-02 5.500589497387409210e-03 -2.759906463325023651e-03 -1.274955738335847855e-02 1.266716793179512024e-02 -5.015742965042591095e-03 -1.606676523806527257e-04 4.171718901488929987e-04 -8.609955199062824249e-03 7.488018367439508438e-03 4.626617301255464554e-03 -3.017651150003075600e-03 -1.613088417798280716e-03 -8.605905808508396149e-03 -4.639202728867530823e-03 2.433815971016883850e-03 -5.457142367959022522e-03 -5.056750494986772537e-03 5.348460283130407333e-03 1.261582504957914352e-02 -7.082793861627578735e-03 -2.748482511378824711e-04 -1.018256973475217819e-02 6.020334549248218536e-04 1.523285522125661373e-03 -9.443020448088645935e-03 -8.491528220474720001e-03 6.783057469874620438e-03 7.268561981618404388e-03 -3.575531009119004011e-04 1.160681247711181641e-03 5.598586052656173706e-03 7.959741167724132538e-03 4.451092798262834549e-03 1.361668808385729790e-03 2.806368516758084297e-03 -1.474641449749469757e-02 -2.700691809877753258e-03 -1.462486456148326397e-03 -7.610610919073224068e-04 1.064564939588308334e-02 -4.178538918495178223e-03 -5.434634629637002945e-03 -6.021412089467048645e-03 1.522789523005485535e-02 -5.316940951161086559e-04 5.801223684102296829e-03 6.824519485235214233e-03 -5.681690294295549393e-03 3.695799678098410368e-04 -9.839974343776702881e-03 3.407586133107542992e-03 -1.033800560981035233e-02 4.947686102241277695e-03 -1.274511450901627541e-03 4.012441728264093399e-03 -6.494359113276004791e-03 2.161384001374244690e-02 4.805556032806634903e-03 -1.094564236700534821e-02 -1.675288076512515545e-03 3.551752073690295219e-03 2.511169761419296265e-03 8.425957057625055313e-04 1.808717101812362671e-02 -8.169085718691349030e-03 6.034372840076684952e-03 -1.686951331794261932e-02 4.927832633256912231e-04 3.791393537539988756e-04 -4.850157536566257477e-03 -6.724608829244971275e-04 1.476866076700389385e-03 -9.146169759333133698e-03 -1.065015606582164764e-02 -4.506844561547040939e-03 8.778498508036136627e-03 -4.105419851839542389e-03 1.279017515480518341e-02 -1.354129984974861145e-03 1.167716179043054581e-02 4.375259391963481903e-03 5.268490407615900040e-03 -5.004871636629104614e-03 1.394299441017210484e-03 5.238156765699386597e-03 -4.083527252078056335e-03 5.897585768252611160e-03 3.585273167118430138e-03 -8.014985360205173492e-03 5.800209008157253265e-03 -3.310951171442866325e-03 -6.922322791069746017e-03 5.796042270958423615e-03 6.948187015950679779e-03 -5.306876730173826218e-03 1.167402043938636780e-02 -1.151385344564914703e-02 1.323607983067631721e-03 -4.924661479890346527e-03 6.253458093851804733e-03 3.118610766250640154e-04 8.361472748219966888e-03 3.215976525098085403e-03 -1.158072147518396378e-02 3.141943830996751785e-03 3.458876628428697586e-03 -1.580959418788552284e-03 -9.950435487553477287e-04 4.219588823616504669e-03 -2.745621837675571442e-03 -2.213828731328248978e-03 1.017575734294950962e-03 -1.032838691025972366e-02 -2.999606309458613396e-03 -1.489790249615907669e-02
1.183320954442024231e-02 9.972705738618969917e-04 3.525112057104706764e-03 -5.255162250250577927e-03 1.537115871906280518e-02 8.986090309917926788e-03 -4.845773801207542419e-04 -4.396163392812013626e-03 1.630168291740119457e-03 -1.314851455390453339e-03 -1.315844990313053131e-02 9.416467510163784027e-03 1.767383539117872715e-03 1.179285347461700439e-03 1.278529968112707138e-02 -3.093022969551384449e-04 4.948887974023818970e-03 -4.041410516947507858e-03 -6.114824209362268448e-03 2.670808171387761831e-04 6.447321735322475433e-03 -5.367204081267118454e-03 1.016226503998041153e-02 -2.372236049268394709e-04 9.769863449037075043e-03 -1.166391000151634216e-02 2.161969663575291634e-03 -5.767345894128084183e-03 -4.497057292610406876e-03 9.105319157242774963e-03 2.263010479509830475e-03 -4.097752098459750414e-04 -5.300345830619335175e-03 1.719166641123592854e-03 5.772212985903024673e-03 -2.407048363238573074e-03 -9.445658884942531586e-03 2.210894832387566566e-03 -2.124333521351218224e-03 -9.128068573772907257e-03 3.406726289540529251e-03 1.833428256213665009e-02 1.346120703965425491e-02 4.408701788634061813e-03 3.195329336449503899e-03 -4.731282126158475876e-03 3.674100153148174286e-03 6.544753909111022949e-03 -3.373589366674423218e-03 3.343709977343678474e-03 4.906894639134407043e-03 7.401163224130868912e-03 4.893404431641101837e-03 -8.442291058599948883e-03 -2.988467458635568619e-03 1.377936825156211853e-02 2.990583598148077726e-04 2.076884993584826589e-04 3.332943015266209841e-04 -2.316432539373636246e-03 -8.530697785317897797e-03 8.605179376900196075e-03 -1.244170311838388443e-02 8.235577493906021118e-03 -7.524865679442882538e-03 -2.327981172129511833e-03 1.125363912433385849e-02 1.582179777324199677e-02 1.418472849763929844e-03 8.325128816068172455e-03 -5.739984568208456039e-03 5.361315794289112091e-03 -5.641358438879251480e-03 3.263281192630529404e-03 -1.100197900086641312e-03 1.976374071091413498e-03 9.712480823509395123e-05 -1.539867254905402660e-03 2.299936953932046890e-03 -2.884213579818606377e-03 -7.679885253310203552e-03 3.691320074722170830e-03 4.593502264469861984e-03 -6.041203625500202179e-03 1.199112366884946823e-02 -1.015842147171497345e-02 1.017335895448923111e-02 4.357425961643457413e-03 -4.553209058940410614e-03 -7.398989982903003693e-03 -4.028387367725372314e-03 -8.720193989574909210e-03 1.459383172914385796e-03 6.231564562767744064e-03 5.954626016318798065e-03 1.446267217397689819e-02 -4.847737494856119156e-03 5.584143102169036865e-03 8.942730724811553955e-03 -1.645553857088088989e-04 1.721316803013905883e-04 7.801622152328491211e-03 5.439518019556999207e-03 -8.387795649468898773e-03 -2.151872962713241577e-03 6.568665150552988052e-03 1.174085657112300396e-03 3.213695483282208443e-03 -8.450380526483058929e-03 -3.487700829282402992e-03 6.825299933552742004e-03 -2.491900930181145668e-03 1.980337547138333321e-03 7.968480698764324188e-03 -6.861264351755380630e-03 -8.317464962601661682e-03 5.285451188683509827e-03 7.877058349549770355e-03 -2.119466662406921387e-02 -3.179138293489813805e-03 -4.838409367948770523e-03 1.051010112860240042e-04 2.164258388802409172e-03 4.148856271058320999e-03 -3.867551567964255810e-04 1.360244676470756531e-02 -2.224351046606898308e-03 3.407093696296215057e-03 1.061393972486257553e-02 -4.738712217658758163e-03 -1.086080074310302734e-02 1.805665157735347748e-02 1.257546246051788330e-03 1.423816574970260262e-04 -3.537981770932674408e-03 -2.204670337960124016e-03 3.262735204771161079e-03 9.046974009834229946e-04 1.350386883132159710e-03 -3.658282337710261345e-03 5.541112739592790604e-03 3.354702377691864967e-03 -1.311935763806104660e-02 -8.929388597607612610e-03 -9.987019933760166168e-03 2.358872210606932640e-03 -1.590554486028850079e-03 -7.965215481817722321e-03 9.688382968306541443e-03 2.886801026761531830e-03 4.924601875245571136e-03 -9.829992195591330528e-04 -2.996721072122454643e-03 -1.981398835778236389e-02 1.799662248231470585e-03 2.587605500593781471e-03 3.552848356775939465e-04 6.968631874769926071e-03 7.197394967079162598e-03 -9.340483695268630981e-03 -1.251615025103092194e-02 -1.191280409693717957e-02 5.043493583798408508e-03 1.900755055248737335e-02 -2.359160222113132477e-03 -2.653048606589436531e-03 -7.249886635690927505e-03 -3.501136554405093193e-03 -1.246366277337074280e-02 -3.321494674310088158e-03 -5.286099622026085854e-06 -1.076835487037897110e-02 1.842831447720527649e-02 -2.668596571311354637e-03 -8.587296120822429657e-03 2.190115774283185601e-04 7.947111502289772034e-03 -3.252775408327579498e-03 -1.322260708548128605e-03 9.247598238289356232e-03 7.606927771121263504e-03 8.066337555646896362e-03 -1.311620115302503109e-03 2.557653700932860374e-03 -4.778786562383174896e-03 -5.700138863176107407e-03 9.097075089812278748e-03 8.264113217592239380e-03 1.712200464680790901e-03 8.361355401575565338e-03 -1.714511192403733730e-03 -4.332722164690494537e-03 1.073181722313165665e-02 -5.583719816058874130e-03 -1.402986980974674225e-02 8.641055785119533539e-03 7.667784579098224640e-03 -2.577669220045208931e-03 -1.106736436486244202e-02 -5.868368782103061676e-03 6.664407905191183090e-03 -2.767289290204644203e-03 -1.034142449498176575e-02 -3.382691647857427597e-03 -5.642617121338844299e-03 1.621392183005809784e-02 -7.884643040597438812e-03 -2.863394794985651970e-03 1.554458960890769958e-02 -1.294909976422786713e-03 2.369157737120985985e-03 1.702356617897748947e-03 5.838082637637853622e-03 -1.640927791595458984e-02 -2.676782605703920126e-04 -4.068601876497268677e-03 -2.845834533218294382e-04 -4.318315070122480392e-03 1.165747921913862228e-02 2.277762861922383308e-03 -1.111206971108913422e-02 -2.257873304188251495e-03 -3.243093611672520638e-03 -4.579389467835426331e-03 8.254983462393283844e-03 8.682530373334884644e-03 -1.595981302671134472e-03 1.112795202061533928e-03 -2.213577739894390106e-03 -1.848730171332135797e-04 4.319229919929057360e-04 4.429422784596681595e-03 -6.657436024397611618e-03 -3.439497901126742363e-03 -4.487113095819950104e-03 -1.308672508457675576e-04 3.213437274098396301e-03 -2.863908419385552406e-03 4.193475469946861267e-03 -2.235174179077148438e-03 9.546182118356227875e-03 -3.207285702228546143e-02 1.727267866954207420e-03 -2.416382310912013054e-03 9.188983589410781860e-03 -2.585624810308218002e-03 -1.053924672305583954e-02 -3.943327814340591431e-03 1.236752606928348541e-03 -1.395077910274267197e-03 -1.622861251235008240e-02 -1.038462854921817780e-03 7.449456024914979935e-03 2.490699058398604393e-03 -9.179203771054744720e-03 -1.375135313719511032e-02
