3.705260157585144043e-02 7.667841017246246338e-02 1.067378818988800049e-01 1.483012735843658447e-01 1.290980279445648193e-01 -1.814171075820922852e-01 -1.025824397802352905e-01 6.883511692285537720e-02 1.692626811563968658e-02 1.382428593933582306e-02 2.058831006288528442e-01 2.234260551631450653e-02 -3.330444451421499252e-03 -1.981625854969024658e-01 1.498655416071414948e-02 4.176996275782585144e-02 7.960234582424163818e-02 -1.634009629487991333e-01 8.522248268127441406e-02 -8.934605121612548828e-02 1.422608196735382080e-01 9.153924882411956787e-02 -5.133253056555986404e-03 -2.958643948659300804e-03 2.782747521996498108e-02 -4.725188761949539185e-02 1.391165852546691895e-01 -9.098637849092483521e-02 -2.394236028194427490e-01 2.298026829957962036e-01 -1.814031414687633514e-02 1.025530695915222168e-01 8.138693869113922119e-02 1.694576069712638855e-02 4.427935462445020676e-03 2.561678737401962280e-02 -3.988558426499366760e-03 -1.564955413341522217e-01 1.501600891351699829e-01 2.226236648857593536e-02 4.708493500947952271e-02 5.999128147959709167e-02 5.427157133817672729e-02 4.270685091614723206e-02 -4.900392610579729080e-03 -5.952961370348930359e-02 5.620020255446434021e-02 6.946741044521331787e-02 5.179781094193458557e-02 5.217551812529563904e-02 1.029660180211067200e-01 8.683688938617706299e-02 -1.163596883416175842e-01 -5.736798793077468872e-02 2.981589548289775848e-02 2.202211618423461914e-01 6.308803707361221313e-02 4.128154739737510681e-02 3.721103444695472717e-02 3.040959127247333527e-02 -3.652863577008247375e-02 1.253262311220169067e-01 -1.392848640680313110e-01 -1.133652031421661377e-02 1.199644282460212708e-01 -7.973934523761272430e-03 1.734302192926406860e-02 -3.371558152139186859e-03 -4.101397097110748291e-02 -3.022126294672489166e-02 1.234397441148757935e-01 5.458432808518409729e-02 -5.842238292098045349e-02 -9.079837054014205933e-02 1.410919874906539917e-01 1.873934082686901093e-02 -1.546778976917266846e-01 4.900019150227308273e-03 -8.049297146499156952e-03 -3.176544979214668274e-02 -2.312844060361385345e-02 2.323324047029018402e-02 5.353095754981040955e-02 3.339786455035209656e-02 4.056984558701515198e-02 2.197907269001007080e-01 -4.315655678510665894e-02 -1.095007732510566711e-02 -2.394736856222152710e-01 -1.685910522937774658e-01 2.230898588895797729e-01 -7.164994627237319946e-02 7.121910899877548218e-02 7.029943913221359253e-02 3.196773678064346313e-02 3.340120613574981689e-02 3.037285432219505310e-02 7.685701549053192139e-02 1.044870316982269287e-01 2.029293179512023926e-01 -1.183246821165084839e-01 9.396910667419433594e-02 8.933308720588684082e-02 -1.358577236533164978e-02 1.719781756401062012e-01 -6.180804967880249023e-02 -6.616397947072982788e-02 1.301615536212921143e-01 1.109431535005569458e-01 -6.442115455865859985e-02 -5.422750115394592285e-02 1.632010936737060547e-02 -1.806883215904235840e-01 -1.416468322277069092e-01 2.608265541493892670e-02 8.103672415018081665e-02 2.769499085843563080e-02 8.368878811597824097e-02 4.284033179283142090e-02 8.808173984289169312e-02 1.181922852993011475e-01 -2.402762323617935181e-02 9.256756305694580078e-02 7.530211657285690308e-02 -2.353764325380325317e-02 -5.295054987072944641e-02 -3.376209735870361328e-02 -4.427725449204444885e-02 6.427390873432159424e-02 3.055924177169799805e-02 6.981066614389419556e-02 1.212113499641418457e-01 -5.641393829137086868e-03 3.484693169593811035e-02 1.438094526529312134e-01 -3.194764256477355957e-02 -5.265748500823974609e-02 -1.271127164363861084e-01 -2.317584492266178131e-02 3.202855819836258888e-03 -7.451495155692100525e-03 -4.914319515228271484e-02 -2.416011691093444824e-02 -1.821024157106876373e-02 -1.111010909080505371e-01 -2.914426382631063461e-03 -6.356292963027954102e-02 -8.315932005643844604e-03 -5.603084340691566467e-02 -1.588184237480163574e-01 -4.680748283863067627e-02 -1.805841326713562012e-01 -3.397541493177413940e-02 -4.721123725175857544e-02 -7.129395008087158203e-02 5.186334252357482910e-03 8.120326325297355652e-03 1.602136492729187012e-01 -1.384629756212234497e-01 -4.583963751792907715e-02 -1.587846130132675171e-02 1.132236793637275696e-01 -5.397233739495277405e-02 4.297877196222543716e-03 1.349295768886804581e-02 1.313415914773941040e-01 1.732437759637832642e-01 1.721240133047103882e-01 7.685151696205139160e-02 6.970754265785217285e-02 1.398962140083312988e-01 -3.375659137964248657e-02 3.469555452466011047e-02 -7.207448035478591919e-02 3.836158290505409241e-02 2.637785486876964569e-02 -2.917282097041606903e-02 -7.160192728042602539e-02 -1.027873158454895020e-01 1.254924386739730835e-01 -9.650022722780704498e-03 1.872732886113226414e-03 -8.776681125164031982e-02 3.770980611443519592e-02 -6.063967570662498474e-02 2.258875966072082520e-02 6.673029810190200806e-02 1.502507179975509644e-02 4.677320271730422974e-02 1.306309998035430908e-01 1.371690165251493454e-02 -1.057856455445289612e-01 4.003062844276428223e-03 1.514444034546613693e-02 5.086331814527511597e-02 -1.652265340089797974e-02 -1.584668904542922974e-01 -2.782995067536830902e-02 5.227857083082199097e-02 -2.964334189891815186e-02 -6.243525072932243347e-02 -2.549321390688419342e-02 1.949514821171760559e-02 -1.332821398973464966e-01 1.372866481542587280e-01 1.140826754271984100e-02 -9.650640934705734253e-02 1.374827474355697632e-01 -7.512786891311407089e-03 4.319871589541435242e-02 -1.826754361391067505e-01 4.197607934474945068e-02 -7.416927069425582886e-02 2.451036423444747925e-01 -4.134702961891889572e-03 -1.621914654970169067e-01 2.297278307378292084e-02 -7.405195385217666626e-02 -9.646859765052795410e-02 2.624459378421306610e-02 1.823897957801818848e-01 -6.038521602749824524e-02 -1.422053128480911255e-01 2.006768994033336639e-02 4.670879617333412170e-02 -5.403451249003410339e-02 9.990917891263961792e-02 1.058063581585884094e-01 1.417390909045934677e-02 -1.033138632774353027e-01 7.261282880790531635e-04 -7.177071273326873779e-02 -1.967745721340179443e-01 -1.300686504691839218e-02 -4.057917743921279907e-02 -1.002369821071624756e-01 9.627036005258560181e-02 2.022987604141235352e-02 -5.061139538884162903e-02 9.865269809961318970e-02 9.366218000650405884e-02 -6.023277714848518372e-02 3.370466874912381172e-03 1.146769970655441284e-01 1.855563372373580933e-01 -7.947301864624023438e-02 5.975973978638648987e-02 -1.051350459456443787e-01 1.062345691025257111e-02 -9.607851505279541016e-02 4.087665304541587830e-02 -1.772176623344421387e-01 5.327071994543075562e-02 -4.632950201630592346e-02 5.275810509920120239e-02 9.036609530448913574e-02
1.069373190402984619e-01 7.734491676092147827e-02 2.392442375421524048e-01 8.460087329149246216e-02 -3.011631965637207031e-02 2.636918239295482635e-02 9.703971445560455322e-04 3.579609096050262451e-02 7.629216462373733521e-02 -1.245407462120056152e-01 4.557829350233078003e-02 1.209324672818183899e-01 -8.388848043978214264e-03 -3.362516686320304871e-02 -3.009060584008693695e-02 7.923906669020652771e-03 -6.961983442306518555e-02 -1.151838079094886780e-01 3.823805227875709534e-02 1.251351088285446167e-01 -1.699744164943695068e-01 -1.792507991194725037e-02 6.290147546678781509e-03 -1.915889419615268707e-02 2.512995153665542603e-03 -2.691216953098773956e-02 -6.403231620788574219e-02 -8.658856898546218872e-02 4.845239222049713135e-02 -9.131596982479095459e-02 -5.767557304352521896e-03 -9.761965274810791016e-02 -6.712431460618972778e-02 -7.691152393817901611e-02 4.197656363248825073e-02 2.166482657194137573e-01 -8.391731977462768555e-02 2.507738955318927765e-02 -7.520568370819091797e-02 1.469875127077102661e-01 -3.113377653062343597e-02 -9.355963766574859619e-02 -1.021458804607391357e-01 1.106206607073545456e-02 -1.414958387613296509e-01 -5.922908335924148560e-02 2.168769575655460358e-02 -9.736023098230361938e-02 -1.671301126480102539e-01 7.466366887092590332e-02 -3.680716454982757568e-02 6.661627441644668579e-02 -2.883608918637037277e-03 1.400102488696575165e-02 -1.541546825319528580e-02 8.556845784187316895e-02 -1.331179440021514893e-01 1.233231052756309509e-01 5.773420631885528564e-02 -1.150443777441978455e-01 7.475680857896804810e-02 2.925240062177181244e-02 -1.484364867210388184e-01 -6.007096916437149048e-02 -2.195424214005470276e-02 1.528266910463571548e-02 -9.418936818838119507e-02 -2.826821617782115936e-02 -1.606942713260650635e-02 -3.082120791077613831e-02 1.604439341463148594e-03 2.679165266454219818e-02 7.223840057849884033e-02 6.558998674154281616e-02 -9.258013963699340820e-02 4.979200661182403564e-02 3.515293449163436890e-02 1.872335821390151978e-01 -1.013888940215110779e-01 1.649211049079895020e-01 -7.909982651472091675e-02 -9.259508550167083740e-02 2.990020997822284698e-02 1.951960846781730652e-02 -9.262481331825256348e-02 -5.804516747593879700e-02 -5.919833201915025711e-03 1.300380378961563110e-01 -1.528851389884948730e-01 7.851811498403549194e-02 4.264080524444580078e-02 1.494234353303909302e-01 -2.959961816668510437e-02 2.059000544250011444e-02 -4.605405405163764954e-02 2.044829577207565308e-01 -6.129409745335578918e-02 2.682874351739883423e-02 1.493552178144454956e-01 -7.803921401500701904e-02 8.130867034196853638e-02 -9.348618984222412109e-02 6.996784359216690063e-02 2.253433614969253540e-01 -3.372128680348396301e-02 -6.002280116081237793e-02 3.900220990180969238e-02 -2.969591505825519562e-02 1.210898235440254211e-01 7.488991133868694305e-03 -6.535331904888153076e-02 1.350939460098743439e-02 -1.323106288909912109e-01 -9.747518599033355713e-02 -3.260149434208869934e-02 5.940743535757064819e-02 1.050586998462677002e-01 -1.016823798418045044e-01 9.815117716789245605e-02 -9.475944191217422485e-02 4.210814461112022400e-02 -2.083605527877807617e-01 2.746150828897953033e-02 -2.184565365314483643e-02 9.274263866245746613e-03 3.631255123764276505e-03 1.780177652835845947e-02 -7.743444293737411499e-02 6.919948011636734009e-02 1.697221770882606506e-02 6.718712300062179565e-02 -1.602401286363601685e-01 3.261708617210388184e-01 1.605235598981380463e-02 -9.109205752611160278e-02 3.214626014232635498e-02 -1.328458730131387711e-02 8.765608817338943481e-02 1.245867535471916199e-01 1.605573445558547974e-01 -4.568777978420257568e-02 8.461277931928634644e-02 2.674275822937488556e-02 5.732607841491699219e-02 -6.641235202550888062e-02 1.022492498159408569e-01 -1.017884090542793274e-01 9.500513225793838501e-02 5.372492130845785141e-03 1.115622967481613159e-01 9.825365990400314331e-02 2.695482596755027771e-02 3.119799681007862091e-02 6.678737699985504150e-02 -1.240632962435483932e-02 3.353321179747581482e-02 7.886599004268646240e-02 9.239833056926727295e-02 7.091411948204040527e-02 1.155477464199066162e-01 1.698628067970275879e-01 -1.328613795340061188e-02 -1.155434921383857727e-02 -3.266540914773941040e-02 -4.601922258734703064e-02 -2.458605729043483734e-02 1.696188002824783325e-02 4.365753754973411560e-02 5.853917822241783142e-02 1.854026913642883301e-01 -2.205602452158927917e-02 1.209848895668983459e-01 -4.739960283041000366e-02 6.499184668064117432e-02 4.164395853877067566e-02 7.948084920644760132e-02 5.746984854340553284e-02 -1.124461814761161804e-01 -1.486836373805999756e-01 3.032597340643405914e-02 -2.416079491376876831e-02 -2.202341146767139435e-02 -4.636911675333976746e-02 2.229555249214172363e-01 -1.529779881238937378e-01 1.034253463149070740e-01 -1.051368787884712219e-01 1.682802219875156879e-03 -3.407479822635650635e-02 -3.723075985908508301e-02 6.599949300289154053e-02 -3.535367920994758606e-02 1.156086660921573639e-02 -1.472285855561494827e-02 6.726528704166412354e-02 -7.966289669275283813e-02 -1.172186955809593201e-01 -7.010164111852645874e-02 7.175700366497039795e-02 -1.964692957699298859e-03 8.462282270193099976e-02 1.626925915479660034e-02 -1.478619221597909927e-02 -2.133583184331655502e-03 -1.426098942756652832e-01 4.718003049492835999e-02 -1.335108131170272827e-01 7.216075807809829712e-02 4.422509670257568359e-02 1.607351601123809814e-01 -1.133647039532661438e-01 -1.864470355212688446e-02 1.348528414964675903e-01 6.586389243602752686e-02 -1.573736965656280518e-01 9.995089843869209290e-03 1.056498847901821136e-02 6.870444864034652710e-02 -2.920363843441009521e-02 -6.127104908227920532e-02 6.424668431282043457e-02 -2.343451082706451416e-01 3.197341039776802063e-02 -3.951522707939147949e-02 4.413343966007232666e-02 -3.400022629648447037e-03 -9.961704164743423462e-02 1.492931544780731201e-01 -4.557269066572189331e-02 2.033796161413192749e-01 5.763021484017372131e-02 5.542195867747068405e-04 5.954826623201370239e-02 -2.192891538143157959e-01 6.150599196553230286e-02 -3.335966030135750771e-04 -4.719338193535804749e-02 -3.024151176214218140e-02 -9.639069437980651855e-02 -5.425435304641723633e-02 -7.180503569543361664e-03 -1.884175688028335571e-01 1.628775894641876221e-02 1.341027170419692993e-01 1.443973835557699203e-02 5.487588793039321899e-02 1.266665197908878326e-02 1.293111592531204224e-01 -3.257263824343681335e-02 -9.249344468116760254e-02 1.836033612489700317e-01 -7.636404037475585938e-02 1.322989165782928467e-01 -2.494953386485576630e-02 4.686896502971649170e-02 -2.219031751155853271e-02
1.583360880613327026e-01 7.917355000972747803e-02 -2.489994652569293976e-02 -6.995306164026260376e-02 -6.729746609926223755e-02 1.200535893440246582e-01 4.861662091570906341e-05 1.009393110871315002e-01 -3.580367937684059143e-02 1.168201640248298645e-01 -8.810333907604217529e-03 -7.433279603719711304e-02 5.373745784163475037e-02 1.177727058529853821e-01 1.052500214427709579e-02 1.380809992551803589e-01 -2.333389036357402802e-02 1.019441336393356323e-01 3.357732295989990234e-02 -5.717103928327560425e-02 1.741256266832351685e-01 1.374912168830633163e-02 -9.720135480165481567e-02 1.477801986038684845e-02 1.161385551095008850e-01 1.014627367258071899e-01 7.314813882112503052e-02 2.554769814014434814e-02 -5.714698135852813721e-02 3.651087172329425812e-03 5.425655469298362732e-02 6.162002682685852051e-02 -4.533869028091430664e-02 3.076021559536457062e-03 1.063115894794464111e-01 -7.316001504659652710e-02 1.555946655571460724e-02 1.061132699251174927e-01 7.278799079358577728e-03 9.544394165277481079e-02 -1.505584269762039185e-01 9.951322525739669800e-02 7.029780745506286621e-02 -2.158545106649398804e-01 -2.124249562621116638e-02 -2.185332402586936951e-02 1.470753848552703857e-01 4.572399705648422241e-02 -7.395565509796142578e-02 1.120508834719657898e-01 -1.194501146674156189e-01 5.962990224361419678e-02 -1.381321847438812256e-01 9.997637569904327393e-02 3.102701902389526367e-02 -2.450071834027767181e-02 -5.629687011241912842e-02 -3.274852409958839417e-02 2.506949603557586670e-01 -7.479668408632278442e-02 -4.671904072165489197e-02 -8.720061182975769043e-02 -1.093407422304153442e-01 4.163046553730964661e-02 -2.263112552464008331e-02 -6.853817403316497803e-02 -1.042913571000099182e-01 5.399617925286293030e-02 2.789270319044589996e-02 4.153913352638483047e-03 4.775373637676239014e-02 1.981887072324752808e-01 1.102718338370323181e-01 -2.856206335127353668e-02 -2.876463346183300018e-02 -1.059879586100578308e-01 9.913884848356246948e-02 6.738328188657760620e-02 -1.320048123598098755e-01 1.545971818268299103e-02 2.482847310602664948e-02 -7.337066344916820526e-04 1.402338743209838867e-01 -6.131833791732788086e-02 3.283698484301567078e-02 -7.894412614405155182e-03 -1.886147423647344112e-03 -9.303262829780578613e-02 5.371666699647903442e-02 -7.050578296184539795e-02 8.969512581825256348e-02 1.293453723192214966e-01 -3.076779842376708984e-02 8.444452285766601562e-02 1.275142282247543335e-01 8.384256064891815186e-02 5.866249278187751770e-02 1.015406697988510132e-01 8.602844551205635071e-03 5.156083405017852783e-02 -9.326951578259468079e-03 1.976970583200454712e-02 4.972917586565017700e-02 5.843695718795061111e-03 7.979656010866165161e-02 -1.043255031108856201e-01 1.616537384688854218e-02 2.062633186578750610e-01 -1.162507943809032440e-02 8.939679712057113647e-02 2.253889665007591248e-02 1.264837235212326050e-01 9.918057359755039215e-03 -2.926494181156158447e-02 4.363483190536499023e-02 -1.501366943120956421e-01 -1.344237327575683594e-01 1.199973449110984802e-01 6.448360532522201538e-02 -2.057587727904319763e-02 -8.000736124813556671e-03 3.632023558020591736e-02 4.872379451990127563e-02 7.444749027490615845e-02 -4.788255318999290466e-02 -5.517089739441871643e-02 7.965902984142303467e-02 1.491665281355381012e-02 5.114385113120079041e-02 -5.976960808038711548e-02 1.189426332712173462e-01 -1.418196856975555420e-01 -6.131417676806449890e-02 -7.781806588172912598e-02 -5.840257555246353149e-02 8.824935555458068848e-02 4.753476008772850037e-02 1.218499466776847839e-01 1.253646463155746460e-01 1.286897249519824982e-02 9.021165966987609863e-02 -1.486496999859809875e-02 -2.018168196082115173e-02 8.901903033256530762e-02 1.852650493383407593e-01 -7.777243852615356445e-02 1.980957984924316406e-01 2.867026440799236298e-02 -2.280796878039836884e-02 -1.369815617799758911e-01 2.922479622066020966e-02 -2.545481920242309570e-01 2.737053297460079193e-02 -6.087866052985191345e-02 -5.131620913743972778e-02 2.058684825897216797e-01 2.118983678519725800e-02 -4.875237494707107544e-02 7.263696193695068359e-02 -1.831560283899307251e-01 1.921430462971329689e-03 1.371577978134155273e-01 6.900939345359802246e-02 -4.869081079959869385e-02 -1.531134694814682007e-01 5.976677685976028442e-02 8.531693369150161743e-02 1.610682308673858643e-01 4.132315516471862793e-02 -1.009388547390699387e-02 -2.037578672170639038e-01 2.520730532705783844e-02 6.555915623903274536e-02 -5.719909071922302246e-02 -1.579338461160659790e-01 5.818939208984375000e-02 7.328226417303085327e-02 -2.306184768676757812e-01 9.578344225883483887e-02 -1.520837992429733276e-01 1.127267107367515564e-01 -4.943461343646049500e-02 1.665184944868087769e-01 -4.732860252261161804e-03 8.195307105779647827e-02 -1.162467673420906067e-01 3.560363501310348511e-02 3.460093215107917786e-02 1.401548087596893311e-02 -1.698937453329563141e-02 -1.668319702148437500e-01 6.313230097293853760e-02 1.875293441116809845e-02 4.855576157569885254e-02 -1.078975014388561249e-02 -6.772057712078094482e-02 -6.366258859634399414e-02 6.456517428159713745e-02 -3.893916308879852295e-02 -2.771044522523880005e-02 8.001310378313064575e-02 8.390090614557266235e-02 -9.799493104219436646e-02 -1.219744607806205750e-01 -8.571993559598922729e-02 1.100155264139175415e-01 1.358822435140609741e-01 -1.151512470096349716e-02 1.219871938228607178e-01 5.279945582151412964e-02 3.304982557892799377e-02 1.037434563040733337e-01 -2.003818750381469727e-02 2.848515100777149200e-02 -1.361194401979446411e-01 1.488724350929260254e-01 2.231933027505874634e-01 -3.345042094588279724e-02 8.418837189674377441e-02 -1.027366146445274353e-01 1.489505916833877563e-01 -1.163465604186058044e-01 -8.881076425313949585e-02 -2.565152384340763092e-02 -8.553933352231979370e-02 5.194156244397163391e-02 -7.396039366722106934e-02 -9.341045469045639038e-02 -1.314218994230031967e-02 -6.013364344835281372e-02 -6.678137183189392090e-02 1.357004046440124512e-01 -3.414368629455566406e-02 -9.835299104452133179e-02 -1.827254891395568848e-02 -2.914788387715816498e-02 1.183118787594139576e-03 -2.212991118431091309e-01 3.213509917259216309e-02 1.255379915237426758e-01 1.048468202352523804e-01 -1.024367958307266235e-01 2.612435631453990936e-02 7.928393781185150146e-02 4.483359307050704956e-02 9.530449286103248596e-03 -9.177947044372558594e-02 1.232565008103847504e-02 8.398025482892990112e-02 -1.723887324333190918e-01 -2.253728918731212616e-02 -4.190362244844436646e-02 8.103294670581817627e-02 1.071116551756858826e-01 6.449238955974578857e-02 1.288897097110748291e-01
-2.404288761317729950e-02 2.505565285682678223e-01 -1.313189417123794556e-01 -7.142955064773559570e-02 -5.520913749933242798e-02 4.369495064020156860e-02 8.819314092397689819e-02 -1.115150824189186096e-01 -6.968959420919418335e-02 -1.398334354162216187e-01 -3.411625325679779053e-02 -2.185605652630329132e-02 -1.438302695751190186e-01 4.830740392208099365e-02 -2.147555351257324219e-02 -1.021862998604774475e-01 7.406820077449083328e-03 -1.661394089460372925e-01 1.867166534066200256e-02 8.015263825654983521e-02 -6.847540289163589478e-02 -2.354333736002445221e-02 7.318858057260513306e-02 -1.159203201532363892e-01 1.689513325691223145e-01 4.505476728081703186e-02 -1.004390940070152283e-01 -1.650055783102288842e-04 -3.867840394377708435e-02 -1.051033101975917816e-02 -6.086991354823112488e-02 1.669579744338989258e-02 -1.575652882456779480e-02 5.943511147052049637e-03 1.100401580333709717e-01 -2.042099647223949432e-02 1.504571363329887390e-02 1.276181042194366455e-01 -8.240206167101860046e-03 3.630738332867622375e-02 -8.340974152088165283e-02 7.461010664701461792e-02 3.708314895629882812e-02 -2.338902838528156281e-02 -1.541310697793960571e-01 -7.123939692974090576e-02 -5.170786380767822266e-02 -1.091652438044548035e-01 4.573459737002849579e-03 1.165872663259506226e-01 9.468159079551696777e-02 4.551158286631107330e-03 1.039008498191833496e-01 7.727298140525817871e-02 -2.245119027793407440e-02 1.259590387344360352e-01 -2.312752231955528259e-02 -1.365805715322494507e-01 -1.360631734132766724e-01 1.435531526803970337e-01 -2.386349253356456757e-02 5.865642428398132324e-02 -2.462000213563442230e-02 -1.828569024801254272e-01 6.921745836734771729e-02 7.390178740024566650e-02 1.484349370002746582e-01 1.050139591097831726e-01 -1.284360438585281372e-01 -2.739794179797172546e-02 -3.653696179389953613e-02 -6.420252472162246704e-02 9.235089272260665894e-02 -5.998480692505836487e-02 1.927797943353652954e-01 3.887364640831947327e-02 -7.682433817535638809e-03 1.632304191589355469e-01 9.297129511833190918e-02 5.756362155079841614e-02 4.699037969112396240e-02 -2.871472947299480438e-02 4.965673014521598816e-02 1.936140842735767365e-02 2.559272944927215576e-02 4.444495216012001038e-02 4.978386312723159790e-02 4.489906877279281616e-02 7.009368389844894409e-02 4.824930429458618164e-02 -1.023254171013832092e-01 7.884307205677032471e-02 8.052421361207962036e-02 2.589208073914051056e-02 6.630051136016845703e-02 -1.203144118189811707e-01 -2.838263846933841705e-02 -8.848635107278823853e-02 8.550319075584411621e-02 3.773566335439682007e-02 3.939956426620483398e-02 4.249746724963188171e-02 5.793255195021629333e-02 -7.262942939996719360e-02 7.657410949468612671e-02 8.730445057153701782e-02 -2.235367149114608765e-01 1.274065375328063965e-01 -6.111578643321990967e-02 1.666258424520492554e-01 -4.569180682301521301e-02 7.598799467086791992e-02 4.083091393113136292e-02 9.246698766946792603e-02 -1.040148064494132996e-01 5.755792185664176941e-02 1.540514081716537476e-01 2.085253000259399414e-01 -4.218924790620803833e-02 -2.744377776980400085e-02 -9.888529777526855469e-02 1.020935252308845520e-01 -8.585736155509948730e-03 4.382403567433357239e-02 -1.310482174158096313e-01 -1.799947023391723633e-01 -7.800482213497161865e-02 -6.142202299088239670e-03 -1.599178165197372437e-01 8.482217043638229370e-02 7.047346234321594238e-02 3.226240724325180054e-02 1.046772077679634094e-01 7.831215858459472656e-02 7.292100042104721069e-02 -2.611228078603744507e-02 2.621220890432596207e-03 7.723347097635269165e-02 -7.593707740306854248e-02 1.112503036856651306e-01 2.616017162799835205e-01 2.781132236123085022e-02 1.145035121589899063e-02 4.635271802544593811e-02 4.334478080272674561e-02 -1.450856029987335205e-01 -1.201979164034128189e-02 -4.913109820336103439e-03 4.249588772654533386e-02 -1.183995679020881653e-01 -7.143738865852355957e-02 -3.310006111860275269e-02 2.383957058191299438e-02 -3.801877610385417938e-03 -1.195251271128654480e-01 -1.715299673378467560e-02 -8.265354484319686890e-02 5.748350918292999268e-02 -1.494582928717136383e-02 6.762041151523590088e-02 1.024664044380187988e-01 6.984771043062210083e-02 -5.182192474603652954e-02 -2.314264923334121704e-01 4.895559325814247131e-02 3.130569681525230408e-02 -5.492739379405975342e-02 1.886958479881286621e-01 8.952328562736511230e-02 3.115387447178363800e-02 -9.135082364082336426e-02 9.601431339979171753e-02 1.245458349585533142e-01 1.350371837615966797e-01 -7.918545044958591461e-03 9.070567041635513306e-02 -1.833340078592300415e-01 -3.179017454385757446e-02 -1.613435149192810059e-01 -3.212837129831314087e-02 -3.366325050592422485e-02 -1.158878952264785767e-01 5.573397874832153320e-02 9.750513359904289246e-03 4.572089016437530518e-02 -7.416687905788421631e-02 4.190408810973167419e-02 -1.851415485143661499e-01 -1.210438832640647888e-02 6.931172311305999756e-02 4.481592774391174316e-02 7.131498306989669800e-02 1.675762087106704712e-01 1.071037799119949341e-01 -1.641806513071060181e-01 3.498014807701110840e-02 6.330332905054092407e-02 2.116789072751998901e-01 4.475821554660797119e-02 1.029037311673164368e-01 5.575162544846534729e-02 1.015474274754524231e-01 -4.795218631625175476e-02 -3.997089713811874390e-02 -4.392703250050544739e-02 1.812788099050521851e-02 -1.234181225299835205e-01 1.181312371045351028e-02 -3.624520031735301018e-03 1.512528657913208008e-01 -1.312958151102066040e-01 1.222127377986907959e-01 1.101069077849388123e-01 3.825823590159416199e-02 -1.661229133605957031e-02 -4.123192280530929565e-02 -2.401023730635643005e-02 2.467499487102031708e-02 -2.970142103731632233e-02 9.712720662355422974e-02 -1.938370019197463989e-01 2.226902544498443604e-02 -6.484121829271316528e-02 -1.795204542577266693e-02 -9.759346395730972290e-02 9.757144376635551453e-03 2.239180728793144226e-02 6.161903031170368195e-03 2.326158620417118073e-02 7.286953181028366089e-02 4.014378413558006287e-02 1.907530426979064941e-01 -1.086943969130516052e-01 1.607386916875839233e-01 1.547879278659820557e-01 3.957610949873924255e-02 4.696685075759887695e-02 6.362645328044891357e-02 8.536121994256973267e-02 -1.214650794863700867e-01 1.559747755527496338e-01 2.056473307311534882e-02 3.846168890595436096e-02 1.198103874921798706e-01 1.083860918879508972e-02 -7.257773727178573608e-02 4.021619446575641632e-03 -5.273431539535522461e-02 -2.625062130391597748e-02 -8.290479332208633423e-02 -1.461338065564632416e-02 3.554795309901237488e-02 3.145785070955753326e-03 -1.451362818479537964e-01 -1.146682947874069214e-01 1.210243813693523407e-02
1.628803312778472900e-01 -8.905475586652755737e-02 2.940647490322589874e-02 3.291938081383705139e-02 -2.531482279300689697e-02 -3.602219978347420692e-03 -3.032571636140346527e-02 -4.195411130785942078e-02 -5.076572671532630920e-02 -1.400891691446304321e-01 3.643696010112762451e-02 1.596594750881195068e-01 -9.228314459323883057e-02 -1.179308295249938965e-01 6.990127265453338623e-02 3.967093676328659058e-02 4.662719368934631348e-02 1.269351243972778320e-01 -8.976618200540542603e-02 -1.629999130964279175e-01 1.315547227859497070e-01 -5.160151794552803040e-02 -3.480405732989311218e-02 2.649910189211368561e-02 -1.238279510289430618e-02 -2.827694697771221399e-04 -5.759275332093238831e-02 -7.725105434656143188e-02 -6.419032812118530273e-02 -9.702218323945999146e-02 -2.090120129287242889e-02 -7.107345014810562134e-02 -4.011029377579689026e-02 -8.552382886409759521e-02 -9.201189130544662476e-02 4.557475820183753967e-02 -2.244397699832916260e-01 6.083263456821441650e-02 -4.018745571374893188e-02 5.634341388940811157e-03 -3.380351141095161438e-02 1.386421471834182739e-01 7.925792597234249115e-03 2.798603102564811707e-02 -1.669489406049251556e-02 2.594768069684505463e-02 -7.621980458498001099e-02 -5.629319697618484497e-02 6.720039248466491699e-02 -4.760498180985450745e-02 -5.477152764797210693e-02 1.540441531687974930e-02 2.099374309182167053e-02 3.724450990557670593e-02 5.683749914169311523e-02 -1.311769038438796997e-01 -4.561709240078926086e-02 1.549560874700546265e-01 4.026790335774421692e-02 -1.243365556001663208e-01 -5.517105385661125183e-02 6.169724464416503906e-02 1.447858195751905441e-02 -7.067099958658218384e-02 6.619657576084136963e-02 1.249468401074409485e-01 2.863417193293571472e-02 2.678929567337036133e-01 -1.593019068241119385e-01 9.813598543405532837e-02 -8.042570948600769043e-02 1.241102814674377441e-01 1.192078273743391037e-02 -1.762683391571044922e-01 -4.389024153351783752e-02 1.761866807937622070e-01 3.544918494299054146e-03 -8.161418884992599487e-02 1.620884984731674194e-02 -1.343447417020797729e-01 -5.199461802840232849e-02 -4.791069403290748596e-02 1.864829845726490021e-02 -3.946817666292190552e-02 2.611154876649379730e-02 -9.835544973611831665e-02 -5.237709358334541321e-02 9.427838027477264404e-02 1.003481000661849976e-01 -3.237679600715637207e-02 -5.096470192074775696e-02 2.001771330833435059e-01 -1.218823483213782310e-03 -1.269180774688720703e-01 2.660331688821315765e-02 1.034238785505294800e-01 7.788334786891937256e-02 -1.567669212818145752e-01 4.215011373162269592e-02 2.244032453745603561e-03 7.361650466918945312e-02 -1.151460483670234680e-01 -1.330044679343700409e-02 1.136937215924263000e-01 -1.523400545120239258e-01 -5.511413328349590302e-03 -1.069520227611064911e-02 -7.227062433958053589e-02 -1.589953750371932983e-01 7.837902754545211792e-02 -6.468510837294161320e-04 -7.712297141551971436e-02 1.818612404167652130e-02 -2.660892903804779053e-02 -1.252343971282243729e-02 1.479234993457794189e-01 6.441447883844375610e-02 2.040049061179161072e-02 -9.764155745506286621e-02 1.288961321115493774e-01 -3.852052614092826843e-02 7.282809168100357056e-02 -3.307949984446167946e-03 5.567433312535285950e-02 1.581712812185287476e-01 -9.920459985733032227e-02 -4.611410945653915405e-02 -6.072269007563591003e-02 2.451506629586219788e-02 5.934274569153785706e-02 -6.286832690238952637e-02 -1.013045012950897217e-02 6.775565445423126221e-02 3.862552344799041748e-02 3.248154371976852417e-02 6.472989916801452637e-02 -1.373734697699546814e-02 3.088647732511162758e-03 5.492252483963966370e-02 -5.870039388537406921e-02 -9.117089211940765381e-02 1.194487810134887695e-01 -1.019256711006164551e-01 1.813677512109279633e-02 5.856010690331459045e-02 1.216620951890945435e-01 -1.546809524297714233e-01 8.136739581823348999e-02 2.525305561721324921e-02 5.628726631402969360e-02 -8.424136787652969360e-03 8.901141583919525146e-02 1.381517499685287476e-01 -7.963384501636028290e-03 2.613391280174255371e-01 -3.786339424550533295e-03 3.156314417719841003e-02 -1.662463881075382233e-02 1.250114291906356812e-01 -3.104316443204879761e-02 -1.515758633613586426e-01 9.352869540452957153e-02 -2.974908798933029175e-02 4.148690029978752136e-03 2.374969720840454102e-01 -2.884966088458895683e-03 5.626323632895946503e-03 -7.374679297208786011e-02 1.496155112981796265e-01 -9.640106558799743652e-02 1.514911558479070663e-02 -4.555314406752586365e-02 8.692339062690734863e-02 1.446477472782135010e-01 7.734143733978271484e-02 -1.526637077331542969e-01 -4.234114289283752441e-02 9.188476949930191040e-03 3.709821030497550964e-02 1.052103117108345032e-01 -8.044171147048473358e-03 1.423436999320983887e-01 1.269574165344238281e-01 1.086466386914253235e-01 -1.188173219561576843e-01 -6.466615200042724609e-02 1.373709887266159058e-01 -1.453198939561843872e-01 2.770354971289634705e-02 1.678528338670730591e-01 -1.034447923302650452e-02 -1.848187670111656189e-02 3.980609402060508728e-02 -9.128112345933914185e-02 1.326378285884857178e-01 1.519952714443206787e-01 2.432453818619251251e-02 -1.013057585805654526e-02 -5.769827216863632202e-02 -4.280852526426315308e-02 -1.163959428668022156e-01 7.853780686855316162e-02 -8.961911499500274658e-02 -6.435037404298782349e-02 9.049076586961746216e-02 -1.248486712574958801e-01 5.935279279947280884e-02 -7.621676474809646606e-02 -5.254465714097023010e-02 -4.981647059321403503e-02 7.588273729197680950e-04 1.165815219283103943e-01 -7.923875004053115845e-02 4.451169073581695557e-02 1.052230075001716614e-01 -1.253410242497920990e-02 9.577583521604537964e-02 1.366863399744033813e-01 -3.503071144223213196e-02 6.514204293489456177e-02 1.284725815057754517e-01 -2.995757758617401123e-02 1.898689754307270050e-02 -4.941194131970405579e-02 -2.648589387536048889e-02 3.307018429040908813e-02 1.114872097969055176e-02 -2.101982571184635162e-02 3.385781869292259216e-02 -5.403283610939979553e-02 -1.004461348056793213e-01 5.706492438912391663e-02 1.056741699576377869e-01 1.653542667627334595e-01 -3.671620786190032959e-02 1.837584823369979858e-01 -4.566632956266403198e-02 -1.906224153935909271e-02 2.155415154993534088e-02 5.776622518897056580e-02 3.071582317352294922e-01 2.155585959553718567e-02 -4.634426906704902649e-02 3.397208079695701599e-02 -4.690321162343025208e-02 -4.886113107204437256e-03 7.156834751367568970e-02 -5.195290595293045044e-02 -1.759033463895320892e-02 -2.353787124156951904e-01 -1.507617235183715820e-01 -1.308040022850036621e-01 -4.832758754491806030e-02 1.379265636205673218e-01 1.258560866117477417e-01 1.072121411561965942e-01
9.128524921834468842e-03 1.475943922996520996e-01 -1.243551727384328842e-03 9.447262436151504517e-02 7.565412670373916626e-02 -1.317130494862794876e-02 8.665393292903900146e-02 -1.839272230863571167e-01 -1.601271778345108032e-01 -7.231482118368148804e-02 3.211628645658493042e-02 -1.052316054701805115e-01 -1.362856030464172363e-01 1.432562917470932007e-01 1.321658343076705933e-01 6.899275630712509155e-02 2.556659094989299774e-02 -1.518317684531211853e-02 4.621244966983795166e-03 4.371916502714157104e-02 9.662894904613494873e-02 8.905892260372638702e-03 -4.725812003016471863e-03 -1.278438866138458252e-01 -1.099264901131391525e-02 -6.903269886970520020e-02 -1.782224699854850769e-02 3.469641879200935364e-02 7.251796871423721313e-02 1.254814565181732178e-01 3.004250302910804749e-02 1.812673211097717285e-01 7.271912693977355957e-02 -6.879325956106185913e-02 1.016175653785467148e-02 -7.980584353208541870e-02 -4.077251628041267395e-02 -4.446792230010032654e-02 -7.522693276405334473e-02 9.472580254077911377e-02 -1.882580481469631195e-02 -6.436106562614440918e-02 5.845996364951133728e-02 3.113876096904277802e-03 -4.031952843070030212e-02 1.347678946331143379e-03 -4.048617556691169739e-02 2.059104107320308685e-02 -1.407820135354995728e-01 -3.065615333616733551e-02 1.644655466079711914e-01 1.155398711562156677e-01 6.302151083946228027e-02 1.239948421716690063e-01 1.404209434986114502e-01 5.725227668881416321e-02 4.596199467778205872e-02 -6.517921388149261475e-02 8.590596914291381836e-02 -1.736356131732463837e-02 7.641670852899551392e-02 7.341068983078002930e-02 -8.035247027873992920e-02 -3.918367251753807068e-02 -1.357007324695587158e-01 -3.621951118111610413e-02 2.084634900093078613e-01 -8.738569915294647217e-02 -1.117166057229042053e-01 5.389402434229850769e-02 3.675211220979690552e-02 -2.478924021124839783e-02 -8.417166024446487427e-02 3.159093484282493591e-02 -4.605987668037414551e-02 4.009566828608512878e-02 1.513543874025344849e-01 -7.352398335933685303e-02 3.602740541100502014e-02 1.678264588117599487e-01 -1.030415296554565430e-01 1.063621565699577332e-01 1.027126163244247437e-01 -8.136309683322906494e-02 2.446381449699401855e-01 1.325984671711921692e-02 4.055719077587127686e-02 8.198479562997817993e-02 -1.221245601773262024e-01 5.815786775201559067e-03 -6.757985800504684448e-02 1.814857572317123413e-01 8.927983045578002930e-02 1.654496788978576660e-01 1.536996364593505859e-01 -6.321793794631958008e-02 1.573030278086662292e-02 3.598818182945251465e-02 7.828696072101593018e-02 4.261909052729606628e-02 9.397203102707862854e-03 8.173619955778121948e-02 -1.578652858734130859e-01 8.506500720977783203e-02 -3.773957490921020508e-02 1.400507539510726929e-01 6.550572812557220459e-02 3.949966654181480408e-02 -7.588990777730941772e-02 -4.637799412012100220e-02 9.018894284963607788e-03 -4.732274450361728668e-03 4.749232158064842224e-02 -2.661137469112873077e-02 -1.871920526027679443e-01 -8.670833706855773926e-02 -8.063655346632003784e-02 -3.252281993627548218e-02 -3.895306587219238281e-02 -8.023080229759216309e-02 -4.573938623070716858e-02 -7.800626754760742188e-02 -5.751204211264848709e-03 -1.070348173379898071e-01 -1.647426933050155640e-01 3.212996125221252441e-01 -1.724504545563831925e-04 1.724413968622684479e-02 -5.455082654953002930e-02 -8.379556983709335327e-02 2.322965767234563828e-03 -6.609115749597549438e-02 -8.514796197414398193e-02 -1.521850377321243286e-01 -5.618619546294212341e-02 -1.048783585429191589e-01 -2.072631148621439934e-03 6.073119118809700012e-02 8.978330343961715698e-02 -6.356795877218246460e-02 1.032026037573814392e-01 2.537560462951660156e-01 5.180078372359275818e-02 3.024151362478733063e-02 5.170020833611488342e-02 -2.617642097175121307e-02 3.887803480029106140e-02 -9.842395782470703125e-03 1.234621331095695496e-01 3.272251784801483154e-02 6.861906498670578003e-02 8.155722916126251221e-02 -6.666114181280136108e-02 -7.450217008590698242e-02 -8.293396979570388794e-02 1.041762977838516235e-01 1.805053092539310455e-02 -1.034449338912963867e-01 5.107474699616432190e-02 3.598035126924514771e-02 1.627574674785137177e-02 3.624085336923599243e-02 -1.478956639766693115e-01 4.711360484361648560e-02 3.141792118549346924e-02 8.487634360790252686e-02 5.091758817434310913e-02 9.615700691938400269e-02 2.750261314213275909e-02 -5.366482958197593689e-02 -2.231745608150959015e-02 -1.752718091011047363e-01 4.160362761467695236e-03 -1.912073791027069092e-01 2.465425990521907806e-02 -1.028352081775665283e-01 -1.109502539038658142e-01 1.827249228954315186e-01 -3.837625682353973389e-02 5.671139433979988098e-02 -1.403921842575073242e-01 4.754734039306640625e-02 6.273690611124038696e-02 -2.187227457761764526e-02 1.142346784472465515e-01 2.081066928803920746e-02 -1.450305059552192688e-02 8.986108750104904175e-02 -1.151682958006858826e-01 1.033436879515647888e-01 5.413040891289710999e-02 2.762346342206001282e-02 1.712945699691772461e-01 -2.854990363121032715e-01 1.004025861620903015e-01 -4.847191646695137024e-02 -1.070595234632492065e-01 -3.922690823674201965e-02 -1.051712706685066223e-01 -7.728377357125282288e-03 -1.606567651033401489e-01 3.996558859944343567e-02 -7.919204235076904297e-02 7.154617458581924438e-02 7.597533613443374634e-02 -7.445177435874938965e-02 -1.282093375921249390e-01 1.973502933979034424e-01 1.010848730802536011e-01 2.312576957046985626e-02 -1.598558425903320312e-01 -2.636145241558551788e-02 -4.402115195989608765e-02 4.442853108048439026e-02 -5.854707583785057068e-02 -2.758220536634325981e-03 7.745897769927978516e-02 -5.329391360282897949e-02 6.090258061885833740e-02 9.352825582027435303e-02 9.811970591545104980e-02 -5.303544923663139343e-02 1.132839322090148926e-01 1.551743131130933762e-02 9.905532002449035645e-02 1.093392819166183472e-01 1.217004433274269104e-01 3.740199655294418335e-02 -7.793370634317398071e-02 3.567592054605484009e-02 3.347412869334220886e-02 -5.991061031818389893e-02 6.887335330247879028e-02 -1.009230837225914001e-01 -7.214024197310209274e-03 3.719083964824676514e-02 8.107072114944458008e-02 1.424057595431804657e-02 4.216879140585660934e-03 5.292230844497680664e-02 3.703053807839751244e-03 2.341390587389469147e-02 5.597466975450515747e-02 -2.983267605304718018e-02 9.725724160671234131e-02 2.520018443465232849e-02 -8.801604807376861572e-02 -6.377512216567993164e-02 1.362585723400115967e-01 -1.002146676182746887e-01 -3.427288308739662170e-02 -3.216184303164482117e-02 6.385871022939682007e-02 -8.718291297554969788e-03 1.394746005535125732e-01 -6.437014043331146240e-02
6.376006454229354858e-02 6.452059745788574219e-02 8.330888301134109497e-02 -9.043647348880767822e-02 6.491200625896453857e-02 1.361708939075469971e-01 5.149645730853080750e-02 7.695424556732177734e-02 -2.116779610514640808e-02 4.518694058060646057e-02 -2.758933790028095245e-02 2.414493635296821594e-02 5.886142328381538391e-02 -8.315643668174743652e-02 1.399746090173721313e-01 1.375650465488433838e-01 1.452409476041793823e-01 1.349867284297943115e-01 -7.322906702756881714e-02 1.137781515717506409e-01 -1.250908672809600830e-01 -2.493369579315185547e-01 1.387509983032941818e-02 -3.693808987736701965e-02 3.894667699933052063e-02 -2.058608680963516235e-01 6.946477293968200684e-02 -5.870335549116134644e-02 6.938102841377258301e-02 -7.696271687746047974e-02 1.829451881349086761e-02 -1.612498238682746887e-02 1.568899722769856453e-03 1.733679622411727905e-01 -7.234252244234085083e-02 1.292911916971206665e-01 -7.537449896335601807e-02 5.565310828387737274e-03 5.591613054275512695e-02 -1.000436618924140930e-01 -1.443848386406898499e-02 -2.679536305367946625e-02 -4.936173930764198303e-02 -7.653538137674331665e-02 3.512005880475044250e-02 -4.045100416988134384e-03 -1.213249638676643372e-01 1.865884661674499512e-01 -6.234452500939369202e-02 2.837647311389446259e-02 5.827684327960014343e-02 -5.513496324419975281e-02 3.138659149408340454e-02 8.733119815587997437e-03 -2.270434498786926270e-01 -1.063914522528648376e-01 -4.659432917833328247e-02 -8.087102323770523071e-02 5.439558997750282288e-03 4.428278282284736633e-02 -3.531537577509880066e-02 1.492880880832672119e-01 -7.721792906522750854e-02 1.376001387834548950e-01 2.848196774721145630e-02 1.376367523334920406e-03 -6.820150464773178101e-02 6.348336488008499146e-02 1.267911940813064575e-01 7.555570453405380249e-02 1.742802746593952179e-02 -1.146038696169853210e-01 -1.671778261661529541e-01 6.233632564544677734e-02 -7.522330433130264282e-02 5.865451321005821228e-02 5.830239132046699524e-02 1.900562196969985962e-01 -1.888607442378997803e-02 -9.320206195116043091e-02 1.017187461256980896e-01 4.939823970198631287e-02 -6.271567195653915405e-02 -1.236151233315467834e-01 5.542752332985401154e-03 -9.715536981821060181e-02 -8.689047396183013916e-02 -5.023638904094696045e-02 -5.843910574913024902e-02 1.901818066835403442e-02 6.257674098014831543e-02 8.791539072990417480e-02 8.257874846458435059e-02 3.351835906505584717e-02 1.119153052568435669e-01 -2.082581631839275360e-02 -5.380520969629287720e-02 5.688045918941497803e-02 1.179791241884231567e-01 -8.337491005659103394e-02 -2.101623918861150742e-03 -9.594758599996566772e-02 -1.459131538867950439e-01 3.499838290736079216e-03 -5.353347584605216980e-02 1.019972711801528931e-01 -1.821035584725905210e-05 -7.712785154581069946e-02 3.577320277690887451e-02 5.430704355239868164e-02 6.443815678358078003e-02 -1.790213584899902344e-01 -1.068212762475013733e-01 6.548807770013809204e-02 7.687836419790983200e-03 7.490961998701095581e-02 9.758494794368743896e-02 6.150471046566963196e-02 1.111161708831787109e-01 1.188619583845138550e-01 8.796309679746627808e-02 2.368867546319961548e-01 5.780522525310516357e-02 8.593210577964782715e-02 1.334252804517745972e-01 3.387945517897605896e-02 3.393637889530509710e-04 8.468548767268657684e-03 -9.375635534524917603e-02 -3.437186405062675476e-02 2.088731378316879272e-01 6.203097105026245117e-02 -8.468022197484970093e-02 1.362583506852388382e-02 1.604418605566024780e-01 8.890524622984230518e-04 1.116313040256500244e-01 8.880715072154998779e-02 -2.001706697046756744e-02 3.223714977502822876e-02 2.847725525498390198e-02 5.996650829911231995e-02 7.301420718431472778e-02 -9.040351212024688721e-02 1.395755857229232788e-01 -4.871706012636423111e-03 1.191060319542884827e-01 -4.470885731279850006e-03 8.074536919593811035e-02 1.878428272902965546e-02 2.668388783931732178e-01 2.177239656448364258e-01 -5.182065814733505249e-02 1.875882782042026520e-02 -4.994618892669677734e-02 1.154194101691246033e-01 1.391364168375730515e-02 7.807224988937377930e-02 -5.813110992312431335e-02 -2.175395786762237549e-01 4.711090773344039917e-02 -1.649303883314132690e-01 -2.435486763715744019e-02 -1.292312145233154297e-01 1.215689033269882202e-01 2.423275262117385864e-01 -1.011665835976600647e-01 1.081052515655755997e-02 -8.967886678874492645e-03 8.512400090694427490e-02 1.301734894514083862e-01 -7.490921020507812500e-02 1.470622569322586060e-01 7.330503314733505249e-02 -1.630685776472091675e-01 1.237830594182014465e-01 4.450347274541854858e-02 -1.260389685630798340e-01 5.200630053877830505e-02 -5.835525318980216980e-02 -1.548322383314371109e-02 -1.027366071939468384e-01 7.001368794590234756e-03 -6.057719234377145767e-03 1.349134743213653564e-01 -1.986717805266380310e-02 -2.796499803662300110e-02 1.844758093357086182e-01 -6.534270942211151123e-02 -5.798256769776344299e-02 1.295109540224075317e-01 -1.149419322609901428e-02 1.595262996852397919e-02 1.099491342902183533e-01 2.780687250196933746e-02 -6.534635275602340698e-02 -1.619015075266361237e-02 8.482056111097335815e-02 5.971791222691535950e-02 2.599730528891086578e-02 1.663323119282722473e-02 1.372079998254776001e-01 4.914191365242004395e-02 -1.066117435693740845e-01 1.035012751817703247e-01 -7.064014789648354053e-05 -1.110478267073631287e-01 -1.778310164809226990e-02 -7.030004262924194336e-02 -1.296942494809627533e-02 -6.052738428115844727e-02 9.824002534151077271e-02 -6.567230820655822754e-02 1.800857186317443848e-01 6.259077787399291992e-02 8.264300227165222168e-02 -4.644008725881576538e-02 2.059358060359954834e-01 -6.871997565031051636e-02 4.416882246732711792e-02 -1.663502492010593414e-02 2.395544433966279030e-03 -4.960324242711067200e-02 3.347373753786087036e-02 -5.138758942484855652e-02 1.482853386551141739e-02 -5.951505526900291443e-02 -1.033849045634269714e-01 -9.820766746997833252e-02 -1.063032522797584534e-01 -6.501441448926925659e-02 -1.245252266526222229e-01 -1.209317147731781006e-02 -1.255878061056137085e-01 5.452875979244709015e-03 1.086165085434913635e-01 1.156811267137527466e-01 5.000736191868782043e-02 -4.476938396692276001e-02 6.674502789974212646e-02 9.080167859792709351e-03 3.028990142047405243e-02 -9.196592867374420166e-02 1.080420240759849548e-01 -1.236724201589822769e-02 -1.645700335502624512e-01 -2.641078457236289978e-02 -4.633008968085050583e-03 8.778714574873447418e-03 3.619247674942016602e-02 -2.132790908217430115e-02 -3.343461453914642334e-02 1.238607838749885559e-01 6.494822353124618530e-02 5.416287109255790710e-02 -6.727257370948791504e-02
-3.938325121998786926e-02 1.386308073997497559e-01 -2.740993909537792206e-02 9.309156984090805054e-02 7.585803419351577759e-02 5.525663122534751892e-02 -9.142687916755676270e-02 3.322792425751686096e-02 2.032145559787750244e-01 8.537828922271728516e-02 -1.741214692592620850e-01 -9.816210716962814331e-02 -5.254758149385452271e-02 -1.251567248255014420e-02 -5.879116058349609375e-02 -4.948042333126068115e-02 -6.460043042898178101e-02 3.713413700461387634e-02 1.218213737010955811e-01 1.371995955705642700e-01 -9.038954228162765503e-02 -1.382360309362411499e-01 -5.700858309864997864e-02 -2.209944836795330048e-02 -3.361793234944343567e-02 -6.487677991390228271e-02 1.523511856794357300e-01 1.084847748279571533e-02 -3.151616826653480530e-02 -9.536765515804290771e-02 -3.372663632035255432e-04 9.416301548480987549e-02 -2.941080136224627495e-03 4.296328127384185791e-02 9.056587587110698223e-04 -3.823486389592289925e-03 -4.636216908693313599e-02 -1.907873004674911499e-01 -5.322924628853797913e-02 -5.344377364963293076e-03 1.863613165915012360e-02 7.051609922200441360e-03 -6.884295493364334106e-02 1.234900578856468201e-02 -3.986186813563108444e-03 -5.211633071303367615e-02 3.248316422104835510e-02 1.020609661936759949e-01 4.084032773971557617e-02 -2.922166511416435242e-02 1.064717695116996765e-01 -3.870231658220291138e-02 -2.666819281876087189e-02 2.953379750251770020e-01 -1.119501888751983643e-01 -1.916769444942474365e-01 8.998735994100570679e-02 3.743819892406463623e-02 -1.005307510495185852e-01 7.930058985948562622e-02 2.109287977218627930e-01 5.275379121303558350e-02 7.549031823873519897e-02 1.928872242569923401e-02 -2.507366538047790527e-01 5.708249658346176147e-02 1.969233714044094086e-02 2.799309976398944855e-02 -5.275849252939224243e-03 1.419245600700378418e-01 5.120678246021270752e-02 7.952376455068588257e-02 5.080512724816799164e-03 3.677095845341682434e-02 -1.409991178661584854e-03 6.275821477174758911e-02 1.072705984115600586e-01 -5.453389510512351990e-02 -8.323580026626586914e-03 -6.662201881408691406e-02 -1.245043822564184666e-03 5.099101737141609192e-02 1.100199669599533081e-01 2.067955881357192993e-01 1.721738651394844055e-02 1.958288848400115967e-01 -5.239323526620864868e-02 -1.410228908061981201e-01 7.711801677942276001e-02 -6.953833252191543579e-02 1.297631263732910156e-01 2.030332237482070923e-01 -1.552342623472213745e-01 7.078908849507570267e-03 2.196825668215751648e-02 6.994406878948211670e-02 1.204531267285346985e-02 -1.339145600795745850e-01 -1.864412799477577209e-02 -2.633522637188434601e-02 1.288964506238698959e-02 3.381646424531936646e-02 -1.525115408003330231e-02 8.004637807607650757e-02 1.067235916852951050e-01 -1.250870376825332642e-01 4.183668270707130432e-02 8.403567969799041748e-02 -5.896683037281036377e-02 5.008833855390548706e-02 -1.494995057582855225e-01 7.651937752962112427e-02 1.026496291160583496e-01 -1.358880288898944855e-02 -3.111474402248859406e-02 -2.546544885262846947e-03 2.302466146647930145e-02 9.723356366157531738e-02 6.064342800527811050e-03 1.019699219614267349e-02 1.506844013929367065e-01 1.199492216110229492e-01 9.345800429582595825e-02 -1.556558720767498016e-02 1.818841248750686646e-01 -1.026759296655654907e-01 8.438153564929962158e-02 -2.228751778602600098e-02 1.161470115184783936e-01 -1.467037796974182129e-01 -2.722644247114658356e-02 -1.190268471837043762e-01 -3.924351185560226440e-03 7.537253946065902710e-02 6.163638830184936523e-02 5.821944028139114380e-02 -4.109637439250946045e-02 4.435273632407188416e-02 -6.107919290661811829e-02 3.849355503916740417e-02 -1.514442637562751770e-02 -1.332381274551153183e-03 -8.056577295064926147e-02 -1.234600786119699478e-03 -3.060162253677845001e-02 1.036498546600341797e-01 -8.100978098809719086e-03 -3.090129792690277100e-02 -1.203925609588623047e-01 -4.133587237447500229e-03 5.248189903795719147e-03 7.458532229065895081e-03 1.642378717660903931e-01 -5.193621665239334106e-02 -4.688752070069313049e-02 1.237818077206611633e-01 1.143846288323402405e-01 -4.262697184458374977e-04 -8.632925897836685181e-02 1.417699158191680908e-01 9.349420666694641113e-02 -8.463519811630249023e-02 -1.433599442243576050e-01 -1.160165220499038696e-01 -2.993882820010185242e-02 5.898086726665496826e-02 6.030800193548202515e-02 -5.077949911355972290e-02 2.297655446454882622e-03 -1.173866819590330124e-02 8.777724206447601318e-02 4.753994196653366089e-02 -1.876462697982788086e-01 -1.899350583553314209e-01 -3.079124726355075836e-04 7.529996335506439209e-02 2.006921544671058655e-02 2.421871870756149292e-01 -1.056032106280326843e-01 1.651286929845809937e-01 -7.220326364040374756e-02 -3.028844483196735382e-02 -8.230420202016830444e-02 -6.225831434130668640e-02 -1.073797941207885742e-01 7.220532000064849854e-02 1.574077904224395752e-01 -1.003344170749187469e-02 2.054716050624847412e-01 9.481820277869701385e-03 -1.128810830414295197e-02 1.326597481966018677e-01 -1.991712115705013275e-02 -2.425914816558361053e-02 -6.308781355619430542e-02 -2.533005177974700928e-02 1.752086877822875977e-01 1.052914112806320190e-01 3.597876429557800293e-02 4.218982160091400146e-02 -1.542650759220123291e-01 -2.996840514242649078e-02 -4.809981957077980042e-02 -6.740757822990417480e-02 4.095741361379623413e-02 -3.499376401305198669e-02 1.390799973160028458e-02 -1.259265094995498657e-01 1.337237507104873657e-01 -1.256659626960754395e-01 1.272799968719482422e-01 1.692730635404586792e-01 -7.686519622802734375e-02 -1.913784742355346680e-01 6.467912346124649048e-02 7.113275676965713501e-02 -8.786586672067642212e-02 4.001950100064277649e-02 1.587011069059371948e-01 2.441938733682036400e-03 -8.757161349058151245e-02 -5.920016393065452576e-02 3.077444806694984436e-02 -1.184228658676147461e-01 2.894351072609424591e-02 -1.434770375490188599e-01 -3.446625173091888428e-02 6.441742181777954102e-02 -3.654456511139869690e-02 1.601462662220001221e-01 6.719919294118881226e-02 8.971291035413742065e-02 2.016003429889678955e-02 -5.924185365438461304e-02 8.465882390737533569e-02 1.076154038310050964e-01 -3.151791915297508240e-02 -1.261971741914749146e-01 1.044970899820327759e-01 -1.400263514369726181e-02 -2.930858917534351349e-02 7.381232082843780518e-02 -9.952113777399063110e-02 4.570344835519790649e-02 -5.100146681070327759e-02 -3.048861213028430939e-02 1.018718555569648743e-01 -8.214417845010757446e-02 -1.541631966829299927e-01 -2.892564237117767334e-02 4.357018321752548218e-02 -1.277425885200500488e-01 4.954677820205688477e-02 5.928600952029228210e-02 -7.448405027389526367e-02 -1.073849126696586609e-01
-2.075031250715255737e-01 -5.961693450808525085e-02 -4.850729927420616150e-02 1.211802288889884949e-02 -7.454887777566909790e-02 2.450937591493129730e-02 9.352251142263412476e-02 -1.038388907909393311e-01 1.359414458274841309e-01 2.230851799249649048e-01 -2.179570347070693970e-01 -1.369590405374765396e-02 1.069762036204338074e-01 -7.219117879867553711e-02 7.165329158306121826e-02 9.375478327274322510e-02 2.766847424209117889e-02 -9.924837201833724976e-02 6.796960532665252686e-02 8.378452062606811523e-02 6.156624108552932739e-02 8.898727595806121826e-02 -7.739896327257156372e-02 -7.099597901105880737e-02 6.215338036417961121e-02 8.374148048460483551e-03 1.625885255634784698e-02 -6.380522157996892929e-03 5.436834692955017090e-02 2.818443998694419861e-02 7.416694425046443939e-03 -2.519048750400543213e-01 -8.269844949245452881e-02 -5.144357681274414062e-02 -2.957865409553050995e-02 1.526475846767425537e-01 -3.852800652384757996e-02 8.292301744222640991e-02 3.709020838141441345e-02 6.689979135990142822e-02 -1.041724011301994324e-01 1.341377049684524536e-01 -7.206963747739791870e-02 -5.581939220428466797e-02 1.708597317337989807e-02 8.885629475116729736e-02 -5.437602847814559937e-02 5.130658298730850220e-02 9.795282781124114990e-02 4.091410711407661438e-02 -1.622914336621761322e-02 2.323133870959281921e-02 2.505857497453689575e-02 -2.096185833215713501e-02 8.949293196201324463e-02 -2.274246364831924438e-01 1.292990595102310181e-01 -5.370990373194217682e-03 6.080149114131927490e-02 -4.857592657208442688e-02 -4.208032973110675812e-03 -1.406448036432266235e-01 8.754029124975204468e-02 -5.032581463456153870e-02 1.551194190979003906e-01 -9.350384026765823364e-02 5.436915904283523560e-02 -2.525927731767296791e-03 2.702886424958705902e-02 -1.239299699664115906e-01 -4.089415539056062698e-03 -2.377546578645706177e-02 -1.127615571022033691e-01 -1.447981595993041992e-01 -1.697853207588195801e-01 2.506826072931289673e-02 1.694309860467910767e-01 -5.682094395160675049e-02 -6.132565066218376160e-02 -1.391537338495254517e-01 -1.379748340696096420e-02 6.281854212284088135e-02 2.934971079230308533e-02 -2.145947702229022980e-02 1.889294758439064026e-02 -1.051991060376167297e-01 1.237392649054527283e-01 7.561568170785903931e-02 -6.844564527273178101e-02 -5.470808595418930054e-02 -4.759147763252258301e-02 -1.178724989295005798e-01 6.580585241317749023e-02 2.665350213646888733e-02 -5.935578420758247375e-02 1.513173133134841919e-01 1.500949114561080933e-01 -5.591866001486778259e-02 7.618002593517303467e-02 4.472353961318731308e-03 -2.084160223603248596e-02 1.370533108711242676e-01 1.100529171526432037e-02 4.601381346583366394e-02 6.168360263109207153e-02 -4.829986393451690674e-02 1.908277869224548340e-01 4.094979725778102875e-03 -4.451540857553482056e-02 -2.663356438279151917e-02 -2.921280264854431152e-02 2.034666761755943298e-02 -1.088538840413093567e-01 1.682236790657043457e-02 -4.938043653964996338e-02 6.978888809680938721e-02 2.189865112304687500e-01 6.844628602266311646e-02 -4.788084328174591064e-02 -2.475450560450553894e-02 3.265805169939994812e-02 -2.684441162273287773e-03 9.604697115719318390e-03 1.131742969155311584e-01 -1.135994270443916321e-01 8.070317655801773071e-02 -6.811163574457168579e-02 9.647180140018463135e-02 3.832505270838737488e-02 -8.883541077375411987e-02 4.930647462606430054e-02 -2.060083113610744476e-02 6.064890883862972260e-03 5.933177471160888672e-02 7.343713194131851196e-02 1.013251719996333122e-03 4.623463377356529236e-02 -2.258050739765167236e-01 5.024602264165878296e-02 -2.571072876453399658e-01 6.499800831079483032e-02 -1.248246990144252777e-03 9.812831133604049683e-02 9.956228733062744141e-02 1.186149865388870239e-01 -5.741480365395545959e-02 -1.155168265104293823e-01 1.247896905988454819e-02 -2.029963769018650055e-02 7.064630836248397827e-02 -3.656496480107307434e-02 7.635528594255447388e-02 -5.989754572510719299e-02 -6.685487180948257446e-02 -5.614789947867393494e-02 1.227936297655105591e-01 4.179292544722557068e-02 3.981398884207010269e-03 -1.607849895954132080e-01 -4.881952330470085144e-02 8.533729612827301025e-02 -2.814847230911254883e-02 -1.109661906957626343e-01 -1.064018439501523972e-02 2.307710982859134674e-02 1.660566218197345734e-02 9.902591258287429810e-02 1.329469531774520874e-01 1.698147505521774292e-01 -1.241504773497581482e-02 1.406262069940567017e-01 -2.355877310037612915e-02 1.215782985091209412e-01 1.316084153950214386e-02 6.897266022861003876e-03 7.204185426235198975e-02 -1.771953888237476349e-02 1.660191416740417480e-01 -9.060166776180267334e-03 -1.247133091092109680e-01 1.282143592834472656e-02 2.400141023099422455e-02 -3.703948482871055603e-02 8.682682365179061890e-02 -6.422156095504760742e-02 2.752043120563030243e-02 -5.255056917667388916e-02 -1.248449534177780151e-01 -5.726644396781921387e-02 -2.109399437904357910e-01 7.874897867441177368e-02 2.930084057152271271e-02 -2.181859686970710754e-02 -1.011923514306545258e-02 -9.369743615388870239e-02 2.262810766696929932e-01 -3.020974062383174896e-02 -1.608618348836898804e-02 -2.360121905803680420e-02 1.444316357374191284e-01 1.011688932776451111e-01 1.655430160462856293e-02 8.780113607645034790e-02 3.845973685383796692e-02 -7.698640227317810059e-02 -5.394721403717994690e-02 1.153541449457406998e-02 1.256491392850875854e-01 1.994812190532684326e-01 2.471679151058197021e-01 2.798903034999966621e-03 1.964069716632366180e-02 -1.742928028106689453e-01 1.097558066248893738e-02 4.352477192878723145e-02 6.105044856667518616e-02 -1.383404433727264404e-01 -3.796814382076263428e-02 -8.593584597110748291e-02 3.093759901821613312e-02 -1.099096536636352539e-01 -1.523339841514825821e-02 1.310376971960067749e-01 -2.533615194261074066e-02 -2.872953936457633972e-02 5.396609380841255188e-02 -7.721637934446334839e-02 1.335220038890838623e-02 3.519557416439056396e-02 -1.023629382252693176e-01 9.872543811798095703e-02 1.249603256583213806e-01 1.165312249213457108e-02 -7.319866120815277100e-02 -1.627063304185867310e-01 -3.035422787070274353e-02 1.106304898858070374e-01 7.509621791541576385e-03 4.005118086934089661e-02 1.091100946068763733e-01 8.870257437229156494e-02 -2.657097578048706055e-02 -5.897710472345352173e-02 -5.527623370289802551e-02 -2.942870836704969406e-03 5.145567934960126877e-03 1.571334898471832275e-01 6.354665756225585938e-02 -1.765178889036178589e-01 -7.811895757913589478e-02 1.145479902625083923e-01 -2.683976478874683380e-02 1.811641268432140350e-02 9.492123126983642578e-02 -1.156461834907531738e-01 8.397593349218368530e-02
9.477125853300094604e-02 1.051854267716407776e-01 1.227773353457450867e-02 2.357875406742095947e-01 -6.301821023225784302e-02 1.280303765088319778e-02 -1.755228266119956970e-02 3.705316409468650818e-02 2.836339361965656281e-02 -1.786356791853904724e-02 -9.951911121606826782e-02 -4.419035464525222778e-02 -1.162034273147583008e-02 -3.569941222667694092e-02 1.770842522382736206e-01 2.451799809932708740e-02 1.439969539642333984e-01 -1.016783341765403748e-01 1.725988984107971191e-01 -1.708789765834808350e-01 -6.496810913085937500e-02 -3.408923372626304626e-02 9.353734552860260010e-03 -8.389584720134735107e-02 -1.327045410871505737e-01 8.993630856275558472e-02 3.982269018888473511e-02 7.477838546037673950e-02 9.031771868467330933e-02 7.113917917013168335e-02 1.174423918128013611e-01 -9.287185221910476685e-02 -5.671828240156173706e-02 -2.010446041822433472e-02 -1.149225905537605286e-01 1.527444571256637573e-01 8.768431842327117920e-02 1.943518593907356262e-02 1.311668287962675095e-02 8.965418487787246704e-02 -2.741995081305503845e-02 5.823463574051856995e-02 2.686714828014373779e-01 5.199464410543441772e-02 5.177664011716842651e-02 3.243892639875411987e-02 1.912030763924121857e-02 -1.330284774303436279e-01 -6.893874704837799072e-02 -9.959135204553604126e-02 6.271357834339141846e-02 -2.518000081181526184e-02 3.989256918430328369e-02 7.325145602226257324e-02 7.392331212759017944e-02 1.894746907055377960e-02 -7.327267527580261230e-02 -5.971263349056243896e-02 6.023250520229339600e-02 -8.122356981039047241e-02 -1.572114378213882446e-01 -4.918408021330833435e-02 -5.447434261441230774e-03 -7.431019842624664307e-02 1.059184148907661438e-01 9.646260179579257965e-03 2.751567587256431580e-02 2.078156769275665283e-01 3.734828159213066101e-02 -1.377325654029846191e-01 -1.392094194889068604e-01 3.830706933513283730e-03 -2.998861484229564667e-02 -3.963752090930938721e-02 5.067798122763633728e-02 -5.206149071455001831e-03 1.291631162166595459e-01 -6.890401989221572876e-02 -1.581494659185409546e-01 2.827286347746849060e-02 4.984519258141517639e-02 1.478268504142761230e-01 2.568827010691165924e-02 -5.657094996422529221e-03 -1.549219153821468353e-02 8.059590309858322144e-02 -1.339789777994155884e-01 9.618108160793781281e-03 -3.651960939168930054e-02 1.334758698940277100e-01 7.873922586441040039e-02 -7.562331110239028931e-02 6.527114659547805786e-02 3.916294500231742859e-02 9.128241240978240967e-02 -1.636469922959804535e-02 6.098851561546325684e-03 8.935042470693588257e-02 -6.601126398891210556e-03 -4.680589586496353149e-02 5.451145023107528687e-02 -2.373186685144901276e-02 1.660545617341995239e-01 1.470450460910797119e-01 2.233337052166461945e-02 -5.448487028479576111e-02 5.594126880168914795e-02 -8.017738908529281616e-02 -5.859157815575599670e-02 -1.045037657022476196e-01 1.902844011783599854e-01 -6.612163037061691284e-02 1.885901391506195068e-01 -3.485508263111114502e-02 3.888970240950584412e-02 -4.343827720731496811e-03 3.484438732266426086e-02 1.117564588785171509e-01 1.334856599569320679e-01 -1.452551931142807007e-01 1.046231482177972794e-02 2.422381192445755005e-02 1.087386980652809143e-01 3.317999653518199921e-04 2.619203180074691772e-03 -6.253934651613235474e-02 -1.347527354955673218e-01 -1.045959293842315674e-01 1.700926199555397034e-02 1.551511436700820923e-01 -1.222488209605216980e-01 -6.679667532444000244e-02 -4.485117644071578979e-02 -1.528987884521484375e-01 9.621116518974304199e-02 8.038241416215896606e-02 -8.714961260557174683e-02 -3.427295479923486710e-03 2.073860354721546173e-02 1.457865685224533081e-01 -1.066903248429298401e-01 1.441793143749237061e-01 7.688234746456146240e-02 6.911145150661468506e-02 -5.021147802472114563e-02 2.736414410173892975e-02 -1.127452403306961060e-01 -1.149368435144424438e-01 -4.294879734516143799e-02 -1.204229444265365601e-01 8.391022682189941406e-02 9.711968153715133667e-02 1.362298727035522461e-01 6.400644779205322266e-03 -1.062362939119338989e-01 3.255590796470642090e-02 -8.920969069004058838e-02 5.106673762202262878e-02 1.242749243974685669e-01 2.659457176923751831e-02 7.462231069803237915e-02 -1.737024188041687012e-01 -1.007621213793754578e-01 1.196902766823768616e-01 8.687168359756469727e-02 -1.112044230103492737e-01 6.030108407139778137e-02 -6.065899506211280823e-02 1.435576006770133972e-02 -1.407376080751419067e-01 7.597968727350234985e-02 -8.367019146680831909e-02 8.285428583621978760e-02 1.509784068912267685e-02 2.259891666471958160e-02 6.859614700078964233e-02 6.927620619535446167e-02 1.481648255139589310e-02 -1.518847346305847168e-01 -1.576270908117294312e-01 -1.263309270143508911e-01 -6.081441417336463928e-02 5.971992760896682739e-02 4.593192040920257568e-02 5.338756740093231201e-02 -1.404247060418128967e-02 -2.801082283258438110e-02 3.426755219697952271e-02 1.479912083595991135e-02 1.696701161563396454e-02 -2.851314283907413483e-02 1.109248995780944824e-01 -1.161688342690467834e-01 1.780164837837219238e-01 -5.673167482018470764e-02 -1.777721382677555084e-02 -3.376733884215354919e-02 1.326987892389297485e-01 3.993144258856773376e-02 -8.247625827789306641e-02 7.726574689149856567e-02 4.711712524294853210e-02 1.329520642757415771e-01 5.425766482949256897e-02 9.997311234474182129e-02 -1.161779626272618771e-03 1.701717227697372437e-01 7.087501138448715210e-02 7.379411254078149796e-03 -9.884840995073318481e-02 1.124967187643051147e-01 -2.185931243002414703e-02 -1.416082531213760376e-01 -3.130105882883071899e-02 -1.029748320579528809e-01 7.863441854715347290e-02 1.282921619713306427e-02 1.324721053242683411e-02 1.326390821486711502e-02 -3.954525291919708252e-02 3.445622697472572327e-02 -1.030793637037277222e-01 -6.039524823427200317e-02 -7.170578837394714355e-02 -9.759673476219177246e-02 2.605742216110229492e-02 1.369517110288143158e-02 -7.648430764675140381e-02 -7.952694594860076904e-02 8.933953940868377686e-02 -1.406144797801971436e-01 -1.265108138322830200e-01 -2.140070647001266479e-01 -3.748732805252075195e-02 2.540328800678253174e-01 6.031555682420730591e-02 -1.501719504594802856e-01 3.105572424829006195e-02 1.115662232041358948e-01 5.429363995790481567e-02 2.131014876067638397e-02 -9.830677509307861328e-02 5.751989409327507019e-02 4.842244461178779602e-02 1.206008121371269226e-01 2.740791067481040955e-02 5.970974266529083252e-02 -3.391758725047111511e-02 5.172261502593755722e-03 9.463480114936828613e-02 -4.190462827682495117e-02 1.380971260368824005e-02 -1.528370529413223267e-01 -5.049110203981399536e-02 3.713047364726662636e-03 -8.854706585407257080e-02
-1.703135967254638672e-01 -6.349199265241622925e-02 -1.246626973152160645e-01 -1.233843341469764709e-02 1.001649051904678345e-01 -8.290996402502059937e-02 -2.478758990764617920e-02 1.308013778179883957e-02 4.203832522034645081e-02 -7.738181203603744507e-02 -1.034717410802841187e-01 3.366915881633758545e-02 1.602843701839447021e-01 -1.951273763552308083e-03 2.342710345983505249e-01 -1.580664701759815216e-02 -1.150648016482591629e-02 -1.217871811240911484e-02 1.502374261617660522e-01 1.255773007869720459e-01 7.773417234420776367e-02 1.083579063415527344e-01 1.033553108572959900e-01 -1.140877082943916321e-01 -8.816248178482055664e-02 8.159200102090835571e-02 -3.898487612605094910e-02 6.367209553718566895e-02 5.473875626921653748e-02 3.380135074257850647e-02 1.905203014612197876e-01 -1.416431367397308350e-02 -6.209803279489278793e-03 -4.009586945176124573e-02 -9.523396939039230347e-02 -9.685503691434860229e-02 1.009738743305206299e-01 -6.433632969856262207e-02 5.316368862986564636e-02 -5.984466988593339920e-03 4.173694178462028503e-02 1.179691925644874573e-01 -5.948642268776893616e-02 2.855907380580902100e-02 1.849347651004791260e-01 -6.104332208633422852e-02 -1.540570170618593693e-03 1.758244335651397705e-01 -1.042222231626510620e-01 8.248648047447204590e-02 -7.221567630767822266e-02 1.893601566553115845e-02 -6.282018125057220459e-02 8.053273707628250122e-02 2.961537975352257490e-04 -1.207913309335708618e-01 -1.634807586669921875e-01 6.530337035655975342e-02 -1.118097081780433655e-01 1.438176445662975311e-02 5.880911648273468018e-02 1.161767393350601196e-01 -7.521236687898635864e-02 2.735288813710212708e-03 6.325852870941162109e-02 7.798548787832260132e-02 -6.160341948270797729e-02 -4.565957561135292053e-02 4.514020681381225586e-02 -8.259487897157669067e-02 -1.450559794902801514e-01 1.079183537513017654e-03 1.164008155465126038e-01 -7.339406013488769531e-02 -3.609102591872215271e-02 -5.645232647657394409e-02 6.725452095270156860e-02 -6.108994781970977783e-02 3.175164163112640381e-01 -5.868615582585334778e-02 6.979931890964508057e-02 -9.703876078128814697e-02 -8.158822357654571533e-02 -1.417232006788253784e-01 1.440049558877944946e-01 4.629603400826454163e-02 -9.734274446964263916e-02 1.002582311630249023e-01 6.163046881556510925e-02 -5.844441056251525879e-02 -1.239338815212249756e-01 -5.712578073143959045e-02 1.203770861029624939e-01 2.011957019567489624e-02 6.868960708379745483e-02 -1.441922336816787720e-01 -3.718443959951400757e-02 -3.812264278531074524e-02 1.704459041357040405e-01 1.120088994503021240e-01 1.559271290898323059e-02 -1.385037973523139954e-02 -7.778141647577285767e-03 -8.818730711936950684e-03 9.945538640022277832e-02 -1.361424773931503296e-01 -1.373325735330581665e-01 -9.601029567420482635e-03 3.080729953944683075e-02 -7.582630217075347900e-02 -1.123753488063812256e-01 -1.360598653554916382e-01 7.100497186183929443e-02 -8.776117116212844849e-02 9.943851083517074585e-02 -6.384443491697311401e-02 1.571919023990631104e-02 1.101967692375183105e-01 -1.701153628528118134e-02 -9.508077055215835571e-04 1.587163843214511871e-02 -6.978534627705812454e-03 1.152097582817077637e-01 1.397123038768768311e-01 2.468515932559967041e-01 8.480291813611984253e-02 4.607553593814373016e-03 -9.872736036777496338e-02 -2.262610569596290588e-02 4.109623283147811890e-02 3.310906514525413513e-02 -4.550153855234384537e-03 -5.895639304071664810e-03 -3.328779945150017738e-03 7.491322606801986694e-02 1.475772261619567871e-01 -2.530406974256038666e-02 7.817854732275009155e-02 6.928209960460662842e-02 -1.038373112678527832e-01 4.576899111270904541e-02 1.767399758100509644e-01 4.017416760325431824e-02 1.052304729819297791e-02 -5.509899556636810303e-02 7.310190051794052124e-02 -1.317004673182964325e-03 -4.315297584980726242e-03 7.799095660448074341e-02 -1.289651840925216675e-01 1.020927075296640396e-02 -1.404422223567962646e-01 -1.430897861719131470e-01 2.717125695198774338e-03 6.229470297694206238e-02 1.394320875406265259e-01 3.048208891414105892e-04 3.076311945915222168e-02 -3.382152691483497620e-02 3.519953414797782898e-02 6.681964546442031860e-02 3.817598149180412292e-02 4.423338919878005981e-02 1.301628053188323975e-01 -5.467592179775238037e-02 5.532886832952499390e-02 4.318974167108535767e-02 4.814755916595458984e-02 2.608203096315264702e-03 4.742719605565071106e-02 -1.883853375911712646e-01 -5.035124719142913818e-02 1.289677619934082031e-01 -8.222609013319015503e-02 6.490014493465423584e-02 -2.724843472242355347e-02 8.675267547369003296e-02 -9.379197657108306885e-02 2.999127656221389771e-02 1.129602417349815369e-01 5.307066068053245544e-02 6.557907909154891968e-02 6.127703934907913208e-02 1.920535564422607422e-01 -5.678457021713256836e-02 1.159921810030937195e-01 3.142423927783966064e-02 -3.703972557559609413e-03 -1.656405068933963776e-02 -1.820932924747467041e-01 -3.947789594531059265e-02 -1.173443719744682312e-01 1.958643943071365356e-01 -1.321776807308197021e-01 1.302757561206817627e-01 -1.408463716506958008e-01 -1.103890985250473022e-01 -4.784316197037696838e-02 -1.509726792573928833e-02 3.650643676519393921e-02 8.836983889341354370e-02 2.888297289609909058e-02 -6.124683097004890442e-02 -1.153428386896848679e-02 3.302131220698356628e-02 1.841516643762588501e-01 -1.134029254317283630e-01 -1.570829562842845917e-02 -2.620434202253818512e-02 1.234099790453910828e-01 1.188575476408004761e-02 -3.617455437779426575e-02 5.201123654842376709e-02 1.243751272559165955e-01 -8.875872194766998291e-02 1.252782046794891357e-01 -5.066335946321487427e-02 1.056339293718338013e-01 7.164430618286132812e-02 3.931825608015060425e-02 -4.053045809268951416e-02 1.017040982842445374e-01 1.335310041904449463e-01 5.197996646165847778e-02 -1.585511374287307262e-03 1.115930154919624329e-01 9.271551854908466339e-03 -1.769326068460941315e-02 1.237436458468437195e-01 -1.100950967520475388e-02 1.483512856066226959e-02 1.726654730737209320e-02 -5.587822198867797852e-02 1.428070962429046631e-01 -7.788551738485693932e-04 1.187889501452445984e-01 -1.031412109732627869e-01 -2.039947956800460815e-01 3.628089278936386108e-02 -1.496476531028747559e-01 -1.975781917572021484e-01 -4.318564012646675110e-02 6.491170823574066162e-02 1.472780704498291016e-01 1.634068414568901062e-02 9.689843654632568359e-02 1.204717382788658142e-01 -4.768424481153488159e-02 -5.078135430812835693e-02 -1.539097633212804794e-02 1.796285505406558514e-03 -9.700910886749625206e-04 -2.991226874291896820e-02 -3.995785489678382874e-02 9.464646130800247192e-02 4.927835613489151001e-02
-5.995941534638404846e-02 -1.547711901366710663e-02 -1.315800938755273819e-02 -1.148275658488273621e-01 -2.529557980597019196e-02 1.721220612525939941e-01 -1.310033649206161499e-01 3.574592247605323792e-02 4.897257313132286072e-02 -3.288839012384414673e-02 1.057791989296674728e-02 -7.725184410810470581e-02 -1.265117675065994263e-01 7.740606367588043213e-02 -1.257559508085250854e-01 -6.040408462285995483e-02 -1.689676940441131592e-01 -1.470930576324462891e-01 -1.213473379611968994e-01 2.858813293278217316e-02 3.202092600986361504e-03 2.295744605362415314e-02 2.465185523033142090e-02 -3.357030078768730164e-02 1.324528753757476807e-01 5.041474103927612305e-02 2.582762390375137329e-02 -4.026902094483375549e-02 8.218110352754592896e-02 -9.895599633455276489e-02 8.768200874328613281e-03 1.599822007119655609e-02 6.417203694581985474e-02 -1.825214624404907227e-01 -3.867883235216140747e-02 1.695479005575180054e-01 -1.915225014090538025e-02 2.691937983036041260e-02 9.221702814102172852e-03 6.263658404350280762e-02 -1.127814128994941711e-01 8.462306112051010132e-02 6.157628446817398071e-02 5.643867328763008118e-02 -1.479653990827500820e-03 1.040419042110443115e-01 1.401271298527717590e-02 1.912494003772735596e-01 3.578285500407218933e-02 -7.420441508293151855e-02 -1.095465347170829773e-01 1.124471891671419144e-02 -8.182814717292785645e-02 -3.188510984182357788e-02 6.853216141462326050e-02 7.599561661481857300e-02 -1.107437089085578918e-01 -1.768393814563751221e-02 1.545526534318923950e-01 -6.622976064682006836e-02 -3.652470931410789490e-02 -2.570331841707229614e-02 -6.141400896012783051e-03 2.269119173288345337e-01 -2.956221625208854675e-02 -1.706932187080383301e-01 5.188373848795890808e-03 4.548262432217597961e-02 -4.141116887331008911e-02 4.337224736809730530e-02 -1.230326071381568909e-01 -2.398798614740371704e-01 7.285792380571365356e-02 9.839689731597900391e-02 1.782891750335693359e-01 -4.106464236974716187e-02 1.677401214838027954e-01 -4.081046208739280701e-02 4.063694924116134644e-02 -3.082392551004886627e-02 4.845641925930976868e-02 6.792373210191726685e-02 5.651510134339332581e-02 -4.454550333321094513e-03 2.837308868765830994e-02 -3.503639250993728638e-03 9.373508393764495850e-03 -3.965478390455245972e-02 2.050867490470409393e-02 8.252668380737304688e-02 2.501136064529418945e-01 9.355115145444869995e-02 6.325612310320138931e-03 2.405508235096931458e-02 1.204268112778663635e-01 -2.669421024620532990e-03 4.877512902021408081e-02 3.117203339934349060e-02 -1.556937582790851593e-02 7.392533868551254272e-02 4.579231142997741699e-02 -1.512968093156814575e-01 -3.814313933253288269e-02 6.957397796213626862e-03 2.767842635512351990e-02 -1.040395870804786682e-01 5.067127197980880737e-02 -1.689179092645645142e-01 -6.565067172050476074e-02 9.573296457529067993e-02 -7.616657018661499023e-02 3.352348133921623230e-02 -2.159873545169830322e-01 -2.103717252612113953e-02 2.182236174121499062e-03 -5.655468255281448364e-02 -9.941828995943069458e-02 1.015194728970527649e-01 1.777967624366283417e-02 -1.599278151988983154e-01 8.789477869868278503e-03 -3.502373024821281433e-02 4.379563033580780029e-02 9.119409322738647461e-02 1.821857318282127380e-02 -1.168071404099464417e-01 -2.440838329493999481e-02 9.502378106117248535e-02 -5.055328831076622009e-03 1.090908870100975037e-01 -3.016692958772182465e-02 5.365624278783798218e-02 4.143435508012771606e-02 2.375594712793827057e-02 1.619711071252822876e-01 1.343109458684921265e-01 2.482538111507892609e-03 6.286602467298507690e-03 9.744502604007720947e-02 1.977012120187282562e-02 -1.388278305530548096e-01 -4.062537848949432373e-02 -6.061753630638122559e-02 -8.447354286909103394e-02 2.773987352848052979e-01 -8.210841566324234009e-03 5.823381245136260986e-02 -7.554831355810165405e-02 1.489186584949493408e-01 1.025559529662132263e-01 -6.766964495182037354e-02 -5.361356958746910095e-02 -4.661575704813003540e-02 -7.463612407445907593e-02 7.447575032711029053e-02 -1.064208075404167175e-01 9.321784600615501404e-03 1.115225628018379211e-01 8.481881022453308105e-02 -1.064542797394096851e-03 8.005614578723907471e-02 1.474209316074848175e-02 -6.290847063064575195e-02 3.908945620059967041e-02 -1.067285314202308655e-01 1.182065457105636597e-01 -5.972607806324958801e-02 -1.671987958252429962e-02 -6.623894907534122467e-03 6.816801428794860840e-02 2.122013084590435028e-02 7.752880454063415527e-02 -1.356427073478698730e-01 -3.671801835298538208e-02 4.924352839589118958e-02 -6.050144508481025696e-02 1.033041477203369141e-01 1.291491836309432983e-01 -1.093980893492698669e-01 6.751398742198944092e-02 -1.398878693580627441e-01 -7.124740164726972580e-03 -8.221347630023956299e-02 4.273284599184989929e-02 1.103916317224502563e-01 -6.839200388640165329e-03 3.315893188118934631e-02 2.149236053228378296e-01 -2.360486686229705811e-01 -3.711316362023353577e-02 6.395603716373443604e-02 -2.067538499832153320e-01 9.839455783367156982e-02 1.115297451615333557e-01 -6.986949592828750610e-02 -1.098294258117675781e-01 -7.559368014335632324e-02 -6.836865097284317017e-02 -5.540981888771057129e-02 9.754313528537750244e-02 7.784798741340637207e-02 -1.978749409317970276e-02 1.264891326427459717e-01 3.971707448363304138e-02 2.957203425467014313e-02 -1.086613237857818604e-01 -9.523668140172958374e-02 -1.433425098657608032e-01 1.598130762577056885e-01 2.775582543108612299e-04 1.933192759752273560e-01 -1.139860786497592926e-02 2.144886180758476257e-02 2.572238259017467499e-02 1.255465392023324966e-02 -1.241499111056327820e-01 5.387360975146293640e-02 8.161685615777969360e-02 -1.124583110213279724e-01 7.718862593173980713e-02 5.093294009566307068e-02 1.058619171380996704e-01 1.957695744931697845e-02 -1.199146173894405365e-02 4.376251995563507080e-02 1.121508143842220306e-02 4.150152206420898438e-02 -9.579543769359588623e-02 5.304959043860435486e-02 8.957517147064208984e-02 -2.918301336467266083e-02 4.171558842062950134e-02 -9.870476275682449341e-02 2.091449350118637085e-01 3.668130189180374146e-02 -7.380165625363588333e-03 8.950977772474288940e-02 8.791007101535797119e-02 1.143878698348999023e-01 -4.041981417685747147e-03 3.309772536158561707e-02 1.408521831035614014e-01 -5.835511535406112671e-02 -1.066481545567512512e-01 1.386294960975646973e-01 5.817523691803216934e-03 2.541463635861873627e-02 -5.749565362930297852e-02 -8.315179497003555298e-02 -2.055240981280803680e-02 -1.076572760939598083e-01 -8.862475305795669556e-02 3.428736701607704163e-02 1.292074769735336304e-01 -2.315900661051273346e-02 3.671847656369209290e-02
4.887955263257026672e-02 2.376565486192703247e-01 -8.176325261592864990e-02 -1.158898323774337769e-02 2.466633170843124390e-02 -5.773318558931350708e-02 -1.221273653209209442e-02 6.025356799364089966e-02 -8.573471009731292725e-02 -6.375132594257593155e-03 -1.433562338352203369e-01 1.504694670438766479e-01 4.017697647213935852e-02 3.512217849493026733e-02 1.631699316203594208e-02 1.854378581047058105e-01 1.106225252151489258e-01 -4.655780643224716187e-02 -1.370867714285850525e-03 -4.866724833846092224e-03 5.431141704320907593e-02 -9.693649411201477051e-02 4.467330127954483032e-02 -1.210083486512303352e-03 -6.636162102222442627e-02 -1.511936038732528687e-01 -1.193072497844696045e-01 2.960504591464996338e-02 4.309612512588500977e-02 7.239691168069839478e-02 -1.205534790642559528e-03 -3.915592283010482788e-02 1.614655852317810059e-01 -1.032949313521385193e-01 -6.160397455096244812e-02 3.367355465888977051e-02 9.221812360920011997e-04 7.606412470340728760e-02 -3.840965405106544495e-02 -1.782803423702716827e-02 8.371531032025814056e-03 9.657566435635089874e-03 1.437300294637680054e-01 7.974857091903686523e-02 -1.383050233125686646e-01 4.049054533243179321e-02 -1.160086989402770996e-01 -1.286595314741134644e-01 4.740162193775177002e-02 -2.609846927225589752e-02 1.258644927293062210e-02 1.011060699820518494e-01 -2.030106959864497185e-03 8.487458527088165283e-02 -5.402436107397079468e-02 7.444995641708374023e-02 5.115990340709686279e-02 5.538512766361236572e-02 6.631267815828323364e-02 -1.773254014551639557e-02 -6.904806941747665405e-02 1.664649397134780884e-01 -9.511838108301162720e-02 7.482574880123138428e-02 -1.602965779602527618e-02 -1.091621965169906616e-01 1.478871982544660568e-02 2.207230078056454659e-03 8.802302181720733643e-02 6.082086265087127686e-02 8.306918293237686157e-02 5.797825008630752563e-02 -1.519491821527481079e-01 -1.068305373191833496e-01 1.700414717197418213e-01 -1.128788366913795471e-01 7.602198421955108643e-02 -3.031951375305652618e-03 6.487840414047241211e-02 5.591801833361387253e-03 -1.405116617679595947e-01 4.353935644030570984e-02 -1.797644346952438354e-01 -4.666842520236968994e-02 9.636902250349521637e-03 1.290671899914741516e-02 -1.220372244715690613e-01 2.042239345610141754e-02 1.598152965307235718e-01 -5.481908470392227173e-02 -5.152066424489021301e-02 -3.476320765912532806e-03 -4.279260337352752686e-02 1.527872234582901001e-01 8.575463667511940002e-03 7.293454557657241821e-02 1.530684530735015869e-01 -7.866431958973407745e-03 -3.874788060784339905e-02 -3.289188724011182785e-03 -1.025589066557586193e-03 -4.191318526864051819e-02 8.061715960502624512e-02 -4.723434802144765854e-03 6.749542802572250366e-02 2.011833041906356812e-01 5.779102444648742676e-02 6.077858433127403259e-02 -4.676700383424758911e-02 1.336559504270553589e-01 -2.878002263605594635e-02 -1.730312220752239227e-02 4.393555968999862671e-02 -1.367315370589494705e-02 1.066293045878410339e-01 5.545113235712051392e-02 -4.299922287464141846e-02 -3.213346004486083984e-02 -3.979262709617614746e-02 -1.690575033426284790e-01 -2.274175407364964485e-03 -9.324647486209869385e-02 1.777770742774009705e-02 1.214583069086074829e-01 3.900843858718872070e-02 -6.954349577426910400e-02 -6.230415776371955872e-02 9.572956711053848267e-02 -8.010415360331535339e-03 -8.217684179544448853e-02 -4.632118158042430878e-03 1.683842539787292480e-01 9.857351332902908325e-02 -1.023266986012458801e-01 1.095011234283447266e-01 5.882205814123153687e-02 -8.256550878286361694e-02 -3.854187577962875366e-02 -3.481036797165870667e-02 2.019770070910453796e-02 7.669159024953842163e-02 6.852419674396514893e-02 1.609531939029693604e-01 6.445465143769979477e-03 8.380981534719467163e-02 2.496884371794294566e-05 2.175435721874237061e-01 -6.110808998346328735e-02 1.191263049840927124e-01 7.457941770553588867e-03 1.073394995182752609e-02 -8.888658881187438965e-02 1.144064292311668396e-01 2.145143598318099976e-02 8.888391777873039246e-03 9.676983952522277832e-02 1.424850523471832275e-01 3.800441697239875793e-02 -1.596270352602005005e-01 -1.995886489748954773e-02 4.221773892641067505e-02 4.424982704222202301e-03 6.987403333187103271e-02 -4.832543060183525085e-02 -9.084929525852203369e-02 2.155699580907821655e-02 -1.428788900375366211e-01 -1.625045537948608398e-01 -1.432663574814796448e-02 -7.184857130050659180e-02 1.450212150812149048e-01 2.494744658470153809e-01 1.094773877412080765e-02 9.996928274631500244e-02 -2.375689148902893066e-02 1.236886829137802124e-01 -2.841159142553806305e-02 1.222529411315917969e-01 -6.880138069391250610e-02 2.913049980998039246e-02 9.033668786287307739e-02 5.263266339898109436e-02 -1.357706822454929352e-02 1.091597080230712891e-01 -2.986988611519336700e-02 3.325437754392623901e-02 -9.885694086551666260e-02 -3.133614361286163330e-02 8.262408524751663208e-02 5.398738011717796326e-02 3.270923346281051636e-02 -3.920161724090576172e-02 -6.534916162490844727e-02 -3.979945089668035507e-03 9.997159242630004883e-02 1.716704107820987701e-02 -4.915534332394599915e-02 -1.647190749645233154e-01 1.837431192398071289e-01 1.051805764436721802e-01 1.122871786355972290e-01 -8.303221315145492554e-02 -1.096846610307693481e-01 -1.442785710096359253e-01 3.869751095771789551e-02 -3.946454450488090515e-02 1.117472350597381592e-02 -1.053297310136258602e-03 -6.058902293443679810e-02 1.127226799726486206e-01 1.338560581207275391e-01 -9.624096751213073730e-02 1.050252020359039307e-01 1.052437797188758850e-01 6.723498553037643433e-02 -7.225421816110610962e-02 1.491284370422363281e-01 -1.177776977419853210e-01 8.601073175668716431e-02 -1.336780637502670288e-01 7.098531723022460938e-02 -5.263048224151134491e-03 -3.912175819277763367e-02 1.256123483180999756e-01 -6.865881383419036865e-02 -7.776823639869689941e-02 5.229800939559936523e-02 1.862716861069202423e-02 -8.231341838836669922e-02 -2.530711703002452850e-02 -2.911381050944328308e-02 2.308478206396102905e-01 -8.724689483642578125e-02 -1.157245710492134094e-01 -1.746039278805255890e-02 2.265025526285171509e-01 -1.665496379137039185e-01 -1.249404624104499817e-02 7.476924359798431396e-02 1.535195484757423401e-02 1.588829979300498962e-02 1.165587529540061951e-01 -9.783279150724411011e-02 -1.022939085960388184e-01 -4.037468135356903076e-02 -2.245024964213371277e-02 1.886691451072692871e-01 7.592510432004928589e-02 -6.236448138952255249e-02 1.367355138063430786e-01 6.470919470302760601e-04 2.080016136169433594e-01 5.480645969510078430e-02 2.687413990497589111e-01 7.246054708957672119e-02 -1.322551220655441284e-01
-5.049656704068183899e-02 -5.092059820890426636e-02 7.741864770650863647e-02 -9.628146886825561523e-02 2.606657892465591431e-02 -1.336761265993118286e-01 -1.610735990107059479e-02 -1.677273190580308437e-03 -1.094591915607452393e-01 9.503956139087677002e-02 9.105747193098068237e-02 -5.258561298251152039e-02 4.624819383025169373e-02 5.312146246433258057e-02 1.006128266453742981e-01 7.469148188829421997e-02 -1.890298910439014435e-02 -1.823940426111221313e-01 5.277092382311820984e-02 1.843164563179016113e-01 7.633765041828155518e-02 1.873158663511276245e-01 -5.205581709742546082e-02 1.063587740063667297e-01 8.860756456851959229e-02 9.677238017320632935e-02 -7.773156464099884033e-02 3.907722607254981995e-02 -9.199702739715576172e-02 -1.312361359596252441e-01 1.072847396135330200e-01 -4.096578806638717651e-02 -9.178603440523147583e-02 8.513531833887100220e-02 -9.748748689889907837e-02 -8.670328557491302490e-02 -1.818883605301380157e-02 -3.586369007825851440e-02 5.539497733116149902e-02 4.457535594701766968e-02 5.788319557905197144e-02 1.086704283952713013e-01 6.657597422599792480e-02 -7.441084831953048706e-02 -1.322608143091201782e-01 5.104750022292137146e-02 2.046854607760906219e-02 -3.391255438327789307e-02 -4.201949015259742737e-02 -9.565674513578414917e-02 -5.753073468804359436e-02 1.054968535900115967e-01 1.391866207122802734e-01 -5.965895019471645355e-03 -4.492508992552757263e-02 4.765200242400169373e-02 1.316514313220977783e-01 -8.022998273372650146e-02 -4.573845118284225464e-02 -4.291234537959098816e-03 -6.828942801803350449e-03 -2.885478176176548004e-02 8.881712704896926880e-02 7.102611474692821503e-03 8.444248139858245850e-02 1.052413135766983032e-01 3.875827789306640625e-02 8.811213774606585503e-04 1.217439770698547363e-01 5.651962012052536011e-02 3.813954070210456848e-02 3.794634947553277016e-03 -2.333701774477958679e-02 9.259400516748428345e-02 1.061242073774337769e-02 -5.269413068890571594e-02 1.263226121664047241e-01 -4.354860261082649231e-02 7.240375131368637085e-02 -5.382946226745843887e-03 -8.531562983989715576e-02 3.896049782633781433e-02 -1.380874067544937134e-01 4.583475366234779358e-02 -1.451782584190368652e-01 3.386512771248817444e-02 3.214765340089797974e-02 -3.731305524706840515e-02 2.546832151710987091e-02 -9.368289262056350708e-02 5.294965114444494247e-03 2.336988449096679688e-01 2.815148793160915375e-02 2.572766877710819244e-02 -1.678916998207569122e-02 -1.325819641351699829e-01 -6.860699504613876343e-02 4.076555371284484863e-02 -4.891245043836534023e-04 -2.464433759450912476e-02 -1.340511590242385864e-01 -1.134635806083679199e-01 -8.401431143283843994e-02 1.311229914426803589e-01 -8.594986051321029663e-03 -4.032770171761512756e-02 1.146065741777420044e-01 6.301645189523696899e-02 4.639474675059318542e-02 1.443734467029571533e-01 -6.221413612365722656e-02 1.683069318532943726e-01 5.952232703566551208e-02 9.317708760499954224e-02 -5.723429471254348755e-02 1.002796813845634460e-01 -2.592278458178043365e-02 -1.268150955438613892e-01 -6.043510511517524719e-02 1.297896057367324829e-01 -8.542678505182266235e-02 1.146898940205574036e-01 -1.186260022222995758e-02 9.647683240473270416e-03 1.172017902135848999e-01 -6.693600863218307495e-02 1.200862005352973938e-01 4.543522000312805176e-02 -4.076344892382621765e-02 5.093527212738990784e-02 3.838869929313659668e-02 -1.368643492460250854e-01 2.369645982980728149e-01 -2.215182967483997345e-02 1.254652738571166992e-01 2.749602682888507843e-02 -7.078639417886734009e-02 3.773231804370880127e-02 -1.187846213579177856e-01 -9.279568493366241455e-02 -7.289844751358032227e-02 1.791456788778305054e-01 -1.172907371073961258e-02 -1.988054998219013214e-02 2.238270789384841919e-01 7.462117075920104980e-02 3.931198641657829285e-02 2.468548156321048737e-02 -2.301113754510879517e-01 1.484705209732055664e-01 1.271114647388458252e-01 -3.724225983023643494e-02 8.153601735830307007e-02 -5.190945416688919067e-02 -5.639208853244781494e-02 5.648870393633842468e-02 4.806321114301681519e-02 1.680917292833328247e-01 -4.211329389363527298e-03 8.871088922023773193e-02 1.163635402917861938e-02 1.788421906530857086e-02 -2.008081227540969849e-01 2.866200506687164307e-01 1.449339538812637329e-01 -1.734864413738250732e-01 -7.812024652957916260e-02 8.025790005922317505e-02 1.298376917839050293e-01 7.598547637462615967e-02 3.766101598739624023e-02 -5.359029024839401245e-02 8.399514108896255493e-02 -7.138068974018096924e-02 -2.924863062798976898e-02 2.381753921508789062e-02 -3.479915484786033630e-02 4.034156724810600281e-02 1.721368171274662018e-02 -4.115635529160499573e-02 1.491159796714782715e-01 -1.421434730291366577e-01 3.331955894827842712e-02 6.862730532884597778e-02 2.174878679215908051e-02 5.836619064211845398e-02 -9.502871334552764893e-02 6.753135472536087036e-02 1.090788096189498901e-01 -7.758080493658781052e-03 -2.478161454200744629e-02 9.479309432208538055e-03 9.189452975988388062e-03 -3.593616932630538940e-02 1.000327840447425842e-01 -9.929030388593673706e-02 5.596164613962173462e-02 4.435312747955322266e-02 -6.605026870965957642e-02 1.293561756610870361e-01 -1.554831564426422119e-01 -6.397306174039840698e-02 2.528269076719880104e-03 2.705604732036590576e-01 6.680838763713836670e-03 4.877059906721115112e-02 -6.991858780384063721e-02 -5.093157291412353516e-02 2.071219496428966522e-02 -5.601193010807037354e-02 1.499770581722259521e-01 -5.169379711151123047e-02 -3.870227187871932983e-02 4.650390520691871643e-02 1.774712349288165569e-03 -3.001773543655872345e-02 5.298335850238800049e-02 8.437619544565677643e-03 7.281380891799926758e-02 -1.979898363351821899e-01 2.421563677489757538e-02 -4.094429686665534973e-02 -2.157948017120361328e-01 1.504652798175811768e-01 1.327155828475952148e-01 2.602117881178855896e-02 3.973744437098503113e-02 1.069802045822143555e-01 -3.103926219046115875e-02 -1.935226172208786011e-01 4.358533397316932678e-02 -4.406739026308059692e-02 -5.801385641098022461e-02 9.182296693325042725e-02 -4.438949003815650940e-02 -1.109942123293876648e-01 1.126372963190078735e-01 -4.039574041962623596e-02 -3.463530540466308594e-02 -3.469399735331535339e-02 1.863220632076263428e-01 1.424640882760286331e-02 1.566769182682037354e-01 8.243606984615325928e-02 2.339936792850494385e-02 1.198584139347076416e-01 2.261487767100334167e-02 -4.386155307292938232e-02 5.645789578557014465e-02 1.588547676801681519e-01 -1.432836353778839111e-01 -3.704963251948356628e-03 -9.762512892484664917e-02 -1.325708180665969849e-01 -1.012884080410003662e-01 -4.143133759498596191e-02
-8.240921050310134888e-02 7.411330193281173706e-02 2.054255269467830658e-02 -4.029233008623123169e-02 -4.049117118120193481e-02 2.083175033330917358e-01 -5.952937901020050049e-02 -1.032134816050529480e-01 1.184427142143249512e-01 1.575419604778289795e-01 1.056665852665901184e-01 -2.195704355835914612e-02 1.782521791756153107e-02 -1.444200575351715088e-01 -1.306039839982986450e-01 -5.181534215807914734e-03 1.677740179002285004e-02 4.374102130532264709e-02 6.234816089272499084e-02 1.271310150623321533e-01 1.110342815518379211e-01 -4.952839110046625137e-03 -1.013633981347084045e-02 -1.203485727310180664e-01 -3.586156666278839111e-02 -4.449479747563600540e-03 -4.631003364920616150e-02 2.665679436177015305e-03 5.966632626950740814e-03 -4.859572276473045349e-02 -6.142063811421394348e-02 -6.816973909735679626e-03 2.766632847487926483e-02 -9.112693369388580322e-03 -6.154896318912506104e-02 -7.148273754864931107e-03 -2.057349868118762970e-02 2.302443981170654297e-02 7.913128286600112915e-02 -1.056822575628757477e-02 2.022685706615447998e-01 -1.946222335100173950e-01 2.196538746356964111e-01 3.479378670454025269e-02 -1.593222282826900482e-02 1.509998179972171783e-02 -1.738771051168441772e-01 -1.355437785387039185e-01 1.272501349449157715e-01 -8.047761768102645874e-02 1.577725559473037720e-01 -9.101185202598571777e-02 7.061988115310668945e-02 2.604403160512447357e-02 5.782011151313781738e-02 -1.085393410176038742e-02 -1.436253935098648071e-01 3.005282394587993622e-02 1.945597678422927856e-01 1.824044585227966309e-01 -2.984048426151275635e-02 -8.208273351192474365e-02 1.758920401334762573e-01 -5.213861167430877686e-02 9.187836945056915283e-02 7.933692634105682373e-02 -1.513644009828567505e-01 1.685381121933460236e-02 -8.751025050878524780e-02 1.320366114377975464e-01 -2.534333616495132446e-02 -9.153456985950469971e-02 2.082509920001029968e-02 2.944799512624740601e-02 3.157131839543581009e-03 -6.791305541992187500e-02 -1.083028614521026611e-01 -5.111120268702507019e-02 -1.739677935838699341e-01 6.410086993128061295e-03 -2.699525840580463409e-02 4.480526596307754517e-02 9.313203394412994385e-03 7.613609731197357178e-02 -2.462576031684875488e-01 3.751832619309425354e-02 -5.376251786947250366e-02 -2.922633895650506020e-03 -3.945107385516166687e-02 -1.656282097101211548e-01 -6.200802326202392578e-02 -5.983672663569450378e-02 2.106382250785827637e-01 1.657301932573318481e-01 1.044617146253585815e-01 6.600709259510040283e-02 4.384973086416721344e-03 4.102187603712081909e-02 6.077587231993675232e-02 -7.696896046400070190e-02 3.471036255359649658e-02 2.204749584197998047e-01 1.263474225997924805e-01 8.977086842060089111e-02 4.428529366850852966e-02 -1.309081315994262695e-01 -2.297308295965194702e-02 6.562245544046163559e-03 -1.304330378770828247e-01 1.660120487213134766e-02 -1.012609750032424927e-01 -7.163913547992706299e-02 1.746795512735843658e-02 1.313067078590393066e-01 5.866773426532745361e-02 4.498289898037910461e-02 -2.735475823283195496e-02 -9.687481075525283813e-02 -1.584346033632755280e-02 -4.454431310296058655e-02 -6.925036013126373291e-02 -3.636192530393600464e-02 -7.999615371227264404e-02 3.583088144659996033e-02 6.091343984007835388e-02 2.618211694061756134e-02 2.272968553006649017e-02 -1.431066356599330902e-02 6.365948170423507690e-02 5.624647065997123718e-02 1.657279282808303833e-01 -5.869688466191291809e-02 -1.123208925127983093e-01 5.959254503250122070e-02 -2.110030874609947205e-02 -4.741891846060752869e-02 8.949690312147140503e-02 1.605419367551803589e-01 1.376699805259704590e-01 -4.453395307064056396e-02 1.805271394550800323e-02 -3.558503836393356323e-02 -1.075101867318153381e-01 1.373030431568622589e-02 9.531031548976898193e-02 -3.740312159061431885e-02 3.174513578414916992e-02 -1.111873835325241089e-01 -6.222495064139366150e-02 -1.351173873990774155e-02 1.198412477970123291e-01 6.916014105081558228e-02 -7.654008269309997559e-02 5.388146638870239258e-02 3.176270797848701477e-02 1.089135482907295227e-01 -1.594534702599048615e-02 -5.606319382786750793e-02 -2.475819922983646393e-02 1.320319324731826782e-01 -1.075832173228263855e-03 5.939307063817977905e-02 -8.731636404991149902e-02 -1.343591976910829544e-02 -1.067380011081695557e-01 8.596053719520568848e-02 -1.614156216382980347e-01 3.472951008006930351e-03 -6.647981703281402588e-02 -6.677039712667465210e-02 -4.701158404350280762e-02 1.481692939996719360e-01 -2.509698644280433655e-02 5.339412391185760498e-02 1.133144460618495941e-02 -6.788506172597408295e-03 -9.943498671054840088e-02 -5.676565319299697876e-02 -2.263631820678710938e-01 -3.694421378895640373e-03 1.088991388678550720e-02 1.428338289260864258e-01 1.275021731853485107e-01 2.698264084756374359e-02 -3.609186410903930664e-02 -3.404649440199136734e-03 1.584548801183700562e-01 1.127990148961544037e-02 -8.386193215847015381e-02 -8.473379537463188171e-03 -6.140169501304626465e-02 -2.412111312150955200e-01 2.869644388556480408e-02 -5.420797504484653473e-03 6.105086207389831543e-02 -6.442958954721689224e-03 -1.140689626336097717e-01 -1.666163466870784760e-02 3.037900850176811218e-02 -2.460062131285667419e-02 -5.694946274161338806e-02 -6.899314373731613159e-02 -1.189049035310745239e-01 -4.332818090915679932e-02 1.282831579446792603e-01 1.806055195629596710e-02 -1.151280999183654785e-01 5.092742666602134705e-02 -5.810888111591339111e-02 7.195081561803817749e-02 -6.430969387292861938e-02 1.562056243419647217e-01 5.131126195192337036e-02 -3.706413321197032928e-03 7.345382869243621826e-02 1.373308300971984863e-01 -7.067634910345077515e-02 9.911623597145080566e-02 3.279867395758628845e-02 6.944137811660766602e-02 1.414884626865386963e-01 1.566723734140396118e-01 1.063453629612922668e-01 2.605035714805126190e-02 -1.479979138821363449e-02 1.200088337063789368e-01 9.523853659629821777e-02 -7.940608263015747070e-02 -1.087309271097183228e-01 -2.412069775164127350e-02 -7.790546864271163940e-03 2.347449213266372681e-02 7.820948213338851929e-02 -1.372869908809661865e-01 1.543782055377960205e-01 -1.425234526395797729e-01 -6.231436878442764282e-02 2.764481864869594574e-02 -5.865058675408363342e-02 2.783924899995326996e-02 9.713957458734512329e-02 -9.468319267034530640e-02 1.443701386451721191e-01 7.944110035896301270e-02 -3.955017775297164917e-02 -1.548207104206085205e-01 1.588003337383270264e-01 2.095302753150463104e-02 -7.695411890745162964e-02 1.600877493619918823e-01 1.282052546739578247e-01 4.283184558153152466e-02 -9.809344261884689331e-02 4.247686639428138733e-02 -1.036562398076057434e-01 8.609408885240554810e-02
