3.744470328092575073e-02 4.572169110178947449e-02 5.176596716046333313e-02 -4.371092095971107483e-02 -7.816651463508605957e-02 -6.686430424451828003e-02 9.520128369331359863e-02 -1.489325165748596191e-01 3.055814653635025024e-02 6.639588624238967896e-02 1.035820618271827698e-01 5.713073071092367172e-03 1.802206337451934814e-01 2.368366122245788574e-01 -2.037712559103965759e-02 -1.239222213625907898e-01 5.594270303845405579e-02 -1.886626482009887695e-01 -1.518169343471527100e-01 -7.290811091661453247e-02 4.536794498562812805e-02 1.789131760597229004e-02 3.691001981496810913e-02 1.119027957320213318e-01 3.534205257892608643e-02 -7.448841631412506104e-02 -1.087392941117286682e-01 -8.696544915437698364e-02 7.153925299644470215e-02 -9.226507693529129028e-02 9.464415907859802246e-02 1.782481819391250610e-01 2.896957099437713623e-02 3.526749089360237122e-02 2.081550471484661102e-02 2.320630010217428207e-03 2.457953814882785082e-04 -1.309950742870569229e-02 1.056165322661399841e-01 1.814128160476684570e-01 2.454738132655620575e-03 -2.192118391394615173e-02 -4.283126071095466614e-02 4.408633708953857422e-02 -5.235969647765159607e-02 1.037297099828720093e-01 2.811442129313945770e-03 1.633821055293083191e-02 -6.009755888953804970e-04 -1.062448993325233459e-01 -1.366491466760635376e-01 8.415882289409637451e-02 -1.100985333323478699e-01 -3.581911791115999222e-03 -4.232204519212245941e-03 5.888084322214126587e-02 5.071490630507469177e-02 -7.662378996610641479e-02 -8.899302035570144653e-02
-7.104293908923864365e-03 8.839846402406692505e-02 7.700810581445693970e-02 5.528020858764648438e-02 -4.529367666691541672e-03 -1.521172523498535156e-01 3.505851700901985168e-02 6.156663969159126282e-02 1.392147131264209747e-02 -6.870386190712451935e-03 -3.349343314766883850e-02 1.082655638456344604e-01 -3.027524985373020172e-02 1.028431858867406845e-02 -5.317647382616996765e-02 -4.230302199721336365e-02 5.909479409456253052e-02 2.178101837635040283e-01 1.993848010897636414e-03 5.166006460785865784e-02 -1.198568269610404968e-01 2.738324739038944244e-02 -2.774432359728962183e-04 -2.416974306106567383e-02 -1.417836397886276245e-01 -2.181454934179782867e-02 -1.049117520451545715e-01 -3.735491260886192322e-02 1.887123584747314453e-01 1.989136636257171631e-02 1.715468317270278931e-01 8.753318339586257935e-02 6.114568188786506653e-02 3.396096825599670410e-02 -3.480870425701141357e-01 6.135146319866180420e-02 -2.068233788013458252e-01 4.313914105296134949e-02 -3.943735361099243164e-02 -1.294739097356796265e-01 3.950346726924180984e-03 -2.835776656866073608e-02 1.018520370125770569e-01 -5.429392307996749878e-02 -3.922734782099723816e-02 9.086906909942626953e-02 4.981625452637672424e-02 1.315546184778213501e-01 2.565899677574634552e-02 -1.029153838753700256e-01 7.526840548962354660e-03 7.218925654888153076e-02 1.468500494956970215e-01 -6.426078081130981445e-02 4.040253907442092896e-02 -5.799257196485996246e-04 -9.663397073745727539e-02 2.636291384696960449e-01 -1.500276662409305573e-02
-1.251645535230636597e-01 1.436020880937576294e-01 -1.913632452487945557e-01 5.585210863500833511e-03 -4.057685844600200653e-03 1.594041101634502411e-02 8.006787300109863281e-02 1.142993047833442688e-01 1.100290715694427490e-01 3.967261314392089844e-02 5.128378048539161682e-02 -6.989028304815292358e-02 -1.230259239673614502e-01 -4.928390681743621826e-02 -6.395523250102996826e-02 1.430160552263259888e-02 -1.003981828689575195e-01 -3.696840256452560425e-03 -3.300768882036209106e-02 2.666575834155082703e-03 1.902790041640400887e-03 8.413992822170257568e-02 1.321998890489339828e-02 -6.287931650876998901e-02 4.979408811777830124e-03 -3.429202130064368248e-03 1.695201098918914795e-01 -5.959763657301664352e-03 1.492900997400283813e-01 -6.801895797252655029e-02 1.043615043163299561e-01 -9.903459250926971436e-02 2.019854635000228882e-01 2.304698154330253601e-02 -1.695219427347183228e-01 1.306076794862747192e-01 -1.015875861048698425e-01 1.279446110129356384e-02 1.305136978626251221e-01 6.056657433509826660e-02 1.417536735534667969e-01 -1.850765496492385864e-01 9.712289273738861084e-02 -1.061583869159221649e-02 3.293263167142868042e-02 -7.806751877069473267e-02 -1.371033042669296265e-01 3.384832292795181274e-02 -1.160995196551084518e-02 -1.628590747714042664e-03 -2.362384088337421417e-02 -9.543401002883911133e-02 -1.351455301046371460e-01 -3.540582954883575439e-02 4.805690608918666840e-03 9.200291335582733154e-02 -1.075739040970802307e-01 5.347793921828269958e-02 2.268790081143379211e-02
-3.965939208865165710e-02 -4.747008532285690308e-02 -3.264431357383728027e-01 -8.382616937160491943e-02 8.634472265839576721e-03 -3.337869420647621155e-02 9.265680611133575439e-02 -2.192846834659576416e-01 -3.327972814440727234e-02 1.137318909168243408e-01 8.690281212329864502e-02 3.106363676488399506e-02 1.247666869312524796e-02 5.198584496974945068e-02 3.131459653377532959e-02 4.671506583690643311e-02 2.033042837865650654e-04 -7.671087980270385742e-03 1.175783425569534302e-01 1.379954814910888672e-01 -7.053969800472259521e-02 2.064985036849975586e-02 1.230452861636877060e-02 7.148075848817825317e-02 -1.919353567063808441e-02 5.326195061206817627e-02 -4.658794403076171875e-02 3.020801581442356110e-02 8.200999349355697632e-03 1.242101490497589111e-01 1.039770394563674927e-01 -1.599819660186767578e-01 1.045144628733396530e-02 6.508497148752212524e-02 1.344198733568191528e-01 -4.107932001352310181e-02 -1.048625335097312927e-01 -9.868372976779937744e-02 -5.020319949835538864e-03 1.381666748784482479e-03 -4.264906048774719238e-02 7.217223942279815674e-02 -2.579237334430217743e-02 1.859291195869445801e-01 -4.607972875237464905e-02 2.252840995788574219e-02 -2.386600151658058167e-02 1.038767993450164795e-01 1.628888994455337524e-01 5.154411122202873230e-02 -1.303828954696655273e-01 1.313498169183731079e-01 -1.789098829030990601e-01 -8.182755112648010254e-02 -2.080091647803783417e-02 -4.732605442404747009e-02 -2.058774232864379883e-02 -1.149860490113496780e-02 5.364599823951721191e-02
-9.307155013084411621e-02 6.750375498086214066e-03 -1.144321188330650330e-01 1.775998622179031372e-01 2.064199298620223999e-01 -2.176686393795534968e-04 7.727831602096557617e-02 3.815672174096107483e-02 1.154581084847450256e-01 -6.823258846998214722e-02 2.270794659852981567e-02 6.320447474718093872e-02 2.353313937783241272e-02 -1.794062405824661255e-01 2.124600671231746674e-02 1.074058469384908676e-03 -9.962022304534912109e-02 -7.617107778787612915e-02 8.170842379331588745e-02 4.185830429196357727e-02 -1.289460211992263794e-01 -1.340665221214294434e-01 -1.108647957444190979e-01 5.791856721043586731e-02 -1.427227854728698730e-01 -1.900502294301986694e-01 1.351087093353271484e-01 6.587807834148406982e-02 1.136351078748703003e-01 1.203278750181198120e-01 1.157766804099082947e-01 -7.064368575811386108e-02 4.590910673141479492e-02 4.938514903187751770e-02 1.570716500282287598e-02 2.629241161048412323e-02 -5.022040382027626038e-02 -1.167563349008560181e-02 2.218495355919003487e-03 1.581222563982009888e-02 1.789943873882293701e-02 -6.450704485177993774e-02 1.008452624082565308e-01 7.606213539838790894e-02 -6.981389224529266357e-02 1.897568814456462860e-02 -5.782811716198921204e-02 -1.670877332799136639e-03 -3.059182874858379364e-02 1.527801603078842163e-01 6.006628274917602539e-02 -4.792401939630508423e-02 -3.652797639369964600e-02 4.333886131644248962e-02 3.348246961832046509e-02 -8.471094071865081787e-02 1.601428240537643433e-01 6.403766572475433350e-02 5.137652531266212463e-02
-1.313657164573669434e-01 -5.204799585044384003e-03 -2.067373245954513550e-01 8.487722277641296387e-02 5.959935020655393600e-03 3.975987434387207031e-02 -8.450635522603988647e-02 -1.048747971653938293e-01 1.044067833572626114e-02 -1.294782459735870361e-01 4.664950817823410034e-02 1.115174591541290283e-01 -1.224877014756202698e-01 -3.736750036478042603e-02 1.231623739004135132e-01 2.176292473450303078e-03 -1.888735964894294739e-02 -1.360994428396224976e-01 1.202625185251235962e-01 -9.465765208005905151e-02 -1.892622262239456177e-01 4.210856184363365173e-02 -1.046790480613708496e-01 -3.473953157663345337e-02 -1.019748225808143616e-01 -5.706951394677162170e-02 -1.381981372833251953e-01 -2.189222350716590881e-02 -4.397838562726974487e-02 -9.516545385122299194e-02 -1.163594722747802734e-01 -1.547559816390275955e-02 -3.349316492676734924e-02 -2.668633684515953064e-02 -1.002728939056396484e-02 7.917005568742752075e-02 6.858053803443908691e-02 1.065034940838813782e-01 -9.076100587844848633e-02 -9.415557235479354858e-02 1.341856922954320908e-02 6.937275081872940063e-02 -5.730524426326155663e-04 -4.913061484694480896e-02 8.640797808766365051e-03 1.327132135629653931e-01 3.486965596675872803e-02 9.202008135616779327e-03 -8.662068843841552734e-02 -3.577943518757820129e-02 -7.198361307382583618e-02 -1.306906789541244507e-01 -9.199019521474838257e-03 8.695133030414581299e-02 1.734923124313354492e-01 -1.004204973578453064e-01 5.130870267748832703e-02 1.832729578018188477e-01 -7.771827280521392822e-02
6.712830625474452972e-03 7.541424781084060669e-02 -1.834280043840408325e-01 -8.117313683032989502e-02 6.030145287513732910e-02 -4.531642422080039978e-02 7.509171031415462494e-03 -1.040147840976715088e-01 -1.040604561567306519e-01 2.206090837717056274e-02 -1.210735067725181580e-01 1.513937860727310181e-02 -1.075319126248359680e-01 -1.041259095072746277e-01 2.407918311655521393e-02 -4.694487154483795166e-02 9.589505195617675781e-02 5.533743277192115784e-02 2.370520830154418945e-01 -4.359363391995429993e-02 -1.218700408935546875e-01 1.501638889312744141e-01 5.537955462932586670e-02 -6.041451822966337204e-03 7.841689884662628174e-02 6.876891851425170898e-02 -2.892983332276344299e-02 -5.398679897189140320e-02 -1.120328456163406372e-01 -6.719727814197540283e-02 7.925494574010372162e-03 2.765401452779769897e-02 -5.921286344528198242e-02 8.549571037292480469e-02 -1.019392982125282288e-01 -4.603529721498489380e-02 -1.167067140340805054e-01 -8.574340492486953735e-02 1.450620442628860474e-01 -9.656451642513275146e-02 4.595425724983215332e-02 -1.939905434846878052e-02 2.761348895728588104e-02 -2.217683382332324982e-02 1.182866469025611877e-01 -3.466618061065673828e-02 1.097475588321685791e-01 1.526436582207679749e-02 -3.652373328804969788e-02 5.673938989639282227e-02 -8.646430820226669312e-02 -6.957408040761947632e-02 5.745496973395347595e-02 7.065506279468536377e-02 -2.572753652930259705e-02 -1.325839571654796600e-02 6.865548342466354370e-02 8.283188939094543457e-02 -1.324318200349807739e-01
2.779017575085163116e-02 -3.220170736312866211e-02 1.591108180582523346e-02 1.261843442916870117e-01 -9.228215366601943970e-02 4.693051800131797791e-02 -1.501751244068145752e-01 -4.247784614562988281e-02 -1.172599717974662781e-01 -3.647182881832122803e-02 -1.619432866573333740e-01 -1.080213114619255066e-01 -2.493431121110916138e-01 2.287115156650543213e-01 1.045571267604827881e-02 -1.287003457546234131e-01 -1.690392345190048218e-01 1.111239343881607056e-01 2.181793376803398132e-02 1.441907882690429688e-01 -1.158808395266532898e-01 4.559769481420516968e-02 4.706513602286577225e-03 -3.399389609694480896e-02 9.728384017944335938e-02 4.318181797862052917e-02 1.101506650447845459e-01 -1.087532117962837219e-01 -9.222735464572906494e-02 -5.301196873188018799e-02 -2.801961381919682026e-04 -4.190634936094284058e-03 -1.306310296058654785e-01 -2.658587880432605743e-02 -1.009684205055236816e-01 -4.614540934562683105e-02 1.236149342730641365e-03 1.678010076284408569e-02 9.080884046852588654e-04 3.258415311574935913e-02 -3.439155519008636475e-01 -1.873194128274917603e-01 -5.455736070871353149e-02 3.563959151506423950e-02 -2.079311525449156761e-03 -8.758251368999481201e-02 -4.532784223556518555e-03 1.019909325987100601e-02 -1.488599032163619995e-01 -8.082714676856994629e-02 -1.698939800262451172e-01 8.583904802799224854e-02 -5.267325043678283691e-02 1.122894696891307831e-02 -3.568897396326065063e-02 1.701101809740066528e-01 4.293417558073997498e-02 -7.864557206630706787e-02 -9.674376249313354492e-02
-1.764986217021942139e-01 -5.077413097023963928e-02 -2.689526677131652832e-01 -1.020559445023536682e-01 -8.117364346981048584e-02 -1.979454159736633301e-01 3.891126811504364014e-02 -6.561967730522155762e-02 2.458685263991355896e-02 3.753669559955596924e-02 -6.748419255018234253e-02 7.397963106632232666e-02 1.343165785074234009e-01 1.067622825503349304e-01 6.686774082481861115e-03 -1.966961473226547241e-02 4.502906650304794312e-02 -1.006149724125862122e-01 7.941362261772155762e-02 -2.715672254562377930e-01 7.497908174991607666e-02 2.107770647853612900e-03 1.964645460247993469e-02 -1.370678842067718506e-01 8.101335167884826660e-02 -8.882553875446319580e-02 6.592346471734344959e-04 -7.575157098472118378e-03 3.703173249959945679e-02 6.904999911785125732e-02 2.176318690180778503e-02 8.984323590993881226e-02 -1.082677021622657776e-01 5.434518307447433472e-02 8.117510378360748291e-02 -5.314105004072189331e-02 -2.868551015853881836e-02 2.485901303589344025e-02 -1.375519186258316040e-01 -6.045758351683616638e-02 -1.108651398681104183e-03 8.068578690290451050e-02 2.997563220560550690e-02 9.325379878282546997e-02 6.831607967615127563e-02 2.854081057012081146e-02 2.016103640198707581e-02 1.503858566284179688e-01 -1.328339129686355591e-01 1.208157744258642197e-02 -6.737015396356582642e-02 -1.227066069841384888e-01 2.283566817641258240e-02 -5.240093916654586792e-02 -1.462507247924804688e-01 -1.097018718719482422e-01 -2.905710414052009583e-02 1.254839450120925903e-01 -1.098814755678176880e-01
-6.362573802471160889e-02 3.360840305685997009e-02 9.482135996222496033e-03 -3.033422678709030151e-02 -4.714557528495788574e-02 4.798188339918851852e-03 1.536329388618469238e-01 1.210906952619552612e-01 7.957068271934986115e-03 4.535845294594764709e-02 -6.583142280578613281e-02 -2.705241553485393524e-02 -6.169014796614646912e-02 8.881029486656188965e-02 -1.300580799579620361e-01 1.518414020538330078e-01 1.903650164604187012e-01 -8.196229115128517151e-03 1.117722168564796448e-01 1.085728686302900314e-02 -2.041540853679180145e-02 -1.076529771089553833e-01 -1.668933779001235962e-02 -5.639723036438226700e-03 -1.768086999654769897e-01 -2.181604802608489990e-01 9.394811838865280151e-02 4.228309541940689087e-02 -1.394743658602237701e-02 2.868583612143993378e-02 3.093570098280906677e-02 -2.058050334453582764e-01 -2.729533426463603973e-02 -1.346028149127960205e-01 -9.843137115240097046e-02 1.912126434035599232e-03 -1.083626076579093933e-01 6.796786934137344360e-02 -9.135362505912780762e-02 -8.697667159140110016e-03 -4.160046577453613281e-02 2.597722224891185760e-02 -8.163480088114738464e-03 -1.439694613218307495e-01 4.357200115919113159e-02 5.540598556399345398e-02 -9.518727660179138184e-02 -5.699623376131057739e-02 6.194933783262968063e-03 -7.282643765211105347e-02 -1.094126850366592407e-01 2.385981380939483643e-02 5.537160113453865051e-02 -1.968745738267898560e-01 -5.974558368325233459e-02 -1.004650145769119263e-01 -9.230004251003265381e-02 3.304776549339294434e-02 -5.135977175086736679e-03
6.682282686233520508e-02 1.074139848351478577e-01 2.703373134136199951e-01 1.529670059680938721e-01 1.956932693719863892e-01 -2.423050999641418457e-02 4.918861202895641327e-03 1.088643539696931839e-02 1.229162365198135376e-01 -4.409069195389747620e-02 -9.041679650545120239e-02 -5.897684767842292786e-02 -3.204866871237754822e-02 -8.090935647487640381e-02 8.208828419446945190e-02 -3.828790783882141113e-02 -7.508556544780731201e-02 -3.272102028131484985e-02 -1.209471300244331360e-01 -2.305559627711772919e-02 -1.300372481346130371e-01 -3.679876774549484253e-02 6.508725136518478394e-02 6.486539263278245926e-03 -7.407503575086593628e-02 2.745198085904121399e-02 2.825321070849895477e-02 8.199040591716766357e-02 1.290685534477233887e-01 -2.165775746107101440e-01 -4.393008351325988770e-02 2.002680301666259766e-01 -1.024195104837417603e-01 -1.020940579473972321e-02 1.635522097349166870e-01 -7.510785013437271118e-02 -9.472274221479892731e-03 7.605140656232833862e-02 -8.287767320871353149e-02 -1.054179817438125610e-01 1.761244423687458038e-02 -1.076935604214668274e-02 8.441393822431564331e-02 -1.451603602617979050e-02 -9.453039616346359253e-02 2.505486086010932922e-02 -6.216549873352050781e-02 -9.400142729282379150e-02 -7.431846857070922852e-02 1.462955772876739502e-01 -1.159089729189872742e-01 -6.892687827348709106e-02 -9.851934015750885010e-02 -1.734809726476669312e-01 7.888080179691314697e-02 8.194953948259353638e-02 -1.201170533895492554e-01 -1.430679410696029663e-01 -3.808719664812088013e-02
-1.004187837243080139e-01 -9.679242223501205444e-02 2.020038897171616554e-03 -1.187305822968482971e-01 8.210562914609909058e-02 -4.931646585464477539e-02 -8.942352607846260071e-03 9.191961586475372314e-02 6.142379343509674072e-02 -3.580168634653091431e-02 -1.005479693412780762e-01 3.525962308049201965e-02 7.827184349298477173e-02 -2.172098755836486816e-01 -1.495368778705596924e-01 7.396399229764938354e-02 -3.948481380939483643e-02 -8.990135043859481812e-03 -5.091660097241401672e-02 8.707135170698165894e-02 -3.615884110331535339e-02 1.211730018258094788e-01 1.972420662641525269e-01 6.679531186819076538e-02 1.673751920461654663e-01 -4.732162505388259888e-02 3.013303736224770546e-03 1.172662973403930664e-01 -6.030946969985961914e-02 -1.076261401176452637e-01 -2.475188193784561008e-05 -2.130272984504699707e-02 -9.527844935655593872e-02 8.309360593557357788e-02 7.504718750715255737e-02 -2.749763056635856628e-02 1.199152469635009766e-01 1.774716675281524658e-01 1.158299893140792847e-01 -1.450210902839899063e-02 1.609512791037559509e-02 6.395305506885051727e-03 1.609991043806076050e-01 -5.760474875569343567e-02 -1.123885661363601685e-01 6.760145723819732666e-02 -1.149675995111465454e-02 2.767271734774112701e-02 2.485998533666133881e-02 9.718468040227890015e-02 -7.714512944221496582e-02 -9.045440703630447388e-02 -2.625179849565029144e-02 6.449015438556671143e-02 7.847143709659576416e-02 2.823297120630741119e-02 5.709875747561454773e-02 1.123591139912605286e-01 -3.408041968941688538e-02
-1.419454906135797501e-02 6.314775347709655762e-02 -2.145170569419860840e-01 -3.983785584568977356e-02 2.797819674015045166e-01 -7.488308101892471313e-02 -1.699531376361846924e-01 -7.866235822439193726e-02 -1.959633454680442810e-02 -9.467285126447677612e-03 -1.141220331192016602e-01 -7.399337738752365112e-02 -4.075345769524574280e-02 2.543455958366394043e-01 -1.974060386419296265e-02 -9.843838959932327271e-02 -6.101338565349578857e-02 -7.755374908447265625e-02 -3.311707824468612671e-02 -7.753636687994003296e-02 1.091177463531494141e-01 -1.776156574487686157e-02 -2.108777686953544617e-02 1.672161370515823364e-01 -1.214365139603614807e-01 9.003476053476333618e-02 1.197538524866104126e-01 1.979493536055088043e-02 3.152935579419136047e-02 -8.109088521450757980e-04 -1.173559948801994324e-01 -4.309917241334915161e-02 -2.478446252644062042e-02 3.798634558916091919e-02 9.063982218503952026e-02 1.463263928890228271e-01 -8.360680192708969116e-02 1.265830732882022858e-02 3.323583304882049561e-02 -1.241965815424919128e-01 -6.869513541460037231e-02 8.622166514396667480e-02 -1.284655882045626640e-03 2.984040603041648865e-02 1.221395134925842285e-01 1.262587904930114746e-01 8.966378867626190186e-03 -2.121367454528808594e-01 -9.434153884649276733e-02 -1.140388250350952148e-01 9.824928129091858864e-04 -1.590462774038314819e-01 -6.108862906694412231e-02 -4.643248766660690308e-02 1.202839314937591553e-01 7.620741426944732666e-02 -1.085944101214408875e-01 -7.454334944486618042e-02 -1.022315770387649536e-01
-1.623053401708602905e-01 -1.760147660970687866e-01 8.813014253973960876e-03 -1.119782775640487671e-02 -3.142079710960388184e-02 -5.238969251513481140e-02 1.262432783842086792e-01 1.464646402746438980e-02 7.265657931566238403e-02 8.455953747034072876e-02 1.064124256372451782e-01 4.659960046410560608e-02 6.341285258531570435e-02 -6.546296179294586182e-02 -6.476164562627673149e-04 1.647227443754673004e-02 -1.142362598329782486e-02 3.301183506846427917e-02 -6.485358625650405884e-02 1.267132759094238281e-01 9.197095781564712524e-02 3.214572742581367493e-02 -1.118443068116903305e-02 -8.107270300388336182e-02 -4.317813366651535034e-02 -6.555285304784774780e-02 1.875890791416168213e-02 8.474882692098617554e-02 1.660490967333316803e-02 -1.652132570743560791e-01 -1.321702301502227783e-01 9.710560739040374756e-02 2.479072064161300659e-01 6.926806271076202393e-02 9.573283046483993530e-02 -1.975269466638565063e-01 6.042983382940292358e-02 1.201978623867034912e-01 1.275259405374526978e-01 7.790768146514892578e-02 -1.529768258333206177e-01 9.336695075035095215e-02 4.110912978649139404e-02 1.245969682931900024e-01 -6.568878889083862305e-02 -5.605396628379821777e-02 5.923083052039146423e-02 -1.016689185053110123e-02 3.976811468601226807e-02 8.945902436971664429e-02 8.867580443620681763e-02 4.568128287792205811e-02 6.638883799314498901e-02 6.410852074623107910e-03 -6.447601318359375000e-02 1.453086435794830322e-01 -2.936992980539798737e-02 -9.029700607061386108e-02 -5.348154902458190918e-02
1.325971633195877075e-01 -7.207921147346496582e-02 6.010843813419342041e-02 1.396185457706451416e-01 4.641415178775787354e-02 8.586919307708740234e-02 -1.298431158065795898e-01 7.970213145017623901e-02 -1.172809582203626633e-02 -7.411519996821880341e-03 -1.051666736602783203e-01 3.088492155075073242e-02 3.495297208428382874e-02 -2.444923296570777893e-02 5.440731346607208252e-02 -1.260679513216018677e-01 -1.596784032881259918e-02 -1.747437566518783569e-02 1.053491327911615372e-02 1.701631247997283936e-01 1.000828444957733154e-01 -1.826159842312335968e-02 1.183653157204389572e-02 7.324993144720792770e-03 1.035603061318397522e-01 2.170939370989799500e-02 2.993691340088844299e-02 2.157465368509292603e-01 1.207583621144294739e-01 7.913532108068466187e-02 -6.822129338979721069e-02 2.346666008234024048e-01 2.625849843025207520e-01 -9.470040351152420044e-02 2.497476525604724884e-02 5.120369419455528259e-02 8.943999558687210083e-02 4.085652530193328857e-02 1.924979984760284424e-01 -1.028662174940109253e-01 -6.525143515318632126e-03 4.726604744791984558e-02 -1.115180402994155884e-01 1.448782831430435181e-01 -7.372735440731048584e-02 8.336924016475677490e-02 -3.149720281362533569e-02 1.541375964879989624e-01 -2.571274936199188232e-01 -8.614419959485530853e-03 8.123255521059036255e-02 -7.402852177619934082e-02 -1.616885326802730560e-02 -1.448235809803009033e-01 -4.681402817368507385e-02 -7.872117310762405396e-02 -3.462768346071243286e-02 1.265970319509506226e-01 -8.355250209569931030e-02
-8.896173536777496338e-02 3.531203791499137878e-02 1.083974316716194153e-01 6.824827939271926880e-02 -1.397757083177566528e-01 -3.740381076931953430e-02 8.227914571762084961e-02 1.307985186576843262e-01 7.746817171573638916e-02 -5.298092588782310486e-02 1.031555384397506714e-01 -1.950058937072753906e-01 9.199307858943939209e-02 -2.133709192276000977e-02 9.491669014096260071e-03 -1.340884715318679810e-01 -1.245283484458923340e-01 2.169912308454513550e-02 -1.017152238637208939e-02 7.494104653596878052e-02 -1.811569556593894958e-02 3.436914086341857910e-02 9.034925699234008789e-02 -1.549447178840637207e-01 -6.182095035910606384e-02 5.286628752946853638e-02 4.474300891160964966e-02 5.775838345289230347e-02 -2.182644791901111603e-02 4.194127768278121948e-02 7.104223221540451050e-02 1.382908076047897339e-01 5.762507393956184387e-02 1.744481772184371948e-01 -6.872542947530746460e-02 -4.459626600146293640e-02 1.688196323812007904e-02 5.058773607015609741e-02 9.269400686025619507e-02 -5.922564119100570679e-02 -4.373165592551231384e-02 9.601163864135742188e-02 1.029662191867828369e-01 1.390532702207565308e-01 1.598858386278152466e-01 7.385448366403579712e-02 9.753137826919555664e-02 -8.556942641735076904e-02 -8.628599345684051514e-02 -2.106919325888156891e-02 8.093593269586563110e-02 7.905341684818267822e-02 -6.556134670972824097e-02 -8.783251792192459106e-02 -6.308877468109130859e-02 6.002041324973106384e-02 1.808783784508705139e-02 1.416097134351730347e-01 -2.508836798369884491e-03
1.279690265655517578e-01 -1.147282645106315613e-01 -4.129157587885856628e-02 -1.345634758472442627e-01 -2.650616876780986786e-02 -1.452731788158416748e-01 7.299618422985076904e-02 6.278745085000991821e-02 1.039901077747344971e-01 -9.714578092098236084e-02 -2.272623926401138306e-01 1.849835179746150970e-02 -1.002935022115707397e-01 6.834582239389419556e-02 1.389587074518203735e-01 1.022351607680320740e-01 1.358902603387832642e-01 -3.151369467377662659e-02 -1.384602189064025879e-01 1.058875303715467453e-02 8.926603943109512329e-02 -4.248056188225746155e-02 2.738689444959163666e-02 -9.061058610677719116e-02 -9.940092265605926514e-02 -5.339509621262550354e-02 7.434863597154617310e-02 -1.205906420946121216e-01 -7.000435888767242432e-02 8.112422376871109009e-02 3.234014287590980530e-02 5.694675073027610779e-02 -5.747664719820022583e-02 -7.451488077640533447e-02 -3.326817601919174194e-02 -1.486111879348754883e-01 6.428500264883041382e-02 -7.650870084762573242e-02 6.967435032129287720e-02 1.815260946750640869e-01 -2.165224701166152954e-01 2.427548915147781372e-02 2.556485868990421295e-02 -2.571122720837593079e-03 7.430101186037063599e-02 -3.410356864333152771e-02 4.326682910323143005e-02 9.887856245040893555e-02 -1.185264438390731812e-01 7.803993672132492065e-02 7.318135816603899002e-03 -5.472566559910774231e-02 -6.881223618984222412e-02 3.876237571239471436e-02 3.786979615688323975e-02 -1.433633267879486084e-01 5.003674700856208801e-02 -8.608397096395492554e-02 -1.811020970344543457e-01
6.140436977148056030e-02 -6.086347252130508423e-02 -1.343253403902053833e-01 -6.653145700693130493e-02 1.383368670940399170e-01 1.637930870056152344e-01 3.117159381508827209e-02 -2.917444705963134766e-02 -1.186667159199714661e-01 -9.017466008663177490e-02 3.478669002652168274e-02 7.465433329343795776e-02 -2.772437222301959991e-02 2.314008325338363647e-01 2.235881797969341278e-02 2.208350040018558502e-02 -1.353339105844497681e-02 9.734968096017837524e-02 -3.410572558641433716e-02 4.844516143202781677e-02 1.114478483796119690e-01 -4.968039318919181824e-02 1.011541634798049927e-01 1.904717981815338135e-01 -7.305418699979782104e-02 7.086859643459320068e-02 -1.493206527084112167e-02 1.476317048072814941e-01 -1.676713824272155762e-01 -4.317208379507064819e-02 -9.950216114521026611e-02 -1.006673797965049744e-01 -5.094712600111961365e-02 1.246272921562194824e-01 -7.807423174381256104e-02 -9.642625600099563599e-02 -4.350716248154640198e-02 -2.428207360208034515e-02 -4.967243224382400513e-02 1.300046890974044800e-01 8.416802436113357544e-02 6.881665904074907303e-03 7.473251968622207642e-02 5.796436592936515808e-02 -1.165762823075056076e-02 1.198672782629728317e-02 3.498983010649681091e-02 5.396892130374908447e-02 -5.800858512520790100e-02 -1.632821857929229736e-01 -1.013599187135696411e-01 -1.649272292852401733e-01 7.027842104434967041e-02 1.536935288459062576e-02 -4.729536175727844238e-02 -2.388902194797992706e-02 -3.905529156327247620e-03 -6.967251747846603394e-02 -1.396773010492324829e-02
-2.541790716350078583e-02 -8.691119402647018433e-02 -8.568255603313446045e-02 -2.126589231193065643e-02 -1.159975677728652954e-01 -1.319233775138854980e-01 -7.867328822612762451e-02 2.228849940001964569e-02 -1.097843647003173828e-01 3.216120973229408264e-02 -7.124481350183486938e-02 -1.066471412777900696e-01 6.727599352598190308e-02 -7.397864758968353271e-02 -9.948868304491043091e-02 -4.247664008289575577e-03 -8.423322439193725586e-02 6.282752752304077148e-02 -2.886217832565307617e-02 7.268454134464263916e-02 8.430371992290019989e-03 8.695217967033386230e-02 1.315716505050659180e-01 -2.739969408139586449e-03 -1.243257336318492889e-02 -1.750606298446655273e-02 -4.130670055747032166e-02 2.160566449165344238e-01 8.049630373716354370e-02 -7.057114690542221069e-02 -6.523462384939193726e-02 -1.032202690839767456e-01 -1.277916282415390015e-01 -6.704905629158020020e-02 -2.857159450650215149e-02 -1.185794621706008911e-01 -5.533051490783691406e-02 2.055062502622604370e-01 -7.157108932733535767e-02 -4.237296804785728455e-02 8.795668929815292358e-02 4.880585893988609314e-02 5.760030820965766907e-03 3.011832013726234436e-02 1.008940041065216064e-01 -3.336489573121070862e-02 -5.552651733160018921e-02 4.439128562808036804e-02 1.254364103078842163e-01 -4.130481183528900146e-02 -1.476947814226150513e-01 -4.649394750595092773e-02 7.374764233827590942e-02 -1.158295758068561554e-02 -5.750210583209991455e-02 -4.668081179261207581e-02 -8.393620699644088745e-02 -3.221976011991500854e-02 4.637153446674346924e-02
6.898615509271621704e-02 -1.134600937366485596e-01 -8.111248910427093506e-02 -1.181332841515541077e-01 -5.536716897040605545e-03 -1.445641815662384033e-01 -8.130718022584915161e-02 1.291406899690628052e-02 4.192535951733589172e-02 4.188635572791099548e-02 2.858617901802062988e-01 -1.440136730670928955e-01 2.039714716374874115e-02 -8.194289356470108032e-02 9.461433440446853638e-02 3.976439475081861019e-04 1.082842797040939331e-02 6.503439042717218399e-03 -1.125108972191810608e-01 5.752805992960929871e-02 -8.471503108739852905e-02 7.388483732938766479e-03 7.961399108171463013e-02 5.963635072112083435e-02 -9.659936279058456421e-02 8.176377415657043457e-02 -3.443304821848869324e-02 -1.013018190860748291e-02 6.180202588438987732e-02 -1.192103251814842224e-01 -1.664833426475524902e-01 6.375722587108612061e-02 -1.520534604787826538e-01 -5.158140789717435837e-03 -5.813767388463020325e-02 -3.175901621580123901e-02 7.901858538389205933e-02 4.454208910465240479e-02 7.642816752195358276e-02 3.401697054505348206e-02 -6.911204755306243896e-02 -1.268797516822814941e-01 -1.381926685571670532e-01 -1.252841204404830933e-02 1.152741909027099609e-02 7.397070527076721191e-02 1.243621781468391418e-01 9.518567472696304321e-03 2.399344742298126221e-02 -1.962703280150890350e-02 1.292015314102172852e-01 2.930235303938388824e-02 4.307859018445014954e-02 6.992600113153457642e-02 6.096234545111656189e-02 3.534401208162307739e-02 7.366567105054855347e-02 -3.288419917225837708e-02 -2.842633239924907684e-02
2.772031165659427643e-02 3.037389740347862244e-02 6.133429706096649170e-02 -8.264622651040554047e-03 6.375773996114730835e-02 9.085436910390853882e-02 8.000317215919494629e-02 1.164836734533309937e-01 5.358456820249557495e-02 8.912758203223347664e-04 2.010186761617660522e-02 -2.706497209146618843e-03 6.369478255510330200e-02 2.396368235349655151e-02 -8.438970893621444702e-02 5.858242511749267578e-02 1.702727284282445908e-03 9.432073682546615601e-02 3.677199129015207291e-03 -7.589625567197799683e-02 5.252740159630775452e-02 -5.493488162755966187e-02 -1.058644503355026245e-01 -4.481637384742498398e-03 -1.318865418434143066e-01 -4.617064818739891052e-02 1.752239279448986053e-02 -3.080637753009796143e-01 1.293299049139022827e-01 -1.089671743102371693e-03 -2.734380401670932770e-02 -1.842248886823654175e-01 -3.480507060885429382e-02 -7.261908799409866333e-02 9.128745645284652710e-02 1.381776332855224609e-01 -2.091571129858493805e-02 3.579491749405860901e-02 1.319246888160705566e-01 -6.886244565248489380e-02 2.628928748890757561e-03 -3.705095872282981873e-02 -4.887588322162628174e-02 -9.595900774002075195e-02 7.479572296142578125e-02 3.736301884055137634e-02 8.497429639101028442e-02 -6.409561634063720703e-02 2.881328389048576355e-02 1.900538355112075806e-01 2.765196142718195915e-03 -5.241991207003593445e-02 -1.776812039315700531e-02 -9.724059491418302059e-04 6.573719531297683716e-02 -5.729634687304496765e-02 1.949365437030792236e-01 -2.404751256108283997e-02 7.984287291765213013e-02
8.197892457246780396e-02 3.358773142099380493e-02 -2.599641494452953339e-02 4.365871846675872803e-02 -9.105455875396728516e-02 -4.420474544167518616e-02 -2.542352117598056793e-02 7.839068770408630371e-02 -2.375874295830726624e-02 -1.463952809572219849e-01 2.377757988870143890e-02 -1.738253049552440643e-02 6.258645653724670410e-02 5.982022732496261597e-02 4.332590475678443909e-02 -5.527899041771888733e-02 -1.216241568326950073e-01 -2.021902613341808319e-02 7.660869508981704712e-02 -2.589747682213783264e-02 -1.042410507798194885e-01 4.203286021947860718e-02 -5.994436144828796387e-02 -3.354411199688911438e-02 -9.429259598255157471e-02 4.003041423857212067e-03 8.782466500997543335e-02 2.695011906325817108e-02 -2.955119125545024872e-02 1.924597099423408508e-02 6.671126186847686768e-02 -1.098261922597885132e-01 1.625478267669677734e-01 7.839053869247436523e-03 2.637843787670135498e-01 8.149769902229309082e-02 -1.046174392104148865e-02 2.253640815615653992e-02 1.144424229860305786e-01 -3.229221096262335777e-03 4.235177114605903625e-02 -5.152118206024169922e-02 -1.030588373541831970e-01 1.589664667844772339e-01 6.102858856320381165e-02 -2.742410078644752502e-02 -3.113204147666692734e-03 1.610804200172424316e-01 -5.051012709736824036e-02 -9.795129299163818359e-02 9.577013552188873291e-03 -1.919688098132610321e-02 -1.240094080567359924e-01 1.416509747505187988e-01 1.722395047545433044e-02 1.596848294138908386e-02 -6.880523264408111572e-02 4.727515205740928650e-02 1.468538306653499603e-02
-8.238594233989715576e-02 -7.476645708084106445e-02 -5.800208449363708496e-02 5.623575299978256226e-02 4.549339786171913147e-02 1.006390433758497238e-02 1.086427494883537292e-01 -4.746077582240104675e-02 -1.200322732329368591e-01 -1.195180788636207581e-01 6.559900008141994476e-03 5.413817241787910461e-02 -7.195857912302017212e-02 -1.016293279826641083e-02 -1.763708889484405518e-03 -2.814748510718345642e-02 -1.788693666458129883e-02 -6.468148529529571533e-02 -1.445455402135848999e-01 -1.319746822118759155e-01 1.047575995326042175e-01 -2.115145511925220490e-02 -1.437130272388458252e-01 1.665126383304595947e-01 -9.471895173192024231e-03 -4.079331830143928528e-02 9.935765713453292847e-02 -7.235551625490188599e-02 -7.031857967376708984e-02 -1.226217821240425110e-01 7.316283881664276123e-02 -1.377931982278823853e-01 -1.141518503427505493e-01 -1.813895441591739655e-02 5.723150819540023804e-02 -2.972546592354774475e-02 9.152676165103912354e-02 3.007983323186635971e-03 -2.050197422504425049e-01 6.235855817794799805e-02 -2.117955498397350311e-02 2.117852121591567993e-01 1.191222146153450012e-01 1.998569630086421967e-02 8.027619868516921997e-02 1.481445431709289551e-01 2.119239233434200287e-02 -7.191048562526702881e-02 2.079034410417079926e-02 -1.044936291873455048e-02 -6.870088726282119751e-02 -2.419534325599670410e-02 -1.092314273118972778e-01 -6.566727161407470703e-02 -9.305780753493309021e-03 6.377184391021728516e-02 1.239035874605178833e-01 7.705232501029968262e-02 -1.300680339336395264e-01
4.096407815814018250e-02 1.159576773643493652e-01 -4.776687361299991608e-03 -2.540452405810356140e-02 -1.003461182117462158e-01 5.943116918206214905e-02 -1.219974458217620850e-01 1.381891965866088867e-01 1.124991849064826965e-01 6.047670915722846985e-02 7.701015565544366837e-03 3.568565845489501953e-02 8.491399884223937988e-02 1.509281224571168423e-03 1.118572279810905457e-01 1.683091279119253159e-03 5.595538020133972168e-02 9.660048037767410278e-02 2.361268177628517151e-02 9.542239457368850708e-02 -7.558090984821319580e-02 -3.292243927717208862e-02 2.713209390640258789e-02 9.922459721565246582e-02 7.615458965301513672e-02 -7.764416188001632690e-02 3.433010727167129517e-02 -5.797054991126060486e-02 6.457822024822235107e-02 -4.715759679675102234e-02 -2.269879356026649475e-02 -5.689628422260284424e-02 1.506427526473999023e-01 -4.744351282715797424e-02 2.101916633546352386e-02 -1.786177605390548706e-02 1.524655707180500031e-02 1.610362082719802856e-01 -3.562371060252189636e-02 -8.188261836767196655e-02 -2.773119807243347168e-01 3.556083142757415771e-02 1.992766559123992920e-01 -3.841652360279113054e-04 6.170184910297393799e-02 -6.074035912752151489e-02 3.480895608663558960e-02 -3.307217732071876526e-02 -1.370448991656303406e-02 -8.966290391981601715e-03 -6.300375610589981079e-02 2.203130163252353668e-02 7.632615044713020325e-03 -3.733397275209426880e-02 -1.217000409960746765e-01 6.933253258466720581e-02 8.172667771577835083e-02 -4.552390798926353455e-02 -4.067144170403480530e-02
-5.443540588021278381e-02 6.834384053945541382e-02 7.110036909580230713e-02 -1.829349845647811890e-01 -1.347888559103012085e-01 -1.043810918927192688e-01 1.416907161474227905e-01 -1.595185399055480957e-01 -4.247998073697090149e-02 -4.654320701956748962e-02 -4.819897562265396118e-02 1.880409009754657745e-02 -8.353997021913528442e-02 1.802616864442825317e-01 3.891314193606376648e-02 -4.845618084073066711e-02 7.954785227775573730e-02 2.397689502686262131e-03 -7.367661595344543457e-02 -1.153300255537033081e-01 6.220399588346481323e-02 -4.527017474174499512e-02 2.062803655862808228e-01 -6.861002743244171143e-02 1.364812403917312622e-01 3.297141194343566895e-02 2.171063609421253204e-02 9.358013980090618134e-03 3.536169975996017456e-02 -8.093296736478805542e-02 9.745650924742221832e-03 -1.220274567604064941e-01 -1.995448321104049683e-01 -3.897590935230255127e-02 -1.449783295392990112e-01 -6.588547676801681519e-02 8.976460993289947510e-02 3.441991657018661499e-02 1.253973394632339478e-01 -3.766247257590293884e-02 8.882673829793930054e-02 -9.446387737989425659e-02 6.349039077758789062e-02 1.843405887484550476e-02 -2.021370232105255127e-01 1.492808386683464050e-02 1.023609340190887451e-01 -2.087812274694442749e-01 -7.656362652778625488e-02 3.985925763845443726e-02 -9.073016792535781860e-02 2.990832738578319550e-02 3.536836430430412292e-02 -8.090506494045257568e-02 8.862990140914916992e-02 9.225179255008697510e-02 7.219524681568145752e-02 4.365517199039459229e-02 -6.084850803017616272e-02
6.086895987391471863e-02 -5.998802185058593750e-02 -5.561872944235801697e-02 -3.143985813949257135e-04 -6.952036917209625244e-02 -9.498177468776702881e-02 1.406462304294109344e-02 -2.129741460084915161e-01 2.101294994354248047e-01 6.831973046064376831e-02 3.579472424462437630e-03 -8.822900056838989258e-02 8.769998699426651001e-02 3.667412698268890381e-02 -1.120953559875488281e-01 -6.360746920108795166e-02 -9.118051826953887939e-02 -1.424941122531890869e-01 -9.437675029039382935e-02 -3.890299797058105469e-02 1.837506890296936035e-01 1.031159237027168274e-01 -3.996531292796134949e-02 -5.981174856424331665e-02 3.632629662752151489e-02 -1.149903833866119385e-01 8.315639197826385498e-02 -1.023699343204498291e-01 4.569301009178161621e-02 -4.613095149397850037e-02 -3.613617271184921265e-02 -1.489541679620742798e-01 -1.343678236007690430e-01 -1.918798498809337616e-02 -7.716995477676391602e-02 -6.185038387775421143e-02 -5.641256272792816162e-02 -2.599287219345569611e-02 -2.108424156904220581e-02 3.804735094308853149e-02 6.453425437211990356e-02 3.685829415917396545e-02 2.824022807180881500e-02 9.573489427566528320e-02 6.824433058500289917e-02 -1.030555889010429382e-01 -1.280550956726074219e-01 -2.063519358634948730e-01 1.066713780164718628e-01 -1.142878681421279907e-01 -9.856097400188446045e-02 -2.348827896639704704e-03 -6.818357855081558228e-02 5.087258759886026382e-03 7.799373567104339600e-02 -1.368862669914960861e-02 1.607690900564193726e-01 -2.208872931078076363e-03 1.452777683734893799e-01
7.396159693598747253e-03 -1.193889528512954712e-01 1.700913459062576294e-01 -2.021099627017974854e-01 1.771653741598129272e-01 4.609410837292671204e-02 -4.710719734430313110e-02 -4.697727784514427185e-02 2.010312229394912720e-01 -6.150742992758750916e-02 -6.598524749279022217e-03 -3.392880782485008240e-02 -1.667343527078628540e-01 1.020203381776809692e-01 3.569967672228813171e-02 6.383793056011199951e-02 -8.416905254125595093e-02 -2.486393414437770844e-02 -1.183659359812736511e-01 -6.777057796716690063e-02 1.438233349472284317e-02 -2.653544023633003235e-02 -5.310042947530746460e-02 -1.581564992666244507e-01 -4.243249073624610901e-02 -6.444695591926574707e-02 1.268931329250335693e-01 -4.058955609798431396e-02 -9.039890021085739136e-02 -1.237374320626258850e-01 -4.442491754889488220e-02 1.672919839620590210e-01 -6.945403665304183960e-02 1.222060024738311768e-01 9.837676584720611572e-02 8.472979068756103516e-02 -2.372397109866142273e-02 1.174966394901275635e-01 3.244267404079437256e-02 -8.448509871959686279e-02 -4.804388061165809631e-02 1.062808409333229065e-01 2.106365710496902466e-01 -6.423911452293395996e-02 1.076795607805252075e-01 -1.173027977347373962e-02 4.730044305324554443e-02 2.654395624995231628e-02 -5.603455752134323120e-02 -1.741736680269241333e-01 1.575827449560165405e-01 9.398909658193588257e-02 4.090484976768493652e-02 -1.046783570200204849e-02 1.233801841735839844e-01 -6.679351790808141232e-04 3.648984432220458984e-02 -1.021041348576545715e-01 -2.976989746093750000e-02
-8.733604848384857178e-02 -6.680970638990402222e-02 -1.407243460416793823e-01 -3.463614732027053833e-02 -2.189619988203048706e-01 1.859102025628089905e-02 2.924488112330436707e-02 1.009051799774169922e-01 3.747371956706047058e-02 1.329545378684997559e-01 -7.049126923084259033e-02 -1.807466745376586914e-01 1.493569016456604004e-01 4.657641798257827759e-02 -2.437697201967239380e-01 2.965803630650043488e-02 -6.060684099793434143e-02 -7.686192542314529419e-02 6.659419741481542587e-03 -1.191099435091018677e-01 4.779630899429321289e-02 9.446654468774795532e-02 -2.366558834910392761e-02 -5.709247663617134094e-02 -1.316098570823669434e-01 -1.075782999396324158e-01 -5.092643201351165771e-02 -1.149346455931663513e-01 -9.232910722494125366e-02 9.175273030996322632e-02 -3.311232477426528931e-02 8.875056356191635132e-02 -6.396416574716567993e-02 -7.000531256198883057e-02 9.443257935345172882e-03 -5.249459296464920044e-02 2.193927168846130371e-01 1.480540335178375244e-01 -2.509620226919651031e-02 -9.704887866973876953e-02 -8.059656620025634766e-02 3.810192644596099854e-02 1.243717521429061890e-01 -2.848391048610210419e-02 5.724855884909629822e-02 8.656364679336547852e-02 1.107486039400100708e-01 -2.013679444789886475e-01 4.537772014737129211e-02 -7.663214951753616333e-02 1.079749166965484619e-01 1.207075789570808411e-01 -7.240773737430572510e-02 4.185857251286506653e-02 -2.989276684820652008e-02 1.805472187697887421e-02 -4.478433728218078613e-02 2.713858149945735931e-02 1.065627112984657288e-02
3.137061744928359985e-02 1.159060969948768616e-01 9.419503062963485718e-02 -2.016096003353595734e-02 -3.582685440778732300e-02 -1.186417788267135620e-02 7.412882894277572632e-02 3.663404844701290131e-03 -2.039763331413269043e-01 8.420377969741821289e-02 4.222041741013526917e-02 -1.490075439214706421e-01 -9.464310109615325928e-02 7.867925614118576050e-02 -1.524134725332260132e-01 -1.771455979906022549e-03 6.940879672765731812e-02 6.664899736642837524e-02 1.188558936119079590e-01 4.580072313547134399e-02 -3.501831740140914917e-02 -3.278541937470436096e-02 1.129702255129814148e-01 4.212766140699386597e-02 -1.509523987770080566e-01 -1.012245863676071167e-01 -5.356208607554435730e-02 -2.058724313974380493e-02 -4.225609079003334045e-02 -1.309306919574737549e-01 1.136964857578277588e-01 1.509269117377698421e-03 4.885527119040489197e-02 -9.781906008720397949e-02 8.881016634404659271e-03 1.616824567317962646e-01 2.929205633699893951e-02 -4.473167657852172852e-02 2.818533452227711678e-03 -1.433697491884231567e-01 4.891665279865264893e-02 -1.217066193930804729e-03 -1.670310199260711670e-01 9.580108523368835449e-02 -6.506616622209548950e-02 7.330262660980224609e-02 6.869112700223922729e-02 4.154793918132781982e-02 6.012280937284231186e-03 -1.450316160917282104e-01 8.878800272941589355e-02 2.542809583246707916e-02 -2.196530625224113464e-02 7.911625504493713379e-02 -2.854494750499725342e-02 -4.085724428296089172e-02 1.411659717559814453e-01 1.624989956617355347e-01 -6.068314984440803528e-02
1.474290788173675537e-01 5.943137034773826599e-02 -1.547097861766815186e-01 -6.396538577973842621e-03 -3.145654499530792236e-02 -4.451249726116657257e-03 1.019455865025520325e-01 1.493880804628133774e-02 4.699453711509704590e-03 5.630522221326828003e-02 6.445023417472839355e-02 -1.753230206668376923e-02 1.104936003684997559e-02 -1.659736782312393188e-02 1.947757601737976074e-01 -9.115777909755706787e-02 -1.083306875079870224e-02 -1.538309603929519653e-01 2.992795221507549286e-02 -5.882754921913146973e-02 1.402820348739624023e-01 -1.779950857162475586e-01 -7.375997304916381836e-02 1.085548549890518188e-01 -1.432243641465902328e-02 -1.617648601531982422e-01 6.698866933584213257e-02 -8.786003291606903076e-02 3.380975127220153809e-02 -1.626334153115749359e-02 -3.980350121855735779e-02 -1.750279217958450317e-02 -1.595944911241531372e-02 1.404630392789840698e-01 -5.079835280776023865e-02 -1.017493307590484619e-01 3.400072921067476273e-03 8.482418954372406006e-02 2.396456897258758545e-02 -3.714346885681152344e-02 1.501899957656860352e-01 7.289290893822908401e-03 9.132327884435653687e-02 -5.763886123895645142e-02 2.691232971847057343e-02 -8.875782787799835205e-02 1.309031099081039429e-01 9.107852727174758911e-02 1.781377941370010376e-02 -9.794054180383682251e-02 -1.687159575521945953e-02 3.778346348553895950e-03 1.983709447085857391e-02 7.851532846689224243e-02 -8.801262080669403076e-02 2.919725328683853149e-02 4.195703938603401184e-02 -8.850449323654174805e-02 3.498120233416557312e-02
7.607642561197280884e-02 -8.240269869565963745e-02 -6.785953789949417114e-02 3.311325982213020325e-02 -1.575448065996170044e-01 -1.312756352126598358e-02 -6.967405229806900024e-02 -3.329161182045936584e-02 -1.322059184312820435e-01 1.237250715494155884e-01 -1.408898234367370605e-01 -1.062332168221473694e-01 -9.940791130065917969e-02 5.997242033481597900e-02 -1.580638624727725983e-02 -1.156129315495491028e-02 -1.363912876695394516e-02 -5.063884332776069641e-02 1.152277830988168716e-02 -7.755937427282333374e-02 -8.039408177137374878e-02 -4.128376021981239319e-03 3.259991528466343880e-03 6.272397935390472412e-02 1.788626611232757568e-02 -6.255163345485925674e-03 1.137537211179733276e-01 1.430092006921768188e-01 2.863361239433288574e-01 8.433413505554199219e-02 1.272293031215667725e-01 -9.519365429878234863e-02 8.127641677856445312e-02 9.188958257436752319e-02 1.069874595850706100e-02 2.178836148232221603e-03 -1.919018179178237915e-01 5.700346082448959351e-02 -1.440477818250656128e-01 -7.949390262365341187e-02 -4.219906404614448547e-02 1.519139707088470459e-01 -1.306004673242568970e-01 4.075539484620094299e-02 -7.757871598005294800e-02 -4.220479726791381836e-02 1.458697021007537842e-01 5.200127884745597839e-02 -2.421721816062927246e-01 1.337225735187530518e-02 1.349712461233139038e-01 -1.236117929220199585e-01 1.775278002023696899e-01 1.426047086715698242e-01 8.025377243757247925e-02 7.404977455735206604e-03 1.152702122926712036e-01 -8.038396015763282776e-03 -2.444319240748882294e-02
-1.677486449480056763e-01 1.609282642602920532e-01 -4.942353814840316772e-02 2.144154720008373260e-02 1.048797294497489929e-01 -2.003798447549343109e-02 -3.291389346122741699e-02 1.213012356311082840e-02 2.732960507273674011e-02 -2.886911854147911072e-02 -8.361680060625076294e-02 5.120220780372619629e-02 -1.929028704762458801e-02 -6.554746627807617188e-02 -6.550492253154516220e-03 3.336183726787567139e-02 1.599560528993606567e-01 -9.280548989772796631e-02 1.615504734218120575e-02 -8.345155417919158936e-02 -1.023645475506782532e-01 1.421608030796051025e-01 -2.000116743147373199e-02 7.586821168661117554e-02 -1.287857443094253540e-01 2.114732936024665833e-02 1.391568873077630997e-02 6.968340277671813965e-02 -2.493734098970890045e-02 3.634992614388465881e-02 -1.321423500776290894e-01 1.975665427744388580e-02 7.095739245414733887e-02 7.105668634176254272e-02 -9.247169643640518188e-02 4.924213141202926636e-02 -2.664170227944850922e-02 -1.354750245809555054e-01 -6.829317193478345871e-03 3.667339216917753220e-03 6.817672401666641235e-02 -1.201291158795356750e-01 4.638973623514175415e-02 1.257213652133941650e-01 -6.753668189048767090e-02 6.417335569858551025e-02 -5.501030012965202332e-02 -2.228795140981674194e-01 4.540570080280303955e-02 -6.619377434253692627e-02 -1.151143386960029602e-01 1.133222877979278564e-01 -7.512296736240386963e-02 -8.478947728872299194e-02 -5.622604861855506897e-02 -1.434508115053176880e-01 8.909676223993301392e-02 1.186356097459793091e-01 7.496775686740875244e-02
-4.502999037504196167e-02 -1.730061136186122894e-02 -6.326714158058166504e-02 -1.862232387065887451e-01 -8.291559666395187378e-02 -7.988244295120239258e-02 -9.249070286750793457e-02 8.023577928543090820e-02 -1.192398220300674438e-01 4.830823838710784912e-02 7.750172913074493408e-02 7.864777743816375732e-02 9.979578666388988495e-03 2.750530242919921875e-01 8.086699992418289185e-02 -1.493684202432632446e-01 -7.336724549531936646e-02 -6.155939027667045593e-02 1.738095134496688843e-01 7.127135992050170898e-02 6.144906580448150635e-02 7.212127000093460083e-02 3.644267097115516663e-02 3.115141578018665314e-02 -8.934031426906585693e-02 -1.022399365901947021e-01 1.526720076799392700e-01 -1.917807459831237793e-01 3.882910683751106262e-02 -9.913078509271144867e-03 -2.738167531788349152e-02 -2.392773143947124481e-02 -1.375972777605056763e-01 1.299014240503311157e-01 -9.082913398742675781e-02 1.297934167087078094e-02 7.318557798862457275e-02 -2.082945033907890320e-02 1.436450928449630737e-01 6.318249553442001343e-02 1.270653307437896729e-01 3.614959493279457092e-02 -7.519621402025222778e-02 -1.669825986027717590e-02 4.685616493225097656e-02 -1.427717208862304688e-01 2.595352232456207275e-01 -8.822401612997055054e-02 -2.214684896171092987e-02 3.543262928724288940e-02 3.092032484710216522e-02 7.448527216911315918e-02 -1.499114185571670532e-01 -1.497876644134521484e-01 1.488244719803333282e-02 6.783325225114822388e-02 5.855931341648101807e-02 1.162481606006622314e-01 -1.053547561168670654e-01
-8.260838687419891357e-02 8.607167750597000122e-02 2.498463243246078491e-01 -7.100844383239746094e-02 -2.340236678719520569e-02 2.372982725501060486e-02 -1.606630980968475342e-01 -8.652845025062561035e-02 -1.336124837398529053e-01 -2.860792726278305054e-02 -5.010423250496387482e-03 -1.561006307601928711e-01 3.977751359343528748e-03 1.046754717826843262e-01 1.164368987083435059e-01 -7.999002933502197266e-02 -8.600702136754989624e-02 -9.210675209760665894e-02 -4.973606765270233154e-02 -5.038740485906600952e-02 -7.710551470518112183e-02 -1.900689676403999329e-02 2.118728160858154297e-01 3.274082019925117493e-02 -5.553663894534111023e-02 -5.839907377958297729e-02 -1.344660073518753052e-01 4.408149421215057373e-02 8.353012055158615112e-02 1.091436147689819336e-01 1.634044349193572998e-01 2.326270565390586853e-02 1.199634894728660583e-01 -1.507585793733596802e-01 7.682906836271286011e-02 2.855287678539752960e-02 2.171846479177474976e-01 -6.022063642740249634e-02 -9.537824988365173340e-02 1.424977630376815796e-01 -6.650383584201335907e-03 -9.030953049659729004e-02 1.966200396418571472e-02 -7.207496464252471924e-02 5.972976237535476685e-02 -7.841410487890243530e-02 -2.713917791843414307e-01 -8.974256366491317749e-02 1.225960031151771545e-01 -6.468950957059860229e-02 -4.645662382245063782e-02 7.902841083705425262e-03 -9.766402654349803925e-04 5.752220377326011658e-02 8.081431686878204346e-02 -5.200971290469169617e-02 -6.216816604137420654e-02 2.916941978037357330e-02 -2.949341572821140289e-02
-2.155420742928981781e-02 3.437372669577598572e-02 -5.056837946176528931e-02 -1.848820298910140991e-01 -2.529307901859283447e-01 -9.810221940279006958e-02 1.266607940196990967e-01 1.661378704011440277e-02 -2.493392908945679665e-03 7.990366220474243164e-02 3.269958123564720154e-02 -1.725609898567199707e-01 -1.220018491148948669e-01 7.605954306200146675e-04 -5.053416267037391663e-02 -2.104845792055130005e-01 9.907348081469535828e-03 -7.583652436733245850e-02 5.637050792574882507e-02 5.358960106968879700e-02 9.511300921440124512e-02 -6.391506642103195190e-02 -3.562914580106735229e-02 1.885822787880897522e-02 1.746587306261062622e-01 1.230821385979652405e-01 -8.427726104855537415e-03 2.451808378100395203e-02 -1.613422296941280365e-02 5.300993099808692932e-03 2.452973835170269012e-02 4.754958208650350571e-03 -6.875181198120117188e-02 -1.204818412661552429e-01 -9.825973957777023315e-02 6.737133115530014038e-02 -8.718588203191757202e-02 5.138346180319786072e-02 4.976712167263031006e-02 -5.925323069095611572e-02 1.279737949371337891e-01 -3.761355997994542122e-03 -5.809138342738151550e-02 -1.446436159312725067e-02 -6.868736445903778076e-02 4.315762966871261597e-02 -1.620795279741287231e-01 -2.422300130128860474e-01 2.412755191326141357e-01 2.766422927379608154e-02 -6.055665016174316406e-02 -8.780889911577105522e-04 -2.076561935245990753e-02 -7.728474587202072144e-02 8.862489461898803711e-02 1.724155992269515991e-01 -1.051610633730888367e-01 6.292051076889038086e-02 1.193169411271810532e-02
-2.240997180342674255e-02 1.178472787141799927e-01 -2.647835910320281982e-01 -4.854794219136238098e-02 2.015254460275173187e-02 1.121430248022079468e-01 -1.450321543961763382e-02 6.460716947913169861e-03 -8.998911082744598389e-02 2.685084752738475800e-02 1.537704765796661377e-01 4.971266910433769226e-02 7.947488687932491302e-03 -6.451845914125442505e-02 -5.050746351480484009e-02 -1.885021477937698364e-01 4.850092809647321701e-03 4.962865496054291725e-04 -9.871626971289515495e-04 -5.498191341757774353e-02 -1.685135066509246826e-01 -1.291151493787765503e-01 4.198566451668739319e-02 -2.757234275341033936e-01 1.787465438246726990e-02 -1.149386167526245117e-01 -1.501574297435581684e-03 9.290256351232528687e-02 2.843081764876842499e-02 2.279329895973205566e-01 2.651772089302539825e-02 -1.495881676673889160e-01 -1.708652637898921967e-02 -8.886565454304218292e-03 1.466187834739685059e-01 4.451510310173034668e-02 2.865615300834178925e-03 -8.758832514286041260e-02 -5.624740943312644958e-02 2.034895867109298706e-02 -5.194722861051559448e-02 1.263973023742437363e-02 -3.742813691496849060e-02 -1.213717162609100342e-01 -6.097759678959846497e-02 -2.100410610437393188e-01 -2.995798736810684204e-02 6.712079048156738281e-02 -4.462954029440879822e-02 8.154760301113128662e-02 9.002985060214996338e-02 3.581846365705132484e-03 -4.928466305136680603e-02 2.150134369730949402e-02 -9.376394748687744141e-02 5.265164654701948166e-03 -7.230449467897415161e-02 -5.108491331338882446e-02 7.371160387992858887e-02
1.099489033222198486e-01 6.482562422752380371e-02 2.485028840601444244e-02 6.857748329639434814e-02 -1.434909850358963013e-01 9.051885455846786499e-02 7.875091582536697388e-02 -9.472582489252090454e-02 -6.224143877625465393e-02 1.306646689772605896e-02 -5.354662425816059113e-03 5.225590988993644714e-02 -6.007065996527671814e-02 2.858814550563693047e-03 -2.712891250848770142e-02 -5.780780315399169922e-02 5.667776800692081451e-03 2.946925535798072815e-02 -4.463883861899375916e-02 1.027671918272972107e-01 3.264684975147247314e-02 5.586613342165946960e-02 -8.838419616222381592e-02 -2.393969893455505371e-02 1.464386433362960815e-01 3.951137512922286987e-02 7.035992294549942017e-02 3.473649919033050537e-02 2.557434374466538429e-03 5.695204064249992371e-02 -3.717781603336334229e-02 -4.171165823936462402e-02 -1.429663505405187607e-02 6.310315430164337158e-02 -1.720142513513565063e-01 1.886129230260848999e-01 4.015234857797622681e-02 1.076686307787895203e-01 -7.005069404840469360e-02 -1.112983375787734985e-01 -1.379609256982803345e-01 1.414155066013336182e-01 -2.414081990718841553e-02 -8.011842519044876099e-02 1.829124242067337036e-02 4.300680011510848999e-02 1.776664406061172485e-01 8.471294492483139038e-02 -3.907827194780111313e-03 -3.142655268311500549e-02 -7.475282181985676289e-04 -5.463272333145141602e-02 -8.199729770421981812e-02 -4.681273549795150757e-02 4.203601926565170288e-02 2.726789936423301697e-02 -2.575078234076499939e-02 -5.689362995326519012e-03 -8.034557849168777466e-02
-5.199583992362022400e-02 3.573312982916831970e-02 -3.299902379512786865e-02 3.288611397147178650e-02 -1.650117933750152588e-01 -2.245289646089076996e-02 3.560164198279380798e-02 -2.541723474860191345e-02 -1.925623565912246704e-01 3.107070326805114746e-01 1.165506336838006973e-02 -6.127892807126045227e-02 1.120422109961509705e-01 -1.828864067792892456e-01 -2.053092867136001587e-01 4.706206172704696655e-02 -5.721291527152061462e-02 -7.394270598888397217e-02 -8.054518699645996094e-02 9.575642645359039307e-02 2.003027647733688354e-01 -1.121244207024574280e-01 -1.131629198789596558e-01 -8.250874280929565430e-02 -1.375501602888107300e-01 1.256056278944015503e-01 -1.698542200028896332e-02 1.862879144027829170e-04 8.495396375656127930e-02 -9.998494386672973633e-02 -9.057267010211944580e-02 8.672460168600082397e-02 -6.881785392761230469e-02 -1.115465909242630005e-01 -4.291212558746337891e-02 -7.895844429731369019e-02 -4.851641505956649780e-02 -1.206333115696907043e-01 -2.246393635869026184e-02 4.776273295283317566e-02 1.525155454874038696e-02 -1.222144663333892822e-01 1.221332252025604248e-01 8.238296955823898315e-02 -1.497612595558166504e-01 -5.965164303779602051e-02 -1.991282217204570770e-02 -2.391375303268432617e-01 3.918476868420839310e-03 2.841933444142341614e-02 -3.142860159277915955e-02 -4.027809947729110718e-02 5.195355787873268127e-02 8.734785765409469604e-02 -6.907256692647933960e-02 -1.325613260269165039e-01 1.050929445773363113e-02 -3.768065711483359337e-03 -7.162787020206451416e-02
-2.799353897571563721e-01 -5.744399130344390869e-02 -5.567499622702598572e-02 2.672909200191497803e-02 -1.772517114877700806e-01 -6.929373741149902344e-02 -5.947459861636161804e-02 1.849635541439056396e-01 6.755388528108596802e-02 1.269995719194412231e-01 1.579773277044296265e-01 -3.371537104249000549e-02 6.447415053844451904e-02 -2.804937213659286499e-02 1.574260294437408447e-01 1.554698646068572998e-01 3.568503260612487793e-02 2.246019430458545685e-02 8.068812638521194458e-02 9.415688365697860718e-02 1.073645278811454773e-01 -1.860618777573108673e-02 9.143023937940597534e-02 5.242612212896347046e-02 -1.461964547634124756e-01 -5.347181484103202820e-02 1.257663816213607788e-01 9.943334013223648071e-02 3.853885456919670105e-02 6.983230262994766235e-02 1.308318525552749634e-01 -1.144610792398452759e-01 6.113389134407043457e-02 1.416282802820205688e-01 -8.857762068510055542e-02 -4.943839088082313538e-02 -4.492721334099769592e-02 -8.084712177515029907e-02 -5.846345052123069763e-02 1.944692805409431458e-02 -5.383629351854324341e-02 2.347995042800903320e-01 -5.819905083626508713e-03 -2.391318231821060181e-02 1.222666446119546890e-02 5.930574610829353333e-02 -6.189453601837158203e-02 1.758839190006256104e-01 -8.456652984023094177e-03 -1.188137531280517578e-01 1.663057482801377773e-03 -1.747256666421890259e-01 4.654126241803169250e-02 -6.055997684597969055e-02 -9.338951110839843750e-02 -9.988822974264621735e-03 -1.902450993657112122e-02 1.941072940826416016e-01 -3.590059280395507812e-02
8.265884965658187866e-02 -5.900223180651664734e-02 1.045816689729690552e-01 -2.958164177834987640e-02 -4.463557526469230652e-02 -1.215946227312088013e-01 5.544820451177656651e-04 -1.453230381011962891e-01 -2.041116654872894287e-01 5.214560776948928833e-02 -7.928736507892608643e-02 1.241094991564750671e-01 2.170264869928359985e-01 2.910177409648895264e-02 1.017811894416809082e-02 1.429723352193832397e-01 -6.708019971847534180e-02 -1.406951993703842163e-01 1.123295351862907410e-01 -1.323093026876449585e-01 9.267167747020721436e-02 6.095521524548530579e-02 -1.026153266429901123e-01 -7.697462290525436401e-02 -1.976184360682964325e-02 -9.771737456321716309e-02 -2.680830843746662140e-02 -1.764726080000400543e-02 -3.805145621299743652e-02 8.177187293767929077e-03 -6.352206319570541382e-02 -7.621134072542190552e-02 9.644696861505508423e-02 9.607652574777603149e-02 4.499828815460205078e-02 -4.774025827646255493e-02 -1.377727538347244263e-01 1.784603893756866455e-01 -7.621408440172672272e-03 5.903859063982963562e-02 1.060580015182495117e-01 1.816092990338802338e-02 -5.095825344324111938e-02 4.401880875229835510e-02 -7.858444750308990479e-02 -2.143335342407226562e-01 -5.220974609255790710e-02 -9.888033382594585419e-03 -5.080572515726089478e-02 -5.964213609695434570e-02 1.193581745028495789e-01 -3.236366063356399536e-02 -2.259131968021392822e-01 -1.120364218950271606e-01 -3.172111138701438904e-02 3.026559017598628998e-02 -7.722616195678710938e-02 7.271523773670196533e-02 1.818457543849945068e-01
-1.861949265003204346e-01 -9.541101008653640747e-02 1.064025517553091049e-02 7.860931009054183960e-02 2.236847281455993652e-01 -8.749293535947799683e-02 -2.704371139407157898e-02 7.916034758090972900e-02 -2.818592824041843414e-02 -9.048338979482650757e-03 1.219997033476829529e-01 -6.640820205211639404e-02 1.228265538811683655e-01 -1.505399961024522781e-02 1.501438319683074951e-01 6.381075829267501831e-02 9.744085371494293213e-02 1.584316790103912354e-01 -1.192161999642848969e-02 7.758461683988571167e-02 -2.825550362467765808e-02 -2.511715330183506012e-02 -8.285588026046752930e-02 1.612966209650039673e-01 -6.508120149374008179e-02 -6.429853290319442749e-02 4.120085015892982483e-02 -4.067360237240791321e-02 9.950851649045944214e-02 -4.556517116725444794e-03 -5.620043724775314331e-02 8.883359283208847046e-02 4.922444000840187073e-02 2.704694867134094238e-02 1.357136368751525879e-01 -3.074842318892478943e-02 -1.190779581665992737e-01 7.837577909231185913e-02 9.369158744812011719e-02 -1.677451469004154205e-02 -9.513438493013381958e-02 -7.382725179195404053e-02 -1.924096494913101196e-01 -1.030067875981330872e-01 -1.404218077659606934e-01 -2.339924126863479614e-01 1.030481383204460144e-01 -4.602673649787902832e-02 4.627299681305885315e-02 -1.029367819428443909e-01 1.001288276165723801e-02 3.429984673857688904e-02 6.062148511409759521e-02 1.234663128852844238e-01 2.912866137921810150e-02 7.573985308408737183e-02 -1.122201327234506607e-02 2.161369659006595612e-02 -6.756705790758132935e-02
5.650949105620384216e-02 3.754889965057373047e-02 1.814642250537872314e-01 -1.411147415637969971e-01 -5.049164593219757080e-02 1.760683581233024597e-02 -7.032920606434345245e-03 3.815760836005210876e-02 -2.731481939554214478e-02 -1.241106912493705750e-02 -1.689257770776748657e-01 -3.812986612319946289e-02 -2.027610838413238525e-01 -5.551632493734359741e-02 8.806546777486801147e-02 -1.050076447427272797e-02 -9.056731313467025757e-02 -1.774551719427108765e-01 -1.396988183259963989e-01 -9.142722189426422119e-02 -1.553797572851181030e-01 7.662171032279729843e-03 -1.062789335846900940e-01 -4.421396180987358093e-02 -5.181129276752471924e-02 -4.639359936118125916e-02 7.479323446750640869e-02 4.598996415734291077e-02 -4.489700496196746826e-02 -2.284099161624908447e-02 -1.203840374946594238e-01 1.454092562198638916e-01 -3.052071109414100647e-02 4.816078767180442810e-02 1.319208741188049316e-01 -8.316930383443832397e-02 3.778976947069168091e-02 -3.226854279637336731e-02 5.222160741686820984e-02 6.355910748243331909e-02 1.209076493978500366e-01 4.671837389469146729e-02 -1.519733760505914688e-02 6.496895104646682739e-03 6.608606129884719849e-02 -1.087319627404212952e-01 -1.288146618753671646e-02 -6.271222978830337524e-02 -1.435154527425765991e-01 4.194838926196098328e-02 6.821613013744354248e-02 3.163820505142211914e-02 9.873146563768386841e-02 -1.340153068304061890e-01 -1.648661680519580841e-02 -1.379906833171844482e-01 -1.514347037300467491e-03 9.117549657821655273e-02 -6.126388162374496460e-02
6.496827304363250732e-02 1.544950157403945923e-01 3.397790491580963135e-01 -4.782381281256675720e-02 2.791328914463520050e-02 5.913255736231803894e-02 1.724143028259277344e-01 -1.533864289522171021e-01 9.581665508449077606e-03 9.896924719214439392e-03 8.816914260387420654e-02 -7.805655151605606079e-02 -3.283296525478363037e-02 1.308490633964538574e-01 -6.508514285087585449e-02 5.006797611713409424e-02 4.527209699153900146e-02 -1.069340109825134277e-01 -1.693605035543441772e-01 1.803500764071941376e-02 -2.910710871219635010e-02 8.927030116319656372e-02 2.246470190584659576e-02 4.464480280876159668e-02 -8.452123403549194336e-02 -8.165477961301803589e-02 9.579820185899734497e-02 -1.014783233404159546e-01 3.825134783983230591e-02 -1.297540776431560516e-02 -7.436315715312957764e-02 9.712999314069747925e-02 4.940268769860267639e-02 -1.941035129129886627e-02 5.153024941682815552e-02 1.956361718475818634e-02 6.137967854738235474e-02 6.215049698948860168e-02 -1.726947724819183350e-02 -1.486362218856811523e-01 1.880762167274951935e-02 1.039259955286979675e-01 1.259783506393432617e-01 -1.080091372132301331e-01 1.952815428376197815e-02 9.470703452825546265e-02 9.488649666309356689e-04 7.062106579542160034e-02 1.532014906406402588e-01 6.853027269244194031e-03 1.307257413864135742e-01 -7.415638864040374756e-02 2.066464871168136597e-01 4.442729800939559937e-02 3.802802786231040955e-02 9.224170818924903870e-03 -2.659404650330543518e-02 5.197094380855560303e-02 -5.379504710435867310e-02
3.088093362748622894e-02 1.136023774743080139e-01 -2.923114895820617676e-01 1.800944358110427856e-01 -4.139038175344467163e-02 -3.197536244988441467e-02 -5.489235371351242065e-02 9.952490031719207764e-02 1.310839504003524780e-02 -1.598524004220962524e-01 1.701645702123641968e-01 1.254741568118333817e-02 -7.043206691741943359e-02 -1.707341074943542480e-01 1.194657757878303528e-02 -1.697465404868125916e-02 -1.124604865908622742e-01 3.546959906816482544e-02 6.531169265508651733e-02 5.433399602770805359e-02 1.545781735330820084e-02 8.284665644168853760e-02 1.033572033047676086e-01 1.722300797700881958e-02 -8.227118849754333496e-02 6.128069013357162476e-02 -1.085236668586730957e-01 1.025687158107757568e-02 9.906388074159622192e-02 -2.311739325523376465e-01 1.871514916419982910e-01 -2.781895734369754791e-02 5.847282707691192627e-02 -3.879851475358009338e-02 -1.426520198583602905e-01 1.031847372651100159e-01 -1.418093740940093994e-01 9.274523705244064331e-02 1.505688130855560303e-01 -1.881044730544090271e-02 5.408678948879241943e-02 6.103696674108505249e-02 1.066218316555023193e-02 -5.824540182948112488e-02 1.858786121010780334e-02 -1.615546345710754395e-01 7.339236792176961899e-03 4.586496949195861816e-02 3.923146054148674011e-02 1.282946318387985229e-01 5.060350894927978516e-02 8.806266821920871735e-03 -9.348893165588378906e-02 6.145669892430305481e-02 1.559902075678110123e-02 -4.978034645318984985e-02 6.124418228864669800e-02 -1.125558093190193176e-01 2.221773378551006317e-02
-1.571259647607803345e-02 1.143920794129371643e-01 4.779656976461410522e-02 2.842497546225786209e-03 9.287928789854049683e-02 1.022666394710540771e-01 -6.920876353979110718e-02 5.291767045855522156e-02 1.532663684338331223e-02 -1.042122989892959595e-01 1.294965296983718872e-01 1.244276463985443115e-01 -2.915005087852478027e-01 -1.060146838426589966e-01 -1.071361675858497620e-01 1.252635121345520020e-01 1.588080972433090210e-01 -3.798578307032585144e-02 -3.688852488994598389e-02 -1.654802076518535614e-02 -8.973190188407897949e-02 -6.431495398283004761e-02 2.269046753644943237e-02 7.241772860288619995e-02 -2.425723075866699219e-01 3.497430309653282166e-02 -1.747422106564044952e-02 -8.895379304885864258e-02 -7.926002889871597290e-02 -7.025381177663803101e-02 -1.517657935619354248e-02 6.176616996526718140e-02 -9.143920615315437317e-03 4.609965253621339798e-03 -6.816974282264709473e-02 -5.291225761175155640e-02 -2.575922608375549316e-01 -9.420379996299743652e-02 1.377675682306289673e-01 1.753964573144912720e-01 1.533044688403606415e-02 1.646511852741241455e-01 -5.132617056369781494e-02 4.832366108894348145e-02 -8.668023347854614258e-02 -1.812248839996755123e-03 8.314131945371627808e-02 -2.391159385442733765e-01 7.006946951150894165e-02 7.447171211242675781e-02 8.790120482444763184e-02 -8.590459078550338745e-02 1.206830739974975586e-01 -2.121426351368427277e-02 4.417872801423072815e-02 9.318963438272476196e-02 -4.299564659595489502e-02 -1.013530269265174866e-01 -3.358734771609306335e-02
-1.461034361273050308e-02 5.522485077381134033e-02 5.773784965276718140e-02 6.045177578926086426e-02 6.041887681931257248e-03 -6.155722588300704956e-02 9.649696946144104004e-02 3.364576026797294617e-02 2.148506790399551392e-01 -8.380510658025741577e-02 1.024627164006233215e-01 1.122542750090360641e-02 2.109144628047943115e-01 2.432947903871536255e-01 -2.348790317773818970e-01 -1.302471756935119629e-01 1.374535821378231049e-02 3.469592332839965820e-02 -7.522507756948471069e-02 1.186675056815147400e-01 4.769639670848846436e-02 -4.848270677030086517e-03 -7.561970502138137817e-02 1.153423711657524109e-01 -7.381175458431243896e-02 -7.158396393060684204e-02 4.246247187256813049e-02 1.588233113288879395e-01 -7.494705170392990112e-02 -4.926831275224685669e-02 4.805218428373336792e-02 8.547139912843704224e-02 2.034486383199691772e-01 1.224746368825435638e-02 -6.521768867969512939e-02 6.373594701290130615e-02 3.262764960527420044e-02 -7.255493849515914917e-02 -2.934239991009235382e-02 -1.439999206922948360e-03 1.568621583282947540e-02 1.325402408838272095e-02 5.073788017034530640e-02 -1.275825779885053635e-02 -5.352818593382835388e-02 -5.144326761364936829e-02 1.215273737907409668e-01 -7.979884394444525242e-04 -4.906002804636955261e-02 5.153815820813179016e-02 -8.732769638299942017e-02 -5.879208073019981384e-02 -1.197036914527416229e-02 -1.360859125852584839e-01 5.755114182829856873e-02 -3.319177776575088501e-02 -2.081955596804618835e-02 5.256897583603858948e-02 1.293897032737731934e-01
-4.865815863013267517e-03 9.064611792564392090e-02 8.507195860147476196e-02 -1.878863871097564697e-01 1.560028642416000366e-01 1.411608308553695679e-01 1.560872495174407959e-01 -8.071404695510864258e-02 1.063884422183036804e-01 -1.282215863466262817e-02 -1.279899030923843384e-01 -1.367811262607574463e-01 -2.968137897551059723e-02 -1.335912495851516724e-01 -5.535515397787094116e-02 4.828778654336929321e-02 8.118374645709991455e-02 1.767611354589462280e-01 -7.517959177494049072e-02 -4.281414672732353210e-02 -9.044284373521804810e-02 2.338274940848350525e-02 5.373673886060714722e-02 -4.646059870719909668e-02 -7.934348285198211670e-02 -1.342817246913909912e-01 -1.519566923379898071e-01 -1.181218922138214111e-01 -1.437568515539169312e-01 -4.014246910810470581e-02 9.334777295589447021e-02 -1.255703344941139221e-02 -1.674317009747028351e-02 -4.191212728619575500e-02 1.865020096302032471e-01 -7.642354350537061691e-03 2.381279692053794861e-02 8.633678406476974487e-02 -4.275021702051162720e-02 -1.734848171472549438e-01 4.982652515172958374e-02 -5.929300934076309204e-02 3.760610520839691162e-02 1.892180182039737701e-02 6.115034595131874084e-02 5.452454835176467896e-02 -1.129686273634433746e-02 9.357471019029617310e-02 7.923733443021774292e-02 2.406077645719051361e-02 -6.763806194067001343e-02 3.867312567308545113e-03 -3.708442673087120056e-02 -1.038990318775177002e-01 3.488375619053840637e-02 1.449546962976455688e-01 2.536505227908492088e-03 -5.105234310030937195e-02 -8.287180960178375244e-02
-1.187003254890441895e-01 8.990983664989471436e-02 1.041760202497243881e-02 6.955177523195743561e-03 -2.679802179336547852e-01 -1.349949687719345093e-01 -9.846416860818862915e-02 -4.511943832039833069e-02 3.496881946921348572e-02 1.354186236858367920e-01 -8.545149117708206177e-02 1.106675863265991211e-01 6.474553793668746948e-02 -1.604195497930049896e-02 1.200559139251708984e-01 -9.817183762788772583e-02 -1.232863441109657288e-01 1.874707639217376709e-02 5.356239154934883118e-03 -2.118351869285106659e-02 5.371727515012025833e-03 2.387951463460922241e-01 1.961727887392044067e-01 2.474821731448173523e-02 4.679199680685997009e-02 2.963010035455226898e-02 1.732242852449417114e-01 -1.262970417737960815e-01 -4.820152372121810913e-02 1.274992376565933228e-01 -1.215535961091518402e-02 1.387362331151962280e-01 -9.047985076904296875e-02 4.331065341830253601e-02 4.285977035760879517e-02 -2.215188927948474884e-02 -9.345097839832305908e-02 -4.464717116206884384e-03 -9.166695177555084229e-02 -1.630418300628662109e-01 -1.991072297096252441e-02 -9.118278324604034424e-02 1.037067621946334839e-01 2.514970861375331879e-02 -1.902408748865127563e-01 1.583548039197921753e-01 -6.192617863416671753e-02 -2.537786029279232025e-02 -2.153380075469613075e-03 -6.933832168579101562e-02 5.481440201401710510e-02 -9.918927401304244995e-02 -3.686628118157386780e-02 -2.024991661310195923e-01 6.736893206834793091e-02 -1.859242171049118042e-01 7.365366816520690918e-02 -1.186639964580535889e-01 1.712626814842224121e-01
2.248541451990604401e-02 -1.287476420402526855e-01 9.771411865949630737e-02 -1.081639304757118225e-01 -4.954957962036132812e-02 -1.068794727325439453e-01 -1.076924055814743042e-01 3.015236929059028625e-02 -5.913564935326576233e-03 -1.601889431476593018e-01 -1.881684362888336182e-01 4.650031775236129761e-02 1.508553773164749146e-01 -2.510046120733022690e-03 -5.549209564924240112e-02 1.202832791022956371e-04 -1.812507398426532745e-02 1.259391307830810547e-01 -3.840625286102294922e-02 -7.210619747638702393e-02 6.065768748521804810e-02 1.962907798588275909e-02 2.007207572460174561e-01 1.341193020343780518e-01 -9.390562027692794800e-02 -7.635188102722167969e-02 7.968331128358840942e-02 -7.761108130216598511e-02 -1.032533943653106689e-01 -7.824820280075073242e-02 1.207781583070755005e-01 1.721135377883911133e-01 -1.187488287687301636e-01 -9.161756187677383423e-02 1.288153678178787231e-01 7.379496097564697266e-02 -4.269072785973548889e-03 -1.815363205969333649e-02 7.400971837341785431e-03 6.663683056831359863e-02 2.916294336318969727e-02 -1.204923726618289948e-02 -7.002646476030349731e-02 -1.078115254640579224e-01 -8.096128702163696289e-02 1.140347942709922791e-01 -2.234656065702438354e-01 5.476580187678337097e-02 2.400331385433673859e-02 9.344395250082015991e-02 1.097862347960472107e-01 2.068965137004852295e-01 1.778190433979034424e-01 1.375376898795366287e-02 -2.528999447822570801e-01 -2.833834663033485413e-02 3.155995160341262817e-02 -2.736364305019378662e-02 1.973113790154457092e-02
1.560059487819671631e-01 2.787665463984012604e-02 2.162942290306091309e-01 -7.991159707307815552e-02 -1.722147762775421143e-01 6.112299114465713501e-02 -1.671749055385589600e-01 -5.545897036790847778e-02 2.109765261411666870e-02 8.994239568710327148e-02 -1.774632744491100311e-02 -3.296169638633728027e-02 -6.086526811122894287e-02 -9.899830073118209839e-02 -2.778956294059753418e-02 -8.780828118324279785e-02 1.120664477348327637e-01 -6.063948944211006165e-02 -8.842136710882186890e-02 -2.618428319692611694e-02 3.986419644206762314e-03 9.205933660268783569e-02 5.323022231459617615e-02 2.998298592865467072e-02 -5.075043067336082458e-02 -3.542866185307502747e-02 1.737664453685283661e-02 -2.945933304727077484e-02 3.267550840973854065e-02 3.998209536075592041e-02 3.518868610262870789e-02 -5.247062444686889648e-02 -1.605148464441299438e-01 -6.468430161476135254e-02 4.024442657828330994e-02 1.293511502444744110e-02 2.104995027184486389e-02 -1.714931428432464600e-01 1.024776101112365723e-01 1.174842845648527145e-02 -6.894454360008239746e-02 -1.451437771320343018e-01 1.720607429742813110e-01 5.152841284871101379e-02 -9.167020022869110107e-02 -1.383659988641738892e-01 1.882296986877918243e-02 -2.065693959593772888e-02 -2.424441426992416382e-01 -5.949975550174713135e-02 2.068469077348709106e-01 -3.019930422306060791e-02 -1.077212691307067871e-01 3.469887375831604004e-02 2.360257953405380249e-01 -9.735884517431259155e-02 -1.919149905443191528e-01 1.327274441719055176e-01 -1.806101351976394653e-01
-1.764418631792068481e-01 -2.807151153683662415e-02 -5.501893162727355957e-02 -1.323516219854354858e-01 -1.643849611282348633e-01 1.018192693591117859e-01 -1.118222484365105629e-03 -2.068780660629272461e-01 -1.243825778365135193e-01 6.470015645027160645e-02 1.951632089912891388e-02 4.854661971330642700e-02 -3.920323401689529419e-02 5.444299057126045227e-02 4.344404116272926331e-02 7.951615005731582642e-02 -1.151705533266067505e-02 -4.314346984028816223e-02 -8.554982393980026245e-02 -3.859515488147735596e-02 6.181773543357849121e-02 -1.193592697381973267e-02 -8.193065971136093140e-02 -3.192690014839172363e-02 2.270225882530212402e-01 9.742943197488784790e-02 4.750210046768188477e-02 -5.531914904713630676e-02 -5.842078849673271179e-02 -1.410478502511978149e-01 6.142041087150573730e-02 5.396516527980566025e-03 8.273473381996154785e-02 -5.942629184573888779e-03 6.587196141481399536e-02 -2.041857987642288208e-01 2.701055407524108887e-01 -1.457623392343521118e-01 1.811245642602443695e-02 -2.533665299415588379e-02 7.421734929084777832e-02 1.623908728361129761e-01 -6.322978436946868896e-02 6.779108941555023193e-02 1.151773184537887573e-01 -3.398875519633293152e-02 -1.753139644861221313e-01 4.046436399221420288e-02 -9.954587370157241821e-02 -6.299247592687606812e-02 -2.770540863275527954e-02 -1.612506657838821411e-01 8.708443492650985718e-02 -8.276053518056869507e-02 8.834055811166763306e-02 4.696565866470336914e-02 1.024352759122848511e-01 6.843857467174530029e-02 6.973829865455627441e-02
1.940112747251987457e-02 1.145037189126014709e-01 -9.296367061324417591e-04 5.615538358688354492e-02 8.828962594270706177e-02 -6.880888342857360840e-02 -1.634079776704311371e-02 -1.092888787388801575e-01 1.520345211029052734e-01 2.490517497062683105e-02 -8.317856490612030029e-02 -1.767576634883880615e-01 3.515046834945678711e-02 2.450407948344945908e-03 6.855864077806472778e-02 -9.499558806419372559e-02 -1.466927379369735718e-01 -7.226023823022842407e-03 -1.958760246634483337e-02 6.040998175740242004e-02 -2.351527288556098938e-02 2.677368372678756714e-02 2.803595364093780518e-02 -7.909794896841049194e-02 5.838065221905708313e-02 -8.139384537935256958e-02 1.207457035779953003e-01 -9.659638255834579468e-02 -2.763660810887813568e-02 -1.598079316318035126e-02 -3.021351248025894165e-02 8.106066286563873291e-02 -7.733078207820653915e-03 7.031954079866409302e-02 -1.243088841438293457e-01 1.228995397686958313e-01 -1.057646423578262329e-01 -1.176216974854469299e-01 -5.791904404759407043e-03 1.673795096576213837e-02 3.911162726581096649e-03 2.531998232007026672e-02 -3.592303395271301270e-02 9.484397619962692261e-02 6.562384776771068573e-03 -1.791231483221054077e-01 -6.031888350844383240e-02 5.918100476264953613e-02 1.436307579278945923e-01 -2.160712331533432007e-02 8.709728717803955078e-02 -1.369160562753677368e-01 9.547002613544464111e-02 4.227094352245330811e-03 3.531274152919650078e-03 1.131774261593818665e-01 1.652772165834903717e-02 9.699492156505584717e-02 2.918908931314945221e-02
3.158722817897796631e-02 -1.826671063899993896e-01 2.380103617906570435e-01 -1.212107911705970764e-01 -6.292088329792022705e-02 -7.674338668584823608e-02 6.876359134912490845e-02 -1.802518218755722046e-02 7.858343422412872314e-03 1.457237750291824341e-01 4.836956039071083069e-03 7.075894623994827271e-02 -1.231359764933586121e-01 -7.547613978385925293e-02 6.344360113143920898e-02 -5.958421528339385986e-02 -5.027243122458457947e-02 -1.707592606544494629e-01 -7.955984026193618774e-02 -4.532916843891143799e-02 -1.400652527809143066e-02 -2.109240591526031494e-01 -4.244202375411987305e-02 -6.505299359560012817e-02 -4.746730253100395203e-02 9.872638620436191559e-03 1.244128197431564331e-01 -1.047303006052970886e-01 -5.972298979759216309e-02 -2.444734275341033936e-01 5.518194660544395447e-02 9.274778515100479126e-02 7.290871441364288330e-02 1.135115511715412140e-02 3.479424491524696350e-02 5.886136554181575775e-03 -1.136496439576148987e-01 5.414025485515594482e-02 -9.744561277329921722e-03 -1.591837108135223389e-01 7.049882784485816956e-03 1.390181034803390503e-01 3.488709405064582825e-02 2.298630861332640052e-04 6.962402164936065674e-02 -1.788314618170261383e-02 -7.003437727689743042e-02 7.587122172117233276e-02 1.219175606966018677e-01 7.313640415668487549e-02 -2.055641710758209229e-01 -8.092334493994712830e-03 -7.088254205882549286e-03 6.853186339139938354e-02 -1.021575108170509338e-01 3.803361579775810242e-02 -6.256507337093353271e-02 1.296293288469314575e-01 -1.498646289110183716e-01
-1.393949091434478760e-01 1.815133392810821533e-01 6.832820177078247070e-02 2.719914354383945465e-02 1.737689077854156494e-01 -7.699511200189590454e-02 1.961736828088760376e-01 1.481668651103973389e-02 1.005688831210136414e-01 -8.799026906490325928e-02 3.847943991422653198e-02 7.500291615724563599e-02 1.753664691932499409e-03 9.403692185878753662e-02 3.425596747547388077e-03 -8.799856156110763550e-02 -7.924741506576538086e-02 -6.266143172979354858e-02 9.411638230085372925e-02 2.927528508007526398e-02 1.105956081300973892e-02 9.432954341173171997e-02 6.552696973085403442e-02 -1.607505790889263153e-02 1.690600812435150146e-01 3.658789396286010742e-02 1.486874464899301529e-02 -1.187128648161888123e-01 9.498593211174011230e-02 -1.099496409296989441e-01 -1.368229277431964874e-02 1.023862883448600769e-01 1.110152974724769592e-01 1.742968559265136719e-01 4.963371902704238892e-02 9.222956746816635132e-02 9.522217512130737305e-02 2.709403447806835175e-02 -9.065640717744827271e-02 -1.160174235701560974e-01 -1.100926026701927185e-01 -1.477640867233276367e-01 1.591091603040695190e-01 2.580124698579311371e-02 -3.837797325104475021e-03 -3.066525049507617950e-02 8.738294243812561035e-03 -1.679615117609500885e-02 1.125514730811119080e-01 -2.543332800269126892e-02 4.568932577967643738e-02 -2.591887488961219788e-02 8.272790908813476562e-02 1.353186517953872681e-01 4.365900158882141113e-02 1.111895311623811722e-02 -6.487837433815002441e-02 -1.500115543603897095e-02 1.212752982974052429e-02
-7.929965853691101074e-02 5.231061950325965881e-02 1.801487058401107788e-01 1.177810039371252060e-02 1.364764757454395294e-02 1.479898095130920410e-01 -5.236564669758081436e-03 1.055024266242980957e-01 5.459340172819793224e-04 1.619122773408889771e-01 6.862144917249679565e-02 -6.549642235040664673e-02 1.077511981129646301e-01 2.924630790948867798e-02 1.826560683548450470e-02 3.469884023070335388e-02 1.965676844120025635e-01 -7.514271885156631470e-02 -4.006794467568397522e-02 1.035669967532157898e-01 -1.537526845932006836e-01 -1.035668700933456421e-02 -1.687106909230351448e-03 -1.148286983370780945e-01 1.308831572532653809e-01 -2.783422470092773438e-01 9.559088386595249176e-03 6.458622962236404419e-02 -4.002226889133453369e-02 3.201577067375183105e-02 -5.256208404898643494e-02 7.743966300040483475e-03 -1.001191437244415283e-01 -9.683141484856605530e-03 -5.735470727086067200e-02 1.605634987354278564e-01 -5.005472153425216675e-02 7.729829102754592896e-02 1.223671808838844299e-01 5.018980801105499268e-02 -1.452504992485046387e-01 6.168229877948760986e-02 -5.591987445950508118e-02 -4.744319617748260498e-02 -2.011748438235372305e-04 2.104761600494384766e-01 2.163851819932460785e-02 4.950664192438125610e-02 1.393602490425109863e-01 3.145619481801986694e-02 -7.980453968048095703e-02 -1.772608160972595215e-01 1.186634302139282227e-01 3.870130702853202820e-02 -6.703806668519973755e-02 1.537603442557156086e-03 1.273426227271556854e-02 -2.028823494911193848e-01 -4.147312138229608536e-03
4.007634148001670837e-02 1.113621741533279419e-01 7.216598838567733765e-02 2.169911116361618042e-01 -3.447474911808967590e-02 8.445806801319122314e-02 -1.131333634257316589e-01 3.096550935879349709e-03 -1.068322286009788513e-01 9.774792939424514771e-02 9.472178644500672817e-04 7.204160839319229126e-02 -1.269805133342742920e-01 1.443676203489303589e-01 1.719026477076113224e-04 1.086493507027626038e-01 -8.199366182088851929e-02 3.033042419701814651e-03 7.625707983970642090e-02 9.268574416637420654e-02 9.803744032979011536e-03 -2.716289088129997253e-02 7.650823891162872314e-02 6.325087696313858032e-02 -1.731325089931488037e-01 -8.965761959552764893e-02 1.278371810913085938e-01 -4.536862671375274658e-02 1.269290447235107422e-01 -9.625070728361606598e-03 -3.774402663111686707e-02 4.471185151487588882e-03 4.758691042661666870e-02 -1.776874512434005737e-01 1.287356764078140259e-01 6.126813590526580811e-02 5.396583676338195801e-02 -3.508052090182900429e-03 9.600078314542770386e-02 -1.230759844183921814e-01 -4.010885208845138550e-02 2.832838520407676697e-02 -8.358036726713180542e-02 -2.914516441524028778e-02 9.533141553401947021e-02 3.140636906027793884e-02 6.957449018955230713e-02 4.159535467624664307e-02 2.420714646577835083e-01 1.988830417394638062e-02 -1.209956854581832886e-01 3.168243914842605591e-02 2.242207527160644531e-02 5.587985739111900330e-02 -9.253177791833877563e-02 -1.634254455566406250e-01 -1.456400305032730103e-01 -5.622417107224464417e-02 -7.876888662576675415e-02
1.310618817806243896e-01 -1.025876402854919434e-01 -2.711328864097595215e-01 2.586613297462463379e-01 -7.859687320888042450e-03 -1.018738895654678345e-01 4.093892499804496765e-02 1.659637838602066040e-01 3.359135985374450684e-02 -8.712901175022125244e-02 1.022027432918548584e-01 -3.328577429056167603e-02 1.206860784441232681e-02 2.060232125222682953e-02 1.582612097263336182e-01 1.310848593711853027e-01 3.516039624810218811e-02 -1.225030347704887390e-01 -1.803516000509262085e-01 -6.778291612863540649e-02 -1.263546943664550781e-01 4.924521222710609436e-02 -2.614933252334594727e-02 -3.359112143516540527e-02 -6.983277201652526855e-02 9.180889278650283813e-02 -8.225755393505096436e-02 -5.354236438870429993e-02 -5.241381004452705383e-03 2.046316117048263550e-02 -2.955976128578186035e-02 -1.373107284307479858e-01 4.125753417611122131e-02 2.636480517685413361e-02 -9.271230548620223999e-03 -5.540753155946731567e-02 -6.636888533830642700e-02 -1.290520280599594116e-01 -9.377168864011764526e-02 -8.916725218296051025e-02 1.165472641587257385e-01 3.296268358826637268e-02 8.984384685754776001e-02 4.253929853439331055e-02 -3.707340732216835022e-02 8.499148488044738770e-02 -9.879153221845626831e-02 5.218961834907531738e-02 1.059173792600631714e-01 1.307677030563354492e-01 8.709089457988739014e-02 4.670846462249755859e-02 -1.075084060430526733e-01 5.540397390723228455e-02 -9.586930274963378906e-03 -9.557641297578811646e-02 -7.575245201587677002e-02 -1.320363860577344894e-02 -1.514232009649276733e-01
-1.190684437751770020e-01 9.522303007543087006e-03 1.045914590358734131e-01 -6.598851829767227173e-02 2.311529219150543213e-01 -1.094662770628929138e-01 1.391227543354034424e-01 5.748229846358299255e-02 -1.289062201976776123e-01 -7.066699117422103882e-02 -6.500674784183502197e-02 -1.250742655247449875e-02 8.593487553298473358e-03 1.669148802757263184e-01 1.076166704297065735e-01 -6.092146784067153931e-02 -3.937421366572380066e-02 -5.180410807952284813e-04 -5.084210261702537537e-02 -6.317478138953447342e-03 6.329639256000518799e-02 -7.725410908460617065e-02 -3.651718422770500183e-02 -1.280701160430908203e-01 8.023525029420852661e-02 4.346777871251106262e-02 -1.858476996421813965e-01 -1.080871149897575378e-01 1.157362163066864014e-01 4.650836065411567688e-02 -1.199383437633514404e-01 2.414828166365623474e-02 -1.403238177299499512e-01 -1.766535267233848572e-02 8.912765234708786011e-02 7.188376784324645996e-02 -2.668977156281471252e-02 8.839572221040725708e-02 1.597925089299678802e-02 8.676791191101074219e-02 -9.330949932336807251e-02 -5.614159628748893738e-03 9.919190779328346252e-03 -2.656704559922218323e-02 4.745414480566978455e-02 -7.380431145429611206e-02 1.618271879851818085e-02 -1.280631124973297119e-01 5.781376734375953674e-02 1.262242794036865234e-01 1.720223575830459595e-01 5.645620077848434448e-02 1.282351166009902954e-01 -1.768179088830947876e-01 -5.541333556175231934e-02 -6.628515571355819702e-02 -4.794105514883995056e-02 1.845258474349975586e-01 2.302175015211105347e-02
-8.990321308374404907e-02 7.191491872072219849e-02 -1.797937788069248199e-02 2.556654438376426697e-02 -6.097476929426193237e-02 -5.227297171950340271e-02 1.161457225680351257e-01 -2.296251058578491211e-01 1.304846815764904022e-02 -9.334008395671844482e-02 -1.619953960180282593e-01 2.999701499938964844e-01 5.174839869141578674e-02 -2.061468735337257385e-02 3.155015408992767334e-02 -2.704605646431446075e-02 -1.633878052234649658e-02 1.272580772638320923e-01 2.355096489191055298e-02 9.132657200098037720e-02 -3.050817642360925674e-03 5.733287893235683441e-03 -3.517289413139224052e-03 6.245847791433334351e-03 8.139703422784805298e-02 1.049408763647079468e-01 -9.578513354063034058e-02 9.716778993606567383e-03 -1.173669844865798950e-02 1.355971544981002808e-01 -7.780323922634124756e-02 -2.644846914336085320e-03 4.733228590339422226e-03 5.484817549586296082e-02 -1.011547744274139404e-01 1.410161256790161133e-01 -1.081053614616394043e-01 7.921835780143737793e-02 4.262653365731239319e-02 -1.460478603839874268e-01 3.765420243144035339e-02 -3.521864861249923706e-02 -3.665062785148620605e-02 -5.395811423659324646e-02 -3.817275911569595337e-02 6.063217297196388245e-02 3.313445672392845154e-02 1.123414486646652222e-01 3.520948067307472229e-02 -9.350810945034027100e-02 -5.054382234811782837e-02 -6.860300153493881226e-02 -1.485411375761032104e-01 -1.282460093498229980e-01 2.367687411606311798e-02 9.108595550060272217e-02 3.423817455768585205e-02 1.081119850277900696e-01 -1.115388199687004089e-01
1.964760571718215942e-02 -1.529350131750106812e-01 -1.092154905200004578e-01 -2.471829578280448914e-02 6.745148450136184692e-02 -4.255582764744758606e-02 1.253977715969085693e-01 -1.405427157878875732e-01 4.125747084617614746e-02 -5.730448290705680847e-02 1.076242327690124512e-01 -1.737612634897232056e-01 1.565871387720108032e-02 5.611597746610641479e-02 -7.326808571815490723e-02 4.263627529144287109e-02 8.546594530344009399e-02 1.566414907574653625e-02 -7.016033865511417389e-03 1.436973214149475098e-01 1.406525224447250366e-01 9.308754652738571167e-02 -3.880477696657180786e-02 -1.569261550903320312e-01 1.798145286738872528e-02 -3.244690597057342529e-02 -2.010306715965270996e-02 -2.412455901503562927e-02 -2.460998296737670898e-02 1.989055424928665161e-01 4.506700113415718079e-02 8.381478488445281982e-02 -1.485683917999267578e-01 -1.088855192065238953e-01 -1.306776404380798340e-01 6.541740894317626953e-02 -3.038717433810234070e-02 -1.136899590492248535e-01 1.928048580884933472e-01 -1.136533915996551514e-01 -4.909675568342208862e-02 -2.350040338933467865e-02 -1.292373687028884888e-01 1.854774728417396545e-02 -5.181121453642845154e-02 6.013263016939163208e-02 1.838301122188568115e-02 -7.420409470796585083e-02 2.761836908757686615e-02 4.569111764430999756e-02 3.256443887948989868e-02 -2.824196033179759979e-02 1.074719652533531189e-01 -1.041387170553207397e-01 -9.657608717679977417e-02 -7.259014062583446503e-03 1.156914383172988892e-01 1.575091853737831116e-02 -8.094429969787597656e-03
-4.442496597766876221e-02 -3.034959733486175537e-02 3.244768828153610229e-02 -6.007531657814979553e-02 -9.769202023744583130e-02 2.500426769256591797e-02 -1.131120398640632629e-01 5.542755872011184692e-02 -1.601677536964416504e-01 -1.425844803452491760e-02 -6.837813556194305420e-02 1.743706762790679932e-01 1.180833578109741211e-01 1.219722926616668701e-01 -1.098844110965728760e-01 4.770590364933013916e-02 1.036812365055084229e-01 -3.939047455787658691e-02 -1.271931827068328857e-01 -9.207924455404281616e-02 -6.492971908301115036e-03 -1.503264009952545166e-01 3.494084998965263367e-02 2.614236623048782349e-02 3.606418892741203308e-02 -2.295564115047454834e-01 -1.251567155122756958e-01 -1.368744522333145142e-01 1.267599989660084248e-03 -7.398711051791906357e-03 -1.321757026016712189e-02 1.343343313783407211e-02 2.709901630878448486e-01 6.143923476338386536e-02 -3.213409706950187683e-02 -6.328026205301284790e-02 -4.453139007091522217e-02 -4.193146526813507080e-02 5.471060425043106079e-02 -1.593258529901504517e-01 -8.026616275310516357e-02 -1.057425364851951599e-01 1.388088017702102661e-01 -8.969610929489135742e-02 -3.400528058409690857e-02 7.047560811042785645e-02 5.590455234050750732e-02 4.340335261076688766e-03 2.966379933059215546e-02 2.811721898615360260e-02 -4.470005631446838379e-02 2.284003235399723053e-02 -1.462061703205108643e-01 8.445445448160171509e-02 1.249369233846664429e-01 4.009205102920532227e-02 -6.618938595056533813e-02 -3.455649316310882568e-02 9.724942594766616821e-02
5.756011605262756348e-02 -7.201773114502429962e-03 1.156906113028526306e-01 -1.108390018343925476e-01 -3.091910481452941895e-02 -1.902472786605358124e-02 2.290782332420349121e-02 -5.571552552282810211e-03 1.702964156866073608e-01 9.415400028228759766e-02 -3.548537194728851318e-02 -1.454490423202514648e-01 1.221708208322525024e-01 1.038519889116287231e-01 3.254714980721473694e-02 1.198073942214250565e-02 1.357687544077634811e-02 -3.774903714656829834e-02 5.524440109729766846e-02 -4.914251714944839478e-02 -5.097283795475959778e-02 9.729438275098800659e-02 -4.450312256813049316e-02 4.093819856643676758e-02 1.504227221012115479e-01 -1.033905148506164551e-01 3.599217906594276428e-02 -1.742764003574848175e-02 -2.058952301740646362e-02 9.371572732925415039e-02 5.244196951389312744e-02 -9.445188939571380615e-02 -2.457304596900939941e-01 5.968673527240753174e-02 1.961789131164550781e-01 -1.818113476037979126e-01 -4.678009077906608582e-02 -3.209237381815910339e-02 1.018549874424934387e-01 2.785054966807365417e-02 4.364040866494178772e-02 1.565109342336654663e-01 1.086279843002557755e-02 -4.559258744120597839e-02 -6.727334111928939819e-02 -6.331275403499603271e-02 3.469261154532432556e-02 -1.382067352533340454e-01 4.153080284595489502e-02 1.041080579161643982e-01 1.375402510166168213e-01 -1.631226688623428345e-01 -9.260191768407821655e-02 -3.804708272218704224e-02 -6.541131436824798584e-02 6.856727600097656250e-02 1.871131174266338348e-02 8.470247685909271240e-02 1.657358487136662006e-03
-5.838630720973014832e-03 6.903505325317382812e-02 4.565192386507987976e-02 2.093269526958465576e-01 -2.133769728243350983e-02 -6.094232946634292603e-02 4.097560793161392212e-02 -3.509235382080078125e-02 -6.201600655913352966e-02 -1.592787057161331177e-01 1.015212833881378174e-01 -1.229804940521717072e-03 7.846528205845970660e-06 7.205565273761749268e-02 -2.820559218525886536e-02 -1.395671814680099487e-01 -6.145317107439041138e-02 -1.859457492828369141e-01 -8.736769109964370728e-02 -1.795127242803573608e-01 -9.199061244726181030e-02 3.173868730664253235e-02 1.017533540725708008e-01 1.746151000261306763e-01 -1.980269402265548706e-01 1.148927062749862671e-01 -1.107444465160369873e-01 -1.296873539686203003e-01 1.394892577081918716e-02 -1.200622841715812683e-01 2.378611862659454346e-01 3.802271187305450439e-02 -3.383895615115761757e-03 8.268132060766220093e-02 -5.616110190749168396e-02 -7.506449520587921143e-02 -8.170155435800552368e-02 2.838426828384399414e-02 -3.777641057968139648e-02 3.761692345142364502e-02 -9.884687140583992004e-03 -9.273116476833820343e-03 -1.484999805688858032e-01 -3.770351037383079529e-02 7.565085589885711670e-02 5.836334452033042908e-02 1.998230069875717163e-02 5.836057011038064957e-03 -1.534418612718582153e-01 1.895631663501262665e-02 -1.554825622588396072e-02 -9.953128546476364136e-02 -8.373066782951354980e-03 -8.962422609329223633e-02 -2.437338605523109436e-02 -2.022872865200042725e-02 -5.534850805997848511e-02 -8.247000724077224731e-02 -4.399714618921279907e-02
-9.237229824066162109e-02 1.175003871321678162e-01 5.768020637333393097e-03 1.410199254751205444e-01 -1.339091360569000244e-01 7.375219464302062988e-02 2.802267111837863922e-02 -2.941540442407131195e-02 1.756894402205944061e-02 -1.803541928529739380e-01 -9.738839417695999146e-02 -1.150668133050203323e-02 -4.217621870338916779e-03 -4.262698814272880554e-02 2.560145556926727295e-01 4.364024475216865540e-02 -2.268978655338287354e-01 2.919098436832427979e-01 -7.311821728944778442e-02 -2.044809460639953613e-01 -5.679657310247421265e-02 -1.388235539197921753e-01 -1.614278741180896759e-02 6.911471718922257423e-04 -1.996113546192646027e-02 -6.840867456048727036e-03 1.948362187249585986e-04 -1.442491821944713593e-02 3.390584141016006470e-02 3.998195379972457886e-02 2.365846931934356689e-02 -2.130000889301300049e-01 1.637984514236450195e-01 -3.209979832172393799e-02 2.217035926878452301e-02 -6.209956854581832886e-02 7.344717625528573990e-03 -4.780281160492449999e-04 -1.191132515668869019e-01 -9.374314546585083008e-02 6.440403312444686890e-02 -1.469159275293350220e-01 -1.082217842340469360e-01 2.252489887177944183e-02 9.316293895244598389e-02 2.195267938077449799e-02 9.680382162332534790e-02 1.392373889684677124e-01 -3.438811749219894409e-02 2.287937141954898834e-02 -5.156419426202774048e-02 1.915238797664642334e-01 5.060311034321784973e-02 -4.667263105511665344e-02 -1.342675089836120605e-01 -1.148308906704187393e-02 6.938491947948932648e-03 1.491424739360809326e-01 -1.697134226560592651e-02
-2.418283373117446899e-03 1.311100833117961884e-02 1.703994274139404297e-01 1.470662932842969894e-02 -1.104582175612449646e-01 -9.144228883087635040e-03 -1.691058725118637085e-01 8.784186094999313354e-03 -4.043761640787124634e-02 -1.856427192687988281e-01 -1.110669821500778198e-01 -2.585729397833347321e-02 5.964913871139287949e-03 -1.976707018911838531e-02 -2.121777273714542389e-02 -1.546092778444290161e-01 -4.065517801791429520e-03 -1.908249780535697937e-02 -5.215348303318023682e-02 5.599164962768554688e-02 -2.990631386637687683e-02 -7.661434262990951538e-02 -2.100553512573242188e-01 -7.851465605199337006e-03 7.013916224241256714e-02 3.824494034051895142e-02 9.785273671150207520e-02 3.233750537037849426e-02 3.627967834472656250e-02 -8.732842281460762024e-03 1.375705283135175705e-02 1.469560712575912476e-01 6.403849273920059204e-02 7.438714057207107544e-02 -1.140747293829917908e-01 1.352448910474777222e-01 -1.049098223447799683e-01 -9.073456376791000366e-02 7.651160657405853271e-02 -2.063089013099670410e-01 1.688302261754870415e-03 5.238286405801773071e-02 -7.614462822675704956e-02 1.374994814395904541e-01 1.529319733381271362e-01 -2.230363711714744568e-02 1.519323233515024185e-02 -7.860639132559299469e-03 4.509576037526130676e-02 -8.694541454315185547e-02 -4.441913589835166931e-02 3.273839829489588737e-03 -7.701375335454940796e-02 5.510187521576881409e-02 -4.150040447711944580e-02 1.352682709693908691e-01 6.827724725008010864e-02 -3.987452015280723572e-02 6.995823979377746582e-02
6.490551680326461792e-02 1.811275035142898560e-01 7.817458361387252808e-02 1.721391975879669189e-01 2.780050784349441528e-02 -2.169249765574932098e-02 1.277002096176147461e-01 -1.222635656595230103e-01 -2.656083088368177414e-03 -4.295451939105987549e-02 -9.651717729866504669e-03 3.566079586744308472e-02 -6.242416799068450928e-02 9.794208407402038574e-02 5.181804765015840530e-03 -2.852986156940460205e-01 2.350674569606781006e-01 -1.603463850915431976e-02 -7.207536697387695312e-02 8.928339928388595581e-02 -8.007317781448364258e-02 -9.019451588392257690e-02 -6.434517353773117065e-02 2.117833681404590607e-02 1.860844045877456665e-01 -1.665850728750228882e-02 -1.388124674558639526e-01 7.665030658245086670e-02 -2.459040284156799316e-02 -9.568136930465698242e-02 -9.518779814243316650e-02 1.549966335296630859e-01 -5.751370266079902649e-02 -7.725371513515710831e-03 -6.033398211002349854e-02 -6.018607318401336670e-02 5.233996734023094177e-02 1.378461271524429321e-01 -8.266235142946243286e-02 -6.248081102967262268e-02 9.091267734766006470e-02 1.971512287855148315e-01 3.507336229085922241e-02 3.242385387420654297e-02 -5.896741524338722229e-02 -6.598137319087982178e-02 5.086237564682960510e-02 -7.621890306472778320e-02 -9.388279914855957031e-02 -7.534404098987579346e-02 8.718392252922058105e-02 9.396605193614959717e-03 -2.704977523535490036e-03 4.359298571944236755e-02 -2.735437639057636261e-02 5.694177746772766113e-02 5.630408972501754761e-02 1.976158171892166138e-01 1.030900925397872925e-01
