-8.056332170963287354e-02 3.566403687000274658e-02 6.673368066549301147e-02 -2.430103160440921783e-02 -8.864345401525497437e-02 9.002852439880371094e-02 -9.460391104221343994e-02 1.854320615530014038e-01 -2.767435014247894287e-01 3.304123645648360252e-03 -9.712313860654830933e-02 -7.527270168066024780e-02 3.497632592916488647e-02 -1.331360489130020142e-01 -8.363176137208938599e-03 -7.680146396160125732e-02 1.276427656412124634e-01 1.436757668852806091e-02 1.713458821177482605e-02 9.421343356370925903e-02 2.240840904414653778e-02 -1.298664696514606476e-02 3.248307481408119202e-02 6.911107152700424194e-02 6.291981786489486694e-02 -1.783579736948013306e-01 9.410107880830764771e-02 -3.567972779273986816e-02 1.625643521547317505e-01 4.882959648966789246e-02 -4.717662930488586426e-02 -9.794363752007484436e-03 7.158606499433517456e-02 -3.767880424857139587e-02 5.280501022934913635e-02 8.677664399147033691e-02 2.480790950357913971e-02 5.730519443750381470e-02 5.497834458947181702e-02 8.672944456338882446e-02 8.215916156768798828e-02 -1.702574044466018677e-01 5.275313928723335266e-02 6.556591391563415527e-02 1.486271917819976807e-01 -1.256496012210845947e-01 -1.217236444354057312e-01 -1.677832007408142090e-01 1.510116010904312134e-01 -7.415827363729476929e-02 -1.562334746122360229e-01 -4.347762838006019592e-02 1.150137633085250854e-01 -1.333796512335538864e-02 -1.878558844327926636e-02 -1.695611700415611267e-02 -3.718364983797073364e-02 1.067272052168846130e-01 -1.152204647660255432e-01
-7.887043803930282593e-02 -1.534195095300674438e-01 -1.051680892705917358e-01 -1.928646415472030640e-01 4.102331772446632385e-02 -8.670888096094131470e-02 -1.534194499254226685e-01 -9.021720290184020996e-02 1.767154633998870850e-01 -1.701132208108901978e-02 -1.868496835231781006e-01 -2.871191129088401794e-02 4.683284834027290344e-02 5.295827612280845642e-02 1.313976496458053589e-01 1.402132958173751831e-01 1.296464353799819946e-01 2.062282338738441467e-02 1.355748474597930908e-01 8.971842378377914429e-02 -6.250670552253723145e-02 1.950994133949279785e-02 -4.383696243166923523e-02 -9.284543246030807495e-02 5.282779783010482788e-02 -3.732937201857566833e-02 -3.323639556765556335e-02 5.955499038100242615e-02 5.378025025129318237e-02 1.560230646282434464e-02 -8.369167894124984741e-02 -1.420604884624481201e-01 -2.402557581663131714e-01 -5.660204961895942688e-02 3.778165951371192932e-02 -1.666251868009567261e-01 1.856071799993515015e-01 1.050925925374031067e-01 6.493427604436874390e-02 1.586248725652694702e-01 1.901729106903076172e-01 -1.901725865900516510e-02 4.343716055154800415e-02 -9.183551371097564697e-02 1.239838078618049622e-01 -4.525301977992057800e-02 -4.536241665482521057e-02 7.284640520811080933e-02 -1.019977852702140808e-01 1.276535093784332275e-01 7.858022302389144897e-02 -4.494804888963699341e-02 -8.676536381244659424e-02 -1.995889544486999512e-01 -8.162326365709304810e-02 -1.705443710088729858e-01 -8.328733593225479126e-02 3.773016855120658875e-02 1.029082983732223511e-01
-9.271953254938125610e-03 -1.152150034904479980e-01 -2.056999504566192627e-02 -9.364750981330871582e-02 -9.982652962207794189e-02 7.649116963148117065e-02 -8.753173053264617920e-03 4.581670835614204407e-02 1.786863654851913452e-01 -1.882694847881793976e-02 1.211213096976280212e-01 -2.032889425754547119e-02 1.654708683490753174e-01 -5.139596015214920044e-02 -1.266472935676574707e-01 -1.440788060426712036e-02 1.610443741083145142e-02 -3.130844235420227051e-02 8.344965428113937378e-02 -6.453961879014968872e-02 6.807515025138854980e-02 4.886353388428688049e-02 9.832626581192016602e-02 -8.964707702398300171e-02 4.659050330519676208e-02 -2.172520160675048828e-01 1.327920109033584595e-01 -7.335346937179565430e-02 6.967004388570785522e-02 -1.977451294660568237e-01 -2.674145065248012543e-02 1.746931225061416626e-01 1.324202567338943481e-01 6.144616380333900452e-02 8.284638822078704834e-02 7.258055359125137329e-02 -2.218392044305801392e-01 5.806995555758476257e-02 -6.571793556213378906e-02 -2.279201894998550415e-01 4.094622656702995300e-02 6.901505589485168457e-02 -1.421861499547958374e-01 -4.741085693240165710e-02 5.001622438430786133e-02 5.814979597926139832e-02 2.910493873059749603e-02 1.793085634708404541e-01 -8.458067476749420166e-02 -2.863430418074131012e-02 3.948520496487617493e-02 4.960822686553001404e-02 -6.711811572313308716e-02 -3.640568628907203674e-02 -4.012733325362205505e-02 9.744593501091003418e-02 9.389037638902664185e-02 6.673957407474517822e-02 7.227337360382080078e-02
4.243502765893936157e-02 -5.416525527834892273e-02 -7.170352339744567871e-02 4.261842370033264160e-02 1.073454041033983231e-02 -2.472604364156723022e-01 1.285757124423980713e-01 1.441252380609512329e-01 1.372590754181146622e-02 1.935030817985534668e-01 5.278658866882324219e-02 3.107890672981739044e-02 9.539455920457839966e-02 -1.022508442401885986e-01 -6.508038938045501709e-02 1.123435720801353455e-01 1.176538765430450439e-01 -7.319072633981704712e-02 -1.388131231069564819e-01 7.939690724015235901e-03 7.193509489297866821e-02 9.381487034261226654e-03 -5.460168048739433289e-02 -1.068645864725112915e-01 1.046042069792747498e-01 -6.142712384462356567e-02 2.671515010297298431e-02 -2.277937717735767365e-02 -5.034329742193222046e-02 -3.647140413522720337e-02 2.041414529085159302e-01 -1.330904196947813034e-02 -2.037433348596096039e-02 -1.870266534388065338e-02 -9.749910980463027954e-02 -1.160617843270301819e-01 -8.415546268224716187e-02 -1.002247706055641174e-01 1.990728825330734253e-02 7.148778438568115234e-02 1.695434935390949249e-02 -1.683154255151748657e-01 3.458873135969042778e-03 3.824612498283386230e-02 6.687988061457872391e-03 1.083952859044075012e-01 -6.488825660198926926e-03 -2.069677785038948059e-02 -4.274761304259300232e-03 -4.044241085648536682e-02 -3.347676247358322144e-02 -5.601847916841506958e-02 3.709998354315757751e-02 -4.605908319354057312e-02 7.175565231591463089e-03 8.600193262100219727e-02 -5.575079098343849182e-02 1.696113795042037964e-01 2.779388427734375000e-02
-2.008503675460815430e-01 -2.367616742849349976e-01 1.620199531316757202e-01 1.343740522861480713e-02 -1.425935178995132446e-01 6.194401904940605164e-02 1.955935172736644745e-02 -4.601707682013511658e-02 2.572647668421268463e-02 8.689294010400772095e-02 -8.935849368572235107e-02 -3.654934838414192200e-02 -3.515103086829185486e-02 -4.820385575294494629e-02 -1.402552723884582520e-01 3.990614414215087891e-02 -1.196840428747236729e-03 -7.126498967409133911e-02 6.697430461645126343e-02 4.153360798954963684e-02 -2.422201335430145264e-01 -5.998964235186576843e-02 -1.101597771048545837e-02 4.689155519008636475e-02 -1.442641951143741608e-02 5.510493740439414978e-02 -6.634562462568283081e-02 9.747343510389328003e-02 1.644570827484130859e-01 4.085071384906768799e-02 6.418427824974060059e-02 3.989389911293983459e-02 2.116144448518753052e-01 -8.977171033620834351e-02 3.686040639877319336e-02 -6.492916494607925415e-02 8.393361233174800873e-03 -3.181491792201995850e-02 9.832567721605300903e-02 -1.559863835573196411e-01 3.303926810622215271e-02 9.773102356120944023e-04 -1.485990174114704132e-02 -2.048957394436001778e-03 -8.803869783878326416e-02 1.633161008358001709e-01 -8.722051233053207397e-02 -7.784113287925720215e-02 7.519910484552383423e-02 -4.932991415262222290e-02 -9.663971140980720520e-03 -5.156510695815086365e-02 -5.558697134256362915e-02 1.169855743646621704e-01 -4.067436978220939636e-02 -2.178630419075489044e-02 -4.421538487076759338e-02 1.937153562903404236e-02 2.437079139053821564e-02
-1.829456835985183716e-01 2.285994142293930054e-01 -2.468995153903961182e-01 -3.408679366111755371e-02 -6.596717983484268188e-02 8.981671184301376343e-02 4.346636310219764709e-02 -1.009083241224288940e-01 6.387287378311157227e-02 2.716850303113460541e-02 2.160941213369369507e-01 4.015617072582244873e-02 -1.155269518494606018e-02 1.330732367932796478e-02 -2.392932586371898651e-02 8.066891878843307495e-02 -1.878982931375503540e-01 -2.332752384245395660e-02 -1.037485897541046143e-01 -3.936813771724700928e-02 5.347827449440956116e-03 -9.131903201341629028e-02 4.102704674005508423e-02 -2.622898900881409645e-03 -3.513498976826667786e-02 4.863002151250839233e-02 -1.645004935562610626e-02 -8.104468695819377899e-03 3.009832464158535004e-02 4.827672243118286133e-02 1.562070995569229126e-01 -1.185043603181838989e-01 -7.043946534395217896e-02 -7.531487941741943359e-02 -9.312665462493896484e-02 9.207274019718170166e-02 2.970633096992969513e-02 -4.385494813323020935e-02 7.188474386930465698e-02 3.966277092695236206e-02 1.940892636775970459e-02 -6.290533393621444702e-02 -8.178527653217315674e-02 9.352213144302368164e-02 6.366070359945297241e-02 1.629652231931686401e-01 1.768338084220886230e-01 -1.053138636052608490e-02 4.559498120215721428e-05 5.461300164461135864e-02 3.092259913682937622e-02 3.108926815912127495e-03 -7.820124179124832153e-02 9.780139476060867310e-02 1.002454757690429688e-01 -1.031432151794433594e-01 -2.838616818189620972e-02 5.357749015092849731e-02 1.361254882067441940e-02
-2.197610214352607727e-02 1.695088855922222137e-02 -1.062996760010719299e-01 7.625182718038558960e-02 -1.376369502395391464e-02 -1.556646823883056641e-02 -4.772607982158660889e-02 1.349651813507080078e-01 -1.364789605140686035e-01 1.155429482460021973e-01 4.835105687379837036e-02 4.447451606392860413e-02 -2.915611863136291504e-01 -1.050035133957862854e-01 3.797819092869758606e-02 1.902889311313629150e-01 -1.334615498781204224e-01 -9.122150391340255737e-02 9.330549091100692749e-02 1.059215515851974487e-01 6.349337100982666016e-02 5.059712007641792297e-02 -9.987826645374298096e-02 5.789157003164291382e-02 2.773387171328067780e-02 -3.073425963521003723e-02 6.112838536500930786e-02 1.733769662678241730e-02 1.299269050359725952e-01 9.261156618595123291e-02 -5.520554259419441223e-02 -1.222244352102279663e-01 -8.507772535085678101e-02 3.925893828272819519e-02 2.239122986793518066e-01 -4.967340454459190369e-02 8.273648470640182495e-02 -8.070798963308334351e-02 1.294712275266647339e-01 3.679662197828292847e-02 -7.348594814538955688e-02 1.121359393000602722e-01 -7.999710738658905029e-02 -1.161086410284042358e-01 1.603666543960571289e-01 -6.151059269905090332e-02 -3.000600449740886688e-02 -2.155024260282516479e-01 8.380050957202911377e-02 -7.610213360749185085e-04 -9.642752259969711304e-02 -5.542621761560440063e-02 -1.892833225429058075e-02 6.707341969013214111e-02 -5.198600143194198608e-02 -1.090076006948947906e-02 2.566021122038364410e-02 2.736152336001396179e-02 3.700869390740990639e-03
-5.371572077274322510e-02 9.755694866180419922e-02 -8.526361733675003052e-02 6.755445152521133423e-02 -4.606022685766220093e-02 7.743128389120101929e-02 1.828127354383468628e-01 1.282777041196823120e-01 1.008549705147743225e-02 2.469209721311926842e-03 -1.446633189916610718e-01 1.766787320375442505e-01 -5.189542472362518311e-02 -5.044221505522727966e-02 3.698029322549700737e-03 9.749516844749450684e-02 -5.851017311215400696e-02 6.564717739820480347e-03 4.332109540700912476e-02 -4.049343243241310120e-02 -4.033586382865905762e-02 1.213903948664665222e-01 -2.535743638873100281e-02 4.223898798227310181e-02 -1.545918434858322144e-01 -6.242972239851951599e-02 6.837274879217147827e-03 8.270720392465591431e-02 -1.513301432132720947e-01 -3.565199673175811768e-02 3.938679024577140808e-02 1.528183557093143463e-02 -6.495224684476852417e-02 9.279255173169076443e-04 4.753676429390907288e-02 1.158797144889831543e-01 -5.950114876031875610e-02 -5.081897601485252380e-02 8.255694061517715454e-02 -1.727019250392913818e-02 -1.140144988894462585e-01 -1.030146628618240356e-01 -7.743948698043823242e-02 6.494588404893875122e-02 6.354271620512008667e-02 -2.535882778465747833e-02 2.078837715089321136e-02 -4.277297481894493103e-02 -3.108697198331356049e-02 5.472747609019279480e-02 1.909352838993072510e-01 9.730127453804016113e-02 6.873617321252822876e-02 -7.923118770122528076e-02 -6.383977830410003662e-02 2.137888781726360321e-02 9.659268707036972046e-02 -5.417552217841148376e-02 6.119339913129806519e-02
1.834592781960964203e-03 7.832822203636169434e-02 -1.317290402948856354e-02 1.360175013542175293e-01 -1.975951045751571655e-01 2.031890153884887695e-01 1.831824630498886108e-01 6.780485063791275024e-02 -3.271688893437385559e-02 -1.205952763557434082e-01 -9.272736310958862305e-02 4.583027958869934082e-02 1.263674646615982056e-01 9.836156666278839111e-02 8.073174394667148590e-03 1.349266320466995239e-01 3.232444077730178833e-02 5.037525668740272522e-02 -2.097003161907196045e-03 -1.453813072293996811e-02 1.154416427016258240e-01 5.622451752424240112e-02 2.823348529636859894e-02 -1.101417653262615204e-02 8.485285937786102295e-02 -9.031515568494796753e-02 5.759794265031814575e-02 6.665261834859848022e-02 1.484888195991516113e-01 -1.853226311504840851e-02 1.724871993064880371e-01 6.711453665047883987e-03 6.723923981189727783e-02 1.077125668525695801e-01 -1.133260279893875122e-01 1.067177765071392059e-02 3.153591975569725037e-02 2.780861780047416687e-02 9.885052591562271118e-02 -9.361647814512252808e-02 -5.426718294620513916e-02 1.569151431322097778e-01 -7.525879889726638794e-02 3.519097575917840004e-03 -1.026806235313415527e-01 4.159844294190406799e-02 1.785757369361817837e-03 -4.440053179860115051e-02 -1.021224781870841980e-01 -1.306590158492326736e-02 -7.343512773513793945e-02 -3.092604875564575195e-02 2.226289734244346619e-02 4.486928135156631470e-02 -4.257795959711074829e-02 3.272446105256676674e-03 1.062927320599555969e-01 8.982841856777667999e-03 -1.151951774954795837e-01
-4.747020453214645386e-02 8.301496505737304688e-03 -1.091740354895591736e-01 1.043761000037193298e-01 -1.882376074790954590e-01 9.785454720258712769e-02 4.538981593213975430e-04 -4.089197516441345215e-02 -2.316566184163093567e-03 -6.169928237795829773e-02 -3.521067649126052856e-02 7.836526632308959961e-02 -1.680779457092285156e-02 -5.305725708603858948e-02 -1.759594529867172241e-01 -9.864988923072814941e-02 3.782821074128150940e-02 -9.587035328149795532e-02 -4.408252239227294922e-02 -3.728539496660232544e-02 -8.217338472604751587e-02 -2.138168066740036011e-01 2.297279424965381622e-02 -8.145248517394065857e-03 9.412359446287155151e-02 -1.886679679155349731e-01 1.684231311082839966e-01 4.707850515842437744e-02 -8.017247915267944336e-02 -1.225460395216941833e-01 9.887502342462539673e-02 -9.860530495643615723e-02 6.256644427776336670e-02 8.766834624111652374e-03 4.446566477417945862e-02 7.963745296001434326e-02 -5.301611963659524918e-03 -1.615505963563919067e-01 -1.242307722568511963e-01 5.212146043777465820e-02 4.068762436509132385e-02 1.165688857436180115e-01 1.110698468983173370e-02 2.620930373668670654e-01 1.938169822096824646e-02 1.423004865646362305e-01 6.407580524682998657e-02 -4.743934795260429382e-02 9.546121209859848022e-02 1.359944343566894531e-01 -2.444378137588500977e-01 1.301695257425308228e-01 -2.421791404485702515e-01 8.590549230575561523e-03 7.011751830577850342e-02 5.313367769122123718e-02 8.286988735198974609e-02 1.533475071191787720e-01 7.554343342781066895e-02
-2.816669084131717682e-02 1.136327534914016724e-01 2.844988405704498291e-01 1.082873865962028503e-01 -2.757168188691139221e-02 -2.021715976297855377e-02 9.152671694755554199e-02 -1.455068290233612061e-01 -1.871799379587173462e-01 -2.205234952270984650e-02 -5.125406756997108459e-02 8.078839629888534546e-02 2.445008791983127594e-02 4.167532082647085190e-03 -3.337948024272918701e-02 -1.897408664226531982e-01 4.922723025083541870e-02 -9.639830887317657471e-02 -7.927304506301879883e-02 -4.600882530212402344e-02 4.306520894169807434e-02 -6.426174938678741455e-02 1.569417421706020832e-03 1.940506398677825928e-01 -5.854269489645957947e-03 -3.457938879728317261e-02 -6.227752938866615295e-02 2.270033583045005798e-02 8.671748638153076172e-02 -7.969260215759277344e-02 9.585566073656082153e-02 1.389874517917633057e-02 -2.658431185409426689e-03 -7.948187179863452911e-03 2.292451914399862289e-03 2.240142785012722015e-02 -5.598052963614463806e-02 2.415397614240646362e-01 -2.663439325988292694e-02 1.324350107461214066e-02 6.287583708763122559e-02 -3.003590740263462067e-02 1.933380588889122009e-02 -6.315468996763229370e-02 -1.103384327143430710e-02 -1.258332282304763794e-01 -1.170687973499298096e-01 -3.957012295722961426e-02 -9.121166169643402100e-02 -1.054489314556121826e-01 -3.939226642251014709e-02 1.042609289288520813e-01 -3.413791209459304810e-02 4.084143042564392090e-02 4.890137910842895508e-02 1.869934424757957458e-02 6.919618695974349976e-02 1.367187798023223877e-01 -8.273644000291824341e-02
-1.871503889560699463e-02 6.822654604911804199e-02 1.772089451551437378e-01 1.396950781345367432e-01 -2.347719483077526093e-02 -9.341778606176376343e-02 -1.423462200909852982e-02 -3.170667216181755066e-02 1.044111326336860657e-01 -7.231727242469787598e-02 -1.033643782138824463e-01 1.325362920761108398e-01 1.277676522731781006e-01 -5.943080410361289978e-03 3.593140468001365662e-02 3.203425183892250061e-02 -6.338036060333251953e-02 7.002070546150207520e-02 1.167630478739738464e-01 -4.935798421502113342e-02 -3.626618534326553345e-02 -3.663821145892143250e-02 1.104292869567871094e-01 -2.527421526610851288e-02 -1.421093791723251343e-01 8.390611410140991211e-02 5.367922410368919373e-02 -5.151997506618499756e-02 2.286333218216896057e-02 -1.267874687910079956e-01 1.729048639535903931e-01 1.511574387550354004e-01 6.290783733129501343e-02 -1.491779386997222900e-01 5.320999398827552795e-02 4.505233466625213623e-02 3.766209259629249573e-02 8.818320184946060181e-02 1.277826726436614990e-02 -1.076252758502960205e-01 2.265084348618984222e-02 1.199773997068405151e-01 4.636141285300254822e-02 4.745436087250709534e-02 1.290258467197418213e-01 -7.137699425220489502e-02 -2.161731943488121033e-03 2.116366028785705566e-01 4.465573467314243317e-03 5.156145617365837097e-02 1.873583197593688965e-01 -7.309798151254653931e-03 1.530074477195739746e-01 1.621609628200531006e-01 1.786971837282180786e-01 -1.322957724332809448e-01 -1.841376535594463348e-02 2.788611873984336853e-02 3.016901388764381409e-02
5.457916110754013062e-02 -9.616828709840774536e-02 -8.913427591323852539e-02 4.238577559590339661e-02 1.028207316994667053e-01 3.073999658226966858e-02 2.596416883170604706e-02 -1.486951559782028198e-01 -6.152990087866783142e-02 8.490274101495742798e-02 2.906009182333946228e-02 -2.572039328515529633e-02 -1.013815328478813171e-01 -3.557227179408073425e-02 4.627799149602651596e-03 -4.145794361829757690e-02 -3.304847329854965210e-02 3.629193827509880066e-02 4.849285259842872620e-02 -1.041782498359680176e-01 2.712524682283401489e-02 -1.632300615310668945e-01 -2.936223288998007774e-03 1.059442199766635895e-02 1.565961241722106934e-01 -3.814060986042022705e-02 -7.070421427488327026e-02 -3.620292618870735168e-02 1.278874129056930542e-01 6.295134127140045166e-02 2.100775986909866333e-01 9.789612889289855957e-02 1.505455970764160156e-01 -9.675849229097366333e-02 -5.618271231651306152e-02 1.240239664912223816e-01 7.968405634164810181e-02 1.375892478972673416e-02 4.021047055721282959e-02 2.965863607823848724e-02 8.006814867258071899e-02 -9.808722138404846191e-02 1.503826528787612915e-01 3.646543016657233238e-03 1.198054924607276917e-01 1.489558964967727661e-01 4.285255819559097290e-02 -1.701694168150424957e-02 -2.261421829462051392e-02 -8.937393128871917725e-02 -7.878751307725906372e-02 1.668967604637145996e-01 -8.905374445021152496e-03 1.070528477430343628e-01 1.033816672861576080e-02 -6.328803300857543945e-02 -5.726696178317070007e-02 -4.715517163276672363e-03 -4.110792279243469238e-02
-4.657287150621414185e-02 8.608331531286239624e-02 2.158936411142349243e-01 1.670286804437637329e-02 -6.763204932212829590e-02 -9.111301042139530182e-03 -1.611541584134101868e-02 8.083959668874740601e-02 5.285334959626197815e-02 4.821589216589927673e-03 4.153354093432426453e-02 1.930652558803558350e-02 -2.381473183631896973e-01 -2.646653167903423309e-02 -5.800738185644149780e-02 -1.941597461700439453e-02 -1.310009956359863281e-01 -1.576615571975708008e-01 4.156566038727760315e-02 8.221153914928436279e-02 6.543767452239990234e-02 -5.710858479142189026e-02 1.246001943945884705e-01 5.482718348503112793e-02 7.111056894063949585e-02 -8.214626461267471313e-02 -8.830254897475242615e-03 1.057251766324043274e-01 2.921054139733314514e-02 -7.807842455804347992e-03 2.087144553661346436e-01 4.288629069924354553e-02 2.196692973375320435e-01 -2.183448523283004761e-01 -5.319846048951148987e-02 -4.391251131892204285e-02 1.361427903175354004e-01 8.514616638422012329e-02 -7.703382521867752075e-02 9.417743980884552002e-02 1.074882037937641144e-02 7.844149321317672729e-02 -4.189386963844299316e-02 -1.763163879513740540e-02 1.366989105008542538e-03 7.058811187744140625e-02 1.407083272933959961e-01 1.665636152029037476e-01 -2.197629213333129883e-02 1.476674526929855347e-01 -8.490053936839103699e-03 -1.882605552673339844e-01 1.561202853918075562e-01 -2.391669712960720062e-02 -2.697907388210296631e-02 1.291836798191070557e-01 -1.732006818056106567e-01 -8.934701792895793915e-03 1.288308948278427124e-01
5.071628466248512268e-02 1.998978853225708008e-01 5.994841083884239197e-02 6.236122176051139832e-02 7.665140926837921143e-02 -1.780154742300510406e-02 5.746865645051002502e-02 1.665041744709014893e-01 2.187423408031463623e-02 -1.364865005016326904e-01 -1.074259057641029358e-01 1.475580483675003052e-01 -1.264467388391494751e-01 8.237341046333312988e-02 -1.714838445186614990e-01 1.179348379373550415e-01 -1.667308956384658813e-01 -1.094956099987030029e-01 -1.188450679183006287e-02 6.291995942592620850e-02 1.771498471498489380e-02 -7.165655493736267090e-02 -3.140027225017547607e-01 3.234376385807991028e-02 -7.951176911592483521e-02 -4.381017386913299561e-02 -3.970083966851234436e-02 -5.383037775754928589e-02 6.225998327136039734e-02 -4.892357811331748962e-02 9.386246092617511749e-03 -1.620495021343231201e-01 -4.553335532546043396e-02 2.887990698218345642e-02 -1.624155230820178986e-02 6.306000798940658569e-02 -1.095208674669265747e-01 -7.115765661001205444e-02 -1.871760934591293335e-01 -1.088536456227302551e-01 -1.156881228089332581e-01 1.089921370148658752e-01 4.970280826091766357e-02 3.250109404325485229e-02 -1.100660413503646851e-01 -8.050610125064849854e-02 4.137182980775833130e-02 -1.112265326082706451e-02 -3.599658980965614319e-02 -2.240198291838169098e-02 3.638124465942382812e-02 -9.508202224969863892e-02 -1.157439500093460083e-01 -8.074742555618286133e-02 -9.297667443752288818e-02 2.955750003457069397e-02 1.860651522874832153e-01 1.207991316914558411e-01 -4.707595333456993103e-02
-4.160369187593460083e-02 -7.753130048513412476e-02 2.687075138092041016e-01 -1.991521865129470825e-01 1.347400993108749390e-01 1.171517670154571533e-01 -1.710357517004013062e-01 4.327462613582611084e-02 6.231992691755294800e-02 -6.795051973313093185e-03 1.591893099248409271e-02 -1.641711033880710602e-02 -2.581865340471267700e-02 -4.185087606310844421e-02 -5.552804842591285706e-02 -8.324926719069480896e-03 9.588988125324249268e-02 6.091694906353950500e-02 1.566914021968841553e-01 -2.224445343017578125e-02 -1.810914464294910431e-02 -9.618815034627914429e-02 -1.332893371582031250e-01 5.329476669430732727e-02 -2.993808127939701080e-02 -7.827828824520111084e-02 -8.161604404449462891e-02 -1.417155712842941284e-01 -1.771684922277927399e-02 3.327693417668342590e-02 -1.794715523719787598e-01 -5.978715419769287109e-02 6.471110135316848755e-02 -3.976993635296821594e-02 9.589148312807083130e-02 -1.871147565543651581e-02 9.192117303609848022e-02 8.983697742223739624e-02 4.231230542063713074e-02 -1.967058032751083374e-01 9.195473790168762207e-02 4.981084540486335754e-02 -1.439526826143264771e-01 7.822683453559875488e-02 8.687269687652587891e-02 -2.684635110199451447e-02 -1.192068681120872498e-01 -1.771007105708122253e-02 6.059638224542140961e-03 -9.249227494001388550e-02 4.955226182937622070e-02 1.137294024229049683e-01 8.755096793174743652e-02 -1.130483597517013550e-01 1.561230272054672241e-01 1.411492675542831421e-01 2.630619099363684654e-03 8.145237714052200317e-02 -1.105250939726829529e-01
-1.856199465692043304e-02 2.435101009905338287e-02 -2.279447950422763824e-02 2.669346034526824951e-01 2.093186974525451660e-01 -8.718580752611160278e-02 -8.158210664987564087e-02 7.951798848807811737e-03 -4.116098955273628235e-02 1.993646286427974701e-02 -2.462653443217277527e-02 1.179016605019569397e-01 7.939103990793228149e-02 -5.932452157139778137e-02 1.330247670412063599e-01 5.194317921996116638e-02 2.173415571451187134e-01 -7.561311870813369751e-02 2.278779000043869019e-01 2.078837007284164429e-01 -9.362564235925674438e-02 -3.353051608428359032e-03 3.565002605319023132e-02 -4.433760419487953186e-02 9.282710403203964233e-02 -6.055072695016860962e-02 4.798131063580513000e-02 -1.110161766409873962e-01 6.256238371133804321e-02 6.238881871104240417e-02 5.366337671875953674e-02 -1.371365599334239960e-02 -2.568133361637592316e-02 8.179221302270889282e-02 -7.561185956001281738e-02 -2.890591137111186981e-02 -4.741217195987701416e-02 -1.311347484588623047e-01 -1.077625602483749390e-01 -5.306980013847351074e-02 2.858904562890529633e-02 -2.403109148144721985e-02 1.923100091516971588e-02 9.582620859146118164e-02 -2.579305553808808327e-03 5.037688836455345154e-02 -3.581878542900085449e-02 5.796923488378524780e-02 2.207132987678050995e-02 8.208359777927398682e-02 6.526859849691390991e-02 -7.142888754606246948e-02 -1.119634434580802917e-01 -4.650061205029487610e-02 -3.375904634594917297e-02 -2.161627262830734253e-02 4.429319500923156738e-02 5.071391910314559937e-02 2.168785184621810913e-01
2.095217555761337280e-01 4.242000356316566467e-02 1.721778512001037598e-02 1.091904714703559875e-01 1.349857747554779053e-01 -3.848494589328765869e-02 -7.735005021095275879e-02 2.895392477512359619e-01 9.150539338588714600e-02 1.351115405559539795e-01 -7.844258099794387817e-02 -4.759010672569274902e-02 1.666517257690429688e-01 -8.767214603722095490e-03 -2.878316864371299744e-02 -1.912903934717178345e-01 6.806048750877380371e-02 1.519457846879959106e-01 -4.340155795216560364e-02 -1.124036312103271484e-01 -1.065796241164207458e-01 -5.036802217364311218e-02 -9.494878351688385010e-02 8.811607211828231812e-02 -5.065466091036796570e-02 8.978671394288539886e-03 -4.863254725933074951e-02 5.059952661395072937e-02 -7.555463910102844238e-02 4.365330561995506287e-02 3.910701721906661987e-02 2.793224342167377472e-02 -3.729970753192901611e-02 2.842695452272891998e-02 -8.374699205160140991e-02 -7.599566131830215454e-02 5.287349596619606018e-02 -9.372600167989730835e-02 1.030499562621116638e-01 3.197294846177101135e-02 -5.957981944084167480e-02 -8.224176615476608276e-02 -8.276224881410598755e-02 1.462812069803476334e-02 6.026907265186309814e-02 1.903813704848289490e-02 -1.760942116379737854e-02 1.575492024421691895e-01 -1.307949721813201904e-01 5.939310789108276367e-02 -1.942862384021282196e-02 -3.034937381744384766e-02 9.295447170734405518e-02 3.061384195461869240e-04 -4.569823294878005981e-02 -2.274667471647262573e-02 -1.054347306489944458e-02 9.558138437569141388e-03 5.825417116284370422e-02
-1.991249173879623413e-01 7.646562159061431885e-02 1.457414589822292328e-02 -9.497022628784179688e-02 -1.918039321899414062e-01 -1.901307255029678345e-01 4.372246935963630676e-02 -7.032536435872316360e-03 -7.991491258144378662e-02 1.048410013318061829e-01 2.917169965803623199e-02 1.192680448293685913e-01 6.832706183195114136e-02 3.102185670286417007e-03 -8.344451896846294403e-03 1.370199769735336304e-02 -1.934048086404800415e-01 6.867741048336029053e-02 -7.543368265032768250e-03 3.204642608761787415e-02 1.826411932706832886e-01 -4.255927726626396179e-02 -1.465991586446762085e-01 6.988090276718139648e-02 1.008921787142753601e-01 -2.374185249209403992e-02 5.984740331768989563e-02 1.221613585948944092e-02 -1.261250227689743042e-01 1.160011738538742065e-01 -7.643216848373413086e-02 -6.135744974017143250e-02 4.029450193047523499e-02 8.258085697889328003e-02 -1.283649653196334839e-01 1.765521615743637085e-02 4.613011702895164490e-02 -2.437743544578552246e-02 -6.768490374088287354e-02 6.145494431257247925e-02 -6.653193850070238113e-03 -8.231473714113235474e-02 4.666203260421752930e-02 1.636379510164260864e-01 5.271044000983238220e-02 2.492232713848352432e-03 -5.688644573092460632e-02 7.533951103687286377e-02 -1.814638823270797729e-02 1.177363470196723938e-01 9.785582870244979858e-02 -5.238616839051246643e-02 -1.020134612917900085e-01 6.339485198259353638e-02 -1.165081933140754700e-01 -1.338349133729934692e-01 -1.501832529902458191e-02 5.825259163975715637e-02 -2.270068787038326263e-02
2.563017234206199646e-02 -5.819479376077651978e-02 -9.424004703760147095e-03 8.285669237375259399e-02 -5.327593907713890076e-02 -4.752343520522117615e-02 2.906486950814723969e-02 -4.629924520850181580e-02 1.436270624399185181e-01 -5.640081316232681274e-02 1.155104935169219971e-01 2.978539653122425079e-02 1.495988760143518448e-02 -1.285812109708786011e-01 4.306256398558616638e-02 1.005883365869522095e-01 -1.486187148839235306e-02 5.242234468460083008e-02 1.580479927361011505e-02 -7.425305247306823730e-02 -2.825125819072127342e-03 -5.809224769473075867e-02 8.779003471136093140e-02 -5.106571689248085022e-02 8.118450641632080078e-02 -1.229737699031829834e-01 8.162114024162292480e-02 -7.631725631654262543e-03 -1.225577816367149353e-01 -2.801301516592502594e-02 -2.011636830866336823e-02 8.665371686220169067e-02 -1.530714333057403564e-01 -8.687473833560943604e-02 -3.143704310059547424e-02 -1.315029859542846680e-01 1.107193157076835632e-01 -4.372879397124052048e-03 1.203955784440040588e-01 -5.257182940840721130e-02 1.757429093122482300e-01 2.442743815481662750e-02 1.203704327344894409e-01 -6.974335014820098877e-02 3.640529513359069824e-02 -2.696922235190868378e-02 2.191579341888427734e-02 -6.631139665842056274e-02 1.781671345233917236e-01 -8.344312757253646851e-02 -1.048965305089950562e-01 1.160700544714927673e-01 1.059630885720252991e-01 -4.723325371742248535e-02 5.188921466469764709e-02 -2.044087648391723633e-02 9.311553090810775757e-02 2.519910931587219238e-01 6.543705612421035767e-02
3.036693632602691650e-01 -4.938020184636116028e-02 1.397420018911361694e-01 3.526478707790374756e-01 -1.494843065738677979e-01 -6.823652982711791992e-02 -1.983380615711212158e-01 1.135716307908296585e-02 -1.667911857366561890e-01 -8.923055231571197510e-02 -3.405310586094856262e-02 5.712595302611589432e-04 -1.088260114192962646e-01 -5.410152673721313477e-02 4.677973687648773193e-02 4.522420465946197510e-02 6.311246752738952637e-02 1.106249541044235229e-01 -7.319847494363784790e-02 -1.064807921648025513e-01 4.204659536480903625e-02 1.520416438579559326e-01 1.309516578912734985e-01 4.922078922390937805e-02 2.941447682678699493e-02 8.904469758272171021e-02 3.163789957761764526e-02 1.695419102907180786e-02 3.652565926313400269e-02 1.722229421138763428e-01 1.521458923816680908e-01 -1.969504356384277344e-01 1.367207616567611694e-01 6.836577504873275757e-02 6.514391303062438965e-02 -8.383686840534210205e-02 3.440138325095176697e-02 2.090506255626678467e-02 -9.355168789625167847e-02 1.050592660903930664e-01 1.710508465766906738e-01 -1.153394728899002075e-01 5.527539178729057312e-03 6.704521365463733673e-03 -3.425024822354316711e-02 1.060081049799919128e-01 -2.637571468949317932e-02 8.038629591464996338e-02 -9.519585967063903809e-02 -5.544765293598175049e-02 1.119771040976047516e-03 5.152954161167144775e-02 5.016639083623886108e-02 1.439703702926635742e-01 1.221275851130485535e-01 3.794210776686668396e-02 9.172517806291580200e-03 1.127368286252021790e-01 7.827801257371902466e-02
-1.125059276819229126e-01 1.359077244997024536e-01 -7.874021679162979126e-02 4.907043650746345520e-02 2.470864802598953247e-01 7.401818782091140747e-02 -1.943260803818702698e-02 -2.914679236710071564e-02 -7.242935895919799805e-02 1.395779754966497421e-02 -1.121726408600807190e-01 1.804154738783836365e-02 -1.931043863296508789e-01 2.710546366870403290e-02 -2.279728949069976807e-01 5.396306887269020081e-02 -3.358367830514907837e-02 -2.752063609659671783e-02 -2.159349992871284485e-02 4.243270680308341980e-02 -1.720388084650039673e-01 1.161375269293785095e-02 -4.549571499228477478e-02 -2.944939769804477692e-02 7.586598396301269531e-02 1.262749545276165009e-02 1.032176166772842407e-01 1.742879627272486687e-03 2.255733907222747803e-01 1.185451541095972061e-02 1.569837033748626709e-01 -2.182756215333938599e-01 1.177876815199851990e-01 3.943984210491180420e-02 1.315351016819477081e-02 -1.660507544875144958e-02 -2.249066904187202454e-02 -5.098126083612442017e-02 -1.869551651179790497e-02 6.984700262546539307e-02 -1.238779947161674500e-01 -6.822937726974487305e-02 -4.886969551444053650e-02 -1.285315603017807007e-01 -2.147995121777057648e-02 1.001424193382263184e-01 -1.835938543081283569e-01 1.113642826676368713e-01 7.325421273708343506e-02 -3.126635029911994934e-02 4.981235414743423462e-02 4.550502169877290726e-03 3.787958621978759766e-02 5.337066575884819031e-02 -4.306278377771377563e-02 -7.166676968336105347e-02 6.479386240243911743e-02 4.393906146287918091e-02 1.712641678750514984e-02
2.210411801934242249e-02 -5.991161987185478210e-02 2.525025792419910431e-02 -1.368466466665267944e-01 3.923558071255683899e-02 -4.841756820678710938e-02 -5.975514650344848633e-02 1.130580753087997437e-01 4.300872236490249634e-02 -1.540848612785339355e-01 8.292010426521301270e-02 -7.432715594768524170e-02 4.669946432113647461e-02 -5.112556368112564087e-02 1.196672841906547546e-01 -1.070939525961875916e-01 -7.631513476371765137e-02 -1.939348876476287842e-01 -9.044166654348373413e-02 -9.474598616361618042e-02 6.514742970466613770e-02 7.843764871358871460e-02 1.450735330581665039e-01 -8.330012857913970947e-02 -1.353139728307723999e-01 -1.405172795057296753e-01 1.293035894632339478e-01 -3.502482175827026367e-02 -8.081455528736114502e-02 -1.601328402757644653e-01 1.111612170934677124e-01 -2.714932896196842194e-03 -7.430388033390045166e-02 -8.926091343164443970e-02 7.972658611834049225e-03 -5.905530229210853577e-02 1.893279552459716797e-01 -3.311848267912864685e-02 -6.050339341163635254e-02 -7.008040696382522583e-02 3.458704799413681030e-02 -4.324007406830787659e-02 -1.652873493731021881e-02 -1.764553412795066833e-02 -7.357131689786911011e-02 -1.582069247961044312e-01 -5.971949547529220581e-02 -1.112498342990875244e-02 8.787523210048675537e-02 1.049895286560058594e-01 -1.054867282509803772e-01 4.645695164799690247e-02 1.191897317767143250e-01 -1.209622919559478760e-01 -9.718297421932220459e-02 -1.336428076028823853e-01 1.461101621389389038e-01 7.477479428052902222e-02 5.334479361772537231e-02
3.796854242682456970e-02 7.347244769334793091e-02 5.531188100576400757e-02 1.118671447038650513e-01 -5.932847037911415100e-03 -9.793838858604431152e-02 5.931894294917583466e-03 5.489330738782882690e-02 7.306690514087677002e-02 -6.485700607299804688e-02 2.403488941490650177e-02 8.954902738332748413e-02 -7.183814048767089844e-02 1.773071475327014923e-02 -4.038972035050392151e-02 1.404557144269347191e-03 1.183717101812362671e-01 8.010756224393844604e-02 1.434609144926071167e-01 -2.909347787499427795e-02 1.529510617256164551e-01 -6.866628676652908325e-02 6.309084594249725342e-02 1.325531005859375000e-01 -1.336226314306259155e-01 1.045358553528785706e-01 -2.384557016193866730e-02 6.175018101930618286e-02 -1.193854287266731262e-01 -4.504599422216415405e-02 4.744273796677589417e-02 -2.044262737035751343e-02 -3.429870307445526123e-02 -9.653826057910919189e-02 1.157291829586029053e-01 -3.151306882500648499e-02 7.660958915948867798e-02 -9.424156695604324341e-02 -8.317313343286514282e-02 3.696651011705398560e-02 8.995693176984786987e-02 -8.648921735584735870e-03 -7.675836980342864990e-02 6.929045915603637695e-02 1.682049245573580265e-03 -2.858698181807994843e-02 -8.509022742509841919e-02 1.548466086387634277e-01 3.270119801163673401e-02 5.102826282382011414e-03 8.972056955099105835e-02 -5.851366370916366577e-02 -1.593782454729080200e-01 1.198531500995159149e-02 -1.070254817605018616e-01 -1.201114952564239502e-01 -9.576404094696044922e-02 -4.079901427030563354e-02 -2.554545104503631592e-01
2.043440937995910645e-02 8.876164257526397705e-02 -1.310819983482360840e-01 5.760663002729415894e-02 -4.843912273645401001e-02 1.327324472367763519e-02 -1.158014088869094849e-01 1.074535995721817017e-01 -6.108265742659568787e-02 -5.615087598562240601e-02 -4.418008774518966675e-02 1.191073730587959290e-01 2.215337194502353668e-02 6.930617615580558777e-03 2.135404497385025024e-01 7.519235461950302124e-02 -2.273432910442352295e-01 -2.459318377077579498e-02 -5.343980714678764343e-02 -4.584537446498870850e-02 -6.295101344585418701e-02 -5.590886250138282776e-02 1.747611165046691895e-02 7.702997326850891113e-02 4.191781952977180481e-02 3.464855253696441650e-02 9.371807426214218140e-02 2.950526028871536255e-02 -1.935877278447151184e-02 2.305536568164825439e-01 -7.017277181148529053e-02 6.120121106505393982e-02 1.955291032791137695e-01 -3.916374221444129944e-02 -7.987013459205627441e-02 1.259283721446990967e-01 -1.434248387813568115e-01 7.424003630876541138e-02 -1.563841998577117920e-01 -9.128568321466445923e-02 -6.456436961889266968e-02 -1.244290620088577271e-01 -6.055751442909240723e-02 -6.299106776714324951e-02 -5.497999116778373718e-02 -4.110337793827056885e-02 3.012574464082717896e-02 2.435780130326747894e-03 2.963477373123168945e-02 -1.190747506916522980e-02 1.691411808133125305e-02 -2.664477564394474030e-02 -1.172771602869033813e-01 2.600972913205623627e-02 1.522804647684097290e-01 -3.380811959505081177e-02 3.020304022356867790e-03 7.818333804607391357e-02 -6.008677184581756592e-02
2.903770841658115387e-02 -7.355920225381851196e-02 1.550851315259933472e-01 1.404252648353576660e-01 9.212375432252883911e-02 8.185367099940776825e-03 4.044463112950325012e-02 6.096679717302322388e-02 -9.115788154304027557e-03 1.694781333208084106e-02 -1.237057596445083618e-01 -4.009931907057762146e-02 -1.104873716831207275e-01 1.021271869540214539e-01 7.033842802047729492e-02 -7.717060297727584839e-02 -3.082161769270896912e-02 6.268903380259871483e-04 5.059572309255599976e-02 -1.887172460556030273e-01 2.384683303534984589e-02 -6.886508315801620483e-02 1.356110870838165283e-01 5.080143362283706665e-02 1.756056398153305054e-02 -2.392898201942443848e-01 -1.065554395318031311e-01 -1.220479682087898254e-01 -5.467330664396286011e-02 -1.047653853893280029e-01 8.819527924060821533e-03 -6.375297158956527710e-02 -7.122198492288589478e-02 -1.039611827582120895e-02 -1.239012256264686584e-01 -3.542016819119453430e-02 5.770791321992874146e-02 6.253865361213684082e-02 1.354939788579940796e-01 -3.528920188546180725e-02 2.441065758466720581e-02 -6.346135586500167847e-02 1.627507656812667847e-01 6.663349457085132599e-03 1.157033070921897888e-01 4.902653768658638000e-02 2.825295552611351013e-02 -9.009649604558944702e-02 -4.315526783466339111e-02 -1.888293772935867310e-02 1.690502166748046875e-01 1.768748313188552856e-01 2.699929848313331604e-02 -2.154194377362728119e-02 -1.223240233957767487e-02 1.485506892204284668e-01 -8.687268197536468506e-02 -3.303439915180206299e-02 6.666582077741622925e-02
2.205934226512908936e-01 -5.867829546332359314e-02 1.888239085674285889e-01 -7.182749360799789429e-02 -4.493049532175064087e-02 1.579135805368423462e-01 2.518974652048200369e-04 -8.460474200546741486e-03 1.480811461806297302e-02 -7.486000657081604004e-03 -4.087301716208457947e-02 -3.138484060764312744e-02 1.063550487160682678e-01 -1.413483321666717529e-01 4.480583593249320984e-02 1.188911050558090210e-01 -6.652937084436416626e-02 -1.774561703205108643e-01 1.125737056136131287e-01 5.489830672740936279e-02 4.699034616351127625e-02 1.373081803321838379e-01 3.155972436070442200e-02 -1.605176776647567749e-01 -2.050018170848488808e-03 -1.547166556119918823e-01 1.109638437628746033e-01 -6.028309836983680725e-02 3.806840255856513977e-02 -3.977148234844207764e-02 -2.296630293130874634e-02 6.904368847608566284e-02 8.117381483316421509e-02 -3.736092895269393921e-02 -4.171517863869667053e-02 3.561152890324592590e-02 -6.076740100979804993e-02 -1.588457375764846802e-01 1.799936443567276001e-01 4.040883854031562805e-02 1.140496656298637390e-01 1.376775503158569336e-01 1.653864979743957520e-01 -9.887477010488510132e-02 -2.347394078969955444e-02 -7.615849375724792480e-02 1.223542466759681702e-01 1.356758624315261841e-01 -5.454001575708389282e-02 6.496945768594741821e-02 -6.617691367864608765e-02 1.099723950028419495e-01 2.907963842153549194e-02 -2.957331389188766479e-02 1.169321127235889435e-02 -5.046280473470687866e-02 2.246197760105133057e-01 -4.132660105824470520e-02 -2.040461637079715729e-02
4.053532704710960388e-02 1.833495646715164185e-01 2.579024732112884521e-01 -1.924431882798671722e-02 1.851895749568939209e-01 -9.621145203709602356e-03 -1.360413283109664917e-01 1.012975443154573441e-02 1.584493741393089294e-02 -3.956919908523559570e-02 2.421278692781925201e-02 7.080417871475219727e-02 -7.822167873382568359e-02 -1.365860402584075928e-01 -1.879371516406536102e-02 1.530971657484769821e-02 -1.940362155437469482e-02 -1.560779064893722534e-01 -6.500950548797845840e-04 -6.732589751482009888e-02 4.754205420613288879e-02 -2.178864786401391029e-03 4.213336855173110962e-02 -1.752739697694778442e-01 6.297820061445236206e-02 3.499764204025268555e-02 3.201523795723915100e-02 -9.435856342315673828e-02 -1.626296043395996094e-01 -1.120335385203361511e-01 5.118124932050704956e-02 9.632134437561035156e-02 -2.096217684447765350e-02 -5.641989409923553467e-02 3.902120515704154968e-02 5.152587220072746277e-02 -1.698137372732162476e-01 -8.895788341760635376e-02 3.055178374052047729e-02 -4.697281122207641602e-02 4.689370468258857727e-02 -2.268202789127826691e-02 -1.535601466894149780e-01 9.303605556488037109e-02 -2.141441218554973602e-02 -5.804661661386489868e-02 -2.560795657336711884e-02 -1.342201884835958481e-02 3.050489537417888641e-02 2.686792425811290741e-02 7.004902232438325882e-03 1.325949430465698242e-01 5.136106908321380615e-02 4.011308029294013977e-02 -1.909664273262023926e-01 1.472062915563583374e-01 3.618469834327697754e-02 3.709282353520393372e-02 -1.342065781354904175e-01
4.271662235260009766e-02 6.188402418047189713e-03 -5.258774012327194214e-02 -5.145183950662612915e-02 1.620659083127975464e-01 5.761710461229085922e-03 1.426149010658264160e-01 -1.000540554523468018e-01 -1.440363079309463501e-01 1.027694270014762878e-01 4.950258508324623108e-02 -9.747976809740066528e-02 -5.494097620248794556e-02 -6.629444658756256104e-02 2.535494565963745117e-01 8.628240972757339478e-02 1.230960059911012650e-02 -4.603129252791404724e-02 -4.840716719627380371e-02 1.248943209648132324e-01 -5.870665609836578369e-02 -5.639825761318206787e-02 2.114876173436641693e-02 2.746257744729518890e-02 -6.766574829816818237e-02 -1.862324029207229614e-02 1.520559284836053848e-02 4.670887440443038940e-02 -1.089874655008316040e-03 3.436370566487312317e-02 -1.606705598533153534e-02 1.012660935521125793e-02 1.026544719934463501e-01 -3.367973864078521729e-02 -6.290391832590103149e-02 8.563692867755889893e-02 -1.720124036073684692e-01 1.850621402263641357e-02 -5.817586928606033325e-02 3.498674184083938599e-02 4.535695910453796387e-02 1.066111624240875244e-01 4.400562122464179993e-02 -8.309292048215866089e-02 5.618230625987052917e-02 -4.501736722886562347e-03 -1.532453577965497971e-02 -3.320182859897613525e-02 -8.296988904476165771e-02 -2.101819217205047607e-02 -4.428919404745101929e-02 -1.104590520262718201e-01 3.293274715542793274e-02 -1.918670982122421265e-01 8.009013533592224121e-02 1.225843653082847595e-01 8.843553252518177032e-03 5.423378199338912964e-02 9.354082494974136353e-02
5.074750259518623352e-02 8.796525001525878906e-02 6.674611568450927734e-02 1.611306071281433105e-01 -1.038880199193954468e-01 9.785277396440505981e-02 -1.136934086680412292e-01 1.205887272953987122e-01 -8.292672038078308105e-02 1.072301268577575684e-01 3.285062611103057861e-01 -9.967447817325592041e-02 3.298764675855636597e-02 9.428653866052627563e-02 -2.682825364172458649e-02 9.220080077648162842e-02 8.322376757860183716e-02 -4.023992270231246948e-02 -2.687291800975799561e-02 -2.453457750380039215e-02 2.657790668308734894e-02 -5.043533071875572205e-02 1.589064672589302063e-02 -5.246978253126144409e-02 -2.742609940469264984e-03 3.272498771548271179e-02 -3.374651819467544556e-02 -9.433067589998245239e-02 7.165393978357315063e-02 -6.599064916372299194e-02 5.787419527769088745e-02 -1.592400670051574707e-01 -7.950789481401443481e-02 -9.384229034185409546e-02 -8.830004185438156128e-02 1.840759515762329102e-01 1.201300397515296936e-01 -9.287606924772262573e-02 3.638216853141784668e-02 1.639482825994491577e-01 1.128117367625236511e-02 -2.662827260792255402e-02 -2.993805892765522003e-02 -5.844808742403984070e-02 -1.070321425795555115e-01 3.653062880039215088e-02 3.761807829141616821e-02 -1.138807311654090881e-01 1.810670085251331329e-02 5.450235307216644287e-02 6.162259727716445923e-02 -1.645979583263397217e-01 4.651601985096931458e-02 2.166563831269741058e-02 -1.551887672394514084e-02 7.446032017469406128e-02 2.161653339862823486e-02 -2.142838835716247559e-01 -2.623904496431350708e-02
2.012843079864978790e-02 1.760467328131198883e-02 2.667820267379283905e-02 4.582083970308303833e-02 -1.416846513748168945e-01 4.945218563079833984e-02 -2.031609229743480682e-02 4.722616076469421387e-02 5.176046490669250488e-02 -7.243332918733358383e-03 -1.173262521624565125e-01 -2.023503184318542480e-02 -1.517993807792663574e-01 1.108703985810279846e-01 1.942953616380691528e-01 -3.727962449193000793e-02 -4.112534970045089722e-02 -8.023136109113693237e-02 1.395732313394546509e-01 -4.404659196734428406e-02 9.702525287866592407e-02 4.137673601508140564e-02 4.830307886004447937e-02 1.912250816822052002e-01 -1.597367525100708008e-01 9.192254394292831421e-02 3.524909168481826782e-02 4.955947026610374451e-02 -4.836492240428924561e-02 2.625355124473571777e-02 1.911451071500778198e-01 1.370761990547180176e-01 5.639353767037391663e-02 1.174546480178833008e-01 -9.728863090276718140e-02 -4.176617786288261414e-02 3.332361951470375061e-02 -4.491373896598815918e-02 2.572874724864959717e-02 4.646228253841400146e-02 4.766641929745674133e-02 -2.013336271047592163e-01 -1.598698645830154419e-01 5.586522072553634644e-02 9.402158670127391815e-03 -9.669523686170578003e-02 -5.145101342350244522e-03 1.429273635149002075e-01 -2.549819946289062500e-01 -7.122486829757690430e-02 -2.668622508645057678e-02 1.109263822436332703e-01 4.960290715098381042e-02 -2.872090972959995270e-02 -1.174577251076698303e-01 -6.633306294679641724e-02 9.314562194049358368e-03 1.285721510648727417e-01 -1.291991770267486572e-01
-7.481242716312408447e-02 1.083434969186782837e-01 2.707871496677398682e-01 6.747562438249588013e-02 3.587770462036132812e-02 -1.035586651414632797e-02 -1.011212989687919617e-01 -4.944325983524322510e-02 1.061581820249557495e-01 -7.123611867427825928e-02 9.412381052970886230e-02 -8.465792983770370483e-03 7.126406580209732056e-02 2.430646121501922607e-01 -5.922964960336685181e-02 6.986043602228164673e-02 1.156466752290725708e-01 -1.692669540643692017e-01 3.724980354309082031e-02 -8.084327727556228638e-02 -3.168200491927564144e-04 2.548633813858032227e-01 -1.023327931761741638e-01 3.393201902508735657e-02 -6.761142611503601074e-02 6.057345494627952576e-02 1.349807679653167725e-01 2.234900183975696564e-02 2.051844596862792969e-01 -1.066875159740447998e-01 -3.085128776729106903e-02 8.719387464225292206e-03 5.737904831767082214e-02 -2.373404949903488159e-01 -1.264828890562057495e-01 -1.253589428961277008e-02 1.456887740641832352e-02 7.668434828519821167e-02 -1.010211743414402008e-02 6.629928946495056152e-02 -1.267568618059158325e-01 -1.186604946851730347e-01 -1.021600216627120972e-01 -6.047092005610466003e-02 -1.492750179022550583e-02 2.749935537576675415e-02 -1.485883146524429321e-01 -4.406385496258735657e-02 -1.941802352666854858e-01 -8.138311654329299927e-02 -3.686682879924774170e-02 2.230270579457283020e-02 -3.399489447474479675e-02 -1.208234671503305435e-02 -2.299988456070423126e-02 2.741997502744197845e-02 -4.365446045994758606e-02 1.401205807924270630e-01 7.686729729175567627e-02
-1.030500978231430054e-01 7.085580378770828247e-02 1.136027649044990540e-01 -1.451157927513122559e-01 2.795508801937103271e-01 -8.016851730644702911e-03 7.960953563451766968e-02 -1.864320784807205200e-01 1.036512330174446106e-01 -1.244754344224929810e-01 1.308992207050323486e-01 1.896685548126697540e-02 4.841927438974380493e-02 1.070498824119567871e-01 1.310405880212783813e-01 7.591196149587631226e-02 -1.168693527579307556e-01 1.543720066547393799e-01 -2.815326675772666931e-03 -5.181722715497016907e-02 5.244148522615432739e-02 2.790784649550914764e-02 7.935080677270889282e-02 5.478708073496818542e-03 3.920216858386993408e-02 -1.302227228879928589e-01 8.880203962326049805e-02 2.615848928689956665e-02 1.048013269901275635e-01 -9.749658405780792236e-02 -8.502325043082237244e-03 5.003052949905395508e-02 -9.790189564228057861e-02 1.005545109510421753e-01 1.372905224561691284e-01 -1.949573159217834473e-01 -6.466839462518692017e-02 1.241658069193363190e-02 1.110410317778587341e-01 2.050501108169555664e-02 -9.159067273139953613e-02 -4.917794838547706604e-02 -4.712013155221939087e-02 -5.536617338657379150e-02 -8.742718398571014404e-02 5.646133795380592346e-02 -4.686047881841659546e-02 6.343524903059005737e-02 -1.046100780367851257e-01 7.845823466777801514e-02 -1.239674724638462067e-02 -2.188921673223376274e-03 -1.869611144065856934e-01 2.602502331137657166e-02 4.533028230071067810e-02 -4.973309859633445740e-02 -3.029205091297626495e-02 1.637473106384277344e-01 -2.153012156486511230e-02
1.142702251672744751e-01 3.146942332386970520e-02 -5.350648611783981323e-02 -2.703009732067584991e-02 9.476653486490249634e-02 1.140353381633758545e-01 4.267614334821701050e-02 8.973634243011474609e-02 5.317901377566158772e-04 -1.071601733565330505e-02 -7.996108382940292358e-02 1.361005567014217377e-02 -1.979101747274398804e-01 -5.262709408998489380e-02 7.874413579702377319e-02 -6.836785376071929932e-02 9.359186887741088867e-02 -6.748590618371963501e-02 -6.802698969841003418e-02 9.403652697801589966e-02 -1.626081615686416626e-01 7.742951810359954834e-02 1.647079288959503174e-01 6.424526870250701904e-02 8.290503174066543579e-02 5.496078729629516602e-02 1.950792968273162842e-02 -8.157628029584884644e-02 7.258161157369613647e-02 -1.533814370632171631e-01 -5.695236101746559143e-02 1.865379959344863892e-01 -1.084020808339118958e-01 -6.808269023895263672e-02 -4.741673544049263000e-02 -3.944364725612103939e-04 -1.116918250918388367e-01 -7.211547344923019409e-02 -1.003325805068016052e-01 8.528254181146621704e-02 1.149338260293006897e-01 2.074757963418960571e-01 -1.749597936868667603e-01 1.002275347709655762e-01 -1.438452024012804031e-02 -1.253831572830677032e-02 -2.191664837300777435e-02 -1.029955372214317322e-01 -1.234790533781051636e-01 6.292264908552169800e-02 7.669919729232788086e-02 -2.265995182096958160e-02 1.350051015615463257e-01 1.509311944246292114e-01 9.727060049772262573e-02 4.719704017043113708e-02 -3.013717755675315857e-02 9.083620458841323853e-02 1.990890949964523315e-01
8.440479636192321777e-02 8.625603467226028442e-02 -1.918458044528961182e-01 9.349711984395980835e-02 -4.654589295387268066e-02 -1.590052098035812378e-01 -1.735351681709289551e-01 6.595452874898910522e-02 -2.063111513853073120e-01 -8.107988536357879639e-02 8.814934408292174339e-04 -4.971574246883392334e-02 -7.934969663619995117e-02 2.539747767150402069e-02 -3.450547903776168823e-02 3.364153206348419189e-02 -5.230498313903808594e-02 7.201535254716873169e-02 6.532430648803710938e-02 2.515158616006374359e-02 -4.751634970307350159e-02 -4.634014517068862915e-02 3.279054537415504456e-02 -7.322183251380920410e-02 -2.360018715262413025e-02 -1.451706737279891968e-01 6.581189483404159546e-02 7.105168700218200684e-02 1.384380012750625610e-01 2.618176676332950592e-02 1.232324540615081787e-01 -2.221983373165130615e-01 -9.507153928279876709e-02 -4.097630735486745834e-03 -1.158954873681068420e-01 2.016783133149147034e-02 1.268401145935058594e-01 3.442506492137908936e-02 3.141593653708696365e-03 9.046840667724609375e-02 -1.142727062106132507e-01 -5.399293452501296997e-02 -2.220815569162368774e-01 -5.721445754170417786e-02 3.215681016445159912e-02 -5.960032343864440918e-02 -7.389398664236068726e-02 -9.064518660306930542e-02 1.405500322580337524e-01 4.344012960791587830e-02 1.196511387825012207e-01 -1.075709313154220581e-01 8.351598680019378662e-02 1.305572837591171265e-01 -6.252743303775787354e-02 1.687336154282093048e-02 -1.190106794238090515e-01 5.990094970911741257e-03 2.645578607916831970e-02
1.071599647402763367e-01 1.278237402439117432e-01 1.785640418529510498e-01 1.316893249750137329e-01 6.721669808030128479e-03 4.783834889531135559e-02 9.640996903181076050e-02 -5.125100538134574890e-02 9.308101236820220947e-02 1.855126172304153442e-01 -1.523085683584213257e-01 -5.352966487407684326e-02 -3.177320177201181650e-04 -1.266754567623138428e-01 8.487696945667266846e-02 6.048477254807949066e-03 8.365588635206222534e-02 -2.872278681024909019e-03 9.052626788616180420e-02 -2.230958491563796997e-01 -2.251909375190734863e-01 -3.136072680354118347e-02 1.325126923620700836e-02 -5.498368293046951294e-02 -1.213810294866561890e-01 -2.032506167888641357e-01 1.378156393766403198e-01 3.995732218027114868e-02 -5.185749754309654236e-02 1.034513339400291443e-01 3.645156696438789368e-02 8.792487904429435730e-03 -1.191318184137344360e-01 -1.273339986801147461e-01 -6.896393746137619019e-02 -2.537778206169605255e-02 -6.631606072187423706e-02 -9.813825041055679321e-02 1.422131955623626709e-01 7.853534817695617676e-02 -1.263942569494247437e-01 -7.419387251138687134e-02 -2.302995175123214722e-01 4.526405408978462219e-02 -4.184514656662940979e-02 2.676787786185741425e-02 -6.418048590421676636e-02 -1.357456892728805542e-01 -2.059232592582702637e-01 -4.648380354046821594e-02 -4.239673539996147156e-02 -9.645612537860870361e-02 4.890044406056404114e-02 1.563486009836196899e-01 -5.606671422719955444e-02 -4.103258624672889709e-02 -1.517961472272872925e-01 -3.276385366916656494e-02 -3.719382733106613159e-02
-7.871326804161071777e-02 -1.011044718325138092e-02 4.283436760306358337e-02 7.273501902818679810e-02 4.923603497445583344e-03 -7.697482407093048096e-02 -6.259025633335113525e-02 -5.823263525962829590e-02 5.261244252324104309e-02 1.177216619253158569e-01 8.332988619804382324e-02 7.922944426536560059e-02 2.678118087351322174e-02 -2.434954978525638580e-02 -1.406382471323013306e-01 1.866482198238372803e-01 4.040984064340591431e-02 -1.094060018658638000e-02 -6.199749931693077087e-02 -1.992940008640289307e-01 -1.174229383468627930e-01 -2.476311055943369865e-04 -9.610523120500147343e-04 -5.567114055156707764e-02 -6.111576035618782043e-02 1.658237725496292114e-01 -9.233088046312332153e-02 9.391921758651733398e-02 2.626940421760082245e-02 1.816765815019607544e-01 9.056064486503601074e-02 7.363371551036834717e-02 -1.051783263683319092e-01 3.673150762915611267e-02 2.423041015863418579e-01 -1.290328204631805420e-01 1.280717253684997559e-01 6.129251420497894287e-02 -1.474782973527908325e-01 -8.113648742437362671e-02 1.551139075309038162e-02 5.942437564954161644e-04 1.582789607346057892e-02 5.743766203522682190e-02 -4.826396331191062927e-02 9.415867924690246582e-02 1.256774645298719406e-03 3.989672288298606873e-02 -1.175775900483131409e-01 -1.060292646288871765e-01 5.689515918493270874e-02 -6.249240040779113770e-02 -1.455668453127145767e-02 6.774652749300003052e-03 -8.047375828027725220e-03 1.971308887004852295e-01 -4.863384366035461426e-02 -1.413882076740264893e-01 -4.881340079009532928e-03
5.712148174643516541e-02 3.697234392166137695e-02 -6.067514047026634216e-02 3.518463345244526863e-03 4.492752999067306519e-02 1.202084217220544815e-02 -1.496520340442657471e-01 1.730808466672897339e-01 -6.671740557067096233e-04 -3.584764525294303894e-02 1.159484777599573135e-02 5.746704712510108948e-02 2.338120713829994202e-03 -1.134567558765411377e-01 -7.223401963710784912e-02 7.708474993705749512e-02 -7.346653193235397339e-02 5.047318409197032452e-04 9.394270926713943481e-02 8.351052179932594299e-03 5.759275332093238831e-02 1.089256033301353455e-01 1.463410854339599609e-01 1.203835383057594299e-01 4.721061885356903076e-02 2.868858352303504944e-02 4.684763029217720032e-02 -8.838862180709838867e-02 -1.558489948511123657e-01 -1.194796636700630188e-01 1.811724752187728882e-01 1.125165596604347229e-01 1.967633515596389771e-02 1.024872213602066040e-01 7.373218238353729248e-02 8.573962002992630005e-02 1.014568842947483063e-02 -1.144715175032615662e-01 -1.549768447875976562e-01 -1.684814132750034332e-02 2.032004110515117645e-02 1.394865065813064575e-01 -3.927112370729446411e-02 -1.172400042414665222e-01 7.295578718185424805e-03 -8.705268846824765205e-04 -5.423093587160110474e-02 -1.681647151708602905e-01 4.200570285320281982e-02 -1.195015758275985718e-01 -5.667638499289751053e-03 2.087126672267913818e-01 2.436545491218566895e-02 -3.282772377133369446e-02 -6.687702238559722900e-02 1.285891234874725342e-01 2.029499411582946777e-02 4.236889630556106567e-02 5.713285505771636963e-02
-9.977310895919799805e-02 -2.662949636578559875e-02 2.167186513543128967e-02 1.422909796237945557e-01 -3.499688953161239624e-02 -2.121702767908573151e-02 7.088525593280792236e-02 -9.583960287272930145e-03 -5.845328792929649353e-02 1.741963997483253479e-02 -4.667703062295913696e-02 3.100333735346794128e-02 -6.392182409763336182e-02 1.694832295179367065e-01 -1.267380118370056152e-01 9.675430506467819214e-02 4.758983477950096130e-02 -9.805734455585479736e-02 -7.505973428487777710e-02 -4.238176718354225159e-02 1.080819889903068542e-01 -5.842737853527069092e-02 -1.414240300655364990e-01 -5.035653337836265564e-02 3.443625941872596741e-02 3.624751046299934387e-02 2.050758898258209229e-01 -2.195696234703063965e-01 -1.161375492811203003e-01 -7.633258402347564697e-02 5.127476528286933899e-02 7.758121937513351440e-02 1.540742516517639160e-01 4.407496750354766846e-02 3.046657517552375793e-02 -6.216950714588165283e-03 3.786566480994224548e-02 1.155844405293464661e-01 5.693843960762023926e-02 -1.815563067793846130e-02 -7.587364315986633301e-02 5.334826186299324036e-02 -2.841201797127723694e-02 6.732854992151260376e-02 -2.127640135586261749e-02 -3.609945625066757202e-02 2.118618786334991455e-02 1.417707055807113647e-01 1.508882194757461548e-01 -1.339038554579019547e-02 -1.099722832441329956e-01 7.296635303646326065e-03 6.769967079162597656e-02 -2.160135656595230103e-02 7.039185613393783569e-02 2.045849710702896118e-02 -1.453766673803329468e-01 9.057024866342544556e-02 5.384099110960960388e-02
-1.795659959316253662e-02 -1.493589580059051514e-01 3.916107118129730225e-02 -5.524875596165657043e-02 -4.101841896772384644e-02 -1.518318336457014084e-02 1.179139316082000732e-01 3.304795175790786743e-02 3.882913151755928993e-04 1.878178417682647705e-01 3.751309961080551147e-02 -1.046511456370353699e-01 1.680756658315658569e-01 1.016057878732681274e-01 -2.148203924298286438e-02 -1.297711282968521118e-01 -2.137457206845283508e-02 -9.381440281867980957e-02 9.441515803337097168e-02 -1.327716652303934097e-02 9.568029642105102539e-02 2.390360832214355469e-02 -1.092026233673095703e-01 -3.800268098711967468e-02 8.390945941209793091e-02 4.071264341473579407e-02 -4.683546349406242371e-02 -1.040210723876953125e-01 -3.245252370834350586e-02 -5.994693562388420105e-02 -5.038050934672355652e-02 -8.207234204746782780e-04 5.746750161051750183e-03 1.637228280305862427e-01 1.210114136338233948e-01 1.759203895926475525e-02 1.594617404043674469e-02 2.493889443576335907e-02 -5.350854620337486267e-02 8.486907929182052612e-02 -3.513458371162414551e-02 2.275994606316089630e-02 -1.362801939249038696e-01 -1.208464987576007843e-02 -1.765867881476879120e-02 9.996521472930908203e-02 4.372135549783706665e-02 8.297012746334075928e-02 8.421328850090503693e-03 -7.478209584951400757e-02 3.043640777468681335e-02 -3.287943545728921890e-03 -1.390341669321060181e-01 1.430553644895553589e-01 1.906728744506835938e-01 1.062544155865907669e-02 5.298718810081481934e-02 1.026509627699851990e-01 9.161444008350372314e-02
5.929190665483474731e-02 -1.024100705981254578e-01 1.654143780469894409e-01 1.076343818567693233e-03 1.300477087497711182e-01 1.172119453549385071e-01 4.363224282860755920e-02 -1.258597522974014282e-02 1.758492439985275269e-01 1.097574178129434586e-02 -6.825986504554748535e-02 7.466053962707519531e-02 -6.655582040548324585e-02 -7.641880214214324951e-02 -1.215065643191337585e-01 3.396322205662727356e-02 3.729935735464096069e-03 1.278913170099258423e-01 -1.186829432845115662e-01 -4.357169568538665771e-02 -6.244297605007886887e-03 1.387905478477478027e-01 -1.838767342269420624e-02 -2.757588960230350494e-02 -2.426548628136515617e-03 -5.976182222366333008e-02 -1.392248570919036865e-01 3.317542374134063721e-02 -1.291374489665031433e-02 -3.900083154439926147e-02 5.734546855092048645e-02 5.791483819484710693e-02 -1.902053877711296082e-02 -1.274961084127426147e-01 1.550999134778976440e-01 9.260834008455276489e-02 -1.578634139150381088e-03 8.129929751157760620e-02 -1.710643619298934937e-02 1.241315379738807678e-01 5.960610881447792053e-02 -4.654707759618759155e-02 1.274299770593643188e-01 2.330499514937400818e-02 -1.421978920698165894e-01 8.068353869020938873e-03 2.732793986797332764e-02 -9.107976406812667847e-02 -9.646675735712051392e-02 1.721583306789398193e-02 -1.516884714365005493e-01 -7.586089521646499634e-02 -1.515613943338394165e-01 1.987299136817455292e-02 -2.300716377794742584e-02 -7.277569174766540527e-02 5.575656145811080933e-02 -1.047667711973190308e-01 3.154668584465980530e-02
6.387416273355484009e-02 1.012586280703544617e-01 2.329551242291927338e-02 1.144290640950202942e-01 1.270616352558135986e-01 -8.579026162624359131e-02 1.092242747545242310e-01 -5.050918087363243103e-02 1.820533573627471924e-01 4.890704527497291565e-03 -5.940021201968193054e-02 -5.830107256770133972e-03 5.900550261139869690e-02 -1.467768847942352295e-01 -1.532176434993743896e-01 -7.519314438104629517e-02 -1.204763054847717285e-01 6.763008236885070801e-02 1.310942322015762329e-01 1.451358646154403687e-01 -6.883689761161804199e-02 -5.225943028926849365e-02 -3.615877032279968262e-02 -7.300954312086105347e-02 7.509659230709075928e-02 -2.376967296004295349e-02 -7.510478142648935318e-03 9.676771610975265503e-02 -1.040487140417098999e-01 1.136718913912773132e-01 1.354651302099227905e-01 -6.986836344003677368e-02 2.410783916711807251e-01 -1.675616204738616943e-01 -6.664773449301719666e-03 -7.876634597778320312e-02 1.084095984697341919e-02 1.558882892131805420e-01 -1.411416009068489075e-02 1.859288960695266724e-01 4.735485091805458069e-02 5.662393569946289062e-02 -1.015541926026344299e-01 5.556442588567733765e-02 -4.728117212653160095e-02 -4.365034028887748718e-02 -3.927113488316535950e-02 -1.896316744387149811e-02 1.442465838044881821e-02 -8.991966396570205688e-02 1.017865762114524841e-01 -5.571748688817024231e-02 3.812062088400125504e-03 -3.040609881281852722e-02 -1.136346254497766495e-03 -1.973942108452320099e-02 4.886299744248390198e-02 1.954787522554397583e-01 -8.730311691761016846e-02
-1.500494778156280518e-01 1.149479150772094727e-01 -2.691017389297485352e-01 -6.429126858711242676e-02 -1.487990319728851318e-01 -3.553330153226852417e-02 7.643895596265792847e-02 -9.893006086349487305e-02 1.119145303964614868e-01 -6.313504278659820557e-02 1.525394525378942490e-02 -2.062580920755863190e-02 -2.327134087681770325e-02 -2.274651452898979187e-02 -1.031318455934524536e-01 -4.162211716175079346e-02 1.072078794240951538e-01 -2.745655737817287445e-02 1.115722954273223877e-01 5.719605833292007446e-02 1.522876173257827759e-01 6.630363315343856812e-02 7.358919829130172729e-02 3.165991278365254402e-03 5.395827442407608032e-02 4.573053494095802307e-02 2.507423283532261848e-03 -1.079967394471168518e-01 -3.081319481134414673e-02 1.388265639543533325e-01 9.953205473721027374e-03 -1.926532685756683350e-01 1.170842498540878296e-01 8.600844442844390869e-02 1.656016334891319275e-02 9.044701606035232544e-02 -1.806952804327011108e-01 -1.014995202422142029e-01 -4.382640868425369263e-02 -6.749858707189559937e-02 1.335728615522384644e-01 -2.687002718448638916e-02 3.134823217988014221e-02 6.713973730802536011e-02 3.719089180231094360e-02 -1.013411581516265869e-01 -7.901322096586227417e-02 5.045903846621513367e-02 5.623406614176928997e-04 3.563342615962028503e-02 -7.009284198284149170e-02 -8.932953327894210815e-02 9.255389869213104248e-02 1.264640688896179199e-01 -4.397541284561157227e-02 7.639933377504348755e-02 -1.361698657274246216e-01 1.804001033306121826e-01 3.287016600370407104e-02
3.752059862017631531e-02 2.822533017024397850e-03 -5.143480002880096436e-02 -1.710440218448638916e-02 -5.731824040412902832e-02 -1.037594676017761230e-01 -1.648617982864379883e-01 -1.490826755762100220e-01 6.600176542997360229e-02 -2.692192234098911285e-02 1.320637911558151245e-01 2.013491094112396240e-02 -1.125023420900106430e-02 -2.637099623680114746e-01 -8.146040886640548706e-02 -1.732145696878433228e-01 4.732617363333702087e-02 4.135327041149139404e-02 7.702570408582687378e-02 -1.621444821357727051e-01 8.421458303928375244e-02 -1.046454086899757385e-01 -1.522513013333082199e-02 -2.473260089755058289e-02 7.403144985437393188e-02 9.798532724380493164e-02 -1.281286180019378662e-01 1.294037848711013794e-01 -4.221633449196815491e-02 9.635455161333084106e-02 4.772216081619262695e-02 9.090161323547363281e-02 -7.762226462364196777e-02 6.617338862270116806e-03 -5.072564259171485901e-02 -3.525729477405548096e-02 -6.930818408727645874e-02 1.213997974991798401e-01 -7.694757729768753052e-02 -2.849596366286277771e-02 -3.795729205012321472e-02 5.309239029884338379e-02 -1.906888000667095184e-02 -1.026182770729064941e-01 6.287068594247102737e-03 1.795733869075775146e-01 1.253651175647974014e-02 -3.188931196928024292e-02 -8.528777211904525757e-02 1.587030738592147827e-01 -2.868084236979484558e-02 -7.365871220827102661e-02 7.935588806867599487e-02 -1.299281511455774307e-02 -1.967393606901168823e-02 -7.279673218727111816e-02 8.223420381546020508e-02 1.719321161508560181e-01 -5.238923057913780212e-02
1.903995685279369354e-02 -5.313426256179809570e-02 -1.204722970724105835e-01 8.988226950168609619e-02 -1.320792883634567261e-01 -1.653356291353702545e-02 -4.128893464803695679e-02 -1.760029643774032593e-01 4.744822904467582703e-02 -1.826930232346057892e-02 -6.179854273796081543e-02 7.742468267679214478e-02 7.692762464284896851e-02 -3.448170796036720276e-02 8.687627315521240234e-02 1.660459637641906738e-01 1.225521191954612732e-01 2.863625437021255493e-02 -1.062818150967359543e-02 -4.268096014857292175e-02 1.359143257141113281e-01 5.495740473270416260e-02 5.757804960012435913e-02 -6.327746063470840454e-02 2.257475554943084717e-01 2.258659526705741882e-02 -1.252256035804748535e-01 -6.416539102792739868e-02 2.217009216547012329e-01 3.757195919752120972e-02 1.376197487115859985e-01 -1.518424600362777710e-01 -4.034582152962684631e-02 -1.652535982429981232e-02 -4.997306317090988159e-02 8.906905539333820343e-03 -4.890944063663482666e-02 7.501353323459625244e-02 -1.289082914590835571e-01 3.941562958061695099e-03 -1.440804153680801392e-01 -7.219883054494857788e-02 -1.832467019557952881e-01 6.430874764919281006e-02 1.310202628374099731e-01 -1.233550012111663818e-01 -2.968887984752655029e-02 -1.053841505199670792e-02 1.362862139940261841e-01 1.243540793657302856e-01 1.132411789149045944e-02 3.343595191836357117e-02 8.184186369180679321e-02 -8.160126954317092896e-02 -3.967346996068954468e-02 -7.609809935092926025e-02 -7.091825455427169800e-02 6.166510749608278275e-03 -6.021162122488021851e-02
-9.514977037906646729e-02 -6.012481078505516052e-02 4.364193417131900787e-03 -1.091615408658981323e-01 -7.949052006006240845e-02 -1.272448599338531494e-01 3.974357992410659790e-02 -2.374510467052459717e-02 -6.309122778475284576e-03 5.639824643731117249e-02 -3.463792800903320312e-02 2.525840699672698975e-01 5.819708108901977539e-02 8.744411915540695190e-02 1.289563626050949097e-01 -1.941780932247638702e-02 -4.512073099613189697e-02 -1.292874962091445923e-01 -1.525775343179702759e-01 6.984170526266098022e-02 -4.390533082187175751e-03 5.035208165645599365e-02 8.537474274635314941e-02 1.573872119188308716e-01 5.191270262002944946e-03 -3.670964390039443970e-02 -9.442308545112609863e-02 -1.421631723642349243e-01 -2.455909997224807739e-01 -1.215114891529083252e-01 3.540613033692352474e-05 1.841385662555694580e-02 -8.717983961105346680e-02 -1.786398328840732574e-02 7.048450410366058350e-02 1.903533041477203369e-01 -7.622145861387252808e-02 8.579901419579982758e-03 -7.683732360601425171e-02 8.113465271890163422e-03 1.168322414159774780e-01 1.242896020412445068e-01 -1.168987229466438293e-01 -2.721729874610900879e-02 -6.668029725551605225e-02 -4.337723553180694580e-02 4.417958110570907593e-02 -1.887105554342269897e-01 -7.508422248065471649e-03 -6.702480465173721313e-02 -1.282756626605987549e-01 -5.580486357212066650e-02 9.816864877939224243e-02 -7.443749159574508667e-02 4.121487960219383240e-02 -5.878067389130592346e-02 1.755800843238830566e-02 -1.217911988496780396e-01 -6.518637388944625854e-02
-7.045238465070724487e-02 -3.569436073303222656e-02 -2.186177372932434082e-01 9.853076189756393433e-02 1.402648836374282837e-01 -4.954929649829864502e-02 5.452385544776916504e-02 5.336112901568412781e-02 5.068346858024597168e-02 -1.177279651165008545e-01 7.178345322608947754e-02 2.292644679546356201e-01 -1.368237882852554321e-01 9.131374210119247437e-02 -2.296735160052776337e-02 -1.016599908471107483e-01 7.606204599142074585e-02 -1.322118639945983887e-01 -1.565435528755187988e-02 -5.413120239973068237e-02 -2.670956589281558990e-02 2.744417265057563782e-02 -2.746322005987167358e-02 -1.640404909849166870e-01 -7.456030696630477905e-02 -6.596105545759201050e-02 1.946918107569217682e-02 6.053635105490684509e-02 1.863135397434234619e-01 3.195798769593238831e-02 1.222653612494468689e-01 -5.293319374322891235e-02 -1.264727395027875900e-02 -1.908519864082336426e-02 -5.223585292696952820e-02 1.413801908493041992e-01 1.178709119558334351e-01 1.281565576791763306e-01 1.805956847965717316e-02 7.594036310911178589e-02 1.011926159262657166e-01 -1.187176331877708435e-01 -5.437706783413887024e-02 -8.935558609664440155e-03 2.480470687150955200e-01 4.113503172993659973e-02 1.121029704809188843e-01 2.458127960562705994e-02 1.867973357439041138e-01 1.464133616536855698e-02 2.384577691555023193e-02 3.560818266123533249e-03 -1.165774017572402954e-01 -8.473407477140426636e-02 8.532159775495529175e-02 1.081708371639251709e-01 2.833741158246994019e-02 1.106958240270614624e-01 -6.656340509653091431e-02
-5.627531558275222778e-03 -2.848087623715400696e-02 1.246852427721023560e-02 7.816012203693389893e-02 1.310708075761795044e-01 1.847330480813980103e-01 -2.784933522343635559e-02 -9.758318960666656494e-02 1.115895062685012817e-01 2.038218826055526733e-02 1.004243865609169006e-01 -3.906208276748657227e-02 3.476306796073913574e-02 1.913681626319885254e-01 -1.787640303373336792e-01 4.250470548868179321e-02 4.393586888909339905e-02 -1.427362412214279175e-01 5.918624997138977051e-02 1.853524893522262573e-01 -4.370380938053131104e-02 4.909788444638252258e-02 2.506515085697174072e-01 2.054839581251144409e-01 7.876835763454437256e-02 -6.932384520769119263e-02 -2.436080276966094971e-01 -8.298336714506149292e-02 -2.658769190311431885e-01 1.462968811392784119e-02 1.848341338336467743e-02 -1.253445148468017578e-01 -1.107984781265258789e-02 3.990703076124191284e-02 -1.343538612127304077e-01 -1.217761784791946411e-01 3.608120605349540710e-02 5.815527960658073425e-02 -5.381810665130615234e-02 -1.171319000422954559e-02 -7.513431459665298462e-02 1.065165475010871887e-01 2.630764544010162354e-01 1.128251031041145325e-01 -1.103230044245719910e-01 -1.365029364824295044e-01 -4.007793962955474854e-02 -4.151456058025360107e-02 6.497669965028762817e-02 8.114777505397796631e-02 2.702721208333969116e-02 -2.060758136212825775e-02 -1.694514602422714233e-01 -3.537094220519065857e-02 -7.806389778852462769e-02 -6.440683454275131226e-02 4.002071917057037354e-02 7.402368634939193726e-02 -1.711246557533740997e-02
3.911432996392250061e-02 -2.793015912175178528e-02 9.142413735389709473e-02 -1.090273261070251465e-01 -1.159474328160285950e-01 1.583986878395080566e-01 -1.170296072959899902e-01 -5.444268882274627686e-02 -1.385003030300140381e-01 3.981197078246623278e-04 -1.065577566623687744e-01 2.566174045205116272e-02 7.204085588455200195e-02 -6.019173935055732727e-02 -1.110312412492930889e-03 -6.299446523189544678e-02 4.035576060414314270e-02 6.493630260229110718e-02 3.521169722080230713e-02 -5.738653615117073059e-02 -1.230543106794357300e-01 5.724503099918365479e-02 -9.812159091234207153e-02 -4.039629176259040833e-02 -3.673947229981422424e-02 1.451216265559196472e-02 -1.803225576877593994e-01 1.162961474619805813e-03 -2.167044728994369507e-01 -4.278263077139854431e-02 -5.479323118925094604e-02 8.415954560041427612e-02 -4.094330966472625732e-02 -2.190986089408397675e-02 -6.013067066669464111e-02 -1.143800616264343262e-01 3.350020572543144226e-02 -1.910706758499145508e-01 -4.800270497798919678e-02 2.019360661506652832e-03 1.260945349931716919e-01 1.433751583099365234e-01 -1.752039641141891479e-01 -3.331231698393821716e-02 8.358272910118103027e-02 -6.540489848703145981e-03 1.320527493953704834e-01 -9.298890084028244019e-02 1.431362181901931763e-01 1.549749821424484253e-01 1.218183934688568115e-01 -1.168332695960998535e-01 -1.575537584722042084e-02 2.773530595004558563e-02 1.373598426580429077e-01 -8.883477002382278442e-02 -3.316445276141166687e-02 1.315860152244567871e-01 4.235132038593292236e-02
-1.709936559200286865e-01 7.976628839969635010e-02 6.776197254657745361e-02 -3.382555767893791199e-02 -1.447463929653167725e-01 1.289838459342718124e-02 4.602709040045738220e-02 -3.530975058674812317e-02 1.576794683933258057e-01 -5.359376594424247742e-02 -3.486659005284309387e-02 -1.140954196453094482e-01 -9.878078475594520569e-03 -8.742376416921615601e-02 -1.665636897087097168e-01 -1.093039941042661667e-02 -7.479307800531387329e-02 -3.130526840686798096e-02 1.422338560223579407e-02 3.036421164870262146e-02 1.567285135388374329e-02 7.587259262800216675e-02 -1.232167407870292664e-01 -1.015639677643775940e-01 -4.297447204589843750e-02 2.545575797557830811e-02 5.498251691460609436e-02 -1.607966795563697815e-02 4.784087464213371277e-02 1.295355707406997681e-01 2.304841578006744385e-02 -1.166436634957790375e-02 -1.730857342481613159e-01 -2.604010514914989471e-02 -1.093842089176177979e-01 -9.436350315809249878e-02 -1.856346279382705688e-01 2.436200901865959167e-02 -8.095568418502807617e-02 8.806250989437103271e-02 5.688254907727241516e-02 1.902706176042556763e-02 -7.421114295721054077e-02 1.782054640352725983e-02 1.119368746876716614e-01 -5.935948714613914490e-02 -1.262741982936859131e-01 -5.495652556419372559e-03 1.173625513911247253e-01 2.212523818016052246e-01 -1.417215764522552490e-01 1.025570929050445557e-01 8.379387110471725464e-02 5.143858864903450012e-02 -2.319497754797339439e-03 -3.565466031432151794e-02 -2.269628085196018219e-02 -6.192281469702720642e-02 1.208011507987976074e-01
1.493664234876632690e-01 9.873546659946441650e-02 1.198055371642112732e-01 4.588939249515533447e-02 2.458185888826847076e-02 -6.805480271577835083e-02 -4.284673929214477539e-02 -6.956475973129272461e-02 -2.191049419343471527e-02 -4.035463184118270874e-02 1.573384255170822144e-01 2.228057011961936951e-02 4.753581248223781586e-03 1.050115469843149185e-02 -6.376886367797851562e-02 -4.557097330689430237e-02 -6.619898974895477295e-02 -3.498703241348266602e-02 -8.504455909132957458e-03 1.028205156326293945e-01 -1.093771774321794510e-02 1.509717293083667755e-02 -2.529549039900302887e-02 -5.246307328343391418e-02 -1.443310230970382690e-01 -1.103624999523162842e-01 4.080215469002723694e-02 -1.187382191419601440e-01 -1.773633062839508057e-02 -1.281453073024749756e-01 -1.523034870624542236e-01 7.875432819128036499e-02 2.265059016644954681e-02 -2.373727709054946899e-01 1.236636266112327576e-01 -2.231007814407348633e-02 1.478513479232788086e-01 -9.141413867473602295e-02 -1.476659439504146576e-02 -1.749633252620697021e-02 -1.728095859289169312e-01 -1.262390762567520142e-01 4.101938754320144653e-02 9.028915315866470337e-03 1.925868541002273560e-02 3.500956669449806213e-02 3.001479804515838623e-02 -1.733711920678615570e-02 -1.851831972599029541e-01 -1.659224629402160645e-01 1.399769634008407593e-01 -1.482095718383789062e-01 3.212139755487442017e-02 6.857424229383468628e-02 8.754538744688034058e-02 1.264772564172744751e-01 1.110204756259918213e-01 6.091336719691753387e-03 -5.321496352553367615e-02
3.586136735975742340e-03 9.714533388614654541e-02 -1.022633761167526245e-01 1.857727915048599243e-01 -1.409807987511157990e-02 1.522753387689590454e-02 -1.140330433845520020e-01 -6.046731141395866871e-04 -1.486179679632186890e-01 -4.018193483352661133e-02 6.246434152126312256e-02 3.458238020539283752e-02 3.897869260981678963e-03 4.037197679281234741e-02 6.202076748013496399e-02 4.990871250629425049e-02 -3.257815912365913391e-02 2.499577589333057404e-02 1.127809807658195496e-01 -8.215251564979553223e-02 -2.219878137111663818e-02 -1.537806689739227295e-01 -1.051213666796684265e-01 2.444306202232837677e-02 4.361328855156898499e-02 6.008803844451904297e-02 6.801141053438186646e-02 -4.157951101660728455e-02 -4.150912910699844360e-02 7.662303000688552856e-02 8.103118836879730225e-02 -1.463858485221862793e-01 2.259283959865570068e-01 -9.728512726724147797e-03 1.247125938534736633e-01 1.981060020625591278e-02 8.180229365825653076e-02 -8.805730938911437988e-02 -9.717631340026855469e-02 -3.337306529283523560e-02 -9.637817740440368652e-02 -4.369785636663436890e-02 8.466847240924835205e-02 -8.920430392026901245e-02 -3.103803284466266632e-02 -7.448825240135192871e-02 3.153721615672111511e-02 7.206663489341735840e-02 1.740160025656223297e-02 1.965201087296009064e-02 -9.263885207474231720e-03 -3.516995906829833984e-02 9.044244885444641113e-02 -3.012466244399547577e-02 -2.326379343867301941e-02 4.180545359849929810e-02 -4.613602906465530396e-02 1.053558140993118286e-01 1.334867812693119049e-02
7.094496488571166992e-02 1.378373503684997559e-01 -1.206326261162757874e-01 -1.111725866794586182e-01 3.962770104408264160e-02 1.705788373947143555e-01 -4.254817590117454529e-02 8.511603809893131256e-03 -8.023615926504135132e-02 2.978444099426269531e-02 2.766912057995796204e-02 6.689346581697463989e-02 -1.151937898248434067e-02 1.447212789207696915e-02 1.621220409870147705e-01 -5.680358153767883778e-04 -1.442021727561950684e-01 4.947650432586669922e-02 -3.140078857541084290e-03 -2.077824473381042480e-01 2.534700743854045868e-02 6.554287672042846680e-02 1.370667479932308197e-02 2.928396500647068024e-02 6.160501390695571899e-02 2.181980162858963013e-01 2.096402347087860107e-01 1.423406451940536499e-01 -1.334246695041656494e-01 4.205212742090225220e-02 4.189991950988769531e-02 -6.571489572525024414e-02 -7.518178969621658325e-02 1.397952670231461525e-03 1.715524643659591675e-01 -4.498327895998954773e-02 -9.712162613868713379e-02 9.120157361030578613e-02 -8.551560342311859131e-03 -4.272713139653205872e-02 -2.784761134535074234e-03 -1.333628445863723755e-01 1.533083915710449219e-01 1.716208904981613159e-01 8.030096068978309631e-04 -1.337992101907730103e-01 1.793385297060012817e-01 -2.065769629552960396e-03 2.086575515568256378e-02 -8.191129565238952637e-02 1.534552127122879028e-01 -5.623176321387290955e-02 -1.686799898743629456e-02 -3.623249381780624390e-02 -3.738677129149436951e-02 -8.833716064691543579e-02 -3.698229044675827026e-02 1.023409739136695862e-01 -6.583850830793380737e-02
6.273100525140762329e-02 3.210011869668960571e-02 2.030026465654373169e-01 7.957213558256626129e-03 -6.736473739147186279e-02 -1.295831352472305298e-01 7.329597324132919312e-02 8.168596774339675903e-03 7.935535162687301636e-02 6.283874809741973877e-02 4.153063520789146423e-02 3.742514178156852722e-02 9.167509153485298157e-03 2.290644496679306030e-01 -1.934146881103515625e-01 -1.338167190551757812e-01 2.698314003646373749e-02 -1.376104056835174561e-01 3.950034081935882568e-02 5.884956195950508118e-02 -3.636888414621353149e-02 7.526811957359313965e-02 -6.894383579492568970e-02 6.366463005542755127e-02 1.840036660432815552e-01 5.920384824275970459e-02 -5.036654323339462280e-02 -2.685652580112218857e-03 1.972854882478713989e-01 -4.985580593347549438e-02 -1.599892228841781616e-02 1.795186847448348999e-01 -2.776199579238891602e-02 -1.624014228582382202e-01 -6.199714541435241699e-02 1.523957699537277222e-01 -1.229185685515403748e-01 5.776732787489891052e-02 6.952226161956787109e-02 -8.452981710433959961e-02 -1.602723076939582825e-02 -7.998064160346984863e-02 8.337535895407199860e-03 -1.267978921532630920e-02 -1.259127706289291382e-01 -5.295660719275474548e-02 1.835676841437816620e-02 -3.714859113097190857e-02 1.138579323887825012e-01 1.476938277482986450e-01 -5.365021899342536926e-02 6.379376165568828583e-03 4.702557995915412903e-02 1.017197966575622559e-01 2.981293015182018280e-02 1.342530269175767899e-02 6.917692720890045166e-02 2.388206273317337036e-01 6.489802617579698563e-03
2.883358672261238098e-02 -1.199730336666107178e-01 -3.126698732376098633e-01 -2.290952019393444061e-02 -5.941184610128402710e-02 -5.241029337048530579e-02 -1.908127963542938232e-02 7.870209962129592896e-02 -1.350174397230148315e-01 -6.658656056970357895e-03 2.977883070707321167e-02 6.074060499668121338e-02 -1.138291358947753906e-01 -1.519207358360290527e-01 5.632794275879859924e-02 -7.886765897274017334e-02 -1.198025420308113098e-01 4.059389606118202209e-02 4.434116184711456299e-02 -9.533835202455520630e-02 6.629358977079391479e-02 8.442414551973342896e-02 -3.298572078347206116e-02 -4.413868859410285950e-02 1.607827693223953247e-01 -2.465036883950233459e-02 1.016496494412422180e-01 -2.023052796721458435e-02 -6.232607364654541016e-02 3.407413065433502197e-01 3.668042644858360291e-02 -9.453605860471725464e-02 -5.761538073420524597e-02 -1.196429952979087830e-01 -1.856616884469985962e-01 -1.927758306264877319e-01 2.466991543769836426e-03 -7.131516933441162109e-02 -8.354097604751586914e-02 2.356808781623840332e-01 -1.461392082273960114e-02 -1.124723628163337708e-01 3.104242868721485138e-02 -1.158498926088213921e-03 -8.768230676651000977e-02 4.707997199147939682e-03 -1.879775226116180420e-01 2.839915826916694641e-02 3.655036911368370056e-02 1.286415010690689087e-01 8.009372651576995850e-02 8.082479983568191528e-02 -8.519514650106430054e-02 -7.840180397033691406e-02 -5.612273886799812317e-02 1.688014902174472809e-02 1.230404432862997055e-02 -2.018500678241252899e-02 1.124338731169700623e-01
-5.591620504856109619e-02 1.470871269702911377e-01 -1.827052980661392212e-02 -8.202535659074783325e-02 1.992803998291492462e-02 1.255528181791305542e-01 -1.418560296297073364e-01 -4.776808619499206543e-02 9.146171063184738159e-02 -5.320905894041061401e-02 -2.497549541294574738e-02 -3.843598812818527222e-02 -7.412846665829420090e-03 -6.995649635791778564e-02 1.738871037960052490e-01 1.250669360160827637e-03 -7.012239843606948853e-02 -2.197832763195037842e-01 -8.224825561046600342e-02 -7.691299915313720703e-02 -1.371480226516723633e-01 2.442700788378715515e-02 2.144736237823963165e-03 -2.911208756268024445e-02 -1.425516754388809204e-01 -6.355658173561096191e-02 -7.245820760726928711e-02 -2.938494086265563965e-01 -6.585589796304702759e-02 -5.197757109999656677e-02 -1.100582778453826904e-01 2.131396904587745667e-02 6.138006225228309631e-02 -1.092106476426124573e-01 2.045643329620361328e-02 -1.963042914867401123e-01 1.002062186598777771e-01 3.014453314244747162e-02 -1.454211324453353882e-01 1.398452441208064556e-03 9.223423898220062256e-02 -6.144687533378601074e-02 1.329266279935836792e-01 -9.817027300596237183e-02 9.857680648565292358e-02 7.049025595188140869e-02 6.456060800701379776e-04 8.120021969079971313e-02 -5.301463231444358826e-02 2.394483797252178192e-02 -4.070181399583816528e-02 4.184861481189727783e-02 -6.497597694396972656e-02 -6.047518458217382431e-03 -6.796693801879882812e-02 -1.220422908663749695e-01 -1.158415675163269043e-01 -1.037551388144493103e-01 -6.610744446516036987e-02
1.234797760844230652e-01 3.227154165506362915e-02 4.489990323781967163e-02 1.483018696308135986e-02 1.085842847824096680e-01 -2.068813890218734741e-01 -3.390090167522430420e-02 8.515597134828567505e-02 -7.133954018354415894e-02 -9.081090986728668213e-02 3.990098834037780762e-03 -5.005882307887077332e-02 4.737922549247741699e-02 2.697958797216415405e-02 8.487288840115070343e-03 -2.261264622211456299e-02 1.628864556550979614e-01 -8.586571365594863892e-02 2.555381879210472107e-02 1.720912754535675049e-02 -1.255623437464237213e-02 -5.214507877826690674e-02 -5.621189624071121216e-02 -1.303095817565917969e-01 2.552219852805137634e-02 -1.415506601333618164e-01 -1.699984371662139893e-01 -1.232159659266471863e-01 -5.578736588358879089e-02 4.152861237525939941e-02 7.283768802881240845e-02 1.416973862797021866e-02 -9.223104454576969147e-03 2.141334563493728638e-01 8.141513168811798096e-02 1.033152192831039429e-01 -4.185361787676811218e-02 8.372286707162857056e-02 1.370505839586257935e-01 -2.728111296892166138e-02 1.007254123687744141e-01 1.805704534053802490e-01 -3.539349511265754700e-02 -1.098810657858848572e-01 -1.338806152343750000e-01 2.827715575695037842e-01 1.358380168676376343e-01 -3.416383266448974609e-02 4.048116877675056458e-02 -9.788254648447036743e-02 4.764496162533760071e-02 1.343160420656204224e-01 4.066652432084083557e-02 -1.390762347728013992e-02 -1.312068104743957520e-01 -4.294470697641372681e-02 5.903903022408485413e-02 -2.604593336582183838e-02 -9.110461920499801636e-02
-1.663528680801391602e-01 9.035624563694000244e-02 1.075200587511062622e-01 5.535114929080009460e-02 5.249292403459548950e-02 -4.957755096256732941e-03 -2.626308472827076912e-03 4.892278835177421570e-02 9.663704782724380493e-02 -9.243790991604328156e-03 -2.692489512264728546e-02 5.574975511990487576e-04 -1.369154267013072968e-02 1.583145409822463989e-01 1.384962052106857300e-01 -4.620013013482093811e-02 7.670472562313079834e-02 -1.629628799855709076e-02 -4.037516564130783081e-02 3.738392144441604614e-02 1.382233351469039917e-01 -1.096044629812240601e-01 9.726289659738540649e-02 -1.465857028961181641e-01 -1.017476618289947510e-01 1.157822832465171814e-02 6.291995942592620850e-02 1.344776153564453125e-01 -1.754317730665206909e-01 3.503826633095741272e-02 1.043373271822929382e-01 -1.351221278309822083e-02 3.178762644529342651e-02 -1.388923265039920807e-02 -6.509560346603393555e-02 -1.525297313928604126e-01 1.186667680740356445e-01 9.844153374433517456e-02 1.128157228231430054e-01 -1.172366365790367126e-01 2.185104228556156158e-02 1.568486988544464111e-01 4.401922971010208130e-02 -1.878546774387359619e-01 -4.481140151619911194e-02 -5.600960925221443176e-02 2.082990109920501709e-01 -3.908425197005271912e-02 -9.055594913661479950e-03 6.338563561439514160e-02 -1.147478371858596802e-01 1.596809476613998413e-01 1.219491590745747089e-03 8.006244152784347534e-02 2.649949304759502411e-02 -4.046574234962463379e-02 5.994215980172157288e-02 -5.136144533753395081e-02 -9.154185536317527294e-04
1.053549796342849731e-01 1.936195641756057739e-01 1.100041419267654419e-01 -8.566259592771530151e-02 -5.806560814380645752e-02 6.574611365795135498e-02 -1.399455592036247253e-02 6.426893174648284912e-02 2.906216681003570557e-01 2.492396160960197449e-02 -1.091337800025939941e-01 -4.644114896655082703e-02 1.555650830268859863e-01 7.079774141311645508e-02 -1.676033884286880493e-01 1.042622886598110199e-02 2.774114720523357391e-02 -1.342329233884811401e-01 -6.098214536905288696e-02 3.686518967151641846e-02 -1.126216128468513489e-01 2.951455861330032349e-02 9.873616695404052734e-02 8.694270998239517212e-02 1.177636831998825073e-01 4.200289025902748108e-02 5.131016671657562256e-02 4.611092805862426758e-02 1.423770040273666382e-01 4.661979153752326965e-02 -7.392024248838424683e-02 -1.452399343252182007e-01 -8.606827259063720703e-02 9.145635366439819336e-02 2.325272560119628906e-02 -1.615268737077713013e-01 -7.188228890299797058e-03 -3.845925256609916687e-02 4.503625258803367615e-02 3.489465918391942978e-03 5.369256809353828430e-02 1.248790919780731201e-01 9.982812218368053436e-03 4.816379025578498840e-02 6.333964318037033081e-02 6.478533893823623657e-02 -6.077663972973823547e-02 -1.849114447832107544e-01 -7.937198877334594727e-02 6.315699219703674316e-02 -1.248160600662231445e-01 1.680203974246978760e-01 -1.614142581820487976e-02 -1.670666337013244629e-01 3.671528398990631104e-02 7.049106806516647339e-02 1.103090643882751465e-01 1.041321754455566406e-01 -1.561848372220993042e-01
-4.797393083572387695e-02 6.492394953966140747e-02 -8.326189219951629639e-02 8.156707882881164551e-02 -1.174611300230026245e-01 -3.379106521606445312e-02 1.584600210189819336e-01 -3.485887078568339348e-03 6.610258482396602631e-03 -8.516684174537658691e-02 4.077522549778223038e-03 -4.908629506826400757e-02 4.802884906530380249e-02 2.132079936563968658e-02 -3.736182115972042084e-03 -8.468366414308547974e-02 2.362418621778488159e-01 -5.810380727052688599e-02 7.928709685802459717e-02 -2.013013325631618500e-02 -8.847064524888992310e-02 -1.427351236343383789e-01 1.268886327743530273e-01 -1.933962106704711914e-02 2.999227121472358704e-02 -6.539041548967361450e-02 -2.041226718574762344e-03 4.135868698358535767e-02 2.758386358618736267e-02 -1.324702501296997070e-01 -1.393836140632629395e-01 -2.700920104980468750e-01 5.543982610106468201e-02 -3.290840238332748413e-02 1.563990302383899689e-02 -5.666043981909751892e-02 -2.215185761451721191e-01 -1.592980511486530304e-02 -4.409689456224441528e-02 6.438098102807998657e-02 -2.971415221691131592e-02 -1.544609218835830688e-01 5.307660996913909912e-02 -4.302311688661575317e-02 -7.282406091690063477e-02 -5.465571582317352295e-02 6.802179664373397827e-02 -1.542530357837677002e-01 1.901301443576812744e-01 3.506061062216758728e-02 -9.487118571996688843e-02 -8.587727695703506470e-02 6.800363957881927490e-02 -4.492478817701339722e-02 -2.577075920999050140e-02 -1.192383393645286560e-01 1.323317140340805054e-01 1.562809795141220093e-01 -8.181712031364440918e-02
1.249749436974525452e-01 1.016392782330513000e-01 1.218537837266921997e-01 -5.455014109611511230e-02 -2.052118182182312012e-01 -9.742449223995208740e-02 6.933761388063430786e-02 -9.501367062330245972e-02 -4.713070020079612732e-02 -1.723997853696346283e-02 2.855303697288036346e-02 -2.406750060617923737e-02 -1.220289394259452820e-01 4.160641878843307495e-02 -1.843607315095141530e-04 -1.929250955581665039e-01 1.066285595297813416e-01 -1.151960641145706177e-01 -6.824130564928054810e-02 -2.070950418710708618e-01 -1.410337686538696289e-01 -3.312939032912254333e-02 7.031151652336120605e-02 1.217873245477676392e-01 6.987282633781433105e-02 3.255200386047363281e-02 1.914786249399185181e-01 -1.053364053368568420e-01 -1.042615473270416260e-01 -7.059117313474416733e-03 6.678769364953041077e-03 4.101540148258209229e-02 5.668790638446807861e-02 1.233722921460866928e-02 -1.608317904174327850e-02 -3.844130784273147583e-02 -7.629113644361495972e-02 -4.678332060575485229e-02 1.363719999790191650e-01 -7.704529911279678345e-02 1.284368336200714111e-02 -4.403110593557357788e-02 -1.106000766158103943e-01 1.132442504167556763e-01 -3.509318828582763672e-02 3.778117895126342773e-02 1.798017323017120361e-02 -3.729787567863240838e-05 -1.308891326189041138e-01 -2.772445380687713623e-01 -6.049422919750213623e-02 -2.280600219964981079e-01 -4.775103181600570679e-02 -3.685683757066726685e-02 -2.239592075347900391e-01 -7.294984906911849976e-02 -8.928438276052474976e-02 -1.054826825857162476e-01 5.104010179638862610e-02
-2.056953161954879761e-01 -5.637691169977188110e-02 -1.967412233352661133e-01 1.845058649778366089e-01 1.703460216522216797e-01 1.459774076938629150e-01 1.629001647233963013e-01 -8.373669534921646118e-02 -1.830328106880187988e-01 -5.054138228297233582e-02 -4.228044301271438599e-03 -3.548903763294219971e-02 -1.141585409641265869e-01 -4.294746741652488708e-02 -1.415899395942687988e-02 -1.641188412904739380e-01 -4.972273483872413635e-02 -5.607276409864425659e-02 -7.052409648895263672e-02 -5.848663300275802612e-02 1.547058671712875366e-01 4.228216037154197693e-02 -1.485580299049615860e-02 -5.931397527456283569e-02 1.261460632085800171e-01 -4.187610372900962830e-02 -1.213461533188819885e-01 1.352536026388406754e-02 -2.997119352221488953e-02 -7.273402065038681030e-02 5.366567894816398621e-02 1.706144586205482483e-02 1.144980778917670250e-04 7.479183841496706009e-03 -4.110818728804588318e-02 -1.154921650886535645e-01 -8.837945014238357544e-02 9.058015793561935425e-02 5.062955245375633240e-02 4.681837931275367737e-02 -5.871449038386344910e-02 1.022817045450210571e-01 -2.761155180633068085e-02 7.983863353729248047e-02 -1.310705542564392090e-01 2.235112711787223816e-02 -1.087986379861831665e-01 -1.637835241854190826e-02 -5.715718865394592285e-02 -1.731524057686328888e-02 -1.020877808332443237e-01 -1.279877275228500366e-01 9.852844476699829102e-02 -7.332660257816314697e-02 -2.013559825718402863e-02 1.239954456686973572e-01 1.553483605384826660e-01 5.111078172922134399e-02 -2.208768762648105621e-02
1.138785704970359802e-01 -6.171933189034461975e-02 1.687322109937667847e-01 -2.079347670078277588e-01 1.990770697593688965e-01 1.121621429920196533e-01 8.960354328155517578e-02 -1.363763306289911270e-02 -4.240866284817457199e-03 -3.698806092143058777e-02 1.803270876407623291e-01 -2.338559739291667938e-02 -1.277496069669723511e-01 -7.870396226644515991e-02 -9.384071081876754761e-02 4.631531890481710434e-03 2.437008023262023926e-01 3.431625291705131531e-02 -3.095517866313457489e-02 1.038268730044364929e-01 1.904267817735671997e-02 4.234880581498146057e-02 9.124808758497238159e-02 -1.487828046083450317e-01 -3.591099381446838379e-02 -8.925255388021469116e-02 -5.030699446797370911e-02 3.024286590516567230e-02 -4.173674434423446655e-02 -5.778868217021226883e-03 1.316305100917816162e-01 1.537119448184967041e-01 -6.462826579809188843e-02 1.196301355957984924e-02 1.689564250409603119e-02 -6.814251840114593506e-02 6.039853766560554504e-02 -6.965909898281097412e-02 -1.115913093090057373e-01 6.679333001375198364e-02 1.417686417698860168e-02 5.855752155184745789e-02 -6.833049654960632324e-02 -2.713013626635074615e-02 -9.165602177381515503e-02 -9.812740981578826904e-02 9.714700281620025635e-02 6.827349960803985596e-02 -1.646357774734497070e-02 -6.674307584762573242e-02 6.160430237650871277e-02 1.834533363580703735e-02 1.351931691169738770e-01 2.869217889383435249e-03 1.020851954817771912e-01 4.077818617224693298e-02 -1.315881609916687012e-01 1.210822090506553650e-01 -9.050426632165908813e-02
1.070543900132179260e-01 8.510990440845489502e-02 9.914322942495346069e-02 1.247330009937286377e-01 -1.406326740980148315e-01 6.659682095050811768e-02 2.240324020385742188e-02 1.117238327860832214e-01 1.339926421642303467e-01 -2.319876700639724731e-01 6.464900076389312744e-02 -1.728283762931823730e-01 -4.912933334708213806e-02 -1.789231747388839722e-01 1.707382202148437500e-01 -8.963862806558609009e-02 8.571399748325347900e-02 -5.053782090544700623e-02 1.136070583015680313e-02 7.989571988582611084e-02 6.568489968776702881e-02 1.305541098117828369e-01 1.921131089329719543e-02 -1.369485557079315186e-01 3.512926399707794189e-02 6.853406876325607300e-02 -4.677009955048561096e-02 -1.079825684428215027e-02 -7.808893173933029175e-02 -2.518319152295589447e-02 -8.602381497621536255e-02 4.970650747418403625e-02 4.290567338466644287e-02 -8.669180679135024548e-04 -7.276498526334762573e-02 1.985245794057846069e-01 -2.679799310863018036e-02 9.042488038539886475e-02 7.361572980880737305e-02 -8.125638961791992188e-02 -4.912200570106506348e-02 3.793677315115928650e-03 -6.236684694886207581e-02 1.659141853451728821e-02 6.511320173740386963e-02 -7.974676042795181274e-02 1.605988740921020508e-01 2.195132374763488770e-01 8.755356073379516602e-02 -6.144113466143608093e-02 7.566429674625396729e-02 -5.881619639694690704e-03 -1.567159220576286316e-02 5.380893498659133911e-02 -1.488905958831310272e-02 -5.191591568291187286e-03 -2.565435133874416351e-02 -7.529772073030471802e-02 1.081647202372550964e-01
-5.420487001538276672e-02 8.163580298423767090e-02 -1.201574951410293579e-01 -1.687945872545242310e-01 -3.507100977003574371e-03 9.712626785039901733e-02 1.727925986051559448e-02 -5.771573632955551147e-02 4.014630988240242004e-02 2.055848091840744019e-01 -9.473095089197158813e-02 -1.022496521472930908e-01 6.569021195173263550e-02 -4.160814359784126282e-02 -4.215272888541221619e-02 -1.144894063472747803e-01 -1.325113326311111450e-01 -4.706872627139091492e-02 1.530368626117706299e-01 1.345589607954025269e-01 4.381654784083366394e-02 -6.828900426626205444e-02 -2.202494628727436066e-02 1.757377944886684418e-02 1.637917906045913696e-01 1.736338064074516296e-02 3.191967681050300598e-02 1.471687853336334229e-02 -1.373253613710403442e-01 1.769622787833213806e-02 -2.730995714664459229e-01 4.847975075244903564e-02 -2.703908681869506836e-01 -6.621434539556503296e-02 1.333688050508499146e-01 -1.740783751010894775e-01 5.809333547949790955e-02 2.870395407080650330e-02 -8.432023227214813232e-02 4.877889156341552734e-02 -5.685591325163841248e-02 -1.567844152450561523e-01 -1.211371123790740967e-01 2.054163254797458649e-02 8.753200620412826538e-02 1.171651333570480347e-01 2.093059867620468140e-01 3.707096353173255920e-02 -8.508858829736709595e-02 -1.270439326763153076e-01 -8.961261808872222900e-02 1.248817965388298035e-01 -2.034085616469383240e-02 9.097596257925033569e-02 -1.041895002126693726e-01 -9.740738570690155029e-02 1.496731489896774292e-01 3.136182203888893127e-02 1.061393916606903076e-01
-2.473360486328601837e-02 3.969412669539451599e-02 -4.522509127855300903e-02 8.754810690879821777e-02 -1.240336671471595764e-01 6.347844004631042480e-02 -2.444102764129638672e-01 -9.710193425416946411e-02 6.137796118855476379e-02 -2.288582921028137207e-02 8.123996853828430176e-02 1.562565937638282776e-02 -1.326819062232971191e-01 -9.138248860836029053e-02 -2.914097718894481659e-02 -8.483977615833282471e-02 1.272353678941726685e-01 5.233750119805335999e-02 -2.789251878857612610e-02 6.875733286142349243e-02 1.471815556287765503e-01 1.488954275846481323e-01 -2.403803616762161255e-01 3.289521113038063049e-02 -3.360966965556144714e-02 -2.177348732948303223e-02 9.700740128755569458e-02 -1.145332083106040955e-01 -1.192539744079113007e-02 -1.976655721664428711e-01 -7.263587415218353271e-02 1.210073754191398621e-01 3.735213354229927063e-02 -1.122473180294036865e-02 7.903104647994041443e-03 -5.998167768120765686e-02 -1.881820149719715118e-03 -8.988491445779800415e-02 6.041625887155532837e-02 -5.687085539102554321e-02 2.210062593221664429e-01 -4.346050322055816650e-02 1.400464773178100586e-02 -3.055487573146820068e-01 -1.478698253631591797e-01 -4.215328022837638855e-03 5.893024057149887085e-02 1.954179257154464722e-02 4.757485911250114441e-02 2.011237293481826782e-01 5.401173233985900879e-02 -3.771001845598220825e-02 -1.247987244278192520e-02 -6.559832394123077393e-02 -2.105068229138851166e-02 1.531252712011337280e-01 6.201125308871269226e-02 5.261819809675216675e-02 -4.581587854772806168e-03
