6.217251066118478775e-04 -5.391442403197288513e-02 1.306146830320358276e-01 -8.318637311458587646e-02 -1.856144070625305176e-01 -6.822692602872848511e-02 -3.532104939222335815e-02 -5.094584450125694275e-02 -4.429670423269271851e-02 1.041084527969360352e-01 1.385266333818435669e-01 3.352316096425056458e-02 -5.793275311589241028e-02 6.164680817164480686e-04 -2.510593272745609283e-02 1.623409334570169449e-03 9.118486940860748291e-02 -1.456366269849240780e-03 4.406371340155601501e-02 7.920870184898376465e-02 1.042622886598110199e-02 2.438239157199859619e-01 -5.346711352467536926e-02 -7.960610836744308472e-02 -5.740557331591844559e-03 1.239197328686714172e-01 -1.388133764266967773e-01 -1.447464376688003540e-01 -3.471742384135723114e-03 -1.325540244579315186e-01 -3.789957612752914429e-02 -4.350169003009796143e-02 -6.873513758182525635e-02 2.103958977386355400e-03 5.561406165361404419e-02 2.068214304745197296e-02 -2.117044478654861450e-02 3.252531215548515320e-02 1.131336688995361328e-01 -2.621003799140453339e-02 -8.015097118914127350e-03 -1.529255062341690063e-01 8.990299701690673828e-02 1.349381506443023682e-01 -8.094897866249084473e-02 -3.584446012973785400e-02 -6.616975367069244385e-02 -9.846533648669719696e-03 3.302435949444770813e-02 -6.080175191164016724e-02 -2.040706109255552292e-03 1.344949845224618912e-02 -5.324042588472366333e-02 -1.947570778429508209e-02 1.155974268913269043e-01 5.115601792931556702e-02 2.713762805797159672e-04 -1.978376135230064392e-02
2.013875395059585571e-01 8.163848519325256348e-02 5.445316806435585022e-02 -2.234502732753753662e-01 -6.572278589010238647e-02 -8.323756605386734009e-02 -1.632183231413364410e-02 8.856009691953659058e-02 1.081797201186418533e-02 1.912208199501037598e-01 -3.803523257374763489e-02 6.030747294425964355e-02 1.393339876085519791e-02 -4.897189140319824219e-02 -1.760022342205047607e-01 -4.047820344567298889e-02 -5.346754565834999084e-02 -9.429201483726501465e-02 -1.491980552673339844e-01 3.212061524391174316e-02 8.788701891899108887e-02 -1.053140908479690552e-01 -9.525411576032638550e-02 1.315042823553085327e-01 -8.358574658632278442e-02 -1.356557905673980713e-01 -6.768273189663887024e-03 4.267274588346481323e-02 -8.353836834430694580e-02 -1.091865971684455872e-01 7.495960593223571777e-02 7.033284753561019897e-02 1.474175509065389633e-02 -6.290933117270469666e-03 -9.403557330369949341e-02 3.606979176402091980e-02 6.915091723203659058e-02 5.857468396425247192e-02 1.360386162996292114e-01 -5.684159696102142334e-02 -1.363237053155899048e-01 6.848292797803878784e-02 -1.289273798465728760e-01 -2.289416082203388214e-02 4.647149704396724701e-03 1.086968090385198593e-02 9.200214594602584839e-02 2.231485396623611450e-02 1.821348816156387329e-02 9.279328584671020508e-02 -1.074344478547573090e-02 7.912372797727584839e-02 2.020394802093505859e-02 -5.685848370194435120e-02 -1.355528384447097778e-01 9.329275041818618774e-02 -1.532797515392303467e-01 1.174440830945968628e-01
5.727564170956611633e-02 -2.387402020394802094e-02 -1.383950412273406982e-01 -4.491123184561729431e-02 -1.840522140264511108e-01 -7.968651503324508667e-02 -1.640526019036769867e-02 -5.732005462050437927e-02 4.576348513364791870e-02 -7.849009335041046143e-02 2.251386344432830811e-01 6.602802872657775879e-02 5.058307200670242310e-02 2.947133779525756836e-02 -1.788873076438903809e-01 6.779080629348754883e-02 8.747165091335773468e-03 9.157777763903141022e-03 -6.795618683099746704e-02 -9.195644408464431763e-02 -8.565252274274826050e-02 1.814936846494674683e-02 3.706350922584533691e-02 6.653902679681777954e-02 4.107119888067245483e-02 -6.789579987525939941e-02 1.095435321331024170e-01 -3.876670449972152710e-02 1.184962093830108643e-01 -2.381107071414589882e-03 -2.339748293161392212e-02 1.172908619046211243e-01 1.152670830488204956e-01 -1.054979488253593445e-01 -4.881483037024736404e-03 -9.350290894508361816e-02 3.475931659340858459e-02 -6.113929301500320435e-02 9.956326335668563843e-03 1.637992262840270996e-01 1.936889439821243286e-01 -4.982278123497962952e-02 -7.982741296291351318e-02 -1.558109223842620850e-01 6.106884684413671494e-03 -2.540824562311172485e-02 -1.917441189289093018e-02 9.017783217132091522e-03 1.335773319005966187e-01 -4.590221680700778961e-03 -1.376947015523910522e-01 -1.074621975421905518e-01 -9.105706587433815002e-03 -1.263764221221208572e-02 -1.047876570373773575e-02 -6.206791475415229797e-02 -3.864670544862747192e-02 -1.560879349708557129e-01
-8.006142452359199524e-04 5.611651577055454254e-04 9.085907042026519775e-02 -1.570455729961395264e-01 -1.160567626357078552e-01 5.074099078774452209e-02 -1.156147122383117676e-01 -1.147203147411346436e-01 1.038622111082077026e-01 -8.412867784500122070e-02 -4.849158227443695068e-03 5.708113685250282288e-02 1.087891459465026855e-01 -3.587676584720611572e-02 -3.249265020713210106e-03 -4.735681042075157166e-02 -1.908563971519470215e-01 2.012792974710464478e-02 -1.609701365232467651e-01 -7.664839178323745728e-02 1.980131864547729492e-02 4.632803797721862793e-02 -4.789609462022781372e-02 -7.646381109952926636e-02 -8.173623681068420410e-02 -1.025030910968780518e-01 -9.595919400453567505e-03 -5.489345639944076538e-03 3.093026205897331238e-02 -1.940904855728149414e-01 -1.823113299906253815e-02 1.868560612201690674e-01 2.705889195203781128e-02 1.314230412244796753e-01 1.183456368744373322e-02 -7.443522103130817413e-03 6.498001515865325928e-02 6.922841072082519531e-02 4.298437014222145081e-02 5.190084874629974365e-02 4.757939651608467102e-02 8.373200893402099609e-02 1.977755576372146606e-01 7.223519682884216309e-02 6.936793774366378784e-02 4.076351877301931381e-03 2.303146384656429291e-02 4.708164185285568237e-02 2.028382942080497742e-02 -1.128869727253913879e-01 -4.330359771847724915e-02 1.018250882625579834e-01 -3.294403851032257080e-02 -1.241379901766777039e-01 2.406172081828117371e-02 -2.323451265692710876e-02 3.036261349916458130e-02 -1.377470884472131729e-02
1.528059598058462143e-02 9.279409050941467285e-02 1.122054234147071838e-01 1.105479747056961060e-01 1.282661557197570801e-01 8.802325278520584106e-02 -6.594268232583999634e-02 -8.775673806667327881e-02 4.411338362842798233e-03 5.454597622156143188e-02 6.486257538199424744e-03 1.054248958826065063e-01 1.792555004358291626e-01 1.849723309278488159e-01 -3.306403756141662598e-02 -5.933591350913047791e-02 3.555727750062942505e-02 -5.117716267704963684e-02 6.814993917942047119e-02 7.056296616792678833e-02 -1.673248857259750366e-01 -2.091769129037857056e-01 2.140265144407749176e-02 -2.642177417874336243e-02 7.056272029876708984e-02 -2.996750175952911377e-02 -2.748885154724121094e-01 3.376605734229087830e-02 1.035724654793739319e-01 -1.196964830160140991e-01 -7.532916031777858734e-03 8.975561708211898804e-02 1.603584885597229004e-01 -1.298341341316699982e-02 4.497323557734489441e-02 1.028325557708740234e-01 -2.681355923414230347e-02 -3.978311270475387573e-02 -1.381635665893554688e-01 -1.088424026966094971e-01 -4.820599034428596497e-02 -9.189526736736297607e-02 1.093238517642021179e-01 8.746037632226943970e-02 1.719133108854293823e-01 -1.057278513908386230e-01 -1.476300042122602463e-02 4.789104312658309937e-02 1.162216588854789734e-01 1.758758910000324249e-02 6.563340872526168823e-02 -1.244551092386245728e-01 -8.908180892467498779e-02 7.374059641733765602e-04 -3.855020040646195412e-03 5.726150423288345337e-02 -8.929500728845596313e-02 -4.765832796692848206e-02
-2.381382510066032410e-02 -7.387705892324447632e-02 -1.498015969991683960e-01 6.953077763319015503e-02 -4.062252491712570190e-02 -1.865578144788742065e-01 3.524426743388175964e-02 3.926945850253105164e-02 -4.573760554194450378e-02 2.635090425610542297e-02 5.905732885003089905e-02 2.669485285878181458e-02 -6.551545113325119019e-02 -1.377995591610670090e-02 1.024124473333358765e-01 -6.375710666179656982e-02 -5.573009699583053589e-02 5.005631595849990845e-02 -5.871062725782394409e-02 -3.295363485813140869e-02 -9.592999517917633057e-02 -2.077875733375549316e-01 1.244746893644332886e-02 3.590761125087738037e-02 -1.792839020490646362e-01 -1.076837480068206787e-01 -1.914554461836814880e-02 -9.504421800374984741e-02 -6.090687215328216553e-02 1.098851561546325684e-01 4.742518358398228884e-04 3.701846674084663391e-02 1.125167459249496460e-01 -3.182729706168174744e-02 -2.096769958734512329e-01 1.311954557895660400e-01 -1.378548443317413330e-01 2.868929132819175720e-02 -6.741658598184585571e-02 -1.038704365491867065e-01 -2.971342578530311584e-02 1.341786384582519531e-01 -5.337094888091087341e-03 -6.889614462852478027e-02 1.326447576284408569e-01 -1.871453784406185150e-02 1.392251998186111450e-02 3.638738999143242836e-03 -3.189256787300109863e-02 -9.727618098258972168e-02 9.048955887556076050e-02 -1.533419191837310791e-01 -1.527446508407592773e-02 1.409607082605361938e-01 1.140252724289894104e-01 5.098799616098403931e-02 -1.139500215649604797e-01 7.947716116905212402e-02
-5.294620618224143982e-02 -9.083075076341629028e-02 1.784501969814300537e-01 1.020229458808898926e-01 -2.252098768949508667e-01 -1.203371118754148483e-02 -3.339028730988502502e-02 -1.718625575304031372e-01 1.355283260345458984e-01 1.848829239606857300e-01 6.504844129085540771e-02 -1.076523214578628540e-01 -2.758875116705894470e-02 -8.750603348016738892e-02 -5.056966561824083328e-03 -1.483997851610183716e-01 -3.515442833304405212e-02 2.801102772355079651e-02 -9.734775871038436890e-02 -1.340870410203933716e-01 2.851595170795917511e-02 4.629238322377204895e-02 5.066177621483802795e-02 -2.297915285453200340e-03 1.506088376045227051e-01 2.368926769122481346e-03 -5.614577606320381165e-02 -5.405585840344429016e-02 1.117867603898048401e-01 -1.005687341094017029e-01 1.155007779598236084e-01 1.264371722936630249e-01 -6.884024292230606079e-02 1.402581017464399338e-02 9.312325716018676758e-02 -9.198790043592453003e-02 -6.758747994899749756e-02 -2.131309956312179565e-01 4.698535054922103882e-02 6.572181731462478638e-02 -4.474694654345512390e-02 2.185587584972381592e-02 -2.625798247754573822e-02 -4.640713334083557129e-02 7.371173053979873657e-02 -3.184186760336160660e-03 -3.898237599059939384e-03 6.048925593495368958e-02 6.108712777495384216e-02 -1.258871704339981079e-01 -4.277564957737922668e-02 -8.273681625723838806e-03 1.403163373470306396e-01 5.839865282177925110e-02 -3.079785965383052826e-03 -3.171875327825546265e-02 2.464291453361511230e-02 -2.741722017526626587e-02
1.221055611968040466e-01 -9.030317515134811401e-02 2.580910921096801758e-01 -1.519886702299118042e-01 1.673226654529571533e-01 -6.473978608846664429e-02 -1.342523694038391113e-01 -3.104077838361263275e-02 3.547457512468099594e-03 3.008132055401802063e-02 4.228171706199645996e-02 7.616216689348220825e-02 8.213442750275135040e-03 -5.240098014473915100e-02 1.677439063787460327e-01 1.472807228565216064e-01 8.181092329323291779e-03 -5.979105085134506226e-02 8.765736129134893417e-04 -1.267799176275730133e-02 1.469101384282112122e-02 -1.494275629520416260e-01 6.264090538024902344e-02 -1.373574286699295044e-01 -4.587371274828910828e-02 9.834277629852294922e-02 5.796219408512115479e-02 -1.209100782871246338e-01 -1.322631957009434700e-03 -1.918686330318450928e-01 -3.806499764323234558e-02 6.065873056650161743e-02 -6.691629439592361450e-02 6.351284682750701904e-02 -1.183585375547409058e-01 5.191503465175628662e-02 -3.657794743776321411e-02 5.923721939325332642e-02 2.145594656467437744e-01 -1.312348898500204086e-02 9.040756523609161377e-02 -4.602952674031257629e-02 1.080252695828676224e-02 -1.521429419517517090e-01 4.450885578989982605e-02 4.465312138199806213e-02 -1.020008325576782227e-01 -6.428288668394088745e-02 -1.046820878982543945e-01 -3.441372141242027283e-02 -5.027171969413757324e-02 3.614802658557891846e-02 -4.278378933668136597e-02 -2.598165906965732574e-02 3.284311667084693909e-02 2.598691545426845551e-02 7.330032438039779663e-02 8.249002695083618164e-02
-1.009007822722196579e-02 -7.508023083209991455e-02 8.329240977764129639e-02 1.050854753702878952e-02 5.863474309444427490e-02 -1.619932800531387329e-01 -1.439754515886306763e-01 1.278927624225616455e-01 2.556760795414447784e-02 5.104796960949897766e-03 1.282501816749572754e-01 6.423682440072298050e-03 1.930474638938903809e-01 -3.601333498954772949e-02 9.817860275506973267e-02 1.180856376886367798e-01 8.891814947128295898e-02 -3.985097259283065796e-02 2.835883060470223427e-03 4.068383574485778809e-02 -2.454858273267745972e-02 4.616368189454078674e-02 -8.933879435062408447e-02 -4.584178701043128967e-02 4.316868260502815247e-02 -9.942057728767395020e-02 -1.296734903007745743e-02 7.760771363973617554e-02 -2.362630888819694519e-02 -4.970107972621917725e-02 1.162372007966041565e-01 5.857314914464950562e-02 -8.492576889693737030e-03 1.754150092601776123e-01 -9.807188808917999268e-02 -2.025168091058731079e-01 1.119665950536727905e-01 8.979122340679168701e-02 -4.366850946098566055e-03 -3.046110831201076508e-02 4.706815257668495178e-02 -2.050856687128543854e-02 9.493546932935714722e-02 -9.651084989309310913e-02 -1.406229217536747456e-03 3.789608925580978394e-02 1.204546242952346802e-01 8.912481367588043213e-02 -4.770677909255027771e-02 9.593441500328481197e-04 2.053254470229148865e-02 -6.514007598161697388e-02 8.182609081268310547e-02 -1.177718713879585266e-01 2.642149031162261963e-01 -1.257807612419128418e-01 5.194942653179168701e-02 -5.905236303806304932e-02
-4.920236393809318542e-02 -2.286332286894321442e-02 -1.223692446947097778e-01 -8.595259487628936768e-02 1.353712659329175949e-02 -1.157060358673334122e-02 1.509617455303668976e-02 3.324313089251518250e-02 -1.563228815793991089e-01 4.733814299106597900e-02 1.324686259031295776e-01 -1.037000305950641632e-02 -1.172719337046146393e-02 -1.360953897237777710e-01 2.389082685112953186e-02 -9.509760886430740356e-02 -4.492462426424026489e-02 -1.189161911606788635e-01 6.751891691237688065e-03 -4.490712657570838928e-02 -5.573682137764990330e-04 -1.858819872140884399e-01 1.348902285099029541e-01 -1.056271791458129883e-01 -5.646639503538608551e-03 -4.303316399455070496e-02 -7.822784036397933960e-02 -8.309842646121978760e-02 -2.531419992446899414e-01 1.824313588440418243e-02 -8.377818763256072998e-02 -4.950235038995742798e-02 1.210368275642395020e-01 -1.272186487913131714e-01 -1.172565892338752747e-01 1.404567062854766846e-01 -3.278191760182380676e-02 3.031385689973831177e-02 -1.000098325312137604e-02 2.480220049619674683e-01 -5.489797890186309814e-02 2.265590056777000427e-02 -4.265166819095611572e-02 -1.355635225772857666e-01 -1.010394468903541565e-01 -2.523049339652061462e-02 1.844616681337356567e-01 1.816714555025100708e-01 2.597068622708320618e-02 -8.671052753925323486e-03 -7.976593077182769775e-02 1.445176899433135986e-01 -3.837202489376068115e-02 -8.929751068353652954e-02 -7.764903455972671509e-02 7.637710869312286377e-02 -6.345309317111968994e-02 -4.334053024649620056e-02
5.337684229016304016e-02 3.046604059636592865e-02 1.410312801599502563e-01 9.484592825174331665e-02 -5.221390165388584137e-03 -2.032028697431087494e-02 -5.457204300910234451e-03 -1.109758764505386353e-01 1.128583960235118866e-02 -4.809990897774696350e-02 -8.537774533033370972e-02 1.434769332408905029e-01 -8.711722493171691895e-02 -5.346576869487762451e-02 3.902099281549453735e-02 7.231513410806655884e-02 -6.936029344797134399e-02 7.793606072664260864e-02 -5.163983628153800964e-02 -1.387940347194671631e-01 8.432992547750473022e-02 8.870868384838104248e-02 1.707425266504287720e-01 -3.132434189319610596e-02 -1.196899935603141785e-01 -1.386025995016098022e-01 -8.139466866850852966e-03 1.013056114315986633e-01 -1.202924773097038269e-01 -1.074313372373580933e-01 4.539327695965766907e-02 2.000047266483306885e-01 4.958933591842651367e-02 -5.770398676395416260e-02 3.285601735115051270e-02 -9.308209270238876343e-02 6.374725699424743652e-02 4.305903613567352295e-02 -1.913249306380748749e-02 9.036039561033248901e-02 -3.396395593881607056e-02 -2.693636156618595123e-02 -3.250747174024581909e-02 -1.176919862627983093e-01 -1.288118492811918259e-02 1.246624812483787537e-01 1.050963066518306732e-02 8.973541110754013062e-02 -1.812841445207595825e-01 -1.957797408103942871e-01 -8.197783492505550385e-03 -7.000333815813064575e-02 -7.786417007446289062e-02 5.659636855125427246e-02 -4.811517521739006042e-02 -2.569126896560192108e-02 -1.761102378368377686e-01 -9.560322761535644531e-02
-1.795219182968139648e-01 1.320187449455261230e-01 3.794723376631736755e-02 1.137303784489631653e-01 6.567869335412979126e-02 2.546081319451332092e-02 5.478423833847045898e-02 4.856143146753311157e-02 -1.439461112022399902e-01 9.506876766681671143e-02 -8.577655255794525146e-02 -1.058130487799644470e-01 -1.247746646404266357e-01 -6.451299786567687988e-02 -9.767893701791763306e-02 7.786460220813751221e-02 8.098127692937850952e-02 -8.666012436151504517e-02 -8.359293639659881592e-02 -2.932050824165344238e-02 6.681941449642181396e-02 1.024714559316635132e-01 1.919141225516796112e-02 5.101815611124038696e-02 -4.909221082925796509e-02 -5.888773873448371887e-02 -1.415714472532272339e-01 3.518773987889289856e-02 4.691714793443679810e-02 -1.293692179024219513e-02 3.917795140296220779e-03 -5.488017946481704712e-02 -6.818717718124389648e-02 1.511415839195251465e-01 1.768646538257598877e-01 -1.355546116828918457e-01 -5.776622332632541656e-03 -2.725850604474544525e-02 1.488407403230667114e-01 8.963347226381301880e-02 -1.104157939553260803e-01 -3.556925803422927856e-02 -3.477003052830696106e-02 -5.430267658084630966e-03 7.620834559202194214e-02 -6.194385886192321777e-02 -4.975048080086708069e-02 3.161555901169776917e-02 4.046814981848001480e-03 1.716737449169158936e-02 3.297613188624382019e-02 6.623850017786026001e-02 5.005024373531341553e-02 -6.724247336387634277e-02 -3.422012180089950562e-02 6.793117523193359375e-02 3.530608490109443665e-02 -1.591890156269073486e-01
-5.485879629850387573e-02 1.293747872114181519e-01 2.828224897384643555e-01 -3.574759513139724731e-02 2.229639142751693726e-01 3.675999119877815247e-02 -1.369403153657913208e-01 -7.249077409505844116e-02 -9.714323282241821289e-02 4.455003514885902405e-02 4.350458830595016479e-02 -2.661064863204956055e-01 3.603014349937438965e-02 -9.393371641635894775e-02 -1.490358076989650726e-02 9.112915396690368652e-02 -3.627135604619979858e-02 3.578378632664680481e-02 3.807339072227478027e-02 1.138152107596397400e-01 -1.967315673828125000e-01 1.893332414329051971e-02 1.024241093546152115e-02 3.289720043540000916e-02 -1.023059487342834473e-01 1.118150651454925537e-01 4.747865721583366394e-02 -9.523662924766540527e-02 -1.544174551963806152e-01 -6.655453145503997803e-02 -3.584019467234611511e-02 1.155722588300704956e-01 -1.018459796905517578e-01 -1.481511741876602173e-01 5.665371194481849670e-02 1.100408285856246948e-01 -9.484496712684631348e-02 1.112553104758262634e-01 -1.165774837136268616e-01 -7.988401502370834351e-02 -8.043611422181129456e-03 4.910896532237529755e-03 -5.128021910786628723e-02 -4.552518948912620544e-02 3.768386319279670715e-02 8.321702480316162109e-02 1.241087466478347778e-01 -4.487939551472663879e-02 -4.628828540444374084e-02 -6.837017834186553955e-02 -3.742340952157974243e-02 -1.138359159231185913e-01 -6.544350087642669678e-02 -8.309994637966156006e-02 -1.130553521215915680e-02 5.547969788312911987e-02 -5.077392794191837311e-03 -1.323557179421186447e-02
-6.706999242305755615e-02 2.134715206921100616e-02 -1.002802997827529907e-01 1.111304759979248047e-01 -1.553401350975036621e-01 -5.337852984666824341e-02 -2.044268250465393066e-01 4.293432086706161499e-02 -2.420196235179901123e-01 6.786137074232101440e-02 1.056936103850603104e-02 1.325750350952148438e-01 1.175081133842468262e-01 3.145070001482963562e-02 3.579335659742355347e-02 1.288115233182907104e-02 -8.866075426340103149e-02 2.544877231121063232e-01 1.052629426121711731e-01 1.055554449558258057e-01 -1.767353527247905731e-02 -1.814658492803573608e-01 1.123576238751411438e-01 5.953646032139658928e-04 2.169634401798248291e-02 3.828894346952438354e-02 -2.992912195622920990e-03 -1.348043829202651978e-01 6.628097500652074814e-03 -4.481460526585578918e-02 -5.203885212540626526e-02 -9.257513284683227539e-02 1.113382875919342041e-01 -2.361270971596240997e-02 9.291689097881317139e-02 -1.210534200072288513e-01 6.908130366355180740e-03 2.180048227310180664e-01 -3.809352591633796692e-02 1.812423169612884521e-01 -2.056760638952255249e-01 3.428691253066062927e-02 -5.778805166482925415e-02 -1.195191219449043274e-01 -3.284392133355140686e-02 -9.071154892444610596e-02 1.108604073524475098e-01 3.312298282980918884e-02 9.439320862293243408e-02 -7.869315892457962036e-02 -1.540547609329223633e-02 -1.099799349904060364e-01 -2.285684049129486084e-01 7.831713557243347168e-02 -1.082653924822807312e-02 1.111764982342720032e-01 -3.749493882060050964e-02 -3.375221043825149536e-03
1.678433082997798920e-02 -2.176383137702941895e-02 1.709951311349868774e-01 -1.728882198221981525e-03 1.064090505242347717e-01 -2.607211936265230179e-03 -1.338104158639907837e-02 -8.182446658611297607e-02 5.002561211585998535e-02 6.950148940086364746e-02 -4.579366743564605713e-02 6.120023131370544434e-02 -1.512444950640201569e-02 1.859725415706634521e-01 -1.886055618524551392e-02 -1.675165072083473206e-02 -1.232591047883033752e-01 5.771937221288681030e-02 -5.059485509991645813e-02 -2.314672619104385376e-01 -1.911730915307998657e-01 -9.092586487531661987e-02 1.271167695522308350e-01 -1.385753508657217026e-02 6.732878834009170532e-02 3.682129026856273413e-04 -3.729569166898727417e-02 -1.048962585628032684e-03 -2.094184793531894684e-02 -3.071544691920280457e-03 2.287269532680511475e-01 3.347428515553474426e-02 -1.185030788183212280e-01 1.649409346282482147e-02 7.850767672061920166e-02 -4.130294546484947205e-02 -1.418574005365371704e-01 1.183070465922355652e-01 -6.837789714336395264e-02 1.389728635549545288e-01 4.041229560971260071e-02 -2.654761262238025665e-02 -4.835521057248115540e-02 -2.392631582915782928e-02 -5.214587599039077759e-02 3.734928742051124573e-02 -5.433497950434684753e-02 -5.836873315274715424e-03 9.142553061246871948e-02 -1.138522699475288391e-01 -3.053299337625503540e-02 6.130246073007583618e-02 4.138958826661109924e-02 1.105182692408561707e-01 -6.311038136482238770e-02 7.031887024641036987e-02 -9.019648283720016479e-02 -7.678882777690887451e-02
1.823908090591430664e-02 8.176952600479125977e-02 7.999540120363235474e-02 -2.085585519671440125e-02 -1.217766106128692627e-02 7.268633693456649780e-02 -3.896923363208770752e-02 -8.992736786603927612e-02 -1.087438198737800121e-03 -4.519501700997352600e-02 2.029234543442726135e-02 9.775364398956298828e-02 7.743936777114868164e-02 5.140245333313941956e-02 6.085376441478729248e-02 1.321049928665161133e-01 -1.402253210544586182e-01 1.895957812666893005e-02 2.646563388407230377e-02 9.698782116174697876e-02 1.162182390689849854e-01 8.168020099401473999e-02 4.007947063655592501e-05 4.908965900540351868e-02 3.589359810575842857e-03 -6.511849910020828247e-02 1.285604238510131836e-01 4.568721354007720947e-02 7.201191037893295288e-02 -1.229299530386924744e-01 1.363120507448911667e-02 1.410012543201446533e-01 -2.415235489606857300e-01 1.546868681907653809e-01 -3.077507950365543365e-02 1.362189948558807373e-01 -1.099205017089843750e-01 -6.625337153673171997e-02 -4.393560439348220825e-02 -8.392857015132904053e-02 2.084370143711566925e-02 1.543649286031723022e-02 -9.835395961999893188e-02 1.546277385205030441e-02 1.651053130626678467e-01 -8.801013231277465820e-02 6.126189604401588440e-02 1.774214394390583038e-02 -6.086039543151855469e-02 6.394288688898086548e-02 -6.677500158548355103e-02 -1.359146833419799805e-01 9.098779410123825073e-02 -4.899069294333457947e-02 8.843716979026794434e-02 1.673211008310317993e-01 -1.157350018620491028e-01 -4.836226627230644226e-02
1.128061115741729736e-01 -7.078527659177780151e-02 -2.226467477157711983e-03 6.159886345267295837e-02 -2.082878649234771729e-01 -9.332155436277389526e-02 -5.436306819319725037e-02 2.037885412573814392e-02 -5.606479942798614502e-02 -6.341051310300827026e-02 -5.520794540643692017e-02 3.986133635044097900e-02 9.047799557447433472e-02 7.947288453578948975e-02 -1.387775759212672710e-03 8.745969086885452271e-02 4.602112248539924622e-02 -1.236032769083976746e-01 1.421114709228277206e-02 9.593642503023147583e-02 -7.207162678241729736e-02 2.240038290619850159e-02 6.023669242858886719e-02 -3.663181886076927185e-02 -1.433347910642623901e-01 -1.161548774689435959e-02 -1.084083616733551025e-01 -4.760118201375007629e-02 -7.998462766408920288e-02 -8.433704078197479248e-02 -9.077307581901550293e-02 -5.365151911973953247e-02 -2.226631529629230499e-02 5.818878300487995148e-03 2.174396999180316925e-02 7.913275808095932007e-02 -1.521832644939422607e-01 1.588504761457443237e-02 3.499035164713859558e-02 -3.082690760493278503e-02 -5.049264803528785706e-02 2.215926349163055420e-02 1.592030189931392670e-02 2.875927649438381195e-02 -4.599101096391677856e-02 6.068262737244367599e-04 1.683272793889045715e-02 -4.949445277452468872e-02 4.404248669743537903e-02 -2.491990663111209869e-02 4.945976287126541138e-02 9.853944182395935059e-02 5.308273807168006897e-02 1.005025058984756470e-01 -1.186464205384254456e-01 6.869771331548690796e-02 1.100131124258041382e-02 -2.694620788097381592e-01
-1.971374154090881348e-01 -6.776043027639389038e-02 -4.142500460147857666e-02 -1.598777323961257935e-01 1.234497316181659698e-02 1.295623034238815308e-01 -8.506104350090026855e-02 4.250100627541542053e-02 5.815899744629859924e-02 -1.518915779888629913e-02 6.689326371997594833e-03 8.033931255340576172e-02 6.248576566576957703e-02 1.992535889148712158e-01 -4.852790012955665588e-02 3.281096369028091431e-02 1.000641286373138428e-01 -9.892245382070541382e-02 -5.102687329053878784e-02 9.073344618082046509e-02 -7.135868072509765625e-02 -6.266573816537857056e-02 -1.734153926372528076e-02 -1.686655171215534210e-02 -7.433041185140609741e-02 1.720023453235626221e-01 -8.494729548692703247e-02 -1.315549910068511963e-01 1.018209569156169891e-02 -6.149914115667343140e-02 -4.317069426178932190e-02 -6.835412234067916870e-03 1.189762800931930542e-01 1.290565282106399536e-01 2.430065535008907318e-02 7.906023412942886353e-02 1.263825446367263794e-01 8.968079835176467896e-02 2.268304862082004547e-02 7.575897872447967529e-02 6.548493355512619019e-02 1.208299305289983749e-02 -4.313652217388153076e-02 -3.102042339742183685e-02 -6.103155389428138733e-02 8.563271164894104004e-02 1.383710652589797974e-01 -7.516676560044288635e-03 8.297200500965118408e-02 2.075107954442501068e-02 -6.807531416416168213e-02 7.881308346986770630e-02 1.096380576491355896e-01 1.976195024326443672e-03 7.453664392232894897e-02 9.503745287656784058e-02 3.800382465124130249e-02 -9.943006560206413269e-03
1.084821373224258423e-01 1.247720271348953247e-01 -1.582129858434200287e-02 -2.585963606834411621e-01 -1.684853062033653259e-02 7.598224282264709473e-02 4.145320132374763489e-02 1.464742571115493774e-01 1.988163217902183533e-02 5.482402816414833069e-02 -8.162096142768859863e-02 -8.762472122907638550e-02 -4.215599969029426575e-03 -1.055497378110885620e-01 9.852552413940429688e-02 -1.081935167312622070e-01 -7.031287252902984619e-02 1.408680714666843414e-02 1.082637533545494080e-02 -1.352241933345794678e-01 -4.351093620061874390e-02 1.619796454906463623e-01 1.050445437431335449e-02 4.587883595377206802e-03 9.055780619382858276e-02 -4.474324733018875122e-02 2.576941065490245819e-02 -1.407536268234252930e-01 -6.214973703026771545e-02 -5.035828799009323120e-02 7.935860194265842438e-03 -6.758274137973785400e-02 -4.759654402732849121e-02 9.924592450261116028e-03 -3.097816556692123413e-02 8.918806165456771851e-02 8.017812669277191162e-02 6.151738343760371208e-04 -1.092537213116884232e-02 -1.297880858182907104e-01 6.106020882725715637e-02 -4.544791590888053179e-04 -1.033178344368934631e-01 2.354491688311100006e-02 -2.919589914381504059e-02 -1.659560203552246094e-01 7.034240663051605225e-02 8.186876773834228516e-02 -3.535053133964538574e-02 -2.152845859527587891e-01 4.172550886869430542e-02 4.797214269638061523e-02 1.670181378722190857e-02 -8.336074650287628174e-02 -3.000475279986858368e-02 5.262004584074020386e-02 -5.623863637447357178e-02 5.364485457539558411e-02
1.068234592676162720e-01 8.800414949655532837e-02 1.093135997653007507e-01 -8.921644091606140137e-02 -5.450781062245368958e-02 -2.760468609631061554e-02 9.810280054807662964e-02 1.292658895254135132e-01 9.791645221412181854e-03 1.560386419296264648e-01 1.180806979537010193e-01 1.381449848413467407e-01 2.347967401146888733e-02 -2.003101073205471039e-02 -1.139322519302368164e-01 8.026041835546493530e-02 -1.428434103727340698e-01 -3.084392659366130829e-02 2.554138600826263428e-01 3.645320236682891846e-02 1.057743560522794724e-02 -7.882525771856307983e-02 -3.536283969879150391e-02 -3.289003297686576843e-02 -5.548216030001640320e-02 8.200845867395401001e-02 3.428743919357657433e-03 -1.443769484758377075e-01 -4.732054844498634338e-02 1.693324930965900421e-02 4.903489351272583008e-02 1.103768944740295410e-01 -1.202812641859054565e-01 9.529923647642135620e-02 3.671158477663993835e-02 -1.054369583725929260e-01 3.895719721913337708e-02 -1.647950150072574615e-02 -6.147437170147895813e-02 7.182623445987701416e-02 2.238161861896514893e-01 -4.876904189586639404e-02 -5.529417097568511963e-02 -9.069314599037170410e-02 1.106014847755432129e-02 -2.456868067383766174e-02 9.099213406443595886e-03 -5.001934990286827087e-02 9.884429723024368286e-02 -1.764144897460937500e-01 2.068248391151428223e-02 5.906373634934425354e-02 2.143577635288238525e-01 -1.668476611375808716e-01 -7.746692746877670288e-02 1.405147016048431396e-01 8.599041029810905457e-03 9.336178004741668701e-02
2.989007718861103058e-02 1.997113823890686035e-01 3.307836875319480896e-02 -8.693065494298934937e-02 3.850781545042991638e-02 4.941847920417785645e-02 8.169572800397872925e-02 -1.284719854593276978e-01 6.583169847726821899e-02 8.823578804731369019e-02 1.096445769071578979e-01 -7.916148006916046143e-02 3.388398885726928711e-02 -8.456872403621673584e-02 -3.620336949825286865e-02 5.040001869201660156e-02 -9.703132510185241699e-02 -4.205862805247306824e-02 1.229487508535385132e-01 1.508239423856139183e-03 8.231193572282791138e-02 6.465373188257217407e-02 7.869672030210494995e-02 -9.210808575153350830e-02 -3.038688004016876221e-02 -1.847744286060333252e-01 -1.640568077564239502e-01 9.330476075410842896e-02 -1.251369416713714600e-01 6.544698029756546021e-02 1.043912097811698914e-01 7.621335983276367188e-02 -7.185230404138565063e-02 6.335127353668212891e-02 3.642578795552253723e-02 4.525005444884300232e-02 -4.660549387335777283e-02 2.176180034875869751e-01 -2.451421320438385010e-02 -8.560970425605773926e-02 -7.464074064046144485e-03 1.399304717779159546e-01 1.696009337902069092e-01 -3.434210270643234253e-02 -1.541124582290649414e-01 -1.303529590368270874e-01 2.985233254730701447e-02 -1.541025936603546143e-01 6.240594759583473206e-02 3.635372221469879150e-02 -1.362868845462799072e-01 1.875090748071670532e-01 -2.673108316957950592e-02 -1.040644384920597076e-02 2.713060565292835236e-02 -6.787413358688354492e-02 -5.648475885391235352e-02 1.136474609375000000e-01
-1.066103018820285797e-02 3.897218033671379089e-02 -1.204283833503723145e-01 -4.008515924215316772e-02 1.881216157926246524e-04 3.703732788562774658e-02 6.600094586610794067e-02 5.853158980607986450e-02 6.817375868558883667e-02 -9.396081417798995972e-02 3.553530666977167130e-03 -8.478108048439025879e-02 3.701913356781005859e-02 1.863231137394905090e-02 6.145266443490982056e-02 -1.373373623937368393e-02 1.542844176292419434e-01 -3.361177444458007812e-02 1.667310856282711029e-02 -1.429519429802894592e-02 1.129171997308731079e-02 1.943788491189479828e-02 -3.690018132328987122e-02 -5.981093645095825195e-02 -5.775607749819755554e-02 4.415968805551528931e-02 -8.112600073218345642e-03 -1.422072798013687134e-01 -6.145281717181205750e-02 -5.896197631955146790e-03 7.179028540849685669e-02 1.214838549494743347e-01 -3.597865626215934753e-02 1.555976867675781250e-01 1.251007989048957825e-02 -8.024471253156661987e-02 -1.222345232963562012e-01 7.291729003190994263e-02 9.959623962640762329e-02 8.235709741711616516e-03 -2.046917229890823364e-01 -1.744005642831325531e-02 1.141019240021705627e-01 -8.358635008335113525e-02 -1.416239142417907715e-01 -3.008307702839374542e-02 -2.548518776893615723e-02 -9.586449596099555492e-04 -2.231215313076972961e-02 -3.193226177245378494e-03 -1.531046442687511444e-02 -3.036016412079334259e-02 -8.500912785530090332e-02 7.995493710041046143e-03 -1.569050848484039307e-01 -1.457902640104293823e-01 -8.893600851297378540e-02 -6.348191946744918823e-02
-7.577013224363327026e-03 1.305667608976364136e-01 1.128858551383018494e-01 2.076734788715839386e-02 6.708079576492309570e-02 -1.591544249095022678e-03 8.837689459323883057e-02 8.021876960992813110e-02 1.866681501269340515e-02 -1.404314637184143066e-01 1.235981658101081848e-01 -2.724466146901249886e-03 8.329091221094131470e-02 7.116945087909698486e-02 -1.396035850048065186e-01 4.505316168069839478e-02 -6.465444713830947876e-02 -5.772945657372474670e-02 -1.203718110918998718e-01 -9.551533497869968414e-03 1.510688811540603638e-01 -6.074410676956176758e-02 1.211830228567123413e-01 4.925596714019775391e-02 -3.465063497424125671e-02 -8.101178705692291260e-02 4.614061489701271057e-02 -9.889887273311614990e-02 6.110076233744621277e-02 9.067742526531219482e-02 2.550643496215343475e-02 3.668940812349319458e-02 -7.152411621063947678e-03 7.583875954151153564e-02 -6.356400996446609497e-02 3.873443230986595154e-02 3.883376950398087502e-03 1.708116196095943451e-02 -4.587140306830406189e-02 1.470577716827392578e-01 5.197856947779655457e-02 7.500886172056198120e-02 -7.365500181913375854e-02 1.262211799621582031e-01 5.515743792057037354e-02 3.397423028945922852e-02 -2.201041579246520996e-02 1.099587157368659973e-01 1.055646911263465881e-01 -3.070077486336231232e-02 -4.422869905829429626e-02 1.887348294258117676e-01 -2.500366792082786560e-02 -2.669041603803634644e-02 1.379384845495223999e-01 1.587850898504257202e-01 1.309517920017242432e-01 3.348014783114194870e-03
3.420949354767799377e-02 1.381125897169113159e-01 1.023747846484184265e-01 -1.082024499773979187e-01 1.115624606609344482e-02 -1.717438995838165283e-01 -9.804412722587585449e-02 4.223626852035522461e-02 -6.035603210330009460e-02 1.778692603111267090e-01 2.157390303909778595e-02 -9.709677845239639282e-02 -7.143412530422210693e-02 1.739800907671451569e-02 1.137361954897642136e-02 2.118585631251335144e-02 -4.972007498145103455e-02 1.410747040063142776e-02 -9.038719534873962402e-02 5.845038220286369324e-02 4.983866959810256958e-02 -1.265846565365791321e-02 -5.468741059303283691e-02 6.539858877658843994e-03 -1.005273088812828064e-01 9.739399887621402740e-03 -1.375704705715179443e-01 2.277926169335842133e-02 -8.084735274314880371e-02 -3.403466939926147461e-02 1.413462311029434204e-01 8.148373663425445557e-02 -1.857731044292449951e-01 1.117688044905662537e-01 7.698526978492736816e-02 3.533041477203369141e-02 5.271397903561592102e-02 3.130426257848739624e-02 -1.356296092271804810e-01 3.455118834972381592e-02 -7.425405085086822510e-02 2.819964289665222168e-02 1.164273321628570557e-01 -3.723452612757682800e-02 1.441358309239149094e-02 1.010944321751594543e-01 6.548170000314712524e-02 -8.649364113807678223e-02 -3.593578562140464783e-02 -2.646327391266822815e-02 -1.118523254990577698e-01 -2.848380245268344879e-02 5.311129242181777954e-02 -1.198749318718910217e-01 1.657117716968059540e-02 -1.699002110399305820e-03 2.612165361642837524e-02 -8.702591061592102051e-02
8.642358332872390747e-02 1.939342319965362549e-01 -2.350220829248428345e-02 -1.422282010316848755e-01 -7.462599873542785645e-02 2.308947890996932983e-01 9.429264068603515625e-02 -4.932410269975662231e-02 -1.511193439364433289e-02 1.387375593185424805e-02 -5.392232164740562439e-02 5.016848817467689514e-02 1.516120284795761108e-01 5.765613913536071777e-02 -2.326720766723155975e-02 -6.481878459453582764e-02 -9.748730063438415527e-02 4.845335613936185837e-03 -6.579848378896713257e-02 -4.007611796259880066e-02 1.173790916800498962e-01 9.324973821640014648e-02 -3.322054073214530945e-02 -1.648691017180681229e-03 -3.540976345539093018e-02 6.496719270944595337e-02 6.526365876197814941e-02 -2.018596976995468140e-02 -3.546323999762535095e-02 2.136376202106475830e-01 2.594437822699546814e-02 -1.175737231969833374e-01 1.422018557786941528e-01 2.317750453948974609e-01 9.517353028059005737e-02 -2.858120389282703400e-02 -6.021203100681304932e-02 -4.730741679668426514e-02 -1.050378829240798950e-01 4.343852028250694275e-02 -6.830669939517974854e-02 8.041849732398986816e-02 -8.997621014714241028e-03 9.293214417994022369e-03 6.000036001205444336e-02 1.175789460539817810e-01 -1.027453020215034485e-01 5.528770014643669128e-02 -5.607108026742935181e-02 1.516422373242676258e-03 2.018566876649856567e-01 -1.626135706901550293e-01 -5.822330247610807419e-03 1.560366153717041016e-01 1.410330235958099365e-01 1.018460988998413086e-01 -1.759348660707473755e-01 -7.544931769371032715e-02
-8.350153267383575439e-02 9.429483115673065186e-02 6.438618898391723633e-02 -1.725858896970748901e-01 3.144877776503562927e-02 -1.415330767631530762e-01 -9.945540130138397217e-02 6.294208765029907227e-02 3.975756466388702393e-02 -4.337711632251739502e-02 6.839977949857711792e-02 1.112418472766876221e-01 2.081314660608768463e-02 -5.554643459618091583e-03 1.566478982567787170e-02 -4.411196336150169373e-02 2.528489567339420319e-02 1.245005428791046143e-01 -2.354619791731238365e-03 -2.170429825782775879e-01 -2.120853587985038757e-02 1.054620370268821716e-03 2.864341065287590027e-02 1.539586931467056274e-01 -4.716431349515914917e-02 8.300964534282684326e-02 7.427643984556198120e-02 1.263098325580358505e-02 -2.616782188415527344e-01 9.788058698177337646e-02 -7.963171601295471191e-02 1.943334043025970459e-01 -4.461117461323738098e-02 4.572133347392082214e-02 -1.135787963867187500e-01 -5.731786414980888367e-02 -2.182862535119056702e-02 -9.159202873706817627e-02 3.686986118555068970e-02 8.690599352121353149e-02 -5.183846876025199890e-02 -1.621756404638290405e-01 -6.069304794073104858e-02 -5.306328833103179932e-02 -2.767406404018402100e-03 -1.302916854619979858e-01 1.177573725581169128e-01 4.600124433636665344e-02 -1.997352987527847290e-01 3.694830834865570068e-02 4.064064472913742065e-02 -1.126581728458404541e-01 -3.778484091162681580e-02 5.583918467164039612e-02 8.210827410221099854e-02 2.455256879329681396e-02 -2.143363701179623604e-03 6.710530072450637817e-02
1.112863868474960327e-01 -3.216197714209556580e-02 2.186629921197891235e-01 6.428214907646179199e-02 5.156107619404792786e-02 1.079473644495010376e-01 5.815205723047256470e-02 1.637533158063888550e-01 -1.742713153362274170e-01 -9.744254499673843384e-02 -1.108741313219070435e-01 5.861013010144233704e-02 1.541945934295654297e-01 -3.282758221030235291e-02 -1.257430575788021088e-02 6.473760306835174561e-02 3.954724222421646118e-02 1.848998367786407471e-01 1.222228333353996277e-01 -6.776668131351470947e-02 1.559487357735633850e-02 1.006869971752166748e-02 -1.079005002975463867e-01 1.237245947122573853e-01 -6.769398599863052368e-02 -8.707064390182495117e-02 2.071378380060195923e-02 6.093387305736541748e-02 5.933836568146944046e-03 -2.952008740976452827e-03 7.839225232601165771e-02 1.727200746536254883e-01 5.504068732261657715e-02 9.310218691825866699e-02 -5.973487347364425659e-02 -1.957784406840801239e-02 1.003121957182884216e-01 -5.427374970167875290e-03 -8.693532645702362061e-02 -1.913013285957276821e-03 -1.926173269748687744e-02 -7.416479289531707764e-02 -1.177391968667507172e-03 1.044659465551376343e-01 -4.796431958675384521e-02 -8.609525114297866821e-02 3.487254679203033447e-02 -1.233534142374992371e-02 -1.143453419208526611e-01 -6.532888114452362061e-02 2.848723903298377991e-02 4.081339016556739807e-02 -4.427027422934770584e-03 1.036301106214523315e-01 -5.225630849599838257e-02 -6.590528786182403564e-02 -2.609590999782085419e-02 -6.394977867603302002e-02
-1.336779594421386719e-01 3.037045337259769440e-02 2.014481648802757263e-02 1.748657077550888062e-01 3.652720898389816284e-02 -3.170812129974365234e-02 -8.027066476643085480e-03 -7.004321366548538208e-02 3.544377535581588745e-02 3.671118756756186485e-03 -4.271504655480384827e-02 -9.346779435873031616e-02 7.678684592247009277e-02 1.615577787160873413e-01 -3.950894623994827271e-02 -1.618092358112335205e-01 -8.623966574668884277e-02 -1.265255063772201538e-01 1.217593103647232056e-01 -1.086327806115150452e-01 1.364235766232013702e-02 -1.641452498733997345e-02 -2.979863435029983521e-02 -2.435383647680282593e-01 2.968601696193218231e-02 4.353416152298450470e-03 4.097310453653335571e-02 -1.701628556475043297e-03 1.552752554416656494e-01 -1.214161217212677002e-01 2.198122739791870117e-01 -4.529346153140068054e-02 1.064623370766639709e-01 1.776982545852661133e-01 -9.008740633726119995e-02 1.122660264372825623e-01 4.034657031297683716e-02 7.386571913957595825e-02 -9.990865737199783325e-02 5.094039067625999451e-02 -9.755597449839115143e-03 3.571606706827878952e-03 -2.762231789529323578e-02 -2.307010581716895103e-03 -1.083435863256454468e-01 6.816108524799346924e-02 -2.064435780048370361e-01 1.551755368709564209e-01 -8.533935993909835815e-02 -2.380019612610340118e-02 -4.773797001689672470e-03 -1.208092421293258667e-01 -1.434342712163925171e-01 -1.595635116100311279e-01 -1.066865865141153336e-03 5.350167676806449890e-02 1.158190425485372543e-02 -4.152524471282958984e-02
-9.703835099935531616e-02 -3.421467542648315430e-02 -1.587664708495140076e-03 -1.088094040751457214e-01 -1.765793710947036743e-01 -9.776320308446884155e-02 2.000573463737964630e-02 -1.176959276199340820e-02 -9.332605637609958649e-03 1.443562805652618408e-01 -7.815115153789520264e-02 -5.128972232341766357e-02 4.731928557157516479e-02 9.133409708738327026e-02 3.087801113724708557e-02 5.931083858013153076e-02 1.351616829633712769e-01 7.354793697595596313e-02 9.187257289886474609e-02 -1.361222416162490845e-01 -5.059453472495079041e-02 -7.243020087480545044e-02 7.920395582914352417e-02 9.384665638208389282e-02 -6.652247393503785133e-04 5.018375068902969360e-02 -9.037320502102375031e-03 -9.737654030323028564e-02 6.088358536362648010e-02 9.645318239927291870e-02 4.783276095986366272e-02 -5.164869502186775208e-02 2.022304199635982513e-02 3.670589625835418701e-02 7.615524530410766602e-02 -1.368821412324905396e-01 1.023564487695693970e-02 -9.406950324773788452e-02 3.495608689263463020e-03 -1.942320913076400757e-01 3.992628678679466248e-02 6.837915629148483276e-02 5.854618549346923828e-02 -2.473397925496101379e-02 8.796853572130203247e-02 1.497513800859451294e-01 7.388295978307723999e-02 -6.433373689651489258e-02 -5.625134333968162537e-03 -3.021914884448051453e-02 -8.593517541885375977e-02 4.224596917629241943e-02 4.026978742331266403e-03 1.850600987672805786e-01 -3.467874228954315186e-02 -4.332263767719268799e-02 1.218031272292137146e-01 1.810617446899414062e-01
1.855631917715072632e-01 -9.856133162975311279e-02 1.075882688164710999e-01 1.163228377699851990e-01 4.364857450127601624e-02 -1.443588454276323318e-02 2.315935306251049042e-02 -1.192063391208648682e-01 1.086449548602104187e-01 1.563600152730941772e-01 7.354718446731567383e-02 -4.284578026272356510e-04 -5.202839151024818420e-02 -1.609323918819427490e-02 -1.117800027132034302e-01 3.395751863718032837e-02 6.843228638172149658e-02 -7.112953066825866699e-02 5.007403902709484100e-03 4.915757849812507629e-02 8.502362668514251709e-02 7.717636972665786743e-02 -1.158484593033790588e-01 -6.647042185068130493e-02 -6.654658168554306030e-02 -1.103747263550758362e-02 6.649115681648254395e-02 -4.394885525107383728e-02 8.941397815942764282e-02 -2.355361729860305786e-02 2.268457561731338501e-01 7.240228354930877686e-02 4.810553789138793945e-02 -6.953589618206024170e-02 8.554598025511950254e-05 1.477996408939361572e-01 4.208766669034957886e-02 7.302830927073955536e-04 -3.204325959086418152e-02 2.984683029353618622e-02 8.592569828033447266e-02 -2.044735848903656006e-02 1.239965409040451050e-01 -8.432327210903167725e-02 -5.937726795673370361e-02 3.383251605555415154e-03 1.543897539377212524e-01 6.405179202556610107e-02 -4.072415083646774292e-02 -7.154764980077743530e-02 1.744670569896697998e-01 7.756999880075454712e-02 -1.342933923006057739e-01 7.257294654846191406e-02 8.471527695655822754e-02 -1.088343337178230286e-01 9.050621092319488525e-02 -2.252419665455818176e-02
-1.374927349388599396e-02 -1.148491501808166504e-01 -1.105998381972312927e-01 -1.008261591196060181e-01 -6.352925673127174377e-03 -1.652002185583114624e-01 1.116228569298982620e-02 -5.237207934260368347e-02 -2.009615302085876465e-01 6.978396326303482056e-02 7.142858952283859253e-02 -1.447962373495101929e-01 -5.216759815812110901e-02 5.744823440909385681e-02 -2.366100251674652100e-02 -2.822547405958175659e-02 5.908954516053199768e-02 1.000851392745971680e-01 -8.439289033412933350e-02 6.208258494734764099e-02 1.682341098785400391e-02 7.976356893777847290e-02 -3.357733786106109619e-02 -1.232564076781272888e-01 9.473928809165954590e-02 4.150867462158203125e-02 -4.686160758137702942e-02 -4.946450889110565186e-02 7.548366487026214600e-02 3.836021572351455688e-02 9.492557495832443237e-03 4.335595667362213135e-02 -2.734270691871643066e-01 8.780569583177566528e-02 9.456163644790649414e-02 -3.859446197748184204e-02 -8.540155738592147827e-02 -8.112280815839767456e-02 -2.109510451555252075e-01 -6.447823345661163330e-02 -1.973196566104888916e-01 -4.606213048100471497e-02 -7.659392803907394409e-02 -4.222384095191955566e-02 -2.674302160739898682e-01 1.455103456974029541e-01 3.602562472224235535e-02 -2.484133653342723846e-02 9.426342876395210624e-05 1.039059981703758240e-01 -1.043700724840164185e-01 -3.577250987291336060e-02 8.334552496671676636e-02 1.243651565164327621e-02 -1.399780362844467163e-01 -1.374675035476684570e-01 -1.120752170681953430e-01 -4.432395845651626587e-02
-7.110506296157836914e-03 3.639961034059524536e-02 4.903452470898628235e-02 -1.070852056145668030e-01 -9.636575728654861450e-02 -1.463017463684082031e-01 -8.523884415626525879e-02 5.924406647682189941e-02 -1.501244604587554932e-01 -9.818115085363388062e-02 -1.101330518722534180e-01 -2.597031183540821075e-02 -9.304668754339218140e-02 1.357835680246353149e-01 -8.446756750345230103e-02 -1.709955371916294098e-02 3.188411006703972816e-03 1.349003314971923828e-01 6.204776465892791748e-02 -1.355544477701187134e-01 -1.122788339853286743e-01 -2.303262241184711456e-02 -2.324856258928775787e-02 -9.315250441431999207e-03 -2.123185247182846069e-02 -3.085976466536521912e-02 -3.340783715248107910e-02 -8.390176296234130859e-02 -1.008192226290702820e-01 -1.884485930204391479e-01 -9.735379368066787720e-02 9.200996160507202148e-02 -7.035316526889801025e-02 2.262841165065765381e-02 -1.242133509367704391e-02 -2.140292972326278687e-01 1.348682194948196411e-01 3.624735772609710693e-02 -1.125068068504333496e-01 -1.844783723354339600e-01 9.085036814212799072e-02 1.612394452095031738e-01 -5.728196725249290466e-02 4.772261716425418854e-03 1.145443245768547058e-01 -1.132616214454174042e-02 -8.928314782679080963e-03 -1.662529110908508301e-01 -5.725310649722814560e-03 3.464651107788085938e-02 1.000116579234600067e-02 -4.618498962372541428e-03 -1.056288834661245346e-02 1.084742546081542969e-01 1.733440458774566650e-01 9.962121024727821350e-03 -7.091368734836578369e-02 4.412951879203319550e-03
-5.599053576588630676e-02 -1.652428321540355682e-02 1.497244983911514282e-01 2.077397704124450684e-02 -8.519683964550495148e-03 9.962170571088790894e-02 1.627278700470924377e-02 -7.130410522222518921e-02 -1.151529774069786072e-01 4.568888619542121887e-02 -8.185051381587982178e-02 6.215433776378631592e-02 -4.251733794808387756e-02 -6.411818414926528931e-02 7.127875834703445435e-02 4.954770952463150024e-02 -2.236965671181678772e-02 -7.235421985387802124e-02 1.711308509111404419e-01 8.032871782779693604e-02 6.596437841653823853e-02 -1.725111305713653564e-01 -2.294802479445934296e-02 2.898718230426311493e-02 1.365318056195974350e-02 -8.160102367401123047e-02 -1.128616835922002792e-02 6.630703061819076538e-02 1.911347657442092896e-01 8.746346831321716309e-02 2.171078696846961975e-02 -1.056318506598472595e-01 1.444843597710132599e-02 1.040696632117033005e-02 1.525691598653793335e-01 -5.154477432370185852e-02 1.326120495796203613e-01 -6.249590218067169189e-02 8.359357714653015137e-02 5.820463970303535461e-02 -1.584805697202682495e-01 1.352913528680801392e-01 3.537187725305557251e-02 -9.217102825641632080e-02 -9.031137079000473022e-02 1.151809543371200562e-01 -1.329576820135116577e-01 2.051698118448257446e-01 4.593729227781295776e-02 6.134304031729698181e-02 -4.115341976284980774e-02 8.740035444498062134e-02 -1.118396073579788208e-01 5.222345516085624695e-02 6.498119980096817017e-02 1.742350310087203979e-02 9.823840111494064331e-02 -1.931420899927616119e-02
9.479191899299621582e-02 5.140729714184999466e-03 5.204015225172042847e-02 -6.430312991142272949e-02 1.009715162217617035e-02 -6.164059042930603027e-02 4.771319404244422913e-02 -1.269843149930238724e-02 -1.827221661806106567e-01 1.667902469635009766e-01 -9.613613784313201904e-02 1.553262211382389069e-02 8.465846627950668335e-02 -1.759310811758041382e-01 -1.547100255265831947e-03 -1.216054111719131470e-01 1.224157884716987610e-01 -5.379449203610420227e-02 -5.425597354769706726e-02 5.497693270444869995e-02 7.865493744611740112e-02 -1.830745115876197815e-02 -2.830263599753379822e-02 -8.099626004695892334e-02 9.806550107896327972e-03 7.935498654842376709e-02 2.338793724775314331e-01 2.762145735323429108e-02 -3.124657459557056427e-02 -5.486815795302391052e-02 1.180505603551864624e-01 3.730734065175056458e-02 9.147526323795318604e-02 1.114975381642580032e-02 1.172316819429397583e-02 2.817771770060062408e-02 -9.244062751531600952e-02 -1.311309486627578735e-01 -1.042545586824417114e-01 -3.010514006018638611e-02 1.610972359776496887e-02 -9.806253015995025635e-02 -3.386238217353820801e-02 5.642429739236831665e-02 1.690192818641662598e-01 -3.849492408335208893e-03 1.159367561340332031e-01 1.178296059370040894e-01 -1.089009791612625122e-01 1.468302458524703979e-01 1.087876558303833008e-01 9.483552724123001099e-02 1.635590046644210815e-01 -9.145487099885940552e-02 1.407896578311920166e-01 1.284057646989822388e-01 -1.535099186003208160e-02 2.453767694532871246e-02
2.712027728557586670e-01 3.002768196165561676e-02 4.702297598123550415e-02 7.798519730567932129e-02 -6.557770818471908569e-02 2.913638204336166382e-02 6.458316929638385773e-03 1.299403905868530273e-01 4.519322421401739120e-03 -4.410782456398010254e-02 1.932822763919830322e-01 -1.074778288602828979e-01 6.953467428684234619e-02 2.859706617891788483e-02 -1.333427894860506058e-02 2.625915221869945526e-02 -1.328483670949935913e-01 2.745603211224079132e-02 1.962013393640518188e-01 -5.067049339413642883e-02 -8.657518774271011353e-03 -1.396020408719778061e-02 -3.405170887708663940e-02 -4.328796267509460449e-02 -3.932817652821540833e-02 3.067206032574176788e-02 5.489687249064445496e-02 -9.530923515558242798e-02 4.402350634336471558e-02 -8.284937590360641479e-02 -6.399542093276977539e-02 1.657116599380970001e-02 8.603563904762268066e-02 -3.201742097735404968e-02 -1.033708602190017700e-01 1.898664608597755432e-02 -4.302203655242919922e-02 1.642029918730258942e-02 -1.402383148670196533e-01 5.931518226861953735e-02 -1.289889067411422729e-01 -2.821673825383186340e-02 5.415743961930274963e-02 -7.927973568439483643e-02 -5.655373446643352509e-03 2.390569075942039490e-02 4.907579347491264343e-02 -1.676801592111587524e-02 -1.383146829903125763e-02 -8.738888800144195557e-02 -6.020981073379516602e-02 -1.309691965579986572e-01 1.124819442629814148e-01 6.061975285410881042e-02 1.440680865198373795e-02 2.976751327514648438e-02 9.545808285474777222e-02 -1.345653980970382690e-01
-6.249918788671493530e-02 3.764892742037773132e-02 -3.860932588577270508e-02 -1.693153083324432373e-01 -1.096579805016517639e-01 -6.955458968877792358e-02 -3.493687603622674942e-03 1.900056302547454834e-01 4.750663787126541138e-02 1.396219283342361450e-01 2.404785901308059692e-02 -1.406973898410797119e-01 1.080524995923042297e-01 -5.843042582273483276e-02 1.873000860214233398e-01 -2.458510175347328186e-02 -4.825932160019874573e-02 -5.924600362777709961e-02 7.013037055730819702e-02 -1.434212899766862392e-03 7.919210195541381836e-02 1.521213054656982422e-01 6.194855645298957825e-02 -2.148966304957866669e-02 -1.150923594832420349e-01 -5.511137098073959351e-02 1.020834073424339294e-01 -2.919435314834117889e-02 5.007232725620269775e-02 7.181361317634582520e-02 1.429274957627058029e-02 5.371272563934326172e-02 -3.460491076111793518e-02 -6.972060352563858032e-02 1.721410751342773438e-01 1.963968127965927124e-01 7.629194855690002441e-02 2.110413974151015282e-03 -2.262986004352569580e-01 -3.407528623938560486e-02 -3.349432721734046936e-02 2.486210130155086517e-02 -2.768935449421405792e-02 3.174126520752906799e-02 5.235967785120010376e-02 -9.807185828685760498e-02 -4.445445165038108826e-02 3.434453904628753662e-02 6.774093955755233765e-02 -1.395807266235351562e-01 -1.387180984020233154e-01 -9.454002231359481812e-02 9.362493874505162239e-04 1.003728955984115601e-01 7.739444822072982788e-02 -1.037332788109779358e-01 -2.466785348951816559e-02 2.013037726283073425e-02
7.132627069950103760e-02 1.303053200244903564e-01 -1.617177389562129974e-02 1.505565643310546875e-01 -1.488333642482757568e-01 -1.009682416915893555e-01 -1.130893267691135406e-02 -8.058086037635803223e-02 1.401439458131790161e-01 -8.219119161367416382e-02 -1.252844184637069702e-01 -1.092315465211868286e-01 -1.153397373855113983e-02 1.000276729464530945e-01 1.125177145004272461e-01 1.640047580003738403e-01 6.146841868758201599e-02 -2.624865807592868805e-02 1.988568902015686035e-02 1.718047261238098145e-01 -5.634703487157821655e-02 4.371856525540351868e-02 8.580980449914932251e-02 2.242926508188247681e-02 -1.749139130115509033e-01 -2.266588658094406128e-01 -3.670497331768274307e-03 -1.552837248891592026e-02 -1.270119696855545044e-01 5.487387627363204956e-02 4.161518812179565430e-02 -1.023278199136257172e-02 -1.183831915259361267e-01 -8.897934458218514919e-05 -1.843187361955642700e-01 8.526813238859176636e-03 1.766915023326873779e-01 -1.549708889797329903e-03 -1.396760344505310059e-01 -1.349201947450637817e-01 1.897955499589443207e-02 6.036593578755855560e-03 -7.887789048254489899e-03 -1.190120056271553040e-01 8.686080574989318848e-03 -9.083242714405059814e-02 -8.661759644746780396e-02 3.575730323791503906e-02 8.407047390937805176e-02 -2.400159090757369995e-02 -8.348156511783599854e-02 1.845419034361839294e-02 9.863167256116867065e-02 -3.028011322021484375e-02 -3.772615268826484680e-02 -5.265646800398826599e-02 1.901955753564834595e-01 1.051193475723266602e-01
8.992837392725050449e-04 1.461740583181381226e-01 9.137045592069625854e-02 -3.997480869293212891e-02 9.096933901309967041e-02 -5.325621739029884338e-02 -6.897481530904769897e-02 -1.391124874353408813e-01 -3.312184289097785950e-02 2.862788178026676178e-02 1.000445336103439331e-01 1.175469830632209778e-01 7.591824978590011597e-02 1.116143763065338135e-01 -1.299547553062438965e-01 -3.609928861260414124e-02 -1.304582506418228149e-01 -1.600005775690078735e-01 5.472103133797645569e-02 8.923259377479553223e-02 2.525389753282070160e-02 -6.716343015432357788e-02 -2.581289969384670258e-02 -7.788708806037902832e-02 9.302547574043273926e-02 2.021126262843608856e-02 -2.498210221529006958e-02 -1.610944233834743500e-02 7.392609119415283203e-02 -1.461635809391736984e-02 7.175994664430618286e-02 8.611482381820678711e-02 -5.905142752453684807e-04 -5.116668343544006348e-02 1.532682776451110840e-01 8.202220499515533447e-02 3.267077729105949402e-02 1.079891342669725418e-03 2.222943305969238281e-01 1.184126734733581543e-02 -9.428165853023529053e-02 -1.337749361991882324e-01 -2.924873307347297668e-02 1.352814137935638428e-01 -1.082836911082267761e-01 -4.590222984552383423e-02 -7.092142850160598755e-02 4.861165583133697510e-02 -1.988890469074249268e-01 -4.734424501657485962e-02 -5.565454810857772827e-02 -1.788241788744926453e-02 2.283055633306503296e-01 9.363024681806564331e-02 -7.424091547727584839e-02 -1.028355434536933899e-01 -1.086528822779655457e-01 -1.600184440612792969e-01
1.477560587227344513e-02 5.201387032866477966e-02 -1.084108576178550720e-01 -9.561117738485336304e-02 5.353038664907217026e-03 9.079265594482421875e-02 4.687248542904853821e-02 6.694110482931137085e-02 -1.550068892538547516e-02 -7.250078767538070679e-02 9.689148515462875366e-02 -1.009248346090316772e-01 2.266275137662887573e-02 1.748005896806716919e-01 -3.148568049073219299e-02 4.501459002494812012e-02 8.905167877674102783e-02 -9.895886480808258057e-02 2.137639559805393219e-02 -1.151942685246467590e-01 8.536834269762039185e-02 -2.881402149796485901e-02 -8.821059763431549072e-02 -3.199777752161026001e-02 -1.950873881578445435e-01 9.178683161735534668e-03 4.433531314134597778e-02 2.216986380517482758e-03 2.167437411844730377e-02 2.346054092049598694e-02 -5.228212475776672363e-02 -2.108627930283546448e-02 -1.035081595182418823e-01 4.238459840416908264e-02 -1.449125409126281738e-01 -5.332504212856292725e-02 4.659071937203407288e-02 -2.169270217418670654e-01 2.325744740664958954e-02 -1.058372631669044495e-01 3.673808649182319641e-02 1.485512703657150269e-01 -1.110729426145553589e-01 -7.145800441503524780e-02 -6.226561963558197021e-02 9.645029157400131226e-02 -2.226664312183856964e-02 1.169700548052787781e-01 -5.647866055369377136e-02 1.417879667133092880e-02 -2.495606057345867157e-02 -1.678587049245834351e-01 1.073574796319007874e-01 3.941511362791061401e-02 7.254931330680847168e-02 3.455807641148567200e-02 4.012507945299148560e-02 -9.588816761970520020e-02
-6.345836818218231201e-02 1.778035312891006470e-01 2.254286706447601318e-01 -1.015688851475715637e-01 -1.372685749083757401e-02 -1.751539260149002075e-01 4.192002490162849426e-02 5.447147041559219360e-02 1.443403065204620361e-01 6.174585595726966858e-02 -1.209400221705436707e-01 -8.164493739604949951e-02 -1.559582650661468506e-01 1.128919795155525208e-01 1.474981755018234253e-01 -1.978953555226325989e-02 -2.415630370378494263e-01 -1.129200588911771774e-02 -1.703631132841110229e-02 -3.065151534974575043e-02 -9.581851214170455933e-02 1.385124921798706055e-01 -2.721248380839824677e-02 -2.244765497744083405e-02 1.340158469974994659e-02 1.751419343054294586e-02 -5.928847938776016235e-02 6.741061061620712280e-02 7.865065336227416992e-02 1.416976563632488251e-02 -3.067545592784881592e-03 1.389923840761184692e-01 1.289938688278198242e-01 -3.797381743788719177e-02 -5.266930162906646729e-02 9.211337566375732422e-02 1.467603445053100586e-01 -2.029115520417690277e-02 1.366721373051404953e-02 -2.872146666049957275e-02 -3.250656276941299438e-02 -2.814583294093608856e-02 -1.415082663297653198e-01 7.942791283130645752e-02 -6.899029016494750977e-02 -6.382571160793304443e-02 1.839693635702133179e-01 -4.019981995224952698e-02 -1.156346052885055542e-01 1.051677018404006958e-01 4.041649401187896729e-02 2.912915498018264771e-02 -9.944544732570648193e-02 1.521694809198379517e-01 1.709520816802978516e-02 -1.563724316656589508e-02 2.060728371143341064e-01 -1.166768297553062439e-01
9.714110195636749268e-02 1.840380281209945679e-01 -1.258535981178283691e-01 2.834770083427429199e-01 -3.666397929191589355e-02 -4.889671504497528076e-02 5.590624362230300903e-02 -8.979885280132293701e-02 -1.660233736038208008e-01 -1.173300519585609436e-01 -1.470065712928771973e-01 1.802013628184795380e-02 -4.351965035311877728e-04 -8.668775111436843872e-02 -1.080455631017684937e-01 8.663517236709594727e-02 7.112962752580642700e-02 8.152957260608673096e-02 6.874253507703542709e-03 2.797543071210384369e-02 2.291246131062507629e-02 -1.354921460151672363e-01 4.676357656717300415e-02 -6.690791808068752289e-03 1.076999679207801819e-01 -1.329530123621225357e-02 -4.955866560339927673e-02 -2.418820112943649292e-01 5.314597859978675842e-02 2.999546825885772705e-01 9.327556937932968140e-02 -1.025988683104515076e-01 1.059451475739479065e-01 -2.419579029083251953e-02 -6.571950018405914307e-02 2.231211774051189423e-02 -1.032147929072380066e-02 -1.403806656599044800e-01 6.545394659042358398e-02 6.201215833425521851e-02 7.427357882261276245e-02 2.944577299058437347e-02 -3.700705245137214661e-02 1.581687629222869873e-01 1.838200725615024567e-02 3.321286663413047791e-02 1.194575577974319458e-01 -3.385508060455322266e-02 -2.483875676989555359e-02 2.304768934845924377e-02 -2.078164927661418915e-02 2.005200833082199097e-01 6.617587991058826447e-03 6.911297887563705444e-02 -2.646222338080406189e-02 -6.213060021400451660e-02 -4.216098785400390625e-02 2.226864546537399292e-01
-9.126537293195724487e-02 -7.153935730457305908e-02 2.888246625661849976e-02 3.004935942590236664e-02 -8.058308809995651245e-02 5.104357842355966568e-03 -2.883881330490112305e-02 -2.472141943871974945e-02 -6.312477588653564453e-02 5.869708955287933350e-02 -3.248153254389762878e-02 7.950647920370101929e-02 2.823302708566188812e-02 1.512386836111545563e-02 1.154925860464572906e-02 -1.635801978409290314e-02 6.987714767456054688e-02 -7.004832476377487183e-02 4.704931750893592834e-02 9.419551491737365723e-02 1.107437461614608765e-01 -5.350972060114145279e-03 1.231729760766029358e-01 1.205823943018913269e-01 7.204566150903701782e-02 -6.947503238916397095e-02 -5.098989605903625488e-02 1.127915456891059875e-01 -7.525651901960372925e-02 1.324812471866607666e-01 1.776984892785549164e-02 -2.760577499866485596e-01 -2.017605490982532501e-02 2.054797671735286713e-02 -1.044328138232231140e-01 -8.437117934226989746e-02 8.810333907604217529e-02 -4.093056544661521912e-02 1.645080596208572388e-01 -1.846403628587722778e-01 -3.736955672502517700e-02 1.066591031849384308e-02 -8.543888479471206665e-02 -8.508228510618209839e-02 -1.207653880119323730e-01 6.571768224239349365e-02 6.370867788791656494e-02 -4.296841472387313843e-02 1.340111941099166870e-01 -4.010850971098989248e-04 -5.315188691020011902e-02 -1.554327011108398438e-01 -1.270749513059854507e-02 7.961249351501464844e-02 9.156721830368041992e-02 5.532462522387504578e-02 1.161015406250953674e-01 -9.046377241611480713e-02
-1.074608117341995239e-01 1.318959146738052368e-01 2.205886244773864746e-01 7.016927748918533325e-02 -3.389253094792366028e-02 -1.539985835552215576e-01 5.204365774989128113e-02 -1.075840145349502563e-01 -4.530151933431625366e-02 -6.202362850308418274e-02 -1.331910789012908936e-01 3.820425644516944885e-02 2.214827202260494232e-02 1.100462302565574646e-01 1.570455171167850494e-02 4.778872802853584290e-02 -6.313458830118179321e-02 -1.716378144919872284e-02 -2.367034368216991425e-02 2.808800898492336273e-02 8.269669115543365479e-02 5.759982764720916748e-02 -1.103496178984642029e-01 1.352469623088836670e-01 -2.860279753804206848e-02 1.921044886112213135e-01 -7.010438293218612671e-02 3.885055705904960632e-02 -4.393083974719047546e-02 -6.364226341247558594e-02 1.023110523819923401e-01 -5.244105309247970581e-02 9.846367686986923218e-02 -4.376502707600593567e-02 -5.319742113351821899e-02 6.728841457515954971e-03 9.377401322126388550e-02 -2.174644544720649719e-02 4.058344289660453796e-02 -1.933303102850914001e-02 -1.378099620342254639e-01 8.709977567195892334e-02 -6.604522466659545898e-03 8.731779456138610840e-02 1.023395806550979614e-01 2.521752379834651947e-02 -1.001686304807662964e-01 -4.073857888579368591e-02 -9.482871741056442261e-02 -4.873663932085037231e-02 -1.979242824018001556e-02 -4.642500728368759155e-02 -9.060550481081008911e-03 -8.440256118774414062e-02 8.217123150825500488e-02 9.916707873344421387e-02 1.284597441554069519e-02 -2.003268338739871979e-02
4.177678376436233521e-02 -5.800222232937812805e-02 1.795654296875000000e-01 6.775392591953277588e-02 9.354770928621292114e-02 -6.670707464218139648e-02 7.619254291057586670e-02 -9.550238400697708130e-02 3.658393025398254395e-02 6.860492285341024399e-03 6.160544231534004211e-02 -3.506593033671379089e-02 2.957104472443461418e-03 -7.159792631864547729e-02 -1.674456149339675903e-02 -5.405774712562561035e-02 -5.066871270537376404e-02 -1.409150939434766769e-02 1.437434647232294083e-02 4.953350871801376343e-03 2.070412039756774902e-02 -3.978250920772552490e-02 -1.644940376281738281e-01 6.068898737430572510e-02 -3.975202143192291260e-02 -3.261450212448835373e-03 -1.370039135217666626e-01 -6.429061293601989746e-02 -1.701727509498596191e-01 6.229108944535255432e-02 1.334852278232574463e-01 1.053558290004730225e-01 -9.849656373262405396e-02 -2.623996930196881294e-03 1.490556448698043823e-01 -1.933995932340621948e-01 1.568890064954757690e-01 -6.298713386058807373e-02 -8.206990361213684082e-02 -8.418323844671249390e-02 1.803812682628631592e-01 -4.229898564517498016e-03 -1.685322076082229614e-01 1.123752072453498840e-01 -3.253019973635673523e-02 1.287123281508684158e-02 -6.965839862823486328e-02 -5.174782592803239822e-03 4.602384194731712341e-02 7.112665474414825439e-02 -2.070871740579605103e-02 4.589620605111122131e-02 -2.308570407330989838e-02 -3.558758646249771118e-02 4.233929142355918884e-02 -1.334159635007381439e-02 -2.127486467361450195e-02 -2.493991889059543610e-02
-4.027416184544563293e-02 -5.453203245997428894e-02 -2.727718651294708252e-01 -3.427637368440628052e-02 -6.918101012706756592e-02 -5.758850276470184326e-02 1.197716873139142990e-02 -1.904478520154953003e-01 1.213187947869300842e-01 1.166632473468780518e-01 -1.486493796110153198e-01 1.624120585620403290e-02 -7.220203056931495667e-03 1.215119957923889160e-01 -7.443220168352127075e-02 -7.861934602260589600e-03 6.086004152894020081e-02 -1.771713793277740479e-01 -1.110182423144578934e-02 9.095305949449539185e-02 5.904796998947858810e-03 9.232626855373382568e-02 -8.048936724662780762e-02 8.416843414306640625e-02 1.568407267332077026e-01 9.175594151020050049e-02 -1.869356632232666016e-02 7.792749255895614624e-02 -6.795707345008850098e-02 8.816851675510406494e-02 5.282308161258697510e-02 -5.264218896627426147e-02 9.890215098857879639e-02 -7.737411558628082275e-02 1.524151265621185303e-01 8.491844683885574341e-02 8.833349682390689850e-03 -9.561143070459365845e-02 2.600155770778656006e-02 2.923309989273548126e-02 2.288973331451416016e-01 9.831854701042175293e-02 -1.145017668604850769e-01 -8.262696117162704468e-02 -1.596582122147083282e-02 -1.191215813159942627e-01 1.649170666933059692e-01 1.842989772558212280e-02 -1.455560047179460526e-02 8.137796819210052490e-02 6.536626815795898438e-02 -9.931483305990695953e-03 -1.108208522200584412e-01 7.944183796644210815e-02 1.017845124006271362e-01 6.270819157361984253e-02 -1.289995163679122925e-01 2.609348855912685394e-02
1.028145179152488708e-01 5.042706057429313660e-02 -9.806661866605281830e-03 -8.917877823114395142e-02 8.001495152711868286e-02 1.538004279136657715e-01 -3.463027626276016235e-02 -1.078715175390243530e-01 9.763549268245697021e-02 -1.326354779303073883e-02 5.968972109258174896e-03 4.891541972756385803e-02 -1.019409075379371643e-01 -4.738883301615715027e-02 -7.178241759538650513e-02 -1.882580369710922241e-01 -2.101783081889152527e-02 -7.765916734933853149e-02 5.056631192564964294e-02 4.286232218146324158e-02 -4.937877506017684937e-02 8.502345532178878784e-02 -1.620191782712936401e-01 1.126817762851715088e-01 6.280592083930969238e-02 1.308951526880264282e-01 2.349090576171875000e-02 -6.767517328262329102e-02 -8.245018124580383301e-02 1.379179954528808594e-01 -1.055413708090782166e-01 7.051516324281692505e-02 -1.792842447757720947e-01 -4.118760526180267334e-01 3.584227710962295532e-02 -4.658132791519165039e-02 4.066640883684158325e-02 -5.482174828648567200e-02 -1.295202597975730896e-02 4.128059372305870056e-02 -1.484970934689044952e-02 -5.021543055772781372e-02 -3.736024349927902222e-02 -1.106177493929862976e-01 -8.426730334758758545e-02 -5.660356953740119934e-02 5.271053314208984375e-02 -5.919760465621948242e-02 3.560155630111694336e-02 7.227015495300292969e-02 -7.532468438148498535e-02 3.042269125580787659e-02 3.917359933257102966e-02 -1.746637523174285889e-01 1.402218244038522243e-03 8.628714084625244141e-02 -4.345566034317016602e-02 -9.367439895868301392e-02
1.703576417639851570e-03 8.483666181564331055e-02 -4.188346490263938904e-02 1.265100091695785522e-01 -1.653031073510646820e-02 -1.590399630367755890e-02 -8.807090669870376587e-02 1.731758862733840942e-01 7.120287511497735977e-03 -3.435472398996353149e-02 4.147690162062644958e-02 2.061057649552822113e-02 -7.626885920763015747e-02 3.644987940788269043e-02 8.443761616945266724e-03 9.835460036993026733e-02 -7.738930732011795044e-02 -1.061752215027809143e-01 -1.862276494503021240e-01 4.340940341353416443e-02 1.317696869373321533e-01 1.092480421066284180e-01 2.350649535655975342e-01 1.265447884798049927e-01 -4.908798635005950928e-02 -2.790592983365058899e-02 -5.967011675238609314e-02 -4.693673178553581238e-02 -3.654200956225395203e-02 1.117184609174728394e-01 3.101622313261032104e-02 1.095955371856689453e-01 -1.213972344994544983e-01 -6.414096057415008545e-02 1.494081169366836548e-01 -3.454763442277908325e-02 1.016456559300422668e-01 5.737105756998062134e-02 -2.874060161411762238e-02 5.491256713867187500e-02 1.179027557373046875e-01 4.092801734805107117e-02 -6.258624605834484100e-03 2.208872325718402863e-02 8.411875367164611816e-02 -4.695438221096992493e-02 -6.833232939243316650e-02 -3.559494912624359131e-01 -1.135315746068954468e-01 -9.009511768817901611e-02 -3.568188101053237915e-02 1.725109964609146118e-01 -3.399181738495826721e-02 -6.405870616436004639e-02 -4.562404006719589233e-02 5.000497400760650635e-02 7.315677404403686523e-02 -1.035755574703216553e-01
-1.675469614565372467e-02 2.645618468523025513e-02 -6.001395732164382935e-02 -9.656650573015213013e-02 -7.223663479089736938e-02 -3.786554560065269470e-02 -1.067591179162263870e-02 -1.952452063560485840e-01 7.131621986627578735e-02 4.470020532608032227e-02 -6.487593799829483032e-02 2.963713742792606354e-02 5.410576611757278442e-02 1.060389131307601929e-01 -1.052667275071144104e-01 1.008550226688385010e-01 3.867750614881515503e-02 5.645759403705596924e-02 4.585294798016548157e-02 6.425415724515914917e-02 -8.521945215761661530e-03 1.662921905517578125e-02 -6.089776381850242615e-02 -7.050653547048568726e-02 -8.523466438055038452e-02 4.991054162383079529e-02 1.008773446083068848e-01 -3.214141353964805603e-02 -5.886713042855262756e-02 2.186299860477447510e-02 -3.569494932889938354e-02 -1.183515042066574097e-01 2.641248106956481934e-01 1.811721548438072205e-02 1.232608854770660400e-01 -1.624479591846466064e-01 -1.032140920870006084e-03 9.728737175464630127e-02 8.029291778802871704e-02 -9.099493175745010376e-02 3.705315664410591125e-02 2.495758607983589172e-02 -1.925419867038726807e-01 7.828708738088607788e-03 -6.144956871867179871e-02 2.019442059099674225e-02 5.057611037045717239e-03 1.669936627149581909e-01 7.644025236368179321e-02 5.843342095613479614e-02 1.076939329504966736e-01 1.322901695966720581e-01 -2.319534542039036751e-03 -1.119050160050392151e-01 6.691790372133255005e-02 2.715197764337062836e-02 3.316513821482658386e-02 -1.589131169021129608e-02
-2.741835452616214752e-02 -1.083967387676239014e-01 1.320528686046600342e-01 -1.591998636722564697e-01 -8.364716172218322754e-02 1.631438136100769043e-01 -6.431093066930770874e-02 -1.255054920911788940e-01 -2.141039259731769562e-02 3.351406753063201904e-02 -2.531897276639938354e-02 -1.673650182783603668e-02 4.861729964613914490e-02 -9.635565429925918579e-02 -1.717967540025711060e-02 -1.406136434525251389e-02 -8.016990497708320618e-03 -1.212003082036972046e-01 5.261636897921562195e-02 -1.592756658792495728e-01 -6.829798966646194458e-02 -3.938416391611099243e-02 -1.013836190104484558e-01 3.359903767704963684e-02 -5.587401613593101501e-02 -3.056431561708450317e-02 7.007904350757598877e-02 9.521221369504928589e-02 -1.071913749910891056e-03 -1.774067804217338562e-02 2.967265434563159943e-02 2.224913332611322403e-03 -5.692017450928688049e-02 2.902688458561897278e-03 -1.191141456365585327e-02 -1.259833574295043945e-01 -2.387472242116928101e-02 -8.400764316320419312e-03 -1.668761670589447021e-01 4.018665757030248642e-03 7.872626185417175293e-02 8.473446220159530640e-02 5.892395856790244579e-04 -5.071020498871803284e-02 7.651020586490631104e-02 2.640688046813011169e-02 -8.196480572223663330e-02 1.841296441853046417e-02 -3.965337574481964111e-02 -1.233479231595993042e-01 1.407625228166580200e-01 8.820462971925735474e-02 7.639712840318679810e-02 5.288166180253028870e-02 3.293756395578384399e-02 8.736488968133926392e-02 7.753670215606689453e-02 1.311455070972442627e-01
-3.507857397198677063e-02 -3.338043810799717903e-03 1.047930940985679626e-01 -7.689644396305084229e-02 1.374332904815673828e-01 1.133187264204025269e-01 -1.293130815029144287e-01 2.019974216818809509e-02 -3.440326824784278870e-02 -1.202740445733070374e-01 -9.234501980245113373e-03 -1.606640666723251343e-01 -1.473414301872253418e-01 1.250556558370590210e-01 -1.422055214643478394e-01 -3.669822588562965393e-02 4.961354285478591919e-02 5.135092511773109436e-02 1.462138146162033081e-01 9.814079105854034424e-02 2.479350380599498749e-02 -9.695363789796829224e-02 -1.319017261266708374e-01 2.753246948122978210e-02 3.708541393280029297e-02 -2.513884007930755615e-01 -1.394758373498916626e-01 -9.930238127708435059e-02 -6.623235344886779785e-02 -1.883205473423004150e-01 -5.454726517200469971e-02 -9.052944928407669067e-02 -2.059207670390605927e-02 5.575395748019218445e-02 -9.760629385709762573e-03 1.046764105558395386e-01 3.294280543923377991e-02 4.902286827564239502e-02 4.300252720713615417e-02 -6.497539579868316650e-02 5.798730254173278809e-02 2.632327936589717865e-02 2.967862784862518311e-02 -1.729111373424530029e-02 -1.522232964634895325e-02 1.803851872682571411e-01 -7.454472593963146210e-03 5.263749882578849792e-02 -9.838877618312835693e-02 9.801207482814788818e-02 1.193935573101043701e-01 -3.091079182922840118e-02 3.584529086947441101e-02 7.435771822929382324e-02 -7.516065984964370728e-02 5.039865151047706604e-02 -2.288741432130336761e-02 -7.751360535621643066e-02
-8.930137008428573608e-02 -1.768842525780200958e-02 1.698946058750152588e-01 -8.722666651010513306e-02 3.191798031330108643e-01 5.743353068828582764e-02 -7.639561593532562256e-02 -7.194304373115301132e-03 -1.284249722957611084e-01 -5.465911328792572021e-02 1.838969253003597260e-02 -2.452912926673889160e-02 -1.447833180427551270e-01 -5.639374628663063049e-02 -4.612126201391220093e-02 1.449605170637369156e-02 -2.011538110673427582e-02 7.003945857286453247e-02 -4.286114498972892761e-02 7.913763076066970825e-02 -1.107811108231544495e-01 9.277310967445373535e-02 5.797326937317848206e-02 -1.814754754304885864e-01 6.153802573680877686e-02 3.779962658882141113e-02 -4.632091894745826721e-02 4.209017846733331680e-03 8.462460711598396301e-03 -2.588786371052265167e-02 5.633993074297904968e-02 1.322086527943611145e-02 5.665300413966178894e-03 1.500280648469924927e-01 3.175721317529678345e-02 2.075504977256059647e-03 1.814007461071014404e-01 4.946409538388252258e-02 -4.884048551321029663e-02 -1.378464996814727783e-01 -8.587189018726348877e-02 1.271842606365680695e-02 -7.586077600717544556e-02 -1.442860066890716553e-01 4.125931765884160995e-03 -1.170543283224105835e-01 4.310067743062973022e-02 -5.617525801062583923e-02 -1.222868785262107849e-01 -3.032277524471282959e-01 2.408993616700172424e-02 2.377519942820072174e-02 2.499033929780125618e-03 5.500066280364990234e-02 4.158624261617660522e-02 -2.812596261501312256e-01 -1.668339520692825317e-01 1.016018539667129517e-01
-2.188791930675506592e-01 2.303406037390232086e-02 -2.388499379158020020e-01 1.224211230874061584e-02 -3.866118937730789185e-02 9.074717760086059570e-02 3.005914017558097839e-02 1.194184496998786926e-01 1.959987450391054153e-03 5.220028758049011230e-02 -4.960703104734420776e-02 7.399333268404006958e-02 -8.422894030809402466e-02 1.600944250822067261e-01 -1.107349321246147156e-01 1.562818139791488647e-01 -4.348311573266983032e-02 1.277497559785842896e-01 -5.910322442650794983e-02 1.072654351592063904e-01 3.601023182272911072e-02 1.156417001038789749e-02 -4.359891265630722046e-02 7.127656787633895874e-02 -6.430719792842864990e-02 1.354529857635498047e-01 4.616653546690940857e-02 -9.390281513333320618e-03 -1.667813360691070557e-01 1.247716248035430908e-01 8.070775866508483887e-02 -1.454106569290161133e-01 -1.076350137591362000e-01 3.091258555650711060e-02 -9.155415743589401245e-02 -9.598968923091888428e-02 3.676272556185722351e-02 -6.973765045404434204e-02 4.146220162510871887e-03 2.641697041690349579e-02 4.486681520938873291e-02 -5.446934327483177185e-02 1.002840027213096619e-01 -5.371718853712081909e-02 7.913068681955337524e-02 -3.900355473160743713e-02 -1.553943753242492676e-01 -1.004010662436485291e-01 4.120609164237976074e-02 -1.542840618640184402e-02 -1.507120486348867416e-02 1.044290140271186829e-01 8.213288336992263794e-02 -7.638432085514068604e-02 -2.591744251549243927e-02 3.948374837636947632e-02 -5.671694502234458923e-02 8.845832943916320801e-02
4.122755303978919983e-02 -1.122281849384307861e-01 -1.317401826381683350e-01 5.519912391901016235e-02 2.311199605464935303e-01 2.825459092855453491e-02 -4.228558391332626343e-02 9.029003232717514038e-02 -9.920188039541244507e-02 -7.642943412065505981e-02 -1.350898146629333496e-01 6.490179151296615601e-02 -2.844430506229400635e-02 -5.445146933197975159e-02 -8.653748035430908203e-02 -5.220571905374526978e-02 -6.823229789733886719e-02 1.333482656627893448e-02 6.412285380065441132e-03 1.280471682548522949e-01 -1.330777406692504883e-01 1.322999410331249237e-02 3.728265687823295593e-02 2.707895822823047638e-02 -2.227735333144664764e-02 -9.715761244297027588e-02 -2.112682349979877472e-02 7.285920530557632446e-02 -2.376753091812133789e-02 2.441415563225746155e-02 -5.563142150640487671e-02 -1.041183024644851685e-01 8.595403283834457397e-02 6.489636003971099854e-02 7.981450855731964111e-02 7.190941274166107178e-02 -7.481389213353395462e-03 -6.013232097029685974e-02 -3.317507356405258179e-02 -1.627073287963867188e-01 -5.697198957204818726e-02 6.106033921241760254e-02 3.749795490875840187e-03 2.857470139861106873e-02 1.112569943070411682e-01 1.081334576010704041e-01 -8.038741350173950195e-02 1.541639268398284912e-01 -6.121304258704185486e-02 -1.091265827417373657e-01 -2.458529025316238403e-01 -1.740355938673019409e-01 2.964503504335880280e-02 -6.345546245574951172e-02 -1.167785823345184326e-01 3.616645466536283493e-03 9.101103246212005615e-02 -8.928852155804634094e-03
3.650130331516265869e-02 -1.032455116510391235e-01 -1.199042610824108124e-02 3.772516548633575439e-02 1.321225166320800781e-01 6.509585771709680557e-03 -9.993720799684524536e-02 1.124925687909126282e-01 -1.803810149431228638e-02 9.351299703121185303e-02 -3.419844433665275574e-03 -4.470825940370559692e-02 8.532445132732391357e-02 7.336577028036117554e-02 -1.040902212262153625e-01 5.006076768040657043e-02 -2.434229552745819092e-01 1.237954646348953247e-01 -1.102565154433250427e-01 2.171879447996616364e-02 1.639520004391670227e-02 4.325375333428382874e-02 6.552103161811828613e-02 -2.240733206272125244e-01 4.557507857680320740e-02 -6.230190023779869080e-02 -6.759534776210784912e-02 3.146998211741447449e-02 -7.689087092876434326e-02 -5.076045915484428406e-02 4.340712726116180420e-02 -1.408388763666152954e-01 2.906096633523702621e-03 -8.872616291046142578e-02 -2.229813113808631897e-02 -3.238911554217338562e-02 -5.571652576327323914e-02 -3.989921510219573975e-02 5.803751200437545776e-02 -9.134683012962341309e-02 -6.629187613725662231e-02 3.461730107665061951e-02 -3.333042142912745476e-03 -1.538262935355305672e-03 2.223470360040664673e-01 8.948875218629837036e-02 -6.793554127216339111e-02 1.378548145294189453e-01 -4.122344776988029480e-02 -1.943996734917163849e-02 4.817383363842964172e-02 6.796161830425262451e-02 5.216768383979797363e-02 6.077852100133895874e-02 6.035015918314456940e-03 4.336329177021980286e-02 1.286289095878601074e-01 5.536674708127975464e-02
-3.501556068658828735e-02 -1.259620338678359985e-01 -4.125514253973960876e-02 1.050840616226196289e-01 -3.939448297023773193e-02 -4.521496221423149109e-02 9.805166721343994141e-02 1.140785515308380127e-01 2.942724153399467468e-02 -1.037520915269851685e-02 -1.150308474898338318e-01 -3.395185247063636780e-02 1.389788091182708740e-01 -1.701793074607849121e-01 -1.072661280632019043e-01 5.843571200966835022e-02 -1.637516766786575317e-01 -7.820695638656616211e-02 -2.831741981208324432e-02 -3.011941723525524139e-02 -8.713671565055847168e-02 -1.078553050756454468e-01 -6.538804620504379272e-02 -3.401551023125648499e-02 -9.267377853393554688e-02 4.406478255987167358e-03 8.155841380357742310e-02 -1.744014769792556763e-01 -4.838773235678672791e-02 -1.760836392641067505e-01 1.353817880153656006e-01 1.182308569550514221e-01 -9.202457219362258911e-02 1.056813355535268784e-02 -1.065294742584228516e-01 1.686686649918556213e-02 -2.331881970167160034e-02 1.792739182710647583e-01 -1.221684040501713753e-03 1.657591946423053741e-02 1.230947002768516541e-01 1.576079428195953369e-02 7.174276560544967651e-02 2.165151238441467285e-01 -1.024708077311515808e-01 -4.142946097999811172e-03 -1.488356292247772217e-01 1.748543530702590942e-01 -1.604332178831100464e-01 -1.841624081134796143e-01 1.194349974393844604e-01 1.135189309716224670e-01 -4.304390400648117065e-02 2.544260770082473755e-02 -4.209472611546516418e-02 -9.816894680261611938e-02 -2.732567023485898972e-03 6.636672466993331909e-02
-5.997054278850555420e-02 2.506399340927600861e-02 -1.053783204406499863e-02 7.935637235641479492e-02 -8.502031117677688599e-02 2.615228109061717987e-02 2.899053273722529411e-03 -7.361063361167907715e-02 1.026843190193176270e-01 2.152090519666671753e-01 1.639569252729415894e-01 8.646420389413833618e-02 8.520330488681793213e-02 1.626110672950744629e-01 5.773953720927238464e-02 -2.404160983860492706e-02 -2.667927369475364685e-02 -1.679359748959541321e-02 -1.302223503589630127e-01 -1.829584874212741852e-02 -1.352957636117935181e-01 5.742200091481208801e-02 -1.126487739384174347e-02 1.197329759597778320e-01 9.983877837657928467e-02 6.254205852746963501e-02 3.488173708319664001e-02 -7.589385658502578735e-02 6.525158882141113281e-02 -1.401750929653644562e-02 1.274023503065109253e-01 1.885834150016307831e-02 1.761351153254508972e-02 1.186897903680801392e-01 1.129789575934410095e-01 -6.969380658119916916e-03 -1.197310280986130238e-03 3.009901195764541626e-02 -7.993912696838378906e-02 -1.318281888961791992e-01 1.974157430231571198e-02 2.227363921701908112e-02 -1.665032804012298584e-01 6.987693905830383301e-02 6.967553868889808655e-03 -1.950633823871612549e-01 -8.423274755477905273e-02 4.709477722644805908e-02 -9.932939708232879639e-02 5.596164986491203308e-02 4.023079946637153625e-02 -1.337209790945053101e-01 -1.739384233951568604e-02 4.659430682659149170e-02 7.689504325389862061e-02 -4.927788302302360535e-02 -2.257722243666648865e-02 6.643474847078323364e-02
1.678984053432941437e-02 -1.442107111215591431e-01 5.494617670774459839e-02 9.468263387680053711e-02 1.633482724428176880e-01 -3.605848550796508789e-02 2.811131440103054047e-02 -1.273641586303710938e-01 4.872664436697959900e-02 7.103466242551803589e-02 -3.060242906212806702e-02 4.900859296321868896e-02 9.059379994869232178e-02 1.125963032245635986e-02 -1.676222980022430420e-01 3.329104930162429810e-02 -6.560987327247858047e-03 -5.159512162208557129e-02 2.025008574128150940e-02 -1.785197667777538300e-02 1.148067712783813477e-01 1.145588420331478119e-02 2.296933084726333618e-01 6.158952787518501282e-02 -6.679279357194900513e-02 -2.648028545081615448e-03 9.147052653133869171e-03 4.117169231176376343e-02 -3.965609148144721985e-02 -3.111917339265346527e-02 -4.775648564100265503e-02 -1.760063506662845612e-02 -3.064825572073459625e-02 8.335343003273010254e-02 -1.293558925390243530e-01 6.055984273552894592e-02 8.642659336328506470e-02 -2.087419666349887848e-02 -1.361870169639587402e-01 2.525673434138298035e-02 -3.415464982390403748e-02 9.383358061313629150e-03 2.271451056003570557e-02 4.573957249522209167e-02 3.902016952633857727e-02 -1.378553062677383423e-01 5.561112985014915466e-02 -2.422445081174373627e-02 2.775841392576694489e-02 7.294709235429763794e-02 4.212867468595504761e-02 -9.629772976040840149e-04 -1.513676904141902924e-02 -6.190893426537513733e-02 -5.317015200853347778e-02 -5.193072184920310974e-02 -1.982704177498817444e-02 -8.426950871944427490e-02
-4.440746083855628967e-02 -1.045577451586723328e-01 -1.942011062055826187e-03 -1.669488400220870972e-01 -6.545143574476242065e-02 -5.006464943289756775e-02 3.066086396574974060e-02 -6.605467200279235840e-02 1.334367692470550537e-02 1.641514152288436890e-01 8.597105741500854492e-02 1.189601644873619080e-01 -9.315160661935806274e-02 -1.222774237394332886e-01 -1.170133240520954132e-02 1.760788410902023315e-01 -8.060460537672042847e-02 -2.843889035284519196e-02 -8.886437118053436279e-02 -5.480095371603965759e-02 4.928169399499893188e-02 -4.445935413241386414e-02 8.075442910194396973e-02 3.424778580665588379e-02 -8.199049532413482666e-02 4.655432701110839844e-02 -6.576049327850341797e-02 1.899369060993194580e-02 -1.109886094927787781e-01 1.351150274276733398e-01 -3.506920859217643738e-02 -3.391110897064208984e-02 -6.418065726757049561e-02 6.688348948955535889e-02 -1.001282706856727600e-01 5.773677676916122437e-02 8.775170892477035522e-02 -1.379017978906631470e-01 1.298401691019535065e-02 -6.815727800130844116e-02 8.582627028226852417e-02 -8.768881857395172119e-02 -4.271051287651062012e-02 -5.109317973256111145e-02 9.119493514299392700e-02 1.049015522003173828e-01 9.638858586549758911e-02 1.644014753401279449e-02 7.971043884754180908e-02 -5.776757001876831055e-02 3.204468265175819397e-02 -5.374984443187713623e-02 -7.233970612287521362e-02 -5.138544365763664246e-02 1.052602156996726990e-01 -7.471823692321777344e-02 4.964559897780418396e-02 -9.180277585983276367e-02
-2.809389121830463409e-02 2.562046051025390625e-01 1.675419323146343231e-02 3.912161663174629211e-02 -1.353161334991455078e-01 -1.498130410909652710e-01 -6.381908059120178223e-02 1.771382987499237061e-02 -1.288341730833053589e-01 -8.634640276432037354e-02 1.890334188938140869e-01 1.858778744935989380e-01 2.685665152966976166e-02 2.088778652250766754e-02 -1.591263562440872192e-01 9.382037073373794556e-02 1.154097616672515869e-01 9.223985671997070312e-02 -1.123613715171813965e-01 1.450688838958740234e-01 6.357388943433761597e-02 1.207786961458623409e-03 2.187413275241851807e-01 -5.696099996566772461e-02 -1.412174105644226074e-01 8.786791563034057617e-02 8.900137245655059814e-02 1.745303533971309662e-02 -3.935587033629417419e-02 -7.528552785515785217e-03 3.595023974776268005e-02 -3.087468817830085754e-02 1.141260494478046894e-03 -6.867435574531555176e-02 7.655424624681472778e-02 -1.472656521946191788e-02 -3.880725055932998657e-02 -3.444706648588180542e-02 -1.371639594435691833e-02 7.412771135568618774e-02 6.107399985194206238e-02 1.146505586802959442e-02 1.125164404511451721e-01 5.628677457571029663e-02 -1.365046948194503784e-01 -1.684834510087966919e-01 -5.987266451120376587e-02 1.509376019239425659e-01 -6.287670880556106567e-02 5.917213484644889832e-02 -9.042895399034023285e-03 -6.422757171094417572e-03 -3.322750329971313477e-02 -1.447209995239973068e-02 1.467987895011901855e-02 3.233639150857925415e-02 -4.628594592213630676e-02 -7.623629644513130188e-03
1.409446168690919876e-02 -7.405205816030502319e-02 -1.510645598173141479e-01 -1.237234398722648621e-01 -1.380335688591003418e-01 1.131430789828300476e-01 9.863685816526412964e-02 -1.866838783025741577e-01 -1.664320826530456543e-01 1.099608242511749268e-01 -1.147039383649826050e-01 -1.036617089994251728e-03 3.978718444705009460e-02 2.975475415587425232e-02 -5.623748898506164551e-02 7.328526116907596588e-04 -3.414244949817657471e-02 1.095525473356246948e-01 -1.537651717662811279e-01 6.249623373150825500e-02 9.652691334486007690e-02 7.369831204414367676e-02 -1.401189118623733521e-01 -1.998962759971618652e-01 1.038299202919006348e-01 -1.702989786863327026e-01 -8.416819572448730469e-02 1.507539898157119751e-01 -1.315357387065887451e-01 1.510601192712783813e-01 -2.984558790922164917e-02 -8.912573754787445068e-02 -6.230659410357475281e-02 -1.009593680500984192e-01 7.296905666589736938e-02 6.036429107189178467e-02 1.867805607616901398e-02 7.574887573719024658e-02 6.476408243179321289e-02 -1.247727423906326294e-01 -2.302439417690038681e-03 -1.285646408796310425e-01 1.263543665409088135e-01 5.309285596013069153e-02 -2.226880565285682678e-02 -8.530946075916290283e-02 -2.926293388009071350e-02 -3.619074821472167969e-02 -7.337884604930877686e-02 -1.191205531358718872e-01 -1.864770427346229553e-02 4.586608707904815674e-02 6.306503433734178543e-03 -6.427470594644546509e-02 -4.587315768003463745e-02 7.355935871601104736e-02 1.519705355167388916e-01 -3.348954394459724426e-02
1.136096268892288208e-01 -5.770002305507659912e-02 1.261420100927352905e-01 7.230615615844726562e-02 1.971847414970397949e-01 5.159126222133636475e-02 -2.984629385173320770e-02 -2.427997998893260956e-02 -1.791221350431442261e-01 1.003461256623268127e-01 -1.175163537263870239e-01 -4.450585693120956421e-02 8.561201393604278564e-02 -4.116652905941009521e-02 -1.398714333772659302e-01 3.412481397390365601e-02 -4.636412486433982849e-02 -7.589066028594970703e-02 -1.752847060561180115e-02 -1.224360615015029907e-02 -2.236754447221755981e-02 -9.019102156162261963e-02 7.070618867874145508e-02 1.393478959798812866e-01 -5.958152934908866882e-02 8.706264197826385498e-02 9.970765560865402222e-02 9.461890906095504761e-02 -8.500521630048751831e-02 3.168379515409469604e-02 -1.150462478399276733e-01 1.505676060914993286e-01 -5.672874301671981812e-02 7.287783920764923096e-02 7.693134993314743042e-02 -4.346976801753044128e-02 5.391652509570121765e-02 -5.583636835217475891e-02 -9.989958256483078003e-02 1.716479845345020294e-02 3.577779978513717651e-02 1.929924637079238892e-01 -1.044612899422645569e-01 -9.281729161739349365e-02 -5.180346593260765076e-02 1.155274882912635803e-01 -6.285586953163146973e-02 1.335988845676183701e-02 1.210253387689590454e-01 2.511999942362308502e-02 3.121346794068813324e-02 -3.375869616866111755e-02 -3.134596720337867737e-02 -2.134072966873645782e-02 -8.261337876319885254e-02 -1.247416362166404724e-01 1.426030993461608887e-01 -2.963866852223873138e-02
-5.978056788444519043e-02 9.939827769994735718e-02 -4.147975891828536987e-02 -7.336519658565521240e-02 -1.494314074516296387e-01 1.715147197246551514e-01 -3.551385551691055298e-02 -1.057478412985801697e-02 8.416452445089817047e-03 9.673161804676055908e-02 2.044429928064346313e-01 9.946101903915405273e-02 7.177305221557617188e-02 9.922926314175128937e-03 5.470854416489601135e-02 7.967070490121841431e-02 4.818141460418701172e-02 -6.549635529518127441e-02 8.895621635019779205e-03 -2.702826075255870819e-02 -1.690402440726757050e-02 1.927580870687961578e-02 -1.050414666533470154e-01 -1.649552285671234131e-01 -1.389336585998535156e-02 -1.367092784494161606e-02 -3.782507777214050293e-02 -2.011675015091896057e-02 3.620691364631056786e-03 1.553167402744293213e-01 -1.584536395967006683e-02 -1.108926907181739807e-01 -5.890755355358123779e-02 2.369285188615322113e-02 -7.281572092324495316e-03 -1.102911457419395447e-01 1.053090468049049377e-01 8.401136100292205811e-02 3.618378890678286552e-03 4.004027869086712599e-04 1.535627245903015137e-01 -5.475692078471183777e-02 -1.632451079785823822e-02 -9.049302339553833008e-02 7.959236204624176025e-02 1.404760628938674927e-01 -9.350436180830001831e-02 1.172177307307720184e-02 -7.500939536839723587e-04 -1.766780205070972443e-02 -8.087896555662155151e-02 5.998024716973304749e-02 -9.889763779938220978e-03 -3.963875584304332733e-03 -4.483760148286819458e-02 3.914347290992736816e-02 -9.294264018535614014e-02 -2.740606479346752167e-02
-3.412628918886184692e-02 7.761478424072265625e-02 7.268928736448287964e-02 1.591466516256332397e-01 7.707789540290832520e-02 -4.245308041572570801e-02 1.496639102697372437e-01 2.517189085483551025e-02 4.134867340326309204e-02 1.347303506918251514e-03 -1.135927513241767883e-01 1.748968213796615601e-01 -1.719763502478599548e-02 4.506397619843482971e-02 -1.241591721773147583e-01 6.742881238460540771e-02 5.785421282052993774e-02 -4.137495905160903931e-02 -3.187935799360275269e-02 -2.490138821303844452e-02 -5.719071999192237854e-02 6.083824113011360168e-02 -9.578754007816314697e-02 -1.099572703242301941e-01 -3.669404238462448120e-02 2.730040252208709717e-02 -4.169165343046188354e-02 8.588358759880065918e-02 1.671819016337394714e-03 8.890159078873693943e-04 2.759784692898392677e-04 -1.071117743849754333e-01 -1.496826559305191040e-01 -2.423714995384216309e-01 3.145631030201911926e-02 2.809183672070503235e-02 -1.497951298952102661e-01 1.271460950374603271e-01 -1.726325415074825287e-02 -2.994341403245925903e-02 9.448662400245666504e-02 -3.425630275160074234e-03 -7.714009284973144531e-02 3.082175925374031067e-02 -2.298079729080200195e-01 -1.969453692436218262e-02 -3.280494734644889832e-02 3.108215704560279846e-02 1.903748139739036560e-02 1.106419861316680908e-01 -4.089237377047538757e-02 -1.994791626930236816e-01 -4.341844096779823303e-02 1.389946043491363525e-01 1.764344610273838043e-02 3.282737359404563904e-02 2.670984715223312378e-02 1.283001899719238281e-01
-1.840779483318328857e-01 7.037800550460815430e-02 4.602346941828727722e-02 -1.518467906862497330e-02 1.289198398590087891e-01 3.529571369290351868e-02 -2.473949920386075974e-03 1.268583238124847412e-01 3.818025812506675720e-02 1.806463152170181274e-01 -6.889967620372772217e-02 1.741349138319492340e-02 1.321289688348770142e-01 2.823718450963497162e-02 -1.181356459856033325e-01 -5.707652494311332703e-02 4.343694448471069336e-02 9.851147979497909546e-02 -6.071832496672868729e-03 -1.017125546932220459e-01 -1.417181789875030518e-01 -6.358257681131362915e-02 6.355482339859008789e-02 1.464051604270935059e-01 6.324810534715652466e-02 -1.234305873513221741e-01 6.477916985750198364e-02 -3.019943237304687500e-01 2.497598826885223389e-01 7.669609785079956055e-02 -1.649114191532135010e-01 -1.200657635927200317e-01 8.364421874284744263e-02 7.283842563629150391e-02 -5.572147667407989502e-02 -8.727497607469558716e-02 -1.253578811883926392e-01 2.703882195055484772e-02 6.372610479593276978e-02 -2.544986829161643982e-02 8.560812100768089294e-03 9.104050695896148682e-02 7.512488961219787598e-02 -1.198319345712661743e-01 -3.043589927256107330e-02 8.629880100488662720e-02 -7.377887610346078873e-03 -4.356098175048828125e-02 2.016288600862026215e-02 2.211964875459671021e-02 1.956388168036937714e-02 2.108513563871383667e-02 2.161237150430679321e-01 -2.780924551188945770e-02 -1.084917560219764709e-01 -7.116555422544479370e-02 -3.839414566755294800e-02 1.255008280277252197e-01
-9.736869484186172485e-03 9.584161639213562012e-02 -1.878667473793029785e-01 -1.567673981189727783e-01 7.539280503988265991e-02 -4.008770361542701721e-02 -1.462672371417284012e-02 -7.336798310279846191e-02 2.228473499417304993e-02 -5.455540958791971207e-03 4.582652822136878967e-02 -1.447408646345138550e-01 7.197934389114379883e-02 -3.797955438494682312e-02 -1.481673717498779297e-01 -1.030177529901266098e-02 2.714514173567295074e-02 -3.098580287769436836e-03 -5.250621214509010315e-02 1.192040517926216125e-01 1.615773886442184448e-01 -2.035292237997055054e-02 -9.587747603654861450e-02 8.651101589202880859e-02 1.646821498870849609e-01 -1.053712666034698486e-01 4.420123994350433350e-02 6.576893478631973267e-02 4.125304892659187317e-02 1.056931540369987488e-01 -8.309503085911273956e-03 1.189573928713798523e-01 -3.738383529707789421e-03 4.000106081366539001e-02 -3.153277561068534851e-03 -1.881479322910308838e-01 9.470652788877487183e-02 4.339794814586639404e-02 1.911301724612712860e-02 -1.191031113266944885e-01 1.879578270018100739e-02 -1.296062860637903214e-02 3.449499979615211487e-02 -7.483562082052230835e-02 1.095559820532798767e-01 -2.600705623626708984e-02 -1.034355815500020981e-02 1.959530345629900694e-05 1.213231869041919708e-02 2.746952325105667114e-02 7.622985541820526123e-02 -4.734300822019577026e-02 -1.188646107912063599e-01 9.699003398418426514e-02 6.047860532999038696e-02 2.538625895977020264e-01 1.015730667859315872e-02 1.512340921908617020e-02
1.060490980744361877e-01 3.462381893768906593e-03 1.388612762093544006e-02 -1.025379225611686707e-01 -1.465836167335510254e-01 4.064072668552398682e-02 7.074710447341203690e-03 9.387067705392837524e-02 1.885642409324645996e-01 -8.257308974862098694e-03 -3.805480524897575378e-02 4.290788620710372925e-02 7.972463965415954590e-02 6.041484326124191284e-02 1.801764070987701416e-01 1.848646998405456543e-01 -5.574575811624526978e-02 4.605505242943763733e-02 -1.156853511929512024e-01 -1.222790703177452087e-01 -6.227947771549224854e-02 6.822939217090606689e-02 -3.454139456152915955e-02 7.169713079929351807e-02 6.659278273582458496e-02 -1.754690855741500854e-01 1.292820870876312256e-01 -4.804479703307151794e-02 -1.139979362487792969e-01 6.491720676422119141e-02 4.058857634663581848e-02 -1.178425252437591553e-01 4.601747170090675354e-02 -4.977356642484664917e-03 1.290077865123748779e-01 -2.969737909734249115e-02 -4.910504445433616638e-02 -4.319928959012031555e-02 -3.073076345026493073e-02 8.027859777212142944e-02 -6.119224708527326584e-03 4.094880446791648865e-02 5.357497557997703552e-02 -7.290828973054885864e-02 -7.375568151473999023e-02 -8.999501913785934448e-02 4.240859299898147583e-02 -7.569320499897003174e-02 1.890896707773208618e-01 3.651555627584457397e-02 -5.999647546559572220e-03 -7.604420930147171021e-02 7.437475025653839111e-02 -8.232614398002624512e-02 -9.714864194393157959e-02 5.769457668066024780e-02 1.334001421928405762e-01 -1.298321597278118134e-02
1.186750523629598320e-04 2.685641683638095856e-02 1.737692952156066895e-01 2.088179625570774078e-02 -8.505484461784362793e-02 1.063257306814193726e-01 1.592378877103328705e-02 6.199186667799949646e-02 2.725283429026603699e-02 8.758673071861267090e-02 -1.014140546321868896e-01 -5.918116867542266846e-02 1.296375319361686707e-02 2.243169099092483521e-01 -7.437061518430709839e-02 -7.034346461296081543e-02 6.250899285078048706e-02 8.558987081050872803e-02 8.571761101484298706e-02 -1.024763472378253937e-02 6.796948611736297607e-02 7.124355528503656387e-03 -2.355130203068256378e-02 8.600571006536483765e-02 -2.338604629039764404e-02 2.429909072816371918e-02 -1.266278792172670364e-02 1.392488479614257812e-01 1.053766831755638123e-01 -1.218089275062084198e-02 9.832077473402023315e-02 -2.639546059072017670e-02 4.701691213995218277e-03 -8.254928886890411377e-02 6.555998697876930237e-03 6.327810883522033691e-02 1.801842749118804932e-01 -3.667268529534339905e-02 -1.395591069012880325e-02 1.174460873007774353e-01 1.150353848934173584e-01 5.714488402009010315e-02 -4.161664843559265137e-02 -1.332647651433944702e-01 -1.224129199981689453e-01 -9.015642106533050537e-02 2.249753847718238831e-02 3.148908540606498718e-02 1.369067467749118805e-02 9.656386077404022217e-02 -8.910208940505981445e-02 4.046450182795524597e-02 2.617502585053443909e-02 -1.980600506067276001e-02 -1.921390146017074585e-01 -4.922340437769889832e-02 9.797737002372741699e-02 1.264066100120544434e-01
