-8.199638873338699341e-02 9.355834871530532837e-02 4.596272110939025879e-02 1.281735748052597046e-01 -5.555268749594688416e-02 7.107834517955780029e-02 -1.814641803503036499e-01 -5.190819874405860901e-02 1.236037444323301315e-02 -9.764900058507919312e-02 -2.091248631477355957e-01 4.254956543445587158e-02 8.077718317508697510e-03 -1.082445960491895676e-02 -1.878103762865066528e-01 -9.387300815433263779e-04 9.388915263116359711e-03 -5.525131151080131531e-02 1.305392235517501831e-01 2.193597853183746338e-01 4.161131102591753006e-03 -2.739644143730401993e-03 -1.641421467065811157e-01 -2.810975350439548492e-02 7.522108405828475952e-02 1.602038368582725525e-02 8.117504417896270752e-02 1.100228130817413330e-01 2.267650216817855835e-01 1.318886503577232361e-02 1.054691597819328308e-01 -5.695379339158535004e-03 4.680535197257995605e-02 -1.694645434617996216e-01 -5.065098777413368225e-02 7.708665449172258377e-03 -1.741442382335662842e-01 1.714841872453689575e-01 8.651612699031829834e-02 4.027486592531204224e-02 1.993065699934959412e-02 7.701487094163894653e-02 6.154935434460639954e-02 -1.256937086582183838e-01 1.113438531756401062e-01 1.897060126066207886e-02 9.305680543184280396e-02 -6.036966294050216675e-02 9.972239285707473755e-02 -1.459079142659902573e-02 1.644568145275115967e-02 4.646131396293640137e-02 1.228862404823303223e-01 2.584741264581680298e-02 2.859630808234214783e-02 6.938655674457550049e-02 2.419695071876049042e-02 -1.005007233470678329e-02 1.371626704931259155e-01 3.834314271807670593e-02 1.336763054132461548e-01 1.207228749990463257e-01 1.420415341854095459e-01 2.315659821033477783e-02 -8.931442163884639740e-03 3.103899024426937103e-02 1.072590518742799759e-02 -4.919375851750373840e-02 -9.399849176406860352e-02 -6.909114774316549301e-03 1.770571619272232056e-02 -1.725133210420608521e-01 -6.472714990377426147e-02 9.394874423742294312e-02 7.392734289169311523e-02 3.058128617703914642e-02 5.721703171730041504e-02 7.691499590873718262e-02 6.192848458886146545e-02 -2.129129425156861544e-04 -3.373248502612113953e-02 -8.043300360441207886e-02 -1.583904772996902466e-01 -1.458117216825485229e-01 5.863812938332557678e-02 2.780839987099170685e-02 7.894762605428695679e-02 1.412243396043777466e-01 -1.700820922851562500e-01 7.647311687469482422e-02 1.713851988315582275e-01 -1.455558091402053833e-01 5.702506750822067261e-02 -7.382839918136596680e-02 -6.171352788805961609e-02 -4.387143999338150024e-02 6.918326020240783691e-02 1.973618194460868835e-02 3.430560603737831116e-02 1.627163961529731750e-03 1.347262412309646606e-02 1.029443517327308655e-01 1.746836118400096893e-02 1.577564515173435211e-02 -7.473962754011154175e-02 -1.274193376302719116e-01 -4.790300503373146057e-02 2.525199949741363525e-02 -1.399866342544555664e-01 1.873408071696758270e-02 1.247559394687414169e-02 8.369126170873641968e-02 6.201112642884254456e-02 -3.106083162128925323e-02 1.021098345518112183e-02 -3.712689504027366638e-02 1.763155870139598846e-02 -1.252022534608840942e-01 2.273330697789788246e-03 2.549117058515548706e-02 1.013535410165786743e-01 -5.424953997135162354e-02 3.447650745511054993e-02 -1.216296777129173279e-01 9.678775817155838013e-02 -4.359328001737594604e-02 3.116113599389791489e-03 3.182390704751014709e-02 9.004073590040206909e-02 -8.910670876502990723e-02 -3.395160287618637085e-02 -1.627395749092102051e-01 -4.039471969008445740e-02 -1.360038816928863525e-01 -6.900686770677566528e-02 -8.651691675186157227e-02 1.908547617495059967e-02 1.353321075439453125e-01 -4.094519466161727905e-02 -1.357458904385566711e-02 -6.024547666311264038e-02 -9.268757700920104980e-02 5.791461467742919922e-02 -8.190694451332092285e-02 -2.653690427541732788e-02 1.647164858877658844e-02 -1.018454357981681824e-01 1.162568703293800354e-01 2.214449644088745117e-02 3.921318054199218750e-02 -2.315550856292247772e-02 1.206926852464675903e-01 -2.042670035734772682e-03 8.549058437347412109e-02 -2.071774601936340332e-01 -2.172459848225116730e-02 -4.234063252806663513e-02 6.560453027486801147e-02 1.101759262382984161e-02 6.585970520973205566e-02 1.975228637456893921e-02 7.457245886325836182e-02 5.904572084546089172e-02 5.702631315216422081e-04 -1.421191394329071045e-01 1.353358924388885498e-01 -1.505384743213653564e-01 6.617807596921920776e-02 9.036685526371002197e-02 4.096230491995811462e-03 6.281006336212158203e-02 5.202772840857505798e-02 1.815631613135337830e-02 -1.397299170494079590e-01 8.597293868660926819e-03 6.740389019250869751e-02 -4.872319474816322327e-02 3.728928416967391968e-02 1.190781593322753906e-02 1.045039445161819458e-01 -2.682106569409370422e-02 2.097996324300765991e-02 1.224559172987937927e-01 1.423897296190261841e-01 -4.033160582184791565e-02 -1.230314653366804123e-02 -1.022219210863113403e-01 -5.045809596776962280e-02 1.037274487316608429e-02 -8.244712650775909424e-02 1.559480186551809311e-02 9.822238236665725708e-02 -4.803376644849777222e-02 -1.572215259075164795e-01 -5.956123769283294678e-02 5.288539081811904907e-02 -1.070125102996826172e-01 4.887230321764945984e-02 -3.252109140157699585e-02 -9.614177048206329346e-02 -1.429133489727973938e-02 -5.888364091515541077e-02 -2.715036273002624512e-01 -1.019385829567909241e-01 1.283154785633087158e-01 -1.783563792705535889e-01 1.327807903289794922e-01 2.733037620782852173e-02 7.506162673234939575e-02 8.386717736721038818e-02 -9.213145077228546143e-02 9.148525446653366089e-02 5.799280107021331787e-02 -1.396504323929548264e-02 3.413360193371772766e-02 -9.741375595331192017e-02 -1.192156746983528137e-01 -2.153924666345119476e-02 -5.304539576172828674e-02 -5.351956933736801147e-02 -1.385141164064407349e-01 8.888637274503707886e-02 -1.216524839401245117e-02 1.499430090188980103e-01 -2.721232771873474121e-01 5.194826796650886536e-02 -6.123455613851547241e-02 4.329697787761688232e-02 -6.295365095138549805e-02 4.378225281834602356e-02 -9.420198947191238403e-02 8.176462352275848389e-02 6.375936418771743774e-02 -7.511251419782638550e-02 -7.134896703064441681e-03 1.648495197296142578e-01 -1.604016572237014771e-01 -1.549382656812667847e-01 -9.202954173088073730e-02 -3.331207903102040291e-03 -5.990479886531829834e-02 7.943613827228546143e-02 1.307886280119419098e-02 6.769427657127380371e-02 -1.487279776483774185e-02 1.034645140171051025e-01 -1.526910252869129181e-02 2.103376537561416626e-01 1.148066893219947815e-01 8.767878264188766479e-02 -1.291863387450575829e-03 2.714545093476772308e-02 -4.504856653511524200e-03 -2.268678508698940277e-02 -3.682795166969299316e-02 -1.025880053639411926e-01
4.623052477836608887e-02 -2.770966663956642151e-02 5.107596516609191895e-03 9.195855259895324707e-02 5.861219018697738647e-02 -3.814237564802169800e-02 1.451479047536849976e-01 -2.355305850505828857e-02 -9.529480338096618652e-02 8.021879941225051880e-02 1.265771570615470409e-03 4.323596507310867310e-02 5.373452603816986084e-02 -8.370912075042724609e-02 6.346596777439117432e-02 -3.791503235697746277e-02 1.746576465666294098e-02 -1.469791382551193237e-01 -8.728235214948654175e-02 -3.583860024809837341e-02 1.904214173555374146e-02 -2.436323091387748718e-02 -5.038018152117729187e-02 -6.033245846629142761e-02 -1.243267059326171875e-01 6.633274257183074951e-02 8.498899638652801514e-02 -7.718914747238159180e-02 5.269769206643104553e-02 4.226631671190261841e-02 4.202900826930999756e-02 -5.412475764751434326e-02 3.813657164573669434e-02 2.804811857640743256e-02 -2.483806340023875237e-03 -7.380444556474685669e-02 -3.512652218341827393e-02 -9.990697354078292847e-02 -5.293027684092521667e-02 -1.691292226314544678e-01 -4.932303726673126221e-02 4.830784630030393600e-03 -6.807948648929595947e-02 -7.137224078178405762e-03 1.670174896717071533e-01 1.018780693411827087e-01 8.941712230443954468e-02 5.464230105280876160e-02 -7.336750626564025879e-02 -1.783455014228820801e-01 2.721070684492588043e-02 7.272051274776458740e-02 -4.651804920285940170e-03 -8.792988210916519165e-02 -8.370207995176315308e-02 -1.857137680053710938e-01 -6.608394533395767212e-02 6.852166354656219482e-02 1.529490202665328979e-01 9.015243500471115112e-02 1.034605354070663452e-01 1.443571783602237701e-02 1.241554878652095795e-02 -1.370169669389724731e-01 1.558980345726013184e-01 2.892174758017063141e-02 8.346704393625259399e-02 -2.936903014779090881e-02 6.328871101140975952e-02 -1.415075510740280151e-01 -2.855028584599494934e-02 -3.487255051732063293e-02 7.302217185497283936e-02 -1.374502480030059814e-01 7.265147566795349121e-02 9.758006781339645386e-03 -2.181644178926944733e-02 1.513096690177917480e-02 5.941528081893920898e-02 7.637058943510055542e-02 1.102327331900596619e-01 -1.344603747129440308e-01 -1.066726669669151306e-01 -9.673795104026794434e-02 -2.406349033117294312e-02 -1.281803101301193237e-01 4.517900571227073669e-02 -7.042723149061203003e-02 6.295421719551086426e-02 1.171622332185506821e-02 3.305432572960853577e-02 -1.285862829536199570e-02 2.238417416810989380e-02 -2.503930218517780304e-02 -9.214512258768081665e-02 1.812159456312656403e-02 -1.298300772905349731e-01 -8.399467915296554565e-02 7.427206635475158691e-02 -6.459762901067733765e-02 -3.384278388693928719e-03 -1.226218938827514648e-01 -2.000807970762252808e-01 7.903920114040374756e-02 7.477777078747749329e-03 6.971799582242965698e-02 1.394535880535840988e-02 1.046078056097030640e-01 -2.418954484164714813e-02 1.077248007059097290e-01 -2.515390887856483459e-02 -5.477393278852105141e-05 1.207388658076524734e-02 1.960928924381732941e-02 1.980714201927185059e-01 7.960028015077114105e-03 9.236777573823928833e-02 6.996557861566543579e-02 2.075464650988578796e-02 -6.066815927624702454e-02 -1.037624999880790710e-01 -4.589047655463218689e-02 -1.489790230989456177e-01 3.271609917283058167e-02 8.308383822441101074e-02 -5.513122677803039551e-02 4.843078553676605225e-02 4.269273579120635986e-02 7.075520232319831848e-03 -1.121509522199630737e-01 -3.961721062660217285e-02 -3.939890116453170776e-02 -1.093938872218132019e-01 2.663734555244445801e-02 2.014118060469627380e-02 1.084936708211898804e-01 -2.960176393389701843e-02 2.161305211484432220e-02 2.553022839128971100e-02 5.244734883308410645e-02 7.976965606212615967e-02 4.499787464737892151e-02 -1.015698537230491638e-02 1.926699578762054443e-01 6.882561370730400085e-03 -6.459035724401473999e-02 1.130993068218231201e-01 -1.445757746696472168e-01 -1.026200130581855774e-01 1.486948281526565552e-01 6.296466290950775146e-02 6.756334099918603897e-03 6.415498256683349609e-02 2.151643484830856323e-01 2.393556535243988037e-01 -9.622939676046371460e-02 5.064107477664947510e-02 9.381354600191116333e-02 3.978776931762695312e-02 1.652452535927295685e-02 -6.651459634304046631e-02 -6.962863355875015259e-02 5.737476982176303864e-03 -1.050377935171127319e-01 8.457992970943450928e-02 1.357087492942810059e-01 1.140016987919807434e-01 6.024888250976800919e-03 3.763380274176597595e-02 1.274262070655822754e-01 3.980182483792304993e-02 -1.080051735043525696e-01 -7.580488920211791992e-02 -1.404089480638504028e-01 5.571508035063743591e-02 -1.104531586170196533e-01 -5.261571332812309265e-02 -1.125873252749443054e-01 -5.149578303098678589e-02 -1.937459781765937805e-02 4.265758208930492401e-03 -8.605764061212539673e-02 8.778415620326995850e-02 -1.472850441932678223e-01 4.099226556718349457e-03 -6.166817620396614075e-02 -1.991132944822311401e-01 -1.851518638432025909e-02 8.946058154106140137e-02 3.762668464332818985e-03 -8.498180657625198364e-03 -8.268260397017002106e-03 -1.125448793172836304e-01 4.267705976963043213e-02 -1.882710903882980347e-01 1.018205210566520691e-01 -2.366672158241271973e-01 1.203904077410697937e-01 -1.184465438127517700e-01 1.413329839706420898e-01 -1.412626914680004120e-02 1.048388034105300903e-01 -2.317366423085331917e-03 5.799949541687965393e-02 4.652781412005424500e-02 -6.040772795677185059e-02 6.718914955854415894e-02 7.689118850976228714e-03 -8.746167272329330444e-02 6.402103230357170105e-03 -5.544386059045791626e-02 7.696893811225891113e-02 1.156247481703758240e-01 1.271320879459381104e-01 7.755265384912490845e-02 1.162874624133110046e-01 -2.760107219219207764e-01 -9.449084848165512085e-02 5.167043581604957581e-02 -3.791264072060585022e-02 -1.355865411460399628e-02 2.169271707534790039e-01 1.898655593395233154e-01 2.636034786701202393e-02 2.173902653157711029e-02 4.596032202243804932e-02 -4.691718146204948425e-02 -4.200127720832824707e-02 6.923405826091766357e-02 -7.173418998718261719e-02 -1.129798591136932373e-01 -1.522348821163177490e-01 7.231108844280242920e-02 1.261692773550748825e-02 1.430959552526473999e-01 3.369049727916717529e-02 -5.390226840972900391e-02 -2.318810299038887024e-02 -6.011287868022918701e-02 -1.329065710306167603e-01 -1.430195122957229614e-01 -7.976131141185760498e-02 1.911493204534053802e-02 1.648543924093246460e-01 9.269949048757553101e-02 1.141126453876495361e-01 -9.125662595033645630e-02 5.434422940015792847e-02 -2.182901501655578613e-01 7.156774401664733887e-02 -3.707418963313102722e-02 -1.010385230183601379e-01 6.620357930660247803e-02 -3.487727418541908264e-02 7.514581084251403809e-02 -5.361998826265335083e-02
-7.104355841875076294e-02 -1.268003284931182861e-01 -1.528964787721633911e-01 -6.926184892654418945e-02 -5.418342351913452148e-02 6.089534610509872437e-02 5.104147270321846008e-02 7.266320288181304932e-02 -7.831352204084396362e-02 -8.362105488777160645e-02 -2.445023739710450172e-03 -9.641125798225402832e-03 7.747671008110046387e-02 -5.982598289847373962e-02 -8.756489306688308716e-02 2.360923448577523232e-03 -1.734444797039031982e-01 -8.805458992719650269e-02 -3.910553455352783203e-02 -9.415053576231002808e-02 1.275810599327087402e-01 1.812901645898818970e-01 -1.539783552289009094e-02 -1.092070946469902992e-03 1.365064978599548340e-01 -3.797484189271926880e-02 6.555175781250000000e-02 6.897089630365371704e-02 2.371080685406923294e-03 -7.043422758579254150e-02 -3.084843046963214874e-03 -7.767313718795776367e-02 -2.350245043635368347e-02 4.457781091332435608e-02 1.300259381532669067e-01 3.830087184906005859e-02 -5.814184900373220444e-03 -2.363844066858291626e-01 -9.550318866968154907e-02 6.046412140130996704e-02 -2.115017622709274292e-01 -1.053868755698204041e-01 1.069962978363037109e-03 3.062057308852672577e-02 -2.497399784624576569e-02 -2.561358362436294556e-02 4.802244901657104492e-02 1.485860049724578857e-01 -3.651942685246467590e-02 -6.115996465086936951e-02 2.239175699651241302e-02 7.566089928150177002e-02 1.775056123733520508e-01 9.402205049991607666e-02 -9.257835336029529572e-03 2.675553783774375916e-02 8.290272206068038940e-02 6.525182723999023438e-02 9.556952863931655884e-02 1.103822961449623108e-01 -1.223573535680770874e-01 5.437782779335975647e-02 3.550582006573677063e-02 -2.685667574405670166e-01 -2.116817422211170197e-02 8.820993453264236450e-02 -4.759219288825988770e-02 2.292123809456825256e-02 -4.422943294048309326e-02 -4.995416849851608276e-02 -8.107872307300567627e-02 1.537355929613113403e-01 8.801034092903137207e-02 6.756833195686340332e-02 8.814597129821777344e-02 6.198183074593544006e-02 7.699890993535518646e-03 1.300166547298431396e-01 -8.093883097171783447e-02 -9.117469191551208496e-02 -3.049821220338344574e-02 -3.940058499574661255e-02 -6.247149035334587097e-02 -3.021545149385929108e-02 6.849799305200576782e-02 -1.770558059215545654e-01 -1.039566695690155029e-01 -5.686895549297332764e-02 2.802065014839172363e-02 1.281669586896896362e-01 -2.774780988693237305e-02 -1.880784519016742706e-02 2.422501146793365479e-02 9.754841029644012451e-02 -9.259273856878280640e-02 -8.195389807224273682e-02 2.180338650941848755e-02 -3.596217557787895203e-02 -8.895315974950790405e-02 -1.019225805066525936e-03 8.086986839771270752e-02 3.696037456393241882e-02 -1.433548480272293091e-01 4.501261562108993530e-02 -4.696945473551750183e-02 5.476453155279159546e-02 -1.155247725546360016e-02 -1.658115908503532410e-02 2.617901004850864410e-02 -1.442218478769063950e-02 1.283646840602159500e-02 -2.058867178857326508e-02 -1.946422387845814228e-03 8.334269374608993530e-02 -1.109953224658966064e-01 4.636673256754875183e-02 -7.395190768875181675e-04 -5.045611038804054260e-02 1.812656968832015991e-01 1.674823462963104248e-01 9.322141110897064209e-02 -1.199841126799583435e-01 7.627297192811965942e-02 -2.148550748825073242e-01 1.140467226505279541e-01 1.688382215797901154e-02 -1.916489899158477783e-01 -1.277280747890472412e-01 -1.371460258960723877e-01 -5.478025227785110474e-02 -1.134483739733695984e-01 -2.621984109282493591e-03 5.094313994050025940e-02 -8.013514429330825806e-02 4.724006354808807373e-02 -1.441345643252134323e-02 5.270354822278022766e-02 2.191725969314575195e-01 2.617148756980895996e-01 -8.024526759982109070e-03 6.691069155931472778e-02 -2.201698021963238716e-03 -7.152012549340724945e-03 7.312627136707305908e-02 2.241868227720260620e-01 5.374168232083320618e-02 5.436968803405761719e-02 -1.413837969303131104e-01 -1.474879682064056396e-01 1.444576829671859741e-01 -1.682739821262657642e-03 1.464163362979888916e-01 1.195673923939466476e-02 5.704853683710098267e-02 3.877880424261093140e-02 4.655066505074501038e-02 8.350469172000885010e-02 -6.486825644969940186e-02 3.916816040873527527e-02 -4.754158854484558105e-02 -4.846590105444192886e-03 -3.661214187741279602e-02 1.068254858255386353e-01 -5.762691423296928406e-02 2.427252195775508881e-02 -4.507775884121656418e-03 3.741870447993278503e-02 5.820287391543388367e-02 1.334885358810424805e-01 -1.670523174107074738e-02 1.318727582693099976e-01 7.390381395816802979e-02 2.157711610198020935e-02 -1.071109846234321594e-01 2.678293921053409576e-02 6.092160940170288086e-02 -2.379530481994152069e-02 6.329687684774398804e-02 -7.028522435575723648e-03 6.596797704696655273e-02 1.023814007639884949e-01 1.467470079660415649e-01 9.506777673959732056e-02 -6.016021966934204102e-02 1.317288577556610107e-01 -1.291057616472244263e-01 2.453370951116085052e-02 -2.674753312021493912e-03 2.405328676104545593e-02 5.142673477530479431e-02 -8.518015593290328979e-02 9.184986352920532227e-02 1.116894651204347610e-02 9.168590418994426727e-03 1.239974051713943481e-01 -4.650753363966941833e-02 3.882169723510742188e-02 -9.278289228677749634e-02 9.788684546947479248e-02 -4.013287834823131561e-03 8.046849071979522705e-02 -1.487543880939483643e-01 -1.145941168069839478e-01 -1.508829444646835327e-01 1.339066922664642334e-01 3.269630670547485352e-02 1.273945532739162445e-02 -6.746495515108108521e-02 3.213766962289810181e-02 -3.259137645363807678e-02 9.373936057090759277e-02 -1.148751899600028992e-01 -1.034452244639396667e-01 -6.302396953105926514e-02 -1.349972635507583618e-01 4.804538190364837646e-02 -1.446917653083801270e-01 1.431639958173036575e-02 1.463011205196380615e-01 -6.730769574642181396e-02 -2.946095168590545654e-02 -1.478884518146514893e-01 -9.925045818090438843e-02 2.301330305635929108e-02 1.094126701354980469e-01 2.991573885083198547e-02 -4.004090279340744019e-02 3.627633675932884216e-02 1.319883316755294800e-01 1.154344622045755386e-02 6.860455870628356934e-02 1.404211968183517456e-01 -2.585197091102600098e-01 7.005729526281356812e-02 -1.033755019307136536e-01 1.170143485069274902e-02 3.698340803384780884e-02 7.523135840892791748e-02 3.758969530463218689e-02 -4.307394102215766907e-02 1.617892384529113770e-01 -3.053484670817852020e-02 -1.753904856741428375e-02 9.317073225975036621e-02 -3.342898329719901085e-03 -1.860230974853038788e-02 3.135578706860542297e-02 8.512152731418609619e-02 -5.509634688496589661e-02 6.915308535099029541e-02 2.374102361500263214e-02 -2.446729689836502075e-03 3.855487331748008728e-02 3.258055308833718300e-03 -4.675716161727905273e-02 8.933565765619277954e-02
-1.516424566507339478e-01 -2.079692333936691284e-01 1.507262289524078369e-01 -1.161044239997863770e-01 -2.105139195919036865e-02 7.476737350225448608e-02 1.137133985757827759e-01 -7.703368365764617920e-02 2.866527065634727478e-02 -9.539420157670974731e-02 4.223417118191719055e-02 -6.031546369194984436e-02 -3.452491015195846558e-02 -1.248299330472946167e-01 -1.399330496788024902e-01 -6.401912122964859009e-02 1.158066913485527039e-01 5.507788062095642090e-02 -1.434927731752395630e-01 8.281243592500686646e-02 -4.061419144272804260e-02 1.168092153966426849e-02 8.630235493183135986e-02 1.599147915840148926e-02 9.092353284358978271e-02 -1.488799750804901123e-01 -1.891552098095417023e-02 4.810047149658203125e-02 -7.973912172019481659e-03 7.931604236364364624e-02 -7.703804969787597656e-02 3.459591045975685120e-02 -6.426890194416046143e-02 -4.675798863172531128e-02 -8.566281944513320923e-02 -9.242110699415206909e-02 -5.350065976381301880e-02 1.167558953166007996e-01 -1.660380628891289234e-03 -3.657757863402366638e-02 1.324860006570816040e-01 7.390607893466949463e-02 1.199343204498291016e-01 -5.681551620364189148e-02 -1.267841309309005737e-01 -1.198594197630882263e-01 8.165825158357620239e-02 -4.180449619889259338e-02 -1.425618231296539307e-01 3.370773047208786011e-02 -5.983987450599670410e-02 8.286336064338684082e-02 -1.995495148003101349e-02 1.588842570781707764e-01 -1.081157028675079346e-01 7.848872803151607513e-03 6.641972064971923828e-02 -9.419550769962370396e-04 1.125555858016014099e-02 -1.774994842708110809e-02 -1.179643869400024414e-01 -2.097216434776782990e-02 1.057979241013526917e-01 4.235471412539482117e-02 4.468919336795806885e-02 5.658441409468650818e-02 -1.333089619874954224e-01 4.690748825669288635e-02 6.346529722213745117e-02 -3.183930739760398865e-02 7.935865782201290131e-03 -6.546885520219802856e-02 -1.959606856107711792e-01 -4.881791770458221436e-02 -4.592018947005271912e-02 -1.497075408697128296e-01 1.219729930162429810e-01 6.266767531633377075e-02 -1.307055801153182983e-01 -1.063275709748268127e-02 8.608102798461914062e-02 2.265393733978271484e-02 -7.847053557634353638e-02 -4.663006216287612915e-02 4.874698445200920105e-02 1.496945135295391083e-02 1.737352758646011353e-01 -9.449385106563568115e-02 6.343557685613632202e-02 2.223890274763107300e-02 8.004007488489151001e-02 3.519552573561668396e-02 -1.007611379027366638e-01 4.392488300800323486e-02 9.172678925096988678e-03 5.534590035676956177e-02 -7.344254106283187866e-02 5.470009148120880127e-02 5.122229456901550293e-02 -1.866738498210906982e-01 9.560033679008483887e-03 2.453923225402832031e-02 -8.742161095142364502e-02 -3.292896226048469543e-02 -2.450459636747837067e-03 1.484734714031219482e-01 4.255902487784624100e-03 -7.071544229984283447e-02 8.685866743326187134e-02 -1.167697384953498840e-01 -9.306331723928451538e-02 9.481199085712432861e-02 -1.437513530254364014e-01 -4.715783149003982544e-02 9.328988939523696899e-02 1.019963324069976807e-01 4.389658942818641663e-02 9.980697184801101685e-02 8.832353353500366211e-02 1.271063555032014847e-02 1.918376535177230835e-01 6.181277334690093994e-02 1.578006595373153687e-01 -5.418619140982627869e-02 1.708130240440368652e-01 -4.089674726128578186e-02 -2.913475967943668365e-02 -4.626332595944404602e-02 -1.430809870362281799e-02 4.207292199134826660e-02 4.941321536898612976e-02 -2.938787266612052917e-02 1.327872574329376221e-01 6.470160931348800659e-02 2.586125396192073822e-02 -8.795109391212463379e-02 6.247477140277624130e-03 -1.994113028049468994e-01 -2.247355692088603973e-02 -9.838450700044631958e-02 2.229810878634452820e-02 1.132002547383308411e-01 1.466250270605087280e-01 -1.015149950981140137e-01 -9.138195961713790894e-02 -6.177194882184267044e-03 -1.291360408067703247e-01 9.304685890674591064e-02 7.344057410955429077e-02 -2.821805421262979507e-03 8.326365798711776733e-02 7.139235734939575195e-02 1.039373874664306641e-01 -2.490254119038581848e-02 -1.094456110149621964e-02 -6.321735680103302002e-02 2.152298204600811005e-02 -2.601807564496994019e-02 -1.292614042758941650e-01 -2.448242902755737305e-02 -4.206333681941032410e-02 -2.266794741153717041e-01 1.282437145709991455e-01 1.060475036501884460e-01 1.164149586111307144e-02 5.784444510936737061e-02 7.588145136833190918e-02 4.361188411712646484e-02 8.721383661031723022e-02 -5.863782763481140137e-02 8.191478252410888672e-02 -1.006318330764770508e-01 -2.609587088227272034e-02 8.962371200323104858e-02 3.675905615091323853e-02 4.887282103300094604e-02 1.334809958934783936e-01 -7.269640266895294189e-02 -1.869054883718490601e-01 -3.386947512626647949e-02 4.612752795219421387e-02 2.640216052532196045e-02 6.674799323081970215e-02 8.907468989491462708e-03 7.461310178041458130e-02 -3.932518512010574341e-02 7.859969139099121094e-02 2.969195693731307983e-02 1.543666124343872070e-01 2.276409417390823364e-01 -2.053721807897090912e-02 8.207236975431442261e-02 -3.478777408599853516e-02 -3.708653151988983154e-02 7.032165676355361938e-02 -5.913515109568834305e-03 1.044794246554374695e-01 6.384067982435226440e-02 1.306082010269165039e-01 1.843168586492538452e-01 2.517088875174522400e-02 5.875977128744125366e-02 3.991367667913436890e-02 5.833296105265617371e-02 3.349925205111503601e-02 -4.436620697379112244e-02 9.840412437915802002e-02 1.229933798313140869e-01 8.375336229801177979e-02 -5.865485221147537231e-02 1.795193552970886230e-02 -4.655371606349945068e-02 1.018443107604980469e-01 6.945690512657165527e-02 -6.324446201324462891e-02 1.866971403360366821e-01 -1.670411527156829834e-01 -3.026770241558551788e-02 -1.171157285571098328e-01 1.631594300270080566e-01 1.352582722902297974e-01 -3.648844733834266663e-02 -9.867532178759574890e-03 -4.423754289746284485e-02 -5.741833150386810303e-02 -5.762460082769393921e-02 -6.332962960004806519e-02 3.250437602400779724e-02 6.691704690456390381e-02 3.895064815878868103e-02 7.737519592046737671e-02 -1.559594422578811646e-01 9.221101552248001099e-02 -4.742970317602157593e-02 8.076920360326766968e-02 2.036627829074859619e-01 -1.638284139335155487e-02 6.663770973682403564e-02 -3.746773302555084229e-02 -5.228568986058235168e-02 -1.530863493680953979e-01 1.635040044784545898e-01 -8.244081586599349976e-02 -3.460239246487617493e-02 3.759508021175861359e-03 4.520692303776741028e-02 2.075979113578796387e-01 4.085588082671165466e-02 8.172129094600677490e-02 -2.069846391677856445e-01 -5.700590834021568298e-02 7.101749628782272339e-02 1.362926512956619263e-01 5.720037594437599182e-02 -4.477947950363159180e-02 1.058505624532699585e-01
8.852002769708633423e-02 -1.832515895366668701e-01 9.410505741834640503e-02 -4.714456200599670410e-02 5.408635828644037247e-03 -7.897967845201492310e-02 3.443781286478042603e-02 7.884591817855834961e-02 7.641635090112686157e-02 6.474165245890617371e-03 1.645247079432010651e-02 -1.154228951781988144e-02 -1.562569290399551392e-01 -6.427973508834838867e-02 -1.496348232030868530e-01 6.359205394983291626e-02 -7.043275237083435059e-02 3.061562404036521912e-02 7.611767947673797607e-02 -1.433665156364440918e-01 -9.423732012510299683e-02 7.571479678153991699e-02 1.573286801576614380e-01 3.069177269935607910e-01 1.389736384153366089e-01 9.078655391931533813e-02 3.074234351515769958e-02 -1.083265393972396851e-01 4.451274499297142029e-02 -2.998374775052070618e-02 1.013344451785087585e-01 -7.541953586041927338e-03 -5.298157781362533569e-02 8.459332399070262909e-03 -5.343147367238998413e-02 2.471092343330383301e-02 -7.356479018926620483e-02 8.722610771656036377e-02 2.093899995088577271e-02 5.285854637622833252e-02 8.367844671010971069e-02 2.826020494103431702e-02 -4.322978481650352478e-02 -4.565833136439323425e-03 -5.106022581458091736e-02 6.264843977987766266e-04 1.512532532215118408e-01 2.374725602567195892e-02 -1.518852412700653076e-01 -1.093912571668624878e-01 -2.343932092189788818e-01 -6.687394529581069946e-02 -2.250812249258160591e-03 1.245318502187728882e-01 -1.405718503519892693e-03 8.625412732362747192e-02 -1.390847750008106232e-02 1.501847505569458008e-01 -3.052387386560440063e-02 1.713371127843856812e-01 1.843828149139881134e-02 1.534715592861175537e-01 1.372020505368709564e-02 9.111602557823061943e-04 -1.170821338891983032e-01 3.961821272969245911e-02 1.261053793132305145e-02 -3.328198194503784180e-02 3.097245236858725548e-03 3.139790147542953491e-02 4.124222695827484131e-02 7.594199478626251221e-02 -1.013495400547981262e-01 -1.846848428249359131e-01 -9.259438142180442810e-03 1.588399857282638550e-01 -2.501666732132434845e-02 4.362129792571067810e-02 3.233069181442260742e-02 1.165698468685150146e-01 -1.913615997182205319e-04 -3.137404471635818481e-02 1.033322513103485107e-01 -2.588682621717453003e-02 -1.020616106688976288e-02 1.115610674023628235e-01 3.490595519542694092e-02 -2.817462384700775146e-02 -1.454035639762878418e-01 2.385350689291954041e-02 5.755479913204908371e-03 -2.145289070904254913e-02 -2.903072163462638855e-02 -3.974454849958419800e-02 7.696928083896636963e-02 7.368461787700653076e-02 2.929677255451679230e-02 2.322179265320301056e-02 -1.752959750592708588e-02 4.360118880867958069e-03 -4.992356151342391968e-02 1.982575468719005585e-02 2.014193385839462280e-01 4.001081362366676331e-02 -8.359785377979278564e-02 -5.795356817543506622e-03 -2.029063850641250610e-01 9.594984352588653564e-02 -9.762663394212722778e-02 -1.245359256863594055e-01 -6.946717947721481323e-02 -1.018704324960708618e-01 1.322561204433441162e-01 2.979261241853237152e-02 3.753613913431763649e-03 3.991414979100227356e-02 -1.266374439001083374e-01 2.480489760637283325e-01 3.322485834360122681e-02 -8.726116269826889038e-02 -7.524137198925018311e-02 1.517748981714248657e-01 -1.684137880802154541e-01 -3.633985528722405434e-03 1.451164186000823975e-01 -1.790013164281845093e-01 -1.147347837686538696e-01 2.292210422456264496e-02 -8.623017370700836182e-02 2.713765716180205345e-03 2.950953133404254913e-02 1.000281125307083130e-01 -8.195674419403076172e-02 -4.304834827780723572e-02 -6.594087183475494385e-02 -2.193235047161579132e-02 -3.890722617506980896e-02 -1.093945056200027466e-01 3.530731052160263062e-02 -1.041393429040908813e-01 4.677410703152418137e-03 -1.695460453629493713e-02 -4.995812848210334778e-02 -1.014683544635772705e-01 9.496034681797027588e-02 -1.162807364016771317e-02 1.033994648605585098e-02 -1.833612322807312012e-01 -1.492927819490432739e-01 1.363159064203500748e-02 1.948597654700279236e-02 2.868663892149925232e-02 5.931416526436805725e-02 -7.482072710990905762e-02 -1.445914432406425476e-02 2.492173574864864349e-02 1.111485809087753296e-01 2.262821793556213379e-02 -5.503011494874954224e-02 3.915436193346977234e-02 1.049419343471527100e-01 3.927670046687126160e-02 1.318211946636438370e-02 -2.014908492565155029e-01 1.412894297391176224e-02 -2.275321818888187408e-02 3.198947012424468994e-02 1.024776790291070938e-02 4.159194603562355042e-02 -9.651281684637069702e-02 2.284715622663497925e-01 4.648063704371452332e-02 -8.796922862529754639e-03 9.376226365566253662e-02 -6.379556655883789062e-02 4.723713174462318420e-02 -1.292979270219802856e-01 -1.627550832927227020e-02 -3.243350610136985779e-02 1.496181124821305275e-03 -1.749116331338882446e-01 1.096252724528312683e-01 -7.336720824241638184e-02 2.034324780106544495e-02 4.966541193425655365e-03 -5.410899966955184937e-02 -7.923419773578643799e-02 -6.911520659923553467e-02 1.463406067341566086e-02 2.974053844809532166e-02 5.864983424544334412e-02 3.262760490179061890e-02 -1.713773012161254883e-01 -6.837470829486846924e-02 -2.258351258933544159e-02 -7.872507907450199127e-03 -2.640773057937622070e-01 3.377974778413772583e-02 2.515610121190547943e-02 -9.587269276380538940e-02 -6.591252237558364868e-02 5.927309393882751465e-02 1.006671786308288574e-02 4.026843234896659851e-02 -1.566633000038564205e-03 1.858146190643310547e-01 -2.979541383683681488e-02 -6.882622092962265015e-02 3.619067370891571045e-02 -9.311451017856597900e-02 1.050236150622367859e-01 8.628874272108078003e-02 1.246279031038284302e-01 3.127410635352134705e-02 4.130131751298904419e-02 1.724618375301361084e-01 1.550896614789962769e-01 3.016768395900726318e-02 -5.052608624100685120e-02 4.575248807668685913e-02 2.429508417844772339e-02 6.060809269547462463e-02 1.202853024005889893e-01 1.558218747377395630e-01 -1.961868442595005035e-02 4.705344885587692261e-02 1.621052324771881104e-01 -1.759950071573257446e-02 4.416174441576004028e-02 6.011679396033287048e-02 8.135622739791870117e-02 1.293377578258514404e-01 1.430492196232080460e-02 5.882604047656059265e-02 -5.543878674507141113e-02 -1.467823982238769531e-02 -3.314681723713874817e-02 -2.411585859954357147e-02 -7.305575907230377197e-02 -1.141593530774116516e-01 8.952300995588302612e-02 -4.965338110923767090e-02 1.686857827007770538e-02 -1.346841454505920410e-01 -8.565798401832580566e-03 1.685712933540344238e-01 2.545638009905815125e-02 6.669601052999496460e-02 -1.925344765186309814e-02 1.263037025928497314e-01 1.855913847684860229e-01 5.793035775423049927e-02 -8.685835450887680054e-02 2.701235935091972351e-02 2.573278546333312988e-02 -1.698584854602813721e-02
-1.588008701801300049e-01 -5.297604948282241821e-02 -1.281870454549789429e-01 -3.980720788240432739e-02 -3.207497671246528625e-02 -1.663815416395664215e-02 -3.213861584663391113e-02 6.723360717296600342e-02 -8.959239721298217773e-02 -1.698329299688339233e-02 1.060394495725631714e-01 -6.018421147018671036e-03 2.724761515855789185e-02 -1.250931471586227417e-01 1.093914732336997986e-01 4.394115880131721497e-02 1.493245735764503479e-02 -1.656331308186054230e-02 7.059831172227859497e-02 1.689768880605697632e-01 -1.038467958569526672e-01 -4.285519570112228394e-02 -1.637950241565704346e-01 -1.414040625095367432e-01 -1.194754093885421753e-01 1.742601394653320312e-01 -2.795432694256305695e-02 -2.362920902669429779e-02 3.564806655049324036e-02 7.128531578928232193e-03 -2.630332298576831818e-02 -5.037308484315872192e-02 -1.570123620331287384e-02 6.241702940315008163e-03 -5.127345770597457886e-02 3.025070577859878540e-02 8.515084534883499146e-02 1.028049066662788391e-01 1.243047118186950684e-01 2.166161239147186279e-01 9.496679902076721191e-02 3.546326607465744019e-02 6.569505482912063599e-02 1.009672787040472031e-02 8.719900995492935181e-02 -3.016859665513038635e-02 5.337841063737869263e-02 -3.886279463768005371e-02 5.376899149268865585e-03 -1.914596359711140394e-04 9.523493796586990356e-02 -2.821614965796470642e-02 -3.451729193329811096e-02 2.498071342706680298e-01 9.746314585208892822e-02 1.532982140779495239e-01 1.290147751569747925e-01 -4.977682605385780334e-02 4.253793507814407349e-02 -4.944842681288719177e-02 -5.232747644186019897e-02 2.212005667388439178e-03 -1.228040829300880432e-01 -1.989489495754241943e-01 2.468694187700748444e-02 2.183378301560878754e-02 9.369534254074096680e-02 4.114622995257377625e-02 1.509056538343429565e-01 2.449251338839530945e-02 -8.468307554721832275e-02 4.517985135316848755e-02 2.513939887285232544e-02 -5.545100569725036621e-02 1.945538520812988281e-01 -8.649916201829910278e-02 9.039045125246047974e-02 -2.381839044392108917e-02 -6.314957886934280396e-02 -8.283324539661407471e-03 -1.616218499839305878e-02 1.096923798322677612e-01 -1.076349541544914246e-01 8.366157859563827515e-02 1.163749918341636658e-01 -1.386248692870140076e-02 -8.279973268508911133e-02 -1.107713505625724792e-01 -1.012343615293502808e-01 -9.469273686408996582e-02 -1.376850306987762451e-01 9.866227209568023682e-02 -7.555565983057022095e-02 -1.792662888765335083e-01 -8.531220257282257080e-02 1.371936202049255371e-01 1.494699809700250626e-02 1.031313464045524597e-01 1.137910559773445129e-01 1.093419361859560013e-02 1.543686985969543457e-01 4.981919657438993454e-03 9.483415633440017700e-02 -6.020655273459851742e-04 -8.489668369293212891e-02 1.057902872562408447e-01 5.130127537995576859e-03 -2.164417877793312073e-02 3.395824134349822998e-02 -2.905465103685855865e-02 1.517581846565008163e-02 1.107969880104064941e-01 7.607302069664001465e-02 -4.958595335483551025e-02 -1.106252670288085938e-01 -3.404589660931378603e-04 -4.878408834338188171e-02 5.031276028603315353e-03 9.378954768180847168e-02 9.672065824270248413e-02 -7.884513586759567261e-03 3.868000209331512451e-02 -1.353984177112579346e-01 -3.986976668238639832e-02 7.077247649431228638e-02 1.346535533666610718e-01 -2.796444168779999018e-04 -1.089362949132919312e-01 3.709062933921813965e-03 -6.658527255058288574e-02 -3.394445031881332397e-02 5.445219203829765320e-02 2.494809962809085846e-02 -7.661107927560806274e-02 -6.209926679730415344e-02 -4.310410842299461365e-02 4.506088793277740479e-02 1.153515353798866272e-01 -1.611855328083038330e-01 -1.113791465759277344e-01 1.556997373700141907e-02 -1.050222218036651611e-01 -3.167461976408958435e-02 4.186369013041257858e-03 -1.183943897485733032e-01 4.111244529485702515e-02 3.827462345361709595e-02 -7.987312972545623779e-02 1.142430230975151062e-01 1.481224596500396729e-01 1.060662716627120972e-01 -7.696895301342010498e-02 -2.113885432481765747e-02 5.884607136249542236e-02 1.632536202669143677e-01 2.445815317332744598e-02 7.293134182691574097e-02 -2.141277864575386047e-02 1.294658519327640533e-02 -3.663004189729690552e-02 -5.426148883998394012e-03 -7.133891433477401733e-02 1.181935742497444153e-01 1.352497339248657227e-01 5.373196303844451904e-02 3.850539773702621460e-02 2.295205742120742798e-02 -5.886775627732276917e-02 1.213603690266609192e-01 -6.365235894918441772e-02 9.895688295364379883e-02 1.930266320705413818e-01 7.700151763856410980e-03 3.529748355504125357e-04 -1.912655830383300781e-01 -7.306905090808868408e-02 4.192570224404335022e-02 2.208418771624565125e-02 1.284901648759841919e-01 -5.041515082120895386e-02 -1.057080104947090149e-01 -1.365797780454158783e-02 1.398502141237258911e-01 9.474979341030120850e-02 -3.983904048800468445e-02 -8.867523632943630219e-03 7.968612760305404663e-02 9.983742237091064453e-02 -3.033496253192424774e-02 -8.789137750864028931e-02 1.709885778836905956e-03 8.778340183198451996e-03 7.709163427352905273e-02 -2.199698472395539284e-03 -4.621605947613716125e-02 2.581090033054351807e-01 -2.119126319885253906e-01 7.985738106071949005e-03 1.477244868874549866e-02 1.232159286737442017e-01 -3.536987677216529846e-02 7.526843249797821045e-02 3.245818242430686951e-02 1.099350005388259888e-01 1.003207871690392494e-03 1.976360008120536804e-02 -1.275974214076995850e-01 3.988241031765937805e-02 1.352450926788151264e-03 -6.639711558818817139e-03 2.531294897198677063e-02 -1.982616633176803589e-01 -1.118747591972351074e-01 9.434930980205535889e-02 -1.975389756262302399e-02 8.923237770795822144e-02 9.609633684158325195e-02 -8.685681223869323730e-02 -7.877377420663833618e-02 9.130830317735671997e-02 -1.394718885421752930e-01 3.303186222910881042e-02 7.433238625526428223e-02 3.952092304825782776e-02 5.699396133422851562e-02 -1.386669930070638657e-02 -6.636483222246170044e-02 5.142318084836006165e-02 -7.535384595394134521e-02 8.620914071798324585e-02 6.977679580450057983e-02 2.000573277473449707e-02 -5.083074048161506653e-02 1.569020152091979980e-01 1.346033904701471329e-02 -6.839139759540557861e-02 -6.428724527359008789e-02 -6.604862958192825317e-02 8.047094941139221191e-02 -2.253469377756118774e-01 -1.553630530834197998e-01 3.764728456735610962e-02 2.739865891635417938e-02 -5.199718102812767029e-02 -8.351450413465499878e-02 -2.420034706592559814e-01 1.113021075725555420e-01 5.563462153077125549e-03 5.077685415744781494e-02 9.971932321786880493e-02 1.132664978504180908e-01 6.146028172224760056e-03 -3.945479542016983032e-02 9.365979582071304321e-02 1.394751667976379395e-01 6.735464930534362793e-02
-8.879684656858444214e-02 1.536997556686401367e-01 -4.469947516918182373e-02 -1.831209100782871246e-02 1.236856132745742798e-01 6.885059922933578491e-02 -3.843954205513000488e-02 -1.225819364190101624e-01 -7.754030823707580566e-02 -4.452865570783615112e-02 1.686294823884963989e-01 7.879712432622909546e-02 4.845584556460380554e-02 1.891149431467056274e-01 1.662390083074569702e-01 1.293171197175979614e-01 -1.964670792222023010e-02 -5.638561025261878967e-02 4.491360113024711609e-02 -4.738483950495719910e-02 -1.784197539091110229e-01 3.887211903929710388e-02 -2.648625522851943970e-02 8.051518350839614868e-02 1.285208612680435181e-01 7.579629868268966675e-02 -7.292492687702178955e-02 4.062123969197273254e-02 9.853072464466094971e-02 1.296221017837524414e-01 2.127441018819808960e-02 8.934447914361953735e-02 -5.384222045540809631e-02 -1.309734582901000977e-01 -7.511980086565017700e-02 -1.683360897004604340e-02 7.992827147245407104e-02 3.153569251298904419e-02 1.256825178861618042e-01 -3.420431911945343018e-02 7.854054565541446209e-04 -6.107901409268379211e-02 4.622917249798774719e-02 -9.388428926467895508e-02 -1.180240139365196228e-01 8.847887814044952393e-02 3.875896707177162170e-02 6.165909767150878906e-02 2.232232131063938141e-02 5.142406746745109558e-02 5.623508617281913757e-02 5.216557905077934265e-02 -2.636064216494560242e-02 -2.806905657052993774e-03 -1.577626615762710571e-01 -6.795336306095123291e-02 2.329491265118122101e-02 -2.424785634502768517e-03 3.898760676383972168e-02 -1.753567308187484741e-01 -2.143924124538898468e-02 1.286416798830032349e-01 3.121150890365242958e-03 -1.713690161705017090e-02 8.258456736803054810e-02 2.268663421273231506e-02 -7.642349600791931152e-02 3.108933195471763611e-02 -8.761586248874664307e-02 3.747858852148056030e-02 5.495558958500623703e-03 -9.746287763118743896e-02 4.532488062977790833e-02 7.415064424276351929e-02 -1.012281924486160278e-01 -3.873335570096969604e-02 4.114148765802383423e-02 -1.826973631978034973e-03 1.625178456306457520e-01 -2.396591380238533020e-02 -1.005650237202644348e-01 4.864541441202163696e-02 8.344496786594390869e-02 1.827869266271591187e-01 -1.523216962814331055e-01 2.659140154719352722e-02 -1.067623421549797058e-01 8.377911522984504700e-03 1.293615903705358505e-02 1.977727934718132019e-02 5.664001777768135071e-02 5.678067356348037720e-02 -4.315342754125595093e-02 -2.686233818531036377e-02 1.224639862775802612e-01 -1.374412477016448975e-01 -1.355413068085908890e-02 -1.131908223032951355e-01 -9.653988480567932129e-02 1.319507509469985962e-01 -1.152291372418403625e-01 1.212601959705352783e-01 1.227973774075508118e-01 -1.351505368947982788e-01 2.258555889129638672e-01 8.318108320236206055e-02 4.603648185729980469e-02 1.500701457262039185e-01 -9.841424226760864258e-02 -2.168349362909793854e-02 -1.054181754589080811e-01 7.201523333787918091e-02 -7.711026072502136230e-02 1.948223263025283813e-01 2.848012372851371765e-02 -8.748871833086013794e-02 -5.087986215949058533e-02 1.285042464733123779e-01 2.698478698730468750e-01 -7.973659038543701172e-02 -7.788645476102828979e-02 -1.664997488260269165e-01 1.774881333112716675e-01 1.113640069961547852e-01 9.059102833271026611e-02 7.938586175441741943e-02 -7.904014736413955688e-02 1.335192769765853882e-01 -8.711311966180801392e-02 8.903017640113830566e-02 -5.330289900302886963e-02 -3.040987439453601837e-02 -8.424872159957885742e-02 -1.988815516233444214e-01 4.312659054994583130e-02 -4.163108766078948975e-02 1.103312000632286072e-01 9.180565178394317627e-02 -4.810891300439834595e-02 2.894728444516658783e-02 1.047288328409194946e-01 1.494372636079788208e-02 -1.348775029182434082e-01 5.444571841508150101e-03 1.413251459598541260e-01 -1.779717355966567993e-01 9.927939623594284058e-03 7.144902646541595459e-02 -1.170858815312385559e-01 -8.857901394367218018e-02 -5.966750159859657288e-02 1.043397560715675354e-01 1.244953647255897522e-01 5.385475978255271912e-02 6.621447205543518066e-02 3.139994293451309204e-02 -1.376867890357971191e-01 -4.912297427654266357e-02 -2.758080512285232544e-02 -1.770501770079135895e-02 1.518282666802406311e-02 -1.088319048285484314e-01 8.391071460209786892e-04 1.133334785699844360e-01 -3.616099804639816284e-02 2.275892905890941620e-02 -8.051235973834991455e-02 -5.911457166075706482e-02 5.686709284782409668e-02 -6.920377165079116821e-02 -4.428400099277496338e-02 -1.137046739459037781e-01 -8.204986900091171265e-02 -9.713269025087356567e-02 1.191901415586471558e-02 -7.133164256811141968e-02 6.435130536556243896e-02 1.367041468620300293e-02 -4.977113008499145508e-02 1.601614803075790405e-01 -1.307027228176593781e-02 9.772782772779464722e-02 -4.670945182442665100e-02 -7.304681837558746338e-02 3.723995760083198547e-02 -6.207790970802307129e-02 -6.360317021608352661e-02 9.616177529096603394e-02 7.541715353727340698e-02 -1.564929783344268799e-01 -1.272143572568893433e-01 1.139245554804801941e-01 2.467912621796131134e-03 1.062553897500038147e-01 9.239069768227636814e-04 5.088787153363227844e-02 -5.851763859391212463e-02 1.550073083490133286e-02 -5.541458725929260254e-02 9.960304014384746552e-03 3.627484291791915894e-02 6.395749747753143311e-02 1.396943535655736923e-02 2.118264138698577881e-01 5.767155438661575317e-02 3.117511048913002014e-02 6.463290750980377197e-02 -1.260029077529907227e-01 1.133904159069061279e-01 -6.421542912721633911e-02 -4.590914398431777954e-02 7.130048424005508423e-02 9.427354484796524048e-02 1.229352056980133057e-01 -5.886928364634513855e-02 5.495164170861244202e-02 7.032737135887145996e-02 -1.425898224115371704e-01 -7.096713781356811523e-02 -6.287624593824148178e-03 -1.316072642803192139e-01 -3.296479955315589905e-02 -7.644993811845779419e-02 -1.986099407076835632e-03 -2.095896191895008087e-02 7.752355188131332397e-02 -3.767145052552223206e-02 -3.096385858952999115e-02 2.765740081667900085e-02 4.042194783687591553e-02 5.552067607641220093e-02 -5.039208754897117615e-02 -2.294270507991313934e-02 3.363607078790664673e-02 -9.926699846982955933e-02 -4.468857124447822571e-02 -1.064799726009368896e-01 5.691362917423248291e-02 2.050419002771377563e-01 -7.273010909557342529e-02 -1.864556074142456055e-01 -3.789282962679862976e-02 -2.576884068548679352e-02 5.554060451686382294e-03 3.482443839311599731e-02 1.087238490581512451e-01 -7.516148500144481659e-03 -2.501826547086238861e-02 7.269428670406341553e-02 -7.757605612277984619e-02 4.354514926671981812e-02 1.173683851957321167e-01 1.586231030523777008e-02 1.423031389713287354e-01 4.412524867802858353e-04 1.582429744303226471e-02
5.962175875902175903e-02 -1.586787253618240356e-01 -1.620507538318634033e-01 7.513136416673660278e-02 1.010078862309455872e-01 -7.872089743614196777e-02 5.039579421281814575e-02 1.898136734962463379e-01 -1.960762292146682739e-01 -1.681548357009887695e-02 3.540714830160140991e-02 1.340720206499099731e-01 5.538423731923103333e-02 1.888234913349151611e-02 3.440550714731216431e-02 -1.303078532218933105e-01 -3.864228352904319763e-02 -6.907868385314941406e-02 1.132912710309028625e-01 -5.556701123714447021e-02 1.922484487295150757e-01 1.115064485929906368e-03 9.573862701654434204e-02 -2.111080102622509003e-04 1.067870035767555237e-01 -7.222267240285873413e-02 6.632188707590103149e-02 5.168071482330560684e-03 1.578489094972610474e-01 -1.434092670679092407e-01 5.678241606801748276e-03 1.090441942214965820e-01 1.207069978117942810e-01 -6.887655239552259445e-03 6.548196822404861450e-02 1.308476179838180542e-01 4.636720195412635803e-02 -1.202565431594848633e-01 -1.032036021351814270e-01 1.493666693568229675e-02 -5.933140218257904053e-02 1.789017915725708008e-01 -8.140277117490768433e-02 -1.061675027012825012e-01 7.520956918597221375e-03 -8.417591452598571777e-02 2.437262050807476044e-02 -4.515822976827621460e-02 1.509841382503509521e-01 3.922904655337333679e-02 -8.933800458908081055e-02 1.675506383180618286e-01 3.096135519444942474e-02 -2.734807692468166351e-02 -1.479759067296981812e-01 -9.491289407014846802e-02 -1.589632630348205566e-01 -5.986764281988143921e-02 1.177735477685928345e-01 -2.356391400098800659e-03 9.802296757698059082e-02 8.104639500379562378e-02 1.207499727606773376e-01 3.572450368665158749e-04 8.994457870721817017e-02 1.152157783508300781e-01 -6.048815324902534485e-02 2.513793110847473145e-02 6.879051774740219116e-02 -5.537556111812591553e-02 -2.376484684646129608e-02 -1.527113765478134155e-01 -1.718366146087646484e-01 -1.945484057068824768e-02 1.064317077398300171e-01 6.667234003543853760e-02 -1.573432832956314087e-01 4.270208626985549927e-02 -3.338751569390296936e-02 -1.134011670947074890e-01 2.449225075542926788e-02 1.168524846434593201e-02 -4.231253638863563538e-03 3.431150317192077637e-02 -1.927359998226165771e-01 1.684673726558685303e-01 -3.904416784644126892e-02 -1.213112175464630127e-01 4.071344062685966492e-02 2.231210842728614807e-02 1.145711466670036316e-01 6.606279313564300537e-02 -5.333171412348747253e-02 -4.676786484196782112e-04 -1.298554241657257080e-01 1.592988520860671997e-01 1.371393054723739624e-01 9.195862337946891785e-03 7.497547566890716553e-02 -5.948500707745552063e-02 1.265977788716554642e-02 2.018121480941772461e-01 -4.295232146978378296e-02 1.647125631570816040e-01 -1.992734149098396301e-02 8.726840466260910034e-02 1.016559079289436340e-01 1.784533821046352386e-02 4.340370651334524155e-03 1.568176783621311188e-02 8.307079970836639404e-02 -4.183411970734596252e-02 1.207601428031921387e-01 -4.477485269308090210e-02 1.124289259314537048e-01 -1.412469446659088135e-01 5.564441531896591187e-02 -1.170056015253067017e-01 2.818351984024047852e-02 -7.334031909704208374e-02 -2.619597688317298889e-02 -8.613169193267822266e-02 -7.036863826215267181e-03 2.564594708383083344e-02 1.879304200410842896e-01 5.921922996640205383e-02 1.108130440115928650e-01 -1.829326618462800980e-03 -9.152674674987792969e-02 -5.547354742884635925e-02 -3.399678273126482964e-03 2.730712480843067169e-02 6.878874450922012329e-02 -7.830046117305755615e-02 7.096066325902938843e-02 -1.570819169282913208e-01 9.020209312438964844e-02 7.628088444471359253e-02 5.647607520222663879e-02 8.567025512456893921e-02 8.008822798728942871e-02 -9.044744819402694702e-02 -2.468459866940975189e-02 -4.146811366081237793e-02 1.937509514391422272e-02 1.040902435779571533e-01 -3.368631005287170410e-02 -9.198755025863647461e-03 1.113849356770515442e-01 -1.589428037405014038e-01 1.746528446674346924e-01 -1.749676465988159180e-01 7.603652775287628174e-02 -3.672653064131736755e-02 -2.021220140159130096e-02 5.925231054425239563e-02 2.431586571037769318e-02 -5.974701792001724243e-02 1.168919727206230164e-01 1.446079015731811523e-01 3.156776726245880127e-02 -5.456519126892089844e-02 -3.061669692397117615e-02 7.308033108711242676e-02 -6.374602764844894409e-02 -1.717779971659183502e-02 -2.526899985969066620e-02 1.086975336074829102e-01 5.505950748920440674e-02 -8.886507898569107056e-02 -3.670229017734527588e-02 -1.075257435441017151e-01 -6.906957924365997314e-02 3.778776153922080994e-02 1.633588597178459167e-02 1.155574694275856018e-01 -3.579525649547576904e-02 1.903802715241909027e-02 4.035320505499839783e-02 -4.751087725162506104e-02 -1.115946937352418900e-02 1.114106550812721252e-01 -3.473297879099845886e-02 -1.615043729543685913e-01 1.107402890920639038e-01 4.187623783946037292e-02 8.071739226579666138e-02 -4.447521269321441650e-02 -1.201253309845924377e-01 -4.722071811556816101e-02 1.975734345614910126e-02 -1.134436801075935364e-01 -3.431648015975952148e-02 -3.704721108078956604e-02 1.733948439359664917e-01 1.731172204017639160e-01 -1.727278716862201691e-02 1.320165395736694336e-01 -1.017698943614959717e-01 -1.145121008157730103e-01 -2.646984718739986420e-02 -5.477179959416389465e-02 5.661386530846357346e-03 1.865235529839992523e-02 -1.508682668209075928e-01 -8.496006578207015991e-02 -2.005748003721237183e-01 5.687138810753822327e-02 -1.410398185253143311e-01 -2.655047364532947540e-02 -4.433809965848922729e-02 -5.604113638401031494e-02 3.185070818290114403e-03 -2.347751520574092865e-02 7.983749359846115112e-02 9.521081112325191498e-03 6.965921074151992798e-02 9.838376194238662720e-02 3.893464058637619019e-02 -4.029261320829391479e-02 1.109311240725219250e-03 1.606860011816024780e-01 1.063419729471206665e-01 -7.034627348184585571e-02 -3.033267892897129059e-02 6.661368906497955322e-02 2.726196125149726868e-02 1.719450950622558594e-02 2.184813469648361206e-02 -1.157063171267509460e-01 9.496052563190460205e-02 -1.060310378670692444e-01 3.075091866776347160e-03 -3.022492304444313049e-02 -7.841615006327629089e-03 1.231704950332641602e-01 -4.944211617112159729e-02 -6.307196617126464844e-02 1.615224629640579224e-01 -7.722595334053039551e-02 -4.443419352173805237e-02 5.002647265791893005e-02 1.321332901716232300e-01 -1.333115100860595703e-01 -5.330498516559600830e-02 1.628485508263111115e-02 -7.880887389183044434e-02 1.113219782710075378e-01 9.018206596374511719e-02 -1.270724087953567505e-01 2.565757185220718384e-02 1.357192695140838623e-01 -7.514496147632598877e-02 -3.911676630377769470e-02 7.881341129541397095e-02 1.186373084783554077e-01
1.596376299858093262e-02 8.464854955673217773e-02 -1.212087795138359070e-01 -9.147906303405761719e-02 -1.100388243794441223e-01 -3.879138082265853882e-02 -1.172423362731933594e-02 1.343772113323211670e-01 6.721546500921249390e-02 9.607154130935668945e-02 -1.799958199262619019e-02 5.527242273092269897e-02 1.831370890140533447e-01 1.066102162003517151e-01 -8.222927153110504150e-02 5.650197714567184448e-02 1.124492473900318146e-02 1.972193419933319092e-01 1.130876317620277405e-02 2.034158259630203247e-02 3.688652068376541138e-02 -5.821724608540534973e-02 -3.182129189372062683e-02 6.802632659673690796e-02 7.710341364145278931e-03 -6.840395741164684296e-03 -2.342377603054046631e-02 -2.245297096669673920e-02 7.244054577313363552e-04 -1.259866803884506226e-01 1.392411440610885620e-02 1.650855690240859985e-01 -9.141230583190917969e-02 -8.845888823270797729e-02 -2.860078355297446251e-03 4.664389044046401978e-02 -5.332048237323760986e-02 -1.530378013849258423e-01 1.539398729801177979e-01 6.100272014737129211e-02 -1.309117972850799561e-01 2.631790637969970703e-01 4.007002711296081543e-02 -1.245742756873369217e-02 -1.585677266120910645e-01 -3.386972844600677490e-02 -1.032180786132812500e-01 9.361036866903305054e-02 7.792400568723678589e-02 7.513486593961715698e-02 1.774036735296249390e-01 -7.182726263999938965e-02 6.194259971380233765e-02 7.680533826351165771e-02 8.606401085853576660e-02 -5.183487012982368469e-02 9.548234194517135620e-02 1.097699403762817383e-01 2.256898768246173859e-02 -7.664539664983749390e-02 -4.712155088782310486e-03 1.386655271053314209e-01 1.292982138693332672e-02 -1.204674914479255676e-01 -5.231843888759613037e-02 1.104475557804107666e-01 5.110915750265121460e-02 6.042813882231712341e-03 6.637741625308990479e-02 -6.014466658234596252e-02 1.121560931205749512e-01 2.076040208339691162e-02 6.142027676105499268e-02 3.879591822624206543e-02 2.643543481826782227e-02 -2.265173941850662231e-02 -1.174168214201927185e-01 -3.412200137972831726e-02 8.580622822046279907e-02 -3.655283153057098389e-02 1.318924576044082642e-01 -6.332097947597503662e-02 -6.773388385772705078e-02 -8.767993748188018799e-02 -1.030882894992828369e-01 -3.832579776644706726e-02 5.520557984709739685e-02 -2.455947175621986389e-02 -5.041753500699996948e-02 -3.427422046661376953e-02 -8.785775303840637207e-02 -3.419676423072814941e-02 -5.702131241559982300e-02 9.782129526138305664e-02 -5.518986284732818604e-02 1.080405786633491516e-01 3.043121285736560822e-02 -3.033030312508344650e-03 1.370594054460525513e-01 4.762523621320724487e-02 -4.026112332940101624e-02 -2.596144378185272217e-01 1.582464873790740967e-01 2.552353404462337494e-02 2.012452483177185059e-02 2.241435460746288300e-02 -3.743325918912887573e-02 2.157650142908096313e-02 4.428311064839363098e-02 -1.012774929404258728e-01 4.865242540836334229e-02 -2.385501051321625710e-03 5.325859878212213516e-03 1.080394610762596130e-01 4.657620191574096680e-02 -1.009726077318191528e-01 2.198947668075561523e-01 -3.425114229321479797e-02 -4.368674755096435547e-02 -4.530521109700202942e-02 -5.041798949241638184e-02 1.144724711775779724e-01 8.837573975324630737e-02 -1.142183691263198853e-01 -2.896887063980102539e-02 -8.544950745999813080e-03 -2.252866886556148529e-02 1.054021194577217102e-01 3.594078123569488525e-02 -5.896463617682456970e-02 2.800256013870239258e-02 -2.835473418235778809e-02 -5.131856538355350494e-03 6.098604947328567505e-02 1.173425763845443726e-01 -6.442707777023315430e-02 -9.858067147433757782e-03 -1.053231135010719299e-01 -1.617748476564884186e-02 4.682127758860588074e-02 -9.655248373746871948e-02 -3.370366618037223816e-02 1.233923062682151794e-01 6.423523649573326111e-03 1.404835581779479980e-01 5.613991245627403259e-02 -3.477978752925992012e-04 6.588816642761230469e-02 -9.079840779304504395e-02 7.173243165016174316e-02 -1.984153985977172852e-01 7.072885334491729736e-02 -8.320226334035396576e-03 -1.516316086053848267e-01 8.943951874971389771e-02 -7.632569875568151474e-03 1.530855428427457809e-02 -1.276836842298507690e-01 5.350180715322494507e-02 2.045345604419708252e-01 -2.134349010884761810e-02 1.879822649061679840e-02 4.997338727116584778e-02 -5.238625779747962952e-02 1.014062017202377319e-01 -1.482990831136703491e-01 9.998938441276550293e-02 -7.960836589336395264e-02 1.584842335432767868e-03 -7.693754509091377258e-03 -3.059649839997291565e-02 8.463456295430660248e-03 -6.988727301359176636e-02 -6.896307691931724548e-03 2.044473737478256226e-01 -4.547817260026931763e-02 -8.064209669828414917e-02 5.738503858447074890e-02 -7.037958502769470215e-02 -9.292997419834136963e-02 -1.165135130286216736e-01 -6.407305598258972168e-02 1.944856047630310059e-01 -3.045891411602497101e-02 5.848851054906845093e-02 1.630928069353103638e-01 1.379346698522567749e-01 -1.798306778073310852e-02 7.793913781642913818e-02 2.107689902186393738e-02 -6.644335389137268066e-02 -1.670908927917480469e-01 -1.635768450796604156e-02 -2.000135369598865509e-02 -1.858953945338726044e-02 -6.781086325645446777e-02 -1.112242564558982849e-01 1.277425140142440796e-01 3.732303157448768616e-02 3.402884677052497864e-02 2.247191518545150757e-01 -1.329368203878402710e-01 -1.831934899091720581e-01 9.250073879957199097e-02 8.811793476343154907e-02 -1.037311274558305740e-03 -3.865945339202880859e-02 6.725011765956878662e-02 4.120642691850662231e-02 -8.357565104961395264e-02 -2.291185110807418823e-01 1.099045276641845703e-01 1.676020324230194092e-01 3.428399562835693359e-02 -1.061482354998588562e-01 -4.957230761647224426e-02 3.344672173261642456e-02 -2.856015413999557495e-02 -1.032717823982238770e-01 -9.922885894775390625e-02 1.474848669022321701e-02 3.663925826549530029e-02 -5.227828025817871094e-02 -5.494683980941772461e-02 2.803136035799980164e-02 -9.887669235467910767e-02 7.669889926910400391e-02 2.037265896797180176e-01 -2.165664583444595337e-01 -1.581871807575225830e-01 -7.751252967864274979e-03 -5.295210331678390503e-02 -6.121355295181274414e-02 8.076050132513046265e-02 -2.946613915264606476e-02 1.990033872425556183e-02 3.321422263979911804e-02 1.162711158394813538e-01 -3.897065296769142151e-02 -1.023458093404769897e-01 -8.188289403915405273e-02 -1.147218272089958191e-01 7.587142288684844971e-02 -5.699952691793441772e-02 1.574545204639434814e-01 -2.286116033792495728e-02 1.019596830010414124e-01 -2.505528368055820465e-02 -3.284437209367752075e-02 1.617088615894317627e-01 4.930202662944793701e-02 5.505246296525001526e-02 -2.242746576666831970e-02 3.345917910337448120e-02 -1.364906877279281616e-02 3.466144576668739319e-02
5.529547575861215591e-03 -1.764825284481048584e-01 1.025602817535400391e-01 -8.222280442714691162e-02 -6.657847203314304352e-03 -5.965961143374443054e-02 8.572760969400405884e-02 -1.339618861675262451e-01 7.028774358332157135e-03 4.446694999933242798e-02 3.999607264995574951e-02 1.178934276103973389e-01 -1.926399320363998413e-01 1.048181857913732529e-02 -8.230157196521759033e-02 3.902024030685424805e-02 -9.758607484400272369e-03 1.658768020570278168e-02 1.719847507774829865e-02 1.253703236579895020e-01 -9.542857110500335693e-02 -9.175648540258407593e-02 -6.867796182632446289e-02 7.347751408815383911e-03 -7.436092942953109741e-02 1.279601361602544785e-02 -4.917172342538833618e-02 2.841442078351974487e-02 2.062481828033924103e-02 -7.285373657941818237e-02 2.360449917614459991e-02 -4.677262902259826660e-02 1.191926077008247375e-01 4.281867761164903641e-03 9.518752247095108032e-02 2.550940811634063721e-01 -8.025065064430236816e-02 -8.724323660135269165e-02 1.800234802067279816e-02 6.683833431452512741e-03 1.147786155343055725e-01 -1.658606529235839844e-01 -8.440790325403213501e-02 -6.295967614278197289e-04 -8.532833307981491089e-02 -1.203369125723838806e-01 3.970035538077354431e-02 8.413752913475036621e-02 1.322583947330713272e-02 1.701522991061210632e-02 -6.752735376358032227e-02 2.635812759399414062e-02 -1.552157700061798096e-01 1.932615637779235840e-01 1.150850653648376465e-01 -2.108143642544746399e-02 -7.636717706918716431e-02 -5.261420458555221558e-02 1.606446802616119385e-01 -7.959841191768646240e-02 -4.192205891013145447e-02 -1.056773215532302856e-02 -7.419111579656600952e-02 2.537884935736656189e-02 7.406499981880187988e-02 1.226266697049140930e-01 -1.931237243115901947e-02 2.253873087465763092e-02 4.111838713288307190e-02 6.074308231472969055e-02 -5.014495551586151123e-02 -2.009366005659103394e-01 -1.973194628953933716e-02 8.720711618661880493e-02 1.855710521340370178e-02 1.843667775392532349e-02 3.144958615303039551e-02 -1.412240713834762573e-01 2.956250682473182678e-02 -2.730705402791500092e-02 -9.159553796052932739e-02 -1.515785790979862213e-02 -6.469777226448059082e-02 -6.681553274393081665e-02 3.598773106932640076e-02 1.346973776817321777e-01 -1.624420583248138428e-01 8.590400964021682739e-02 4.176324978470802307e-02 2.879552729427814484e-02 3.469643369317054749e-02 -2.103351289406418800e-03 4.197072982788085938e-02 1.694313436746597290e-02 -3.528776392340660095e-02 1.239911094307899475e-01 3.978884592652320862e-02 -1.546859443187713623e-01 5.235703289508819580e-02 6.124310940504074097e-02 1.879692971706390381e-01 1.362125277519226074e-01 -9.349975734949111938e-02 1.369522418826818466e-02 4.262978956103324890e-02 -1.692446507513523102e-02 -7.943831384181976318e-02 1.374557614326477051e-01 -3.027159487828612328e-03 1.031479910016059875e-01 -3.081743232905864716e-02 4.708646610379219055e-02 -5.235966295003890991e-02 2.096791714429855347e-01 -6.568483263254165649e-02 3.278904780745506287e-02 -8.585131913423538208e-02 -7.691734284162521362e-02 8.588394150137901306e-03 1.326600313186645508e-01 -4.617844521999359131e-02 7.324575632810592651e-02 -2.820088341832160950e-02 -5.891384929418563843e-02 -4.332217946648597717e-02 8.092065900564193726e-02 -2.128923544660210609e-03 3.691989928483963013e-02 1.060287132859230042e-01 8.908340334892272949e-02 1.375026255846023560e-02 -6.320500280708074570e-03 -5.366698652505874634e-02 -3.447200730443000793e-02 2.222231775522232056e-02 1.770105212926864624e-02 9.103811532258987427e-02 -1.327118724584579468e-01 1.070573255419731140e-01 -5.923933535814285278e-02 1.275504827499389648e-01 2.529613487422466278e-02 8.680991083383560181e-02 8.455213904380798340e-02 8.062820136547088623e-02 -3.251263499259948730e-02 -2.054598033428192139e-01 1.135403513908386230e-01 -5.632787942886352539e-02 -7.747945189476013184e-02 -4.229272156953811646e-02 -5.534514039754867554e-02 2.882003784179687500e-02 -3.423538431525230408e-02 1.398349106311798096e-01 1.218546330928802490e-01 -2.329158596694469452e-02 1.350307743996381760e-02 8.899849653244018555e-02 5.571125075221061707e-02 -2.517341636121273041e-02 -7.057860493659973145e-02 3.874378278851509094e-02 -1.029741764068603516e-01 -5.823652818799018860e-02 -1.223098114132881165e-01 1.294332742691040039e-02 -2.891372144222259521e-02 8.044872432947158813e-02 1.251141577959060669e-01 1.801929809153079987e-02 1.862754523754119873e-01 -9.445937350392341614e-03 2.789887413382530212e-02 9.646245092153549194e-02 -3.625421971082687378e-02 7.909645885229110718e-02 7.071381900459527969e-03 1.619031652808189392e-02 -7.154221832752227783e-02 -1.274075806140899658e-01 1.217536330223083496e-01 -4.399734735488891602e-02 1.164549067616462708e-01 -9.830748289823532104e-02 2.575254254043102264e-02 -7.674630731344223022e-02 -9.569486975669860840e-02 -1.182637512683868408e-01 8.039641380310058594e-02 -7.355823181569576263e-04 -4.876298084855079651e-02 -6.995280086994171143e-02 1.116725727915763855e-01 -1.632569730281829834e-01 -7.231164723634719849e-02 1.374443620443344116e-01 2.161123231053352356e-02 1.154972910881042480e-01 9.748436510562896729e-02 3.768660873174667358e-02 -1.685294657945632935e-01 -7.036671042442321777e-02 2.068684250116348267e-01 -1.018964052200317383e-01 8.171376585960388184e-02 1.958625018596649170e-01 -2.645698189735412598e-01 -2.042929083108901978e-02 9.840001910924911499e-02 -3.276876732707023621e-02 -7.186360657215118408e-02 -5.189544335007667542e-02 1.453676167875528336e-02 -9.896845370531082153e-02 9.135856479406356812e-02 8.471282571554183960e-02 -1.052426844835281372e-01 6.454418599605560303e-02 -6.018238887190818787e-02 2.058250084519386292e-02 -9.403838962316513062e-02 6.298044323921203613e-02 7.745075970888137817e-02 3.755383938550949097e-02 -1.833122670650482178e-01 1.432405412197113037e-02 -1.536413431167602539e-01 6.460410356521606445e-02 -3.848027437925338745e-02 2.512592123821377754e-03 -8.300732076168060303e-02 5.984153971076011658e-02 -2.855388633906841278e-02 1.060995012521743774e-01 2.410577088594436646e-01 -7.256303727626800537e-02 1.410091668367385864e-01 -1.242316737771034241e-01 3.838215768337249756e-02 -1.858647726476192474e-02 4.167442768812179565e-02 1.316698640584945679e-01 3.840929269790649414e-02 -2.471971660852432251e-01 -9.046559035778045654e-02 -3.374044224619865417e-02 1.980406045913696289e-02 -6.706303451210260391e-03 -1.170917749404907227e-01 1.024630069732666016e-01 -1.423846930265426636e-01 -1.103573441505432129e-01 -2.839268371462821960e-02 -1.329047679901123047e-01 -1.214601323008537292e-01
-9.189581871032714844e-02 1.045394539833068848e-01 -3.262837603688240051e-02 7.532186061143875122e-02 5.902281962335109711e-03 -1.289908885955810547e-01 -2.819884568452835083e-03 9.693282097578048706e-02 -1.272111479192972183e-02 -7.548946887254714966e-03 2.176402881741523743e-02 -1.943966373801231384e-02 1.736450046300888062e-01 1.365421861410140991e-01 -2.008415162563323975e-01 -3.582420200109481812e-02 -7.915099151432514191e-03 -4.854910820722579956e-02 8.146606385707855225e-03 -2.185290493071079254e-02 -7.474526762962341309e-03 1.055904105305671692e-01 6.729768216609954834e-02 -8.560041896998882294e-04 5.997158586978912354e-02 1.656352914869785309e-02 8.785931766033172607e-02 7.080679386854171753e-02 -6.378281116485595703e-02 -3.658620268106460571e-02 -7.216739654541015625e-02 -9.230753034353256226e-02 1.463423203676939011e-02 1.684579998254776001e-01 4.188195616006851196e-02 5.751485750079154968e-02 2.898631244897842407e-02 1.340277791023254395e-01 -6.561666727066040039e-02 2.371201850473880768e-02 -1.580519415438175201e-02 -1.707781106233596802e-01 -5.910873040556907654e-02 -8.335620909929275513e-02 6.165283545851707458e-02 -1.359411180019378662e-01 2.871617674827575684e-02 1.894925385713577271e-01 -5.024312436580657959e-02 5.108181852847337723e-03 1.150441393256187439e-01 -8.797504752874374390e-02 2.887718081474304199e-01 -1.299389004707336426e-01 -5.883920192718505859e-02 3.472970798611640930e-02 -9.056395292282104492e-02 -2.729566954076290131e-02 -7.119782269001007080e-02 -9.076912701129913330e-02 4.476564005017280579e-03 -4.433671385049819946e-02 -2.831754833459854126e-02 -1.064616143703460693e-01 -6.598137319087982178e-02 6.812524050474166870e-03 -4.304511100053787231e-02 -3.061786526814103127e-03 2.486084215342998505e-02 1.664436608552932739e-02 2.620640955865383148e-02 4.129233956336975098e-02 -1.165977045893669128e-01 3.510813415050506592e-02 -2.281029373407363892e-01 -9.522511810064315796e-02 -1.258416473865509033e-01 -5.677298828959465027e-02 -6.785201840102672577e-03 -5.666096881031990051e-02 1.347109675407409668e-01 3.773148357868194580e-02 3.971818462014198303e-02 6.767443381249904633e-03 8.844376355409622192e-02 5.975167080760002136e-02 -1.887048929929733276e-01 1.565128415822982788e-01 9.643212705850601196e-02 -5.272703710943460464e-04 1.432733517140150070e-02 -5.460662394762039185e-02 -5.660545453429222107e-02 5.323118530213832855e-03 -7.619772106409072876e-02 -1.350844353437423706e-01 -6.325477361679077148e-02 -2.200490236282348633e-01 3.526264801621437073e-02 -1.489263307303190231e-02 3.516956791281700134e-02 5.097546428442001343e-02 8.734868466854095459e-02 2.093779854476451874e-02 1.896360814571380615e-01 2.781601846218109131e-01 -2.981974370777606964e-02 6.460076547227799892e-04 -3.904032334685325623e-02 -2.686878107488155365e-02 -1.108433380722999573e-01 -4.417767375707626343e-02 6.877609342336654663e-02 1.104618310928344727e-01 2.072355523705482483e-02 -2.035786770284175873e-02 4.519036784768104553e-02 4.374092817306518555e-02 -5.780779570341110229e-02 1.751634776592254639e-01 4.721776023507118225e-02 -7.610793411731719971e-02 -7.385649532079696655e-02 7.702801376581192017e-02 4.033917188644409180e-02 1.824279874563217163e-02 3.659768402576446533e-02 6.142207980155944824e-02 3.760096617043018341e-03 -1.238908320665359497e-01 1.923576742410659790e-02 7.067642360925674438e-02 -5.422183871269226074e-02 3.123151324689388275e-02 -1.469706594944000244e-01 3.830575942993164062e-02 -1.737883500754833221e-02 -1.484499424695968628e-01 -2.542512305080890656e-02 -1.229814589023590088e-01 -1.257863193750381470e-01 1.369671244174242020e-02 -2.905731461942195892e-02 -8.667477220296859741e-02 -1.245538890361785889e-01 1.158611476421356201e-01 -1.937854290008544922e-01 3.608138486742973328e-02 -1.411424577236175537e-01 1.152428761124610901e-01 -9.283605962991714478e-02 5.013415217399597168e-02 -1.763478517532348633e-01 7.253982871770858765e-02 3.123612701892852783e-02 -9.894384443759918213e-02 3.281529992818832397e-02 1.683091223239898682e-01 -3.563892841339111328e-02 -4.520499333739280701e-02 -1.359085179865360260e-02 -5.797119345515966415e-03 1.516046971082687378e-01 -7.460545748472213745e-02 -6.249328702688217163e-02 -5.712749809026718140e-02 -7.059277035295963287e-03 -1.531063914299011230e-01 -1.269077509641647339e-01 -1.490496546030044556e-01 -3.475029021501541138e-02 4.388467594981193542e-02 1.074517983943223953e-02 2.465330995619297028e-02 3.943788260221481323e-02 -3.726161271333694458e-02 -7.924241572618484497e-02 7.939900457859039307e-02 1.205693781375885010e-01 -5.250195786356925964e-02 -6.790580693632364273e-03 -4.077489301562309265e-02 -2.822059765458106995e-02 -1.531514106318354607e-03 2.416121773421764374e-02 2.183796167373657227e-01 -5.874106287956237793e-02 -4.804104194045066833e-02 1.170827522873878479e-01 2.186869829893112183e-02 -4.926741123199462891e-02 3.699058666825294495e-02 5.182166397571563721e-02 -3.725776448845863342e-03 -7.674589753150939941e-02 -7.635930180549621582e-02 -7.995659857988357544e-02 5.186705663800239563e-02 7.675694674253463745e-02 5.095073720440268517e-04 -1.150963008403778076e-01 1.567124202847480774e-02 7.211779803037643433e-02 -1.452321708202362061e-01 -1.228121891617774963e-01 -1.475425064563751221e-01 -2.082473337650299072e-01 -9.403081238269805908e-02 -7.295554131269454956e-02 5.549130961298942566e-03 -1.490161567926406860e-01 -1.438068002462387085e-01 -8.617567270994186401e-02 -8.110398054122924805e-02 1.599231213331222534e-01 1.054804623126983643e-01 -1.614065282046794891e-02 -7.503365725278854370e-02 -4.350015521049499512e-02 4.286924377083778381e-02 -4.380663484334945679e-02 1.656684726476669312e-01 6.985033303499221802e-02 -5.742304027080535889e-02 2.643622644245624542e-02 8.983483538031578064e-03 -1.705199927091598511e-01 -2.176928706467151642e-02 3.516493737697601318e-02 2.351910993456840515e-02 -2.908805152401328087e-03 1.105391234159469604e-01 1.323687583208084106e-01 -3.737494349479675293e-02 -1.612159609794616699e-01 3.718955069780349731e-02 9.004631079733371735e-03 9.903866052627563477e-02 -3.411072865128517151e-02 -2.881834097206592560e-02 -1.852831244468688965e-02 -7.992654107511043549e-03 3.015377372503280640e-02 4.951667506247758865e-03 1.478877067565917969e-01 -9.604540467262268066e-02 -3.196463361382484436e-02 1.036103665828704834e-01 -1.213099248707294464e-02 -7.789497077465057373e-02 1.940077729523181915e-02 8.083971589803695679e-02 -3.091768920421600342e-02 7.381379604339599609e-02 -1.212368756532669067e-01 2.912055328488349915e-02
-2.231371030211448669e-02 7.225346565246582031e-02 2.150280959904193878e-02 -6.618370860815048218e-02 -5.459002032876014709e-02 4.355978965759277344e-02 -8.814163506031036377e-02 1.470101773738861084e-01 1.084370315074920654e-01 -1.832638978958129883e-01 1.211651861667633057e-01 -3.745217621326446533e-02 4.598918929696083069e-02 4.181913658976554871e-02 6.539928168058395386e-02 6.744889914989471436e-02 -8.829545974731445312e-02 -2.610785188153386116e-03 -2.000337988138198853e-01 -1.297872699797153473e-02 1.677553504705429077e-01 3.723812848329544067e-02 -4.190408810973167419e-02 -7.120615243911743164e-02 -1.713659428060054779e-02 2.365595661103725433e-02 6.493811961263418198e-03 6.983780860900878906e-02 1.647103019058704376e-02 -6.438791751861572266e-02 1.247092708945274353e-01 -8.747226744890213013e-02 1.343935281038284302e-01 1.049081329256296158e-02 3.595803305506706238e-02 -6.324889510869979858e-02 -2.124829143285751343e-01 1.463476419448852539e-01 -2.610055729746818542e-02 -2.409070730209350586e-02 -1.378116160631179810e-01 -4.936913773417472839e-02 1.495478600263595581e-01 7.588381320238113403e-02 -1.631658151745796204e-02 -1.163019910454750061e-01 -3.502402454614639282e-02 -5.217022448778152466e-02 -4.336750879883766174e-02 -9.716083109378814697e-02 -1.934402622282505035e-03 -1.109896004199981689e-01 -1.896596327424049377e-02 3.544171527028083801e-02 -5.007723346352577209e-02 1.058315858244895935e-02 4.246260970830917358e-02 -1.157431229948997498e-01 -5.011685192584991455e-02 -9.458382427692413330e-02 1.374232321977615356e-01 3.790572658181190491e-02 -1.439745537936687469e-02 1.138661429286003113e-02 1.830129027366638184e-01 2.832435630261898041e-02 2.025496810674667358e-01 1.397565938532352448e-02 5.106541514396667480e-02 8.089651912450790405e-02 7.128629833459854126e-02 5.885045230388641357e-02 -5.578475445508956909e-02 -1.023132950067520142e-01 -3.279076889157295227e-02 2.910070307552814484e-02 -2.028055638074874878e-01 1.146208792924880981e-01 8.383301645517349243e-02 -1.046824753284454346e-01 4.614843800663948059e-02 -7.305323611944913864e-03 2.748571336269378662e-02 8.500918745994567871e-02 2.872340194880962372e-02 1.498202383518218994e-01 -7.795923203229904175e-02 5.719723179936408997e-02 -1.309912931174039841e-02 -4.862125962972640991e-02 1.577454432845115662e-02 1.772531419992446899e-01 -4.297980293631553650e-02 1.851319894194602966e-02 -1.528991758823394775e-01 -3.778933361172676086e-02 7.618042826652526855e-02 3.077801503241062164e-02 1.938681751489639282e-01 -1.056165248155593872e-01 1.402962356805801392e-01 -3.170720301568508148e-03 -2.174273505806922913e-02 -1.518561318516731262e-02 -6.161833554506301880e-02 -7.628792524337768555e-02 3.551236912608146667e-02 -1.045124512165784836e-02 8.716579526662826538e-02 1.637620478868484497e-01 -3.792594373226165771e-02 -1.471676230430603027e-01 1.673563569784164429e-01 -5.869963020086288452e-02 3.558186441659927368e-02 -2.824620343744754791e-02 9.441012144088745117e-02 -4.245689138770103455e-02 5.932739004492759705e-02 -8.204442262649536133e-02 -1.743267476558685303e-01 -5.042961798608303070e-03 4.862309619784355164e-02 7.964525371789932251e-02 -1.226212903857231140e-01 -1.026375666260719299e-01 -1.021236330270767212e-01 -1.459190994501113892e-01 -2.817072570323944092e-01 8.092010766267776489e-02 -9.209366142749786377e-02 -2.898225188255310059e-02 6.513614952564239502e-02 -1.307592540979385376e-01 4.673441126942634583e-02 8.660858869552612305e-02 9.009078145027160645e-02 -1.601790040731430054e-01 -3.077342547476291656e-02 -1.281888037919998169e-01 -5.443490296602249146e-02 1.191526874899864197e-01 -1.772760450839996338e-01 -1.897736079990863800e-02 6.464789062738418579e-02 -1.450427919626235962e-01 -4.662070050835609436e-02 1.069925054907798767e-01 1.094602942466735840e-01 1.201426237821578979e-01 -4.323929920792579651e-02 5.940697714686393738e-02 9.681217372417449951e-02 -6.912188977003097534e-02 -2.384164556860923767e-02 3.219706937670707703e-02 7.091517001390457153e-02 -5.166522692888975143e-03 7.862472534179687500e-02 -1.290344446897506714e-01 7.727023214101791382e-02 -2.612236328423023224e-02 -8.709471672773361206e-02 -7.059230655431747437e-02 -1.675365492701530457e-02 -5.793605372309684753e-02 6.646176427602767944e-02 1.042392700910568237e-01 4.520981572568416595e-03 2.001824676990509033e-01 6.643500179052352905e-02 -1.373641043901443481e-01 3.298876062035560608e-02 -1.024466380476951599e-01 -8.215667307376861572e-02 8.843138813972473145e-02 1.273103207349777222e-01 9.280274808406829834e-02 9.289964102208614349e-03 9.020808339118957520e-02 1.263229176402091980e-02 -6.032630801200866699e-02 -5.958607420325279236e-03 1.268126368522644043e-01 -1.832014173269271851e-01 1.025706529617309570e-02 -5.339436233043670654e-02 8.522366173565387726e-03 8.200804889202117920e-02 2.508612582460045815e-03 -1.647921353578567505e-01 -1.193202212452888489e-01 -1.161902993917465210e-01 -7.636439800262451172e-02 -4.384481534361839294e-02 9.371803142130374908e-03 -9.463477879762649536e-02 -1.723149046301841736e-02 6.333363056182861328e-02 4.334783926606178284e-02 -3.538293391466140747e-02 7.473219931125640869e-02 -1.858582943677902222e-01 -6.077753752470016479e-02 5.716757103800773621e-02 3.206340968608856201e-02 4.030973464250564575e-02 1.438874155282974243e-01 -1.731588877737522125e-02 -7.147798687219619751e-02 -4.542247205972671509e-02 1.101616546511650085e-01 2.159586735069751740e-02 5.033179372549057007e-02 -5.722467228770256042e-02 3.932414203882217407e-02 7.935154438018798828e-02 1.041886582970619202e-01 -2.125252336263656616e-01 8.484352147206664085e-04 1.059898734092712402e-01 8.521238714456558228e-02 -9.937697649002075195e-02 -3.573339059948921204e-02 -5.352757498621940613e-02 4.899877682328224182e-02 4.006799310445785522e-02 2.618551487103104591e-03 2.209150642156600952e-01 -6.515943259000778198e-02 2.430249378085136414e-02 6.341645959764719009e-03 -4.575496539473533630e-02 6.113607436418533325e-03 -6.686368584632873535e-02 -5.709776654839515686e-02 1.280951350927352905e-01 5.433352198451757431e-03 -5.285902321338653564e-02 4.381022974848747253e-02 -2.380471862852573395e-02 -1.439502388238906860e-01 -3.304064646363258362e-02 1.460639685392379761e-01 -4.609856754541397095e-02 -1.113611981272697449e-01 -6.612096726894378662e-02 -4.805639013648033142e-02 1.123746559023857117e-01 -1.763142272830009460e-02 7.019896805286407471e-02 -3.956937417387962341e-02 -1.882305555045604706e-02 -1.033402280882000923e-03 6.401501595973968506e-02 -3.138436377048492432e-02
3.308689221739768982e-02 1.000341549515724182e-01 -5.487967282533645630e-02 1.942208260297775269e-01 1.870365999639034271e-02 -1.260935217142105103e-01 1.459293663501739502e-01 9.013936668634414673e-02 -1.232265010476112366e-01 5.615008994936943054e-02 -4.424161836504936218e-02 4.350135102868080139e-02 1.730525940656661987e-01 1.115929055958986282e-02 -7.980228215456008911e-02 5.005995929241180420e-02 -2.986215986311435699e-02 -3.903722157701849937e-03 -7.699766755104064941e-02 1.392167061567306519e-01 -8.400339633226394653e-02 1.794780418276786804e-02 -6.676507741212844849e-02 4.473885893821716309e-02 -5.925106815993785858e-04 8.209276944398880005e-02 2.093573808670043945e-01 -2.661008387804031372e-02 9.099185466766357422e-03 1.239114478230476379e-01 -3.487226739525794983e-02 2.350568026304244995e-02 -1.683742851018905640e-01 1.362596452236175537e-01 -5.010981485247612000e-02 5.007528141140937805e-02 1.254479736089706421e-01 -1.120419129729270935e-01 8.574558049440383911e-02 -5.468082055449485779e-02 -1.410755887627601624e-02 -2.867804653942584991e-02 -1.299521028995513916e-01 1.286250352859497070e-01 -2.652293629944324493e-02 1.140754148364067078e-01 5.877234041690826416e-02 -1.301618367433547974e-01 5.498599261045455933e-02 -8.582159876823425293e-02 6.730077415704727173e-02 8.828008174896240234e-02 1.367278248071670532e-01 9.885314106941223145e-02 1.097893491387367249e-01 5.452700704336166382e-02 -1.299939006567001343e-01 4.678627476096153259e-02 -1.464842408895492554e-01 -6.847341358661651611e-02 7.837701588869094849e-02 6.025338172912597656e-02 -5.702289193868637085e-02 1.098797619342803955e-01 1.547192931175231934e-01 6.062957458198070526e-03 1.115213846787810326e-03 3.320583701133728027e-02 -1.336807459592819214e-01 -2.840539254248142242e-02 2.407003007829189301e-02 5.765888467431068420e-02 -8.140589296817779541e-02 -8.317529410123825073e-02 1.673546880483627319e-01 5.212616547942161560e-02 -2.727673575282096863e-02 -1.655375771224498749e-02 -3.616657853126525879e-02 -8.667649328708648682e-02 -4.969916120171546936e-02 -6.396306306123733521e-02 -1.252130717039108276e-01 5.376689881086349487e-02 6.016693636775016785e-02 5.207801982760429382e-02 8.321961760520935059e-02 1.630056067369878292e-03 5.283198133111000061e-02 -1.214307174086570740e-01 1.404146254062652588e-01 2.117446996271610260e-02 8.930033445358276367e-02 1.441989280283451080e-02 -2.019462175667285919e-03 1.563585177063941956e-02 1.643569320440292358e-01 9.907729178667068481e-02 1.120694633573293686e-02 9.716868400573730469e-03 7.995167374610900879e-02 -5.867337435483932495e-02 -1.527179405093193054e-02 -2.360993996262550354e-02 -3.492414718493819237e-03 1.056719943881034851e-01 -1.912298053503036499e-01 3.093704879283905029e-01 5.897377803921699524e-02 -1.214617267251014709e-01 -1.368563175201416016e-01 -2.617686428129673004e-02 -8.048219978809356689e-02 -1.038281619548797607e-01 -1.621662266552448273e-02 3.455632552504539490e-02 3.326515480875968933e-02 -1.266211830079555511e-02 -3.564945608377456665e-02 8.537762612104415894e-02 6.957251578569412231e-02 8.524692058563232422e-02 1.826817542314529419e-01 -1.603662967681884766e-01 -4.395026713609695435e-02 -1.649218983948230743e-02 -4.658817127346992493e-02 -8.481123298406600952e-02 -6.413983181118965149e-03 3.218445181846618652e-02 3.319818526506423950e-02 3.505624830722808838e-02 -4.549896344542503357e-02 6.803932040929794312e-02 -3.933089785277843475e-03 2.436334267258644104e-02 -9.474811702966690063e-02 -2.178416959941387177e-02 -1.232416275888681412e-02 2.140545751899480820e-03 1.317792236804962158e-01 -9.521631523966789246e-03 -5.675919726490974426e-02 -9.905099868774414062e-02 2.446301095187664032e-02 2.655227296054363251e-02 9.013114869594573975e-02 5.116441473364830017e-02 6.406580563634634018e-03 1.351931989192962646e-01 -4.629877582192420959e-02 -4.157217592000961304e-02 1.040327548980712891e-01 1.162330061197280884e-02 -1.066243126988410950e-01 -1.062456816434860229e-01 -1.252723485231399536e-01 8.932116179494187236e-05 9.238217771053314209e-02 -1.136275231838226318e-01 8.172743767499923706e-02 -2.841108106076717377e-02 3.175237774848937988e-02 -3.348089754581451416e-02 1.742404326796531677e-02 -5.842413753271102905e-02 3.756770119071006775e-02 5.848959833383560181e-02 -1.627040803432464600e-01 -4.610007256269454956e-02 -9.107545018196105957e-02 -8.403696119785308838e-02 -2.843384444713592529e-02 -3.445147722959518433e-02 2.096015810966491699e-01 3.772310167551040649e-02 4.520971700549125671e-02 -2.683066204190254211e-02 7.134797424077987671e-02 1.660079956054687500e-01 1.182219088077545166e-01 6.773101538419723511e-02 9.688537567853927612e-03 9.920734167098999023e-02 5.640806257724761963e-02 -3.155599348247051239e-03 -1.497117336839437485e-02 4.398867860436439514e-02 2.061205953359603882e-01 -2.402653247117996216e-01 -9.670627862215042114e-02 -8.334995806217193604e-02 2.266512438654899597e-02 -5.675462260842323303e-02 1.590147167444229126e-01 2.132802009582519531e-01 -2.304439619183540344e-02 -6.577485799789428711e-02 2.680648677051067352e-02 -1.265975683927536011e-01 1.460726372897624969e-02 -5.585541483014822006e-03 -1.175109073519706726e-01 1.752634495496749878e-01 -2.363021373748779297e-01 -2.996431104838848114e-02 -6.086643785238265991e-02 9.741338901221752167e-03 -1.845349818468093872e-01 -8.361823856830596924e-02 -1.837107911705970764e-02 5.575502291321754456e-02 -5.567638203501701355e-02 -1.366759836673736572e-01 7.178782671689987183e-02 8.136281743645668030e-03 1.773969382047653198e-01 8.174864202737808228e-02 1.970523782074451447e-02 -7.307265698909759521e-02 1.115669775754213333e-02 -1.345211267471313477e-01 9.698425978422164917e-02 5.542798712849617004e-02 9.382881224155426025e-02 -1.260671615600585938e-01 1.625438034534454346e-01 -1.071152091026306152e-01 1.725235730409622192e-01 7.548722624778747559e-02 -8.492176979780197144e-02 -7.351528108119964600e-02 -8.207100629806518555e-02 -2.491405978798866272e-02 1.201554108411073685e-02 -6.200863048434257507e-02 6.881111860275268555e-02 -1.360883656889200211e-02 -7.377063482999801636e-02 -2.861837483942508698e-02 -1.142902895808219910e-01 2.986052632331848145e-02 -6.021631881594657898e-02 5.313952267169952393e-02 5.368769541382789612e-02 6.899970024824142456e-02 7.771217077970504761e-02 9.876429289579391479e-02 -4.785692319273948669e-03 6.263275444507598877e-02 -2.075943723320960999e-02 6.728462129831314087e-02 2.056459933519363403e-01 4.754321649670600891e-03 -3.679225919768214226e-03 -7.750582695007324219e-02
-2.518462203443050385e-02 -1.567018181085586548e-01 2.595755085349082947e-02 -1.621905714273452759e-02 -8.725494146347045898e-02 1.099240127950906754e-02 3.131787106394767761e-02 -5.845697224140167236e-02 -8.429720252752304077e-02 -5.070983991026878357e-02 3.361694747582077980e-03 -1.905156672000885010e-01 6.117958202958106995e-02 3.317590430378913879e-02 -9.642858989536762238e-03 5.948080122470855713e-02 -1.470683049410581589e-02 3.926646709442138672e-02 1.432673186063766479e-01 7.925849407911300659e-02 -4.919615015387535095e-02 8.079939335584640503e-02 -8.864354342222213745e-02 1.605979050509631634e-03 -1.203922927379608154e-02 9.291374683380126953e-02 7.112392783164978027e-02 -1.176711618900299072e-01 2.579283714294433594e-01 -1.467635482549667358e-01 1.151892170310020447e-01 4.374849423766136169e-02 -1.281709671020507812e-01 5.434047058224678040e-02 1.600313931703567505e-01 -2.269942127168178558e-02 -6.013556942343711853e-02 7.528448104858398438e-02 2.427789568901062012e-02 -1.359342504292726517e-02 6.153686717152595520e-02 -8.570186048746109009e-02 5.154623184353113174e-03 1.531506329774856567e-01 7.165874540805816650e-02 -1.282042413949966431e-01 1.173912659287452698e-01 -1.130368709564208984e-01 -8.213923126459121704e-02 -5.316917598247528076e-02 5.013248324394226074e-02 6.617525964975357056e-02 3.379655536264181137e-03 7.278443127870559692e-02 -8.350773155689239502e-02 1.089764162898063660e-01 3.939064964652061462e-02 1.428376585245132446e-01 -1.035218611359596252e-01 7.440714538097381592e-02 2.096435129642486572e-01 3.286999091506004333e-02 -7.679898291826248169e-02 7.516013830900192261e-02 -8.497194387018680573e-03 9.553810954093933105e-02 -7.209806889295578003e-02 3.175644576549530029e-02 8.178953826427459717e-02 1.167650148272514343e-01 -8.556586503982543945e-02 1.470747888088226318e-01 5.778340250253677368e-02 -9.223350137472152710e-02 -7.852970063686370850e-02 -1.309267580509185791e-01 -1.037757620215415955e-01 -6.516987085342407227e-02 1.663584113121032715e-01 -1.750339716672897339e-01 -7.076188176870346069e-02 3.366249427199363708e-02 1.654715277254581451e-02 1.118609979748725891e-01 -7.332620769739151001e-02 4.818445071578025818e-03 -4.537636414170265198e-02 4.371080547571182251e-02 -6.590995192527770996e-02 7.303347438573837280e-02 -1.023019254207611084e-01 3.827675431966781616e-02 2.846171893179416656e-02 3.764550387859344482e-02 3.253267332911491394e-02 -6.259206682443618774e-02 2.070832252502441406e-01 -1.561532914638519287e-01 1.039091870188713074e-02 -1.959582865238189697e-01 -3.594145178794860840e-02 2.214994281530380249e-02 -8.601109683513641357e-02 -2.059577964246273041e-02 4.912091046571731567e-02 -6.420621275901794434e-02 -2.093140482902526855e-01 -1.288223452866077423e-02 1.109378039836883545e-01 -4.308144375681877136e-02 1.759181767702102661e-01 -2.907225117087364197e-02 1.799721457064151764e-02 -2.220072783529758453e-02 5.556494370102882385e-02 -1.822341084480285645e-01 4.932411015033721924e-02 2.721003256738185883e-03 -2.966694533824920654e-02 5.968959257006645203e-02 -9.532596915960311890e-03 3.167071193456649780e-02 1.576635614037513733e-02 1.684946268796920776e-01 3.171183913946151733e-02 1.708552688360214233e-01 -5.358077585697174072e-02 1.051362305879592896e-01 1.250653117895126343e-01 1.786021701991558075e-02 -1.762064173817634583e-03 8.891632407903671265e-02 -7.452408969402313232e-02 -2.694935910403728485e-02 6.857366859912872314e-02 7.772251963615417480e-02 -1.503160782158374786e-02 1.820510923862457275e-01 3.524436429142951965e-02 2.389718219637870789e-02 2.738857455551624298e-02 1.122254505753517151e-01 8.943907171487808228e-02 -5.208513885736465454e-02 8.250335603952407837e-02 9.208789467811584473e-02 3.602843731641769409e-02 1.980254426598548889e-02 -1.458772569894790649e-01 -1.810185378417372704e-03 6.706289947032928467e-02 3.802310675382614136e-03 -1.246958374977111816e-01 -1.501184105873107910e-01 3.396363928914070129e-02 -8.093750104308128357e-03 -8.907587826251983643e-02 -6.192653626203536987e-02 -9.244232624769210815e-02 -1.442038640379905701e-02 6.516980379819869995e-02 8.402895927429199219e-02 1.288057714700698853e-01 5.853426083922386169e-02 8.028457313776016235e-02 6.423851102590560913e-02 -7.385747134685516357e-02 -1.620658785104751587e-01 6.289599835872650146e-02 1.699973195791244507e-01 6.389077752828598022e-02 4.962069541215896606e-02 -3.215900436043739319e-02 -7.809241116046905518e-02 5.011480674147605896e-02 1.349890828132629395e-01 1.236743759363889694e-02 -5.224328860640525818e-02 -3.713188320398330688e-02 -7.487728446722030640e-02 9.286426752805709839e-02 5.032929778099060059e-02 8.489695936441421509e-02 7.885311543941497803e-02 1.268745958805084229e-02 -8.283801376819610596e-02 2.394971996545791626e-02 3.675164887681603432e-03 -4.743864014744758606e-02 8.863534778356552124e-03 -7.768979668617248535e-02 -1.756839267909526825e-02 1.434332132339477539e-01 2.094830125570297241e-01 2.895462699234485626e-02 2.251507714390754700e-02 -7.966962456703186035e-02 -6.581679452210664749e-03 1.369740813970565796e-01 1.237007975578308105e-02 -4.683271422982215881e-02 4.063611850142478943e-02 9.030922502279281616e-02 -5.684510245919227600e-02 1.778206825256347656e-01 6.795961409807205200e-02 -5.708506703376770020e-02 5.836383905261754990e-03 -1.407621055841445923e-01 5.804243497550487518e-03 -9.263195842504501343e-02 2.223829925060272217e-02 3.978138789534568787e-02 -1.197635778225958347e-03 1.322430819272994995e-01 1.451115906238555908e-01 1.125480309128761292e-01 1.387284602969884872e-03 4.760283976793289185e-02 3.734068945050239563e-02 1.458386331796646118e-01 -1.765656471252441406e-01 3.210086375474929810e-02 -6.044686213135719299e-02 -1.678968369960784912e-01 2.644011005759239197e-02 -1.181565411388874054e-02 1.292104274034500122e-01 -1.839534379541873932e-02 -1.389120519161224365e-01 -2.298920648172497749e-03 -1.623636037111282349e-01 -4.269016906619071960e-02 -1.926036030054092407e-01 7.259988225996494293e-03 -7.098646461963653564e-02 -2.325011976063251495e-02 -1.360591500997543335e-01 -3.445553034543991089e-02 1.800900511443614960e-02 -8.133181929588317871e-02 5.192228034138679504e-02 4.927546158432960510e-02 6.609169300645589828e-03 1.607127785682678223e-01 8.778759278357028961e-03 -1.167677789926528931e-01 -1.270463597029447556e-02 2.991343475878238678e-02 -2.334071695804595947e-02 -2.281663864850997925e-01 -3.131540259346365929e-03 2.599353343248367310e-02 -2.671146951615810394e-02 4.055728204548358917e-03 -5.257492884993553162e-03
-8.031199872493743896e-02 9.667330235242843628e-02 -1.604262180626392365e-02 1.256407704204320908e-03 -1.330707222223281860e-01 1.151627898216247559e-01 -7.404354959726333618e-02 2.149364538490772247e-02 4.148563370108604431e-02 -5.146244075149297714e-03 1.345198005437850952e-01 2.149837964680045843e-04 2.226192802190780640e-01 -2.300964891910552979e-01 8.027887344360351562e-02 -1.066199764609336853e-01 1.219383775605820119e-04 -1.366590149700641632e-02 -5.838709697127342224e-02 -6.248027458786964417e-02 -1.582480818033218384e-01 -1.948343776166439056e-02 9.067243337631225586e-02 -3.583632037043571472e-02 -3.133733524009585381e-03 4.868965223431587219e-02 3.761439397931098938e-02 4.471695795655250549e-02 3.572610393166542053e-02 6.262655556201934814e-02 1.115935593843460083e-01 6.011627241969108582e-02 6.368710100650787354e-02 8.563838154077529907e-02 7.455877214670181274e-02 1.553780585527420044e-01 5.195431411266326904e-02 5.020401626825332642e-02 -8.043622970581054688e-02 2.272085100412368774e-02 -5.387995392084121704e-02 9.491107612848281860e-02 7.910260558128356934e-02 -2.348149567842483521e-02 -6.345205008983612061e-02 9.449099004268646240e-02 7.984936982393264771e-02 8.216761052608489990e-02 1.209568604826927185e-02 4.620677791535854340e-03 -2.528657950460910797e-02 1.266215741634368896e-01 -2.110091224312782288e-02 -5.676319077610969543e-02 -1.844070153310894966e-03 2.132910937070846558e-01 6.452737748622894287e-02 -3.978735208511352539e-02 1.254362016916275024e-01 -1.793559640645980835e-02 2.727138809859752655e-02 5.495071783661842346e-02 -4.892479255795478821e-02 1.725923456251621246e-02 6.682470440864562988e-03 4.387308657169342041e-02 1.419990658760070801e-01 -7.581756263971328735e-02 6.848634034395217896e-02 2.889707311987876892e-02 1.529155522584915161e-01 -8.203390985727310181e-03 -5.891580879688262939e-02 -2.328157424926757812e-02 7.130211591720581055e-02 1.610599271953105927e-02 -5.793926864862442017e-02 3.095523454248905182e-02 -3.633248805999755859e-02 -2.910331077873706818e-02 -5.840342957526445389e-03 -8.679156750440597534e-02 2.152194231748580933e-01 -1.477064639329910278e-01 -1.123935058712959290e-01 -1.375283766537904739e-02 1.142178550362586975e-01 -1.428242772817611694e-01 3.022748976945877075e-02 2.044928520917892456e-01 1.009070053696632385e-01 1.499559450894594193e-02 2.528827870264649391e-03 1.633709296584129333e-02 -2.892889827489852905e-02 -1.100568249821662903e-01 -1.170249357819557190e-01 -1.425241827964782715e-01 -8.200258761644363403e-02 -9.734732098877429962e-03 3.093945793807506561e-02 1.081764027476310730e-01 3.442168468609452248e-03 2.227722108364105225e-01 -7.338283956050872803e-02 1.604540348052978516e-01 1.422555558383464813e-02 4.221879318356513977e-02 6.857232004404067993e-02 -1.342765986919403076e-01 1.469868794083595276e-02 1.149932295083999634e-01 4.345046356320381165e-02 -1.569455415010452271e-01 -1.045589894056320190e-02 -1.585435420274734497e-01 7.024048268795013428e-02 -1.588799804449081421e-01 -5.505703389644622803e-03 4.151587560772895813e-02 5.630486458539962769e-02 -5.284168571233749390e-02 1.312411390244960785e-02 1.802791804075241089e-01 1.021790057420730591e-01 -1.408942341804504395e-01 7.554043829441070557e-02 -2.313211001455783844e-02 5.466993153095245361e-02 4.927486181259155273e-02 -3.558617830276489258e-02 -1.404287852346897125e-02 -9.757225401699542999e-03 1.245238706469535828e-01 -4.402605444192886353e-02 1.373588293790817261e-01 -3.891149908304214478e-02 -4.980009794235229492e-02 -3.863745927810668945e-02 -1.405669599771499634e-01 7.077065110206604004e-02 -5.573233962059020996e-02 -1.171998586505651474e-02 5.144468322396278381e-02 1.670360378921031952e-02 5.055696517229080200e-02 5.713160708546638489e-02 6.443578004837036133e-02 -1.324304938316345215e-01 -3.994418773800134659e-03 -1.139748767018318176e-01 8.273851871490478516e-02 -3.828416764736175537e-02 -6.236752867698669434e-02 -5.613312125205993652e-02 8.828071504831314087e-02 4.703466221690177917e-02 1.556227505207061768e-01 4.525287821888923645e-02 7.344017177820205688e-02 6.595087796449661255e-02 8.167450875043869019e-02 2.589557506144046783e-02 -1.148896887898445129e-01 8.994475752115249634e-02 7.090965658426284790e-02 -5.824519693851470947e-02 5.395738780498504639e-02 -3.665132075548171997e-02 -2.592668123543262482e-02 2.057098783552646637e-02 -7.782497256994247437e-02 2.232390642166137695e-01 1.300923526287078857e-02 -1.673043519258499146e-02 -2.522555887699127197e-01 9.414467960596084595e-02 2.274355152621865273e-03 -1.888466030359268188e-01 -7.147720456123352051e-02 -1.097431555390357971e-01 1.191972419619560242e-01 1.289802021346986294e-03 1.155079007148742676e-01 2.703466080129146576e-02 4.948607832193374634e-02 -2.826562151312828064e-02 -8.605398237705230713e-02 -2.033930867910385132e-01 -1.345391869544982910e-01 1.015280485153198242e-01 -2.682780101895332336e-02 5.469359457492828369e-02 -4.004258289933204651e-02 -1.720070280134677887e-02 -1.068112906068563461e-02 7.645735889673233032e-02 -1.206617280840873718e-01 -1.467000395059585571e-01 1.036388874053955078e-01 -1.951102167367935181e-02 -6.449357420206069946e-02 -1.860035657882690430e-01 7.696628570556640625e-02 -1.013041064143180847e-01 1.362333744764328003e-01 -2.989131957292556763e-03 -1.005440205335617065e-01 2.920281141996383667e-02 -1.303068846464157104e-01 -1.960218846797943115e-01 6.462448090314865112e-02 -9.599617123603820801e-02 1.506729610264301300e-02 -3.265146166086196899e-02 1.063032299280166626e-01 -4.511720035225152969e-03 2.569418586790561676e-02 1.007036119699478149e-01 4.825754463672637939e-02 1.327840387821197510e-01 -5.691410973668098450e-02 2.293488755822181702e-02 1.264694631099700928e-01 -6.194250285625457764e-02 -1.455303132534027100e-01 -7.909549772739410400e-02 6.198301911354064941e-03 8.716109208762645721e-03 6.713896244764328003e-02 6.407565623521804810e-02 1.528248377144336700e-02 -3.260621801018714905e-02 1.764053106307983398e-02 -2.083494327962398529e-03 -1.405860632658004761e-01 9.146797470748424530e-03 -1.108935251832008362e-01 4.331408068537712097e-02 -2.484280848875641823e-03 -1.194585412740707397e-01 -4.256850108504295349e-02 9.935500100255012512e-03 4.273485392332077026e-02 7.457607984542846680e-02 3.162365173920989037e-03 -4.286498948931694031e-02 -8.841839432716369629e-02 1.492934972047805786e-01 1.273543089628219604e-01 -3.710735589265823364e-02 -7.459825277328491211e-02 2.256088554859161377e-01 2.928954735398292542e-02 1.164644435048103333e-01 1.264768838882446289e-01
